1 0.57
-1 0.43000000000000005
2 0.76
-2 0.24
3 0.13
-3 0.87
4 0.7
-4 0.30000000000000004
5 0.36
-5 0.64
6 0.76
-6 0.24
7 0.93
-7 0.06999999999999995
8 0.07
-8 0.9299999999999999
9 0.86
-9 0.14
10 0.67
-10 0.32999999999999996
11 0.39
-11 0.61
12 0.35
-12 0.65
13 0.18
-13 0.8200000000000001
14 0.01
-14 0.99
15 0.63
-15 0.37
16 0.25
-16 0.75
17 0.75
-17 0.25
18 0.97
-18 0.030000000000000027
19 0.88
-19 0.12
20 0.2
-20 0.8
21 0.6
-21 0.4
22 0.65
-22 0.35
23 0.65
-23 0.35
24 0.43
-24 0.5700000000000001
25 0.97
-25 0.030000000000000027
26 0.97
-26 0.030000000000000027
27 0.57
-27 0.43000000000000005
28 0.01
-28 0.99
29 0.35
-29 0.65
30 0.61
-30 0.39
31 0.24
-31 0.76
32 0.58
-32 0.42000000000000004
33 0.02
-33 0.98
34 0.9
-34 0.09999999999999998
35 0.84
-35 0.16000000000000003
36 0.9
-36 0.09999999999999998
37 0.35
-37 0.65
38 0.31
-38 0.69
39 0.6
-39 0.4
40 0.12
-40 0.88
41 0.98
-41 0.020000000000000018
42 0.66
-42 0.33999999999999997
43 0.91
-43 0.08999999999999997
44 0.7
-44 0.30000000000000004
45 0.19
-45 0.81
46 0.1
-46 0.9
47 0.44
-47 0.56
48 0.95
-48 0.050000000000000044
49 0.18
-49 0.8200000000000001
50 0.05
-50 0.95
51 0.31
-51 0.69
52 0.96
-52 0.040000000000000036
53 0.28
-53 0.72
54 0.28
-54 0.72
55 0.26
-55 0.74
56 0.24
-56 0.76
57 0.42
-57 0.5800000000000001
58 0.83
-58 0.17000000000000004
59 0.57
-59 0.43000000000000005
60 0.47
-60 0.53
61 0.7
-61 0.30000000000000004
62 0.46
-62 0.54
63 0.23
-63 0.77
64 0.8
-64 0.19999999999999996
65 0.65
-65 0.35
66 0.21
-66 0.79
67 0.77
-67 0.22999999999999998
68 0.86
-68 0.14
69 0.2
-69 0.8
70 0.4
-70 0.6
71 0.32
-71 0.6799999999999999
72 0.31
-72 0.69
73 0.42
-73 0.5800000000000001
74 0.92
-74 0.07999999999999996
75 0.87
-75 0.13
76 0.51
-76 0.49
77 0.06
-77 0.94
78 0.79
-78 0.20999999999999996
79 0.54
-79 0.45999999999999996
80 0.13
-80 0.87
81 0.3
-81 0.7
82 0.03
-82 0.97
83 0.49
-83 0.51
84 0.11
-84 0.89
85 0.5
-85 0.5
86 0.16
-86 0.84
87 0.89
-87 0.10999999999999999
88 0.69
-88 0.31000000000000005
89 0.86
-89 0.14
90 0.2
-90 0.8
91 0.42
-91 0.5800000000000001
92 0.58
-92 0.42000000000000004
93 0.91
-93 0.08999999999999997
94 0.49
-94 0.51
95 0.39
-95 0.61
96 0.42
-96 0.5800000000000001
97 0.18
-97 0.8200000000000001
98 0.74
-98 0.26
99 0.83
-99 0.17000000000000004
100 0.8
-100 0.19999999999999996
