1 0.52
-1 0.48
2 0.36
-2 0.64
3 0.42
-3 0.5800000000000001
4 0.07
-4 0.9299999999999999
5 0.02
-5 0.98
6 0.61
-6 0.39
7 0.14
-7 0.86
8 0.73
-8 0.27
9 0.17
-9 0.83
10 0.98
-10 0.020000000000000018
11 0.1
-11 0.9
12 0.12
-12 0.88
13 0.97
-13 0.030000000000000027
14 0.01
-14 0.99
15 0.23
-15 0.77
16 0.56
-16 0.43999999999999995
17 0.16
-17 0.84
18 0.61
-18 0.39
19 0.56
-19 0.43999999999999995
20 0.52
-20 0.48
21 0.89
-21 0.10999999999999999
22 0.59
-22 0.41000000000000003
23 0.29
-23 0.71
24 0.43
-24 0.5700000000000001
25 0.08
-25 0.92
26 0.51
-26 0.49
27 0.82
-27 0.18000000000000005
28 0.67
-28 0.32999999999999996
29 0.82
-29 0.18000000000000005
30 0.08
-30 0.92
31 0.95
-31 0.050000000000000044
32 0.28
-32 0.72
33 0.48
-33 0.52
34 0.29
-34 0.71
35 0.41
-35 0.5900000000000001
36 0.01
-36 0.99
37 0.51
-37 0.49
38 0.44
-38 0.56
39 0.49
-39 0.51
40 0.28
-40 0.72
41 0.43
-41 0.5700000000000001
42 0.34
-42 0.6599999999999999
43 0.87
-43 0.13
44 0.39
-44 0.61
45 0.2
-45 0.8
46 0.83
-46 0.17000000000000004
47 0.27
-47 0.73
48 0.56
-48 0.43999999999999995
49 0.71
-49 0.29000000000000004
50 0.31
-50 0.69
51 0.65
-51 0.35
52 0.9
-52 0.09999999999999998
53 0.46
-53 0.54
54 0.02
-54 0.98
55 0.47
-55 0.53
56 0.37
-56 0.63
57 0.11
-57 0.89
58 0.81
-58 0.18999999999999995
59 0.49
-59 0.51
60 0.24
-60 0.76
61 0.46
-61 0.54
62 0.68
-62 0.31999999999999995
63 0.27
-63 0.73
64 0.18
-64 0.8200000000000001
65 0.03
-65 0.97
66 0.31
-66 0.69
67 0.42
-67 0.5800000000000001
68 0.76
-68 0.24
69 0.75
-69 0.25
70 0.98
-70 0.020000000000000018
71 0.56
-71 0.43999999999999995
72 0.74
-72 0.26
73 0.35
-73 0.65
74 0.11
-74 0.89
75 0.04
-75 0.96
76 0.15
-76 0.85
77 0.22
-77 0.78
78 0.05
-78 0.95
79 0.18
-79 0.8200000000000001
80 0.42
-80 0.5800000000000001
81 0.66
-81 0.33999999999999997
82 0.14
-82 0.86
83 0.82
-83 0.18000000000000005
84 0.85
-84 0.15000000000000002
85 0.31
-85 0.69
86 0.36
-86 0.64
87 0.98
-87 0.020000000000000018
88 0.92
-88 0.07999999999999996
89 0.45
-89 0.55
90 0.81
-90 0.18999999999999995
91 0.39
-91 0.61
92 0.4
-92 0.6
93 0.09
-93 0.91
94 0.25
-94 0.75
95 0.78
-95 0.21999999999999997
96 0.78
-96 0.21999999999999997
97 0.29
-97 0.71
98 0.4
-98 0.6
99 0.77
-99 0.22999999999999998
100 0.39
-100 0.61
