1 0.56
-1 0.43999999999999995
2 0.78
-2 0.21999999999999997
3 0.93
-3 0.06999999999999995
4 0.23
-4 0.77
5 0.66
-5 0.33999999999999997
6 0.36
-6 0.64
7 0.35
-7 0.65
8 0.34
-8 0.6599999999999999
9 0.12
-9 0.88
10 0.76
-10 0.24
11 0.4
-11 0.6
12 0.55
-12 0.44999999999999996
13 0.68
-13 0.31999999999999995
14 0.71
-14 0.29000000000000004
15 0.9
-15 0.09999999999999998
16 0.59
-16 0.41000000000000003
17 0.95
-17 0.050000000000000044
18 0.4
-18 0.6
19 0.5
-19 0.5
20 0.23
-20 0.77
21 0.74
-21 0.26
22 0.55
-22 0.44999999999999996
23 0.7
-23 0.30000000000000004
24 0.56
-24 0.43999999999999995
25 0.03
-25 0.97
26 0.7
-26 0.30000000000000004
27 0.26
-27 0.74
28 0.23
-28 0.77
29 0.06
-29 0.94
30 0.49
-30 0.51
31 0.86
-31 0.14
32 0.18
-32 0.8200000000000001
33 0.96
-33 0.040000000000000036
34 0.91
-34 0.08999999999999997
35 0.69
-35 0.31000000000000005
36 0.61
-36 0.39
37 0.85
-37 0.15000000000000002
38 0.24
-38 0.76
39 0.29
-39 0.71
40 0.92
-40 0.07999999999999996
41 0.81
-41 0.18999999999999995
42 0.15
-42 0.85
43 0.62
-43 0.38
44 0.44
-44 0.56
45 0.25
-45 0.75
46 0.35
-46 0.65
47 0.47
-47 0.53
48 0.31
-48 0.69
49 0.01
-49 0.99
50 0.82
-50 0.18000000000000005
51 0.93
-51 0.06999999999999995
52 0.29
-52 0.71
53 0.16
-53 0.84
54 0.73
-54 0.27
55 0.57
-55 0.43000000000000005
56 0.47
-56 0.53
57 0.46
-57 0.54
58 0.82
-58 0.18000000000000005
59 0.34
-59 0.6599999999999999
60 0.49
-60 0.51
61 0.59
-61 0.41000000000000003
62 0.36
-62 0.64
63 0.11
-63 0.89
64 0.37
-64 0.63
65 0.59
-65 0.41000000000000003
66 0.87
-66 0.13
67 0.51
-67 0.49
68 0.5
-68 0.5
69 0.19
-69 0.81
70 0.9
-70 0.09999999999999998
71 0.47
-71 0.53
72 0.67
-72 0.32999999999999996
73 0.23
-73 0.77
74 0.4
-74 0.6
75 0.87
-75 0.13
76 0.91
-76 0.08999999999999997
77 0.96
-77 0.040000000000000036
78 0.51
-78 0.49
79 0.01
-79 0.99
80 0.53
-80 0.47
81 0.67
-81 0.32999999999999996
82 0.88
-82 0.12
83 0.99
-83 0.010000000000000009
84 0.46
-84 0.54
85 0.39
-85 0.61
86 0.57
-86 0.43000000000000005
87 0.42
-87 0.5800000000000001
88 0.76
-88 0.24
89 0.88
-89 0.12
90 0.74
-90 0.26
91 0.18
-91 0.8200000000000001
92 0.9
-92 0.09999999999999998
93 0.33
-93 0.6699999999999999
94 0.16
-94 0.84
95 0.13
-95 0.87
96 0.24
-96 0.76
97 0.44
-97 0.56
98 0.2
-98 0.8
99 0.61
-99 0.39
100 0.01
-100 0.99
