1 0.92
-1 0.07999999999999996
2 0.05
-2 0.95
3 0.65
-3 0.35
4 0.15
-4 0.85
5 0.59
-5 0.41000000000000003
6 0.19
-6 0.81
7 0.17
-7 0.83
8 0.84
-8 0.16000000000000003
9 0.95
-9 0.050000000000000044
10 0.93
-10 0.06999999999999995
11 0.39
-11 0.61
12 0.63
-12 0.37
13 0.35
-13 0.65
14 0.59
-14 0.41000000000000003
15 0.62
-15 0.38
16 0.85
-16 0.15000000000000002
17 0.57
-17 0.43000000000000005
18 0.39
-18 0.61
19 0.22
-19 0.78
20 0.26
-20 0.74
21 0.72
-21 0.28
22 0.89
-22 0.10999999999999999
23 0.84
-23 0.16000000000000003
24 0.71
-24 0.29000000000000004
25 0.51
-25 0.49
26 0.07
-26 0.9299999999999999
27 0.31
-27 0.69
28 0.89
-28 0.10999999999999999
29 0.21
-29 0.79
30 0.86
-30 0.14
31 0.07
-31 0.9299999999999999
32 0.41
-32 0.5900000000000001
33 0.37
-33 0.63
34 0.56
-34 0.43999999999999995
35 0.31
-35 0.69
36 0.07
-36 0.9299999999999999
37 0.1
-37 0.9
38 0.93
-38 0.06999999999999995
39 0.03
-39 0.97
40 0.6
-40 0.4
41 0.3
-41 0.7
42 0.91
-42 0.08999999999999997
43 0.13
-43 0.87
44 0.44
-44 0.56
45 0.98
-45 0.020000000000000018
46 0.73
-46 0.27
47 0.37
-47 0.63
48 0.22
-48 0.78
49 0.17
-49 0.83
50 0.68
-50 0.31999999999999995
51 0.94
-51 0.06000000000000005
52 0.76
-52 0.24
53 0.6
-53 0.4
54 0.3
-54 0.7
55 0.44
-55 0.56
56 0.18
-56 0.8200000000000001
57 0.99
-57 0.010000000000000009
58 0.96
-58 0.040000000000000036
59 0.44
-59 0.56
60 0.54
-60 0.45999999999999996
61 0.8
-61 0.19999999999999996
62 0.27
-62 0.73
63 0.77
-63 0.22999999999999998
64 0.08
-64 0.92
65 0.91
-65 0.08999999999999997
66 0.71
-66 0.29000000000000004
67 0.94
-67 0.06000000000000005
68 0.39
-68 0.61
69 0.5
-69 0.5
70 0.13
-70 0.87
71 0.02
-71 0.98
72 0.08
-72 0.92
73 0.21
-73 0.79
74 0.33
-74 0.6699999999999999
75 0.14
-75 0.86
76 0.89
-76 0.10999999999999999
77 0.03
-77 0.97
78 0.32
-78 0.6799999999999999
79 0.12
-79 0.88
80 0.48
-80 0.52
81 0.48
-81 0.52
82 0.26
-82 0.74
83 0.15
-83 0.85
84 0.14
-84 0.86
85 0.48
-85 0.52
86 0.65
-86 0.35
87 0.55
-87 0.44999999999999996
88 0.06
-88 0.94
89 0.51
-89 0.49
90 0.6
-90 0.4
91 0.68
-91 0.31999999999999995
92 0.38
-92 0.62
93 0.08
-93 0.92
94 0.21
-94 0.79
95 0.46
-95 0.54
96 0.42
-96 0.5800000000000001
97 0.33
-97 0.6699999999999999
98 0.48
-98 0.52
99 0.59
-99 0.41000000000000003
100 0.96
-100 0.040000000000000036
