1 0.71
-1 0.29000000000000004
2 0.12
-2 0.88
3 0.31
-3 0.69
4 0.07
-4 0.9299999999999999
5 0.82
-5 0.18000000000000005
6 0.72
-6 0.28
7 0.46
-7 0.54
8 0.13
-8 0.87
9 0.46
-9 0.54
10 0.58
-10 0.42000000000000004
11 0.67
-11 0.32999999999999996
12 0.8
-12 0.19999999999999996
13 0.29
-13 0.71
14 0.99
-14 0.010000000000000009
15 0.09
-15 0.91
16 0.79
-16 0.20999999999999996
17 0.21
-17 0.79
18 0.99
-18 0.010000000000000009
19 0.15
-19 0.85
20 0.14
-20 0.86
21 0.51
-21 0.49
22 0.11
-22 0.89
23 0.16
-23 0.84
24 0.96
-24 0.040000000000000036
25 0.85
-25 0.15000000000000002
26 0.12
-26 0.88
27 0.12
-27 0.88
28 0.01
-28 0.99
29 0.98
-29 0.020000000000000018
30 0.28
-30 0.72
31 0.58
-31 0.42000000000000004
32 0.47
-32 0.53
33 0.78
-33 0.21999999999999997
34 0.83
-34 0.17000000000000004
35 0.65
-35 0.35
36 0.92
-36 0.07999999999999996
37 0.57
-37 0.43000000000000005
38 0.78
-38 0.21999999999999997
39 0.16
-39 0.84
40 0.02
-40 0.98
41 0.3
-41 0.7
42 0.64
-42 0.36
43 0.06
-43 0.94
44 0.02
-44 0.98
45 0.89
-45 0.10999999999999999
46 0.64
-46 0.36
47 0.15
-47 0.85
48 0.66
-48 0.33999999999999997
49 0.05
-49 0.95
50 0.71
-50 0.29000000000000004
51 0.6
-51 0.4
52 0.86
-52 0.14
53 0.99
-53 0.010000000000000009
54 0.01
-54 0.99
55 0.8
-55 0.19999999999999996
56 0.83
-56 0.17000000000000004
57 0.51
-57 0.49
58 0.22
-58 0.78
59 0.98
-59 0.020000000000000018
60 0.51
-60 0.49
61 0.27
-61 0.73
62 0.81
-62 0.18999999999999995
63 0.18
-63 0.8200000000000001
64 0.63
-64 0.37
65 0.75
-65 0.25
66 0.38
-66 0.62
67 0.16
-67 0.84
68 0.72
-68 0.28
69 0.32
-69 0.6799999999999999
70 0.95
-70 0.050000000000000044
71 0.08
-71 0.92
72 0.02
-72 0.98
73 0.86
-73 0.14
74 0.58
-74 0.42000000000000004
75 0.21
-75 0.79
76 0.95
-76 0.050000000000000044
77 0.22
-77 0.78
78 0.26
-78 0.74
79 0.06
-79 0.94
80 0.82
-80 0.18000000000000005
81 0.15
-81 0.85
82 0.41
-82 0.5900000000000001
83 0.78
-83 0.21999999999999997
84 0.52
-84 0.48
85 0.14
-85 0.86
86 0.86
-86 0.14
87 0.55
-87 0.44999999999999996
88 0.2
-88 0.8
89 0.04
-89 0.96
90 0.87
-90 0.13
91 0.55
-91 0.44999999999999996
92 0.95
-92 0.050000000000000044
93 0.19
-93 0.81
94 0.63
-94 0.37
95 0.53
-95 0.47
96 0.28
-96 0.72
97 0.66
-97 0.33999999999999997
98 0.17
-98 0.83
99 0.51
-99 0.49
100 0.51
-100 0.49
