1 0.69
-1 0.31000000000000005
2 0.22
-2 0.78
3 0.72
-3 0.28
4 0.72
-4 0.28
5 0.21
-5 0.79
6 0.22
-6 0.78
7 0.51
-7 0.49
8 0.75
-8 0.25
9 0.24
-9 0.76
10 0.43
-10 0.5700000000000001
11 0.22
-11 0.78
12 0.75
-12 0.25
13 0.83
-13 0.17000000000000004
14 0.28
-14 0.72
15 0.94
-15 0.06000000000000005
16 0.09
-16 0.91
17 0.78
-17 0.21999999999999997
18 0.43
-18 0.5700000000000001
19 0.91
-19 0.08999999999999997
20 0.94
-20 0.06000000000000005
21 0.41
-21 0.5900000000000001
22 0.14
-22 0.86
23 0.22
-23 0.78
24 0.51
-24 0.49
25 0.25
-25 0.75
26 0.84
-26 0.16000000000000003
27 0.33
-27 0.6699999999999999
28 0.26
-28 0.74
29 0.37
-29 0.63
30 0.13
-30 0.87
31 0.68
-31 0.31999999999999995
32 0.07
-32 0.9299999999999999
33 0.9
-33 0.09999999999999998
34 0.52
-34 0.48
35 0.42
-35 0.5800000000000001
36 0.13
-36 0.87
37 0.51
-37 0.49
38 0.51
-38 0.49
39 0.17
-39 0.83
40 0.97
-40 0.030000000000000027
41 0.38
-41 0.62
42 0.08
-42 0.92
43 0.69
-43 0.31000000000000005
44 0.03
-44 0.97
45 0.68
-45 0.31999999999999995
46 0.39
-46 0.61
47 0.87
-47 0.13
48 0.7
-48 0.30000000000000004
49 0.67
-49 0.32999999999999996
50 0.5
-50 0.5
51 0.86
-51 0.14
52 0.32
-52 0.6799999999999999
53 0.61
-53 0.39
54 0.01
-54 0.99
55 0.33
-55 0.6699999999999999
56 0.66
-56 0.33999999999999997
57 0.38
-57 0.62
58 0.03
-58 0.97
59 0.18
-59 0.8200000000000001
60 0.65
-60 0.35
61 0.26
-61 0.74
62 0.12
-62 0.88
63 0.62
-63 0.38
64 0.87
-64 0.13
65 0.37
-65 0.63
66 0.79
-66 0.20999999999999996
67 0.72
-67 0.28
68 0.3
-68 0.7
69 0.97
-69 0.030000000000000027
70 0.13
-70 0.87
71 0.03
-71 0.97
72 0.26
-72 0.74
73 0.15
-73 0.85
74 0.91
-74 0.08999999999999997
75 0.55
-75 0.44999999999999996
76 0.83
-76 0.17000000000000004
77 0.88
-77 0.12
78 0.98
-78 0.020000000000000018
79 0.17
-79 0.83
80 0.56
-80 0.43999999999999995
81 0.67
-81 0.32999999999999996
82 0.16
-82 0.84
83 0.98
-83 0.020000000000000018
84 0.5
-84 0.5
85 0.47
-85 0.53
86 0.89
-86 0.10999999999999999
87 0.17
-87 0.83
88 0.86
-88 0.14
89 0.02
-89 0.98
90 0.63
-90 0.37
91 0.6
-91 0.4
92 0.93
-92 0.06999999999999995
93 0.39
-93 0.61
94 0.05
-94 0.95
95 0.78
-95 0.21999999999999997
96 0.64
-96 0.36
97 0.96
-97 0.040000000000000036
98 0.69
-98 0.31000000000000005
99 0.13
-99 0.87
100 0.57
-100 0.43000000000000005
