1 0.77
-1 0.22999999999999998
2 0.67
-2 0.32999999999999996
3 0.38
-3 0.62
4 0.64
-4 0.36
5 0.64
-5 0.36
6 0.91
-6 0.08999999999999997
7 0.45
-7 0.55
8 0.35
-8 0.65
9 0.23
-9 0.77
10 0.09
-10 0.91
11 0.39
-11 0.61
12 0.07
-12 0.9299999999999999
13 0.64
-13 0.36
14 0.39
-14 0.61
15 0.56
-15 0.43999999999999995
16 0.68
-16 0.31999999999999995
17 0.77
-17 0.22999999999999998
18 0.1
-18 0.9
19 0.96
-19 0.040000000000000036
20 0.75
-20 0.25
21 0.5
-21 0.5
22 0.33
-22 0.6699999999999999
23 0.16
-23 0.84
24 0.77
-24 0.22999999999999998
25 0.43
-25 0.5700000000000001
26 0.32
-26 0.6799999999999999
27 0.83
-27 0.17000000000000004
28 0.52
-28 0.48
29 0.45
-29 0.55
30 0.24
-30 0.76
31 0.5
-31 0.5
32 0.38
-32 0.62
33 0.04
-33 0.96
34 0.3
-34 0.7
35 0.91
-35 0.08999999999999997
36 0.45
-36 0.55
37 0.52
-37 0.48
38 0.67
-38 0.32999999999999996
39 0.33
-39 0.6699999999999999
40 0.63
-40 0.37
41 0.08
-41 0.92
42 0.9
-42 0.09999999999999998
43 0.28
-43 0.72
44 0.79
-44 0.20999999999999996
45 0.9
-45 0.09999999999999998
46 0.84
-46 0.16000000000000003
47 0.16
-47 0.84
48 0.72
-48 0.28
49 0.65
-49 0.35
50 0.93
-50 0.06999999999999995
51 0.28
-51 0.72
52 0.32
-52 0.6799999999999999
53 0.88
-53 0.12
54 0.86
-54 0.14
55 0.41
-55 0.5900000000000001
56 0.41
-56 0.5900000000000001
57 0.01
-57 0.99
58 0.65
-58 0.35
59 0.18
-59 0.8200000000000001
60 0.96
-60 0.040000000000000036
61 0.71
-61 0.29000000000000004
62 0.17
-62 0.83
63 0.25
-63 0.75
64 0.72
-64 0.28
65 0.36
-65 0.64
66 0.05
-66 0.95
67 0.3
-67 0.7
68 0.67
-68 0.32999999999999996
69 0.73
-69 0.27
70 0.15
-70 0.85
71 0.24
-71 0.76
72 0.98
-72 0.020000000000000018
73 0.02
-73 0.98
74 0.86
-74 0.14
75 0.68
-75 0.31999999999999995
76 0.86
-76 0.14
77 0.95
-77 0.050000000000000044
78 0.54
-78 0.45999999999999996
79 0.95
-79 0.050000000000000044
80 0.05
-80 0.95
81 0.78
-81 0.21999999999999997
82 0.76
-82 0.24
83 0.62
-83 0.38
84 0.72
-84 0.28
85 0.4
-85 0.6
86 0.91
-86 0.08999999999999997
87 0.62
-87 0.38
88 0.42
-88 0.5800000000000001
89 0.26
-89 0.74
90 0.17
-90 0.83
91 0.92
-91 0.07999999999999996
92 0.67
-92 0.32999999999999996
93 0.43
-93 0.5700000000000001
94 0.3
-94 0.7
95 0.18
-95 0.8200000000000001
96 0.87
-96 0.13
97 0.45
-97 0.55
98 0.6
-98 0.4
99 0.03
-99 0.97
100 0.04
-100 0.96
