1 0.62
-1 0.38
2 0.38
-2 0.62
3 0.75
-3 0.25
4 0.82
-4 0.18000000000000005
5 0.7
-5 0.30000000000000004
6 0.01
-6 0.99
7 0.37
-7 0.63
8 0.54
-8 0.45999999999999996
9 0.65
-9 0.35
10 0.98
-10 0.020000000000000018
11 0.73
-11 0.27
12 0.69
-12 0.31000000000000005
13 0.35
-13 0.65
14 0.17
-14 0.83
15 0.14
-15 0.86
16 0.94
-16 0.06000000000000005
17 0.73
-17 0.27
18 0.04
-18 0.96
19 0.76
-19 0.24
20 0.65
-20 0.35
21 0.9
-21 0.09999999999999998
22 0.35
-22 0.65
23 0.54
-23 0.45999999999999996
24 0.03
-24 0.97
25 0.12
-25 0.88
26 0.07
-26 0.9299999999999999
27 0.74
-27 0.26
28 0.25
-28 0.75
29 0.11
-29 0.89
30 0.28
-30 0.72
31 0.71
-31 0.29000000000000004
32 0.26
-32 0.74
33 0.55
-33 0.44999999999999996
34 0.87
-34 0.13
35 0.29
-35 0.71
36 0.57
-36 0.43000000000000005
37 0.43
-37 0.5700000000000001
38 0.54
-38 0.45999999999999996
39 0.3
-39 0.7
40 0.18
-40 0.8200000000000001
41 0.31
-41 0.69
42 0.85
-42 0.15000000000000002
43 0.05
-43 0.95
44 0.84
-44 0.16000000000000003
45 0.44
-45 0.56
46 0.16
-46 0.84
47 0.99
-47 0.010000000000000009
48 0.07
-48 0.9299999999999999
49 0.18
-49 0.8200000000000001
50 0.5
-50 0.5
51 0.69
-51 0.31000000000000005
52 0.82
-52 0.18000000000000005
53 0.97
-53 0.030000000000000027
54 0.61
-54 0.39
55 0.96
-55 0.040000000000000036
56 0.27
-56 0.73
57 0.47
-57 0.53
58 0.52
-58 0.48
59 0.56
-59 0.43999999999999995
60 0.26
-60 0.74
61 0.25
-61 0.75
62 0.62
-62 0.38
63 0.72
-63 0.28
64 0.29
-64 0.71
65 0.09
-65 0.91
66 0.86
-66 0.14
67 0.2
-67 0.8
68 0.34
-68 0.6599999999999999
69 0.92
-69 0.07999999999999996
70 0.62
-70 0.38
71 0.35
-71 0.65
72 0.63
-72 0.37
73 0.7
-73 0.30000000000000004
74 0.28
-74 0.72
75 0.06
-75 0.94
76 0.17
-76 0.83
77 0.37
-77 0.63
78 0.51
-78 0.49
79 0.44
-79 0.56
80 0.43
-80 0.5700000000000001
81 0.88
-81 0.12
82 0.47
-82 0.53
83 0.28
-83 0.72
84 0.57
-84 0.43000000000000005
85 0.17
-85 0.83
86 0.03
-86 0.97
87 0.27
-87 0.73
88 0.16
-88 0.84
89 0.71
-89 0.29000000000000004
90 0.03
-90 0.97
91 0.61
-91 0.39
92 0.07
-92 0.9299999999999999
93 0.88
-93 0.12
94 0.94
-94 0.06000000000000005
95 0.44
-95 0.56
96 0.84
-96 0.16000000000000003
97 0.82
-97 0.18000000000000005
98 0.19
-98 0.81
99 0.65
-99 0.35
100 0.21
-100 0.79
