1 0.83
-1 0.17000000000000004
2 0.49
-2 0.51
3 0.98
-3 0.020000000000000018
4 0.72
-4 0.28
5 0.24
-5 0.76
6 0.84
-6 0.16000000000000003
7 0.64
-7 0.36
8 0.53
-8 0.47
9 0.57
-9 0.43000000000000005
10 0.52
-10 0.48
11 0.76
-11 0.24
12 0.06
-12 0.94
13 0.8
-13 0.19999999999999996
14 0.94
-14 0.06000000000000005
15 0.21
-15 0.79
16 0.06
-16 0.94
17 0.37
-17 0.63
18 0.87
-18 0.13
19 0.58
-19 0.42000000000000004
20 0.29
-20 0.71
21 0.27
-21 0.73
22 0.88
-22 0.12
23 0.38
-23 0.62
24 0.43
-24 0.5700000000000001
25 0.81
-25 0.18999999999999995
26 0.54
-26 0.45999999999999996
27 0.96
-27 0.040000000000000036
28 0.19
-28 0.81
29 0.27
-29 0.73
30 0.65
-30 0.35
31 0.9
-31 0.09999999999999998
32 0.09
-32 0.91
33 0.96
-33 0.040000000000000036
34 0.53
-34 0.47
35 0.29
-35 0.71
36 0.12
-36 0.88
37 0.36
-37 0.64
38 0.6
-38 0.4
39 0.99
-39 0.010000000000000009
40 0.63
-40 0.37
41 0.67
-41 0.32999999999999996
42 0.1
-42 0.9
43 0.78
-43 0.21999999999999997
44 0.15
-44 0.85
45 0.59
-45 0.41000000000000003
46 0.26
-46 0.74
47 0.2
-47 0.8
48 0.46
-48 0.54
49 0.14
-49 0.86
50 0.42
-50 0.5800000000000001
51 0.75
-51 0.25
52 0.44
-52 0.56
53 0.34
-53 0.6599999999999999
54 0.55
-54 0.44999999999999996
55 0.71
-55 0.29000000000000004
56 0.85
-56 0.15000000000000002
57 0.21
-57 0.79
58 0.52
-58 0.48
59 0.78
-59 0.21999999999999997
60 0.3
-60 0.7
61 0.8
-61 0.19999999999999996
62 0.52
-62 0.48
63 0.31
-63 0.69
64 0.77
-64 0.22999999999999998
65 0.47
-65 0.53
66 0.91
-66 0.08999999999999997
67 0.72
-67 0.28
68 0.76
-68 0.24
69 0.8
-69 0.19999999999999996
70 0.04
-70 0.96
71 0.85
-71 0.15000000000000002
72 0.73
-72 0.27
73 0.85
-73 0.15000000000000002
74 0.9
-74 0.09999999999999998
75 0.47
-75 0.53
76 0.88
-76 0.12
77 0.41
-77 0.5900000000000001
78 0.52
-78 0.48
79 0.02
-79 0.98
80 0.71
-80 0.29000000000000004
81 0.4
-81 0.6
82 0.38
-82 0.62
83 0.98
-83 0.020000000000000018
84 0.09
-84 0.91
85 0.5
-85 0.5
86 0.84
-86 0.16000000000000003
87 0.85
-87 0.15000000000000002
88 0.8
-88 0.19999999999999996
89 0.07
-89 0.9299999999999999
90 0.88
-90 0.12
91 0.39
-91 0.61
92 0.75
-92 0.25
93 0.66
-93 0.33999999999999997
94 0.88
-94 0.12
95 0.19
-95 0.81
96 0.68
-96 0.31999999999999995
97 0.7
-97 0.30000000000000004
98 0.29
-98 0.71
99 0.45
-99 0.55
100 0.86
-100 0.14
