1 0.69
-1 0.31000000000000005
2 0.42
-2 0.5800000000000001
3 0.19
-3 0.81
4 0.69
-4 0.31000000000000005
5 0.35
-5 0.65
6 0.91
-6 0.08999999999999997
7 0.52
-7 0.48
8 0.58
-8 0.42000000000000004
9 0.46
-9 0.54
10 0.77
-10 0.22999999999999998
11 0.1
-11 0.9
12 0.53
-12 0.47
13 0.39
-13 0.61
14 0.06
-14 0.94
15 0.65
-15 0.35
16 0.57
-16 0.43000000000000005
17 0.51
-17 0.49
18 0.3
-18 0.7
19 0.12
-19 0.88
20 0.13
-20 0.87
21 0.15
-21 0.85
22 0.26
-22 0.74
23 0.51
-23 0.49
24 0.26
-24 0.74
25 0.14
-25 0.86
26 0.7
-26 0.30000000000000004
27 0.77
-27 0.22999999999999998
28 0.83
-28 0.17000000000000004
29 0.52
-29 0.48
30 0.32
-30 0.6799999999999999
31 0.52
-31 0.48
32 0.17
-32 0.83
33 0.23
-33 0.77
34 0.05
-34 0.95
35 0.36
-35 0.64
36 0.14
-36 0.86
37 0.06
-37 0.94
38 0.51
-38 0.49
39 0.85
-39 0.15000000000000002
40 0.09
-40 0.91
41 0.33
-41 0.6699999999999999
42 0.82
-42 0.18000000000000005
43 0.31
-43 0.69
44 0.02
-44 0.98
45 0.22
-45 0.78
46 0.63
-46 0.37
47 0.86
-47 0.14
48 0.2
-48 0.8
49 0.7
-49 0.30000000000000004
50 0.81
-50 0.18999999999999995
51 0.82
-51 0.18000000000000005
52 0.59
-52 0.41000000000000003
53 0.64
-53 0.36
54 0.8
-54 0.19999999999999996
55 0.23
-55 0.77
56 0.61
-56 0.39
57 0.03
-57 0.97
58 0.84
-58 0.16000000000000003
59 0.47
-59 0.53
60 0.63
-60 0.37
61 0.66
-61 0.33999999999999997
62 0.25
-62 0.75
63 0.69
-63 0.31000000000000005
64 0.1
-64 0.9
65 0.56
-65 0.43999999999999995
66 0.28
-66 0.72
67 0.33
-67 0.6699999999999999
68 0.23
-68 0.77
69 0.57
-69 0.43000000000000005
70 0.17
-70 0.83
71 0.63
-71 0.37
72 0.61
-72 0.39
73 0.09
-73 0.91
74 0.43
-74 0.5700000000000001
75 0.56
-75 0.43999999999999995
76 0.88
-76 0.12
77 0.65
-77 0.35
78 0.07
-78 0.9299999999999999
79 0.27
-79 0.73
80 0.04
-80 0.96
81 0.43
-81 0.5700000000000001
82 0.79
-82 0.20999999999999996
83 0.16
-83 0.84
84 0.95
-84 0.050000000000000044
85 0.15
-85 0.85
86 0.78
-86 0.21999999999999997
87 0.67
-87 0.32999999999999996
88 0.39
-88 0.61
89 0.17
-89 0.83
90 0.58
-90 0.42000000000000004
91 0.76
-91 0.24
92 0.58
-92 0.42000000000000004
93 0.68
-93 0.31999999999999995
94 0.54
-94 0.45999999999999996
95 0.71
-95 0.29000000000000004
96 0.63
-96 0.37
97 0.56
-97 0.43999999999999995
98 0.67
-98 0.32999999999999996
99 0.43
-99 0.5700000000000001
100 0.76
-100 0.24
