1 0.17
-1 0.83
2 0.19
-2 0.81
3 0.44
-3 0.56
4 0.62
-4 0.38
5 0.34
-5 0.6599999999999999
6 0.66
-6 0.33999999999999997
7 0.28
-7 0.72
8 0.15
-8 0.85
9 0.08
-9 0.92
10 0.09
-10 0.91
11 0.4
-11 0.6
12 0.17
-12 0.83
13 0.35
-13 0.65
14 0.79
-14 0.20999999999999996
15 0.97
-15 0.030000000000000027
16 0.49
-16 0.51
17 0.45
-17 0.55
18 0.5
-18 0.5
19 0.42
-19 0.5800000000000001
20 0.1
-20 0.9
21 0.95
-21 0.050000000000000044
22 0.05
-22 0.95
23 0.79
-23 0.20999999999999996
24 0.26
-24 0.74
25 0.29
-25 0.71
26 0.58
-26 0.42000000000000004
27 0.3
-27 0.7
28 0.51
-28 0.49
29 0.29
-29 0.71
30 0.7
-30 0.30000000000000004
31 0.8
-31 0.19999999999999996
32 0.34
-32 0.6599999999999999
33 0.61
-33 0.39
34 0.53
-34 0.47
35 0.05
-35 0.95
36 0.27
-36 0.73
37 0.96
-37 0.040000000000000036
38 0.57
-38 0.43000000000000005
39 0.8
-39 0.19999999999999996
40 0.45
-40 0.55
41 0.8
-41 0.19999999999999996
42 0.93
-42 0.06999999999999995
43 0.89
-43 0.10999999999999999
44 0.11
-44 0.89
45 0.17
-45 0.83
46 0.4
-46 0.6
47 0.09
-47 0.91
48 0.47
-48 0.53
49 0.55
-49 0.44999999999999996
50 0.03
-50 0.97
51 0.17
-51 0.83
52 0.62
-52 0.38
53 0.22
-53 0.78
54 0.3
-54 0.7
55 0.25
-55 0.75
56 0.67
-56 0.32999999999999996
57 0.24
-57 0.76
58 0.72
-58 0.28
59 0.71
-59 0.29000000000000004
60 0.9
-60 0.09999999999999998
61 0.01
-61 0.99
62 0.72
-62 0.28
63 0.35
-63 0.65
64 0.5
-64 0.5
65 0.4
-65 0.6
66 0.69
-66 0.31000000000000005
67 0.17
-67 0.83
68 0.21
-68 0.79
69 0.83
-69 0.17000000000000004
70 0.89
-70 0.10999999999999999
71 0.54
-71 0.45999999999999996
72 0.71
-72 0.29000000000000004
73 0.49
-73 0.51
74 0.01
-74 0.99
75 0.57
-75 0.43000000000000005
76 0.98
-76 0.020000000000000018
77 0.27
-77 0.73
78 0.64
-78 0.36
79 0.69
-79 0.31000000000000005
80 0.49
-80 0.51
81 0.96
-81 0.040000000000000036
82 0.98
-82 0.020000000000000018
83 0.54
-83 0.45999999999999996
84 0.65
-84 0.35
85 0.17
-85 0.83
86 0.36
-86 0.64
87 0.98
-87 0.020000000000000018
88 0.3
-88 0.7
89 0.47
-89 0.53
90 0.24
-90 0.76
91 0.08
-91 0.92
92 0.12
-92 0.88
93 0.47
-93 0.53
94 0.49
-94 0.51
95 0.75
-95 0.25
96 0.34
-96 0.6599999999999999
97 0.82
-97 0.18000000000000005
98 0.28
-98 0.72
99 0.54
-99 0.45999999999999996
100 0.63
-100 0.37
