1 0.49
-1 0.51
2 0.79
-2 0.20999999999999996
3 0.53
-3 0.47
4 0.6
-4 0.4
5 0.78
-5 0.21999999999999997
6 0.7
-6 0.30000000000000004
7 0.83
-7 0.17000000000000004
8 0.6
-8 0.4
9 0.87
-9 0.13
10 0.12
-10 0.88
11 0.15
-11 0.85
12 0.31
-12 0.69
13 0.1
-13 0.9
14 0.56
-14 0.43999999999999995
15 0.54
-15 0.45999999999999996
16 0.82
-16 0.18000000000000005
17 0.63
-17 0.37
18 0.03
-18 0.97
19 0.91
-19 0.08999999999999997
20 0.16
-20 0.84
21 0.94
-21 0.06000000000000005
22 0.03
-22 0.97
23 0.3
-23 0.7
24 0.73
-24 0.27
25 0.01
-25 0.99
26 0.45
-26 0.55
27 0.76
-27 0.24
28 0.93
-28 0.06999999999999995
29 0.69
-29 0.31000000000000005
30 0.53
-30 0.47
31 0.84
-31 0.16000000000000003
32 0.35
-32 0.65
33 0.81
-33 0.18999999999999995
34 0.49
-34 0.51
35 0.09
-35 0.91
36 0.63
-36 0.37
37 0.04
-37 0.96
38 0.72
-38 0.28
39 0.78
-39 0.21999999999999997
40 0.57
-40 0.43000000000000005
41 0.3
-41 0.7
42 0.33
-42 0.6699999999999999
43 0.29
-43 0.71
44 0.14
-44 0.86
45 0.94
-45 0.06000000000000005
46 0.4
-46 0.6
47 0.88
-47 0.12
48 0.36
-48 0.64
49 0.6
-49 0.4
50 0.81
-50 0.18999999999999995
51 0.81
-51 0.18999999999999995
52 0.08
-52 0.92
53 0.17
-53 0.83
54 0.56
-54 0.43999999999999995
55 0.61
-55 0.39
56 0.46
-56 0.54
57 0.87
-57 0.13
58 0.69
-58 0.31000000000000005
59 0.2
-59 0.8
60 0.25
-60 0.75
61 0.66
-61 0.33999999999999997
62 0.51
-62 0.49
63 0.34
-63 0.6599999999999999
64 0.82
-64 0.18000000000000005
65 0.89
-65 0.10999999999999999
66 0.1
-66 0.9
67 0.68
-67 0.31999999999999995
68 0.79
-68 0.20999999999999996
69 0.79
-69 0.20999999999999996
70 0.68
-70 0.31999999999999995
71 0.02
-71 0.98
72 0.58
-72 0.42000000000000004
73 0.06
-73 0.94
74 0.31
-74 0.69
75 0.23
-75 0.77
76 0.44
-76 0.56
77 0.59
-77 0.41000000000000003
78 0.72
-78 0.28
79 0.21
-79 0.79
80 0.96
-80 0.040000000000000036
81 0.8
-81 0.19999999999999996
82 0.32
-82 0.6799999999999999
83 0.46
-83 0.54
84 0.81
-84 0.18999999999999995
85 0.39
-85 0.61
86 0.31
-86 0.69
87 0.27
-87 0.73
88 0.22
-88 0.78
89 0.09
-89 0.91
90 0.07
-90 0.9299999999999999
91 0.28
-91 0.72
92 0.94
-92 0.06000000000000005
93 0.77
-93 0.22999999999999998
94 0.13
-94 0.87
95 0.58
-95 0.42000000000000004
96 0.34
-96 0.6599999999999999
97 0.58
-97 0.42000000000000004
98 0.8
-98 0.19999999999999996
99 0.04
-99 0.96
100 0.19
-100 0.81
