1 0.49
-1 0.51
2 0.83
-2 0.17000000000000004
3 0.37
-3 0.63
4 0.31
-4 0.69
5 0.1
-5 0.9
6 0.74
-6 0.26
7 0.18
-7 0.8200000000000001
8 0.63
-8 0.37
9 0.28
-9 0.72
10 0.21
-10 0.79
11 0.24
-11 0.76
12 0.19
-12 0.81
13 0.11
-13 0.89
14 0.59
-14 0.41000000000000003
15 0.67
-15 0.32999999999999996
16 0.04
-16 0.96
17 0.95
-17 0.050000000000000044
18 0.51
-18 0.49
19 0.2
-19 0.8
20 0.97
-20 0.030000000000000027
21 0.18
-21 0.8200000000000001
22 0.12
-22 0.88
23 0.76
-23 0.24
24 0.66
-24 0.33999999999999997
25 0.14
-25 0.86
26 0.44
-26 0.56
27 0.24
-27 0.76
28 0.62
-28 0.38
29 0.47
-29 0.53
30 0.54
-30 0.45999999999999996
31 0.33
-31 0.6699999999999999
32 0.95
-32 0.050000000000000044
33 0.11
-33 0.89
34 0.38
-34 0.62
35 0.53
-35 0.47
36 0.07
-36 0.9299999999999999
37 0.39
-37 0.61
38 0.13
-38 0.87
39 0.39
-39 0.61
40 0.87
-40 0.13
41 0.58
-41 0.42000000000000004
42 0.5
-42 0.5
43 0.91
-43 0.08999999999999997
44 0.72
-44 0.28
45 0.74
-45 0.26
46 0.94
-46 0.06000000000000005
47 0.85
-47 0.15000000000000002
48 0.39
-48 0.61
49 0.87
-49 0.13
50 0.06
-50 0.94
51 0.38
-51 0.62
52 0.13
-52 0.87
53 0.97
-53 0.030000000000000027
54 0.34
-54 0.6599999999999999
55 0.59
-55 0.41000000000000003
56 0.15
-56 0.85
57 0.36
-57 0.64
58 0.09
-58 0.91
59 0.75
-59 0.25
60 0.64
-60 0.36
61 0.07
-61 0.9299999999999999
62 0.69
-62 0.31000000000000005
63 0.47
-63 0.53
64 0.23
-64 0.77
65 0.58
-65 0.42000000000000004
66 0.04
-66 0.96
67 0.13
-67 0.87
68 0.76
-68 0.24
69 0.73
-69 0.27
70 0.64
-70 0.36
71 0.24
-71 0.76
72 0.71
-72 0.29000000000000004
73 0.01
-73 0.99
74 0.95
-74 0.050000000000000044
75 0.08
-75 0.92
76 0.12
-76 0.88
77 0.44
-77 0.56
78 0.8
-78 0.19999999999999996
79 0.88
-79 0.12
80 0.5
-80 0.5
81 0.54
-81 0.45999999999999996
82 0.45
-82 0.55
83 0.82
-83 0.18000000000000005
84 0.9
-84 0.09999999999999998
85 0.2
-85 0.8
86 0.14
-86 0.86
87 0.39
-87 0.61
88 0.26
-88 0.74
89 0.28
-89 0.72
90 0.79
-90 0.20999999999999996
91 0.08
-91 0.92
92 0.87
-92 0.13
93 0.21
-93 0.79
94 0.55
-94 0.44999999999999996
95 0.84
-95 0.16000000000000003
96 0.48
-96 0.52
97 0.73
-97 0.27
98 0.48
-98 0.52
99 0.92
-99 0.07999999999999996
100 0.16
-100 0.84
