1 0.5
-1 0.5
2 0.59
-2 0.41000000000000003
3 0.05
-3 0.95
4 0.17
-4 0.83
5 0.38
-5 0.62
6 0.68
-6 0.31999999999999995
7 0.38
-7 0.62
8 0.8
-8 0.19999999999999996
9 0.66
-9 0.33999999999999997
10 0.75
-10 0.25
11 0.83
-11 0.17000000000000004
12 0.21
-12 0.79
13 0.6
-13 0.4
14 0.1
-14 0.9
15 0.44
-15 0.56
16 0.97
-16 0.030000000000000027
17 0.6
-17 0.4
18 0.19
-18 0.81
19 0.61
-19 0.39
20 0.22
-20 0.78
21 0.52
-21 0.48
22 0.62
-22 0.38
23 0.05
-23 0.95
24 0.32
-24 0.6799999999999999
25 0.28
-25 0.72
26 0.35
-26 0.65
27 0.57
-27 0.43000000000000005
28 0.46
-28 0.54
29 0.41
-29 0.5900000000000001
30 0.15
-30 0.85
31 0.4
-31 0.6
32 0.87
-32 0.13
33 0.06
-33 0.94
34 0.6
-34 0.4
35 0.65
-35 0.35
36 0.84
-36 0.16000000000000003
37 0.81
-37 0.18999999999999995
38 0.5
-38 0.5
39 0.08
-39 0.92
40 0.91
-40 0.08999999999999997
41 0.27
-41 0.73
42 0.12
-42 0.88
43 0.43
-43 0.5700000000000001
44 0.26
-44 0.74
45 0.07
-45 0.9299999999999999
46 0.42
-46 0.5800000000000001
47 0.4
-47 0.6
48 0.44
-48 0.56
49 0.77
-49 0.22999999999999998
50 0.87
-50 0.13
51 0.32
-51 0.6799999999999999
52 0.12
-52 0.88
53 0.72
-53 0.28
54 0.21
-54 0.79
55 0.43
-55 0.5700000000000001
56 0.03
-56 0.97
57 0.7
-57 0.30000000000000004
58 0.63
-58 0.37
59 0.3
-59 0.7
60 0.91
-60 0.08999999999999997
61 0.76
-61 0.24
62 0.68
-62 0.31999999999999995
63 0.01
-63 0.99
64 0.03
-64 0.97
65 0.37
-65 0.63
66 0.14
-66 0.86
67 0.16
-67 0.84
68 0.63
-68 0.37
69 0.19
-69 0.81
70 0.38
-70 0.62
71 0.94
-71 0.06000000000000005
72 0.57
-72 0.43000000000000005
73 0.86
-73 0.14
74 0.85
-74 0.15000000000000002
75 0.7
-75 0.30000000000000004
76 0.29
-76 0.71
77 0.33
-77 0.6699999999999999
78 0.39
-78 0.61
79 0.37
-79 0.63
80 0.03
-80 0.97
81 0.33
-81 0.6699999999999999
82 0.44
-82 0.56
83 0.32
-83 0.6799999999999999
84 0.72
-84 0.28
85 0.33
-85 0.6699999999999999
86 0.83
-86 0.17000000000000004
87 0.12
-87 0.88
88 0.66
-88 0.33999999999999997
89 0.75
-89 0.25
90 0.03
-90 0.97
91 0.34
-91 0.6599999999999999
92 0.81
-92 0.18999999999999995
93 0.95
-93 0.050000000000000044
94 0.57
-94 0.43000000000000005
95 0.21
-95 0.79
96 0.18
-96 0.8200000000000001
97 0.2
-97 0.8
98 0.45
-98 0.55
99 0.26
-99 0.74
100 0.22
-100 0.78
