1 0.34
-1 0.6599999999999999
2 0.84
-2 0.16000000000000003
3 0.71
-3 0.29000000000000004
4 0.62
-4 0.38
5 0.38
-5 0.62
6 0.36
-6 0.64
7 0.41
-7 0.5900000000000001
8 0.43
-8 0.5700000000000001
9 0.18
-9 0.8200000000000001
10 0.67
-10 0.32999999999999996
11 0.11
-11 0.89
12 0.77
-12 0.22999999999999998
13 0.18
-13 0.8200000000000001
14 0.21
-14 0.79
15 0.76
-15 0.24
16 0.3
-16 0.7
17 0.12
-17 0.88
18 0.52
-18 0.48
19 0.03
-19 0.97
20 0.02
-20 0.98
21 0.13
-21 0.87
22 0.82
-22 0.18000000000000005
23 0.49
-23 0.51
24 0.57
-24 0.43000000000000005
25 0.07
-25 0.9299999999999999
26 0.01
-26 0.99
27 0.68
-27 0.31999999999999995
28 0.53
-28 0.47
29 0.52
-29 0.48
30 0.81
-30 0.18999999999999995
31 0.46
-31 0.54
32 0.97
-32 0.030000000000000027
33 0.97
-33 0.030000000000000027
34 0.01
-34 0.99
35 0.88
-35 0.12
36 0.77
-36 0.22999999999999998
37 0.22
-37 0.78
38 0.44
-38 0.56
39 0.97
-39 0.030000000000000027
40 0.13
-40 0.87
41 0.1
-41 0.9
42 0.13
-42 0.87
43 0.08
-43 0.92
44 0.32
-44 0.6799999999999999
45 0.35
-45 0.65
46 0.01
-46 0.99
47 0.07
-47 0.9299999999999999
48 0.8
-48 0.19999999999999996
49 0.11
-49 0.89
50 0.7
-50 0.30000000000000004
51 0.77
-51 0.22999999999999998
52 0.54
-52 0.45999999999999996
53 0.72
-53 0.28
54 0.37
-54 0.63
55 0.54
-55 0.45999999999999996
56 0.36
-56 0.64
57 0.89
-57 0.10999999999999999
58 0.01
-58 0.99
59 0.37
-59 0.63
60 0.05
-60 0.95
61 0.18
-61 0.8200000000000001
62 0.68
-62 0.31999999999999995
63 0.34
-63 0.6599999999999999
64 0.28
-64 0.72
65 0.31
-65 0.69
66 0.76
-66 0.24
67 0.27
-67 0.73
68 0.93
-68 0.06999999999999995
69 0.39
-69 0.61
70 0.51
-70 0.49
71 0.13
-71 0.87
72 0.68
-72 0.31999999999999995
73 0.19
-73 0.81
74 0.86
-74 0.14
75 0.35
-75 0.65
76 0.91
-76 0.08999999999999997
77 0.02
-77 0.98
78 0.54
-78 0.45999999999999996
79 0.79
-79 0.20999999999999996
80 0.05
-80 0.95
81 0.08
-81 0.92
82 0.68
-82 0.31999999999999995
83 0.96
-83 0.040000000000000036
84 0.48
-84 0.52
85 0.67
-85 0.32999999999999996
86 0.08
-86 0.92
87 0.48
-87 0.52
88 0.85
-88 0.15000000000000002
89 0.87
-89 0.13
90 0.61
-90 0.39
91 0.54
-91 0.45999999999999996
92 0.03
-92 0.97
93 0.71
-93 0.29000000000000004
94 0.3
-94 0.7
95 0.45
-95 0.55
96 0.64
-96 0.36
97 0.6
-97 0.4
98 0.83
-98 0.17000000000000004
99 0.04
-99 0.96
100 0.62
-100 0.38
