1 0.6
-1 0.4
2 0.6
-2 0.4
3 0.63
-3 0.37
4 0.35
-4 0.65
5 0.31
-5 0.69
6 0.57
-6 0.43000000000000005
7 0.48
-7 0.52
8 0.47
-8 0.53
9 0.98
-9 0.020000000000000018
10 0.79
-10 0.20999999999999996
11 0.18
-11 0.8200000000000001
12 0.22
-12 0.78
13 0.24
-13 0.76
14 0.28
-14 0.72
15 0.79
-15 0.20999999999999996
16 0.02
-16 0.98
17 0.71
-17 0.29000000000000004
18 0.06
-18 0.94
19 0.96
-19 0.040000000000000036
20 0.21
-20 0.79
21 0.53
-21 0.47
22 0.92
-22 0.07999999999999996
23 0.07
-23 0.9299999999999999
24 0.32
-24 0.6799999999999999
25 0.84
-25 0.16000000000000003
26 0.68
-26 0.31999999999999995
27 0.31
-27 0.69
28 0.97
-28 0.030000000000000027
29 0.46
-29 0.54
30 0.72
-30 0.28
31 0.36
-31 0.64
32 0.94
-32 0.06000000000000005
33 0.95
-33 0.050000000000000044
34 0.71
-34 0.29000000000000004
35 0.54
-35 0.45999999999999996
36 0.26
-36 0.74
37 0.37
-37 0.63
38 0.19
-38 0.81
39 0.53
-39 0.47
40 0.85
-40 0.15000000000000002
41 0.58
-41 0.42000000000000004
42 0.79
-42 0.20999999999999996
43 0.41
-43 0.5900000000000001
44 0.28
-44 0.72
45 0.93
-45 0.06999999999999995
46 0.29
-46 0.71
47 0.04
-47 0.96
48 0.27
-48 0.73
49 0.9
-49 0.09999999999999998
50 0.03
-50 0.97
51 0.3
-51 0.7
52 0.64
-52 0.36
53 0.74
-53 0.26
54 0.71
-54 0.29000000000000004
55 0.68
-55 0.31999999999999995
56 0.28
-56 0.72
57 0.49
-57 0.51
58 0.69
-58 0.31000000000000005
59 0.94
-59 0.06000000000000005
60 0.66
-60 0.33999999999999997
61 0.52
-61 0.48
62 0.47
-62 0.53
63 0.36
-63 0.64
64 0.67
-64 0.32999999999999996
65 0.58
-65 0.42000000000000004
66 0.02
-66 0.98
67 0.85
-67 0.15000000000000002
68 0.29
-68 0.71
69 0.17
-69 0.83
70 0.93
-70 0.06999999999999995
71 0.78
-71 0.21999999999999997
72 0.03
-72 0.97
73 0.36
-73 0.64
74 0.18
-74 0.8200000000000001
75 0.02
-75 0.98
76 0.72
-76 0.28
77 0.51
-77 0.49
78 0.63
-78 0.37
79 0.84
-79 0.16000000000000003
80 0.54
-80 0.45999999999999996
81 0.18
-81 0.8200000000000001
82 0.35
-82 0.65
83 0.11
-83 0.89
84 0.2
-84 0.8
85 0.07
-85 0.9299999999999999
86 0.68
-86 0.31999999999999995
87 0.51
-87 0.49
88 0.61
-88 0.39
89 0.33
-89 0.6699999999999999
90 0.18
-90 0.8200000000000001
91 0.72
-91 0.28
92 0.86
-92 0.14
93 0.98
-93 0.020000000000000018
94 0.35
-94 0.65
95 0.98
-95 0.020000000000000018
96 0.93
-96 0.06999999999999995
97 0.49
-97 0.51
98 0.37
-98 0.63
99 0.76
-99 0.24
100 0.2
-100 0.8
