1 0.1
-1 0.9
2 0.23
-2 0.77
3 0.49
-3 0.51
4 0.51
-4 0.49
5 0.07
-5 0.9299999999999999
6 0.32
-6 0.6799999999999999
7 0.27
-7 0.73
8 0.49
-8 0.51
9 0.71
-9 0.29000000000000004
10 0.76
-10 0.24
11 0.17
-11 0.83
12 0.15
-12 0.85
13 0.93
-13 0.06999999999999995
14 0.73
-14 0.27
15 0.68
-15 0.31999999999999995
16 0.72
-16 0.28
17 0.3
-17 0.7
18 0.95
-18 0.050000000000000044
19 0.08
-19 0.92
20 0.93
-20 0.06999999999999995
21 0.82
-21 0.18000000000000005
22 0.03
-22 0.97
23 0.3
-23 0.7
24 0.52
-24 0.48
25 0.05
-25 0.95
26 0.19
-26 0.81
27 0.76
-27 0.24
28 0.06
-28 0.94
29 0.81
-29 0.18999999999999995
30 0.39
-30 0.61
31 0.23
-31 0.77
32 0.71
-32 0.29000000000000004
33 0.2
-33 0.8
34 0.59
-34 0.41000000000000003
35 0.74
-35 0.26
36 0.7
-36 0.30000000000000004
37 0.18
-37 0.8200000000000001
38 0.3
-38 0.7
39 0.67
-39 0.32999999999999996
40 0.75
-40 0.25
41 0.31
-41 0.69
42 0.44
-42 0.56
43 0.73
-43 0.27
44 0.12
-44 0.88
45 0.39
-45 0.61
46 0.97
-46 0.030000000000000027
47 0.63
-47 0.37
48 0.39
-48 0.61
49 0.68
-49 0.31999999999999995
50 0.58
-50 0.42000000000000004
51 0.52
-51 0.48
52 0.41
-52 0.5900000000000001
53 0.95
-53 0.050000000000000044
54 0.71
-54 0.29000000000000004
55 0.01
-55 0.99
56 0.79
-56 0.20999999999999996
57 0.38
-57 0.62
58 0.56
-58 0.43999999999999995
59 0.2
-59 0.8
60 0.4
-60 0.6
61 0.05
-61 0.95
62 0.09
-62 0.91
63 0.76
-63 0.24
64 0.69
-64 0.31000000000000005
65 0.94
-65 0.06000000000000005
66 0.76
-66 0.24
67 0.76
-67 0.24
68 0.72
-68 0.28
69 0.69
-69 0.31000000000000005
70 0.63
-70 0.37
71 0.31
-71 0.69
72 0.84
-72 0.16000000000000003
73 0.96
-73 0.040000000000000036
74 0.29
-74 0.71
75 0.09
-75 0.91
76 0.19
-76 0.81
77 0.61
-77 0.39
78 0.11
-78 0.89
79 0.2
-79 0.8
80 0.86
-80 0.14
81 0.91
-81 0.08999999999999997
82 0.65
-82 0.35
83 0.48
-83 0.52
84 0.61
-84 0.39
85 0.49
-85 0.51
86 0.19
-86 0.81
87 0.16
-87 0.84
88 0.51
-88 0.49
89 0.92
-89 0.07999999999999996
90 0.85
-90 0.15000000000000002
91 0.95
-91 0.050000000000000044
92 0.69
-92 0.31000000000000005
93 0.86
-93 0.14
94 0.39
-94 0.61
95 0.13
-95 0.87
96 0.97
-96 0.030000000000000027
97 0.81
-97 0.18999999999999995
98 0.92
-98 0.07999999999999996
99 0.01
-99 0.99
100 0.5
-100 0.5
