1 0.17
-1 0.83
2 0.55
-2 0.44999999999999996
3 0.85
-3 0.15000000000000002
4 0.59
-4 0.41000000000000003
5 0.33
-5 0.6699999999999999
6 0.6
-6 0.4
7 0.82
-7 0.18000000000000005
8 0.35
-8 0.65
9 0.45
-9 0.55
10 0.76
-10 0.24
11 0.89
-11 0.10999999999999999
12 0.05
-12 0.95
13 0.74
-13 0.26
14 0.3
-14 0.7
15 0.56
-15 0.43999999999999995
16 0.65
-16 0.35
17 0.94
-17 0.06000000000000005
18 0.93
-18 0.06999999999999995
19 0.08
-19 0.92
20 0.92
-20 0.07999999999999996
21 0.18
-21 0.8200000000000001
22 0.44
-22 0.56
23 0.78
-23 0.21999999999999997
24 0.62
-24 0.38
25 0.64
-25 0.36
26 0.27
-26 0.73
27 0.25
-27 0.75
28 0.48
-28 0.52
29 0.2
-29 0.8
30 0.58
-30 0.42000000000000004
31 0.59
-31 0.41000000000000003
32 0.76
-32 0.24
33 0.23
-33 0.77
34 0.63
-34 0.37
35 0.15
-35 0.85
36 0.82
-36 0.18000000000000005
37 0.36
-37 0.64
38 0.64
-38 0.36
39 0.85
-39 0.15000000000000002
40 0.05
-40 0.95
41 0.36
-41 0.64
42 0.87
-42 0.13
43 0.14
-43 0.86
44 0.92
-44 0.07999999999999996
45 0.41
-45 0.5900000000000001
46 0.69
-46 0.31000000000000005
47 0.28
-47 0.72
48 0.06
-48 0.94
49 0.23
-49 0.77
50 0.55
-50 0.44999999999999996
51 0.89
-51 0.10999999999999999
52 0.57
-52 0.43000000000000005
53 0.64
-53 0.36
54 0.84
-54 0.16000000000000003
55 0.57
-55 0.43000000000000005
56 0.44
-56 0.56
57 0.87
-57 0.13
58 0.21
-58 0.79
59 0.27
-59 0.73
60 0.41
-60 0.5900000000000001
61 0.45
-61 0.55
62 0.74
-62 0.26
63 0.52
-63 0.48
64 0.36
-64 0.64
65 0.95
-65 0.050000000000000044
66 0.8
-66 0.19999999999999996
67 0.22
-67 0.78
68 0.73
-68 0.27
69 0.6
-69 0.4
70 0.47
-70 0.53
71 0.54
-71 0.45999999999999996
72 0.33
-72 0.6699999999999999
73 0.83
-73 0.17000000000000004
74 0.21
-74 0.79
75 0.55
-75 0.44999999999999996
76 0.8
-76 0.19999999999999996
77 0.54
-77 0.45999999999999996
78 0.46
-78 0.54
79 0.71
-79 0.29000000000000004
80 0.74
-80 0.26
81 0.4
-81 0.6
82 0.74
-82 0.26
83 0.87
-83 0.13
84 0.24
-84 0.76
85 0.89
-85 0.10999999999999999
86 0.41
-86 0.5900000000000001
87 0.77
-87 0.22999999999999998
88 0.58
-88 0.42000000000000004
89 0.38
-89 0.62
90 0.03
-90 0.97
91 0.38
-91 0.62
92 0.01
-92 0.99
93 0.36
-93 0.64
94 0.18
-94 0.8200000000000001
95 0.26
-95 0.74
96 0.8
-96 0.19999999999999996
97 0.01
-97 0.99
98 0.74
-98 0.26
99 0.9
-99 0.09999999999999998
100 0.8
-100 0.19999999999999996
