1 0.26
-1 0.74
2 0.66
-2 0.33999999999999997
3 0.93
-3 0.06999999999999995
4 0.14
-4 0.86
5 0.84
-5 0.16000000000000003
6 0.35
-6 0.65
7 0.91
-7 0.08999999999999997
8 0.6
-8 0.4
9 0.19
-9 0.81
10 0.13
-10 0.87
11 0.61
-11 0.39
12 0.15
-12 0.85
13 0.48
-13 0.52
14 0.14
-14 0.86
15 0.32
-15 0.6799999999999999
16 0.6
-16 0.4
17 0.02
-17 0.98
18 0.57
-18 0.43000000000000005
19 0.24
-19 0.76
20 0.63
-20 0.37
21 0.8
-21 0.19999999999999996
22 0.42
-22 0.5800000000000001
23 0.11
-23 0.89
24 0.19
-24 0.81
25 0.58
-25 0.42000000000000004
26 0.84
-26 0.16000000000000003
27 0.67
-27 0.32999999999999996
28 0.47
-28 0.53
29 0.64
-29 0.36
30 0.42
-30 0.5800000000000001
31 0.56
-31 0.43999999999999995
32 0.46
-32 0.54
33 0.47
-33 0.53
34 0.32
-34 0.6799999999999999
35 0.54
-35 0.45999999999999996
36 0.07
-36 0.9299999999999999
37 0.46
-37 0.54
38 0.76
-38 0.24
39 0.8
-39 0.19999999999999996
40 0.69
-40 0.31000000000000005
41 0.57
-41 0.43000000000000005
42 0.29
-42 0.71
43 0.56
-43 0.43999999999999995
44 0.42
-44 0.5800000000000001
45 0.42
-45 0.5800000000000001
46 0.72
-46 0.28
47 0.76
-47 0.24
48 0.79
-48 0.20999999999999996
49 0.02
-49 0.98
50 0.21
-50 0.79
51 0.02
-51 0.98
52 0.17
-52 0.83
53 0.57
-53 0.43000000000000005
54 0.15
-54 0.85
55 0.46
-55 0.54
56 0.74
-56 0.26
57 0.91
-57 0.08999999999999997
58 0.18
-58 0.8200000000000001
59 0.17
-59 0.83
60 0.85
-60 0.15000000000000002
61 0.1
-61 0.9
62 0.3
-62 0.7
63 0.19
-63 0.81
64 0.58
-64 0.42000000000000004
65 0.82
-65 0.18000000000000005
66 0.11
-66 0.89
67 0.81
-67 0.18999999999999995
68 0.81
-68 0.18999999999999995
69 0.45
-69 0.55
70 0.02
-70 0.98
71 0.49
-71 0.51
72 0.49
-72 0.51
73 0.11
-73 0.89
74 0.4
-74 0.6
75 0.81
-75 0.18999999999999995
76 0.09
-76 0.91
77 0.97
-77 0.030000000000000027
78 0.6
-78 0.4
79 0.38
-79 0.62
80 0.6
-80 0.4
81 0.31
-81 0.69
82 0.1
-82 0.9
83 0.42
-83 0.5800000000000001
84 0.97
-84 0.030000000000000027
85 0.43
-85 0.5700000000000001
86 0.11
-86 0.89
87 0.95
-87 0.050000000000000044
88 0.37
-88 0.63
89 0.11
-89 0.89
90 0.36
-90 0.64
91 0.16
-91 0.84
92 0.21
-92 0.79
93 0.88
-93 0.12
94 0.5
-94 0.5
95 0.52
-95 0.48
96 0.21
-96 0.79
97 0.13
-97 0.87
98 0.3
-98 0.7
99 0.06
-99 0.94
100 0.18
-100 0.8200000000000001
