1 0.51
-1 0.49
2 0.15
-2 0.85
3 0.1
-3 0.9
4 0.3
-4 0.7
5 0.65
-5 0.35
6 0.22
-6 0.78
7 0.38
-7 0.62
8 0.68
-8 0.31999999999999995
9 0.01
-9 0.99
10 0.22
-10 0.78
11 0.49
-11 0.51
12 0.11
-12 0.89
13 0.6
-13 0.4
14 0.5
-14 0.5
15 0.7
-15 0.30000000000000004
16 0.12
-16 0.88
17 0.99
-17 0.010000000000000009
18 0.47
-18 0.53
19 0.14
-19 0.86
20 0.46
-20 0.54
21 0.1
-21 0.9
22 0.63
-22 0.37
23 0.04
-23 0.96
24 0.86
-24 0.14
25 0.77
-25 0.22999999999999998
26 0.97
-26 0.030000000000000027
27 0.9
-27 0.09999999999999998
28 0.08
-28 0.92
29 0.74
-29 0.26
30 0.75
-30 0.25
31 0.48
-31 0.52
32 0.43
-32 0.5700000000000001
33 0.65
-33 0.35
34 0.02
-34 0.98
35 0.59
-35 0.41000000000000003
36 0.76
-36 0.24
37 0.56
-37 0.43999999999999995
38 0.51
-38 0.49
39 0.86
-39 0.14
40 0.64
-40 0.36
41 0.04
-41 0.96
42 0.9
-42 0.09999999999999998
43 0.67
-43 0.32999999999999996
44 0.65
-44 0.35
45 0.07
-45 0.9299999999999999
46 0.41
-46 0.5900000000000001
47 0.33
-47 0.6699999999999999
48 0.04
-48 0.96
49 0.8
-49 0.19999999999999996
50 0.08
-50 0.92
51 0.03
-51 0.97
52 0.69
-52 0.31000000000000005
53 0.98
-53 0.020000000000000018
54 0.75
-54 0.25
55 0.44
-55 0.56
56 0.66
-56 0.33999999999999997
57 0.61
-57 0.39
58 0.54
-58 0.45999999999999996
59 0.66
-59 0.33999999999999997
60 0.9
-60 0.09999999999999998
61 0.07
-61 0.9299999999999999
62 0.14
-62 0.86
63 0.11
-63 0.89
64 0.84
-64 0.16000000000000003
65 0.21
-65 0.79
66 0.19
-66 0.81
67 0.91
-67 0.08999999999999997
68 0.09
-68 0.91
69 0.37
-69 0.63
70 0.97
-70 0.030000000000000027
71 0.03
-71 0.97
72 0.6
-72 0.4
73 0.5
-73 0.5
74 0.88
-74 0.12
75 0.14
-75 0.86
76 0.42
-76 0.5800000000000001
77 0.09
-77 0.91
78 0.2
-78 0.8
79 0.19
-79 0.81
80 0.33
-80 0.6699999999999999
81 0.06
-81 0.94
82 0.64
-82 0.36
83 0.61
-83 0.39
84 0.59
-84 0.41000000000000003
85 0.84
-85 0.16000000000000003
86 0.3
-86 0.7
87 0.08
-87 0.92
88 0.33
-88 0.6699999999999999
89 0.62
-89 0.38
90 0.16
-90 0.84
91 0.81
-91 0.18999999999999995
92 0.9
-92 0.09999999999999998
93 0.25
-93 0.75
94 0.7
-94 0.30000000000000004
95 0.72
-95 0.28
96 0.42
-96 0.5800000000000001
97 0.85
-97 0.15000000000000002
98 0.54
-98 0.45999999999999996
99 0.12
-99 0.88
100 0.71
-100 0.29000000000000004
