1 0.98
-1 0.020000000000000018
2 0.41
-2 0.5900000000000001
3 0.74
-3 0.26
4 0.13
-4 0.87
5 0.74
-5 0.26
6 0.92
-6 0.07999999999999996
7 0.95
-7 0.050000000000000044
8 0.01
-8 0.99
9 0.52
-9 0.48
10 0.72
-10 0.28
11 0.39
-11 0.61
12 0.81
-12 0.18999999999999995
13 0.41
-13 0.5900000000000001
14 0.98
-14 0.020000000000000018
15 0.67
-15 0.32999999999999996
16 0.07
-16 0.9299999999999999
17 0.05
-17 0.95
18 0.59
-18 0.41000000000000003
19 0.44
-19 0.56
20 0.02
-20 0.98
21 0.76
-21 0.24
22 0.96
-22 0.040000000000000036
23 0.22
-23 0.78
24 0.13
-24 0.87
25 0.09
-25 0.91
26 0.72
-26 0.28
27 0.76
-27 0.24
28 0.4
-28 0.6
29 0.35
-29 0.65
30 0.64
-30 0.36
31 0.84
-31 0.16000000000000003
32 0.73
-32 0.27
33 0.3
-33 0.7
34 0.87
-34 0.13
35 0.54
-35 0.45999999999999996
36 0.14
-36 0.86
37 0.89
-37 0.10999999999999999
38 0.14
-38 0.86
39 0.04
-39 0.96
40 0.01
-40 0.99
41 0.35
-41 0.65
42 0.38
-42 0.62
43 0.22
-43 0.78
44 0.67
-44 0.32999999999999996
45 0.91
-45 0.08999999999999997
46 0.34
-46 0.6599999999999999
47 0.89
-47 0.10999999999999999
48 0.03
-48 0.97
49 0.41
-49 0.5900000000000001
50 0.6
-50 0.4
51 0.39
-51 0.61
52 0.27
-52 0.73
53 0.54
-53 0.45999999999999996
54 0.51
-54 0.49
55 0.7
-55 0.30000000000000004
56 0.18
-56 0.8200000000000001
57 0.52
-57 0.48
58 0.58
-58 0.42000000000000004
59 0.45
-59 0.55
60 0.55
-60 0.44999999999999996
61 0.37
-61 0.63
62 0.68
-62 0.31999999999999995
63 0.46
-63 0.54
64 0.44
-64 0.56
65 0.32
-65 0.6799999999999999
66 0.61
-66 0.39
67 0.93
-67 0.06999999999999995
68 0.56
-68 0.43999999999999995
69 0.47
-69 0.53
70 0.15
-70 0.85
71 0.61
-71 0.39
72 0.7
-72 0.30000000000000004
73 0.22
-73 0.78
74 0.33
-74 0.6699999999999999
75 0.03
-75 0.97
76 0.54
-76 0.45999999999999996
77 0.19
-77 0.81
78 0.37
-78 0.63
79 0.83
-79 0.17000000000000004
80 0.74
-80 0.26
81 0.19
-81 0.81
82 0.3
-82 0.7
83 0.92
-83 0.07999999999999996
84 0.9
-84 0.09999999999999998
85 0.46
-85 0.54
86 0.9
-86 0.09999999999999998
87 0.99
-87 0.010000000000000009
88 0.08
-88 0.92
89 0.46
-89 0.54
90 0.31
-90 0.69
91 0.58
-91 0.42000000000000004
92 0.46
-92 0.54
93 0.29
-93 0.71
94 0.96
-94 0.040000000000000036
95 0.97
-95 0.030000000000000027
96 0.53
-96 0.47
97 0.33
-97 0.6699999999999999
98 0.59
-98 0.41000000000000003
99 0.02
-99 0.98
100 0.85
-100 0.15000000000000002
