1 0.64
-1 0.36
2 0.7
-2 0.30000000000000004
3 0.46
-3 0.54
4 0.81
-4 0.18999999999999995
5 0.08
-5 0.92
6 0.3
-6 0.7
7 0.6
-7 0.4
8 0.06
-8 0.94
9 0.26
-9 0.74
10 0.12
-10 0.88
11 0.02
-11 0.98
12 0.95
-12 0.050000000000000044
13 0.5
-13 0.5
14 0.36
-14 0.64
15 0.31
-15 0.69
16 0.79
-16 0.20999999999999996
17 0.64
-17 0.36
18 0.91
-18 0.08999999999999997
19 0.7
-19 0.30000000000000004
20 0.06
-20 0.94
21 0.15
-21 0.85
22 0.03
-22 0.97
23 0.3
-23 0.7
24 0.79
-24 0.20999999999999996
25 0.17
-25 0.83
26 0.14
-26 0.86
27 0.56
-27 0.43999999999999995
28 0.67
-28 0.32999999999999996
29 0.55
-29 0.44999999999999996
30 0.44
-30 0.56
31 0.5
-31 0.5
32 0.36
-32 0.64
33 0.63
-33 0.37
34 0.86
-34 0.14
35 0.79
-35 0.20999999999999996
36 0.1
-36 0.9
37 0.98
-37 0.020000000000000018
38 0.77
-38 0.22999999999999998
39 0.57
-39 0.43000000000000005
40 0.99
-40 0.010000000000000009
41 0.6
-41 0.4
42 0.09
-42 0.91
43 0.21
-43 0.79
44 0.95
-44 0.050000000000000044
45 0.48
-45 0.52
46 0.4
-46 0.6
47 0.7
-47 0.30000000000000004
48 0.89
-48 0.10999999999999999
49 0.45
-49 0.55
50 0.17
-50 0.83
51 0.29
-51 0.71
52 0.58
-52 0.42000000000000004
53 0.91
-53 0.08999999999999997
54 0.94
-54 0.06000000000000005
55 0.43
-55 0.5700000000000001
56 0.17
-56 0.83
57 0.93
-57 0.06999999999999995
58 0.1
-58 0.9
59 0.58
-59 0.42000000000000004
60 0.9
-60 0.09999999999999998
61 0.61
-61 0.39
62 0.54
-62 0.45999999999999996
63 0.94
-63 0.06000000000000005
64 0.81
-64 0.18999999999999995
65 0.16
-65 0.84
66 0.35
-66 0.65
67 0.82
-67 0.18000000000000005
68 0.73
-68 0.27
69 0.21
-69 0.79
70 0.13
-70 0.87
71 0.63
-71 0.37
72 0.33
-72 0.6699999999999999
73 0.66
-73 0.33999999999999997
74 0.6
-74 0.4
75 0.85
-75 0.15000000000000002
76 0.29
-76 0.71
77 0.77
-77 0.22999999999999998
78 0.34
-78 0.6599999999999999
79 0.99
-79 0.010000000000000009
80 0.03
-80 0.97
81 0.14
-81 0.86
82 0.45
-82 0.55
83 0.28
-83 0.72
84 0.8
-84 0.19999999999999996
85 0.03
-85 0.97
86 0.17
-86 0.83
87 0.62
-87 0.38
88 0.41
-88 0.5900000000000001
89 0.1
-89 0.9
90 0.21
-90 0.79
91 0.17
-91 0.83
92 0.65
-92 0.35
93 0.34
-93 0.6599999999999999
94 0.16
-94 0.84
95 0.68
-95 0.31999999999999995
96 0.48
-96 0.52
97 0.03
-97 0.97
98 0.24
-98 0.76
99 0.66
-99 0.33999999999999997
100 0.08
-100 0.92
