1 0.95
-1 0.050000000000000044
2 0.06
-2 0.94
3 0.04
-3 0.96
4 0.08
-4 0.92
5 0.95
-5 0.050000000000000044
6 0.43
-6 0.5700000000000001
7 0.76
-7 0.24
8 0.08
-8 0.92
9 0.84
-9 0.16000000000000003
10 0.47
-10 0.53
11 0.46
-11 0.54
12 0.36
-12 0.64
13 0.43
-13 0.5700000000000001
14 0.87
-14 0.13
15 0.59
-15 0.41000000000000003
16 0.9
-16 0.09999999999999998
17 0.54
-17 0.45999999999999996
18 0.94
-18 0.06000000000000005
19 0.32
-19 0.6799999999999999
20 0.35
-20 0.65
21 0.28
-21 0.72
22 0.47
-22 0.53
23 0.38
-23 0.62
24 0.85
-24 0.15000000000000002
25 0.45
-25 0.55
26 0.64
-26 0.36
27 0.5
-27 0.5
28 0.99
-28 0.010000000000000009
29 0.93
-29 0.06999999999999995
30 0.36
-30 0.64
31 0.27
-31 0.73
32 0.33
-32 0.6699999999999999
33 0.99
-33 0.010000000000000009
34 0.59
-34 0.41000000000000003
35 0.84
-35 0.16000000000000003
36 0.5
-36 0.5
37 0.7
-37 0.30000000000000004
38 0.68
-38 0.31999999999999995
39 0.4
-39 0.6
40 0.85
-40 0.15000000000000002
41 0.42
-41 0.5800000000000001
42 0.03
-42 0.97
43 0.6
-43 0.4
44 0.8
-44 0.19999999999999996
45 0.64
-45 0.36
46 0.77
-46 0.22999999999999998
47 0.56
-47 0.43999999999999995
48 0.26
-48 0.74
49 0.9
-49 0.09999999999999998
50 0.64
-50 0.36
51 0.2
-51 0.8
52 0.19
-52 0.81
53 0.19
-53 0.81
54 0.23
-54 0.77
55 0.95
-55 0.050000000000000044
56 0.24
-56 0.76
57 0.28
-57 0.72
58 0.99
-58 0.010000000000000009
59 0.57
-59 0.43000000000000005
60 0.53
-60 0.47
61 0.8
-61 0.19999999999999996
62 0.63
-62 0.37
63 0.58
-63 0.42000000000000004
64 0.46
-64 0.54
65 0.05
-65 0.95
66 0.52
-66 0.48
67 0.49
-67 0.51
68 0.46
-68 0.54
69 0.72
-69 0.28
70 0.27
-70 0.73
71 0.86
-71 0.14
72 0.47
-72 0.53
73 0.39
-73 0.61
74 0.21
-74 0.79
75 0.94
-75 0.06000000000000005
76 0.42
-76 0.5800000000000001
77 0.11
-77 0.89
78 0.48
-78 0.52
79 0.38
-79 0.62
80 0.92
-80 0.07999999999999996
81 0.69
-81 0.31000000000000005
82 0.33
-82 0.6699999999999999
83 0.87
-83 0.13
84 0.41
-84 0.5900000000000001
85 0.89
-85 0.10999999999999999
86 0.66
-86 0.33999999999999997
87 0.66
-87 0.33999999999999997
88 0.98
-88 0.020000000000000018
89 0.43
-89 0.5700000000000001
90 0.56
-90 0.43999999999999995
91 0.56
-91 0.43999999999999995
92 0.62
-92 0.38
93 0.82
-93 0.18000000000000005
94 0.72
-94 0.28
95 0.28
-95 0.72
96 0.74
-96 0.26
97 0.08
-97 0.92
98 0.94
-98 0.06000000000000005
99 0.36
-99 0.64
100 0.44
-100 0.56
