1 0.01
-1 0.99
2 0.22
-2 0.78
3 0.48
-3 0.52
4 0.41
-4 0.5900000000000001
5 0.88
-5 0.12
6 0.71
-6 0.29000000000000004
7 0.13
-7 0.87
8 0.38
-8 0.62
9 0.38
-9 0.62
10 0.24
-10 0.76
11 0.1
-11 0.9
12 0.51
-12 0.49
13 0.12
-13 0.88
14 0.19
-14 0.81
15 0.71
-15 0.29000000000000004
16 0.9
-16 0.09999999999999998
17 0.68
-17 0.31999999999999995
18 0.92
-18 0.07999999999999996
19 0.12
-19 0.88
20 0.93
-20 0.06999999999999995
21 0.68
-21 0.31999999999999995
22 0.15
-22 0.85
23 0.13
-23 0.87
24 0.51
-24 0.49
25 0.97
-25 0.030000000000000027
26 0.89
-26 0.10999999999999999
27 0.83
-27 0.17000000000000004
28 0.57
-28 0.43000000000000005
29 0.6
-29 0.4
30 0.41
-30 0.5900000000000001
31 0.77
-31 0.22999999999999998
32 0.06
-32 0.94
33 0.99
-33 0.010000000000000009
34 0.9
-34 0.09999999999999998
35 0.24
-35 0.76
36 0.03
-36 0.97
37 0.59
-37 0.41000000000000003
38 0.28
-38 0.72
39 0.53
-39 0.47
40 0.92
-40 0.07999999999999996
41 0.1
-41 0.9
42 0.62
-42 0.38
43 0.16
-43 0.84
44 0.39
-44 0.61
45 0.91
-45 0.08999999999999997
46 0.03
-46 0.97
47 0.44
-47 0.56
48 0.54
-48 0.45999999999999996
49 0.45
-49 0.55
50 0.12
-50 0.88
51 0.62
-51 0.38
52 0.41
-52 0.5900000000000001
53 0.41
-53 0.5900000000000001
54 0.04
-54 0.96
55 0.41
-55 0.5900000000000001
56 0.05
-56 0.95
57 0.55
-57 0.44999999999999996
58 0.06
-58 0.94
59 0.7
-59 0.30000000000000004
60 0.53
-60 0.47
61 0.21
-61 0.79
62 0.21
-62 0.79
63 0.93
-63 0.06999999999999995
64 0.55
-64 0.44999999999999996
65 0.98
-65 0.020000000000000018
66 0.44
-66 0.56
67 0.57
-67 0.43000000000000005
68 0.28
-68 0.72
69 0.54
-69 0.45999999999999996
70 0.88
-70 0.12
71 0.98
-71 0.020000000000000018
72 0.83
-72 0.17000000000000004
73 0.3
-73 0.7
74 0.06
-74 0.94
75 0.85
-75 0.15000000000000002
76 0.27
-76 0.73
77 0.03
-77 0.97
78 0.54
-78 0.45999999999999996
79 0.2
-79 0.8
80 0.55
-80 0.44999999999999996
81 0.03
-81 0.97
82 0.88
-82 0.12
83 0.2
-83 0.8
84 0.43
-84 0.5700000000000001
85 0.71
-85 0.29000000000000004
86 0.02
-86 0.98
87 0.56
-87 0.43999999999999995
88 0.16
-88 0.84
89 0.92
-89 0.07999999999999996
90 0.75
-90 0.25
91 0.08
-91 0.92
92 0.07
-92 0.9299999999999999
93 0.86
-93 0.14
94 0.32
-94 0.6799999999999999
95 0.98
-95 0.020000000000000018
96 0.31
-96 0.69
97 0.44
-97 0.56
98 0.51
-98 0.49
99 0.48
-99 0.52
100 0.28
-100 0.72
