1 0.03
-1 0.97
2 0.05
-2 0.95
3 0.32
-3 0.6799999999999999
4 0.08
-4 0.92
5 0.74
-5 0.26
6 0.87
-6 0.13
7 0.15
-7 0.85
8 0.52
-8 0.48
9 0.35
-9 0.65
10 0.45
-10 0.55
11 0.79
-11 0.20999999999999996
12 0.78
-12 0.21999999999999997
13 0.97
-13 0.030000000000000027
14 0.83
-14 0.17000000000000004
15 0.99
-15 0.010000000000000009
16 0.03
-16 0.97
17 0.07
-17 0.9299999999999999
18 0.81
-18 0.18999999999999995
19 0.43
-19 0.5700000000000001
20 0.34
-20 0.6599999999999999
21 0.82
-21 0.18000000000000005
22 0.83
-22 0.17000000000000004
23 0.43
-23 0.5700000000000001
24 0.88
-24 0.12
25 0.45
-25 0.55
26 0.55
-26 0.44999999999999996
27 0.04
-27 0.96
28 0.82
-28 0.18000000000000005
29 0.25
-29 0.75
30 0.06
-30 0.94
31 0.33
-31 0.6699999999999999
32 0.28
-32 0.72
33 0.94
-33 0.06000000000000005
34 0.28
-34 0.72
35 0.87
-35 0.13
36 0.79
-36 0.20999999999999996
37 0.26
-37 0.74
38 0.48
-38 0.52
39 0.75
-39 0.25
40 0.32
-40 0.6799999999999999
41 0.11
-41 0.89
42 0.6
-42 0.4
43 0.5
-43 0.5
44 0.45
-44 0.55
45 0.42
-45 0.5800000000000001
46 0.38
-46 0.62
47 0.55
-47 0.44999999999999996
48 0.98
-48 0.020000000000000018
49 0.55
-49 0.44999999999999996
50 0.37
-50 0.63
51 0.81
-51 0.18999999999999995
52 0.27
-52 0.73
53 0.46
-53 0.54
54 0.95
-54 0.050000000000000044
55 0.99
-55 0.010000000000000009
56 0.3
-56 0.7
57 0.81
-57 0.18999999999999995
58 0.47
-58 0.53
59 0.51
-59 0.49
60 0.16
-60 0.84
61 0.63
-61 0.37
62 0.07
-62 0.9299999999999999
63 0.85
-63 0.15000000000000002
64 0.23
-64 0.77
65 0.43
-65 0.5700000000000001
66 0.43
-66 0.5700000000000001
67 0.83
-67 0.17000000000000004
68 0.47
-68 0.53
69 0.94
-69 0.06000000000000005
70 0.35
-70 0.65
71 0.75
-71 0.25
72 0.18
-72 0.8200000000000001
73 0.38
-73 0.62
74 0.4
-74 0.6
75 0.84
-75 0.16000000000000003
76 0.16
-76 0.84
77 0.47
-77 0.53
78 0.25
-78 0.75
79 0.91
-79 0.08999999999999997
80 0.94
-80 0.06000000000000005
81 0.32
-81 0.6799999999999999
82 0.52
-82 0.48
83 0.13
-83 0.87
84 0.97
-84 0.030000000000000027
85 0.32
-85 0.6799999999999999
86 0.07
-86 0.9299999999999999
87 0.28
-87 0.72
88 0.41
-88 0.5900000000000001
89 0.93
-89 0.06999999999999995
90 0.94
-90 0.06000000000000005
91 0.8
-91 0.19999999999999996
92 0.48
-92 0.52
93 0.62
-93 0.38
94 0.39
-94 0.61
95 0.21
-95 0.79
96 0.57
-96 0.43000000000000005
97 0.98
-97 0.020000000000000018
98 0.64
-98 0.36
99 0.37
-99 0.63
100 0.6
-100 0.4
