1 0.59
-1 0.41000000000000003
2 0.36
-2 0.64
3 0.67
-3 0.32999999999999996
4 0.01
-4 0.99
5 0.96
-5 0.040000000000000036
6 0.21
-6 0.79
7 0.53
-7 0.47
8 0.18
-8 0.8200000000000001
9 0.3
-9 0.7
10 0.18
-10 0.8200000000000001
11 0.87
-11 0.13
12 0.75
-12 0.25
13 0.78
-13 0.21999999999999997
14 0.82
-14 0.18000000000000005
15 0.54
-15 0.45999999999999996
16 0.38
-16 0.62
17 0.69
-17 0.31000000000000005
18 0.83
-18 0.17000000000000004
19 0.07
-19 0.9299999999999999
20 0.96
-20 0.040000000000000036
21 0.75
-21 0.25
22 0.51
-22 0.49
23 0.16
-23 0.84
24 0.8
-24 0.19999999999999996
25 0.34
-25 0.6599999999999999
26 0.89
-26 0.10999999999999999
27 0.3
-27 0.7
28 0.03
-28 0.97
29 0.43
-29 0.5700000000000001
30 0.32
-30 0.6799999999999999
31 0.75
-31 0.25
32 0.67
-32 0.32999999999999996
33 0.6
-33 0.4
34 0.77
-34 0.22999999999999998
35 0.76
-35 0.24
36 0.71
-36 0.29000000000000004
37 0.86
-37 0.14
38 0.4
-38 0.6
39 0.79
-39 0.20999999999999996
40 0.34
-40 0.6599999999999999
41 0.43
-41 0.5700000000000001
42 0.72
-42 0.28
43 0.52
-43 0.48
44 0.02
-44 0.98
45 0.86
-45 0.14
46 0.63
-46 0.37
47 0.27
-47 0.73
48 0.46
-48 0.54
49 0.05
-49 0.95
50 0.88
-50 0.12
51 0.04
-51 0.96
52 0.05
-52 0.95
53 0.69
-53 0.31000000000000005
54 0.75
-54 0.25
55 0.09
-55 0.91
56 0.11
-56 0.89
57 0.63
-57 0.37
58 0.96
-58 0.040000000000000036
59 0.03
-59 0.97
60 0.45
-60 0.55
61 0.59
-61 0.41000000000000003
62 0.09
-62 0.91
63 0.58
-63 0.42000000000000004
64 0.49
-64 0.51
65 0.03
-65 0.97
66 0.96
-66 0.040000000000000036
67 0.15
-67 0.85
68 0.4
-68 0.6
69 0.12
-69 0.88
70 0.34
-70 0.6599999999999999
71 0.9
-71 0.09999999999999998
72 0.13
-72 0.87
73 0.46
-73 0.54
74 0.69
-74 0.31000000000000005
75 0.5
-75 0.5
76 0.99
-76 0.010000000000000009
77 0.31
-77 0.69
78 0.98
-78 0.020000000000000018
79 0.01
-79 0.99
80 0.79
-80 0.20999999999999996
81 0.98
-81 0.020000000000000018
82 0.68
-82 0.31999999999999995
83 0.43
-83 0.5700000000000001
84 0.19
-84 0.81
85 0.76
-85 0.24
86 0.81
-86 0.18999999999999995
87 0.57
-87 0.43000000000000005
88 0.38
-88 0.62
89 0.7
-89 0.30000000000000004
90 0.63
-90 0.37
91 0.39
-91 0.61
92 0.05
-92 0.95
93 0.05
-93 0.95
94 0.56
-94 0.43999999999999995
95 0.03
-95 0.97
96 0.11
-96 0.89
97 0.33
-97 0.6699999999999999
98 0.92
-98 0.07999999999999996
99 0.32
-99 0.6799999999999999
100 0.81
-100 0.18999999999999995
