1 0.47
-1 0.53
2 0.8
-2 0.19999999999999996
3 0.7
-3 0.30000000000000004
4 0.42
-4 0.5800000000000001
5 0.31
-5 0.69
6 0.24
-6 0.76
7 0.57
-7 0.43000000000000005
8 0.88
-8 0.12
9 0.2
-9 0.8
10 0.36
-10 0.64
11 0.64
-11 0.36
12 0.72
-12 0.28
13 0.42
-13 0.5800000000000001
14 0.42
-14 0.5800000000000001
15 0.29
-15 0.71
16 0.68
-16 0.31999999999999995
17 0.38
-17 0.62
18 0.43
-18 0.5700000000000001
19 0.15
-19 0.85
20 0.81
-20 0.18999999999999995
21 0.63
-21 0.37
22 0.59
-22 0.41000000000000003
23 0.12
-23 0.88
24 0.16
-24 0.84
25 0.86
-25 0.14
26 0.12
-26 0.88
27 0.6
-27 0.4
28 0.11
-28 0.89
29 0.53
-29 0.47
30 0.53
-30 0.47
31 0.44
-31 0.56
32 0.63
-32 0.37
33 0.35
-33 0.65
34 0.75
-34 0.25
35 0.49
-35 0.51
36 0.57
-36 0.43000000000000005
37 0.43
-37 0.5700000000000001
38 0.25
-38 0.75
39 0.6
-39 0.4
40 0.15
-40 0.85
41 0.16
-41 0.84
42 0.98
-42 0.020000000000000018
43 0.01
-43 0.99
44 0.23
-44 0.77
45 0.31
-45 0.69
46 0.91
-46 0.08999999999999997
47 0.28
-47 0.72
48 0.14
-48 0.86
49 0.51
-49 0.49
50 0.8
-50 0.19999999999999996
51 0.03
-51 0.97
52 0.43
-52 0.5700000000000001
53 0.46
-53 0.54
54 0.23
-54 0.77
55 0.5
-55 0.5
56 0.3
-56 0.7
57 0.38
-57 0.62
58 0.45
-58 0.55
59 0.72
-59 0.28
60 0.9
-60 0.09999999999999998
61 0.62
-61 0.38
62 0.91
-62 0.08999999999999997
63 0.7
-63 0.30000000000000004
64 0.7
-64 0.30000000000000004
65 0.63
-65 0.37
66 0.62
-66 0.38
67 0.17
-67 0.83
68 0.85
-68 0.15000000000000002
69 0.77
-69 0.22999999999999998
70 0.41
-70 0.5900000000000001
71 0.6
-71 0.4
72 0.43
-72 0.5700000000000001
73 0.62
-73 0.38
74 0.4
-74 0.6
75 0.09
-75 0.91
76 0.68
-76 0.31999999999999995
77 0.16
-77 0.84
78 0.08
-78 0.92
79 0.88
-79 0.12
80 0.61
-80 0.39
81 0.07
-81 0.9299999999999999
82 0.11
-82 0.89
83 0.64
-83 0.36
84 0.25
-84 0.75
85 0.88
-85 0.12
86 0.22
-86 0.78
87 0.2
-87 0.8
88 0.08
-88 0.92
89 0.09
-89 0.91
90 0.56
-90 0.43999999999999995
91 0.5
-91 0.5
92 0.71
-92 0.29000000000000004
93 0.93
-93 0.06999999999999995
94 0.86
-94 0.14
95 0.2
-95 0.8
96 0.14
-96 0.86
97 0.04
-97 0.96
98 0.3
-98 0.7
99 0.96
-99 0.040000000000000036
100 0.98
-100 0.020000000000000018
