1 0.12
-1 0.88
2 0.69
-2 0.31000000000000005
3 0.02
-3 0.98
4 0.29
-4 0.71
5 0.48
-5 0.52
6 0.01
-6 0.99
7 0.64
-7 0.36
8 0.22
-8 0.78
9 0.66
-9 0.33999999999999997
10 0.82
-10 0.18000000000000005
11 0.27
-11 0.73
12 0.76
-12 0.24
13 0.01
-13 0.99
14 0.52
-14 0.48
15 0.73
-15 0.27
16 0.55
-16 0.44999999999999996
17 0.65
-17 0.35
18 0.14
-18 0.86
19 0.68
-19 0.31999999999999995
20 0.55
-20 0.44999999999999996
21 0.58
-21 0.42000000000000004
22 0.26
-22 0.74
23 0.83
-23 0.17000000000000004
24 0.81
-24 0.18999999999999995
25 0.68
-25 0.31999999999999995
26 0.38
-26 0.62
27 0.95
-27 0.050000000000000044
28 0.98
-28 0.020000000000000018
29 0.13
-29 0.87
30 0.03
-30 0.97
31 0.76
-31 0.24
32 0.84
-32 0.16000000000000003
33 0.5
-33 0.5
34 0.26
-34 0.74
35 0.75
-35 0.25
36 0.9
-36 0.09999999999999998
37 0.16
-37 0.84
38 0.47
-38 0.53
39 0.19
-39 0.81
40 0.42
-40 0.5800000000000001
41 0.87
-41 0.13
42 0.99
-42 0.010000000000000009
43 0.29
-43 0.71
44 0.87
-44 0.13
45 0.24
-45 0.76
46 0.56
-46 0.43999999999999995
47 0.7
-47 0.30000000000000004
48 0.53
-48 0.47
49 0.26
-49 0.74
50 0.99
-50 0.010000000000000009
51 0.27
-51 0.73
52 0.09
-52 0.91
53 0.93
-53 0.06999999999999995
54 0.65
-54 0.35
55 0.27
-55 0.73
56 0.65
-56 0.35
57 0.3
-57 0.7
58 0.11
-58 0.89
59 0.52
-59 0.48
60 0.87
-60 0.13
61 0.15
-61 0.85
62 0.02
-62 0.98
63 0.4
-63 0.6
64 0.48
-64 0.52
65 0.52
-65 0.48
66 0.47
-66 0.53
67 0.55
-67 0.44999999999999996
68 0.92
-68 0.07999999999999996
69 0.6
-69 0.4
70 0.64
-70 0.36
71 0.89
-71 0.10999999999999999
72 0.02
-72 0.98
73 0.03
-73 0.97
74 0.81
-74 0.18999999999999995
75 0.81
-75 0.18999999999999995
76 0.4
-76 0.6
77 0.2
-77 0.8
78 0.19
-78 0.81
79 0.72
-79 0.28
80 0.3
-80 0.7
81 0.02
-81 0.98
82 0.06
-82 0.94
83 0.85
-83 0.15000000000000002
84 0.9
-84 0.09999999999999998
85 0.8
-85 0.19999999999999996
86 0.77
-86 0.22999999999999998
87 0.84
-87 0.16000000000000003
88 0.95
-88 0.050000000000000044
89 0.34
-89 0.6599999999999999
90 0.51
-90 0.49
91 0.04
-91 0.96
92 0.71
-92 0.29000000000000004
93 0.29
-93 0.71
94 0.49
-94 0.51
95 0.88
-95 0.12
96 0.27
-96 0.73
97 0.37
-97 0.63
98 0.79
-98 0.20999999999999996
99 0.9
-99 0.09999999999999998
100 0.52
-100 0.48
