1 0.73
-1 0.27
2 0.25
-2 0.75
3 0.08
-3 0.92
4 0.47
-4 0.53
5 0.26
-5 0.74
6 0.4
-6 0.6
7 0.85
-7 0.15000000000000002
8 0.28
-8 0.72
9 0.93
-9 0.06999999999999995
10 0.47
-10 0.53
11 0.83
-11 0.17000000000000004
12 0.67
-12 0.32999999999999996
13 0.2
-13 0.8
14 0.05
-14 0.95
15 0.4
-15 0.6
16 0.81
-16 0.18999999999999995
17 0.04
-17 0.96
18 0.91
-18 0.08999999999999997
19 0.17
-19 0.83
20 0.46
-20 0.54
21 0.96
-21 0.040000000000000036
22 0.31
-22 0.69
23 0.36
-23 0.64
24 0.18
-24 0.8200000000000001
25 0.37
-25 0.63
26 0.34
-26 0.6599999999999999
27 0.43
-27 0.5700000000000001
28 0.76
-28 0.24
29 0.11
-29 0.89
30 0.64
-30 0.36
31 0.55
-31 0.44999999999999996
32 0.16
-32 0.84
33 0.57
-33 0.43000000000000005
34 0.67
-34 0.32999999999999996
35 0.6
-35 0.4
36 0.61
-36 0.39
37 0.09
-37 0.91
38 0.97
-38 0.030000000000000027
39 0.89
-39 0.10999999999999999
40 0.55
-40 0.44999999999999996
41 0.73
-41 0.27
42 0.41
-42 0.5900000000000001
43 0.93
-43 0.06999999999999995
44 0.35
-44 0.65
45 0.51
-45 0.49
46 0.2
-46 0.8
47 0.78
-47 0.21999999999999997
48 0.68
-48 0.31999999999999995
49 0.23
-49 0.77
50 0.63
-50 0.37
51 0.68
-51 0.31999999999999995
52 0.43
-52 0.5700000000000001
53 0.81
-53 0.18999999999999995
54 0.96
-54 0.040000000000000036
55 0.53
-55 0.47
56 0.73
-56 0.27
57 0.57
-57 0.43000000000000005
58 0.8
-58 0.19999999999999996
59 0.15
-59 0.85
60 0.01
-60 0.99
61 0.41
-61 0.5900000000000001
62 0.16
-62 0.84
63 0.71
-63 0.29000000000000004
64 0.6
-64 0.4
65 0.93
-65 0.06999999999999995
66 0.32
-66 0.6799999999999999
67 0.81
-67 0.18999999999999995
68 0.43
-68 0.5700000000000001
69 0.63
-69 0.37
70 0.08
-70 0.92
71 0.19
-71 0.81
72 0.36
-72 0.64
73 0.94
-73 0.06000000000000005
74 0.73
-74 0.27
75 0.99
-75 0.010000000000000009
76 0.95
-76 0.050000000000000044
77 0.41
-77 0.5900000000000001
78 0.76
-78 0.24
79 0.44
-79 0.56
80 0.18
-80 0.8200000000000001
81 0.6
-81 0.4
82 0.56
-82 0.43999999999999995
83 0.97
-83 0.030000000000000027
84 0.48
-84 0.52
85 0.17
-85 0.83
86 0.29
-86 0.71
87 0.25
-87 0.75
88 0.02
-88 0.98
89 0.62
-89 0.38
90 0.59
-90 0.41000000000000003
91 0.22
-91 0.78
92 0.52
-92 0.48
93 0.83
-93 0.17000000000000004
94 0.48
-94 0.52
95 0.55
-95 0.44999999999999996
96 0.75
-96 0.25
97 0.31
-97 0.69
98 0.9
-98 0.09999999999999998
99 0.71
-99 0.29000000000000004
100 0.44
-100 0.56
