1 0.36
-1 0.64
2 0.68
-2 0.31999999999999995
3 0.45
-3 0.55
4 0.45
-4 0.55
5 0.25
-5 0.75
6 0.8
-6 0.19999999999999996
7 0.22
-7 0.78
8 0.27
-8 0.73
9 0.19
-9 0.81
10 0.63
-10 0.37
11 0.77
-11 0.22999999999999998
12 0.68
-12 0.31999999999999995
13 0.06
-13 0.94
14 0.18
-14 0.8200000000000001
15 0.36
-15 0.64
16 0.1
-16 0.9
17 0.17
-17 0.83
18 0.48
-18 0.52
19 0.67
-19 0.32999999999999996
20 0.55
-20 0.44999999999999996
21 0.11
-21 0.89
22 0.27
-22 0.73
23 0.95
-23 0.050000000000000044
24 0.96
-24 0.040000000000000036
25 0.16
-25 0.84
26 0.68
-26 0.31999999999999995
27 0.19
-27 0.81
28 0.39
-28 0.61
29 0.45
-29 0.55
30 0.72
-30 0.28
31 0.19
-31 0.81
32 0.88
-32 0.12
33 0.45
-33 0.55
34 0.55
-34 0.44999999999999996
35 0.05
-35 0.95
36 0.79
-36 0.20999999999999996
37 0.87
-37 0.13
38 0.73
-38 0.27
39 0.56
-39 0.43999999999999995
40 0.56
-40 0.43999999999999995
41 0.59
-41 0.41000000000000003
42 0.48
-42 0.52
43 0.11
-43 0.89
44 0.62
-44 0.38
45 0.68
-45 0.31999999999999995
46 0.36
-46 0.64
47 0.67
-47 0.32999999999999996
48 0.05
-48 0.95
49 0.01
-49 0.99
50 0.73
-50 0.27
51 0.34
-51 0.6599999999999999
52 0.22
-52 0.78
53 0.44
-53 0.56
54 0.94
-54 0.06000000000000005
55 0.53
-55 0.47
56 0.19
-56 0.81
57 0.48
-57 0.52
58 0.67
-58 0.32999999999999996
59 0.85
-59 0.15000000000000002
60 0.33
-60 0.6699999999999999
61 0.48
-61 0.52
62 0.57
-62 0.43000000000000005
63 0.95
-63 0.050000000000000044
64 0.51
-64 0.49
65 0.46
-65 0.54
66 0.03
-66 0.97
67 0.77
-67 0.22999999999999998
68 0.37
-68 0.63
69 0.78
-69 0.21999999999999997
70 0.65
-70 0.35
71 0.6
-71 0.4
72 0.33
-72 0.6699999999999999
73 0.2
-73 0.8
74 0.01
-74 0.99
75 0.12
-75 0.88
76 0.41
-76 0.5900000000000001
77 0.51
-77 0.49
78 0.27
-78 0.73
79 0.09
-79 0.91
80 0.99
-80 0.010000000000000009
81 0.5
-81 0.5
82 0.42
-82 0.5800000000000001
83 0.43
-83 0.5700000000000001
84 0.75
-84 0.25
85 0.7
-85 0.30000000000000004
86 0.9
-86 0.09999999999999998
87 0.68
-87 0.31999999999999995
88 0.75
-88 0.25
89 0.33
-89 0.6699999999999999
90 0.84
-90 0.16000000000000003
91 0.26
-91 0.74
92 0.23
-92 0.77
93 0.03
-93 0.97
94 0.15
-94 0.85
95 0.83
-95 0.17000000000000004
96 0.36
-96 0.64
97 0.84
-97 0.16000000000000003
98 0.68
-98 0.31999999999999995
99 0.01
-99 0.99
100 0.03
-100 0.97
