1 0.32
-1 0.6799999999999999
2 0.95
-2 0.050000000000000044
3 0.17
-3 0.83
4 0.8
-4 0.19999999999999996
5 0.98
-5 0.020000000000000018
6 0.64
-6 0.36
7 0.49
-7 0.51
8 0.58
-8 0.42000000000000004
9 0.17
-9 0.83
10 0.76
-10 0.24
11 0.62
-11 0.38
12 0.69
-12 0.31000000000000005
13 0.85
-13 0.15000000000000002
14 0.82
-14 0.18000000000000005
15 0.13
-15 0.87
16 0.99
-16 0.010000000000000009
17 0.09
-17 0.91
18 0.17
-18 0.83
19 0.56
-19 0.43999999999999995
20 0.01
-20 0.99
21 0.7
-21 0.30000000000000004
22 0.9
-22 0.09999999999999998
23 0.13
-23 0.87
24 0.76
-24 0.24
25 0.07
-25 0.9299999999999999
26 0.67
-26 0.32999999999999996
27 0.72
-27 0.28
28 0.73
-28 0.27
29 0.75
-29 0.25
30 0.1
-30 0.9
31 0.53
-31 0.47
32 0.18
-32 0.8200000000000001
33 0.75
-33 0.25
34 0.1
-34 0.9
35 0.17
-35 0.83
36 0.25
-36 0.75
37 0.29
-37 0.71
38 0.57
-38 0.43000000000000005
39 0.9
-39 0.09999999999999998
40 0.19
-40 0.81
41 0.24
-41 0.76
42 0.05
-42 0.95
43 0.88
-43 0.12
44 0.29
-44 0.71
45 0.11
-45 0.89
46 0.53
-46 0.47
47 0.33
-47 0.6699999999999999
48 0.49
-48 0.51
49 0.04
-49 0.96
50 0.31
-50 0.69
51 0.53
-51 0.47
52 0.29
-52 0.71
53 0.03
-53 0.97
54 0.82
-54 0.18000000000000005
55 0.13
-55 0.87
56 0.07
-56 0.9299999999999999
57 0.4
-57 0.6
58 0.92
-58 0.07999999999999996
59 0.62
-59 0.38
60 0.14
-60 0.86
61 0.97
-61 0.030000000000000027
62 0.15
-62 0.85
63 0.48
-63 0.52
64 0.01
-64 0.99
65 0.05
-65 0.95
66 0.12
-66 0.88
67 0.67
-67 0.32999999999999996
68 0.22
-68 0.78
69 0.14
-69 0.86
70 0.66
-70 0.33999999999999997
71 0.54
-71 0.45999999999999996
72 0.16
-72 0.84
73 0.54
-73 0.45999999999999996
74 0.4
-74 0.6
75 0.06
-75 0.94
76 0.79
-76 0.20999999999999996
77 0.06
-77 0.94
78 0.9
-78 0.09999999999999998
79 0.65
-79 0.35
80 0.99
-80 0.010000000000000009
81 0.8
-81 0.19999999999999996
82 0.33
-82 0.6699999999999999
83 0.07
-83 0.9299999999999999
84 0.18
-84 0.8200000000000001
85 0.67
-85 0.32999999999999996
86 0.63
-86 0.37
87 0.27
-87 0.73
88 0.81
-88 0.18999999999999995
89 0.36
-89 0.64
90 0.75
-90 0.25
91 0.21
-91 0.79
92 0.98
-92 0.020000000000000018
93 0.78
-93 0.21999999999999997
94 0.36
-94 0.64
95 0.71
-95 0.29000000000000004
96 0.18
-96 0.8200000000000001
97 0.08
-97 0.92
98 0.1
-98 0.9
99 0.04
-99 0.96
100 0.3
-100 0.7
