1 0.1
-1 0.9
2 0.03
-2 0.97
3 0.77
-3 0.22999999999999998
4 0.7
-4 0.30000000000000004
5 0.88
-5 0.12
6 0.35
-6 0.65
7 0.65
-7 0.35
8 0.69
-8 0.31000000000000005
9 0.53
-9 0.47
10 0.86
-10 0.14
11 0.46
-11 0.54
12 0.97
-12 0.030000000000000027
13 0.86
-13 0.14
14 0.46
-14 0.54
15 0.25
-15 0.75
16 0.6
-16 0.4
17 0.96
-17 0.040000000000000036
18 0.42
-18 0.5800000000000001
19 0.26
-19 0.74
20 0.44
-20 0.56
21 0.36
-21 0.64
22 0.24
-22 0.76
23 0.53
-23 0.47
24 0.67
-24 0.32999999999999996
25 0.16
-25 0.84
26 0.07
-26 0.9299999999999999
27 0.28
-27 0.72
28 0.26
-28 0.74
29 0.48
-29 0.52
30 0.15
-30 0.85
31 0.57
-31 0.43000000000000005
32 0.49
-32 0.51
33 0.95
-33 0.050000000000000044
34 0.79
-34 0.20999999999999996
35 0.43
-35 0.5700000000000001
36 0.97
-36 0.030000000000000027
37 0.4
-37 0.6
38 0.95
-38 0.050000000000000044
39 0.47
-39 0.53
40 0.15
-40 0.85
41 0.74
-41 0.26
42 0.36
-42 0.64
43 0.84
-43 0.16000000000000003
44 0.84
-44 0.16000000000000003
45 0.03
-45 0.97
46 0.73
-46 0.27
47 0.16
-47 0.84
48 0.47
-48 0.53
49 0.09
-49 0.91
50 0.9
-50 0.09999999999999998
51 0.33
-51 0.6699999999999999
52 0.94
-52 0.06000000000000005
53 0.14
-53 0.86
54 0.03
-54 0.97
55 0.18
-55 0.8200000000000001
56 0.93
-56 0.06999999999999995
57 0.23
-57 0.77
58 0.29
-58 0.71
59 0.53
-59 0.47
60 0.94
-60 0.06000000000000005
61 0.96
-61 0.040000000000000036
62 0.57
-62 0.43000000000000005
63 0.08
-63 0.92
64 0.54
-64 0.45999999999999996
65 0.83
-65 0.17000000000000004
66 0.12
-66 0.88
67 0.96
-67 0.040000000000000036
68 0.25
-68 0.75
69 0.22
-69 0.78
70 0.61
-70 0.39
71 0.1
-71 0.9
72 0.57
-72 0.43000000000000005
73 0.6
-73 0.4
74 0.47
-74 0.53
75 0.59
-75 0.41000000000000003
76 0.92
-76 0.07999999999999996
77 0.73
-77 0.27
78 0.13
-78 0.87
79 0.56
-79 0.43999999999999995
80 0.08
-80 0.92
81 0.96
-81 0.040000000000000036
82 0.32
-82 0.6799999999999999
83 0.65
-83 0.35
84 0.26
-84 0.74
85 0.52
-85 0.48
86 0.68
-86 0.31999999999999995
87 0.09
-87 0.91
88 0.89
-88 0.10999999999999999
89 0.69
-89 0.31000000000000005
90 0.47
-90 0.53
91 0.83
-91 0.17000000000000004
92 0.66
-92 0.33999999999999997
93 0.72
-93 0.28
94 0.06
-94 0.94
95 0.77
-95 0.22999999999999998
96 0.58
-96 0.42000000000000004
97 0.79
-97 0.20999999999999996
98 0.32
-98 0.6799999999999999
99 0.08
-99 0.92
100 0.29
-100 0.71
