1 0.67
-1 0.32999999999999996
2 0.94
-2 0.06000000000000005
3 0.51
-3 0.49
4 0.26
-4 0.74
5 0.36
-5 0.64
6 0.29
-6 0.71
7 0.16
-7 0.84
8 0.92
-8 0.07999999999999996
9 0.18
-9 0.8200000000000001
10 0.65
-10 0.35
11 0.2
-11 0.8
12 0.11
-12 0.89
13 0.91
-13 0.08999999999999997
14 0.94
-14 0.06000000000000005
15 0.41
-15 0.5900000000000001
16 0.92
-16 0.07999999999999996
17 0.57
-17 0.43000000000000005
18 0.89
-18 0.10999999999999999
19 0.85
-19 0.15000000000000002
20 0.67
-20 0.32999999999999996
21 0.93
-21 0.06999999999999995
22 0.89
-22 0.10999999999999999
23 0.14
-23 0.86
24 0.81
-24 0.18999999999999995
25 0.98
-25 0.020000000000000018
26 0.55
-26 0.44999999999999996
27 0.8
-27 0.19999999999999996
28 0.99
-28 0.010000000000000009
29 0.71
-29 0.29000000000000004
30 0.07
-30 0.9299999999999999
31 0.95
-31 0.050000000000000044
32 0.29
-32 0.71
33 0.66
-33 0.33999999999999997
34 0.78
-34 0.21999999999999997
35 0.6
-35 0.4
36 0.25
-36 0.75
37 0.57
-37 0.43000000000000005
38 0.5
-38 0.5
39 0.84
-39 0.16000000000000003
40 0.89
-40 0.10999999999999999
41 0.64
-41 0.36
42 0.23
-42 0.77
43 0.16
-43 0.84
44 0.27
-44 0.73
45 0.12
-45 0.88
46 0.15
-46 0.85
47 0.21
-47 0.79
48 0.05
-48 0.95
49 0.66
-49 0.33999999999999997
50 0.54
-50 0.45999999999999996
51 0.2
-51 0.8
52 0.13
-52 0.87
53 0.62
-53 0.38
54 0.12
-54 0.88
55 0.82
-55 0.18000000000000005
56 0.28
-56 0.72
57 0.54
-57 0.45999999999999996
58 0.4
-58 0.6
59 0.51
-59 0.49
60 0.99
-60 0.010000000000000009
61 0.67
-61 0.32999999999999996
62 0.99
-62 0.010000000000000009
63 0.56
-63 0.43999999999999995
64 0.87
-64 0.13
65 0.86
-65 0.14
66 0.31
-66 0.69
67 0.22
-67 0.78
68 0.3
-68 0.7
69 0.97
-69 0.030000000000000027
70 0.65
-70 0.35
71 0.87
-71 0.13
72 0.06
-72 0.94
73 0.44
-73 0.56
74 0.45
-74 0.55
75 0.3
-75 0.7
76 0.14
-76 0.86
77 0.34
-77 0.6599999999999999
78 0.24
-78 0.76
79 0.8
-79 0.19999999999999996
80 0.17
-80 0.83
81 0.83
-81 0.17000000000000004
82 0.9
-82 0.09999999999999998
83 0.85
-83 0.15000000000000002
84 0.13
-84 0.87
85 0.23
-85 0.77
86 0.97
-86 0.030000000000000027
87 0.05
-87 0.95
88 0.41
-88 0.5900000000000001
89 0.59
-89 0.41000000000000003
90 0.06
-90 0.94
91 0.07
-91 0.9299999999999999
92 0.55
-92 0.44999999999999996
93 0.69
-93 0.31000000000000005
94 0.72
-94 0.28
95 0.28
-95 0.72
96 0.16
-96 0.84
97 0.72
-97 0.28
98 0.34
-98 0.6599999999999999
99 0.75
-99 0.25
100 0.39
-100 0.61
