1 0.13
-1 0.87
2 0.53
-2 0.47
3 0.56
-3 0.43999999999999995
4 0.18
-4 0.8200000000000001
5 0.16
-5 0.84
6 0.25
-6 0.75
7 0.78
-7 0.21999999999999997
8 0.33
-8 0.6699999999999999
9 0.39
-9 0.61
10 0.06
-10 0.94
11 0.95
-11 0.050000000000000044
12 0.16
-12 0.84
13 0.78
-13 0.21999999999999997
14 0.81
-14 0.18999999999999995
15 0.42
-15 0.5800000000000001
16 0.24
-16 0.76
17 0.5
-17 0.5
18 0.9
-18 0.09999999999999998
19 0.09
-19 0.91
20 0.07
-20 0.9299999999999999
21 0.29
-21 0.71
22 0.52
-22 0.48
23 0.72
-23 0.28
24 0.97
-24 0.030000000000000027
25 0.76
-25 0.24
26 0.32
-26 0.6799999999999999
27 0.96
-27 0.040000000000000036
28 0.16
-28 0.84
29 0.03
-29 0.97
30 0.99
-30 0.010000000000000009
31 0.45
-31 0.55
32 0.97
-32 0.030000000000000027
33 0.74
-33 0.26
34 0.93
-34 0.06999999999999995
35 0.56
-35 0.43999999999999995
36 0.38
-36 0.62
37 0.32
-37 0.6799999999999999
38 0.24
-38 0.76
39 0.96
-39 0.040000000000000036
40 0.92
-40 0.07999999999999996
41 0.39
-41 0.61
42 0.26
-42 0.74
43 0.07
-43 0.9299999999999999
44 0.55
-44 0.44999999999999996
45 0.58
-45 0.42000000000000004
46 0.17
-46 0.83
47 0.78
-47 0.21999999999999997
48 0.6
-48 0.4
49 0.13
-49 0.87
50 0.81
-50 0.18999999999999995
51 0.72
-51 0.28
52 0.84
-52 0.16000000000000003
53 0.82
-53 0.18000000000000005
54 0.84
-54 0.16000000000000003
55 0.49
-55 0.51
56 0.19
-56 0.81
57 0.52
-57 0.48
58 0.46
-58 0.54
59 0.91
-59 0.08999999999999997
60 0.51
-60 0.49
61 0.94
-61 0.06000000000000005
62 0.01
-62 0.99
63 0.32
-63 0.6799999999999999
64 0.59
-64 0.41000000000000003
65 0.17
-65 0.83
66 0.21
-66 0.79
67 0.99
-67 0.010000000000000009
68 0.24
-68 0.76
69 0.27
-69 0.73
70 0.06
-70 0.94
71 0.32
-71 0.6799999999999999
72 0.32
-72 0.6799999999999999
73 0.17
-73 0.83
74 0.16
-74 0.84
75 0.53
-75 0.47
76 0.22
-76 0.78
77 0.26
-77 0.74
78 0.77
-78 0.22999999999999998
79 0.57
-79 0.43000000000000005
80 0.28
-80 0.72
81 0.16
-81 0.84
82 0.57
-82 0.43000000000000005
83 0.33
-83 0.6699999999999999
84 0.59
-84 0.41000000000000003
85 0.77
-85 0.22999999999999998
86 0.33
-86 0.6699999999999999
87 0.16
-87 0.84
88 0.88
-88 0.12
89 0.64
-89 0.36
90 0.57
-90 0.43000000000000005
91 0.86
-91 0.14
92 0.39
-92 0.61
93 0.87
-93 0.13
94 0.64
-94 0.36
95 0.02
-95 0.98
96 0.02
-96 0.98
97 0.95
-97 0.050000000000000044
98 0.14
-98 0.86
99 0.93
-99 0.06999999999999995
100 0.24
-100 0.76
