1 0.08
-1 0.92
2 0.65
-2 0.35
3 0.38
-3 0.62
4 0.86
-4 0.14
5 0.94
-5 0.06000000000000005
6 0.97
-6 0.030000000000000027
7 0.27
-7 0.73
8 0.78
-8 0.21999999999999997
9 0.65
-9 0.35
10 0.82
-10 0.18000000000000005
11 0.6
-11 0.4
12 0.58
-12 0.42000000000000004
13 0.16
-13 0.84
14 0.32
-14 0.6799999999999999
15 0.63
-15 0.37
16 0.8
-16 0.19999999999999996
17 0.38
-17 0.62
18 0.04
-18 0.96
19 0.75
-19 0.25
20 0.56
-20 0.43999999999999995
21 0.84
-21 0.16000000000000003
22 0.31
-22 0.69
23 0.62
-23 0.38
24 0.28
-24 0.72
25 0.28
-25 0.72
26 0.37
-26 0.63
27 0.58
-27 0.42000000000000004
28 0.56
-28 0.43999999999999995
29 0.41
-29 0.5900000000000001
30 0.93
-30 0.06999999999999995
31 0.78
-31 0.21999999999999997
32 0.93
-32 0.06999999999999995
33 0.1
-33 0.9
34 0.97
-34 0.030000000000000027
35 0.19
-35 0.81
36 0.26
-36 0.74
37 0.57
-37 0.43000000000000005
38 0.98
-38 0.020000000000000018
39 0.9
-39 0.09999999999999998
40 0.17
-40 0.83
41 0.01
-41 0.99
42 0.05
-42 0.95
43 0.91
-43 0.08999999999999997
44 0.01
-44 0.99
45 0.83
-45 0.17000000000000004
46 0.5
-46 0.5
47 0.69
-47 0.31000000000000005
48 0.75
-48 0.25
49 0.79
-49 0.20999999999999996
50 0.9
-50 0.09999999999999998
51 0.32
-51 0.6799999999999999
52 0.3
-52 0.7
53 0.74
-53 0.26
54 0.13
-54 0.87
55 0.46
-55 0.54
56 0.89
-56 0.10999999999999999
57 0.13
-57 0.87
58 0.57
-58 0.43000000000000005
59 0.36
-59 0.64
60 0.62
-60 0.38
61 0.8
-61 0.19999999999999996
62 0.01
-62 0.99
63 0.4
-63 0.6
64 0.4
-64 0.6
65 0.88
-65 0.12
66 0.06
-66 0.94
67 0.07
-67 0.9299999999999999
68 0.31
-68 0.69
69 0.34
-69 0.6599999999999999
70 0.15
-70 0.85
71 0.11
-71 0.89
72 0.74
-72 0.26
73 0.23
-73 0.77
74 0.09
-74 0.91
75 0.18
-75 0.8200000000000001
76 0.81
-76 0.18999999999999995
77 0.48
-77 0.52
78 0.08
-78 0.92
79 0.72
-79 0.28
80 0.23
-80 0.77
81 0.49
-81 0.51
82 0.48
-82 0.52
83 0.15
-83 0.85
84 0.39
-84 0.61
85 0.93
-85 0.06999999999999995
86 0.44
-86 0.56
87 0.73
-87 0.27
88 0.12
-88 0.88
89 0.13
-89 0.87
90 0.15
-90 0.85
91 0.83
-91 0.17000000000000004
92 0.53
-92 0.47
93 0.91
-93 0.08999999999999997
94 0.8
-94 0.19999999999999996
95 0.65
-95 0.35
96 0.35
-96 0.65
97 0.65
-97 0.35
98 0.69
-98 0.31000000000000005
99 0.49
-99 0.51
100 0.24
-100 0.76
