1 0.35
-1 0.65
2 0.39
-2 0.61
3 0.86
-3 0.14
4 0.82
-4 0.18000000000000005
5 0.42
-5 0.5800000000000001
6 0.16
-6 0.84
7 0.71
-7 0.29000000000000004
8 0.78
-8 0.21999999999999997
9 0.71
-9 0.29000000000000004
10 0.84
-10 0.16000000000000003
11 0.81
-11 0.18999999999999995
12 0.5
-12 0.5
13 0.88
-13 0.12
14 0.11
-14 0.89
15 0.65
-15 0.35
16 0.29
-16 0.71
17 0.44
-17 0.56
18 0.15
-18 0.85
19 0.69
-19 0.31000000000000005
20 0.6
-20 0.4
21 0.96
-21 0.040000000000000036
22 0.63
-22 0.37
23 0.43
-23 0.5700000000000001
24 0.92
-24 0.07999999999999996
25 0.78
-25 0.21999999999999997
26 0.43
-26 0.5700000000000001
27 0.67
-27 0.32999999999999996
28 0.28
-28 0.72
29 0.39
-29 0.61
30 0.07
-30 0.9299999999999999
31 0.72
-31 0.28
32 0.99
-32 0.010000000000000009
33 0.45
-33 0.55
34 0.61
-34 0.39
35 0.68
-35 0.31999999999999995
36 0.29
-36 0.71
37 0.87
-37 0.13
38 0.78
-38 0.21999999999999997
39 0.16
-39 0.84
40 0.5
-40 0.5
41 0.44
-41 0.56
42 0.68
-42 0.31999999999999995
43 0.02
-43 0.98
44 0.75
-44 0.25
45 0.28
-45 0.72
46 0.29
-46 0.71
47 0.36
-47 0.64
48 0.86
-48 0.14
49 0.27
-49 0.73
50 0.52
-50 0.48
51 0.02
-51 0.98
52 0.13
-52 0.87
53 0.78
-53 0.21999999999999997
54 0.98
-54 0.020000000000000018
55 0.77
-55 0.22999999999999998
56 0.98
-56 0.020000000000000018
57 0.02
-57 0.98
58 0.01
-58 0.99
59 0.79
-59 0.20999999999999996
60 0.33
-60 0.6699999999999999
61 0.3
-61 0.7
62 0.2
-62 0.8
63 0.74
-63 0.26
64 0.74
-64 0.26
65 0.99
-65 0.010000000000000009
66 0.61
-66 0.39
67 0.65
-67 0.35
68 0.39
-68 0.61
69 0.16
-69 0.84
70 0.62
-70 0.38
71 0.78
-71 0.21999999999999997
72 0.18
-72 0.8200000000000001
73 0.3
-73 0.7
74 0.37
-74 0.63
75 0.89
-75 0.10999999999999999
76 0.11
-76 0.89
77 0.62
-77 0.38
78 0.13
-78 0.87
79 0.36
-79 0.64
80 0.31
-80 0.69
81 0.71
-81 0.29000000000000004
82 0.16
-82 0.84
83 0.33
-83 0.6699999999999999
84 0.05
-84 0.95
85 0.81
-85 0.18999999999999995
86 0.57
-86 0.43000000000000005
87 0.83
-87 0.17000000000000004
88 0.35
-88 0.65
89 0.77
-89 0.22999999999999998
90 0.93
-90 0.06999999999999995
91 0.01
-91 0.99
92 0.85
-92 0.15000000000000002
93 0.92
-93 0.07999999999999996
94 0.57
-94 0.43000000000000005
95 0.14
-95 0.86
96 0.38
-96 0.62
97 0.52
-97 0.48
98 0.89
-98 0.10999999999999999
99 0.29
-99 0.71
100 0.44
-100 0.56
