1 0.4
-1 0.6
2 0.8
-2 0.19999999999999996
3 0.67
-3 0.32999999999999996
4 0.84
-4 0.16000000000000003
5 0.27
-5 0.73
6 0.38
-6 0.62
7 0.94
-7 0.06000000000000005
8 0.63
-8 0.37
9 0.07
-9 0.9299999999999999
10 0.22
-10 0.78
11 0.56
-11 0.43999999999999995
12 0.59
-12 0.41000000000000003
13 0.15
-13 0.85
14 0.88
-14 0.12
15 0.36
-15 0.64
16 0.2
-16 0.8
17 0.75
-17 0.25
18 0.7
-18 0.30000000000000004
19 0.17
-19 0.83
20 0.23
-20 0.77
21 0.47
-21 0.53
22 0.63
-22 0.37
23 0.97
-23 0.030000000000000027
24 0.53
-24 0.47
25 0.15
-25 0.85
26 0.46
-26 0.54
27 0.85
-27 0.15000000000000002
28 0.09
-28 0.91
29 0.46
-29 0.54
30 0.83
-30 0.17000000000000004
31 0.27
-31 0.73
32 0.07
-32 0.9299999999999999
33 0.11
-33 0.89
34 0.3
-34 0.7
35 0.94
-35 0.06000000000000005
36 0.66
-36 0.33999999999999997
37 0.04
-37 0.96
38 0.33
-38 0.6699999999999999
39 0.55
-39 0.44999999999999996
40 0.75
-40 0.25
41 0.98
-41 0.020000000000000018
42 0.43
-42 0.5700000000000001
43 0.63
-43 0.37
44 0.24
-44 0.76
45 0.64
-45 0.36
46 0.5
-46 0.5
47 0.76
-47 0.24
48 0.33
-48 0.6699999999999999
49 0.62
-49 0.38
50 0.87
-50 0.13
51 0.98
-51 0.020000000000000018
52 0.82
-52 0.18000000000000005
53 0.18
-53 0.8200000000000001
54 0.54
-54 0.45999999999999996
55 0.51
-55 0.49
56 0.89
-56 0.10999999999999999
57 0.45
-57 0.55
58 0.41
-58 0.5900000000000001
59 0.6
-59 0.4
60 0.63
-60 0.37
61 0.83
-61 0.17000000000000004
62 0.64
-62 0.36
63 0.44
-63 0.56
64 0.41
-64 0.5900000000000001
65 0.09
-65 0.91
66 0.08
-66 0.92
67 0.88
-67 0.12
68 0.01
-68 0.99
69 0.89
-69 0.10999999999999999
70 0.33
-70 0.6699999999999999
71 0.22
-71 0.78
72 0.01
-72 0.99
73 0.13
-73 0.87
74 0.48
-74 0.52
75 0.32
-75 0.6799999999999999
76 0.26
-76 0.74
77 0.38
-77 0.62
78 0.3
-78 0.7
79 0.25
-79 0.75
80 0.43
-80 0.5700000000000001
81 0.73
-81 0.27
82 0.54
-82 0.45999999999999996
83 0.49
-83 0.51
84 0.12
-84 0.88
85 0.75
-85 0.25
86 0.38
-86 0.62
87 0.93
-87 0.06999999999999995
88 0.95
-88 0.050000000000000044
89 0.04
-89 0.96
90 0.91
-90 0.08999999999999997
91 0.6
-91 0.4
92 0.98
-92 0.020000000000000018
93 0.18
-93 0.8200000000000001
94 0.13
-94 0.87
95 0.81
-95 0.18999999999999995
96 0.57
-96 0.43000000000000005
97 0.96
-97 0.040000000000000036
98 0.62
-98 0.38
99 0.48
-99 0.52
100 0.8
-100 0.19999999999999996
