1 0.06
-1 0.94
2 0.43
-2 0.5700000000000001
3 0.94
-3 0.06000000000000005
4 0.8
-4 0.19999999999999996
5 0.73
-5 0.27
6 0.58
-6 0.42000000000000004
7 0.64
-7 0.36
8 0.13
-8 0.87
9 0.24
-9 0.76
10 0.82
-10 0.18000000000000005
11 0.62
-11 0.38
12 0.02
-12 0.98
13 0.18
-13 0.8200000000000001
14 0.51
-14 0.49
15 0.68
-15 0.31999999999999995
16 0.6
-16 0.4
17 0.58
-17 0.42000000000000004
18 0.45
-18 0.55
19 0.27
-19 0.73
20 0.14
-20 0.86
21 0.73
-21 0.27
22 0.39
-22 0.61
23 0.68
-23 0.31999999999999995
24 0.09
-24 0.91
25 0.76
-25 0.24
26 0.05
-26 0.95
27 0.98
-27 0.020000000000000018
28 0.61
-28 0.39
29 0.6
-29 0.4
30 0.43
-30 0.5700000000000001
31 0.76
-31 0.24
32 0.07
-32 0.9299999999999999
33 0.02
-33 0.98
34 0.25
-34 0.75
35 0.52
-35 0.48
36 0.87
-36 0.13
37 0.96
-37 0.040000000000000036
38 0.16
-38 0.84
39 0.38
-39 0.62
40 0.94
-40 0.06000000000000005
41 0.6
-41 0.4
42 0.8
-42 0.19999999999999996
43 0.71
-43 0.29000000000000004
44 0.12
-44 0.88
45 0.72
-45 0.28
46 0.14
-46 0.86
47 0.58
-47 0.42000000000000004
48 0.63
-48 0.37
49 0.12
-49 0.88
50 0.75
-50 0.25
51 0.69
-51 0.31000000000000005
52 0.27
-52 0.73
53 0.71
-53 0.29000000000000004
54 0.26
-54 0.74
55 0.88
-55 0.12
56 0.24
-56 0.76
57 0.6
-57 0.4
58 0.2
-58 0.8
59 0.13
-59 0.87
60 0.33
-60 0.6699999999999999
61 0.24
-61 0.76
62 0.01
-62 0.99
63 0.75
-63 0.25
64 0.84
-64 0.16000000000000003
65 0.06
-65 0.94
66 0.2
-66 0.8
67 0.01
-67 0.99
68 0.46
-68 0.54
69 0.94
-69 0.06000000000000005
70 0.55
-70 0.44999999999999996
71 0.31
-71 0.69
72 0.49
-72 0.51
73 0.45
-73 0.55
74 0.79
-74 0.20999999999999996
75 0.86
-75 0.14
76 0.82
-76 0.18000000000000005
77 0.99
-77 0.010000000000000009
78 0.76
-78 0.24
79 0.19
-79 0.81
80 0.99
-80 0.010000000000000009
81 0.35
-81 0.65
82 0.83
-82 0.17000000000000004
83 0.09
-83 0.91
84 0.5
-84 0.5
85 0.58
-85 0.42000000000000004
86 0.43
-86 0.5700000000000001
87 0.39
-87 0.61
88 0.45
-88 0.55
89 0.19
-89 0.81
90 0.96
-90 0.040000000000000036
91 0.76
-91 0.24
92 0.11
-92 0.89
93 0.36
-93 0.64
94 0.93
-94 0.06999999999999995
95 0.73
-95 0.27
96 0.53
-96 0.47
97 0.92
-97 0.07999999999999996
98 0.96
-98 0.040000000000000036
99 0.14
-99 0.86
100 0.54
-100 0.45999999999999996
