1 0.32
-1 0.6799999999999999
2 0.18
-2 0.8200000000000001
3 0.64
-3 0.36
4 0.21
-4 0.79
5 0.27
-5 0.73
6 0.92
-6 0.07999999999999996
7 0.46
-7 0.54
8 0.65
-8 0.35
9 0.88
-9 0.12
10 0.98
-10 0.020000000000000018
11 0.99
-11 0.010000000000000009
12 0.9
-12 0.09999999999999998
13 0.48
-13 0.52
14 0.42
-14 0.5800000000000001
15 0.12
-15 0.88
16 0.39
-16 0.61
17 0.92
-17 0.07999999999999996
18 0.17
-18 0.83
19 0.62
-19 0.38
20 0.95
-20 0.050000000000000044
21 0.12
-21 0.88
22 0.82
-22 0.18000000000000005
23 0.29
-23 0.71
24 0.51
-24 0.49
25 0.19
-25 0.81
26 0.8
-26 0.19999999999999996
27 0.28
-27 0.72
28 0.8
-28 0.19999999999999996
29 0.15
-29 0.85
30 0.8
-30 0.19999999999999996
31 0.14
-31 0.86
32 0.57
-32 0.43000000000000005
33 0.14
-33 0.86
34 0.69
-34 0.31000000000000005
35 0.52
-35 0.48
36 0.43
-36 0.5700000000000001
37 0.22
-37 0.78
38 0.09
-38 0.91
39 0.16
-39 0.84
40 0.25
-40 0.75
41 0.63
-41 0.37
42 0.5
-42 0.5
43 0.33
-43 0.6699999999999999
44 0.36
-44 0.64
45 0.12
-45 0.88
46 0.1
-46 0.9
47 0.92
-47 0.07999999999999996
48 0.5
-48 0.5
49 0.93
-49 0.06999999999999995
50 0.56
-50 0.43999999999999995
51 0.38
-51 0.62
52 0.09
-52 0.91
53 0.01
-53 0.99
54 0.81
-54 0.18999999999999995
55 0.79
-55 0.20999999999999996
56 0.63
-56 0.37
57 0.38
-57 0.62
58 0.43
-58 0.5700000000000001
59 0.96
-59 0.040000000000000036
60 0.56
-60 0.43999999999999995
61 0.68
-61 0.31999999999999995
62 0.4
-62 0.6
63 0.79
-63 0.20999999999999996
64 0.73
-64 0.27
65 0.73
-65 0.27
66 0.49
-66 0.51
67 0.89
-67 0.10999999999999999
68 0.23
-68 0.77
69 0.95
-69 0.050000000000000044
70 0.17
-70 0.83
71 0.28
-71 0.72
72 0.42
-72 0.5800000000000001
73 0.95
-73 0.050000000000000044
74 0.74
-74 0.26
75 0.75
-75 0.25
76 0.86
-76 0.14
77 0.55
-77 0.44999999999999996
78 0.39
-78 0.61
79 0.08
-79 0.92
80 0.53
-80 0.47
81 0.41
-81 0.5900000000000001
82 0.97
-82 0.030000000000000027
83 0.84
-83 0.16000000000000003
84 0.46
-84 0.54
85 0.2
-85 0.8
86 0.72
-86 0.28
87 0.07
-87 0.9299999999999999
88 0.21
-88 0.79
89 0.4
-89 0.6
90 0.99
-90 0.010000000000000009
91 0.02
-91 0.98
92 0.55
-92 0.44999999999999996
93 0.92
-93 0.07999999999999996
94 0.57
-94 0.43000000000000005
95 0.74
-95 0.26
96 0.22
-96 0.78
97 0.61
-97 0.39
98 0.46
-98 0.54
99 0.42
-99 0.5800000000000001
100 0.57
-100 0.43000000000000005
