1 0.62
-1 0.38
2 0.01
-2 0.99
3 0.31
-3 0.69
4 0.77
-4 0.22999999999999998
5 0.42
-5 0.5800000000000001
6 0.83
-6 0.17000000000000004
7 0.52
-7 0.48
8 0.74
-8 0.26
9 0.29
-9 0.71
10 0.14
-10 0.86
11 0.22
-11 0.78
12 0.13
-12 0.87
13 0.67
-13 0.32999999999999996
14 0.78
-14 0.21999999999999997
15 0.88
-15 0.12
16 0.65
-16 0.35
17 0.58
-17 0.42000000000000004
18 0.72
-18 0.28
19 0.42
-19 0.5800000000000001
20 0.34
-20 0.6599999999999999
21 0.22
-21 0.78
22 0.74
-22 0.26
23 0.99
-23 0.010000000000000009
24 0.33
-24 0.6699999999999999
25 0.44
-25 0.56
26 0.69
-26 0.31000000000000005
27 0.2
-27 0.8
28 0.57
-28 0.43000000000000005
29 0.09
-29 0.91
30 0.09
-30 0.91
31 0.58
-31 0.42000000000000004
32 0.76
-32 0.24
33 0.78
-33 0.21999999999999997
34 0.59
-34 0.41000000000000003
35 0.5
-35 0.5
36 0.63
-36 0.37
37 0.48
-37 0.52
38 0.46
-38 0.54
39 0.46
-39 0.54
40 0.95
-40 0.050000000000000044
41 0.6
-41 0.4
42 0.31
-42 0.69
43 0.2
-43 0.8
44 0.52
-44 0.48
45 0.13
-45 0.87
46 0.83
-46 0.17000000000000004
47 0.78
-47 0.21999999999999997
48 0.85
-48 0.15000000000000002
49 0.1
-49 0.9
50 0.75
-50 0.25
51 0.07
-51 0.9299999999999999
52 0.94
-52 0.06000000000000005
53 0.83
-53 0.17000000000000004
54 0.32
-54 0.6799999999999999
55 0.72
-55 0.28
56 0.05
-56 0.95
57 0.98
-57 0.020000000000000018
58 0.75
-58 0.25
59 0.61
-59 0.39
60 0.03
-60 0.97
61 0.14
-61 0.86
62 0.85
-62 0.15000000000000002
63 0.94
-63 0.06000000000000005
64 0.79
-64 0.20999999999999996
65 0.43
-65 0.5700000000000001
66 0.76
-66 0.24
67 0.34
-67 0.6599999999999999
68 0.03
-68 0.97
69 0.76
-69 0.24
70 0.87
-70 0.13
71 0.09
-71 0.91
72 0.21
-72 0.79
73 0.19
-73 0.81
74 0.32
-74 0.6799999999999999
75 0.06
-75 0.94
76 0.29
-76 0.71
77 0.18
-77 0.8200000000000001
78 0.62
-78 0.38
79 0.04
-79 0.96
80 0.66
-80 0.33999999999999997
81 0.54
-81 0.45999999999999996
82 0.08
-82 0.92
83 0.75
-83 0.25
84 0.45
-84 0.55
85 0.52
-85 0.48
86 0.08
-86 0.92
87 0.06
-87 0.94
88 0.55
-88 0.44999999999999996
89 0.43
-89 0.5700000000000001
90 0.17
-90 0.83
91 0.46
-91 0.54
92 0.46
-92 0.54
93 0.95
-93 0.050000000000000044
94 0.02
-94 0.98
95 0.82
-95 0.18000000000000005
96 0.67
-96 0.32999999999999996
97 0.93
-97 0.06999999999999995
98 0.65
-98 0.35
99 0.68
-99 0.31999999999999995
100 0.91
-100 0.08999999999999997
