1 0.23
-1 0.77
2 0.72
-2 0.28
3 0.7
-3 0.30000000000000004
4 0.1
-4 0.9
5 0.05
-5 0.95
6 0.21
-6 0.79
7 0.53
-7 0.47
8 0.72
-8 0.28
9 0.46
-9 0.54
10 0.09
-10 0.91
11 0.11
-11 0.89
12 0.34
-12 0.6599999999999999
13 0.81
-13 0.18999999999999995
14 0.98
-14 0.020000000000000018
15 0.54
-15 0.45999999999999996
16 0.72
-16 0.28
17 0.94
-17 0.06000000000000005
18 0.99
-18 0.010000000000000009
19 0.91
-19 0.08999999999999997
20 0.77
-20 0.22999999999999998
21 0.71
-21 0.29000000000000004
22 0.83
-22 0.17000000000000004
23 0.79
-23 0.20999999999999996
24 0.98
-24 0.020000000000000018
25 0.34
-25 0.6599999999999999
26 0.4
-26 0.6
27 0.72
-27 0.28
28 0.96
-28 0.040000000000000036
29 0.59
-29 0.41000000000000003
30 0.07
-30 0.9299999999999999
31 0.89
-31 0.10999999999999999
32 0.91
-32 0.08999999999999997
33 0.14
-33 0.86
34 0.76
-34 0.24
35 0.51
-35 0.49
36 0.69
-36 0.31000000000000005
37 0.89
-37 0.10999999999999999
38 0.85
-38 0.15000000000000002
39 0.83
-39 0.17000000000000004
40 0.87
-40 0.13
41 0.06
-41 0.94
42 0.05
-42 0.95
43 0.29
-43 0.71
44 0.55
-44 0.44999999999999996
45 0.8
-45 0.19999999999999996
46 0.3
-46 0.7
47 0.36
-47 0.64
48 0.72
-48 0.28
49 0.43
-49 0.5700000000000001
50 0.4
-50 0.6
51 0.14
-51 0.86
52 0.11
-52 0.89
53 0.06
-53 0.94
54 0.77
-54 0.22999999999999998
55 0.61
-55 0.39
56 0.87
-56 0.13
57 0.23
-57 0.77
58 0.46
-58 0.54
59 0.14
-59 0.86
60 0.25
-60 0.75
61 0.55
-61 0.44999999999999996
62 0.74
-62 0.26
63 0.61
-63 0.39
64 0.39
-64 0.61
65 0.77
-65 0.22999999999999998
66 0.53
-66 0.47
67 0.09
-67 0.91
68 0.84
-68 0.16000000000000003
69 0.88
-69 0.12
70 0.97
-70 0.030000000000000027
71 0.17
-71 0.83
72 0.16
-72 0.84
73 0.42
-73 0.5800000000000001
74 0.24
-74 0.76
75 0.7
-75 0.30000000000000004
76 0.46
-76 0.54
77 0.53
-77 0.47
78 0.63
-78 0.37
79 0.5
-79 0.5
80 0.66
-80 0.33999999999999997
81 0.34
-81 0.6599999999999999
82 0.14
-82 0.86
83 0.28
-83 0.72
84 0.16
-84 0.84
85 0.95
-85 0.050000000000000044
86 0.61
-86 0.39
87 0.72
-87 0.28
88 0.38
-88 0.62
89 0.89
-89 0.10999999999999999
90 0.79
-90 0.20999999999999996
91 0.1
-91 0.9
92 0.49
-92 0.51
93 0.3
-93 0.7
94 0.45
-94 0.55
95 0.61
-95 0.39
96 0.25
-96 0.75
97 0.7
-97 0.30000000000000004
98 0.24
-98 0.76
99 0.31
-99 0.69
100 0.62
-100 0.38
