1 0.69
-1 0.31000000000000005
2 0.36
-2 0.64
3 0.5
-3 0.5
4 0.09
-4 0.91
5 0.07
-5 0.9299999999999999
6 0.6
-6 0.4
7 0.22
-7 0.78
8 0.52
-8 0.48
9 0.36
-9 0.64
10 0.76
-10 0.24
11 0.81
-11 0.18999999999999995
12 0.16
-12 0.84
13 0.96
-13 0.040000000000000036
14 0.37
-14 0.63
15 0.7
-15 0.30000000000000004
16 0.56
-16 0.43999999999999995
17 0.64
-17 0.36
18 0.54
-18 0.45999999999999996
19 0.73
-19 0.27
20 0.72
-20 0.28
21 0.19
-21 0.81
22 0.53
-22 0.47
23 0.92
-23 0.07999999999999996
24 0.17
-24 0.83
25 0.65
-25 0.35
26 0.61
-26 0.39
27 0.5
-27 0.5
28 0.19
-28 0.81
29 0.81
-29 0.18999999999999995
30 0.8
-30 0.19999999999999996
31 0.09
-31 0.91
32 0.6
-32 0.4
33 0.68
-33 0.31999999999999995
34 0.49
-34 0.51
35 0.16
-35 0.84
36 0.55
-36 0.44999999999999996
37 0.58
-37 0.42000000000000004
38 0.2
-38 0.8
39 0.64
-39 0.36
40 0.52
-40 0.48
41 0.71
-41 0.29000000000000004
42 0.36
-42 0.64
43 0.97
-43 0.030000000000000027
44 0.67
-44 0.32999999999999996
45 0.81
-45 0.18999999999999995
46 0.84
-46 0.16000000000000003
47 0.19
-47 0.81
48 0.81
-48 0.18999999999999995
49 0.11
-49 0.89
50 0.45
-50 0.55
51 0.97
-51 0.030000000000000027
52 0.72
-52 0.28
53 0.28
-53 0.72
54 0.14
-54 0.86
55 0.31
-55 0.69
56 0.2
-56 0.8
57 0.88
-57 0.12
58 0.9
-58 0.09999999999999998
59 0.99
-59 0.010000000000000009
60 0.97
-60 0.030000000000000027
61 0.16
-61 0.84
62 0.12
-62 0.88
63 0.7
-63 0.30000000000000004
64 0.25
-64 0.75
65 0.59
-65 0.41000000000000003
66 0.64
-66 0.36
67 0.9
-67 0.09999999999999998
68 0.62
-68 0.38
69 0.33
-69 0.6699999999999999
70 0.12
-70 0.88
71 0.8
-71 0.19999999999999996
72 0.25
-72 0.75
73 0.31
-73 0.69
74 0.87
-74 0.13
75 0.09
-75 0.91
76 0.2
-76 0.8
77 0.21
-77 0.79
78 0.5
-78 0.5
79 0.6
-79 0.4
80 0.46
-80 0.54
81 0.11
-81 0.89
82 0.55
-82 0.44999999999999996
83 0.83
-83 0.17000000000000004
84 0.51
-84 0.49
85 0.8
-85 0.19999999999999996
86 0.95
-86 0.050000000000000044
87 0.12
-87 0.88
88 0.89
-88 0.10999999999999999
89 0.84
-89 0.16000000000000003
90 0.47
-90 0.53
91 0.67
-91 0.32999999999999996
92 0.34
-92 0.6599999999999999
93 0.21
-93 0.79
94 0.63
-94 0.37
95 0.15
-95 0.85
96 0.62
-96 0.38
97 0.2
-97 0.8
98 0.84
-98 0.16000000000000003
99 0.75
-99 0.25
100 0.95
-100 0.050000000000000044
