1 0.33
-1 0.6699999999999999
2 0.11
-2 0.89
3 0.04
-3 0.96
4 0.87
-4 0.13
5 0.79
-5 0.20999999999999996
6 0.26
-6 0.74
7 0.8
-7 0.19999999999999996
8 0.84
-8 0.16000000000000003
9 0.22
-9 0.78
10 0.12
-10 0.88
11 0.96
-11 0.040000000000000036
12 0.75
-12 0.25
13 0.83
-13 0.17000000000000004
14 0.41
-14 0.5900000000000001
15 0.46
-15 0.54
16 0.07
-16 0.9299999999999999
17 0.05
-17 0.95
18 0.65
-18 0.35
19 0.81
-19 0.18999999999999995
20 0.63
-20 0.37
21 0.12
-21 0.88
22 0.25
-22 0.75
23 0.33
-23 0.6699999999999999
24 0.95
-24 0.050000000000000044
25 0.91
-25 0.08999999999999997
26 0.25
-26 0.75
27 0.42
-27 0.5800000000000001
28 0.76
-28 0.24
29 0.25
-29 0.75
30 0.9
-30 0.09999999999999998
31 0.88
-31 0.12
32 0.75
-32 0.25
33 0.16
-33 0.84
34 0.76
-34 0.24
35 0.18
-35 0.8200000000000001
36 0.99
-36 0.010000000000000009
37 0.31
-37 0.69
38 0.35
-38 0.65
39 0.89
-39 0.10999999999999999
40 0.28
-40 0.72
41 0.99
-41 0.010000000000000009
42 0.54
-42 0.45999999999999996
43 0.93
-43 0.06999999999999995
44 0.86
-44 0.14
45 0.45
-45 0.55
46 0.87
-46 0.13
47 0.28
-47 0.72
48 0.32
-48 0.6799999999999999
49 0.53
-49 0.47
50 0.87
-50 0.13
51 0.62
-51 0.38
52 0.54
-52 0.45999999999999996
53 0.49
-53 0.51
54 0.69
-54 0.31000000000000005
55 0.47
-55 0.53
56 0.3
-56 0.7
57 0.4
-57 0.6
58 0.5
-58 0.5
59 0.56
-59 0.43999999999999995
60 0.94
-60 0.06000000000000005
61 0.48
-61 0.52
62 0.26
-62 0.74
63 0.9
-63 0.09999999999999998
64 0.27
-64 0.73
65 0.76
-65 0.24
66 0.54
-66 0.45999999999999996
67 0.75
-67 0.25
68 0.25
-68 0.75
69 0.91
-69 0.08999999999999997
70 0.67
-70 0.32999999999999996
71 0.89
-71 0.10999999999999999
72 0.03
-72 0.97
73 0.68
-73 0.31999999999999995
74 0.08
-74 0.92
75 0.85
-75 0.15000000000000002
76 0.66
-76 0.33999999999999997
77 0.72
-77 0.28
78 0.48
-78 0.52
79 0.52
-79 0.48
80 0.32
-80 0.6799999999999999
81 0.38
-81 0.62
82 0.04
-82 0.96
83 0.04
-83 0.96
84 0.98
-84 0.020000000000000018
85 0.29
-85 0.71
86 0.4
-86 0.6
87 0.21
-87 0.79
88 0.74
-88 0.26
89 0.95
-89 0.050000000000000044
90 0.77
-90 0.22999999999999998
91 0.66
-91 0.33999999999999997
92 0.3
-92 0.7
93 0.9
-93 0.09999999999999998
94 0.68
-94 0.31999999999999995
95 0.21
-95 0.79
96 0.35
-96 0.65
97 0.15
-97 0.85
98 0.71
-98 0.29000000000000004
99 0.27
-99 0.73
100 0.39
-100 0.61
