1 0.16
-1 0.84
2 0.33
-2 0.6699999999999999
3 0.35
-3 0.65
4 0.13
-4 0.87
5 0.13
-5 0.87
6 0.16
-6 0.84
7 0.92
-7 0.07999999999999996
8 0.32
-8 0.6799999999999999
9 0.37
-9 0.63
10 0.34
-10 0.6599999999999999
11 0.22
-11 0.78
12 0.17
-12 0.83
13 0.78
-13 0.21999999999999997
14 0.36
-14 0.64
15 0.52
-15 0.48
16 0.13
-16 0.87
17 0.05
-17 0.95
18 0.96
-18 0.040000000000000036
19 0.72
-19 0.28
20 0.97
-20 0.030000000000000027
21 0.01
-21 0.99
22 0.16
-22 0.84
23 0.98
-23 0.020000000000000018
24 0.97
-24 0.030000000000000027
25 0.68
-25 0.31999999999999995
26 0.4
-26 0.6
27 0.3
-27 0.7
28 0.84
-28 0.16000000000000003
29 0.12
-29 0.88
30 0.57
-30 0.43000000000000005
31 0.07
-31 0.9299999999999999
32 0.39
-32 0.61
33 0.82
-33 0.18000000000000005
34 0.19
-34 0.81
35 0.98
-35 0.020000000000000018
36 0.52
-36 0.48
37 0.94
-37 0.06000000000000005
38 0.8
-38 0.19999999999999996
39 0.78
-39 0.21999999999999997
40 0.27
-40 0.73
41 0.63
-41 0.37
42 0.81
-42 0.18999999999999995
43 0.57
-43 0.43000000000000005
44 0.06
-44 0.94
45 0.98
-45 0.020000000000000018
46 0.06
-46 0.94
47 0.04
-47 0.96
48 0.59
-48 0.41000000000000003
49 0.24
-49 0.76
50 0.09
-50 0.91
51 0.1
-51 0.9
52 0.82
-52 0.18000000000000005
53 0.94
-53 0.06000000000000005
54 0.9
-54 0.09999999999999998
55 0.5
-55 0.5
56 0.52
-56 0.48
57 0.88
-57 0.12
58 0.78
-58 0.21999999999999997
59 0.52
-59 0.48
60 0.79
-60 0.20999999999999996
61 0.8
-61 0.19999999999999996
62 0.68
-62 0.31999999999999995
63 0.23
-63 0.77
64 0.48
-64 0.52
65 0.56
-65 0.43999999999999995
66 0.42
-66 0.5800000000000001
67 0.11
-67 0.89
68 0.51
-68 0.49
69 0.84
-69 0.16000000000000003
70 0.37
-70 0.63
71 0.66
-71 0.33999999999999997
72 0.48
-72 0.52
73 0.16
-73 0.84
74 0.55
-74 0.44999999999999996
75 0.82
-75 0.18000000000000005
76 0.54
-76 0.45999999999999996
77 0.09
-77 0.91
78 0.96
-78 0.040000000000000036
79 0.41
-79 0.5900000000000001
80 0.96
-80 0.040000000000000036
81 0.71
-81 0.29000000000000004
82 0.06
-82 0.94
83 0.32
-83 0.6799999999999999
84 0.23
-84 0.77
85 0.06
-85 0.94
86 0.95
-86 0.050000000000000044
87 0.53
-87 0.47
88 0.08
-88 0.92
89 0.99
-89 0.010000000000000009
90 0.6
-90 0.4
91 0.76
-91 0.24
92 0.41
-92 0.5900000000000001
93 0.62
-93 0.38
94 0.72
-94 0.28
95 0.71
-95 0.29000000000000004
96 0.91
-96 0.08999999999999997
97 0.93
-97 0.06999999999999995
98 0.96
-98 0.040000000000000036
99 0.65
-99 0.35
100 0.8
-100 0.19999999999999996
