1 0.63
-1 0.37
2 0.13
-2 0.87
3 0.83
-3 0.17000000000000004
4 0.36
-4 0.64
5 0.78
-5 0.21999999999999997
6 0.74
-6 0.26
7 0.51
-7 0.49
8 0.93
-8 0.06999999999999995
9 0.16
-9 0.84
10 0.14
-10 0.86
11 0.6
-11 0.4
12 0.36
-12 0.64
13 0.25
-13 0.75
14 0.44
-14 0.56
15 0.5
-15 0.5
16 0.28
-16 0.72
17 0.92
-17 0.07999999999999996
18 0.68
-18 0.31999999999999995
19 0.39
-19 0.61
20 0.58
-20 0.42000000000000004
21 0.28
-21 0.72
22 0.53
-22 0.47
23 0.29
-23 0.71
24 0.3
-24 0.7
25 0.43
-25 0.5700000000000001
26 0.87
-26 0.13
27 0.1
-27 0.9
28 0.01
-28 0.99
29 0.34
-29 0.6599999999999999
30 0.72
-30 0.28
31 0.75
-31 0.25
32 0.04
-32 0.96
33 0.75
-33 0.25
34 0.54
-34 0.45999999999999996
35 0.09
-35 0.91
36 0.68
-36 0.31999999999999995
37 0.31
-37 0.69
38 0.04
-38 0.96
39 0.06
-39 0.94
40 0.11
-40 0.89
41 0.81
-41 0.18999999999999995
42 0.81
-42 0.18999999999999995
43 0.09
-43 0.91
44 0.36
-44 0.64
45 0.73
-45 0.27
46 0.2
-46 0.8
47 0.42
-47 0.5800000000000001
48 0.6
-48 0.4
49 0.93
-49 0.06999999999999995
50 0.88
-50 0.12
51 0.46
-51 0.54
52 0.42
-52 0.5800000000000001
53 0.63
-53 0.37
54 0.31
-54 0.69
55 0.91
-55 0.08999999999999997
56 0.39
-56 0.61
57 0.29
-57 0.71
58 0.22
-58 0.78
59 0.38
-59 0.62
60 0.45
-60 0.55
61 0.9
-61 0.09999999999999998
62 0.71
-62 0.29000000000000004
63 0.71
-63 0.29000000000000004
64 0.9
-64 0.09999999999999998
65 0.96
-65 0.040000000000000036
66 0.69
-66 0.31000000000000005
67 0.93
-67 0.06999999999999995
68 0.1
-68 0.9
69 0.21
-69 0.79
70 0.83
-70 0.17000000000000004
71 0.21
-71 0.79
72 0.85
-72 0.15000000000000002
73 0.09
-73 0.91
74 0.83
-74 0.17000000000000004
75 0.87
-75 0.13
76 0.88
-76 0.12
77 0.66
-77 0.33999999999999997
78 0.43
-78 0.5700000000000001
79 0.75
-79 0.25
80 0.44
-80 0.56
81 0.93
-81 0.06999999999999995
82 0.43
-82 0.5700000000000001
83 0.72
-83 0.28
84 0.34
-84 0.6599999999999999
85 0.77
-85 0.22999999999999998
86 0.95
-86 0.050000000000000044
87 0.17
-87 0.83
88 0.03
-88 0.97
89 0.34
-89 0.6599999999999999
90 0.97
-90 0.030000000000000027
91 0.05
-91 0.95
92 0.83
-92 0.17000000000000004
93 0.74
-93 0.26
94 0.67
-94 0.32999999999999996
95 0.08
-95 0.92
96 0.74
-96 0.26
97 0.05
-97 0.95
98 0.23
-98 0.77
99 0.89
-99 0.10999999999999999
100 0.56
-100 0.43999999999999995
