1 0.43
-1 0.5700000000000001
2 0.98
-2 0.020000000000000018
3 0.83
-3 0.17000000000000004
4 0.75
-4 0.25
5 0.9
-5 0.09999999999999998
6 0.76
-6 0.24
7 0.61
-7 0.39
8 0.02
-8 0.98
9 0.72
-9 0.28
10 0.63
-10 0.37
11 0.81
-11 0.18999999999999995
12 0.22
-12 0.78
13 0.03
-13 0.97
14 0.39
-14 0.61
15 0.71
-15 0.29000000000000004
16 0.84
-16 0.16000000000000003
17 0.54
-17 0.45999999999999996
18 0.88
-18 0.12
19 0.55
-19 0.44999999999999996
20 0.62
-20 0.38
21 0.03
-21 0.97
22 0.59
-22 0.41000000000000003
23 0.02
-23 0.98
24 0.02
-24 0.98
25 0.65
-25 0.35
26 0.07
-26 0.9299999999999999
27 0.71
-27 0.29000000000000004
28 0.3
-28 0.7
29 0.92
-29 0.07999999999999996
30 0.49
-30 0.51
31 0.04
-31 0.96
32 0.48
-32 0.52
33 0.65
-33 0.35
34 0.14
-34 0.86
35 0.79
-35 0.20999999999999996
36 0.6
-36 0.4
37 0.76
-37 0.24
38 0.39
-38 0.61
39 0.45
-39 0.55
40 0.7
-40 0.30000000000000004
41 0.79
-41 0.20999999999999996
42 0.82
-42 0.18000000000000005
43 0.46
-43 0.54
44 0.56
-44 0.43999999999999995
45 0.2
-45 0.8
46 0.9
-46 0.09999999999999998
47 0.06
-47 0.94
48 0.41
-48 0.5900000000000001
49 0.4
-49 0.6
50 0.43
-50 0.5700000000000001
51 0.71
-51 0.29000000000000004
52 0.25
-52 0.75
53 0.59
-53 0.41000000000000003
54 0.39
-54 0.61
55 0.62
-55 0.38
56 0.56
-56 0.43999999999999995
57 0.35
-57 0.65
58 0.91
-58 0.08999999999999997
59 0.16
-59 0.84
60 0.01
-60 0.99
61 0.6
-61 0.4
62 0.93
-62 0.06999999999999995
63 0.85
-63 0.15000000000000002
64 0.42
-64 0.5800000000000001
65 0.99
-65 0.010000000000000009
66 0.66
-66 0.33999999999999997
67 0.41
-67 0.5900000000000001
68 0.12
-68 0.88
69 0.84
-69 0.16000000000000003
70 0.79
-70 0.20999999999999996
71 0.11
-71 0.89
72 0.95
-72 0.050000000000000044
73 0.03
-73 0.97
74 0.59
-74 0.41000000000000003
75 0.4
-75 0.6
76 0.3
-76 0.7
77 0.61
-77 0.39
78 0.76
-78 0.24
79 0.57
-79 0.43000000000000005
80 0.52
-80 0.48
81 0.61
-81 0.39
82 0.25
-82 0.75
83 0.9
-83 0.09999999999999998
84 0.1
-84 0.9
85 0.93
-85 0.06999999999999995
86 0.06
-86 0.94
87 0.33
-87 0.6699999999999999
88 0.91
-88 0.08999999999999997
89 0.64
-89 0.36
90 0.2
-90 0.8
91 0.86
-91 0.14
92 0.39
-92 0.61
93 0.22
-93 0.78
94 0.86
-94 0.14
95 0.58
-95 0.42000000000000004
96 0.49
-96 0.51
97 0.95
-97 0.050000000000000044
98 0.85
-98 0.15000000000000002
99 0.5
-99 0.5
100 0.26
-100 0.74
