1 0.18
-1 0.8200000000000001
2 0.46
-2 0.54
3 0.43
-3 0.5700000000000001
4 0.72
-4 0.28
5 0.44
-5 0.56
6 0.36
-6 0.64
7 0.31
-7 0.69
8 0.58
-8 0.42000000000000004
9 0.88
-9 0.12
10 0.86
-10 0.14
11 0.33
-11 0.6699999999999999
12 0.66
-12 0.33999999999999997
13 0.68
-13 0.31999999999999995
14 0.57
-14 0.43000000000000005
15 0.23
-15 0.77
16 0.77
-16 0.22999999999999998
17 0.53
-17 0.47
18 0.07
-18 0.9299999999999999
19 0.37
-19 0.63
20 0.36
-20 0.64
21 0.7
-21 0.30000000000000004
22 0.77
-22 0.22999999999999998
23 0.74
-23 0.26
24 0.66
-24 0.33999999999999997
25 0.22
-25 0.78
26 0.36
-26 0.64
27 0.75
-27 0.25
28 0.55
-28 0.44999999999999996
29 0.25
-29 0.75
30 0.4
-30 0.6
31 0.65
-31 0.35
32 0.57
-32 0.43000000000000005
33 0.78
-33 0.21999999999999997
34 0.23
-34 0.77
35 0.79
-35 0.20999999999999996
36 0.58
-36 0.42000000000000004
37 0.02
-37 0.98
38 0.32
-38 0.6799999999999999
39 0.13
-39 0.87
40 0.62
-40 0.38
41 0.79
-41 0.20999999999999996
42 0.4
-42 0.6
43 0.83
-43 0.17000000000000004
44 0.46
-44 0.54
45 0.01
-45 0.99
46 0.02
-46 0.98
47 0.83
-47 0.17000000000000004
48 0.92
-48 0.07999999999999996
49 0.8
-49 0.19999999999999996
50 0.01
-50 0.99
51 0.06
-51 0.94
52 0.47
-52 0.53
53 0.6
-53 0.4
54 0.94
-54 0.06000000000000005
55 0.66
-55 0.33999999999999997
56 0.59
-56 0.41000000000000003
57 0.45
-57 0.55
58 0.3
-58 0.7
59 0.62
-59 0.38
60 0.37
-60 0.63
61 0.55
-61 0.44999999999999996
62 0.4
-62 0.6
63 0.75
-63 0.25
64 0.38
-64 0.62
65 0.61
-65 0.39
66 0.62
-66 0.38
67 0.5
-67 0.5
68 0.1
-68 0.9
69 0.67
-69 0.32999999999999996
70 0.65
-70 0.35
71 0.57
-71 0.43000000000000005
72 0.37
-72 0.63
73 0.14
-73 0.86
74 0.13
-74 0.87
75 0.57
-75 0.43000000000000005
76 0.43
-76 0.5700000000000001
77 0.68
-77 0.31999999999999995
78 0.92
-78 0.07999999999999996
79 0.5
-79 0.5
80 0.25
-80 0.75
81 0.12
-81 0.88
82 0.68
-82 0.31999999999999995
83 0.33
-83 0.6699999999999999
84 0.81
-84 0.18999999999999995
85 0.1
-85 0.9
86 0.89
-86 0.10999999999999999
87 0.09
-87 0.91
88 0.56
-88 0.43999999999999995
89 0.08
-89 0.92
90 0.33
-90 0.6699999999999999
91 0.07
-91 0.9299999999999999
92 0.16
-92 0.84
93 0.17
-93 0.83
94 0.07
-94 0.9299999999999999
95 0.34
-95 0.6599999999999999
96 0.68
-96 0.31999999999999995
97 0.1
-97 0.9
98 0.22
-98 0.78
99 0.19
-99 0.81
100 0.69
-100 0.31000000000000005
