1 0.26
-1 0.74
2 0.81
-2 0.18999999999999995
3 0.51
-3 0.49
4 0.53
-4 0.47
5 0.05
-5 0.95
6 0.13
-6 0.87
7 0.3
-7 0.7
8 0.61
-8 0.39
9 0.69
-9 0.31000000000000005
10 0.8
-10 0.19999999999999996
11 0.89
-11 0.10999999999999999
12 0.63
-12 0.37
13 0.22
-13 0.78
14 0.27
-14 0.73
15 0.56
-15 0.43999999999999995
16 0.45
-16 0.55
17 0.24
-17 0.76
18 0.25
-18 0.75
19 0.02
-19 0.98
20 0.75
-20 0.25
21 0.26
-21 0.74
22 0.98
-22 0.020000000000000018
23 0.93
-23 0.06999999999999995
24 0.18
-24 0.8200000000000001
25 0.6
-25 0.4
26 0.17
-26 0.83
27 0.99
-27 0.010000000000000009
28 0.66
-28 0.33999999999999997
29 0.1
-29 0.9
30 0.88
-30 0.12
31 0.28
-31 0.72
32 0.27
-32 0.73
33 0.85
-33 0.15000000000000002
34 0.78
-34 0.21999999999999997
35 0.99
-35 0.010000000000000009
36 0.82
-36 0.18000000000000005
37 0.15
-37 0.85
38 0.03
-38 0.97
39 0.27
-39 0.73
40 0.34
-40 0.6599999999999999
41 0.14
-41 0.86
42 0.03
-42 0.97
43 0.3
-43 0.7
44 0.83
-44 0.17000000000000004
45 0.94
-45 0.06000000000000005
46 0.32
-46 0.6799999999999999
47 0.02
-47 0.98
48 0.79
-48 0.20999999999999996
49 0.85
-49 0.15000000000000002
50 0.71
-50 0.29000000000000004
51 0.34
-51 0.6599999999999999
52 0.03
-52 0.97
53 0.81
-53 0.18999999999999995
54 0.43
-54 0.5700000000000001
55 0.52
-55 0.48
56 0.17
-56 0.83
57 0.9
-57 0.09999999999999998
58 0.92
-58 0.07999999999999996
59 0.73
-59 0.27
60 0.74
-60 0.26
61 0.21
-61 0.79
62 0.26
-62 0.74
63 0.13
-63 0.87
64 0.08
-64 0.92
65 0.32
-65 0.6799999999999999
66 0.91
-66 0.08999999999999997
67 0.79
-67 0.20999999999999996
68 0.9
-68 0.09999999999999998
69 0.9
-69 0.09999999999999998
70 0.63
-70 0.37
71 0.56
-71 0.43999999999999995
72 0.9
-72 0.09999999999999998
73 0.68
-73 0.31999999999999995
74 0.79
-74 0.20999999999999996
75 0.32
-75 0.6799999999999999
76 0.37
-76 0.63
77 0.61
-77 0.39
78 0.61
-78 0.39
79 0.13
-79 0.87
80 0.91
-80 0.08999999999999997
81 0.35
-81 0.65
82 0.44
-82 0.56
83 0.63
-83 0.37
84 0.76
-84 0.24
85 0.59
-85 0.41000000000000003
86 0.22
-86 0.78
87 0.64
-87 0.36
88 0.91
-88 0.08999999999999997
89 0.27
-89 0.73
90 0.24
-90 0.76
91 0.65
-91 0.35
92 0.51
-92 0.49
93 0.64
-93 0.36
94 0.29
-94 0.71
95 0.71
-95 0.29000000000000004
96 0.58
-96 0.42000000000000004
97 0.57
-97 0.43000000000000005
98 0.95
-98 0.050000000000000044
99 0.87
-99 0.13
100 0.2
-100 0.8
