1 0.72
-1 0.28
2 0.72
-2 0.28
3 0.48
-3 0.52
4 0.78
-4 0.21999999999999997
5 0.47
-5 0.53
6 0.27
-6 0.73
7 0.86
-7 0.14
8 0.04
-8 0.96
9 0.49
-9 0.51
10 0.83
-10 0.17000000000000004
11 0.1
-11 0.9
12 0.79
-12 0.20999999999999996
13 0.46
-13 0.54
14 0.93
-14 0.06999999999999995
15 0.87
-15 0.13
16 0.04
-16 0.96
17 0.07
-17 0.9299999999999999
18 0.9
-18 0.09999999999999998
19 0.99
-19 0.010000000000000009
20 0.95
-20 0.050000000000000044
21 0.83
-21 0.17000000000000004
22 0.2
-22 0.8
23 0.33
-23 0.6699999999999999
24 0.14
-24 0.86
25 0.73
-25 0.27
26 0.36
-26 0.64
27 0.12
-27 0.88
28 0.55
-28 0.44999999999999996
29 0.68
-29 0.31999999999999995
30 0.11
-30 0.89
31 0.92
-31 0.07999999999999996
32 0.14
-32 0.86
33 0.08
-33 0.92
34 0.62
-34 0.38
35 0.75
-35 0.25
36 0.54
-36 0.45999999999999996
37 0.77
-37 0.22999999999999998
38 0.88
-38 0.12
39 0.88
-39 0.12
40 0.14
-40 0.86
41 0.53
-41 0.47
42 0.57
-42 0.43000000000000005
43 0.25
-43 0.75
44 0.95
-44 0.050000000000000044
45 0.42
-45 0.5800000000000001
46 0.77
-46 0.22999999999999998
47 0.07
-47 0.9299999999999999
48 0.65
-48 0.35
49 0.04
-49 0.96
50 0.2
-50 0.8
51 0.72
-51 0.28
52 0.22
-52 0.78
53 0.81
-53 0.18999999999999995
54 0.19
-54 0.81
55 0.79
-55 0.20999999999999996
56 0.32
-56 0.6799999999999999
57 0.52
-57 0.48
58 0.02
-58 0.98
59 0.28
-59 0.72
60 0.73
-60 0.27
61 0.14
-61 0.86
62 0.56
-62 0.43999999999999995
63 0.62
-63 0.38
64 0.13
-64 0.87
65 0.45
-65 0.55
66 0.22
-66 0.78
67 0.87
-67 0.13
68 0.7
-68 0.30000000000000004
69 0.12
-69 0.88
70 0.39
-70 0.61
71 0.91
-71 0.08999999999999997
72 0.14
-72 0.86
73 0.13
-73 0.87
74 0.21
-74 0.79
75 0.29
-75 0.71
76 0.41
-76 0.5900000000000001
77 0.44
-77 0.56
78 0.88
-78 0.12
79 0.52
-79 0.48
80 0.05
-80 0.95
81 0.56
-81 0.43999999999999995
82 0.47
-82 0.53
83 0.38
-83 0.62
84 0.63
-84 0.37
85 0.01
-85 0.99
86 0.73
-86 0.27
87 0.76
-87 0.24
88 0.47
-88 0.53
89 0.04
-89 0.96
90 0.99
-90 0.010000000000000009
91 0.53
-91 0.47
92 0.5
-92 0.5
93 0.18
-93 0.8200000000000001
94 0.56
-94 0.43999999999999995
95 0.76
-95 0.24
96 0.59
-96 0.41000000000000003
97 0.33
-97 0.6699999999999999
98 0.89
-98 0.10999999999999999
99 0.8
-99 0.19999999999999996
100 0.01
-100 0.99
