1 0.72
-1 0.28
2 0.59
-2 0.41000000000000003
3 0.11
-3 0.89
4 0.98
-4 0.020000000000000018
5 0.65
-5 0.35
6 0.9
-6 0.09999999999999998
7 0.05
-7 0.95
8 0.13
-8 0.87
9 0.99
-9 0.010000000000000009
10 0.95
-10 0.050000000000000044
11 0.93
-11 0.06999999999999995
12 0.75
-12 0.25
13 0.95
-13 0.050000000000000044
14 0.43
-14 0.5700000000000001
15 0.77
-15 0.22999999999999998
16 0.31
-16 0.69
17 0.96
-17 0.040000000000000036
18 0.54
-18 0.45999999999999996
19 0.24
-19 0.76
20 0.68
-20 0.31999999999999995
21 0.27
-21 0.73
22 0.01
-22 0.99
23 0.31
-23 0.69
24 0.21
-24 0.79
25 0.28
-25 0.72
26 0.03
-26 0.97
27 0.68
-27 0.31999999999999995
28 0.88
-28 0.12
29 0.8
-29 0.19999999999999996
30 0.84
-30 0.16000000000000003
31 0.82
-31 0.18000000000000005
32 0.33
-32 0.6699999999999999
33 0.42
-33 0.5800000000000001
34 0.11
-34 0.89
35 0.82
-35 0.18000000000000005
36 0.63
-36 0.37
37 0.88
-37 0.12
38 0.18
-38 0.8200000000000001
39 0.56
-39 0.43999999999999995
40 0.51
-40 0.49
41 0.91
-41 0.08999999999999997
42 0.66
-42 0.33999999999999997
43 0.58
-43 0.42000000000000004
44 0.34
-44 0.6599999999999999
45 0.14
-45 0.86
46 0.89
-46 0.10999999999999999
47 0.75
-47 0.25
48 0.2
-48 0.8
49 0.82
-49 0.18000000000000005
50 0.83
-50 0.17000000000000004
51 0.19
-51 0.81
52 0.05
-52 0.95
53 0.42
-53 0.5800000000000001
54 0.39
-54 0.61
55 0.42
-55 0.5800000000000001
56 0.03
-56 0.97
57 0.37
-57 0.63
58 0.73
-58 0.27
59 0.9
-59 0.09999999999999998
60 0.46
-60 0.54
61 0.21
-61 0.79
62 0.43
-62 0.5700000000000001
63 0.75
-63 0.25
64 0.82
-64 0.18000000000000005
65 0.42
-65 0.5800000000000001
66 0.22
-66 0.78
67 0.08
-67 0.92
68 0.18
-68 0.8200000000000001
69 0.38
-69 0.62
70 0.98
-70 0.020000000000000018
71 0.5
-71 0.5
72 0.01
-72 0.99
73 0.76
-73 0.24
74 0.98
-74 0.020000000000000018
75 0.99
-75 0.010000000000000009
76 0.49
-76 0.51
77 0.01
-77 0.99
78 0.52
-78 0.48
79 0.63
-79 0.37
80 0.96
-80 0.040000000000000036
81 0.17
-81 0.83
82 0.85
-82 0.15000000000000002
83 0.46
-83 0.54
84 0.84
-84 0.16000000000000003
85 0.68
-85 0.31999999999999995
86 0.97
-86 0.030000000000000027
87 0.01
-87 0.99
88 0.76
-88 0.24
89 0.8
-89 0.19999999999999996
90 0.7
-90 0.30000000000000004
91 0.41
-91 0.5900000000000001
92 0.72
-92 0.28
93 0.89
-93 0.10999999999999999
94 0.32
-94 0.6799999999999999
95 0.15
-95 0.85
96 0.68
-96 0.31999999999999995
97 0.8
-97 0.19999999999999996
98 0.35
-98 0.65
99 0.15
-99 0.85
100 0.67
-100 0.32999999999999996
