1 0.63
-1 0.37
2 0.82
-2 0.18000000000000005
3 0.41
-3 0.5900000000000001
4 0.03
-4 0.97
5 0.84
-5 0.16000000000000003
6 0.88
-6 0.12
7 0.78
-7 0.21999999999999997
8 0.17
-8 0.83
9 0.18
-9 0.8200000000000001
10 0.1
-10 0.9
11 0.61
-11 0.39
12 0.64
-12 0.36
13 0.43
-13 0.5700000000000001
14 0.84
-14 0.16000000000000003
15 0.94
-15 0.06000000000000005
16 0.03
-16 0.97
17 0.54
-17 0.45999999999999996
18 0.03
-18 0.97
19 0.84
-19 0.16000000000000003
20 0.02
-20 0.98
21 0.88
-21 0.12
22 0.48
-22 0.52
23 0.31
-23 0.69
24 0.45
-24 0.55
25 0.35
-25 0.65
26 0.9
-26 0.09999999999999998
27 0.2
-27 0.8
28 0.74
-28 0.26
29 0.26
-29 0.74
30 0.22
-30 0.78
31 0.11
-31 0.89
32 0.33
-32 0.6699999999999999
33 0.52
-33 0.48
34 0.41
-34 0.5900000000000001
35 0.99
-35 0.010000000000000009
36 0.38
-36 0.62
37 0.5
-37 0.5
38 0.49
-38 0.51
39 0.35
-39 0.65
40 0.82
-40 0.18000000000000005
41 0.55
-41 0.44999999999999996
42 0.61
-42 0.39
43 0.75
-43 0.25
44 0.88
-44 0.12
45 0.96
-45 0.040000000000000036
46 0.98
-46 0.020000000000000018
47 0.77
-47 0.22999999999999998
48 0.78
-48 0.21999999999999997
49 0.79
-49 0.20999999999999996
50 0.64
-50 0.36
51 0.89
-51 0.10999999999999999
52 0.37
-52 0.63
53 0.48
-53 0.52
54 0.03
-54 0.97
55 0.27
-55 0.73
56 0.73
-56 0.27
57 0.62
-57 0.38
58 0.86
-58 0.14
59 0.54
-59 0.45999999999999996
60 0.36
-60 0.64
61 0.46
-61 0.54
62 0.07
-62 0.9299999999999999
63 0.19
-63 0.81
64 0.66
-64 0.33999999999999997
65 0.77
-65 0.22999999999999998
66 0.09
-66 0.91
67 0.52
-67 0.48
68 0.09
-68 0.91
69 0.82
-69 0.18000000000000005
70 0.26
-70 0.74
71 0.12
-71 0.88
72 0.95
-72 0.050000000000000044
73 0.89
-73 0.10999999999999999
74 0.22
-74 0.78
75 0.4
-75 0.6
76 0.17
-76 0.83
77 0.65
-77 0.35
78 0.97
-78 0.030000000000000027
79 0.09
-79 0.91
80 0.07
-80 0.9299999999999999
81 0.52
-81 0.48
82 0.27
-82 0.73
83 0.28
-83 0.72
84 0.93
-84 0.06999999999999995
85 0.54
-85 0.45999999999999996
86 0.25
-86 0.75
87 0.69
-87 0.31000000000000005
88 0.84
-88 0.16000000000000003
89 0.61
-89 0.39
90 0.35
-90 0.65
91 0.11
-91 0.89
92 0.44
-92 0.56
93 0.53
-93 0.47
94 0.73
-94 0.27
95 0.46
-95 0.54
96 0.59
-96 0.41000000000000003
97 0.33
-97 0.6699999999999999
98 0.09
-98 0.91
99 0.42
-99 0.5800000000000001
100 0.09
-100 0.91
