1 0.45
-1 0.55
2 0.12
-2 0.88
3 0.86
-3 0.14
4 0.85
-4 0.15000000000000002
5 0.11
-5 0.89
6 0.45
-6 0.55
7 0.25
-7 0.75
8 0.42
-8 0.5800000000000001
9 0.17
-9 0.83
10 0.28
-10 0.72
11 0.66
-11 0.33999999999999997
12 0.54
-12 0.45999999999999996
13 0.98
-13 0.020000000000000018
14 0.45
-14 0.55
15 0.85
-15 0.15000000000000002
16 0.27
-16 0.73
17 0.16
-17 0.84
18 0.21
-18 0.79
19 0.54
-19 0.45999999999999996
20 0.4
-20 0.6
21 0.46
-21 0.54
22 0.43
-22 0.5700000000000001
23 0.59
-23 0.41000000000000003
24 0.17
-24 0.83
25 0.95
-25 0.050000000000000044
26 0.06
-26 0.94
27 0.03
-27 0.97
28 0.73
-28 0.27
29 0.66
-29 0.33999999999999997
30 0.41
-30 0.5900000000000001
31 0.82
-31 0.18000000000000005
32 0.99
-32 0.010000000000000009
33 0.75
-33 0.25
34 0.23
-34 0.77
35 0.71
-35 0.29000000000000004
36 0.64
-36 0.36
37 0.4
-37 0.6
38 0.24
-38 0.76
39 0.13
-39 0.87
40 0.03
-40 0.97
41 0.07
-41 0.9299999999999999
42 0.31
-42 0.69
43 0.49
-43 0.51
44 0.4
-44 0.6
45 0.54
-45 0.45999999999999996
46 0.22
-46 0.78
47 0.28
-47 0.72
48 0.65
-48 0.35
49 0.54
-49 0.45999999999999996
50 0.92
-50 0.07999999999999996
51 0.57
-51 0.43000000000000005
52 0.93
-52 0.06999999999999995
53 0.72
-53 0.28
54 0.71
-54 0.29000000000000004
55 0.75
-55 0.25
56 0.98
-56 0.020000000000000018
57 0.27
-57 0.73
58 0.02
-58 0.98
59 0.74
-59 0.26
60 0.6
-60 0.4
61 0.14
-61 0.86
62 0.56
-62 0.43999999999999995
63 0.05
-63 0.95
64 0.09
-64 0.91
65 0.48
-65 0.52
66 0.08
-66 0.92
67 0.52
-67 0.48
68 0.68
-68 0.31999999999999995
69 0.7
-69 0.30000000000000004
70 0.57
-70 0.43000000000000005
71 0.28
-71 0.72
72 0.61
-72 0.39
73 0.59
-73 0.41000000000000003
74 0.77
-74 0.22999999999999998
75 0.57
-75 0.43000000000000005
76 0.26
-76 0.74
77 0.16
-77 0.84
78 0.78
-78 0.21999999999999997
79 0.05
-79 0.95
80 0.9
-80 0.09999999999999998
81 0.58
-81 0.42000000000000004
82 0.51
-82 0.49
83 0.27
-83 0.73
84 0.6
-84 0.4
85 0.49
-85 0.51
86 0.8
-86 0.19999999999999996
87 0.91
-87 0.08999999999999997
88 0.53
-88 0.47
89 0.46
-89 0.54
90 0.27
-90 0.73
91 0.85
-91 0.15000000000000002
92 0.49
-92 0.51
93 0.76
-93 0.24
94 0.21
-94 0.79
95 0.25
-95 0.75
96 0.38
-96 0.62
97 0.36
-97 0.64
98 0.33
-98 0.6699999999999999
99 0.19
-99 0.81
100 0.33
-100 0.6699999999999999
