1 0.65
-1 0.35
2 0.76
-2 0.24
3 0.55
-3 0.44999999999999996
4 0.03
-4 0.97
5 0.59
-5 0.41000000000000003
6 0.21
-6 0.79
7 0.08
-7 0.92
8 0.67
-8 0.32999999999999996
9 0.09
-9 0.91
10 0.1
-10 0.9
11 0.55
-11 0.44999999999999996
12 0.57
-12 0.43000000000000005
13 0.35
-13 0.65
14 0.23
-14 0.77
15 0.48
-15 0.52
16 0.74
-16 0.26
17 0.06
-17 0.94
18 0.84
-18 0.16000000000000003
19 0.76
-19 0.24
20 0.12
-20 0.88
21 0.46
-21 0.54
22 0.17
-22 0.83
23 0.2
-23 0.8
24 0.34
-24 0.6599999999999999
25 0.43
-25 0.5700000000000001
26 0.83
-26 0.17000000000000004
27 0.88
-27 0.12
28 0.43
-28 0.5700000000000001
29 0.83
-29 0.17000000000000004
30 0.61
-30 0.39
31 0.28
-31 0.72
32 0.52
-32 0.48
33 0.73
-33 0.27
34 0.78
-34 0.21999999999999997
35 0.81
-35 0.18999999999999995
36 0.51
-36 0.49
37 0.71
-37 0.29000000000000004
38 0.08
-38 0.92
39 0.6
-39 0.4
40 0.75
-40 0.25
41 0.81
-41 0.18999999999999995
42 0.26
-42 0.74
43 0.81
-43 0.18999999999999995
44 0.79
-44 0.20999999999999996
45 0.34
-45 0.6599999999999999
46 0.9
-46 0.09999999999999998
47 0.89
-47 0.10999999999999999
48 0.62
-48 0.38
49 0.42
-49 0.5800000000000001
50 0.85
-50 0.15000000000000002
51 0.82
-51 0.18000000000000005
52 0.81
-52 0.18999999999999995
53 0.04
-53 0.96
54 0.24
-54 0.76
55 0.93
-55 0.06999999999999995
56 0.76
-56 0.24
57 0.01
-57 0.99
58 0.12
-58 0.88
59 0.64
-59 0.36
60 0.51
-60 0.49
61 0.82
-61 0.18000000000000005
62 0.02
-62 0.98
63 0.85
-63 0.15000000000000002
64 0.42
-64 0.5800000000000001
65 0.01
-65 0.99
66 0.94
-66 0.06000000000000005
67 0.52
-67 0.48
68 0.39
-68 0.61
69 0.22
-69 0.78
70 0.25
-70 0.75
71 0.29
-71 0.71
72 0.92
-72 0.07999999999999996
73 0.49
-73 0.51
74 0.05
-74 0.95
75 0.91
-75 0.08999999999999997
76 0.33
-76 0.6699999999999999
77 0.56
-77 0.43999999999999995
78 0.66
-78 0.33999999999999997
79 0.03
-79 0.97
80 0.43
-80 0.5700000000000001
81 0.04
-81 0.96
82 0.02
-82 0.98
83 0.38
-83 0.62
84 0.24
-84 0.76
85 0.92
-85 0.07999999999999996
86 0.27
-86 0.73
87 0.19
-87 0.81
88 0.11
-88 0.89
89 0.07
-89 0.9299999999999999
90 0.31
-90 0.69
91 0.8
-91 0.19999999999999996
92 0.04
-92 0.96
93 0.32
-93 0.6799999999999999
94 0.04
-94 0.96
95 0.12
-95 0.88
96 0.56
-96 0.43999999999999995
97 0.57
-97 0.43000000000000005
98 0.93
-98 0.06999999999999995
99 0.89
-99 0.10999999999999999
100 0.36
-100 0.64
