1 0.66
-1 0.33999999999999997
2 0.24
-2 0.76
3 0.57
-3 0.43000000000000005
4 0.77
-4 0.22999999999999998
5 0.02
-5 0.98
6 0.87
-6 0.13
7 0.55
-7 0.44999999999999996
8 0.59
-8 0.41000000000000003
9 0.8
-9 0.19999999999999996
10 0.11
-10 0.89
11 0.77
-11 0.22999999999999998
12 0.1
-12 0.9
13 0.79
-13 0.20999999999999996
14 0.21
-14 0.79
15 0.83
-15 0.17000000000000004
16 0.22
-16 0.78
17 0.1
-17 0.9
18 0.2
-18 0.8
19 0.75
-19 0.25
20 0.96
-20 0.040000000000000036
21 0.3
-21 0.7
22 0.85
-22 0.15000000000000002
23 0.26
-23 0.74
24 0.92
-24 0.07999999999999996
25 0.34
-25 0.6599999999999999
26 0.48
-26 0.52
27 0.74
-27 0.26
28 0.45
-28 0.55
29 0.07
-29 0.9299999999999999
30 0.99
-30 0.010000000000000009
31 0.24
-31 0.76
32 0.69
-32 0.31000000000000005
33 0.66
-33 0.33999999999999997
34 0.23
-34 0.77
35 0.86
-35 0.14
36 0.31
-36 0.69
37 0.24
-37 0.76
38 0.3
-38 0.7
39 0.16
-39 0.84
40 0.24
-40 0.76
41 0.57
-41 0.43000000000000005
42 0.35
-42 0.65
43 0.34
-43 0.6599999999999999
44 0.75
-44 0.25
45 0.73
-45 0.27
46 0.49
-46 0.51
47 0.9
-47 0.09999999999999998
48 0.48
-48 0.52
49 0.43
-49 0.5700000000000001
50 0.36
-50 0.64
51 0.41
-51 0.5900000000000001
52 0.47
-52 0.53
53 0.25
-53 0.75
54 0.66
-54 0.33999999999999997
55 0.31
-55 0.69
56 0.8
-56 0.19999999999999996
57 0.75
-57 0.25
58 0.1
-58 0.9
59 0.28
-59 0.72
60 0.77
-60 0.22999999999999998
61 0.36
-61 0.64
62 0.58
-62 0.42000000000000004
63 0.36
-63 0.64
64 0.19
-64 0.81
65 0.25
-65 0.75
66 0.23
-66 0.77
67 0.8
-67 0.19999999999999996
68 0.97
-68 0.030000000000000027
69 0.76
-69 0.24
70 0.33
-70 0.6699999999999999
71 0.68
-71 0.31999999999999995
72 0.1
-72 0.9
73 0.4
-73 0.6
74 0.99
-74 0.010000000000000009
75 0.52
-75 0.48
76 0.25
-76 0.75
77 0.28
-77 0.72
78 0.77
-78 0.22999999999999998
79 0.91
-79 0.08999999999999997
80 0.88
-80 0.12
81 0.01
-81 0.99
82 0.95
-82 0.050000000000000044
83 0.5
-83 0.5
84 0.31
-84 0.69
85 0.41
-85 0.5900000000000001
86 0.21
-86 0.79
87 0.42
-87 0.5800000000000001
88 0.33
-88 0.6699999999999999
89 0.71
-89 0.29000000000000004
90 0.14
-90 0.86
91 0.47
-91 0.53
92 0.53
-92 0.47
93 0.14
-93 0.86
94 0.08
-94 0.92
95 0.28
-95 0.72
96 0.11
-96 0.89
97 0.11
-97 0.89
98 0.12
-98 0.88
99 0.14
-99 0.86
100 0.72
-100 0.28
