1 0.07
-1 0.9299999999999999
2 0.07
-2 0.9299999999999999
3 0.32
-3 0.6799999999999999
4 0.42
-4 0.5800000000000001
5 0.15
-5 0.85
6 0.41
-6 0.5900000000000001
7 0.29
-7 0.71
8 0.93
-8 0.06999999999999995
9 0.65
-9 0.35
10 0.3
-10 0.7
11 0.56
-11 0.43999999999999995
12 0.12
-12 0.88
13 0.97
-13 0.030000000000000027
14 0.92
-14 0.07999999999999996
15 0.21
-15 0.79
16 0.86
-16 0.14
17 0.94
-17 0.06000000000000005
18 0.86
-18 0.14
19 0.07
-19 0.9299999999999999
20 0.84
-20 0.16000000000000003
21 0.12
-21 0.88
22 0.91
-22 0.08999999999999997
23 0.17
-23 0.83
24 0.85
-24 0.15000000000000002
25 0.28
-25 0.72
26 0.98
-26 0.020000000000000018
27 0.56
-27 0.43999999999999995
28 0.18
-28 0.8200000000000001
29 0.02
-29 0.98
30 0.2
-30 0.8
31 0.28
-31 0.72
32 0.77
-32 0.22999999999999998
33 0.81
-33 0.18999999999999995
34 0.91
-34 0.08999999999999997
35 0.67
-35 0.32999999999999996
36 0.28
-36 0.72
37 0.17
-37 0.83
38 0.9
-38 0.09999999999999998
39 0.75
-39 0.25
40 0.38
-40 0.62
41 0.21
-41 0.79
42 0.16
-42 0.84
43 0.86
-43 0.14
44 0.29
-44 0.71
45 0.86
-45 0.14
46 0.37
-46 0.63
47 0.93
-47 0.06999999999999995
48 0.78
-48 0.21999999999999997
49 0.88
-49 0.12
50 0.89
-50 0.10999999999999999
51 0.73
-51 0.27
52 0.76
-52 0.24
53 0.69
-53 0.31000000000000005
54 0.26
-54 0.74
55 0.66
-55 0.33999999999999997
56 0.46
-56 0.54
57 0.53
-57 0.47
58 0.68
-58 0.31999999999999995
59 0.88
-59 0.12
60 0.25
-60 0.75
61 0.6
-61 0.4
62 0.48
-62 0.52
63 0.83
-63 0.17000000000000004
64 0.93
-64 0.06999999999999995
65 0.32
-65 0.6799999999999999
66 0.69
-66 0.31000000000000005
67 0.81
-67 0.18999999999999995
68 0.53
-68 0.47
69 0.79
-69 0.20999999999999996
70 0.48
-70 0.52
71 0.39
-71 0.61
72 0.01
-72 0.99
73 0.25
-73 0.75
74 0.35
-74 0.65
75 0.94
-75 0.06000000000000005
76 0.39
-76 0.61
77 0.53
-77 0.47
78 0.38
-78 0.62
79 0.61
-79 0.39
80 0.34
-80 0.6599999999999999
81 0.74
-81 0.26
82 0.92
-82 0.07999999999999996
83 0.63
-83 0.37
84 0.68
-84 0.31999999999999995
85 0.41
-85 0.5900000000000001
86 0.51
-86 0.49
87 0.65
-87 0.35
88 0.66
-88 0.33999999999999997
89 0.68
-89 0.31999999999999995
90 0.73
-90 0.27
91 0.76
-91 0.24
92 0.84
-92 0.16000000000000003
93 0.24
-93 0.76
94 0.17
-94 0.83
95 0.44
-95 0.56
96 0.37
-96 0.63
97 0.26
-97 0.74
98 0.88
-98 0.12
99 0.12
-99 0.88
100 0.49
-100 0.51
