1 0.93
-1 0.06999999999999995
2 0.9
-2 0.09999999999999998
3 0.21
-3 0.79
4 0.59
-4 0.41000000000000003
5 0.73
-5 0.27
6 0.62
-6 0.38
7 0.39
-7 0.61
8 0.85
-8 0.15000000000000002
9 0.38
-9 0.62
10 0.6
-10 0.4
11 0.88
-11 0.12
12 0.22
-12 0.78
13 0.17
-13 0.83
14 0.75
-14 0.25
15 0.53
-15 0.47
16 0.89
-16 0.10999999999999999
17 0.58
-17 0.42000000000000004
18 0.19
-18 0.81
19 0.62
-19 0.38
20 0.26
-20 0.74
21 0.5
-21 0.5
22 0.78
-22 0.21999999999999997
23 0.77
-23 0.22999999999999998
24 0.39
-24 0.61
25 0.69
-25 0.31000000000000005
26 0.54
-26 0.45999999999999996
27 0.35
-27 0.65
28 0.52
-28 0.48
29 0.72
-29 0.28
30 0.31
-30 0.69
31 0.13
-31 0.87
32 0.41
-32 0.5900000000000001
33 0.62
-33 0.38
34 0.25
-34 0.75
35 0.65
-35 0.35
36 0.7
-36 0.30000000000000004
37 0.42
-37 0.5800000000000001
38 0.97
-38 0.030000000000000027
39 0.8
-39 0.19999999999999996
40 0.58
-40 0.42000000000000004
41 0.33
-41 0.6699999999999999
42 0.06
-42 0.94
43 0.87
-43 0.13
44 0.86
-44 0.14
45 0.34
-45 0.6599999999999999
46 0.53
-46 0.47
47 0.23
-47 0.77
48 0.16
-48 0.84
49 0.5
-49 0.5
50 0.6
-50 0.4
51 0.69
-51 0.31000000000000005
52 0.87
-52 0.13
53 0.86
-53 0.14
54 0.72
-54 0.28
55 0.28
-55 0.72
56 0.07
-56 0.9299999999999999
57 0.91
-57 0.08999999999999997
58 0.15
-58 0.85
59 0.48
-59 0.52
60 0.87
-60 0.13
61 0.23
-61 0.77
62 0.68
-62 0.31999999999999995
63 0.39
-63 0.61
64 0.93
-64 0.06999999999999995
65 0.04
-65 0.96
66 0.62
-66 0.38
67 0.52
-67 0.48
68 0.5
-68 0.5
69 0.24
-69 0.76
70 0.11
-70 0.89
71 0.75
-71 0.25
72 0.3
-72 0.7
73 0.05
-73 0.95
74 0.64
-74 0.36
75 0.25
-75 0.75
76 0.16
-76 0.84
77 0.65
-77 0.35
78 0.21
-78 0.79
79 0.18
-79 0.8200000000000001
80 0.82
-80 0.18000000000000005
81 0.19
-81 0.81
82 0.04
-82 0.96
83 0.27
-83 0.73
84 0.53
-84 0.47
85 0.72
-85 0.28
86 0.67
-86 0.32999999999999996
87 0.8
-87 0.19999999999999996
88 0.76
-88 0.24
89 0.88
-89 0.12
90 0.1
-90 0.9
91 0.08
-91 0.92
92 0.46
-92 0.54
93 0.02
-93 0.98
94 0.49
-94 0.51
95 0.48
-95 0.52
96 0.48
-96 0.52
97 0.67
-97 0.32999999999999996
98 0.63
-98 0.37
99 0.09
-99 0.91
100 0.89
-100 0.10999999999999999
