1 0.75
-1 0.25
2 0.61
-2 0.39
3 0.23
-3 0.77
4 0.68
-4 0.31999999999999995
5 0.23
-5 0.77
6 0.01
-6 0.99
7 0.76
-7 0.24
8 0.25
-8 0.75
9 0.24
-9 0.76
10 0.98
-10 0.020000000000000018
11 0.02
-11 0.98
12 0.89
-12 0.10999999999999999
13 0.66
-13 0.33999999999999997
14 0.72
-14 0.28
15 0.15
-15 0.85
16 0.63
-16 0.37
17 0.22
-17 0.78
18 0.42
-18 0.5800000000000001
19 0.69
-19 0.31000000000000005
20 0.91
-20 0.08999999999999997
21 0.38
-21 0.62
22 0.84
-22 0.16000000000000003
23 0.13
-23 0.87
24 0.93
-24 0.06999999999999995
25 0.25
-25 0.75
26 0.03
-26 0.97
27 0.96
-27 0.040000000000000036
28 0.78
-28 0.21999999999999997
29 0.32
-29 0.6799999999999999
30 0.69
-30 0.31000000000000005
31 0.16
-31 0.84
32 0.33
-32 0.6699999999999999
33 0.95
-33 0.050000000000000044
34 0.2
-34 0.8
35 0.23
-35 0.77
36 0.18
-36 0.8200000000000001
37 0.89
-37 0.10999999999999999
38 0.65
-38 0.35
39 0.72
-39 0.28
40 0.75
-40 0.25
41 0.82
-41 0.18000000000000005
42 0.98
-42 0.020000000000000018
43 0.5
-43 0.5
44 0.9
-44 0.09999999999999998
45 0.94
-45 0.06000000000000005
46 0.87
-46 0.13
47 0.2
-47 0.8
48 0.67
-48 0.32999999999999996
49 0.13
-49 0.87
50 0.2
-50 0.8
51 0.36
-51 0.64
52 0.46
-52 0.54
53 0.83
-53 0.17000000000000004
54 0.72
-54 0.28
55 0.59
-55 0.41000000000000003
56 0.93
-56 0.06999999999999995
57 0.41
-57 0.5900000000000001
58 0.09
-58 0.91
59 0.23
-59 0.77
60 0.97
-60 0.030000000000000027
61 0.4
-61 0.6
62 0.59
-62 0.41000000000000003
63 0.54
-63 0.45999999999999996
64 0.34
-64 0.6599999999999999
65 0.41
-65 0.5900000000000001
66 0.55
-66 0.44999999999999996
67 0.27
-67 0.73
68 0.67
-68 0.32999999999999996
69 0.52
-69 0.48
70 0.7
-70 0.30000000000000004
71 0.96
-71 0.040000000000000036
72 0.91
-72 0.08999999999999997
73 0.78
-73 0.21999999999999997
74 0.05
-74 0.95
75 0.66
-75 0.33999999999999997
76 0.46
-76 0.54
77 0.89
-77 0.10999999999999999
78 0.98
-78 0.020000000000000018
79 0.28
-79 0.72
80 0.12
-80 0.88
81 0.55
-81 0.44999999999999996
82 0.94
-82 0.06000000000000005
83 0.57
-83 0.43000000000000005
84 0.21
-84 0.79
85 0.32
-85 0.6799999999999999
86 0.81
-86 0.18999999999999995
87 0.43
-87 0.5700000000000001
88 0.86
-88 0.14
89 0.5
-89 0.5
90 0.83
-90 0.17000000000000004
91 0.55
-91 0.44999999999999996
92 0.68
-92 0.31999999999999995
93 0.48
-93 0.52
94 0.22
-94 0.78
95 0.82
-95 0.18000000000000005
96 0.33
-96 0.6699999999999999
97 0.86
-97 0.14
98 0.13
-98 0.87
99 0.58
-99 0.42000000000000004
100 0.87
-100 0.13
