1 0.37
-1 0.63
2 0.16
-2 0.84
3 0.7
-3 0.30000000000000004
4 0.07
-4 0.9299999999999999
5 0.74
-5 0.26
6 0.86
-6 0.14
7 0.66
-7 0.33999999999999997
8 0.33
-8 0.6699999999999999
9 0.28
-9 0.72
10 0.92
-10 0.07999999999999996
11 0.61
-11 0.39
12 0.57
-12 0.43000000000000005
13 0.53
-13 0.47
14 0.58
-14 0.42000000000000004
15 0.27
-15 0.73
16 0.64
-16 0.36
17 0.01
-17 0.99
18 0.02
-18 0.98
19 0.38
-19 0.62
20 0.99
-20 0.010000000000000009
21 0.39
-21 0.61
22 0.57
-22 0.43000000000000005
23 0.53
-23 0.47
24 0.63
-24 0.37
25 0.56
-25 0.43999999999999995
26 0.46
-26 0.54
27 0.35
-27 0.65
28 0.96
-28 0.040000000000000036
29 0.1
-29 0.9
30 0.04
-30 0.96
31 0.39
-31 0.61
32 0.53
-32 0.47
33 0.53
-33 0.47
34 0.16
-34 0.84
35 0.94
-35 0.06000000000000005
36 0.96
-36 0.040000000000000036
37 0.51
-37 0.49
38 0.31
-38 0.69
39 0.41
-39 0.5900000000000001
40 0.36
-40 0.64
41 0.95
-41 0.050000000000000044
42 0.91
-42 0.08999999999999997
43 0.95
-43 0.050000000000000044
44 0.03
-44 0.97
45 0.96
-45 0.040000000000000036
46 0.6
-46 0.4
47 0.42
-47 0.5800000000000001
48 0.67
-48 0.32999999999999996
49 0.09
-49 0.91
50 0.86
-50 0.14
51 0.17
-51 0.83
52 0.71
-52 0.29000000000000004
53 0.95
-53 0.050000000000000044
54 0.6
-54 0.4
55 0.1
-55 0.9
56 0.1
-56 0.9
57 0.65
-57 0.35
58 0.64
-58 0.36
59 0.44
-59 0.56
60 0.91
-60 0.08999999999999997
61 0.69
-61 0.31000000000000005
62 0.05
-62 0.95
63 0.61
-63 0.39
64 0.16
-64 0.84
65 0.16
-65 0.84
66 0.73
-66 0.27
67 0.3
-67 0.7
68 0.62
-68 0.38
69 0.23
-69 0.77
70 0.36
-70 0.64
71 0.7
-71 0.30000000000000004
72 0.46
-72 0.54
73 0.78
-73 0.21999999999999997
74 0.71
-74 0.29000000000000004
75 0.48
-75 0.52
76 0.6
-76 0.4
77 0.54
-77 0.45999999999999996
78 0.01
-78 0.99
79 0.32
-79 0.6799999999999999
80 0.94
-80 0.06000000000000005
81 0.33
-81 0.6699999999999999
82 0.82
-82 0.18000000000000005
83 0.44
-83 0.56
84 0.82
-84 0.18000000000000005
85 0.53
-85 0.47
86 0.54
-86 0.45999999999999996
87 0.66
-87 0.33999999999999997
88 0.28
-88 0.72
89 0.54
-89 0.45999999999999996
90 0.42
-90 0.5800000000000001
91 0.43
-91 0.5700000000000001
92 0.29
-92 0.71
93 0.88
-93 0.12
94 0.97
-94 0.030000000000000027
95 0.06
-95 0.94
96 0.66
-96 0.33999999999999997
97 0.33
-97 0.6699999999999999
98 0.79
-98 0.20999999999999996
99 0.67
-99 0.32999999999999996
100 0.57
-100 0.43000000000000005
