1 0.21
-1 0.79
2 0.94
-2 0.06000000000000005
3 0.83
-3 0.17000000000000004
4 0.82
-4 0.18000000000000005
5 0.96
-5 0.040000000000000036
6 0.02
-6 0.98
7 0.19
-7 0.81
8 0.45
-8 0.55
9 0.84
-9 0.16000000000000003
10 0.76
-10 0.24
11 0.9
-11 0.09999999999999998
12 0.83
-12 0.17000000000000004
13 0.52
-13 0.48
14 0.24
-14 0.76
15 0.66
-15 0.33999999999999997
16 0.03
-16 0.97
17 0.81
-17 0.18999999999999995
18 0.28
-18 0.72
19 0.4
-19 0.6
20 0.53
-20 0.47
21 0.75
-21 0.25
22 0.45
-22 0.55
23 0.38
-23 0.62
24 0.53
-24 0.47
25 0.88
-25 0.12
26 0.15
-26 0.85
27 0.37
-27 0.63
28 0.34
-28 0.6599999999999999
29 0.14
-29 0.86
30 0.67
-30 0.32999999999999996
31 0.04
-31 0.96
32 0.46
-32 0.54
33 0.35
-33 0.65
34 0.67
-34 0.32999999999999996
35 0.04
-35 0.96
36 0.38
-36 0.62
37 0.15
-37 0.85
38 0.46
-38 0.54
39 0.54
-39 0.45999999999999996
40 0.77
-40 0.22999999999999998
41 0.35
-41 0.65
42 0.14
-42 0.86
43 0.07
-43 0.9299999999999999
44 0.01
-44 0.99
45 0.14
-45 0.86
46 0.5
-46 0.5
47 0.51
-47 0.49
48 0.78
-48 0.21999999999999997
49 0.14
-49 0.86
50 0.45
-50 0.55
51 0.92
-51 0.07999999999999996
52 0.72
-52 0.28
53 0.92
-53 0.07999999999999996
54 0.1
-54 0.9
55 0.38
-55 0.62
56 0.48
-56 0.52
57 0.9
-57 0.09999999999999998
58 0.93
-58 0.06999999999999995
59 0.8
-59 0.19999999999999996
60 0.6
-60 0.4
61 0.61
-61 0.39
62 0.82
-62 0.18000000000000005
63 0.59
-63 0.41000000000000003
64 0.4
-64 0.6
65 0.2
-65 0.8
66 0.93
-66 0.06999999999999995
67 0.06
-67 0.94
68 0.81
-68 0.18999999999999995
69 0.19
-69 0.81
70 0.88
-70 0.12
71 0.13
-71 0.87
72 0.35
-72 0.65
73 0.75
-73 0.25
74 0.05
-74 0.95
75 0.4
-75 0.6
76 0.14
-76 0.86
77 0.27
-77 0.73
78 0.66
-78 0.33999999999999997
79 0.45
-79 0.55
80 0.52
-80 0.48
81 0.93
-81 0.06999999999999995
82 0.88
-82 0.12
83 0.21
-83 0.79
84 0.32
-84 0.6799999999999999
85 0.37
-85 0.63
86 0.06
-86 0.94
87 0.65
-87 0.35
88 0.53
-88 0.47
89 0.5
-89 0.5
90 0.12
-90 0.88
91 0.47
-91 0.53
92 0.71
-92 0.29000000000000004
93 0.32
-93 0.6799999999999999
94 0.64
-94 0.36
95 0.69
-95 0.31000000000000005
96 0.16
-96 0.84
97 0.19
-97 0.81
98 0.78
-98 0.21999999999999997
99 0.73
-99 0.27
100 0.65
-100 0.35
