1 0.94
-1 0.06000000000000005
2 0.41
-2 0.5900000000000001
3 0.75
-3 0.25
4 0.01
-4 0.99
5 0.39
-5 0.61
6 0.1
-6 0.9
7 0.93
-7 0.06999999999999995
8 0.06
-8 0.94
9 0.2
-9 0.8
10 0.53
-10 0.47
11 0.56
-11 0.43999999999999995
12 0.49
-12 0.51
13 0.9
-13 0.09999999999999998
14 0.57
-14 0.43000000000000005
15 0.3
-15 0.7
16 0.35
-16 0.65
17 0.5
-17 0.5
18 0.51
-18 0.49
19 0.27
-19 0.73
20 0.95
-20 0.050000000000000044
21 0.88
-21 0.12
22 0.49
-22 0.51
23 0.62
-23 0.38
24 0.17
-24 0.83
25 0.32
-25 0.6799999999999999
26 0.86
-26 0.14
27 0.18
-27 0.8200000000000001
28 0.83
-28 0.17000000000000004
29 0.36
-29 0.64
30 0.39
-30 0.61
31 0.59
-31 0.41000000000000003
32 0.39
-32 0.61
33 0.67
-33 0.32999999999999996
34 0.38
-34 0.62
35 0.75
-35 0.25
36 0.72
-36 0.28
37 0.44
-37 0.56
38 0.38
-38 0.62
39 0.62
-39 0.38
40 0.82
-40 0.18000000000000005
41 0.57
-41 0.43000000000000005
42 0.85
-42 0.15000000000000002
43 0.45
-43 0.55
44 0.17
-44 0.83
45 0.23
-45 0.77
46 0.25
-46 0.75
47 0.77
-47 0.22999999999999998
48 0.5
-48 0.5
49 0.21
-49 0.79
50 0.7
-50 0.30000000000000004
51 0.22
-51 0.78
52 0.26
-52 0.74
53 0.52
-53 0.48
54 0.3
-54 0.7
55 0.43
-55 0.5700000000000001
56 0.68
-56 0.31999999999999995
57 0.5
-57 0.5
58 0.27
-58 0.73
59 0.43
-59 0.5700000000000001
60 0.27
-60 0.73
61 0.16
-61 0.84
62 0.1
-62 0.9
63 0.33
-63 0.6699999999999999
64 0.48
-64 0.52
65 0.27
-65 0.73
66 0.22
-66 0.78
67 0.44
-67 0.56
68 0.41
-68 0.5900000000000001
69 0.34
-69 0.6599999999999999
70 0.58
-70 0.42000000000000004
71 0.51
-71 0.49
72 0.28
-72 0.72
73 0.05
-73 0.95
74 0.33
-74 0.6699999999999999
75 0.52
-75 0.48
76 0.63
-76 0.37
77 0.13
-77 0.87
78 0.53
-78 0.47
79 0.42
-79 0.5800000000000001
80 0.58
-80 0.42000000000000004
81 0.91
-81 0.08999999999999997
82 0.12
-82 0.88
83 0.15
-83 0.85
84 0.84
-84 0.16000000000000003
85 0.06
-85 0.94
86 0.12
-86 0.88
87 0.27
-87 0.73
88 0.96
-88 0.040000000000000036
89 0.19
-89 0.81
90 0.74
-90 0.26
91 0.21
-91 0.79
92 0.44
-92 0.56
93 0.52
-93 0.48
94 0.97
-94 0.030000000000000027
95 0.46
-95 0.54
96 0.63
-96 0.37
97 0.07
-97 0.9299999999999999
98 0.88
-98 0.12
99 0.11
-99 0.89
100 0.66
-100 0.33999999999999997
