1 0.03
-1 0.97
2 0.75
-2 0.25
3 0.23
-3 0.77
4 0.34
-4 0.6599999999999999
5 0.5
-5 0.5
6 0.58
-6 0.42000000000000004
7 0.19
-7 0.81
8 0.75
-8 0.25
9 0.81
-9 0.18999999999999995
10 0.23
-10 0.77
11 0.04
-11 0.96
12 0.03
-12 0.97
13 0.6
-13 0.4
14 0.87
-14 0.13
15 0.24
-15 0.76
16 0.3
-16 0.7
17 0.5
-17 0.5
18 0.64
-18 0.36
19 0.49
-19 0.51
20 0.54
-20 0.45999999999999996
21 0.37
-21 0.63
22 0.47
-22 0.53
23 0.22
-23 0.78
24 0.03
-24 0.97
25 0.39
-25 0.61
26 0.16
-26 0.84
27 0.15
-27 0.85
28 0.43
-28 0.5700000000000001
29 0.44
-29 0.56
30 0.26
-30 0.74
31 0.75
-31 0.25
32 0.72
-32 0.28
33 0.73
-33 0.27
34 0.62
-34 0.38
35 0.18
-35 0.8200000000000001
36 0.98
-36 0.020000000000000018
37 0.85
-37 0.15000000000000002
38 0.05
-38 0.95
39 0.7
-39 0.30000000000000004
40 0.05
-40 0.95
41 0.09
-41 0.91
42 0.83
-42 0.17000000000000004
43 0.17
-43 0.83
44 0.15
-44 0.85
45 0.53
-45 0.47
46 0.68
-46 0.31999999999999995
47 0.93
-47 0.06999999999999995
48 0.14
-48 0.86
49 0.6
-49 0.4
50 0.02
-50 0.98
51 0.56
-51 0.43999999999999995
52 0.88
-52 0.12
53 0.73
-53 0.27
54 0.24
-54 0.76
55 0.67
-55 0.32999999999999996
56 0.79
-56 0.20999999999999996
57 0.73
-57 0.27
58 0.07
-58 0.9299999999999999
59 0.07
-59 0.9299999999999999
60 0.17
-60 0.83
61 0.02
-61 0.98
62 0.44
-62 0.56
63 0.55
-63 0.44999999999999996
64 0.9
-64 0.09999999999999998
65 0.82
-65 0.18000000000000005
66 0.61
-66 0.39
67 0.05
-67 0.95
68 0.58
-68 0.42000000000000004
69 0.66
-69 0.33999999999999997
70 0.3
-70 0.7
71 0.05
-71 0.95
72 0.22
-72 0.78
73 0.46
-73 0.54
74 0.48
-74 0.52
75 0.24
-75 0.76
76 0.81
-76 0.18999999999999995
77 0.11
-77 0.89
78 0.23
-78 0.77
79 0.55
-79 0.44999999999999996
80 0.33
-80 0.6699999999999999
81 0.95
-81 0.050000000000000044
82 0.95
-82 0.050000000000000044
83 0.54
-83 0.45999999999999996
84 0.09
-84 0.91
85 0.19
-85 0.81
86 0.4
-86 0.6
87 0.26
-87 0.74
88 0.24
-88 0.76
89 0.25
-89 0.75
90 0.63
-90 0.37
91 0.33
-91 0.6699999999999999
92 0.93
-92 0.06999999999999995
93 0.44
-93 0.56
94 0.52
-94 0.48
95 0.84
-95 0.16000000000000003
96 0.12
-96 0.88
97 0.75
-97 0.25
98 0.39
-98 0.61
99 0.75
-99 0.25
100 0.9
-100 0.09999999999999998
