1 0.13
-1 0.87
2 0.23
-2 0.77
3 0.05
-3 0.95
4 0.83
-4 0.17000000000000004
5 0.6
-5 0.4
6 0.95
-6 0.050000000000000044
7 0.03
-7 0.97
8 0.5
-8 0.5
9 0.49
-9 0.51
10 0.12
-10 0.88
11 0.1
-11 0.9
12 0.55
-12 0.44999999999999996
13 0.67
-13 0.32999999999999996
14 0.79
-14 0.20999999999999996
15 0.71
-15 0.29000000000000004
16 0.39
-16 0.61
17 0.99
-17 0.010000000000000009
18 0.7
-18 0.30000000000000004
19 0.88
-19 0.12
20 0.43
-20 0.5700000000000001
21 0.91
-21 0.08999999999999997
22 0.96
-22 0.040000000000000036
23 0.43
-23 0.5700000000000001
24 0.1
-24 0.9
25 0.99
-25 0.010000000000000009
26 0.02
-26 0.98
27 0.2
-27 0.8
28 0.97
-28 0.030000000000000027
29 0.39
-29 0.61
30 0.94
-30 0.06000000000000005
31 0.77
-31 0.22999999999999998
32 0.28
-32 0.72
33 0.32
-33 0.6799999999999999
34 0.13
-34 0.87
35 0.85
-35 0.15000000000000002
36 0.26
-36 0.74
37 0.86
-37 0.14
38 0.08
-38 0.92
39 0.06
-39 0.94
40 0.48
-40 0.52
41 0.5
-41 0.5
42 0.4
-42 0.6
43 0.96
-43 0.040000000000000036
44 0.12
-44 0.88
45 0.87
-45 0.13
46 0.59
-46 0.41000000000000003
47 0.61
-47 0.39
48 0.39
-48 0.61
49 0.21
-49 0.79
50 0.46
-50 0.54
51 0.91
-51 0.08999999999999997
52 0.19
-52 0.81
53 0.8
-53 0.19999999999999996
54 0.72
-54 0.28
55 0.19
-55 0.81
56 0.97
-56 0.030000000000000027
57 0.63
-57 0.37
58 0.9
-58 0.09999999999999998
59 0.83
-59 0.17000000000000004
60 0.92
-60 0.07999999999999996
61 0.46
-61 0.54
62 0.36
-62 0.64
63 0.16
-63 0.84
64 0.94
-64 0.06000000000000005
65 0.76
-65 0.24
66 0.76
-66 0.24
67 0.13
-67 0.87
68 0.26
-68 0.74
69 0.47
-69 0.53
70 0.34
-70 0.6599999999999999
71 0.86
-71 0.14
72 0.86
-72 0.14
73 0.48
-73 0.52
74 0.48
-74 0.52
75 0.46
-75 0.54
76 0.69
-76 0.31000000000000005
77 0.74
-77 0.26
78 0.15
-78 0.85
79 0.81
-79 0.18999999999999995
80 0.76
-80 0.24
81 0.7
-81 0.30000000000000004
82 0.56
-82 0.43999999999999995
83 0.6
-83 0.4
84 0.94
-84 0.06000000000000005
85 0.34
-85 0.6599999999999999
86 0.34
-86 0.6599999999999999
87 0.32
-87 0.6799999999999999
88 0.56
-88 0.43999999999999995
89 0.35
-89 0.65
90 0.27
-90 0.73
91 0.43
-91 0.5700000000000001
92 0.24
-92 0.76
93 0.99
-93 0.010000000000000009
94 0.46
-94 0.54
95 0.27
-95 0.73
96 0.32
-96 0.6799999999999999
97 0.69
-97 0.31000000000000005
98 0.8
-98 0.19999999999999996
99 0.49
-99 0.51
100 0.6
-100 0.4
