1 0.23
-1 0.77
2 0.02
-2 0.98
3 0.21
-3 0.79
4 0.65
-4 0.35
5 0.74
-5 0.26
6 0.34
-6 0.6599999999999999
7 0.64
-7 0.36
8 0.39
-8 0.61
9 0.38
-9 0.62
10 0.3
-10 0.7
11 0.18
-11 0.8200000000000001
12 0.3
-12 0.7
13 0.27
-13 0.73
14 0.2
-14 0.8
15 0.2
-15 0.8
16 0.89
-16 0.10999999999999999
17 0.69
-17 0.31000000000000005
18 0.8
-18 0.19999999999999996
19 0.7
-19 0.30000000000000004
20 0.89
-20 0.10999999999999999
21 0.3
-21 0.7
22 0.29
-22 0.71
23 0.82
-23 0.18000000000000005
24 0.72
-24 0.28
25 0.27
-25 0.73
26 0.18
-26 0.8200000000000001
27 0.04
-27 0.96
28 0.19
-28 0.81
29 0.6
-29 0.4
30 0.74
-30 0.26
31 0.19
-31 0.81
32 0.57
-32 0.43000000000000005
33 0.43
-33 0.5700000000000001
34 0.02
-34 0.98
35 0.87
-35 0.13
36 0.04
-36 0.96
37 0.43
-37 0.5700000000000001
38 0.8
-38 0.19999999999999996
39 0.99
-39 0.010000000000000009
40 0.56
-40 0.43999999999999995
41 0.8
-41 0.19999999999999996
42 0.17
-42 0.83
43 0.99
-43 0.010000000000000009
44 0.4
-44 0.6
45 0.07
-45 0.9299999999999999
46 0.51
-46 0.49
47 0.03
-47 0.97
48 0.4
-48 0.6
49 0.13
-49 0.87
50 0.96
-50 0.040000000000000036
51 0.6
-51 0.4
52 0.52
-52 0.48
53 0.06
-53 0.94
54 0.52
-54 0.48
55 0.13
-55 0.87
56 0.62
-56 0.38
57 0.64
-57 0.36
58 0.35
-58 0.65
59 0.59
-59 0.41000000000000003
60 0.89
-60 0.10999999999999999
61 0.79
-61 0.20999999999999996
62 0.15
-62 0.85
63 0.18
-63 0.8200000000000001
64 0.64
-64 0.36
65 0.34
-65 0.6599999999999999
66 0.88
-66 0.12
67 0.02
-67 0.98
68 0.08
-68 0.92
69 0.96
-69 0.040000000000000036
70 0.63
-70 0.37
71 0.45
-71 0.55
72 0.5
-72 0.5
73 0.51
-73 0.49
74 0.8
-74 0.19999999999999996
75 0.16
-75 0.84
76 0.17
-76 0.83
77 0.42
-77 0.5800000000000001
78 0.78
-78 0.21999999999999997
79 0.65
-79 0.35
80 0.19
-80 0.81
81 0.97
-81 0.030000000000000027
82 0.13
-82 0.87
83 0.03
-83 0.97
84 0.15
-84 0.85
85 0.12
-85 0.88
86 0.56
-86 0.43999999999999995
87 0.55
-87 0.44999999999999996
88 0.67
-88 0.32999999999999996
89 0.23
-89 0.77
90 0.09
-90 0.91
91 0.84
-91 0.16000000000000003
92 0.64
-92 0.36
93 0.91
-93 0.08999999999999997
94 0.4
-94 0.6
95 0.33
-95 0.6699999999999999
96 0.56
-96 0.43999999999999995
97 0.14
-97 0.86
98 0.1
-98 0.9
99 0.34
-99 0.6599999999999999
100 0.65
-100 0.35
