1 0.07
-1 0.9299999999999999
2 0.64
-2 0.36
3 0.19
-3 0.81
4 0.1
-4 0.9
5 0.86
-5 0.14
6 0.45
-6 0.55
7 0.68
-7 0.31999999999999995
8 0.25
-8 0.75
9 0.88
-9 0.12
10 0.76
-10 0.24
11 0.03
-11 0.97
12 0.39
-12 0.61
13 0.67
-13 0.32999999999999996
14 0.19
-14 0.81
15 0.93
-15 0.06999999999999995
16 0.24
-16 0.76
17 0.79
-17 0.20999999999999996
18 0.85
-18 0.15000000000000002
19 0.46
-19 0.54
20 0.2
-20 0.8
21 0.79
-21 0.20999999999999996
22 0.24
-22 0.76
23 0.13
-23 0.87
24 0.94
-24 0.06000000000000005
25 0.78
-25 0.21999999999999997
26 0.48
-26 0.52
27 0.51
-27 0.49
28 0.53
-28 0.47
29 0.13
-29 0.87
30 0.36
-30 0.64
31 0.71
-31 0.29000000000000004
32 0.13
-32 0.87
33 0.28
-33 0.72
34 0.18
-34 0.8200000000000001
35 0.93
-35 0.06999999999999995
36 0.25
-36 0.75
37 0.07
-37 0.9299999999999999
38 0.33
-38 0.6699999999999999
39 0.09
-39 0.91
40 0.35
-40 0.65
41 0.57
-41 0.43000000000000005
42 0.86
-42 0.14
43 0.92
-43 0.07999999999999996
44 0.2
-44 0.8
45 0.4
-45 0.6
46 0.16
-46 0.84
47 0.39
-47 0.61
48 0.66
-48 0.33999999999999997
49 0.91
-49 0.08999999999999997
50 0.84
-50 0.16000000000000003
51 0.08
-51 0.92
52 0.46
-52 0.54
53 0.73
-53 0.27
54 0.38
-54 0.62
55 0.55
-55 0.44999999999999996
56 0.47
-56 0.53
57 0.55
-57 0.44999999999999996
58 0.08
-58 0.92
59 0.63
-59 0.37
60 0.51
-60 0.49
61 0.11
-61 0.89
62 0.31
-62 0.69
63 0.3
-63 0.7
64 0.88
-64 0.12
65 0.59
-65 0.41000000000000003
66 0.22
-66 0.78
67 0.9
-67 0.09999999999999998
68 0.35
-68 0.65
69 0.16
-69 0.84
70 0.41
-70 0.5900000000000001
71 0.97
-71 0.030000000000000027
72 0.18
-72 0.8200000000000001
73 0.83
-73 0.17000000000000004
74 0.46
-74 0.54
75 0.81
-75 0.18999999999999995
76 0.13
-76 0.87
77 0.06
-77 0.94
78 0.4
-78 0.6
79 0.22
-79 0.78
80 0.06
-80 0.94
81 0.24
-81 0.76
82 0.46
-82 0.54
83 0.32
-83 0.6799999999999999
84 0.41
-84 0.5900000000000001
85 0.44
-85 0.56
86 0.66
-86 0.33999999999999997
87 0.64
-87 0.36
88 0.04
-88 0.96
89 0.9
-89 0.09999999999999998
90 0.79
-90 0.20999999999999996
91 0.37
-91 0.63
92 0.97
-92 0.030000000000000027
93 0.42
-93 0.5800000000000001
94 0.94
-94 0.06000000000000005
95 0.1
-95 0.9
96 0.57
-96 0.43000000000000005
97 0.47
-97 0.53
98 0.31
-98 0.69
99 0.32
-99 0.6799999999999999
100 0.71
-100 0.29000000000000004
