1 0.01
-1 0.99
2 0.05
-2 0.95
3 0.35
-3 0.65
4 0.11
-4 0.89
5 0.72
-5 0.28
6 0.27
-6 0.73
7 0.64
-7 0.36
8 0.02
-8 0.98
9 0.55
-9 0.44999999999999996
10 0.47
-10 0.53
11 0.85
-11 0.15000000000000002
12 0.03
-12 0.97
13 0.85
-13 0.15000000000000002
14 0.87
-14 0.13
15 0.24
-15 0.76
16 0.49
-16 0.51
17 0.28
-17 0.72
18 0.81
-18 0.18999999999999995
19 0.21
-19 0.79
20 0.53
-20 0.47
21 0.44
-21 0.56
22 0.61
-22 0.39
23 0.47
-23 0.53
24 0.16
-24 0.84
25 0.21
-25 0.79
26 0.73
-26 0.27
27 0.26
-27 0.74
28 0.37
-28 0.63
29 0.81
-29 0.18999999999999995
30 0.83
-30 0.17000000000000004
31 0.95
-31 0.050000000000000044
32 0.98
-32 0.020000000000000018
33 0.71
-33 0.29000000000000004
34 0.66
-34 0.33999999999999997
35 0.85
-35 0.15000000000000002
36 0.94
-36 0.06000000000000005
37 0.61
-37 0.39
38 0.93
-38 0.06999999999999995
39 0.41
-39 0.5900000000000001
40 0.47
-40 0.53
41 0.71
-41 0.29000000000000004
42 0.12
-42 0.88
43 0.29
-43 0.71
44 0.99
-44 0.010000000000000009
45 0.63
-45 0.37
46 0.65
-46 0.35
47 0.01
-47 0.99
48 0.22
-48 0.78
49 0.4
-49 0.6
50 0.86
-50 0.14
51 0.69
-51 0.31000000000000005
52 0.64
-52 0.36
53 0.55
-53 0.44999999999999996
54 0.66
-54 0.33999999999999997
55 0.07
-55 0.9299999999999999
56 0.73
-56 0.27
57 0.31
-57 0.69
58 0.67
-58 0.32999999999999996
59 0.98
-59 0.020000000000000018
60 0.76
-60 0.24
61 0.62
-61 0.38
62 0.19
-62 0.81
63 0.78
-63 0.21999999999999997
64 0.99
-64 0.010000000000000009
65 0.3
-65 0.7
66 0.12
-66 0.88
67 0.78
-67 0.21999999999999997
68 0.03
-68 0.97
69 0.15
-69 0.85
70 0.16
-70 0.84
71 0.56
-71 0.43999999999999995
72 0.14
-72 0.86
73 0.26
-73 0.74
74 0.72
-74 0.28
75 0.89
-75 0.10999999999999999
76 0.99
-76 0.010000000000000009
77 0.66
-77 0.33999999999999997
78 0.25
-78 0.75
79 0.41
-79 0.5900000000000001
80 0.6
-80 0.4
81 0.17
-81 0.83
82 0.71
-82 0.29000000000000004
83 0.85
-83 0.15000000000000002
84 0.21
-84 0.79
85 0.77
-85 0.22999999999999998
86 0.34
-86 0.6599999999999999
87 0.55
-87 0.44999999999999996
88 0.9
-88 0.09999999999999998
89 0.78
-89 0.21999999999999997
90 0.44
-90 0.56
91 0.45
-91 0.55
92 0.56
-92 0.43999999999999995
93 0.13
-93 0.87
94 0.23
-94 0.77
95 0.27
-95 0.73
96 0.73
-96 0.27
97 0.73
-97 0.27
98 0.71
-98 0.29000000000000004
99 0.17
-99 0.83
100 0.72
-100 0.28
