1 0.24
-1 0.76
2 0.96
-2 0.040000000000000036
3 0.01
-3 0.99
4 0.09
-4 0.91
5 0.68
-5 0.31999999999999995
6 0.61
-6 0.39
7 0.46
-7 0.54
8 0.54
-8 0.45999999999999996
9 0.63
-9 0.37
10 0.57
-10 0.43000000000000005
11 0.81
-11 0.18999999999999995
12 0.95
-12 0.050000000000000044
13 0.35
-13 0.65
14 0.49
-14 0.51
15 0.15
-15 0.85
16 0.85
-16 0.15000000000000002
17 0.36
-17 0.64
18 0.85
-18 0.15000000000000002
19 0.63
-19 0.37
20 0.9
-20 0.09999999999999998
21 0.7
-21 0.30000000000000004
22 0.98
-22 0.020000000000000018
23 0.83
-23 0.17000000000000004
24 0.1
-24 0.9
25 0.09
-25 0.91
26 0.46
-26 0.54
27 0.31
-27 0.69
28 0.37
-28 0.63
29 0.37
-29 0.63
30 0.69
-30 0.31000000000000005
31 0.79
-31 0.20999999999999996
32 0.34
-32 0.6599999999999999
33 0.76
-33 0.24
34 0.23
-34 0.77
35 0.84
-35 0.16000000000000003
36 0.75
-36 0.25
37 0.34
-37 0.6599999999999999
38 0.62
-38 0.38
39 0.14
-39 0.86
40 0.96
-40 0.040000000000000036
41 0.69
-41 0.31000000000000005
42 0.92
-42 0.07999999999999996
43 0.84
-43 0.16000000000000003
44 0.13
-44 0.87
45 0.85
-45 0.15000000000000002
46 0.66
-46 0.33999999999999997
47 0.05
-47 0.95
48 0.29
-48 0.71
49 0.37
-49 0.63
50 0.21
-50 0.79
51 0.22
-51 0.78
52 0.91
-52 0.08999999999999997
53 0.34
-53 0.6599999999999999
54 0.73
-54 0.27
55 0.72
-55 0.28
56 0.84
-56 0.16000000000000003
57 0.26
-57 0.74
58 0.21
-58 0.79
59 0.48
-59 0.52
60 0.77
-60 0.22999999999999998
61 0.6
-61 0.4
62 0.71
-62 0.29000000000000004
63 0.6
-63 0.4
64 0.76
-64 0.24
65 0.29
-65 0.71
66 0.95
-66 0.050000000000000044
67 0.1
-67 0.9
68 0.49
-68 0.51
69 0.8
-69 0.19999999999999996
70 0.02
-70 0.98
71 0.91
-71 0.08999999999999997
72 0.26
-72 0.74
73 0.12
-73 0.88
74 0.97
-74 0.030000000000000027
75 0.46
-75 0.54
76 0.72
-76 0.28
77 0.29
-77 0.71
78 0.3
-78 0.7
79 0.2
-79 0.8
80 0.43
-80 0.5700000000000001
81 0.38
-81 0.62
82 0.92
-82 0.07999999999999996
83 0.28
-83 0.72
84 0.4
-84 0.6
85 0.8
-85 0.19999999999999996
86 0.7
-86 0.30000000000000004
87 0.22
-87 0.78
88 0.2
-88 0.8
89 0.19
-89 0.81
90 0.49
-90 0.51
91 0.88
-91 0.12
92 0.75
-92 0.25
93 0.37
-93 0.63
94 0.79
-94 0.20999999999999996
95 0.73
-95 0.27
96 0.17
-96 0.83
97 0.59
-97 0.41000000000000003
98 0.09
-98 0.91
99 0.85
-99 0.15000000000000002
100 0.51
-100 0.49
