1 0.42
-1 0.5800000000000001
2 0.65
-2 0.35
3 0.17
-3 0.83
4 0.07
-4 0.9299999999999999
5 0.11
-5 0.89
6 0.28
-6 0.72
7 0.03
-7 0.97
8 0.77
-8 0.22999999999999998
9 0.14
-9 0.86
10 0.38
-10 0.62
11 0.11
-11 0.89
12 0.08
-12 0.92
13 0.85
-13 0.15000000000000002
14 0.44
-14 0.56
15 0.14
-15 0.86
16 0.2
-16 0.8
17 0.55
-17 0.44999999999999996
18 0.9
-18 0.09999999999999998
19 0.93
-19 0.06999999999999995
20 0.92
-20 0.07999999999999996
21 0.69
-21 0.31000000000000005
22 0.18
-22 0.8200000000000001
23 0.9
-23 0.09999999999999998
24 0.31
-24 0.69
25 0.87
-25 0.13
26 0.82
-26 0.18000000000000005
27 0.9
-27 0.09999999999999998
28 0.05
-28 0.95
29 0.75
-29 0.25
30 0.82
-30 0.18000000000000005
31 0.42
-31 0.5800000000000001
32 0.65
-32 0.35
33 0.99
-33 0.010000000000000009
34 0.93
-34 0.06999999999999995
35 0.34
-35 0.6599999999999999
36 0.77
-36 0.22999999999999998
37 0.78
-37 0.21999999999999997
38 0.39
-38 0.61
39 0.95
-39 0.050000000000000044
40 0.53
-40 0.47
41 0.4
-41 0.6
42 0.17
-42 0.83
43 0.63
-43 0.37
44 0.94
-44 0.06000000000000005
45 0.05
-45 0.95
46 0.16
-46 0.84
47 0.74
-47 0.26
48 0.26
-48 0.74
49 0.55
-49 0.44999999999999996
50 0.54
-50 0.45999999999999996
51 0.05
-51 0.95
52 0.57
-52 0.43000000000000005
53 0.77
-53 0.22999999999999998
54 0.24
-54 0.76
55 0.81
-55 0.18999999999999995
56 0.53
-56 0.47
57 0.4
-57 0.6
58 0.04
-58 0.96
59 0.09
-59 0.91
60 0.72
-60 0.28
61 0.73
-61 0.27
62 0.87
-62 0.13
63 0.75
-63 0.25
64 0.61
-64 0.39
65 0.68
-65 0.31999999999999995
66 0.64
-66 0.36
67 0.31
-67 0.69
68 0.33
-68 0.6699999999999999
69 0.13
-69 0.87
70 0.68
-70 0.31999999999999995
71 0.77
-71 0.22999999999999998
72 0.99
-72 0.010000000000000009
73 0.63
-73 0.37
74 0.85
-74 0.15000000000000002
75 0.46
-75 0.54
76 0.44
-76 0.56
77 0.58
-77 0.42000000000000004
78 0.56
-78 0.43999999999999995
79 0.2
-79 0.8
80 0.54
-80 0.45999999999999996
81 0.51
-81 0.49
82 0.18
-82 0.8200000000000001
83 0.14
-83 0.86
84 0.56
-84 0.43999999999999995
85 0.65
-85 0.35
86 0.35
-86 0.65
87 0.75
-87 0.25
88 0.08
-88 0.92
89 0.32
-89 0.6799999999999999
90 0.01
-90 0.99
91 0.93
-91 0.06999999999999995
92 0.64
-92 0.36
93 0.07
-93 0.9299999999999999
94 0.8
-94 0.19999999999999996
95 0.35
-95 0.65
96 0.11
-96 0.89
97 0.51
-97 0.49
98 0.14
-98 0.86
99 0.39
-99 0.61
100 0.08
-100 0.92
