1 0.6
-1 0.4
2 0.24
-2 0.76
3 0.68
-3 0.31999999999999995
4 0.07
-4 0.9299999999999999
5 0.01
-5 0.99
6 0.73
-6 0.27
7 0.66
-7 0.33999999999999997
8 0.04
-8 0.96
9 0.69
-9 0.31000000000000005
10 0.6
-10 0.4
11 0.09
-11 0.91
12 0.67
-12 0.32999999999999996
13 0.62
-13 0.38
14 0.83
-14 0.17000000000000004
15 0.82
-15 0.18000000000000005
16 0.81
-16 0.18999999999999995
17 0.4
-17 0.6
18 0.19
-18 0.81
19 0.28
-19 0.72
20 0.22
-20 0.78
21 0.13
-21 0.87
22 0.23
-22 0.77
23 0.36
-23 0.64
24 0.85
-24 0.15000000000000002
25 0.22
-25 0.78
26 0.36
-26 0.64
27 0.24
-27 0.76
28 0.59
-28 0.41000000000000003
29 0.84
-29 0.16000000000000003
30 0.79
-30 0.20999999999999996
31 0.15
-31 0.85
32 0.11
-32 0.89
33 0.09
-33 0.91
34 0.01
-34 0.99
35 0.62
-35 0.38
36 0.3
-36 0.7
37 0.52
-37 0.48
38 0.03
-38 0.97
39 0.83
-39 0.17000000000000004
40 0.2
-40 0.8
41 0.73
-41 0.27
42 0.85
-42 0.15000000000000002
43 0.64
-43 0.36
44 0.96
-44 0.040000000000000036
45 0.33
-45 0.6699999999999999
46 0.6
-46 0.4
47 0.83
-47 0.17000000000000004
48 0.89
-48 0.10999999999999999
49 0.99
-49 0.010000000000000009
50 0.34
-50 0.6599999999999999
51 0.61
-51 0.39
52 0.04
-52 0.96
53 0.2
-53 0.8
54 0.66
-54 0.33999999999999997
55 0.44
-55 0.56
56 0.57
-56 0.43000000000000005
57 0.14
-57 0.86
58 0.38
-58 0.62
59 0.95
-59 0.050000000000000044
60 0.34
-60 0.6599999999999999
61 0.56
-61 0.43999999999999995
62 0.03
-62 0.97
63 0.17
-63 0.83
64 0.16
-64 0.84
65 0.82
-65 0.18000000000000005
66 0.67
-66 0.32999999999999996
67 0.12
-67 0.88
68 0.47
-68 0.53
69 0.63
-69 0.37
70 0.31
-70 0.69
71 0.9
-71 0.09999999999999998
72 0.8
-72 0.19999999999999996
73 0.71
-73 0.29000000000000004
74 0.79
-74 0.20999999999999996
75 0.95
-75 0.050000000000000044
76 0.17
-76 0.83
77 0.31
-77 0.69
78 0.82
-78 0.18000000000000005
79 0.96
-79 0.040000000000000036
80 0.53
-80 0.47
81 0.07
-81 0.9299999999999999
82 0.57
-82 0.43000000000000005
83 0.16
-83 0.84
84 0.67
-84 0.32999999999999996
85 0.81
-85 0.18999999999999995
86 0.15
-86 0.85
87 0.41
-87 0.5900000000000001
88 0.32
-88 0.6799999999999999
89 0.42
-89 0.5800000000000001
90 0.6
-90 0.4
91 0.98
-91 0.020000000000000018
92 0.32
-92 0.6799999999999999
93 0.27
-93 0.73
94 0.96
-94 0.040000000000000036
95 0.56
-95 0.43999999999999995
96 0.49
-96 0.51
97 0.02
-97 0.98
98 0.9
-98 0.09999999999999998
99 0.69
-99 0.31000000000000005
100 0.34
-100 0.6599999999999999
