1 0.17
-1 0.83
2 0.05
-2 0.95
3 0.45
-3 0.55
4 0.2
-4 0.8
5 0.98
-5 0.020000000000000018
6 0.83
-6 0.17000000000000004
7 0.93
-7 0.06999999999999995
8 0.49
-8 0.51
9 0.1
-9 0.9
10 0.24
-10 0.76
11 0.62
-11 0.38
12 0.21
-12 0.79
13 0.96
-13 0.040000000000000036
14 0.04
-14 0.96
15 0.29
-15 0.71
16 0.97
-16 0.030000000000000027
17 0.16
-17 0.84
18 0.42
-18 0.5800000000000001
19 0.7
-19 0.30000000000000004
20 0.34
-20 0.6599999999999999
21 0.45
-21 0.55
22 0.62
-22 0.38
23 0.56
-23 0.43999999999999995
24 0.71
-24 0.29000000000000004
25 0.84
-25 0.16000000000000003
26 0.82
-26 0.18000000000000005
27 0.35
-27 0.65
28 0.59
-28 0.41000000000000003
29 0.52
-29 0.48
30 0.71
-30 0.29000000000000004
31 0.29
-31 0.71
32 0.28
-32 0.72
33 0.11
-33 0.89
34 0.77
-34 0.22999999999999998
35 0.7
-35 0.30000000000000004
36 0.25
-36 0.75
37 0.84
-37 0.16000000000000003
38 0.63
-38 0.37
39 0.13
-39 0.87
40 0.51
-40 0.49
41 0.38
-41 0.62
42 0.23
-42 0.77
43 0.12
-43 0.88
44 0.66
-44 0.33999999999999997
45 0.82
-45 0.18000000000000005
46 0.03
-46 0.97
47 0.85
-47 0.15000000000000002
48 0.86
-48 0.14
49 0.87
-49 0.13
50 0.06
-50 0.94
51 0.8
-51 0.19999999999999996
52 0.13
-52 0.87
53 0.14
-53 0.86
54 0.95
-54 0.050000000000000044
55 0.26
-55 0.74
56 0.67
-56 0.32999999999999996
57 0.83
-57 0.17000000000000004
58 0.84
-58 0.16000000000000003
59 0.76
-59 0.24
60 0.42
-60 0.5800000000000001
61 0.4
-61 0.6
62 0.54
-62 0.45999999999999996
63 0.12
-63 0.88
64 0.92
-64 0.07999999999999996
65 0.1
-65 0.9
66 0.11
-66 0.89
67 0.42
-67 0.5800000000000001
68 0.71
-68 0.29000000000000004
69 0.03
-69 0.97
70 0.86
-70 0.14
71 0.78
-71 0.21999999999999997
72 0.86
-72 0.14
73 0.58
-73 0.42000000000000004
74 0.51
-74 0.49
75 0.3
-75 0.7
76 0.4
-76 0.6
77 0.49
-77 0.51
78 0.91
-78 0.08999999999999997
79 0.58
-79 0.42000000000000004
80 0.94
-80 0.06000000000000005
81 0.67
-81 0.32999999999999996
82 0.03
-82 0.97
83 0.54
-83 0.45999999999999996
84 0.86
-84 0.14
85 0.85
-85 0.15000000000000002
86 0.91
-86 0.08999999999999997
87 0.71
-87 0.29000000000000004
88 0.31
-88 0.69
89 0.47
-89 0.53
90 0.32
-90 0.6799999999999999
91 0.92
-91 0.07999999999999996
92 0.48
-92 0.52
93 0.93
-93 0.06999999999999995
94 0.58
-94 0.42000000000000004
95 0.67
-95 0.32999999999999996
96 0.05
-96 0.95
97 0.36
-97 0.64
98 0.51
-98 0.49
99 0.74
-99 0.26
100 0.84
-100 0.16000000000000003
