1 0.27
-1 0.73
2 0.73
-2 0.27
3 0.42
-3 0.5800000000000001
4 0.05
-4 0.95
5 0.1
-5 0.9
6 0.77
-6 0.22999999999999998
7 0.2
-7 0.8
8 0.61
-8 0.39
9 0.11
-9 0.89
10 0.76
-10 0.24
11 0.6
-11 0.4
12 0.57
-12 0.43000000000000005
13 0.53
-13 0.47
14 0.6
-14 0.4
15 0.23
-15 0.77
16 0.82
-16 0.18000000000000005
17 0.64
-17 0.36
18 0.8
-18 0.19999999999999996
19 0.49
-19 0.51
20 0.44
-20 0.56
21 0.6
-21 0.4
22 0.61
-22 0.39
23 0.28
-23 0.72
24 0.6
-24 0.4
25 0.89
-25 0.10999999999999999
26 0.25
-26 0.75
27 0.85
-27 0.15000000000000002
28 0.43
-28 0.5700000000000001
29 0.05
-29 0.95
30 0.83
-30 0.17000000000000004
31 0.93
-31 0.06999999999999995
32 0.92
-32 0.07999999999999996
33 0.99
-33 0.010000000000000009
34 0.23
-34 0.77
35 0.52
-35 0.48
36 0.88
-36 0.12
37 0.99
-37 0.010000000000000009
38 0.71
-38 0.29000000000000004
39 0.27
-39 0.73
40 0.09
-40 0.91
41 0.82
-41 0.18000000000000005
42 0.54
-42 0.45999999999999996
43 0.75
-43 0.25
44 0.72
-44 0.28
45 0.08
-45 0.92
46 0.32
-46 0.6799999999999999
47 0.97
-47 0.030000000000000027
48 0.94
-48 0.06000000000000005
49 0.01
-49 0.99
50 0.94
-50 0.06000000000000005
51 0.38
-51 0.62
52 0.52
-52 0.48
53 0.3
-53 0.7
54 0.33
-54 0.6699999999999999
55 0.36
-55 0.64
56 0.96
-56 0.040000000000000036
57 0.27
-57 0.73
58 0.43
-58 0.5700000000000001
59 0.91
-59 0.08999999999999997
60 0.43
-60 0.5700000000000001
61 0.31
-61 0.69
62 0.94
-62 0.06000000000000005
63 0.16
-63 0.84
64 0.94
-64 0.06000000000000005
65 0.4
-65 0.6
66 0.07
-66 0.9299999999999999
67 0.71
-67 0.29000000000000004
68 0.59
-68 0.41000000000000003
69 0.7
-69 0.30000000000000004
70 0.95
-70 0.050000000000000044
71 0.79
-71 0.20999999999999996
72 0.21
-72 0.79
73 0.26
-73 0.74
74 0.29
-74 0.71
75 0.17
-75 0.83
76 0.68
-76 0.31999999999999995
77 0.4
-77 0.6
78 0.26
-78 0.74
79 0.71
-79 0.29000000000000004
80 0.18
-80 0.8200000000000001
81 0.81
-81 0.18999999999999995
82 0.15
-82 0.85
83 0.99
-83 0.010000000000000009
84 0.11
-84 0.89
85 0.31
-85 0.69
86 0.97
-86 0.030000000000000027
87 0.63
-87 0.37
88 0.2
-88 0.8
89 0.29
-89 0.71
90 0.25
-90 0.75
91 0.94
-91 0.06000000000000005
92 0.2
-92 0.8
93 0.14
-93 0.86
94 0.28
-94 0.72
95 0.37
-95 0.63
96 0.23
-96 0.77
97 0.28
-97 0.72
98 0.33
-98 0.6699999999999999
99 0.13
-99 0.87
100 0.56
-100 0.43999999999999995
