1 0.39
-1 0.61
2 0.48
-2 0.52
3 0.08
-3 0.92
4 0.64
-4 0.36
5 0.58
-5 0.42000000000000004
6 0.93
-6 0.06999999999999995
7 0.11
-7 0.89
8 0.57
-8 0.43000000000000005
9 0.79
-9 0.20999999999999996
10 0.22
-10 0.78
11 0.65
-11 0.35
12 0.63
-12 0.37
13 0.92
-13 0.07999999999999996
14 0.96
-14 0.040000000000000036
15 0.28
-15 0.72
16 0.42
-16 0.5800000000000001
17 0.43
-17 0.5700000000000001
18 0.24
-18 0.76
19 0.89
-19 0.10999999999999999
20 0.62
-20 0.38
21 0.05
-21 0.95
22 0.69
-22 0.31000000000000005
23 0.58
-23 0.42000000000000004
24 0.08
-24 0.92
25 0.06
-25 0.94
26 0.14
-26 0.86
27 0.47
-27 0.53
28 0.06
-28 0.94
29 0.24
-29 0.76
30 0.78
-30 0.21999999999999997
31 0.98
-31 0.020000000000000018
32 0.81
-32 0.18999999999999995
33 0.5
-33 0.5
34 0.17
-34 0.83
35 0.16
-35 0.84
36 0.38
-36 0.62
37 0.39
-37 0.61
38 0.62
-38 0.38
39 0.08
-39 0.92
40 0.23
-40 0.77
41 0.26
-41 0.74
42 0.69
-42 0.31000000000000005
43 0.34
-43 0.6599999999999999
44 0.41
-44 0.5900000000000001
45 0.51
-45 0.49
46 0.41
-46 0.5900000000000001
47 0.88
-47 0.12
48 0.5
-48 0.5
49 0.4
-49 0.6
50 0.81
-50 0.18999999999999995
51 0.62
-51 0.38
52 0.81
-52 0.18999999999999995
53 0.05
-53 0.95
54 0.06
-54 0.94
55 0.06
-55 0.94
56 0.87
-56 0.13
57 0.93
-57 0.06999999999999995
58 0.71
-58 0.29000000000000004
59 0.39
-59 0.61
60 0.73
-60 0.27
61 0.73
-61 0.27
62 0.04
-62 0.96
63 0.58
-63 0.42000000000000004
64 0.69
-64 0.31000000000000005
65 0.68
-65 0.31999999999999995
66 0.17
-66 0.83
67 0.02
-67 0.98
68 0.56
-68 0.43999999999999995
69 0.03
-69 0.97
70 0.56
-70 0.43999999999999995
71 0.32
-71 0.6799999999999999
72 0.61
-72 0.39
73 0.52
-73 0.48
74 0.68
-74 0.31999999999999995
75 0.57
-75 0.43000000000000005
76 0.44
-76 0.56
77 0.13
-77 0.87
78 0.01
-78 0.99
79 0.97
-79 0.030000000000000027
80 0.4
-80 0.6
81 0.45
-81 0.55
82 0.43
-82 0.5700000000000001
83 0.02
-83 0.98
84 0.67
-84 0.32999999999999996
85 0.49
-85 0.51
86 0.53
-86 0.47
87 0.03
-87 0.97
88 0.62
-88 0.38
89 0.27
-89 0.73
90 0.14
-90 0.86
91 0.95
-91 0.050000000000000044
92 0.4
-92 0.6
93 0.39
-93 0.61
94 0.5
-94 0.5
95 0.92
-95 0.07999999999999996
96 0.98
-96 0.020000000000000018
97 0.81
-97 0.18999999999999995
98 0.16
-98 0.84
99 0.7
-99 0.30000000000000004
100 0.16
-100 0.84
