1 0.61
-1 0.39
2 0.99
-2 0.010000000000000009
3 0.28
-3 0.72
4 0.1
-4 0.9
5 0.16
-5 0.84
6 0.34
-6 0.6599999999999999
7 0.06
-7 0.94
8 0.72
-8 0.28
9 0.05
-9 0.95
10 0.38
-10 0.62
11 0.11
-11 0.89
12 0.82
-12 0.18000000000000005
13 0.35
-13 0.65
14 0.81
-14 0.18999999999999995
15 0.5
-15 0.5
16 0.1
-16 0.9
17 0.89
-17 0.10999999999999999
18 0.61
-18 0.39
19 0.51
-19 0.49
20 0.19
-20 0.81
21 0.38
-21 0.62
22 0.8
-22 0.19999999999999996
23 0.92
-23 0.07999999999999996
24 0.3
-24 0.7
25 0.02
-25 0.98
26 0.96
-26 0.040000000000000036
27 0.02
-27 0.98
28 0.97
-28 0.030000000000000027
29 0.51
-29 0.49
30 0.59
-30 0.41000000000000003
31 0.26
-31 0.74
32 0.13
-32 0.87
33 0.68
-33 0.31999999999999995
34 0.72
-34 0.28
35 0.65
-35 0.35
36 0.24
-36 0.76
37 0.07
-37 0.9299999999999999
38 0.19
-38 0.81
39 0.36
-39 0.64
40 0.16
-40 0.84
41 0.73
-41 0.27
42 0.82
-42 0.18000000000000005
43 0.96
-43 0.040000000000000036
44 0.37
-44 0.63
45 0.15
-45 0.85
46 0.24
-46 0.76
47 0.12
-47 0.88
48 0.48
-48 0.52
49 0.84
-49 0.16000000000000003
50 0.23
-50 0.77
51 0.03
-51 0.97
52 0.87
-52 0.13
53 0.06
-53 0.94
54 0.7
-54 0.30000000000000004
55 0.98
-55 0.020000000000000018
56 0.13
-56 0.87
57 0.12
-57 0.88
58 0.49
-58 0.51
59 0.97
-59 0.030000000000000027
60 0.29
-60 0.71
61 0.46
-61 0.54
62 0.88
-62 0.12
63 0.77
-63 0.22999999999999998
64 0.18
-64 0.8200000000000001
65 0.88
-65 0.12
66 0.25
-66 0.75
67 0.22
-67 0.78
68 0.27
-68 0.73
69 0.41
-69 0.5900000000000001
70 0.69
-70 0.31000000000000005
71 0.63
-71 0.37
72 0.43
-72 0.5700000000000001
73 0.66
-73 0.33999999999999997
74 0.45
-74 0.55
75 0.44
-75 0.56
76 0.7
-76 0.30000000000000004
77 0.78
-77 0.21999999999999997
78 0.67
-78 0.32999999999999996
79 0.11
-79 0.89
80 0.05
-80 0.95
81 0.99
-81 0.010000000000000009
82 0.54
-82 0.45999999999999996
83 0.23
-83 0.77
84 0.13
-84 0.87
85 0.62
-85 0.38
86 0.45
-86 0.55
87 0.72
-87 0.28
88 0.08
-88 0.92
89 0.41
-89 0.5900000000000001
90 0.58
-90 0.42000000000000004
91 0.21
-91 0.79
92 0.48
-92 0.52
93 0.77
-93 0.22999999999999998
94 0.58
-94 0.42000000000000004
95 0.5
-95 0.5
96 0.08
-96 0.92
97 0.62
-97 0.38
98 0.7
-98 0.30000000000000004
99 0.54
-99 0.45999999999999996
100 0.1
-100 0.9
