1 0.75
-1 0.25
2 0.71
-2 0.29000000000000004
3 0.58
-3 0.42000000000000004
4 0.95
-4 0.050000000000000044
5 0.48
-5 0.52
6 0.06
-6 0.94
7 0.71
-7 0.29000000000000004
8 0.85
-8 0.15000000000000002
9 0.68
-9 0.31999999999999995
10 0.6
-10 0.4
11 0.79
-11 0.20999999999999996
12 0.29
-12 0.71
13 0.24
-13 0.76
14 0.66
-14 0.33999999999999997
15 0.35
-15 0.65
16 0.56
-16 0.43999999999999995
17 0.06
-17 0.94
18 0.63
-18 0.37
19 0.18
-19 0.8200000000000001
20 0.64
-20 0.36
21 0.19
-21 0.81
22 0.15
-22 0.85
23 0.03
-23 0.97
24 0.8
-24 0.19999999999999996
25 0.16
-25 0.84
26 0.49
-26 0.51
27 0.62
-27 0.38
28 0.96
-28 0.040000000000000036
29 0.48
-29 0.52
30 0.61
-30 0.39
31 0.96
-31 0.040000000000000036
32 0.99
-32 0.010000000000000009
33 0.31
-33 0.69
34 0.19
-34 0.81
35 0.07
-35 0.9299999999999999
36 0.93
-36 0.06999999999999995
37 0.32
-37 0.6799999999999999
38 0.95
-38 0.050000000000000044
39 0.42
-39 0.5800000000000001
40 0.65
-40 0.35
41 0.92
-41 0.07999999999999996
42 0.19
-42 0.81
43 0.69
-43 0.31000000000000005
44 0.18
-44 0.8200000000000001
45 0.58
-45 0.42000000000000004
46 0.05
-46 0.95
47 0.53
-47 0.47
48 0.54
-48 0.45999999999999996
49 0.84
-49 0.16000000000000003
50 0.25
-50 0.75
51 0.26
-51 0.74
52 0.97
-52 0.030000000000000027
53 0.94
-53 0.06000000000000005
54 0.31
-54 0.69
55 0.49
-55 0.51
56 0.87
-56 0.13
57 0.12
-57 0.88
58 0.42
-58 0.5800000000000001
59 0.51
-59 0.49
60 0.52
-60 0.48
61 0.63
-61 0.37
62 0.16
-62 0.84
63 0.19
-63 0.81
64 0.54
-64 0.45999999999999996
65 0.48
-65 0.52
66 0.74
-66 0.26
67 0.11
-67 0.89
68 0.56
-68 0.43999999999999995
69 0.97
-69 0.030000000000000027
70 0.12
-70 0.88
71 0.44
-71 0.56
72 0.06
-72 0.94
73 0.28
-73 0.72
74 0.57
-74 0.43000000000000005
75 0.75
-75 0.25
76 0.62
-76 0.38
77 0.88
-77 0.12
78 0.24
-78 0.76
79 0.51
-79 0.49
80 0.34
-80 0.6599999999999999
81 0.96
-81 0.040000000000000036
82 0.04
-82 0.96
83 0.35
-83 0.65
84 0.11
-84 0.89
85 0.36
-85 0.64
86 0.01
-86 0.99
87 0.63
-87 0.37
88 0.78
-88 0.21999999999999997
89 0.01
-89 0.99
90 0.18
-90 0.8200000000000001
91 0.34
-91 0.6599999999999999
92 0.7
-92 0.30000000000000004
93 0.03
-93 0.97
94 0.87
-94 0.13
95 0.69
-95 0.31000000000000005
96 0.55
-96 0.44999999999999996
97 0.15
-97 0.85
98 0.28
-98 0.72
99 0.26
-99 0.74
100 0.23
-100 0.77
