1 0.72
-1 0.28
2 0.95
-2 0.050000000000000044
3 0.65
-3 0.35
4 0.08
-4 0.92
5 0.33
-5 0.6699999999999999
6 0.39
-6 0.61
7 0.68
-7 0.31999999999999995
8 0.19
-8 0.81
9 0.14
-9 0.86
10 0.48
-10 0.52
11 0.68
-11 0.31999999999999995
12 0.68
-12 0.31999999999999995
13 0.14
-13 0.86
14 0.61
-14 0.39
15 0.87
-15 0.13
16 0.67
-16 0.32999999999999996
17 0.95
-17 0.050000000000000044
18 0.91
-18 0.08999999999999997
19 0.95
-19 0.050000000000000044
20 0.58
-20 0.42000000000000004
21 0.81
-21 0.18999999999999995
22 0.99
-22 0.010000000000000009
23 0.72
-23 0.28
24 0.83
-24 0.17000000000000004
25 0.4
-25 0.6
26 0.72
-26 0.28
27 0.8
-27 0.19999999999999996
28 0.79
-28 0.20999999999999996
29 0.15
-29 0.85
30 0.83
-30 0.17000000000000004
31 0.54
-31 0.45999999999999996
32 0.16
-32 0.84
33 0.21
-33 0.79
34 0.11
-34 0.89
35 0.47
-35 0.53
36 0.18
-36 0.8200000000000001
37 0.93
-37 0.06999999999999995
38 0.7
-38 0.30000000000000004
39 0.5
-39 0.5
40 0.75
-40 0.25
41 0.31
-41 0.69
42 0.55
-42 0.44999999999999996
43 0.59
-43 0.41000000000000003
44 0.91
-44 0.08999999999999997
45 0.85
-45 0.15000000000000002
46 0.27
-46 0.73
47 0.49
-47 0.51
48 0.46
-48 0.54
49 0.58
-49 0.42000000000000004
50 0.34
-50 0.6599999999999999
51 0.59
-51 0.41000000000000003
52 0.64
-52 0.36
53 0.58
-53 0.42000000000000004
54 0.53
-54 0.47
55 0.36
-55 0.64
56 0.63
-56 0.37
57 0.54
-57 0.45999999999999996
58 0.16
-58 0.84
59 0.35
-59 0.65
60 0.21
-60 0.79
61 0.23
-61 0.77
62 0.93
-62 0.06999999999999995
63 0.27
-63 0.73
64 0.5
-64 0.5
65 0.3
-65 0.7
66 0.98
-66 0.020000000000000018
67 0.07
-67 0.9299999999999999
68 0.54
-68 0.45999999999999996
69 0.15
-69 0.85
70 0.25
-70 0.75
71 0.66
-71 0.33999999999999997
72 0.5
-72 0.5
73 0.51
-73 0.49
74 0.31
-74 0.69
75 0.67
-75 0.32999999999999996
76 0.92
-76 0.07999999999999996
77 0.51
-77 0.49
78 0.19
-78 0.81
79 0.23
-79 0.77
80 0.64
-80 0.36
81 0.04
-81 0.96
82 0.65
-82 0.35
83 0.55
-83 0.44999999999999996
84 0.76
-84 0.24
85 0.44
-85 0.56
86 0.1
-86 0.9
87 0.3
-87 0.7
88 0.96
-88 0.040000000000000036
89 0.61
-89 0.39
90 0.17
-90 0.83
91 0.66
-91 0.33999999999999997
92 0.92
-92 0.07999999999999996
93 0.1
-93 0.9
94 0.68
-94 0.31999999999999995
95 0.87
-95 0.13
96 0.88
-96 0.12
97 0.57
-97 0.43000000000000005
98 0.1
-98 0.9
99 0.21
-99 0.79
100 0.37
-100 0.63
