1 0.51
-1 0.49
2 0.58
-2 0.42000000000000004
3 0.81
-3 0.18999999999999995
4 0.69
-4 0.31000000000000005
5 0.01
-5 0.99
6 0.53
-6 0.47
7 0.21
-7 0.79
8 0.25
-8 0.75
9 0.37
-9 0.63
10 0.32
-10 0.6799999999999999
11 0.46
-11 0.54
12 0.68
-12 0.31999999999999995
13 0.54
-13 0.45999999999999996
14 0.71
-14 0.29000000000000004
15 0.95
-15 0.050000000000000044
16 0.2
-16 0.8
17 0.7
-17 0.30000000000000004
18 0.16
-18 0.84
19 0.82
-19 0.18000000000000005
20 0.82
-20 0.18000000000000005
21 0.28
-21 0.72
22 0.37
-22 0.63
23 0.91
-23 0.08999999999999997
24 0.08
-24 0.92
25 0.22
-25 0.78
26 0.89
-26 0.10999999999999999
27 0.2
-27 0.8
28 0.69
-28 0.31000000000000005
29 0.75
-29 0.25
30 0.45
-30 0.55
31 0.64
-31 0.36
32 0.75
-32 0.25
33 0.91
-33 0.08999999999999997
34 0.43
-34 0.5700000000000001
35 0.84
-35 0.16000000000000003
36 0.64
-36 0.36
37 0.08
-37 0.92
38 0.47
-38 0.53
39 0.45
-39 0.55
40 0.47
-40 0.53
41 0.86
-41 0.14
42 0.3
-42 0.7
43 0.11
-43 0.89
44 0.2
-44 0.8
45 0.07
-45 0.9299999999999999
46 0.24
-46 0.76
47 0.12
-47 0.88
48 0.39
-48 0.61
49 0.94
-49 0.06000000000000005
50 0.9
-50 0.09999999999999998
51 0.28
-51 0.72
52 0.31
-52 0.69
53 0.66
-53 0.33999999999999997
54 0.12
-54 0.88
55 0.86
-55 0.14
56 0.17
-56 0.83
57 0.8
-57 0.19999999999999996
58 0.24
-58 0.76
59 0.67
-59 0.32999999999999996
60 0.88
-60 0.12
61 0.78
-61 0.21999999999999997
62 0.08
-62 0.92
63 0.06
-63 0.94
64 0.6
-64 0.4
65 0.7
-65 0.30000000000000004
66 0.99
-66 0.010000000000000009
67 0.42
-67 0.5800000000000001
68 0.44
-68 0.56
69 0.46
-69 0.54
70 0.74
-70 0.26
71 0.95
-71 0.050000000000000044
72 0.67
-72 0.32999999999999996
73 0.99
-73 0.010000000000000009
74 0.78
-74 0.21999999999999997
75 0.1
-75 0.9
76 0.39
-76 0.61
77 0.26
-77 0.74
78 0.16
-78 0.84
79 0.92
-79 0.07999999999999996
80 0.12
-80 0.88
81 0.38
-81 0.62
82 0.16
-82 0.84
83 0.81
-83 0.18999999999999995
84 0.62
-84 0.38
85 0.87
-85 0.13
86 0.33
-86 0.6699999999999999
87 0.87
-87 0.13
88 0.26
-88 0.74
89 0.14
-89 0.86
90 0.16
-90 0.84
91 0.91
-91 0.08999999999999997
92 0.58
-92 0.42000000000000004
93 0.21
-93 0.79
94 0.08
-94 0.92
95 0.36
-95 0.64
96 0.11
-96 0.89
97 0.41
-97 0.5900000000000001
98 0.37
-98 0.63
99 0.97
-99 0.030000000000000027
100 0.68
-100 0.31999999999999995
