1 0.33
-1 0.6699999999999999
2 0.16
-2 0.84
3 0.66
-3 0.33999999999999997
4 0.25
-4 0.75
5 0.36
-5 0.64
6 0.16
-6 0.84
7 0.36
-7 0.64
8 0.35
-8 0.65
9 0.02
-9 0.98
10 0.62
-10 0.38
11 0.4
-11 0.6
12 0.78
-12 0.21999999999999997
13 0.67
-13 0.32999999999999996
14 0.81
-14 0.18999999999999995
15 0.13
-15 0.87
16 0.82
-16 0.18000000000000005
17 0.03
-17 0.97
18 0.96
-18 0.040000000000000036
19 0.6
-19 0.4
20 0.67
-20 0.32999999999999996
21 0.46
-21 0.54
22 0.69
-22 0.31000000000000005
23 0.97
-23 0.030000000000000027
24 0.68
-24 0.31999999999999995
25 0.59
-25 0.41000000000000003
26 0.18
-26 0.8200000000000001
27 0.98
-27 0.020000000000000018
28 0.05
-28 0.95
29 0.49
-29 0.51
30 0.05
-30 0.95
31 0.59
-31 0.41000000000000003
32 0.05
-32 0.95
33 0.73
-33 0.27
34 0.52
-34 0.48
35 0.46
-35 0.54
36 0.81
-36 0.18999999999999995
37 0.18
-37 0.8200000000000001
38 0.12
-38 0.88
39 0.24
-39 0.76
40 0.55
-40 0.44999999999999996
41 0.07
-41 0.9299999999999999
42 0.5
-42 0.5
43 0.76
-43 0.24
44 0.07
-44 0.9299999999999999
45 0.06
-45 0.94
46 0.9
-46 0.09999999999999998
47 0.78
-47 0.21999999999999997
48 0.71
-48 0.29000000000000004
49 0.37
-49 0.63
50 0.03
-50 0.97
51 0.75
-51 0.25
52 0.06
-52 0.94
53 0.43
-53 0.5700000000000001
54 0.7
-54 0.30000000000000004
55 0.24
-55 0.76
56 0.11
-56 0.89
57 0.67
-57 0.32999999999999996
58 0.56
-58 0.43999999999999995
59 0.91
-59 0.08999999999999997
60 0.16
-60 0.84
61 0.54
-61 0.45999999999999996
62 0.52
-62 0.48
63 0.28
-63 0.72
64 0.05
-64 0.95
65 0.67
-65 0.32999999999999996
66 0.75
-66 0.25
67 0.17
-67 0.83
68 0.05
-68 0.95
69 0.09
-69 0.91
70 0.92
-70 0.07999999999999996
71 0.55
-71 0.44999999999999996
72 0.68
-72 0.31999999999999995
73 0.81
-73 0.18999999999999995
74 0.08
-74 0.92
75 0.19
-75 0.81
76 0.74
-76 0.26
77 0.25
-77 0.75
78 0.24
-78 0.76
79 0.43
-79 0.5700000000000001
80 0.28
-80 0.72
81 0.78
-81 0.21999999999999997
82 0.38
-82 0.62
83 0.42
-83 0.5800000000000001
84 0.18
-84 0.8200000000000001
85 0.03
-85 0.97
86 0.81
-86 0.18999999999999995
87 0.62
-87 0.38
88 0.18
-88 0.8200000000000001
89 0.13
-89 0.87
90 0.74
-90 0.26
91 0.93
-91 0.06999999999999995
92 0.71
-92 0.29000000000000004
93 0.95
-93 0.050000000000000044
94 0.41
-94 0.5900000000000001
95 0.39
-95 0.61
96 0.8
-96 0.19999999999999996
97 0.01
-97 0.99
98 0.59
-98 0.41000000000000003
99 0.51
-99 0.49
100 0.21
-100 0.79
