1 0.51
-1 0.49
2 0.41
-2 0.5900000000000001
3 0.21
-3 0.79
4 0.03
-4 0.97
5 0.67
-5 0.32999999999999996
6 0.92
-6 0.07999999999999996
7 0.15
-7 0.85
8 0.74
-8 0.26
9 0.59
-9 0.41000000000000003
10 0.32
-10 0.6799999999999999
11 0.04
-11 0.96
12 0.93
-12 0.06999999999999995
13 0.91
-13 0.08999999999999997
14 0.81
-14 0.18999999999999995
15 0.84
-15 0.16000000000000003
16 0.05
-16 0.95
17 0.61
-17 0.39
18 0.87
-18 0.13
19 0.53
-19 0.47
20 0.93
-20 0.06999999999999995
21 0.6
-21 0.4
22 0.2
-22 0.8
23 0.46
-23 0.54
24 0.05
-24 0.95
25 0.93
-25 0.06999999999999995
26 0.67
-26 0.32999999999999996
27 0.15
-27 0.85
28 0.2
-28 0.8
29 0.63
-29 0.37
30 0.3
-30 0.7
31 0.57
-31 0.43000000000000005
32 0.78
-32 0.21999999999999997
33 0.77
-33 0.22999999999999998
34 0.23
-34 0.77
35 0.7
-35 0.30000000000000004
36 0.49
-36 0.51
37 0.84
-37 0.16000000000000003
38 0.2
-38 0.8
39 0.51
-39 0.49
40 0.17
-40 0.83
41 0.74
-41 0.26
42 0.64
-42 0.36
43 0.75
-43 0.25
44 0.81
-44 0.18999999999999995
45 0.94
-45 0.06000000000000005
46 0.82
-46 0.18000000000000005
47 0.49
-47 0.51
48 0.08
-48 0.92
49 0.73
-49 0.27
50 0.19
-50 0.81
51 0.92
-51 0.07999999999999996
52 0.93
-52 0.06999999999999995
53 0.14
-53 0.86
54 0.65
-54 0.35
55 0.07
-55 0.9299999999999999
56 0.09
-56 0.91
57 0.22
-57 0.78
58 0.94
-58 0.06000000000000005
59 0.81
-59 0.18999999999999995
60 0.35
-60 0.65
61 0.56
-61 0.43999999999999995
62 0.4
-62 0.6
63 0.84
-63 0.16000000000000003
64 0.34
-64 0.6599999999999999
65 0.47
-65 0.53
66 0.93
-66 0.06999999999999995
67 0.76
-67 0.24
68 0.38
-68 0.62
69 0.58
-69 0.42000000000000004
70 0.23
-70 0.77
71 0.88
-71 0.12
72 0.94
-72 0.06000000000000005
73 0.32
-73 0.6799999999999999
74 0.24
-74 0.76
75 0.56
-75 0.43999999999999995
76 0.71
-76 0.29000000000000004
77 0.86
-77 0.14
78 0.95
-78 0.050000000000000044
79 0.84
-79 0.16000000000000003
80 0.43
-80 0.5700000000000001
81 0.32
-81 0.6799999999999999
82 0.68
-82 0.31999999999999995
83 0.21
-83 0.79
84 0.12
-84 0.88
85 0.01
-85 0.99
86 0.88
-86 0.12
87 0.38
-87 0.62
88 0.56
-88 0.43999999999999995
89 0.53
-89 0.47
90 0.51
-90 0.49
91 0.77
-91 0.22999999999999998
92 0.49
-92 0.51
93 0.47
-93 0.53
94 0.84
-94 0.16000000000000003
95 0.04
-95 0.96
96 0.05
-96 0.95
97 0.87
-97 0.13
98 0.72
-98 0.28
99 0.78
-99 0.21999999999999997
100 0.89
-100 0.10999999999999999
