1 0.48
-1 0.52
2 0.17
-2 0.83
3 0.99
-3 0.010000000000000009
4 0.67
-4 0.32999999999999996
5 0.44
-5 0.56
6 0.52
-6 0.48
7 0.13
-7 0.87
8 0.65
-8 0.35
9 0.33
-9 0.6699999999999999
10 0.47
-10 0.53
11 0.92
-11 0.07999999999999996
12 0.92
-12 0.07999999999999996
13 0.62
-13 0.38
14 0.81
-14 0.18999999999999995
15 0.5
-15 0.5
16 0.41
-16 0.5900000000000001
17 0.5
-17 0.5
18 0.98
-18 0.020000000000000018
19 0.82
-19 0.18000000000000005
20 0.49
-20 0.51
21 0.76
-21 0.24
22 0.33
-22 0.6699999999999999
23 0.73
-23 0.27
24 0.54
-24 0.45999999999999996
25 0.87
-25 0.13
26 0.28
-26 0.72
27 0.88
-27 0.12
28 0.81
-28 0.18999999999999995
29 0.49
-29 0.51
30 0.02
-30 0.98
31 0.79
-31 0.20999999999999996
32 0.06
-32 0.94
33 0.23
-33 0.77
34 0.57
-34 0.43000000000000005
35 0.06
-35 0.94
36 0.29
-36 0.71
37 0.25
-37 0.75
38 0.98
-38 0.020000000000000018
39 0.13
-39 0.87
40 0.67
-40 0.32999999999999996
41 0.55
-41 0.44999999999999996
42 0.4
-42 0.6
43 0.23
-43 0.77
44 0.76
-44 0.24
45 0.11
-45 0.89
46 0.68
-46 0.31999999999999995
47 0.17
-47 0.83
48 0.43
-48 0.5700000000000001
49 0.89
-49 0.10999999999999999
50 0.89
-50 0.10999999999999999
51 0.91
-51 0.08999999999999997
52 0.16
-52 0.84
53 0.67
-53 0.32999999999999996
54 0.96
-54 0.040000000000000036
55 0.96
-55 0.040000000000000036
56 0.93
-56 0.06999999999999995
57 0.7
-57 0.30000000000000004
58 0.27
-58 0.73
59 0.14
-59 0.86
60 0.65
-60 0.35
61 0.24
-61 0.76
62 0.26
-62 0.74
63 0.88
-63 0.12
64 0.5
-64 0.5
65 0.22
-65 0.78
66 0.2
-66 0.8
67 0.58
-67 0.42000000000000004
68 0.16
-68 0.84
69 0.82
-69 0.18000000000000005
70 0.08
-70 0.92
71 0.39
-71 0.61
72 0.54
-72 0.45999999999999996
73 0.16
-73 0.84
74 0.04
-74 0.96
75 0.95
-75 0.050000000000000044
76 0.24
-76 0.76
77 0.89
-77 0.10999999999999999
78 0.08
-78 0.92
79 0.97
-79 0.030000000000000027
80 0.58
-80 0.42000000000000004
81 0.81
-81 0.18999999999999995
82 0.9
-82 0.09999999999999998
83 0.57
-83 0.43000000000000005
84 0.69
-84 0.31000000000000005
85 0.68
-85 0.31999999999999995
86 0.14
-86 0.86
87 0.94
-87 0.06000000000000005
88 0.63
-88 0.37
89 0.21
-89 0.79
90 0.42
-90 0.5800000000000001
91 0.92
-91 0.07999999999999996
92 0.11
-92 0.89
93 0.9
-93 0.09999999999999998
94 0.1
-94 0.9
95 0.47
-95 0.53
96 0.2
-96 0.8
97 0.38
-97 0.62
98 0.02
-98 0.98
99 0.31
-99 0.69
100 0.7
-100 0.30000000000000004
