1 0.06
-1 0.94
2 0.48
-2 0.52
3 0.81
-3 0.18999999999999995
4 0.49
-4 0.51
5 0.13
-5 0.87
6 0.11
-6 0.89
7 0.97
-7 0.030000000000000027
8 0.65
-8 0.35
9 0.39
-9 0.61
10 0.68
-10 0.31999999999999995
11 0.83
-11 0.17000000000000004
12 0.68
-12 0.31999999999999995
13 0.1
-13 0.9
14 0.75
-14 0.25
15 0.6
-15 0.4
16 0.48
-16 0.52
17 0.92
-17 0.07999999999999996
18 0.4
-18 0.6
19 0.44
-19 0.56
20 0.89
-20 0.10999999999999999
21 0.23
-21 0.77
22 0.72
-22 0.28
23 0.9
-23 0.09999999999999998
24 0.28
-24 0.72
25 0.07
-25 0.9299999999999999
26 0.18
-26 0.8200000000000001
27 0.05
-27 0.95
28 0.74
-28 0.26
29 0.77
-29 0.22999999999999998
30 0.67
-30 0.32999999999999996
31 0.79
-31 0.20999999999999996
32 0.48
-32 0.52
33 0.06
-33 0.94
34 0.58
-34 0.42000000000000004
35 0.35
-35 0.65
36 0.48
-36 0.52
37 0.12
-37 0.88
38 0.13
-38 0.87
39 0.89
-39 0.10999999999999999
40 0.41
-40 0.5900000000000001
41 0.08
-41 0.92
42 0.84
-42 0.16000000000000003
43 0.72
-43 0.28
44 0.73
-44 0.27
45 0.99
-45 0.010000000000000009
46 0.75
-46 0.25
47 0.55
-47 0.44999999999999996
48 0.63
-48 0.37
49 0.86
-49 0.14
50 0.12
-50 0.88
51 0.91
-51 0.08999999999999997
52 0.58
-52 0.42000000000000004
53 0.61
-53 0.39
54 0.14
-54 0.86
55 0.51
-55 0.49
56 0.04
-56 0.96
57 0.02
-57 0.98
58 0.75
-58 0.25
59 0.38
-59 0.62
60 0.07
-60 0.9299999999999999
61 0.76
-61 0.24
62 0.09
-62 0.91
63 0.89
-63 0.10999999999999999
64 0.45
-64 0.55
65 0.88
-65 0.12
66 0.43
-66 0.5700000000000001
67 0.26
-67 0.74
68 0.47
-68 0.53
69 0.75
-69 0.25
70 0.76
-70 0.24
71 0.55
-71 0.44999999999999996
72 0.5
-72 0.5
73 0.51
-73 0.49
74 0.57
-74 0.43000000000000005
75 0.73
-75 0.27
76 0.65
-76 0.35
77 0.61
-77 0.39
78 0.59
-78 0.41000000000000003
79 0.95
-79 0.050000000000000044
80 0.41
-80 0.5900000000000001
81 0.05
-81 0.95
82 0.3
-82 0.7
83 0.93
-83 0.06999999999999995
84 0.06
-84 0.94
85 0.62
-85 0.38
86 0.11
-86 0.89
87 0.38
-87 0.62
88 0.18
-88 0.8200000000000001
89 0.45
-89 0.55
90 0.19
-90 0.81
91 0.82
-91 0.18000000000000005
92 0.61
-92 0.39
93 0.55
-93 0.44999999999999996
94 0.47
-94 0.53
95 0.29
-95 0.71
96 0.76
-96 0.24
97 0.01
-97 0.99
98 0.56
-98 0.43999999999999995
99 0.75
-99 0.25
100 0.94
-100 0.06000000000000005
