1 0.82
-1 0.18000000000000005
2 0.16
-2 0.84
3 0.94
-3 0.06000000000000005
4 0.99
-4 0.010000000000000009
5 0.75
-5 0.25
6 0.86
-6 0.14
7 0.63
-7 0.37
8 0.2
-8 0.8
9 0.17
-9 0.83
10 0.73
-10 0.27
11 0.76
-11 0.24
12 0.76
-12 0.24
13 0.99
-13 0.010000000000000009
14 0.98
-14 0.020000000000000018
15 0.77
-15 0.22999999999999998
16 0.37
-16 0.63
17 0.62
-17 0.38
18 0.14
-18 0.86
19 0.19
-19 0.81
20 0.07
-20 0.9299999999999999
21 0.96
-21 0.040000000000000036
22 0.72
-22 0.28
23 0.83
-23 0.17000000000000004
24 0.9
-24 0.09999999999999998
25 0.58
-25 0.42000000000000004
26 0.48
-26 0.52
27 0.65
-27 0.35
28 0.33
-28 0.6699999999999999
29 0.57
-29 0.43000000000000005
30 0.3
-30 0.7
31 0.72
-31 0.28
32 0.4
-32 0.6
33 0.49
-33 0.51
34 0.87
-34 0.13
35 0.42
-35 0.5800000000000001
36 0.43
-36 0.5700000000000001
37 0.47
-37 0.53
38 0.38
-38 0.62
39 0.82
-39 0.18000000000000005
40 0.59
-40 0.41000000000000003
41 0.12
-41 0.88
42 0.28
-42 0.72
43 0.48
-43 0.52
44 0.2
-44 0.8
45 0.53
-45 0.47
46 0.69
-46 0.31000000000000005
47 0.84
-47 0.16000000000000003
48 0.4
-48 0.6
49 0.07
-49 0.9299999999999999
50 0.33
-50 0.6699999999999999
51 0.58
-51 0.42000000000000004
52 0.05
-52 0.95
53 0.8
-53 0.19999999999999996
54 0.82
-54 0.18000000000000005
55 0.52
-55 0.48
56 0.29
-56 0.71
57 0.27
-57 0.73
58 0.67
-58 0.32999999999999996
59 0.11
-59 0.89
60 0.44
-60 0.56
61 0.87
-61 0.13
62 0.14
-62 0.86
63 0.29
-63 0.71
64 0.17
-64 0.83
65 0.16
-65 0.84
66 0.2
-66 0.8
67 0.05
-67 0.95
68 0.36
-68 0.64
69 0.9
-69 0.09999999999999998
70 0.75
-70 0.25
71 0.22
-71 0.78
72 0.86
-72 0.14
73 0.09
-73 0.91
74 0.6
-74 0.4
75 0.31
-75 0.69
76 0.11
-76 0.89
77 0.29
-77 0.71
78 0.74
-78 0.26
79 0.92
-79 0.07999999999999996
80 0.31
-80 0.69
81 0.74
-81 0.26
82 0.62
-82 0.38
83 0.76
-83 0.24
84 0.25
-84 0.75
85 0.26
-85 0.74
86 0.64
-86 0.36
87 0.76
-87 0.24
88 0.62
-88 0.38
89 0.71
-89 0.29000000000000004
90 0.65
-90 0.35
91 0.18
-91 0.8200000000000001
92 0.01
-92 0.99
93 0.65
-93 0.35
94 0.46
-94 0.54
95 0.05
-95 0.95
96 0.81
-96 0.18999999999999995
97 0.4
-97 0.6
98 0.86
-98 0.14
99 0.18
-99 0.8200000000000001
100 0.99
-100 0.010000000000000009
