1 0.24
-1 0.76
2 0.85
-2 0.15000000000000002
3 0.15
-3 0.85
4 0.65
-4 0.35
5 0.48
-5 0.52
6 0.63
-6 0.37
7 0.9
-7 0.09999999999999998
8 0.91
-8 0.08999999999999997
9 0.3
-9 0.7
10 0.57
-10 0.43000000000000005
11 0.96
-11 0.040000000000000036
12 0.48
-12 0.52
13 0.06
-13 0.94
14 0.59
-14 0.41000000000000003
15 0.06
-15 0.94
16 0.18
-16 0.8200000000000001
17 0.68
-17 0.31999999999999995
18 0.49
-18 0.51
19 0.93
-19 0.06999999999999995
20 0.16
-20 0.84
21 0.49
-21 0.51
22 0.5
-22 0.5
23 0.83
-23 0.17000000000000004
24 0.06
-24 0.94
25 0.33
-25 0.6699999999999999
26 0.9
-26 0.09999999999999998
27 0.63
-27 0.37
28 0.32
-28 0.6799999999999999
29 0.07
-29 0.9299999999999999
30 0.29
-30 0.71
31 0.68
-31 0.31999999999999995
32 0.75
-32 0.25
33 0.23
-33 0.77
34 0.85
-34 0.15000000000000002
35 0.91
-35 0.08999999999999997
36 0.18
-36 0.8200000000000001
37 0.76
-37 0.24
38 0.3
-38 0.7
39 0.98
-39 0.020000000000000018
40 0.61
-40 0.39
41 0.1
-41 0.9
42 0.63
-42 0.37
43 0.17
-43 0.83
44 0.16
-44 0.84
45 0.44
-45 0.56
46 0.86
-46 0.14
47 0.84
-47 0.16000000000000003
48 0.79
-48 0.20999999999999996
49 0.94
-49 0.06000000000000005
50 0.87
-50 0.13
51 0.65
-51 0.35
52 0.78
-52 0.21999999999999997
53 0.94
-53 0.06000000000000005
54 0.65
-54 0.35
55 0.21
-55 0.79
56 0.17
-56 0.83
57 0.35
-57 0.65
58 0.51
-58 0.49
59 0.38
-59 0.62
60 0.17
-60 0.83
61 0.2
-61 0.8
62 0.41
-62 0.5900000000000001
63 0.66
-63 0.33999999999999997
64 0.65
-64 0.35
65 0.68
-65 0.31999999999999995
66 0.94
-66 0.06000000000000005
67 0.98
-67 0.020000000000000018
68 0.35
-68 0.65
69 0.58
-69 0.42000000000000004
70 0.52
-70 0.48
71 0.76
-71 0.24
72 0.34
-72 0.6599999999999999
73 0.8
-73 0.19999999999999996
74 0.16
-74 0.84
75 0.2
-75 0.8
76 0.67
-76 0.32999999999999996
77 0.63
-77 0.37
78 0.29
-78 0.71
79 0.36
-79 0.64
80 0.9
-80 0.09999999999999998
81 0.54
-81 0.45999999999999996
82 0.81
-82 0.18999999999999995
83 0.03
-83 0.97
84 0.41
-84 0.5900000000000001
85 0.93
-85 0.06999999999999995
86 0.63
-86 0.37
87 0.97
-87 0.030000000000000027
88 0.39
-88 0.61
89 0.04
-89 0.96
90 0.28
-90 0.72
91 0.92
-91 0.07999999999999996
92 0.65
-92 0.35
93 0.56
-93 0.43999999999999995
94 0.02
-94 0.98
95 0.62
-95 0.38
96 0.7
-96 0.30000000000000004
97 0.35
-97 0.65
98 0.18
-98 0.8200000000000001
99 0.51
-99 0.49
100 0.41
-100 0.5900000000000001
