1 0.19
-1 0.81
2 0.3
-2 0.7
3 0.2
-3 0.8
4 0.88
-4 0.12
5 0.75
-5 0.25
6 0.68
-6 0.31999999999999995
7 0.98
-7 0.020000000000000018
8 0.05
-8 0.95
9 0.11
-9 0.89
10 0.02
-10 0.98
11 0.32
-11 0.6799999999999999
12 0.32
-12 0.6799999999999999
13 0.93
-13 0.06999999999999995
14 0.39
-14 0.61
15 0.03
-15 0.97
16 0.46
-16 0.54
17 0.69
-17 0.31000000000000005
18 0.91
-18 0.08999999999999997
19 0.01
-19 0.99
20 0.37
-20 0.63
21 0.75
-21 0.25
22 0.6
-22 0.4
23 0.39
-23 0.61
24 0.65
-24 0.35
25 0.13
-25 0.87
26 0.62
-26 0.38
27 0.35
-27 0.65
28 0.8
-28 0.19999999999999996
29 0.7
-29 0.30000000000000004
30 0.7
-30 0.30000000000000004
31 0.63
-31 0.37
32 0.94
-32 0.06000000000000005
33 0.76
-33 0.24
34 0.27
-34 0.73
35 0.52
-35 0.48
36 0.51
-36 0.49
37 0.28
-37 0.72
38 0.37
-38 0.63
39 0.95
-39 0.050000000000000044
40 0.16
-40 0.84
41 0.15
-41 0.85
42 0.67
-42 0.32999999999999996
43 0.37
-43 0.63
44 0.78
-44 0.21999999999999997
45 0.19
-45 0.81
46 0.13
-46 0.87
47 0.56
-47 0.43999999999999995
48 0.13
-48 0.87
49 0.55
-49 0.44999999999999996
50 0.86
-50 0.14
51 0.44
-51 0.56
52 0.5
-52 0.5
53 0.03
-53 0.97
54 0.63
-54 0.37
55 0.69
-55 0.31000000000000005
56 0.82
-56 0.18000000000000005
57 0.06
-57 0.94
58 0.51
-58 0.49
59 0.61
-59 0.39
60 0.45
-60 0.55
61 0.32
-61 0.6799999999999999
62 0.89
-62 0.10999999999999999
63 0.25
-63 0.75
64 0.21
-64 0.79
65 0.37
-65 0.63
66 0.43
-66 0.5700000000000001
67 0.11
-67 0.89
68 0.96
-68 0.040000000000000036
69 0.78
-69 0.21999999999999997
70 0.25
-70 0.75
71 0.28
-71 0.72
72 0.5
-72 0.5
73 0.14
-73 0.86
74 0.55
-74 0.44999999999999996
75 0.79
-75 0.20999999999999996
76 0.34
-76 0.6599999999999999
77 0.67
-77 0.32999999999999996
78 0.53
-78 0.47
79 0.5
-79 0.5
80 0.08
-80 0.92
81 0.78
-81 0.21999999999999997
82 0.69
-82 0.31000000000000005
83 0.28
-83 0.72
84 0.82
-84 0.18000000000000005
85 0.21
-85 0.79
86 0.01
-86 0.99
87 0.17
-87 0.83
88 0.84
-88 0.16000000000000003
89 0.23
-89 0.77
90 0.67
-90 0.32999999999999996
91 0.29
-91 0.71
92 0.2
-92 0.8
93 0.21
-93 0.79
94 0.01
-94 0.99
95 0.94
-95 0.06000000000000005
96 0.08
-96 0.92
97 0.6
-97 0.4
98 0.52
-98 0.48
99 0.14
-99 0.86
100 0.46
-100 0.54
