1 0.58
-1 0.42000000000000004
2 0.81
-2 0.18999999999999995
3 0.58
-3 0.42000000000000004
4 0.55
-4 0.44999999999999996
5 0.37
-5 0.63
6 0.74
-6 0.26
7 0.21
-7 0.79
8 0.58
-8 0.42000000000000004
9 0.09
-9 0.91
10 0.08
-10 0.92
11 0.6
-11 0.4
12 0.23
-12 0.77
13 0.21
-13 0.79
14 0.91
-14 0.08999999999999997
15 0.6
-15 0.4
16 0.03
-16 0.97
17 0.56
-17 0.43999999999999995
18 0.84
-18 0.16000000000000003
19 0.76
-19 0.24
20 0.81
-20 0.18999999999999995
21 0.27
-21 0.73
22 0.34
-22 0.6599999999999999
23 0.46
-23 0.54
24 0.66
-24 0.33999999999999997
25 0.56
-25 0.43999999999999995
26 0.15
-26 0.85
27 0.7
-27 0.30000000000000004
28 0.66
-28 0.33999999999999997
29 0.5
-29 0.5
30 0.77
-30 0.22999999999999998
31 0.28
-31 0.72
32 0.87
-32 0.13
33 0.95
-33 0.050000000000000044
34 0.49
-34 0.51
35 0.37
-35 0.63
36 0.87
-36 0.13
37 0.22
-37 0.78
38 0.67
-38 0.32999999999999996
39 0.1
-39 0.9
40 0.68
-40 0.31999999999999995
41 0.69
-41 0.31000000000000005
42 0.41
-42 0.5900000000000001
43 0.68
-43 0.31999999999999995
44 0.92
-44 0.07999999999999996
45 0.34
-45 0.6599999999999999
46 0.96
-46 0.040000000000000036
47 0.28
-47 0.72
48 0.05
-48 0.95
49 0.33
-49 0.6699999999999999
50 0.92
-50 0.07999999999999996
51 0.79
-51 0.20999999999999996
52 0.33
-52 0.6699999999999999
53 0.42
-53 0.5800000000000001
54 0.95
-54 0.050000000000000044
55 0.2
-55 0.8
56 0.21
-56 0.79
57 0.57
-57 0.43000000000000005
58 0.76
-58 0.24
59 0.83
-59 0.17000000000000004
60 0.57
-60 0.43000000000000005
61 0.81
-61 0.18999999999999995
62 0.16
-62 0.84
63 0.31
-63 0.69
64 0.12
-64 0.88
65 0.98
-65 0.020000000000000018
66 0.59
-66 0.41000000000000003
67 0.93
-67 0.06999999999999995
68 0.86
-68 0.14
69 0.65
-69 0.35
70 0.5
-70 0.5
71 0.47
-71 0.53
72 0.3
-72 0.7
73 0.09
-73 0.91
74 0.37
-74 0.63
75 0.24
-75 0.76
76 0.05
-76 0.95
77 0.01
-77 0.99
78 0.51
-78 0.49
79 0.41
-79 0.5900000000000001
80 0.28
-80 0.72
81 0.7
-81 0.30000000000000004
82 0.55
-82 0.44999999999999996
83 0.33
-83 0.6699999999999999
84 0.29
-84 0.71
85 0.13
-85 0.87
86 0.27
-86 0.73
87 0.01
-87 0.99
88 0.11
-88 0.89
89 0.78
-89 0.21999999999999997
90 0.89
-90 0.10999999999999999
91 0.83
-91 0.17000000000000004
92 0.18
-92 0.8200000000000001
93 0.33
-93 0.6699999999999999
94 0.74
-94 0.26
95 0.19
-95 0.81
96 0.77
-96 0.22999999999999998
97 0.46
-97 0.54
98 0.43
-98 0.5700000000000001
99 0.46
-99 0.54
100 0.12
-100 0.88
