1 0.4
-1 0.6
2 0.74
-2 0.26
3 0.63
-3 0.37
4 0.85
-4 0.15000000000000002
5 0.28
-5 0.72
6 0.84
-6 0.16000000000000003
7 0.57
-7 0.43000000000000005
8 0.5
-8 0.5
9 0.91
-9 0.08999999999999997
10 0.6
-10 0.4
11 0.53
-11 0.47
12 0.65
-12 0.35
13 0.43
-13 0.5700000000000001
14 0.13
-14 0.87
15 0.45
-15 0.55
16 0.87
-16 0.13
17 0.76
-17 0.24
18 0.44
-18 0.56
19 0.59
-19 0.41000000000000003
20 0.21
-20 0.79
21 0.78
-21 0.21999999999999997
22 0.52
-22 0.48
23 0.02
-23 0.98
24 0.96
-24 0.040000000000000036
25 0.36
-25 0.64
26 0.95
-26 0.050000000000000044
27 0.55
-27 0.44999999999999996
28 0.63
-28 0.37
29 0.02
-29 0.98
30 0.9
-30 0.09999999999999998
31 0.44
-31 0.56
32 0.26
-32 0.74
33 0.08
-33 0.92
34 0.43
-34 0.5700000000000001
35 0.34
-35 0.6599999999999999
36 0.39
-36 0.61
37 0.23
-37 0.77
38 0.86
-38 0.14
39 0.64
-39 0.36
40 0.75
-40 0.25
41 0.76
-41 0.24
42 0.84
-42 0.16000000000000003
43 0.93
-43 0.06999999999999995
44 0.13
-44 0.87
45 0.38
-45 0.62
46 0.79
-46 0.20999999999999996
47 0.94
-47 0.06000000000000005
48 0.63
-48 0.37
49 0.49
-49 0.51
50 0.77
-50 0.22999999999999998
51 0.67
-51 0.32999999999999996
52 0.87
-52 0.13
53 0.62
-53 0.38
54 0.91
-54 0.08999999999999997
55 0.27
-55 0.73
56 0.7
-56 0.30000000000000004
57 0.5
-57 0.5
58 0.46
-58 0.54
59 0.93
-59 0.06999999999999995
60 0.16
-60 0.84
61 0.03
-61 0.97
62 0.93
-62 0.06999999999999995
63 0.88
-63 0.12
64 0.84
-64 0.16000000000000003
65 0.95
-65 0.050000000000000044
66 0.22
-66 0.78
67 0.43
-67 0.5700000000000001
68 0.77
-68 0.22999999999999998
69 0.97
-69 0.030000000000000027
70 0.78
-70 0.21999999999999997
71 0.09
-71 0.91
72 0.53
-72 0.47
73 0.66
-73 0.33999999999999997
74 0.66
-74 0.33999999999999997
75 0.14
-75 0.86
76 0.77
-76 0.22999999999999998
77 0.31
-77 0.69
78 0.25
-78 0.75
79 0.83
-79 0.17000000000000004
80 0.81
-80 0.18999999999999995
81 0.58
-81 0.42000000000000004
82 0.16
-82 0.84
83 0.6
-83 0.4
84 0.55
-84 0.44999999999999996
85 0.56
-85 0.43999999999999995
86 0.64
-86 0.36
87 0.99
-87 0.010000000000000009
88 0.51
-88 0.49
89 0.24
-89 0.76
90 0.96
-90 0.040000000000000036
91 0.75
-91 0.25
92 0.93
-92 0.06999999999999995
93 0.54
-93 0.45999999999999996
94 0.72
-94 0.28
95 0.34
-95 0.6599999999999999
96 0.57
-96 0.43000000000000005
97 0.33
-97 0.6699999999999999
98 0.22
-98 0.78
99 0.33
-99 0.6699999999999999
100 0.07
-100 0.9299999999999999
