1 0.34
-1 0.6599999999999999
2 0.85
-2 0.15000000000000002
3 0.99
-3 0.010000000000000009
4 0.77
-4 0.22999999999999998
5 0.95
-5 0.050000000000000044
6 0.9
-6 0.09999999999999998
7 0.47
-7 0.53
8 0.25
-8 0.75
9 0.2
-9 0.8
10 0.78
-10 0.21999999999999997
11 0.91
-11 0.08999999999999997
12 0.23
-12 0.77
13 0.12
-13 0.88
14 0.34
-14 0.6599999999999999
15 0.42
-15 0.5800000000000001
16 0.92
-16 0.07999999999999996
17 0.88
-17 0.12
18 0.82
-18 0.18000000000000005
19 0.25
-19 0.75
20 0.36
-20 0.64
21 0.14
-21 0.86
22 0.88
-22 0.12
23 0.69
-23 0.31000000000000005
24 0.22
-24 0.78
25 0.97
-25 0.030000000000000027
26 0.89
-26 0.10999999999999999
27 0.81
-27 0.18999999999999995
28 0.42
-28 0.5800000000000001
29 0.63
-29 0.37
30 0.86
-30 0.14
31 0.06
-31 0.94
32 0.73
-32 0.27
33 0.24
-33 0.76
34 0.43
-34 0.5700000000000001
35 0.36
-35 0.64
36 0.96
-36 0.040000000000000036
37 0.16
-37 0.84
38 0.08
-38 0.92
39 0.77
-39 0.22999999999999998
40 0.12
-40 0.88
41 0.53
-41 0.47
42 0.93
-42 0.06999999999999995
43 0.95
-43 0.050000000000000044
44 0.29
-44 0.71
45 0.88
-45 0.12
46 0.34
-46 0.6599999999999999
47 0.55
-47 0.44999999999999996
48 0.51
-48 0.49
49 0.2
-49 0.8
50 0.34
-50 0.6599999999999999
51 0.51
-51 0.49
52 0.34
-52 0.6599999999999999
53 0.69
-53 0.31000000000000005
54 0.52
-54 0.48
55 0.28
-55 0.72
56 0.69
-56 0.31000000000000005
57 0.42
-57 0.5800000000000001
58 0.61
-58 0.39
59 0.56
-59 0.43999999999999995
60 0.77
-60 0.22999999999999998
61 0.78
-61 0.21999999999999997
62 0.03
-62 0.97
63 0.8
-63 0.19999999999999996
64 0.98
-64 0.020000000000000018
65 0.34
-65 0.6599999999999999
66 0.83
-66 0.17000000000000004
67 0.7
-67 0.30000000000000004
68 0.59
-68 0.41000000000000003
69 0.32
-69 0.6799999999999999
70 0.39
-70 0.61
71 0.63
-71 0.37
72 0.81
-72 0.18999999999999995
73 0.39
-73 0.61
74 0.34
-74 0.6599999999999999
75 0.18
-75 0.8200000000000001
76 0.48
-76 0.52
77 0.91
-77 0.08999999999999997
78 0.16
-78 0.84
79 0.44
-79 0.56
80 0.63
-80 0.37
81 0.8
-81 0.19999999999999996
82 0.68
-82 0.31999999999999995
83 0.95
-83 0.050000000000000044
84 0.64
-84 0.36
85 0.41
-85 0.5900000000000001
86 0.15
-86 0.85
87 0.18
-87 0.8200000000000001
88 0.07
-88 0.9299999999999999
89 0.83
-89 0.17000000000000004
90 0.22
-90 0.78
91 0.55
-91 0.44999999999999996
92 0.09
-92 0.91
93 0.23
-93 0.77
94 0.7
-94 0.30000000000000004
95 0.37
-95 0.63
96 0.81
-96 0.18999999999999995
97 0.36
-97 0.64
98 0.4
-98 0.6
99 0.15
-99 0.85
100 0.28
-100 0.72
