1 0.85
-1 0.15000000000000002
2 0.54
-2 0.45999999999999996
3 0.3
-3 0.7
4 0.41
-4 0.5900000000000001
5 0.59
-5 0.41000000000000003
6 0.55
-6 0.44999999999999996
7 0.04
-7 0.96
8 0.84
-8 0.16000000000000003
9 0.11
-9 0.89
10 0.48
-10 0.52
11 0.72
-11 0.28
12 0.4
-12 0.6
13 0.85
-13 0.15000000000000002
14 0.97
-14 0.030000000000000027
15 0.94
-15 0.06000000000000005
16 0.79
-16 0.20999999999999996
17 0.8
-17 0.19999999999999996
18 0.66
-18 0.33999999999999997
19 0.63
-19 0.37
20 0.61
-20 0.39
21 0.5
-21 0.5
22 0.24
-22 0.76
23 0.18
-23 0.8200000000000001
24 0.34
-24 0.6599999999999999
25 0.95
-25 0.050000000000000044
26 0.77
-26 0.22999999999999998
27 0.36
-27 0.64
28 0.18
-28 0.8200000000000001
29 0.68
-29 0.31999999999999995
30 0.9
-30 0.09999999999999998
31 0.11
-31 0.89
32 0.07
-32 0.9299999999999999
33 0.59
-33 0.41000000000000003
34 0.87
-34 0.13
35 0.78
-35 0.21999999999999997
36 0.75
-36 0.25
37 0.69
-37 0.31000000000000005
38 0.45
-38 0.55
39 0.68
-39 0.31999999999999995
40 0.99
-40 0.010000000000000009
41 0.01
-41 0.99
42 0.6
-42 0.4
43 0.42
-43 0.5800000000000001
44 0.56
-44 0.43999999999999995
45 0.17
-45 0.83
46 0.93
-46 0.06999999999999995
47 0.45
-47 0.55
48 0.16
-48 0.84
49 0.11
-49 0.89
50 0.82
-50 0.18000000000000005
51 0.99
-51 0.010000000000000009
52 0.8
-52 0.19999999999999996
53 0.02
-53 0.98
54 0.75
-54 0.25
55 0.64
-55 0.36
56 0.65
-56 0.35
57 0.6
-57 0.4
58 0.26
-58 0.74
59 0.54
-59 0.45999999999999996
60 0.41
-60 0.5900000000000001
61 0.4
-61 0.6
62 0.16
-62 0.84
63 0.45
-63 0.55
64 0.11
-64 0.89
65 0.58
-65 0.42000000000000004
66 0.44
-66 0.56
67 0.72
-67 0.28
68 0.88
-68 0.12
69 0.9
-69 0.09999999999999998
70 0.25
-70 0.75
71 0.14
-71 0.86
72 0.02
-72 0.98
73 0.46
-73 0.54
74 0.8
-74 0.19999999999999996
75 0.04
-75 0.96
76 0.64
-76 0.36
77 0.89
-77 0.10999999999999999
78 0.62
-78 0.38
79 0.32
-79 0.6799999999999999
80 0.04
-80 0.96
81 0.92
-81 0.07999999999999996
82 0.82
-82 0.18000000000000005
83 0.19
-83 0.81
84 0.95
-84 0.050000000000000044
85 0.23
-85 0.77
86 0.51
-86 0.49
87 0.41
-87 0.5900000000000001
88 0.64
-88 0.36
89 0.87
-89 0.13
90 0.46
-90 0.54
91 0.19
-91 0.81
92 0.94
-92 0.06000000000000005
93 0.74
-93 0.26
94 0.92
-94 0.07999999999999996
95 0.12
-95 0.88
96 0.41
-96 0.5900000000000001
97 0.98
-97 0.020000000000000018
98 0.45
-98 0.55
99 0.72
-99 0.28
100 0.2
-100 0.8
