1 0.18
-1 0.8200000000000001
2 0.39
-2 0.61
3 0.73
-3 0.27
4 0.27
-4 0.73
5 0.05
-5 0.95
6 0.38
-6 0.62
7 0.72
-7 0.28
8 0.5
-8 0.5
9 0.57
-9 0.43000000000000005
10 0.6
-10 0.4
11 0.04
-11 0.96
12 0.69
-12 0.31000000000000005
13 0.81
-13 0.18999999999999995
14 0.33
-14 0.6699999999999999
15 0.49
-15 0.51
16 0.86
-16 0.14
17 0.15
-17 0.85
18 0.61
-18 0.39
19 0.74
-19 0.26
20 0.44
-20 0.56
21 0.58
-21 0.42000000000000004
22 0.33
-22 0.6699999999999999
23 0.31
-23 0.69
24 0.12
-24 0.88
25 0.3
-25 0.7
26 0.33
-26 0.6699999999999999
27 0.27
-27 0.73
28 0.93
-28 0.06999999999999995
29 0.04
-29 0.96
30 0.56
-30 0.43999999999999995
31 0.78
-31 0.21999999999999997
32 0.58
-32 0.42000000000000004
33 0.76
-33 0.24
34 0.37
-34 0.63
35 0.31
-35 0.69
36 0.05
-36 0.95
37 0.95
-37 0.050000000000000044
38 0.14
-38 0.86
39 0.11
-39 0.89
40 0.25
-40 0.75
41 0.49
-41 0.51
42 0.79
-42 0.20999999999999996
43 0.82
-43 0.18000000000000005
44 0.73
-44 0.27
45 0.58
-45 0.42000000000000004
46 0.1
-46 0.9
47 0.8
-47 0.19999999999999996
48 0.93
-48 0.06999999999999995
49 0.31
-49 0.69
50 0.36
-50 0.64
51 0.51
-51 0.49
52 0.53
-52 0.47
53 0.87
-53 0.13
54 0.41
-54 0.5900000000000001
55 0.29
-55 0.71
56 0.03
-56 0.97
57 0.68
-57 0.31999999999999995
58 0.81
-58 0.18999999999999995
59 0.03
-59 0.97
60 0.02
-60 0.98
61 0.26
-61 0.74
62 0.29
-62 0.71
63 0.85
-63 0.15000000000000002
64 0.39
-64 0.61
65 0.21
-65 0.79
66 0.93
-66 0.06999999999999995
67 0.4
-67 0.6
68 0.59
-68 0.41000000000000003
69 0.32
-69 0.6799999999999999
70 0.22
-70 0.78
71 0.87
-71 0.13
72 0.55
-72 0.44999999999999996
73 0.81
-73 0.18999999999999995
74 0.06
-74 0.94
75 0.51
-75 0.49
76 0.03
-76 0.97
77 0.24
-77 0.76
78 0.16
-78 0.84
79 0.41
-79 0.5900000000000001
80 0.82
-80 0.18000000000000005
81 0.59
-81 0.41000000000000003
82 0.55
-82 0.44999999999999996
83 0.59
-83 0.41000000000000003
84 0.97
-84 0.030000000000000027
85 0.4
-85 0.6
86 0.37
-86 0.63
87 0.31
-87 0.69
88 0.51
-88 0.49
89 0.9
-89 0.09999999999999998
90 0.48
-90 0.52
91 0.02
-91 0.98
92 0.76
-92 0.24
93 0.71
-93 0.29000000000000004
94 0.7
-94 0.30000000000000004
95 0.76
-95 0.24
96 0.93
-96 0.06999999999999995
97 0.57
-97 0.43000000000000005
98 0.48
-98 0.52
99 0.63
-99 0.37
100 0.4
-100 0.6
