1 0.03
-1 0.97
2 0.32
-2 0.6799999999999999
3 0.52
-3 0.48
4 0.19
-4 0.81
5 0.71
-5 0.29000000000000004
6 0.66
-6 0.33999999999999997
7 0.3
-7 0.7
8 0.47
-8 0.53
9 0.25
-9 0.75
10 0.2
-10 0.8
11 0.5
-11 0.5
12 0.43
-12 0.5700000000000001
13 0.12
-13 0.88
14 0.73
-14 0.27
15 0.32
-15 0.6799999999999999
16 0.66
-16 0.33999999999999997
17 0.88
-17 0.12
18 0.13
-18 0.87
19 0.17
-19 0.83
20 0.82
-20 0.18000000000000005
21 0.57
-21 0.43000000000000005
22 0.49
-22 0.51
23 0.56
-23 0.43999999999999995
24 0.89
-24 0.10999999999999999
25 0.65
-25 0.35
26 0.34
-26 0.6599999999999999
27 0.02
-27 0.98
28 0.31
-28 0.69
29 0.48
-29 0.52
30 0.8
-30 0.19999999999999996
31 0.15
-31 0.85
32 0.73
-32 0.27
33 0.62
-33 0.38
34 0.6
-34 0.4
35 0.74
-35 0.26
36 0.91
-36 0.08999999999999997
37 0.24
-37 0.76
38 0.29
-38 0.71
39 0.28
-39 0.72
40 0.27
-40 0.73
41 0.53
-41 0.47
42 0.47
-42 0.53
43 0.57
-43 0.43000000000000005
44 0.39
-44 0.61
45 0.55
-45 0.44999999999999996
46 0.31
-46 0.69
47 0.86
-47 0.14
48 0.14
-48 0.86
49 0.22
-49 0.78
50 0.27
-50 0.73
51 0.15
-51 0.85
52 0.48
-52 0.52
53 0.35
-53 0.65
54 0.31
-54 0.69
55 0.93
-55 0.06999999999999995
56 0.34
-56 0.6599999999999999
57 0.37
-57 0.63
58 0.58
-58 0.42000000000000004
59 0.78
-59 0.21999999999999997
60 0.61
-60 0.39
61 0.74
-61 0.26
62 0.32
-62 0.6799999999999999
63 0.95
-63 0.050000000000000044
64 0.58
-64 0.42000000000000004
65 0.94
-65 0.06000000000000005
66 0.12
-66 0.88
67 0.43
-67 0.5700000000000001
68 0.26
-68 0.74
69 0.28
-69 0.72
70 0.91
-70 0.08999999999999997
71 0.87
-71 0.13
72 0.41
-72 0.5900000000000001
73 0.05
-73 0.95
74 0.77
-74 0.22999999999999998
75 0.24
-75 0.76
76 0.84
-76 0.16000000000000003
77 0.19
-77 0.81
78 0.27
-78 0.73
79 0.44
-79 0.56
80 0.05
-80 0.95
81 0.83
-81 0.17000000000000004
82 0.31
-82 0.69
83 0.88
-83 0.12
84 0.86
-84 0.14
85 0.38
-85 0.62
86 0.18
-86 0.8200000000000001
87 0.19
-87 0.81
88 0.15
-88 0.85
89 0.99
-89 0.010000000000000009
90 0.03
-90 0.97
91 0.5
-91 0.5
92 0.24
-92 0.76
93 0.38
-93 0.62
94 0.12
-94 0.88
95 0.95
-95 0.050000000000000044
96 0.51
-96 0.49
97 0.2
-97 0.8
98 0.05
-98 0.95
99 0.99
-99 0.010000000000000009
100 0.61
-100 0.39
