1 0.45
-1 0.55
2 0.84
-2 0.16000000000000003
3 0.41
-3 0.5900000000000001
4 0.2
-4 0.8
5 0.74
-5 0.26
6 0.38
-6 0.62
7 0.07
-7 0.9299999999999999
8 0.21
-8 0.79
9 0.57
-9 0.43000000000000005
10 0.95
-10 0.050000000000000044
11 0.66
-11 0.33999999999999997
12 0.67
-12 0.32999999999999996
13 0.31
-13 0.69
14 0.84
-14 0.16000000000000003
15 0.5
-15 0.5
16 0.16
-16 0.84
17 0.91
-17 0.08999999999999997
18 0.47
-18 0.53
19 0.61
-19 0.39
20 0.5
-20 0.5
21 0.3
-21 0.7
22 0.5
-22 0.5
23 0.39
-23 0.61
24 0.53
-24 0.47
25 0.54
-25 0.45999999999999996
26 0.51
-26 0.49
27 0.16
-27 0.84
28 0.73
-28 0.27
29 0.76
-29 0.24
30 0.83
-30 0.17000000000000004
31 0.28
-31 0.72
32 0.09
-32 0.91
33 0.26
-33 0.74
34 0.44
-34 0.56
35 0.21
-35 0.79
36 0.49
-36 0.51
37 0.52
-37 0.48
38 0.59
-38 0.41000000000000003
39 0.01
-39 0.99
40 0.08
-40 0.92
41 0.43
-41 0.5700000000000001
42 0.09
-42 0.91
43 0.46
-43 0.54
44 0.5
-44 0.5
45 0.56
-45 0.43999999999999995
46 0.85
-46 0.15000000000000002
47 0.94
-47 0.06000000000000005
48 0.46
-48 0.54
49 0.78
-49 0.21999999999999997
50 0.63
-50 0.37
51 0.65
-51 0.35
52 0.15
-52 0.85
53 0.17
-53 0.83
54 0.99
-54 0.010000000000000009
55 0.67
-55 0.32999999999999996
56 0.03
-56 0.97
57 0.44
-57 0.56
58 0.6
-58 0.4
59 0.1
-59 0.9
60 0.58
-60 0.42000000000000004
61 0.5
-61 0.5
62 0.58
-62 0.42000000000000004
63 0.67
-63 0.32999999999999996
64 0.21
-64 0.79
65 0.08
-65 0.92
66 0.42
-66 0.5800000000000001
67 0.88
-67 0.12
68 0.29
-68 0.71
69 0.48
-69 0.52
70 0.7
-70 0.30000000000000004
71 0.65
-71 0.35
72 0.16
-72 0.84
73 0.41
-73 0.5900000000000001
74 0.36
-74 0.64
75 0.53
-75 0.47
76 0.09
-76 0.91
77 0.44
-77 0.56
78 0.91
-78 0.08999999999999997
79 0.85
-79 0.15000000000000002
80 0.68
-80 0.31999999999999995
81 0.07
-81 0.9299999999999999
82 0.72
-82 0.28
83 0.73
-83 0.27
84 0.98
-84 0.020000000000000018
85 0.62
-85 0.38
86 0.56
-86 0.43999999999999995
87 0.23
-87 0.77
88 0.88
-88 0.12
89 0.02
-89 0.98
90 0.42
-90 0.5800000000000001
91 0.89
-91 0.10999999999999999
92 0.81
-92 0.18999999999999995
93 0.58
-93 0.42000000000000004
94 0.79
-94 0.20999999999999996
95 0.01
-95 0.99
96 0.59
-96 0.41000000000000003
97 0.59
-97 0.41000000000000003
98 0.75
-98 0.25
99 0.65
-99 0.35
100 0.7
-100 0.30000000000000004
