1 0.52
-1 0.48
2 0.8
-2 0.19999999999999996
3 0.7
-3 0.30000000000000004
4 0.83
-4 0.17000000000000004
5 0.51
-5 0.49
6 0.73
-6 0.27
7 0.32
-7 0.6799999999999999
8 0.64
-8 0.36
9 0.05
-9 0.95
10 0.76
-10 0.24
11 0.7
-11 0.30000000000000004
12 0.16
-12 0.84
13 0.93
-13 0.06999999999999995
14 0.2
-14 0.8
15 0.75
-15 0.25
16 0.94
-16 0.06000000000000005
17 0.79
-17 0.20999999999999996
18 0.17
-18 0.83
19 0.4
-19 0.6
20 0.84
-20 0.16000000000000003
21 0.98
-21 0.020000000000000018
22 0.41
-22 0.5900000000000001
23 0.09
-23 0.91
24 0.87
-24 0.13
25 0.21
-25 0.79
26 0.02
-26 0.98
27 0.19
-27 0.81
28 0.16
-28 0.84
29 0.91
-29 0.08999999999999997
30 0.28
-30 0.72
31 0.65
-31 0.35
32 0.21
-32 0.79
33 0.52
-33 0.48
34 0.5
-34 0.5
35 0.53
-35 0.47
36 0.45
-36 0.55
37 0.37
-37 0.63
38 0.92
-38 0.07999999999999996
39 0.15
-39 0.85
40 0.61
-40 0.39
41 0.42
-41 0.5800000000000001
42 0.01
-42 0.99
43 0.22
-43 0.78
44 0.07
-44 0.9299999999999999
45 0.07
-45 0.9299999999999999
46 0.98
-46 0.020000000000000018
47 0.72
-47 0.28
48 0.24
-48 0.76
49 0.58
-49 0.42000000000000004
50 0.36
-50 0.64
51 0.23
-51 0.77
52 0.65
-52 0.35
53 0.68
-53 0.31999999999999995
54 0.3
-54 0.7
55 0.84
-55 0.16000000000000003
56 0.26
-56 0.74
57 0.93
-57 0.06999999999999995
58 0.32
-58 0.6799999999999999
59 0.52
-59 0.48
60 0.92
-60 0.07999999999999996
61 0.9
-61 0.09999999999999998
62 0.57
-62 0.43000000000000005
63 0.47
-63 0.53
64 0.95
-64 0.050000000000000044
65 0.41
-65 0.5900000000000001
66 0.09
-66 0.91
67 0.7
-67 0.30000000000000004
68 0.44
-68 0.56
69 0.01
-69 0.99
70 0.3
-70 0.7
71 0.64
-71 0.36
72 0.62
-72 0.38
73 0.84
-73 0.16000000000000003
74 0.75
-74 0.25
75 0.63
-75 0.37
76 0.3
-76 0.7
77 0.74
-77 0.26
78 0.69
-78 0.31000000000000005
79 0.62
-79 0.38
80 0.18
-80 0.8200000000000001
81 0.66
-81 0.33999999999999997
82 0.9
-82 0.09999999999999998
83 0.64
-83 0.36
84 0.73
-84 0.27
85 0.67
-85 0.32999999999999996
86 0.27
-86 0.73
87 0.59
-87 0.41000000000000003
88 0.87
-88 0.13
89 0.26
-89 0.74
90 0.38
-90 0.62
91 0.42
-91 0.5800000000000001
92 0.6
-92 0.4
93 0.63
-93 0.37
94 0.72
-94 0.28
95 0.49
-95 0.51
96 0.96
-96 0.040000000000000036
97 0.18
-97 0.8200000000000001
98 0.47
-98 0.53
99 0.53
-99 0.47
100 0.54
-100 0.45999999999999996
