1 0.87
-1 0.13
2 0.22
-2 0.78
3 0.78
-3 0.21999999999999997
4 0.73
-4 0.27
5 0.6
-5 0.4
6 0.51
-6 0.49
7 0.75
-7 0.25
8 0.08
-8 0.92
9 0.19
-9 0.81
10 0.5
-10 0.5
11 0.18
-11 0.8200000000000001
12 0.07
-12 0.9299999999999999
13 0.98
-13 0.020000000000000018
14 0.31
-14 0.69
15 0.62
-15 0.38
16 0.14
-16 0.86
17 0.94
-17 0.06000000000000005
18 0.89
-18 0.10999999999999999
19 0.02
-19 0.98
20 0.17
-20 0.83
21 0.02
-21 0.98
22 0.79
-22 0.20999999999999996
23 0.74
-23 0.26
24 0.77
-24 0.22999999999999998
25 0.06
-25 0.94
26 0.78
-26 0.21999999999999997
27 0.07
-27 0.9299999999999999
28 0.42
-28 0.5800000000000001
29 0.79
-29 0.20999999999999996
30 0.81
-30 0.18999999999999995
31 0.52
-31 0.48
32 0.78
-32 0.21999999999999997
33 0.18
-33 0.8200000000000001
34 0.65
-34 0.35
35 0.62
-35 0.38
36 0.88
-36 0.12
37 0.38
-37 0.62
38 0.32
-38 0.6799999999999999
39 0.9
-39 0.09999999999999998
40 0.29
-40 0.71
41 0.72
-41 0.28
42 0.57
-42 0.43000000000000005
43 0.76
-43 0.24
44 0.22
-44 0.78
45 0.34
-45 0.6599999999999999
46 0.61
-46 0.39
47 0.98
-47 0.020000000000000018
48 0.8
-48 0.19999999999999996
49 0.1
-49 0.9
50 0.51
-50 0.49
51 0.04
-51 0.96
52 0.46
-52 0.54
53 0.74
-53 0.26
54 0.33
-54 0.6699999999999999
55 0.62
-55 0.38
56 0.44
-56 0.56
57 0.89
-57 0.10999999999999999
58 0.68
-58 0.31999999999999995
59 0.97
-59 0.030000000000000027
60 0.93
-60 0.06999999999999995
61 0.79
-61 0.20999999999999996
62 0.93
-62 0.06999999999999995
63 0.75
-63 0.25
64 0.13
-64 0.87
65 0.62
-65 0.38
66 0.66
-66 0.33999999999999997
67 0.01
-67 0.99
68 0.26
-68 0.74
69 0.73
-69 0.27
70 0.66
-70 0.33999999999999997
71 0.65
-71 0.35
72 0.88
-72 0.12
73 0.8
-73 0.19999999999999996
74 0.7
-74 0.30000000000000004
75 0.41
-75 0.5900000000000001
76 0.01
-76 0.99
77 0.64
-77 0.36
78 0.02
-78 0.98
79 0.81
-79 0.18999999999999995
80 0.36
-80 0.64
81 0.24
-81 0.76
82 0.57
-82 0.43000000000000005
83 0.63
-83 0.37
84 0.91
-84 0.08999999999999997
85 0.55
-85 0.44999999999999996
86 0.47
-86 0.53
87 0.41
-87 0.5900000000000001
88 0.93
-88 0.06999999999999995
89 0.5
-89 0.5
90 0.64
-90 0.36
91 0.02
-91 0.98
92 0.43
-92 0.5700000000000001
93 0.94
-93 0.06000000000000005
94 0.54
-94 0.45999999999999996
95 0.5
-95 0.5
96 0.11
-96 0.89
97 0.83
-97 0.17000000000000004
98 0.47
-98 0.53
99 0.94
-99 0.06000000000000005
100 0.86
-100 0.14
