1 0.5
-1 0.5
2 0.43
-2 0.5700000000000001
3 0.58
-3 0.42000000000000004
4 0.49
-4 0.51
5 0.85
-5 0.15000000000000002
6 0.59
-6 0.41000000000000003
7 0.06
-7 0.94
8 0.91
-8 0.08999999999999997
9 0.68
-9 0.31999999999999995
10 0.76
-10 0.24
11 0.94
-11 0.06000000000000005
12 0.6
-12 0.4
13 0.73
-13 0.27
14 0.06
-14 0.94
15 0.47
-15 0.53
16 0.37
-16 0.63
17 0.8
-17 0.19999999999999996
18 0.8
-18 0.19999999999999996
19 0.25
-19 0.75
20 0.17
-20 0.83
21 0.74
-21 0.26
22 0.33
-22 0.6699999999999999
23 0.56
-23 0.43999999999999995
24 0.36
-24 0.64
25 0.95
-25 0.050000000000000044
26 0.15
-26 0.85
27 0.81
-27 0.18999999999999995
28 0.18
-28 0.8200000000000001
29 0.16
-29 0.84
30 0.84
-30 0.16000000000000003
31 0.98
-31 0.020000000000000018
32 0.96
-32 0.040000000000000036
33 0.85
-33 0.15000000000000002
34 0.04
-34 0.96
35 0.08
-35 0.92
36 0.83
-36 0.17000000000000004
37 0.38
-37 0.62
38 0.02
-38 0.98
39 0.81
-39 0.18999999999999995
40 0.16
-40 0.84
41 0.22
-41 0.78
42 0.14
-42 0.86
43 0.12
-43 0.88
44 0.93
-44 0.06999999999999995
45 0.63
-45 0.37
46 0.47
-46 0.53
47 0.57
-47 0.43000000000000005
48 0.19
-48 0.81
49 0.63
-49 0.37
50 0.43
-50 0.5700000000000001
51 0.53
-51 0.47
52 0.79
-52 0.20999999999999996
53 0.92
-53 0.07999999999999996
54 0.13
-54 0.87
55 0.31
-55 0.69
56 0.2
-56 0.8
57 0.18
-57 0.8200000000000001
58 0.53
-58 0.47
59 0.55
-59 0.44999999999999996
60 0.92
-60 0.07999999999999996
61 0.41
-61 0.5900000000000001
62 0.2
-62 0.8
63 0.89
-63 0.10999999999999999
64 0.92
-64 0.07999999999999996
65 0.52
-65 0.48
66 0.11
-66 0.89
67 0.52
-67 0.48
68 0.42
-68 0.5800000000000001
69 0.01
-69 0.99
70 0.02
-70 0.98
71 0.71
-71 0.29000000000000004
72 0.26
-72 0.74
73 0.22
-73 0.78
74 0.64
-74 0.36
75 0.38
-75 0.62
76 0.25
-76 0.75
77 0.44
-77 0.56
78 0.46
-78 0.54
79 0.76
-79 0.24
80 0.56
-80 0.43999999999999995
81 0.14
-81 0.86
82 0.69
-82 0.31000000000000005
83 0.01
-83 0.99
84 0.79
-84 0.20999999999999996
85 0.79
-85 0.20999999999999996
86 0.1
-86 0.9
87 0.63
-87 0.37
88 0.48
-88 0.52
89 0.12
-89 0.88
90 0.31
-90 0.69
91 0.87
-91 0.13
92 0.21
-92 0.79
93 0.85
-93 0.15000000000000002
94 0.14
-94 0.86
95 0.15
-95 0.85
96 0.38
-96 0.62
97 0.89
-97 0.10999999999999999
98 0.75
-98 0.25
99 0.35
-99 0.65
100 0.91
-100 0.08999999999999997
