1 0.87
-1 0.13
2 0.05
-2 0.95
3 0.99
-3 0.010000000000000009
4 0.6
-4 0.4
5 0.52
-5 0.48
6 0.12
-6 0.88
7 0.88
-7 0.12
8 0.72
-8 0.28
9 0.04
-9 0.96
10 0.17
-10 0.83
11 0.47
-11 0.53
12 0.72
-12 0.28
13 0.16
-13 0.84
14 0.94
-14 0.06000000000000005
15 0.99
-15 0.010000000000000009
16 0.37
-16 0.63
17 0.66
-17 0.33999999999999997
18 0.91
-18 0.08999999999999997
19 0.82
-19 0.18000000000000005
20 0.55
-20 0.44999999999999996
21 0.14
-21 0.86
22 0.41
-22 0.5900000000000001
23 0.38
-23 0.62
24 0.53
-24 0.47
25 0.21
-25 0.79
26 0.1
-26 0.9
27 0.55
-27 0.44999999999999996
28 0.69
-28 0.31000000000000005
29 0.57
-29 0.43000000000000005
30 0.45
-30 0.55
31 0.7
-31 0.30000000000000004
32 0.06
-32 0.94
33 0.8
-33 0.19999999999999996
34 0.51
-34 0.49
35 0.78
-35 0.21999999999999997
36 0.24
-36 0.76
37 0.77
-37 0.22999999999999998
38 0.44
-38 0.56
39 0.99
-39 0.010000000000000009
40 0.6
-40 0.4
41 0.62
-41 0.38
42 0.98
-42 0.020000000000000018
43 0.31
-43 0.69
44 0.82
-44 0.18000000000000005
45 0.39
-45 0.61
46 0.73
-46 0.27
47 0.37
-47 0.63
48 0.64
-48 0.36
49 0.74
-49 0.26
50 0.1
-50 0.9
51 0.08
-51 0.92
52 0.86
-52 0.14
53 0.94
-53 0.06000000000000005
54 0.62
-54 0.38
55 0.22
-55 0.78
56 0.52
-56 0.48
57 0.24
-57 0.76
58 0.63
-58 0.37
59 0.41
-59 0.5900000000000001
60 0.19
-60 0.81
61 0.23
-61 0.77
62 0.86
-62 0.14
63 0.94
-63 0.06000000000000005
64 0.16
-64 0.84
65 0.57
-65 0.43000000000000005
66 0.78
-66 0.21999999999999997
67 0.66
-67 0.33999999999999997
68 0.67
-68 0.32999999999999996
69 0.55
-69 0.44999999999999996
70 0.4
-70 0.6
71 0.81
-71 0.18999999999999995
72 0.71
-72 0.29000000000000004
73 0.72
-73 0.28
74 0.65
-74 0.35
75 0.35
-75 0.65
76 0.83
-76 0.17000000000000004
77 0.68
-77 0.31999999999999995
78 0.28
-78 0.72
79 0.64
-79 0.36
80 0.01
-80 0.99
81 0.9
-81 0.09999999999999998
82 0.42
-82 0.5800000000000001
83 0.15
-83 0.85
84 0.2
-84 0.8
85 0.32
-85 0.6799999999999999
86 0.25
-86 0.75
87 0.76
-87 0.24
88 0.73
-88 0.27
89 0.21
-89 0.79
90 0.09
-90 0.91
91 0.34
-91 0.6599999999999999
92 0.62
-92 0.38
93 0.91
-93 0.08999999999999997
94 0.58
-94 0.42000000000000004
95 0.54
-95 0.45999999999999996
96 0.91
-96 0.08999999999999997
97 0.23
-97 0.77
98 0.28
-98 0.72
99 0.75
-99 0.25
100 0.86
-100 0.14
