1 0.28
-1 0.72
2 0.38
-2 0.62
3 0.19
-3 0.81
4 0.59
-4 0.41000000000000003
5 0.71
-5 0.29000000000000004
6 0.26
-6 0.74
7 0.74
-7 0.26
8 0.6
-8 0.4
9 0.62
-9 0.38
10 0.26
-10 0.74
11 0.45
-11 0.55
12 0.25
-12 0.75
13 0.38
-13 0.62
14 0.38
-14 0.62
15 0.24
-15 0.76
16 0.5
-16 0.5
17 0.04
-17 0.96
18 0.53
-18 0.47
19 0.38
-19 0.62
20 0.55
-20 0.44999999999999996
21 0.29
-21 0.71
22 0.98
-22 0.020000000000000018
23 0.12
-23 0.88
24 0.19
-24 0.81
25 0.14
-25 0.86
26 0.45
-26 0.55
27 0.29
-27 0.71
28 0.17
-28 0.83
29 0.06
-29 0.94
30 0.32
-30 0.6799999999999999
31 0.44
-31 0.56
32 0.11
-32 0.89
33 0.05
-33 0.95
34 0.7
-34 0.30000000000000004
35 0.68
-35 0.31999999999999995
36 0.57
-36 0.43000000000000005
37 0.1
-37 0.9
38 0.6
-38 0.4
39 0.78
-39 0.21999999999999997
40 0.66
-40 0.33999999999999997
41 0.23
-41 0.77
42 0.2
-42 0.8
43 0.75
-43 0.25
44 0.77
-44 0.22999999999999998
45 0.54
-45 0.45999999999999996
46 0.62
-46 0.38
47 0.76
-47 0.24
48 0.03
-48 0.97
49 0.67
-49 0.32999999999999996
50 0.22
-50 0.78
51 0.28
-51 0.72
52 0.94
-52 0.06000000000000005
53 0.65
-53 0.35
54 0.62
-54 0.38
55 0.46
-55 0.54
56 0.66
-56 0.33999999999999997
57 0.41
-57 0.5900000000000001
58 0.9
-58 0.09999999999999998
59 0.5
-59 0.5
60 0.41
-60 0.5900000000000001
61 0.21
-61 0.79
62 0.67
-62 0.32999999999999996
63 0.43
-63 0.5700000000000001
64 0.35
-64 0.65
65 0.84
-65 0.16000000000000003
66 0.53
-66 0.47
67 0.79
-67 0.20999999999999996
68 0.15
-68 0.85
69 0.44
-69 0.56
70 0.79
-70 0.20999999999999996
71 0.22
-71 0.78
72 0.27
-72 0.73
73 0.52
-73 0.48
74 0.03
-74 0.97
75 0.77
-75 0.22999999999999998
76 0.5
-76 0.5
77 0.06
-77 0.94
78 0.35
-78 0.65
79 0.34
-79 0.6599999999999999
80 0.5
-80 0.5
81 0.4
-81 0.6
82 0.87
-82 0.13
83 0.22
-83 0.78
84 0.33
-84 0.6699999999999999
85 0.49
-85 0.51
86 0.55
-86 0.44999999999999996
87 0.79
-87 0.20999999999999996
88 0.29
-88 0.71
89 0.16
-89 0.84
90 0.42
-90 0.5800000000000001
91 0.17
-91 0.83
92 0.47
-92 0.53
93 0.01
-93 0.99
94 0.25
-94 0.75
95 0.78
-95 0.21999999999999997
96 0.86
-96 0.14
97 0.11
-97 0.89
98 0.89
-98 0.10999999999999999
99 0.92
-99 0.07999999999999996
100 0.23
-100 0.77
