1 0.84
-1 0.16000000000000003
2 0.33
-2 0.6699999999999999
3 0.55
-3 0.44999999999999996
4 0.33
-4 0.6699999999999999
5 0.24
-5 0.76
6 0.89
-6 0.10999999999999999
7 0.13
-7 0.87
8 0.29
-8 0.71
9 0.84
-9 0.16000000000000003
10 0.29
-10 0.71
11 0.7
-11 0.30000000000000004
12 0.08
-12 0.92
13 0.48
-13 0.52
14 0.75
-14 0.25
15 0.52
-15 0.48
16 0.5
-16 0.5
17 0.03
-17 0.97
18 0.35
-18 0.65
19 0.2
-19 0.8
20 0.47
-20 0.53
21 0.99
-21 0.010000000000000009
22 0.49
-22 0.51
23 0.14
-23 0.86
24 0.87
-24 0.13
25 0.7
-25 0.30000000000000004
26 0.44
-26 0.56
27 0.08
-27 0.92
28 0.4
-28 0.6
29 0.47
-29 0.53
30 0.34
-30 0.6599999999999999
31 0.08
-31 0.92
32 0.51
-32 0.49
33 0.88
-33 0.12
34 0.03
-34 0.97
35 0.52
-35 0.48
36 0.55
-36 0.44999999999999996
37 0.01
-37 0.99
38 0.73
-38 0.27
39 0.57
-39 0.43000000000000005
40 0.63
-40 0.37
41 0.05
-41 0.95
42 0.17
-42 0.83
43 0.54
-43 0.45999999999999996
44 0.26
-44 0.74
45 0.02
-45 0.98
46 0.56
-46 0.43999999999999995
47 0.6
-47 0.4
48 0.8
-48 0.19999999999999996
49 0.33
-49 0.6699999999999999
50 0.15
-50 0.85
51 0.2
-51 0.8
52 0.19
-52 0.81
53 0.67
-53 0.32999999999999996
54 0.14
-54 0.86
55 0.33
-55 0.6699999999999999
56 0.03
-56 0.97
57 0.36
-57 0.64
58 0.45
-58 0.55
59 0.69
-59 0.31000000000000005
60 0.14
-60 0.86
61 0.15
-61 0.85
62 0.48
-62 0.52
63 0.38
-63 0.62
64 0.64
-64 0.36
65 0.67
-65 0.32999999999999996
66 0.13
-66 0.87
67 0.2
-67 0.8
68 0.95
-68 0.050000000000000044
69 0.1
-69 0.9
70 0.26
-70 0.74
71 0.3
-71 0.7
72 0.18
-72 0.8200000000000001
73 0.16
-73 0.84
74 0.08
-74 0.92
75 0.05
-75 0.95
76 0.6
-76 0.4
77 0.23
-77 0.77
78 0.45
-78 0.55
79 0.57
-79 0.43000000000000005
80 0.21
-80 0.79
81 0.78
-81 0.21999999999999997
82 0.01
-82 0.99
83 0.01
-83 0.99
84 0.42
-84 0.5800000000000001
85 0.42
-85 0.5800000000000001
86 0.41
-86 0.5900000000000001
87 0.62
-87 0.38
88 0.1
-88 0.9
89 0.66
-89 0.33999999999999997
90 0.5
-90 0.5
91 0.98
-91 0.020000000000000018
92 0.52
-92 0.48
93 0.95
-93 0.050000000000000044
94 0.15
-94 0.85
95 0.79
-95 0.20999999999999996
96 0.92
-96 0.07999999999999996
97 0.24
-97 0.76
98 0.07
-98 0.9299999999999999
99 0.32
-99 0.6799999999999999
100 0.39
-100 0.61
