1 0.81
-1 0.18999999999999995
2 0.47
-2 0.53
3 0.71
-3 0.29000000000000004
4 0.03
-4 0.97
5 0.64
-5 0.36
6 0.02
-6 0.98
7 0.8
-7 0.19999999999999996
8 0.2
-8 0.8
9 0.09
-9 0.91
10 0.12
-10 0.88
11 0.54
-11 0.45999999999999996
12 0.89
-12 0.10999999999999999
13 0.52
-13 0.48
14 0.19
-14 0.81
15 0.22
-15 0.78
16 0.02
-16 0.98
17 0.87
-17 0.13
18 0.69
-18 0.31000000000000005
19 0.96
-19 0.040000000000000036
20 0.43
-20 0.5700000000000001
21 0.64
-21 0.36
22 0.89
-22 0.10999999999999999
23 0.73
-23 0.27
24 0.25
-24 0.75
25 0.21
-25 0.79
26 0.79
-26 0.20999999999999996
27 0.5
-27 0.5
28 0.14
-28 0.86
29 0.25
-29 0.75
30 0.31
-30 0.69
31 0.6
-31 0.4
32 0.46
-32 0.54
33 0.4
-33 0.6
34 0.95
-34 0.050000000000000044
35 0.7
-35 0.30000000000000004
36 0.6
-36 0.4
37 0.19
-37 0.81
38 0.31
-38 0.69
39 0.47
-39 0.53
40 0.97
-40 0.030000000000000027
41 0.29
-41 0.71
42 0.46
-42 0.54
43 0.07
-43 0.9299999999999999
44 0.51
-44 0.49
45 0.23
-45 0.77
46 0.18
-46 0.8200000000000001
47 0.24
-47 0.76
48 0.31
-48 0.69
49 0.85
-49 0.15000000000000002
50 0.88
-50 0.12
51 0.61
-51 0.39
52 0.33
-52 0.6699999999999999
53 0.68
-53 0.31999999999999995
54 0.44
-54 0.56
55 0.32
-55 0.6799999999999999
56 0.1
-56 0.9
57 0.06
-57 0.94
58 0.88
-58 0.12
59 0.93
-59 0.06999999999999995
60 0.98
-60 0.020000000000000018
61 0.66
-61 0.33999999999999997
62 0.63
-62 0.37
63 0.57
-63 0.43000000000000005
64 0.9
-64 0.09999999999999998
65 0.03
-65 0.97
66 0.41
-66 0.5900000000000001
67 0.75
-67 0.25
68 0.1
-68 0.9
69 0.86
-69 0.14
70 0.52
-70 0.48
71 0.67
-71 0.32999999999999996
72 0.55
-72 0.44999999999999996
73 0.28
-73 0.72
74 0.01
-74 0.99
75 0.79
-75 0.20999999999999996
76 0.67
-76 0.32999999999999996
77 0.9
-77 0.09999999999999998
78 0.55
-78 0.44999999999999996
79 0.2
-79 0.8
80 0.97
-80 0.030000000000000027
81 0.22
-81 0.78
82 0.63
-82 0.37
83 0.19
-83 0.81
84 0.77
-84 0.22999999999999998
85 0.6
-85 0.4
86 0.32
-86 0.6799999999999999
87 0.3
-87 0.7
88 0.05
-88 0.95
89 0.15
-89 0.85
90 0.54
-90 0.45999999999999996
91 0.05
-91 0.95
92 0.5
-92 0.5
93 0.71
-93 0.29000000000000004
94 0.16
-94 0.84
95 0.23
-95 0.77
96 0.31
-96 0.69
97 0.95
-97 0.050000000000000044
98 0.83
-98 0.17000000000000004
99 0.49
-99 0.51
100 0.56
-100 0.43999999999999995
