1 0.24
-1 0.76
2 0.68
-2 0.31999999999999995
3 0.32
-3 0.6799999999999999
4 0.13
-4 0.87
5 0.12
-5 0.88
6 0.48
-6 0.52
7 0.98
-7 0.020000000000000018
8 0.07
-8 0.9299999999999999
9 0.95
-9 0.050000000000000044
10 0.71
-10 0.29000000000000004
11 0.29
-11 0.71
12 0.54
-12 0.45999999999999996
13 0.75
-13 0.25
14 0.88
-14 0.12
15 0.9
-15 0.09999999999999998
16 0.19
-16 0.81
17 0.84
-17 0.16000000000000003
18 0.56
-18 0.43999999999999995
19 0.2
-19 0.8
20 0.37
-20 0.63
21 0.76
-21 0.24
22 0.59
-22 0.41000000000000003
23 0.07
-23 0.9299999999999999
24 0.2
-24 0.8
25 0.78
-25 0.21999999999999997
26 0.41
-26 0.5900000000000001
27 0.44
-27 0.56
28 0.87
-28 0.13
29 0.73
-29 0.27
30 0.87
-30 0.13
31 0.91
-31 0.08999999999999997
32 0.59
-32 0.41000000000000003
33 0.71
-33 0.29000000000000004
34 0.11
-34 0.89
35 0.94
-35 0.06000000000000005
36 0.05
-36 0.95
37 0.82
-37 0.18000000000000005
38 0.32
-38 0.6799999999999999
39 0.11
-39 0.89
40 0.02
-40 0.98
41 0.59
-41 0.41000000000000003
42 0.74
-42 0.26
43 0.57
-43 0.43000000000000005
44 0.02
-44 0.98
45 0.42
-45 0.5800000000000001
46 0.9
-46 0.09999999999999998
47 0.63
-47 0.37
48 0.49
-48 0.51
49 0.73
-49 0.27
50 0.09
-50 0.91
51 0.18
-51 0.8200000000000001
52 0.75
-52 0.25
53 0.47
-53 0.53
54 0.17
-54 0.83
55 0.68
-55 0.31999999999999995
56 0.32
-56 0.6799999999999999
57 0.35
-57 0.65
58 0.22
-58 0.78
59 0.3
-59 0.7
60 0.41
-60 0.5900000000000001
61 0.33
-61 0.6699999999999999
62 0.59
-62 0.41000000000000003
63 0.95
-63 0.050000000000000044
64 0.38
-64 0.62
65 0.85
-65 0.15000000000000002
66 0.08
-66 0.92
67 0.9
-67 0.09999999999999998
68 0.79
-68 0.20999999999999996
69 0.66
-69 0.33999999999999997
70 0.87
-70 0.13
71 0.34
-71 0.6599999999999999
72 0.28
-72 0.72
73 0.27
-73 0.73
74 0.41
-74 0.5900000000000001
75 0.64
-75 0.36
76 0.09
-76 0.91
77 0.51
-77 0.49
78 0.62
-78 0.38
79 0.72
-79 0.28
80 0.89
-80 0.10999999999999999
81 0.41
-81 0.5900000000000001
82 0.42
-82 0.5800000000000001
83 0.65
-83 0.35
84 0.63
-84 0.37
85 0.51
-85 0.49
86 0.89
-86 0.10999999999999999
87 0.38
-87 0.62
88 0.17
-88 0.83
89 0.11
-89 0.89
90 0.02
-90 0.98
91 0.17
-91 0.83
92 0.91
-92 0.08999999999999997
93 0.81
-93 0.18999999999999995
94 0.91
-94 0.08999999999999997
95 0.48
-95 0.52
96 0.26
-96 0.74
97 0.78
-97 0.21999999999999997
98 0.06
-98 0.94
99 0.74
-99 0.26
100 0.04
-100 0.96
