1 0.8
-1 0.19999999999999996
2 0.93
-2 0.06999999999999995
3 0.02
-3 0.98
4 0.37
-4 0.63
5 0.67
-5 0.32999999999999996
6 0.34
-6 0.6599999999999999
7 0.63
-7 0.37
8 0.65
-8 0.35
9 0.11
-9 0.89
10 0.86
-10 0.14
11 0.13
-11 0.87
12 0.79
-12 0.20999999999999996
13 0.99
-13 0.010000000000000009
14 0.64
-14 0.36
15 0.23
-15 0.77
16 0.47
-16 0.53
17 0.9
-17 0.09999999999999998
18 0.43
-18 0.5700000000000001
19 0.33
-19 0.6699999999999999
20 0.07
-20 0.9299999999999999
21 0.56
-21 0.43999999999999995
22 0.19
-22 0.81
23 0.55
-23 0.44999999999999996
24 0.49
-24 0.51
25 0.87
-25 0.13
26 0.07
-26 0.9299999999999999
27 0.32
-27 0.6799999999999999
28 0.31
-28 0.69
29 0.09
-29 0.91
30 0.64
-30 0.36
31 0.88
-31 0.12
32 0.41
-32 0.5900000000000001
33 0.2
-33 0.8
34 0.9
-34 0.09999999999999998
35 0.76
-35 0.24
36 0.02
-36 0.98
37 0.85
-37 0.15000000000000002
38 0.93
-38 0.06999999999999995
39 0.08
-39 0.92
40 0.34
-40 0.6599999999999999
41 0.15
-41 0.85
42 0.17
-42 0.83
43 0.24
-43 0.76
44 0.22
-44 0.78
45 0.85
-45 0.15000000000000002
46 0.56
-46 0.43999999999999995
47 0.91
-47 0.08999999999999997
48 0.21
-48 0.79
49 0.87
-49 0.13
50 0.63
-50 0.37
51 0.2
-51 0.8
52 0.21
-52 0.79
53 0.52
-53 0.48
54 0.48
-54 0.52
55 0.81
-55 0.18999999999999995
56 0.61
-56 0.39
57 0.02
-57 0.98
58 0.22
-58 0.78
59 0.16
-59 0.84
60 0.03
-60 0.97
61 0.3
-61 0.7
62 0.38
-62 0.62
63 0.82
-63 0.18000000000000005
64 0.82
-64 0.18000000000000005
65 0.69
-65 0.31000000000000005
66 0.44
-66 0.56
67 0.21
-67 0.79
68 0.49
-68 0.51
69 0.63
-69 0.37
70 0.38
-70 0.62
71 0.75
-71 0.25
72 0.07
-72 0.9299999999999999
73 0.04
-73 0.96
74 0.59
-74 0.41000000000000003
75 0.91
-75 0.08999999999999997
76 0.07
-76 0.9299999999999999
77 0.01
-77 0.99
78 0.73
-78 0.27
79 0.54
-79 0.45999999999999996
80 0.38
-80 0.62
81 0.52
-81 0.48
82 0.66
-82 0.33999999999999997
83 0.22
-83 0.78
84 0.86
-84 0.14
85 0.51
-85 0.49
86 0.27
-86 0.73
87 0.52
-87 0.48
88 0.3
-88 0.7
89 0.43
-89 0.5700000000000001
90 0.25
-90 0.75
91 0.8
-91 0.19999999999999996
92 0.6
-92 0.4
93 0.8
-93 0.19999999999999996
94 0.87
-94 0.13
95 0.37
-95 0.63
96 0.66
-96 0.33999999999999997
97 0.55
-97 0.44999999999999996
98 0.61
-98 0.39
99 0.2
-99 0.8
100 0.64
-100 0.36
