1 0.3
-1 0.7
2 0.95
-2 0.050000000000000044
3 0.77
-3 0.22999999999999998
4 0.7
-4 0.30000000000000004
5 0.44
-5 0.56
6 0.92
-6 0.07999999999999996
7 0.14
-7 0.86
8 0.98
-8 0.020000000000000018
9 0.67
-9 0.32999999999999996
10 0.38
-10 0.62
11 0.66
-11 0.33999999999999997
12 0.21
-12 0.79
13 0.93
-13 0.06999999999999995
14 0.01
-14 0.99
15 0.12
-15 0.88
16 0.28
-16 0.72
17 0.79
-17 0.20999999999999996
18 0.06
-18 0.94
19 0.99
-19 0.010000000000000009
20 0.16
-20 0.84
21 0.47
-21 0.53
22 0.74
-22 0.26
23 0.54
-23 0.45999999999999996
24 0.6
-24 0.4
25 0.79
-25 0.20999999999999996
26 0.29
-26 0.71
27 0.92
-27 0.07999999999999996
28 0.1
-28 0.9
29 0.41
-29 0.5900000000000001
30 0.82
-30 0.18000000000000005
31 0.59
-31 0.41000000000000003
32 0.91
-32 0.08999999999999997
33 0.89
-33 0.10999999999999999
34 0.45
-34 0.55
35 0.01
-35 0.99
36 0.88
-36 0.12
37 0.92
-37 0.07999999999999996
38 0.15
-38 0.85
39 0.29
-39 0.71
40 0.48
-40 0.52
41 0.27
-41 0.73
42 0.83
-42 0.17000000000000004
43 0.8
-43 0.19999999999999996
44 0.49
-44 0.51
45 0.9
-45 0.09999999999999998
46 0.36
-46 0.64
47 0.48
-47 0.52
48 0.52
-48 0.48
49 0.67
-49 0.32999999999999996
50 0.99
-50 0.010000000000000009
51 0.74
-51 0.26
52 0.75
-52 0.25
53 0.13
-53 0.87
54 0.1
-54 0.9
55 0.39
-55 0.61
56 0.02
-56 0.98
57 0.93
-57 0.06999999999999995
58 0.11
-58 0.89
59 0.02
-59 0.98
60 0.2
-60 0.8
61 0.8
-61 0.19999999999999996
62 0.46
-62 0.54
63 0.34
-63 0.6599999999999999
64 0.94
-64 0.06000000000000005
65 0.04
-65 0.96
66 0.5
-66 0.5
67 0.1
-67 0.9
68 0.42
-68 0.5800000000000001
69 0.21
-69 0.79
70 0.7
-70 0.30000000000000004
71 0.74
-71 0.26
72 0.5
-72 0.5
73 0.91
-73 0.08999999999999997
74 0.74
-74 0.26
75 0.36
-75 0.64
76 0.32
-76 0.6799999999999999
77 0.09
-77 0.91
78 0.22
-78 0.78
79 0.53
-79 0.47
80 0.63
-80 0.37
81 0.36
-81 0.64
82 0.56
-82 0.43999999999999995
83 0.21
-83 0.79
84 0.63
-84 0.37
85 0.17
-85 0.83
86 0.52
-86 0.48
87 0.41
-87 0.5900000000000001
88 0.75
-88 0.25
89 0.66
-89 0.33999999999999997
90 0.93
-90 0.06999999999999995
91 0.13
-91 0.87
92 0.42
-92 0.5800000000000001
93 0.32
-93 0.6799999999999999
94 0.74
-94 0.26
95 0.11
-95 0.89
96 0.08
-96 0.92
97 0.56
-97 0.43999999999999995
98 0.69
-98 0.31000000000000005
99 0.78
-99 0.21999999999999997
100 0.38
-100 0.62
