1 0.52
-1 0.48
2 0.19
-2 0.81
3 0.35
-3 0.65
4 0.67
-4 0.32999999999999996
5 0.04
-5 0.96
6 0.77
-6 0.22999999999999998
7 0.71
-7 0.29000000000000004
8 0.22
-8 0.78
9 0.51
-9 0.49
10 0.22
-10 0.78
11 0.06
-11 0.94
12 0.46
-12 0.54
13 0.31
-13 0.69
14 0.89
-14 0.10999999999999999
15 0.15
-15 0.85
16 0.89
-16 0.10999999999999999
17 0.49
-17 0.51
18 0.5
-18 0.5
19 0.25
-19 0.75
20 0.17
-20 0.83
21 0.8
-21 0.19999999999999996
22 0.55
-22 0.44999999999999996
23 0.41
-23 0.5900000000000001
24 0.19
-24 0.81
25 0.53
-25 0.47
26 0.52
-26 0.48
27 0.59
-27 0.41000000000000003
28 0.55
-28 0.44999999999999996
29 0.32
-29 0.6799999999999999
30 0.9
-30 0.09999999999999998
31 0.15
-31 0.85
32 0.03
-32 0.97
33 0.23
-33 0.77
34 0.68
-34 0.31999999999999995
35 0.22
-35 0.78
36 0.8
-36 0.19999999999999996
37 0.41
-37 0.5900000000000001
38 0.98
-38 0.020000000000000018
39 0.83
-39 0.17000000000000004
40 0.6
-40 0.4
41 0.25
-41 0.75
42 0.49
-42 0.51
43 0.89
-43 0.10999999999999999
44 0.44
-44 0.56
45 0.67
-45 0.32999999999999996
46 0.11
-46 0.89
47 0.66
-47 0.33999999999999997
48 0.99
-48 0.010000000000000009
49 0.35
-49 0.65
50 0.2
-50 0.8
51 0.99
-51 0.010000000000000009
52 0.3
-52 0.7
53 0.48
-53 0.52
54 0.99
-54 0.010000000000000009
55 0.58
-55 0.42000000000000004
56 0.55
-56 0.44999999999999996
57 0.54
-57 0.45999999999999996
58 0.36
-58 0.64
59 0.7
-59 0.30000000000000004
60 0.17
-60 0.83
61 0.36
-61 0.64
62 0.73
-62 0.27
63 0.98
-63 0.020000000000000018
64 0.98
-64 0.020000000000000018
65 0.19
-65 0.81
66 0.58
-66 0.42000000000000004
67 0.09
-67 0.91
68 0.23
-68 0.77
69 0.02
-69 0.98
70 0.32
-70 0.6799999999999999
71 0.56
-71 0.43999999999999995
72 0.24
-72 0.76
73 0.13
-73 0.87
74 0.04
-74 0.96
75 0.02
-75 0.98
76 0.55
-76 0.44999999999999996
77 0.06
-77 0.94
78 0.61
-78 0.39
79 0.78
-79 0.21999999999999997
80 0.83
-80 0.17000000000000004
81 0.55
-81 0.44999999999999996
82 0.64
-82 0.36
83 0.92
-83 0.07999999999999996
84 0.22
-84 0.78
85 0.42
-85 0.5800000000000001
86 0.6
-86 0.4
87 0.53
-87 0.47
88 0.61
-88 0.39
89 0.46
-89 0.54
90 0.48
-90 0.52
91 0.61
-91 0.39
92 0.99
-92 0.010000000000000009
93 0.24
-93 0.76
94 0.87
-94 0.13
95 0.25
-95 0.75
96 0.73
-96 0.27
97 0.16
-97 0.84
98 0.05
-98 0.95
99 0.28
-99 0.72
100 0.46
-100 0.54
