1 0.42
-1 0.5800000000000001
2 0.38
-2 0.62
3 0.22
-3 0.78
4 0.1
-4 0.9
5 0.28
-5 0.72
6 0.33
-6 0.6699999999999999
7 0.32
-7 0.6799999999999999
8 0.59
-8 0.41000000000000003
9 0.44
-9 0.56
10 0.34
-10 0.6599999999999999
11 0.08
-11 0.92
12 0.22
-12 0.78
13 0.57
-13 0.43000000000000005
14 0.33
-14 0.6699999999999999
15 0.57
-15 0.43000000000000005
16 0.93
-16 0.06999999999999995
17 0.78
-17 0.21999999999999997
18 0.76
-18 0.24
19 0.87
-19 0.13
20 0.24
-20 0.76
21 0.83
-21 0.17000000000000004
22 0.28
-22 0.72
23 0.69
-23 0.31000000000000005
24 0.7
-24 0.30000000000000004
25 0.98
-25 0.020000000000000018
26 0.27
-26 0.73
27 0.54
-27 0.45999999999999996
28 0.92
-28 0.07999999999999996
29 0.46
-29 0.54
30 0.64
-30 0.36
31 0.88
-31 0.12
32 0.8
-32 0.19999999999999996
33 0.24
-33 0.76
34 0.3
-34 0.7
35 0.9
-35 0.09999999999999998
36 0.94
-36 0.06000000000000005
37 0.61
-37 0.39
38 0.77
-38 0.22999999999999998
39 0.2
-39 0.8
40 0.43
-40 0.5700000000000001
41 0.9
-41 0.09999999999999998
42 0.29
-42 0.71
43 0.67
-43 0.32999999999999996
44 0.45
-44 0.55
45 0.63
-45 0.37
46 0.33
-46 0.6699999999999999
47 0.56
-47 0.43999999999999995
48 0.79
-48 0.20999999999999996
49 0.25
-49 0.75
50 0.4
-50 0.6
51 0.61
-51 0.39
52 0.38
-52 0.62
53 0.34
-53 0.6599999999999999
54 0.91
-54 0.08999999999999997
55 0.89
-55 0.10999999999999999
56 0.93
-56 0.06999999999999995
57 0.3
-57 0.7
58 0.36
-58 0.64
59 0.98
-59 0.020000000000000018
60 0.79
-60 0.20999999999999996
61 0.09
-61 0.91
62 0.89
-62 0.10999999999999999
63 0.92
-63 0.07999999999999996
64 0.84
-64 0.16000000000000003
65 0.5
-65 0.5
66 0.28
-66 0.72
67 0.71
-67 0.29000000000000004
68 0.76
-68 0.24
69 0.57
-69 0.43000000000000005
70 0.74
-70 0.26
71 0.62
-71 0.38
72 0.3
-72 0.7
73 0.96
-73 0.040000000000000036
74 0.25
-74 0.75
75 0.38
-75 0.62
76 0.41
-76 0.5900000000000001
77 0.73
-77 0.27
78 0.87
-78 0.13
79 0.36
-79 0.64
80 0.11
-80 0.89
81 0.76
-81 0.24
82 0.02
-82 0.98
83 0.56
-83 0.43999999999999995
84 0.93
-84 0.06999999999999995
85 0.92
-85 0.07999999999999996
86 0.68
-86 0.31999999999999995
87 0.92
-87 0.07999999999999996
88 0.01
-88 0.99
89 0.36
-89 0.64
90 0.82
-90 0.18000000000000005
91 0.09
-91 0.91
92 0.35
-92 0.65
93 0.6
-93 0.4
94 0.79
-94 0.20999999999999996
95 0.84
-95 0.16000000000000003
96 0.26
-96 0.74
97 0.49
-97 0.51
98 0.31
-98 0.69
99 0.72
-99 0.28
100 0.17
-100 0.83
