1 0.12
-1 0.88
2 0.64
-2 0.36
3 0.24
-3 0.76
4 0.72
-4 0.28
5 0.68
-5 0.31999999999999995
6 0.82
-6 0.18000000000000005
7 0.36
-7 0.64
8 0.25
-8 0.75
9 0.88
-9 0.12
10 0.12
-10 0.88
11 0.42
-11 0.5800000000000001
12 0.5
-12 0.5
13 0.74
-13 0.26
14 0.18
-14 0.8200000000000001
15 0.3
-15 0.7
16 0.87
-16 0.13
17 0.46
-17 0.54
18 0.65
-18 0.35
19 0.21
-19 0.79
20 0.84
-20 0.16000000000000003
21 0.73
-21 0.27
22 0.74
-22 0.26
23 0.66
-23 0.33999999999999997
24 0.28
-24 0.72
25 0.19
-25 0.81
26 0.93
-26 0.06999999999999995
27 0.77
-27 0.22999999999999998
28 0.73
-28 0.27
29 0.09
-29 0.91
30 0.55
-30 0.44999999999999996
31 0.82
-31 0.18000000000000005
32 0.71
-32 0.29000000000000004
33 0.43
-33 0.5700000000000001
34 0.97
-34 0.030000000000000027
35 0.66
-35 0.33999999999999997
36 0.19
-36 0.81
37 0.72
-37 0.28
38 0.24
-38 0.76
39 0.57
-39 0.43000000000000005
40 0.48
-40 0.52
41 0.73
-41 0.27
42 0.24
-42 0.76
43 0.53
-43 0.47
44 0.23
-44 0.77
45 0.13
-45 0.87
46 0.34
-46 0.6599999999999999
47 0.15
-47 0.85
48 0.31
-48 0.69
49 0.78
-49 0.21999999999999997
50 0.44
-50 0.56
51 0.91
-51 0.08999999999999997
52 0.45
-52 0.55
53 0.62
-53 0.38
54 0.46
-54 0.54
55 0.69
-55 0.31000000000000005
56 0.88
-56 0.12
57 0.92
-57 0.07999999999999996
58 0.82
-58 0.18000000000000005
59 0.13
-59 0.87
60 0.03
-60 0.97
61 0.12
-61 0.88
62 0.99
-62 0.010000000000000009
63 0.52
-63 0.48
64 0.85
-64 0.15000000000000002
65 0.97
-65 0.030000000000000027
66 0.48
-66 0.52
67 0.26
-67 0.74
68 0.33
-68 0.6699999999999999
69 0.04
-69 0.96
70 0.8
-70 0.19999999999999996
71 0.52
-71 0.48
72 0.63
-72 0.37
73 0.79
-73 0.20999999999999996
74 0.1
-74 0.9
75 0.49
-75 0.51
76 0.94
-76 0.06000000000000005
77 0.41
-77 0.5900000000000001
78 0.08
-78 0.92
79 0.68
-79 0.31999999999999995
80 0.25
-80 0.75
81 0.36
-81 0.64
82 0.29
-82 0.71
83 0.18
-83 0.8200000000000001
84 0.26
-84 0.74
85 0.21
-85 0.79
86 0.61
-86 0.39
87 0.04
-87 0.96
88 0.59
-88 0.41000000000000003
89 0.31
-89 0.69
90 0.63
-90 0.37
91 0.34
-91 0.6599999999999999
92 0.22
-92 0.78
93 0.55
-93 0.44999999999999996
94 0.42
-94 0.5800000000000001
95 0.75
-95 0.25
96 0.1
-96 0.9
97 0.21
-97 0.79
98 0.59
-98 0.41000000000000003
99 0.77
-99 0.22999999999999998
100 0.89
-100 0.10999999999999999
