1 0.78
-1 0.21999999999999997
2 0.78
-2 0.21999999999999997
3 0.16
-3 0.84
4 0.56
-4 0.43999999999999995
5 0.91
-5 0.08999999999999997
6 0.03
-6 0.97
7 0.89
-7 0.10999999999999999
8 0.3
-8 0.7
9 0.2
-9 0.8
10 0.86
-10 0.14
11 0.16
-11 0.84
12 0.07
-12 0.9299999999999999
13 0.56
-13 0.43999999999999995
14 0.89
-14 0.10999999999999999
15 0.87
-15 0.13
16 0.45
-16 0.55
17 0.83
-17 0.17000000000000004
18 0.8
-18 0.19999999999999996
19 0.41
-19 0.5900000000000001
20 0.53
-20 0.47
21 0.76
-21 0.24
22 0.59
-22 0.41000000000000003
23 0.12
-23 0.88
24 0.37
-24 0.63
25 0.19
-25 0.81
26 0.65
-26 0.35
27 0.22
-27 0.78
28 0.62
-28 0.38
29 0.62
-29 0.38
30 0.87
-30 0.13
31 0.52
-31 0.48
32 0.22
-32 0.78
33 0.6
-33 0.4
34 0.35
-34 0.65
35 0.81
-35 0.18999999999999995
36 0.16
-36 0.84
37 0.86
-37 0.14
38 0.17
-38 0.83
39 0.31
-39 0.69
40 0.43
-40 0.5700000000000001
41 0.13
-41 0.87
42 0.83
-42 0.17000000000000004
43 0.34
-43 0.6599999999999999
44 0.52
-44 0.48
45 0.19
-45 0.81
46 0.32
-46 0.6799999999999999
47 0.81
-47 0.18999999999999995
48 0.41
-48 0.5900000000000001
49 0.05
-49 0.95
50 0.04
-50 0.96
51 0.4
-51 0.6
52 0.08
-52 0.92
53 0.28
-53 0.72
54 0.88
-54 0.12
55 0.93
-55 0.06999999999999995
56 0.18
-56 0.8200000000000001
57 0.94
-57 0.06000000000000005
58 0.02
-58 0.98
59 0.67
-59 0.32999999999999996
60 0.71
-60 0.29000000000000004
61 0.79
-61 0.20999999999999996
62 0.71
-62 0.29000000000000004
63 0.82
-63 0.18000000000000005
64 0.61
-64 0.39
65 0.51
-65 0.49
66 0.84
-66 0.16000000000000003
67 0.56
-67 0.43999999999999995
68 0.68
-68 0.31999999999999995
69 0.66
-69 0.33999999999999997
70 0.3
-70 0.7
71 0.66
-71 0.33999999999999997
72 0.92
-72 0.07999999999999996
73 0.69
-73 0.31000000000000005
74 0.54
-74 0.45999999999999996
75 0.2
-75 0.8
76 0.63
-76 0.37
77 0.03
-77 0.97
78 0.78
-78 0.21999999999999997
79 0.58
-79 0.42000000000000004
80 0.3
-80 0.7
81 0.1
-81 0.9
82 0.75
-82 0.25
83 0.21
-83 0.79
84 0.72
-84 0.28
85 0.24
-85 0.76
86 0.9
-86 0.09999999999999998
87 0.03
-87 0.97
88 0.63
-88 0.37
89 0.08
-89 0.92
90 0.49
-90 0.51
91 0.12
-91 0.88
92 0.03
-92 0.97
93 0.21
-93 0.79
94 0.52
-94 0.48
95 0.91
-95 0.08999999999999997
96 0.02
-96 0.98
97 0.92
-97 0.07999999999999996
98 0.29
-98 0.71
99 0.98
-99 0.020000000000000018
100 0.96
-100 0.040000000000000036
