1 0.54
-1 0.45999999999999996
2 0.45
-2 0.55
3 0.87
-3 0.13
4 0.77
-4 0.22999999999999998
5 0.3
-5 0.7
6 0.31
-6 0.69
7 0.37
-7 0.63
8 0.86
-8 0.14
9 0.97
-9 0.030000000000000027
10 0.58
-10 0.42000000000000004
11 0.54
-11 0.45999999999999996
12 0.17
-12 0.83
13 0.66
-13 0.33999999999999997
14 0.12
-14 0.88
15 0.79
-15 0.20999999999999996
16 0.63
-16 0.37
17 0.01
-17 0.99
18 0.31
-18 0.69
19 0.78
-19 0.21999999999999997
20 0.29
-20 0.71
21 0.27
-21 0.73
22 0.11
-22 0.89
23 0.42
-23 0.5800000000000001
24 0.42
-24 0.5800000000000001
25 0.7
-25 0.30000000000000004
26 0.21
-26 0.79
27 0.53
-27 0.47
28 0.95
-28 0.050000000000000044
29 0.08
-29 0.92
30 0.75
-30 0.25
31 0.61
-31 0.39
32 0.94
-32 0.06000000000000005
33 0.54
-33 0.45999999999999996
34 0.65
-34 0.35
35 0.91
-35 0.08999999999999997
36 0.78
-36 0.21999999999999997
37 0.76
-37 0.24
38 0.2
-38 0.8
39 0.3
-39 0.7
40 0.58
-40 0.42000000000000004
41 0.87
-41 0.13
42 0.33
-42 0.6699999999999999
43 0.96
-43 0.040000000000000036
44 0.48
-44 0.52
45 0.34
-45 0.6599999999999999
46 0.52
-46 0.48
47 0.52
-47 0.48
48 0.77
-48 0.22999999999999998
49 0.25
-49 0.75
50 0.31
-50 0.69
51 0.63
-51 0.37
52 0.31
-52 0.69
53 0.29
-53 0.71
54 0.23
-54 0.77
55 0.49
-55 0.51
56 0.14
-56 0.86
57 0.07
-57 0.9299999999999999
58 0.66
-58 0.33999999999999997
59 0.44
-59 0.56
60 0.34
-60 0.6599999999999999
61 0.36
-61 0.64
62 0.41
-62 0.5900000000000001
63 0.31
-63 0.69
64 0.52
-64 0.48
65 0.97
-65 0.030000000000000027
66 0.02
-66 0.98
67 0.1
-67 0.9
68 0.08
-68 0.92
69 0.21
-69 0.79
70 0.01
-70 0.99
71 0.14
-71 0.86
72 0.16
-72 0.84
73 0.15
-73 0.85
74 0.83
-74 0.17000000000000004
75 0.35
-75 0.65
76 0.59
-76 0.41000000000000003
77 0.74
-77 0.26
78 0.72
-78 0.28
79 0.06
-79 0.94
80 0.77
-80 0.22999999999999998
81 0.38
-81 0.62
82 0.9
-82 0.09999999999999998
83 0.81
-83 0.18999999999999995
84 0.07
-84 0.9299999999999999
85 0.96
-85 0.040000000000000036
86 0.37
-86 0.63
87 0.87
-87 0.13
88 0.93
-88 0.06999999999999995
89 0.99
-89 0.010000000000000009
90 0.87
-90 0.13
91 0.17
-91 0.83
92 0.77
-92 0.22999999999999998
93 0.09
-93 0.91
94 0.72
-94 0.28
95 0.22
-95 0.78
96 0.43
-96 0.5700000000000001
97 0.74
-97 0.26
98 0.19
-98 0.81
99 0.87
-99 0.13
100 0.33
-100 0.6699999999999999
