1 0.69
-1 0.31000000000000005
2 0.02
-2 0.98
3 0.2
-3 0.8
4 0.89
-4 0.10999999999999999
5 0.41
-5 0.5900000000000001
6 0.21
-6 0.79
7 0.98
-7 0.020000000000000018
8 0.26
-8 0.74
9 0.34
-9 0.6599999999999999
10 0.16
-10 0.84
11 0.82
-11 0.18000000000000005
12 0.19
-12 0.81
13 0.91
-13 0.08999999999999997
14 0.29
-14 0.71
15 0.1
-15 0.9
16 0.17
-16 0.83
17 0.75
-17 0.25
18 0.95
-18 0.050000000000000044
19 0.59
-19 0.41000000000000003
20 0.72
-20 0.28
21 0.09
-21 0.91
22 0.97
-22 0.030000000000000027
23 0.09
-23 0.91
24 0.01
-24 0.99
25 0.27
-25 0.73
26 0.16
-26 0.84
27 0.85
-27 0.15000000000000002
28 0.84
-28 0.16000000000000003
29 0.23
-29 0.77
30 0.68
-30 0.31999999999999995
31 0.03
-31 0.97
32 0.54
-32 0.45999999999999996
33 0.84
-33 0.16000000000000003
34 0.22
-34 0.78
35 0.05
-35 0.95
36 0.37
-36 0.63
37 0.96
-37 0.040000000000000036
38 0.52
-38 0.48
39 0.91
-39 0.08999999999999997
40 0.12
-40 0.88
41 0.24
-41 0.76
42 0.49
-42 0.51
43 0.44
-43 0.56
44 0.52
-44 0.48
45 0.59
-45 0.41000000000000003
46 0.79
-46 0.20999999999999996
47 0.49
-47 0.51
48 0.75
-48 0.25
49 0.93
-49 0.06999999999999995
50 0.2
-50 0.8
51 0.93
-51 0.06999999999999995
52 0.03
-52 0.97
53 0.91
-53 0.08999999999999997
54 0.91
-54 0.08999999999999997
55 0.58
-55 0.42000000000000004
56 0.36
-56 0.64
57 0.77
-57 0.22999999999999998
58 0.6
-58 0.4
59 0.42
-59 0.5800000000000001
60 0.18
-60 0.8200000000000001
61 0.18
-61 0.8200000000000001
62 0.68
-62 0.31999999999999995
63 0.28
-63 0.72
64 0.6
-64 0.4
65 0.78
-65 0.21999999999999997
66 0.4
-66 0.6
67 0.73
-67 0.27
68 0.2
-68 0.8
69 0.04
-69 0.96
70 0.03
-70 0.97
71 0.21
-71 0.79
72 0.66
-72 0.33999999999999997
73 0.16
-73 0.84
74 0.16
-74 0.84
75 0.21
-75 0.79
76 0.07
-76 0.9299999999999999
77 0.91
-77 0.08999999999999997
78 0.86
-78 0.14
79 0.81
-79 0.18999999999999995
80 0.05
-80 0.95
81 0.7
-81 0.30000000000000004
82 0.66
-82 0.33999999999999997
83 0.4
-83 0.6
84 0.5
-84 0.5
85 0.95
-85 0.050000000000000044
86 0.34
-86 0.6599999999999999
87 0.92
-87 0.07999999999999996
88 0.56
-88 0.43999999999999995
89 0.24
-89 0.76
90 0.73
-90 0.27
91 0.31
-91 0.69
92 0.44
-92 0.56
93 0.63
-93 0.37
94 0.19
-94 0.81
95 0.51
-95 0.49
96 0.11
-96 0.89
97 0.48
-97 0.52
98 0.75
-98 0.25
99 0.84
-99 0.16000000000000003
100 0.12
-100 0.88
