1 0.28
-1 0.72
2 0.61
-2 0.39
3 0.45
-3 0.55
4 0.17
-4 0.83
5 0.24
-5 0.76
6 0.04
-6 0.96
7 0.53
-7 0.47
8 0.38
-8 0.62
9 0.02
-9 0.98
10 0.9
-10 0.09999999999999998
11 0.74
-11 0.26
12 0.39
-12 0.61
13 0.59
-13 0.41000000000000003
14 0.22
-14 0.78
15 0.46
-15 0.54
16 0.29
-16 0.71
17 0.01
-17 0.99
18 0.32
-18 0.6799999999999999
19 0.23
-19 0.77
20 0.48
-20 0.52
21 0.12
-21 0.88
22 0.7
-22 0.30000000000000004
23 0.41
-23 0.5900000000000001
24 0.8
-24 0.19999999999999996
25 0.5
-25 0.5
26 0.48
-26 0.52
27 0.18
-27 0.8200000000000001
28 0.16
-28 0.84
29 0.84
-29 0.16000000000000003
30 0.2
-30 0.8
31 0.81
-31 0.18999999999999995
32 0.69
-32 0.31000000000000005
33 0.82
-33 0.18000000000000005
34 0.6
-34 0.4
35 0.47
-35 0.53
36 0.61
-36 0.39
37 0.65
-37 0.35
38 0.77
-38 0.22999999999999998
39 0.49
-39 0.51
40 0.75
-40 0.25
41 0.5
-41 0.5
42 0.57
-42 0.43000000000000005
43 0.21
-43 0.79
44 0.27
-44 0.73
45 0.07
-45 0.9299999999999999
46 0.1
-46 0.9
47 0.39
-47 0.61
48 0.94
-48 0.06000000000000005
49 0.36
-49 0.64
50 0.7
-50 0.30000000000000004
51 0.69
-51 0.31000000000000005
52 0.6
-52 0.4
53 0.57
-53 0.43000000000000005
54 0.84
-54 0.16000000000000003
55 0.21
-55 0.79
56 0.05
-56 0.95
57 0.86
-57 0.14
58 0.9
-58 0.09999999999999998
59 0.28
-59 0.72
60 0.96
-60 0.040000000000000036
61 0.26
-61 0.74
62 0.29
-62 0.71
63 0.08
-63 0.92
64 0.05
-64 0.95
65 0.03
-65 0.97
66 0.93
-66 0.06999999999999995
67 0.6
-67 0.4
68 0.91
-68 0.08999999999999997
69 0.91
-69 0.08999999999999997
70 0.67
-70 0.32999999999999996
71 0.74
-71 0.26
72 0.15
-72 0.85
73 0.68
-73 0.31999999999999995
74 0.71
-74 0.29000000000000004
75 0.56
-75 0.43999999999999995
76 0.12
-76 0.88
77 0.83
-77 0.17000000000000004
78 0.17
-78 0.83
79 0.33
-79 0.6699999999999999
80 0.97
-80 0.030000000000000027
81 0.8
-81 0.19999999999999996
82 0.63
-82 0.37
83 0.94
-83 0.06000000000000005
84 0.9
-84 0.09999999999999998
85 0.42
-85 0.5800000000000001
86 0.26
-86 0.74
87 0.87
-87 0.13
88 0.95
-88 0.050000000000000044
89 0.18
-89 0.8200000000000001
90 0.43
-90 0.5700000000000001
91 0.72
-91 0.28
92 0.72
-92 0.28
93 0.47
-93 0.53
94 0.7
-94 0.30000000000000004
95 0.79
-95 0.20999999999999996
96 0.37
-96 0.63
97 0.68
-97 0.31999999999999995
98 0.68
-98 0.31999999999999995
99 0.76
-99 0.24
100 0.28
-100 0.72
