1 0.56
-1 0.43999999999999995
2 0.59
-2 0.41000000000000003
3 0.81
-3 0.18999999999999995
4 0.8
-4 0.19999999999999996
5 0.16
-5 0.84
6 0.7
-6 0.30000000000000004
7 0.73
-7 0.27
8 0.18
-8 0.8200000000000001
9 0.72
-9 0.28
10 0.4
-10 0.6
11 0.13
-11 0.87
12 0.95
-12 0.050000000000000044
13 0.63
-13 0.37
14 0.25
-14 0.75
15 0.43
-15 0.5700000000000001
16 0.56
-16 0.43999999999999995
17 0.43
-17 0.5700000000000001
18 0.66
-18 0.33999999999999997
19 0.3
-19 0.7
20 0.14
-20 0.86
21 0.61
-21 0.39
22 0.31
-22 0.69
23 0.19
-23 0.81
24 0.59
-24 0.41000000000000003
25 0.57
-25 0.43000000000000005
26 0.1
-26 0.9
27 0.61
-27 0.39
28 0.69
-28 0.31000000000000005
29 0.79
-29 0.20999999999999996
30 0.4
-30 0.6
31 0.11
-31 0.89
32 0.17
-32 0.83
33 0.98
-33 0.020000000000000018
34 0.06
-34 0.94
35 0.28
-35 0.72
36 0.2
-36 0.8
37 0.88
-37 0.12
38 0.64
-38 0.36
39 0.95
-39 0.050000000000000044
40 0.48
-40 0.52
41 0.14
-41 0.86
42 0.81
-42 0.18999999999999995
43 0.14
-43 0.86
44 0.82
-44 0.18000000000000005
45 0.27
-45 0.73
46 0.69
-46 0.31000000000000005
47 0.32
-47 0.6799999999999999
48 0.58
-48 0.42000000000000004
49 0.46
-49 0.54
50 0.05
-50 0.95
51 0.5
-51 0.5
52 0.78
-52 0.21999999999999997
53 0.45
-53 0.55
54 0.46
-54 0.54
55 0.27
-55 0.73
56 0.89
-56 0.10999999999999999
57 0.35
-57 0.65
58 0.02
-58 0.98
59 0.97
-59 0.030000000000000027
60 0.28
-60 0.72
61 0.38
-61 0.62
62 0.3
-62 0.7
63 0.96
-63 0.040000000000000036
64 0.32
-64 0.6799999999999999
65 0.96
-65 0.040000000000000036
66 0.53
-66 0.47
67 0.21
-67 0.79
68 0.33
-68 0.6699999999999999
69 0.73
-69 0.27
70 0.86
-70 0.14
71 0.34
-71 0.6599999999999999
72 0.83
-72 0.17000000000000004
73 0.52
-73 0.48
74 0.41
-74 0.5900000000000001
75 0.57
-75 0.43000000000000005
76 0.42
-76 0.5800000000000001
77 0.82
-77 0.18000000000000005
78 0.22
-78 0.78
79 0.85
-79 0.15000000000000002
80 0.22
-80 0.78
81 0.83
-81 0.17000000000000004
82 0.26
-82 0.74
83 0.77
-83 0.22999999999999998
84 0.48
-84 0.52
85 0.01
-85 0.99
86 0.59
-86 0.41000000000000003
87 0.51
-87 0.49
88 0.84
-88 0.16000000000000003
89 0.38
-89 0.62
90 0.38
-90 0.62
91 0.19
-91 0.81
92 0.71
-92 0.29000000000000004
93 0.57
-93 0.43000000000000005
94 0.93
-94 0.06999999999999995
95 0.24
-95 0.76
96 0.35
-96 0.65
97 0.78
-97 0.21999999999999997
98 0.81
-98 0.18999999999999995
99 0.86
-99 0.14
100 0.05
-100 0.95
