1 0.28
-1 0.72
2 0.59
-2 0.41000000000000003
3 0.69
-3 0.31000000000000005
4 0.64
-4 0.36
5 0.09
-5 0.91
6 0.28
-6 0.72
7 0.5
-7 0.5
8 0.34
-8 0.6599999999999999
9 0.17
-9 0.83
10 0.4
-10 0.6
11 0.55
-11 0.44999999999999996
12 0.05
-12 0.95
13 0.7
-13 0.30000000000000004
14 0.75
-14 0.25
15 0.34
-15 0.6599999999999999
16 0.68
-16 0.31999999999999995
17 0.73
-17 0.27
18 0.58
-18 0.42000000000000004
19 0.83
-19 0.17000000000000004
20 0.52
-20 0.48
21 0.75
-21 0.25
22 0.31
-22 0.69
23 0.58
-23 0.42000000000000004
24 0.13
-24 0.87
25 0.79
-25 0.20999999999999996
26 0.85
-26 0.15000000000000002
27 0.86
-27 0.14
28 0.26
-28 0.74
29 0.07
-29 0.9299999999999999
30 0.79
-30 0.20999999999999996
31 0.22
-31 0.78
32 0.23
-32 0.77
33 0.53
-33 0.47
34 0.67
-34 0.32999999999999996
35 0.47
-35 0.53
36 0.56
-36 0.43999999999999995
37 0.27
-37 0.73
38 0.3
-38 0.7
39 0.68
-39 0.31999999999999995
40 0.94
-40 0.06000000000000005
41 0.38
-41 0.62
42 0.35
-42 0.65
43 0.03
-43 0.97
44 0.02
-44 0.98
45 0.67
-45 0.32999999999999996
46 0.72
-46 0.28
47 0.12
-47 0.88
48 0.81
-48 0.18999999999999995
49 0.49
-49 0.51
50 0.78
-50 0.21999999999999997
51 0.62
-51 0.38
52 0.11
-52 0.89
53 0.79
-53 0.20999999999999996
54 0.91
-54 0.08999999999999997
55 0.2
-55 0.8
56 0.75
-56 0.25
57 0.66
-57 0.33999999999999997
58 0.23
-58 0.77
59 0.75
-59 0.25
60 0.75
-60 0.25
61 0.08
-61 0.92
62 0.88
-62 0.12
63 0.57
-63 0.43000000000000005
64 0.66
-64 0.33999999999999997
65 0.18
-65 0.8200000000000001
66 0.02
-66 0.98
67 0.47
-67 0.53
68 0.08
-68 0.92
69 0.81
-69 0.18999999999999995
70 0.92
-70 0.07999999999999996
71 0.26
-71 0.74
72 0.9
-72 0.09999999999999998
73 0.84
-73 0.16000000000000003
74 0.36
-74 0.64
75 0.75
-75 0.25
76 0.2
-76 0.8
77 0.01
-77 0.99
78 0.44
-78 0.56
79 0.79
-79 0.20999999999999996
80 0.84
-80 0.16000000000000003
81 0.02
-81 0.98
82 0.16
-82 0.84
83 0.17
-83 0.83
84 0.08
-84 0.92
85 0.37
-85 0.63
86 0.83
-86 0.17000000000000004
87 0.88
-87 0.12
88 0.55
-88 0.44999999999999996
89 0.13
-89 0.87
90 0.91
-90 0.08999999999999997
91 0.99
-91 0.010000000000000009
92 0.86
-92 0.14
93 0.6
-93 0.4
94 0.51
-94 0.49
95 0.56
-95 0.43999999999999995
96 0.39
-96 0.61
97 0.43
-97 0.5700000000000001
98 0.43
-98 0.5700000000000001
99 0.92
-99 0.07999999999999996
100 0.47
-100 0.53
