1 0.25
-1 0.75
2 0.14
-2 0.86
3 0.07
-3 0.9299999999999999
4 0.71
-4 0.29000000000000004
5 0.66
-5 0.33999999999999997
6 0.73
-6 0.27
7 0.78
-7 0.21999999999999997
8 0.16
-8 0.84
9 0.03
-9 0.97
10 0.57
-10 0.43000000000000005
11 0.35
-11 0.65
12 0.66
-12 0.33999999999999997
13 0.28
-13 0.72
14 0.99
-14 0.010000000000000009
15 0.89
-15 0.10999999999999999
16 0.31
-16 0.69
17 0.29
-17 0.71
18 0.81
-18 0.18999999999999995
19 0.8
-19 0.19999999999999996
20 0.48
-20 0.52
21 0.52
-21 0.48
22 0.28
-22 0.72
23 0.58
-23 0.42000000000000004
24 0.71
-24 0.29000000000000004
25 0.65
-25 0.35
26 0.49
-26 0.51
27 0.37
-27 0.63
28 0.87
-28 0.13
29 0.31
-29 0.69
30 0.06
-30 0.94
31 0.53
-31 0.47
32 0.61
-32 0.39
33 0.21
-33 0.79
34 0.66
-34 0.33999999999999997
35 0.6
-35 0.4
36 0.33
-36 0.6699999999999999
37 0.4
-37 0.6
38 0.01
-38 0.99
39 0.24
-39 0.76
40 0.18
-40 0.8200000000000001
41 0.85
-41 0.15000000000000002
42 0.91
-42 0.08999999999999997
43 0.87
-43 0.13
44 0.47
-44 0.53
45 0.55
-45 0.44999999999999996
46 0.74
-46 0.26
47 0.61
-47 0.39
48 0.71
-48 0.29000000000000004
49 0.74
-49 0.26
50 0.28
-50 0.72
51 0.98
-51 0.020000000000000018
52 0.44
-52 0.56
53 0.57
-53 0.43000000000000005
54 0.8
-54 0.19999999999999996
55 0.65
-55 0.35
56 0.99
-56 0.010000000000000009
57 0.3
-57 0.7
58 0.03
-58 0.97
59 0.96
-59 0.040000000000000036
60 0.59
-60 0.41000000000000003
61 0.52
-61 0.48
62 0.72
-62 0.28
63 0.49
-63 0.51
64 0.43
-64 0.5700000000000001
65 0.37
-65 0.63
66 0.17
-66 0.83
67 0.72
-67 0.28
68 0.28
-68 0.72
69 0.18
-69 0.8200000000000001
70 0.44
-70 0.56
71 0.82
-71 0.18000000000000005
72 0.16
-72 0.84
73 0.41
-73 0.5900000000000001
74 0.4
-74 0.6
75 0.97
-75 0.030000000000000027
76 0.87
-76 0.13
77 0.85
-77 0.15000000000000002
78 0.11
-78 0.89
79 0.95
-79 0.050000000000000044
80 0.43
-80 0.5700000000000001
81 0.12
-81 0.88
82 0.06
-82 0.94
83 0.94
-83 0.06000000000000005
84 0.39
-84 0.61
85 0.12
-85 0.88
86 0.58
-86 0.42000000000000004
87 0.23
-87 0.77
88 0.96
-88 0.040000000000000036
89 0.46
-89 0.54
90 0.29
-90 0.71
91 0.31
-91 0.69
92 0.42
-92 0.5800000000000001
93 0.82
-93 0.18000000000000005
94 0.24
-94 0.76
95 0.47
-95 0.53
96 0.78
-96 0.21999999999999997
97 0.9
-97 0.09999999999999998
98 0.73
-98 0.27
99 0.77
-99 0.22999999999999998
100 0.03
-100 0.97
