1 0.37
-1 0.63
2 0.05
-2 0.95
3 0.08
-3 0.92
4 0.33
-4 0.6699999999999999
5 0.21
-5 0.79
6 0.31
-6 0.69
7 0.58
-7 0.42000000000000004
8 0.1
-8 0.9
9 0.91
-9 0.08999999999999997
10 0.61
-10 0.39
11 0.83
-11 0.17000000000000004
12 0.43
-12 0.5700000000000001
13 0.39
-13 0.61
14 0.69
-14 0.31000000000000005
15 0.68
-15 0.31999999999999995
16 0.29
-16 0.71
17 0.82
-17 0.18000000000000005
18 0.99
-18 0.010000000000000009
19 0.9
-19 0.09999999999999998
20 0.32
-20 0.6799999999999999
21 0.4
-21 0.6
22 0.2
-22 0.8
23 0.82
-23 0.18000000000000005
24 0.1
-24 0.9
25 0.92
-25 0.07999999999999996
26 0.63
-26 0.37
27 0.58
-27 0.42000000000000004
28 0.77
-28 0.22999999999999998
29 0.16
-29 0.84
30 0.89
-30 0.10999999999999999
31 0.58
-31 0.42000000000000004
32 0.76
-32 0.24
33 0.8
-33 0.19999999999999996
34 0.08
-34 0.92
35 0.29
-35 0.71
36 0.54
-36 0.45999999999999996
37 0.47
-37 0.53
38 0.16
-38 0.84
39 0.96
-39 0.040000000000000036
40 0.97
-40 0.030000000000000027
41 0.14
-41 0.86
42 0.68
-42 0.31999999999999995
43 0.09
-43 0.91
44 0.31
-44 0.69
45 0.12
-45 0.88
46 0.28
-46 0.72
47 0.84
-47 0.16000000000000003
48 0.35
-48 0.65
49 0.29
-49 0.71
50 0.82
-50 0.18000000000000005
51 0.08
-51 0.92
52 0.53
-52 0.47
53 0.28
-53 0.72
54 0.41
-54 0.5900000000000001
55 0.47
-55 0.53
56 0.6
-56 0.4
57 0.15
-57 0.85
58 0.37
-58 0.63
59 0.53
-59 0.47
60 0.11
-60 0.89
61 0.12
-61 0.88
62 0.24
-62 0.76
63 0.09
-63 0.91
64 0.41
-64 0.5900000000000001
65 0.31
-65 0.69
66 0.16
-66 0.84
67 0.2
-67 0.8
68 0.83
-68 0.17000000000000004
69 0.1
-69 0.9
70 0.81
-70 0.18999999999999995
71 0.28
-71 0.72
72 0.37
-72 0.63
73 0.02
-73 0.98
74 0.81
-74 0.18999999999999995
75 0.04
-75 0.96
76 0.39
-76 0.61
77 0.9
-77 0.09999999999999998
78 0.13
-78 0.87
79 0.66
-79 0.33999999999999997
80 0.58
-80 0.42000000000000004
81 0.3
-81 0.7
82 0.19
-82 0.81
83 0.86
-83 0.14
84 0.95
-84 0.050000000000000044
85 0.34
-85 0.6599999999999999
86 0.65
-86 0.35
87 0.87
-87 0.13
88 0.9
-88 0.09999999999999998
89 0.22
-89 0.78
90 0.66
-90 0.33999999999999997
91 0.63
-91 0.37
92 0.02
-92 0.98
93 0.25
-93 0.75
94 0.18
-94 0.8200000000000001
95 0.04
-95 0.96
96 0.43
-96 0.5700000000000001
97 0.69
-97 0.31000000000000005
98 0.68
-98 0.31999999999999995
99 0.72
-99 0.28
100 0.46
-100 0.54
