1 0.64
-1 0.36
2 0.94
-2 0.06000000000000005
3 0.78
-3 0.21999999999999997
4 0.1
-4 0.9
5 0.44
-5 0.56
6 0.64
-6 0.36
7 0.84
-7 0.16000000000000003
8 0.25
-8 0.75
9 0.32
-9 0.6799999999999999
10 0.58
-10 0.42000000000000004
11 0.24
-11 0.76
12 0.57
-12 0.43000000000000005
13 0.57
-13 0.43000000000000005
14 0.56
-14 0.43999999999999995
15 0.54
-15 0.45999999999999996
16 0.6
-16 0.4
17 0.95
-17 0.050000000000000044
18 0.26
-18 0.74
19 0.36
-19 0.64
20 0.56
-20 0.43999999999999995
21 0.1
-21 0.9
22 0.1
-22 0.9
23 0.82
-23 0.18000000000000005
24 0.29
-24 0.71
25 0.62
-25 0.38
26 0.58
-26 0.42000000000000004
27 0.84
-27 0.16000000000000003
28 0.89
-28 0.10999999999999999
29 0.22
-29 0.78
30 0.27
-30 0.73
31 0.69
-31 0.31000000000000005
32 0.53
-32 0.47
33 0.09
-33 0.91
34 0.89
-34 0.10999999999999999
35 0.4
-35 0.6
36 0.55
-36 0.44999999999999996
37 0.98
-37 0.020000000000000018
38 0.02
-38 0.98
39 0.4
-39 0.6
40 0.07
-40 0.9299999999999999
41 0.71
-41 0.29000000000000004
42 0.58
-42 0.42000000000000004
43 0.33
-43 0.6699999999999999
44 0.01
-44 0.99
45 0.45
-45 0.55
46 0.69
-46 0.31000000000000005
47 0.89
-47 0.10999999999999999
48 0.57
-48 0.43000000000000005
49 0.05
-49 0.95
50 0.61
-50 0.39
51 0.04
-51 0.96
52 0.33
-52 0.6699999999999999
53 0.12
-53 0.88
54 0.96
-54 0.040000000000000036
55 0.03
-55 0.97
56 0.99
-56 0.010000000000000009
57 0.14
-57 0.86
58 0.97
-58 0.030000000000000027
59 0.66
-59 0.33999999999999997
60 0.64
-60 0.36
61 0.14
-61 0.86
62 0.24
-62 0.76
63 0.88
-63 0.12
64 0.76
-64 0.24
65 0.89
-65 0.10999999999999999
66 0.85
-66 0.15000000000000002
67 0.31
-67 0.69
68 0.82
-68 0.18000000000000005
69 0.85
-69 0.15000000000000002
70 0.94
-70 0.06000000000000005
71 0.9
-71 0.09999999999999998
72 0.22
-72 0.78
73 0.24
-73 0.76
74 0.94
-74 0.06000000000000005
75 0.62
-75 0.38
76 0.02
-76 0.98
77 0.11
-77 0.89
78 0.26
-78 0.74
79 0.56
-79 0.43999999999999995
80 0.32
-80 0.6799999999999999
81 0.27
-81 0.73
82 0.38
-82 0.62
83 0.84
-83 0.16000000000000003
84 0.26
-84 0.74
85 0.01
-85 0.99
86 0.11
-86 0.89
87 0.83
-87 0.17000000000000004
88 0.73
-88 0.27
89 0.74
-89 0.26
90 0.5
-90 0.5
91 0.77
-91 0.22999999999999998
92 0.29
-92 0.71
93 0.81
-93 0.18999999999999995
94 0.22
-94 0.78
95 0.98
-95 0.020000000000000018
96 0.01
-96 0.99
97 0.07
-97 0.9299999999999999
98 0.2
-98 0.8
99 0.33
-99 0.6699999999999999
100 0.88
-100 0.12
