1 0.6
-1 0.4
2 0.01
-2 0.99
3 0.66
-3 0.33999999999999997
4 0.61
-4 0.39
5 0.74
-5 0.26
6 0.73
-6 0.27
7 0.91
-7 0.08999999999999997
8 0.35
-8 0.65
9 0.75
-9 0.25
10 0.52
-10 0.48
11 0.38
-11 0.62
12 0.18
-12 0.8200000000000001
13 0.1
-13 0.9
14 0.96
-14 0.040000000000000036
15 0.6
-15 0.4
16 0.61
-16 0.39
17 0.39
-17 0.61
18 0.43
-18 0.5700000000000001
19 0.84
-19 0.16000000000000003
20 0.82
-20 0.18000000000000005
21 0.04
-21 0.96
22 0.83
-22 0.17000000000000004
23 0.54
-23 0.45999999999999996
24 0.35
-24 0.65
25 0.19
-25 0.81
26 0.36
-26 0.64
27 0.64
-27 0.36
28 0.52
-28 0.48
29 0.66
-29 0.33999999999999997
30 0.11
-30 0.89
31 0.32
-31 0.6799999999999999
32 0.56
-32 0.43999999999999995
33 0.11
-33 0.89
34 0.78
-34 0.21999999999999997
35 0.67
-35 0.32999999999999996
36 0.43
-36 0.5700000000000001
37 0.49
-37 0.51
38 0.64
-38 0.36
39 0.96
-39 0.040000000000000036
40 0.2
-40 0.8
41 0.28
-41 0.72
42 0.33
-42 0.6699999999999999
43 0.29
-43 0.71
44 0.71
-44 0.29000000000000004
45 0.51
-45 0.49
46 0.59
-46 0.41000000000000003
47 0.71
-47 0.29000000000000004
48 0.81
-48 0.18999999999999995
49 0.18
-49 0.8200000000000001
50 0.94
-50 0.06000000000000005
51 0.22
-51 0.78
52 0.73
-52 0.27
53 0.64
-53 0.36
54 0.52
-54 0.48
55 0.46
-55 0.54
56 0.64
-56 0.36
57 0.06
-57 0.94
58 0.45
-58 0.55
59 0.61
-59 0.39
60 0.83
-60 0.17000000000000004
61 0.34
-61 0.6599999999999999
62 0.51
-62 0.49
63 0.75
-63 0.25
64 0.96
-64 0.040000000000000036
65 0.38
-65 0.62
66 0.25
-66 0.75
67 0.66
-67 0.33999999999999997
68 0.59
-68 0.41000000000000003
69 0.37
-69 0.63
70 0.54
-70 0.45999999999999996
71 0.69
-71 0.31000000000000005
72 0.07
-72 0.9299999999999999
73 0.51
-73 0.49
74 0.98
-74 0.020000000000000018
75 0.73
-75 0.27
76 0.43
-76 0.5700000000000001
77 0.99
-77 0.010000000000000009
78 0.12
-78 0.88
79 0.25
-79 0.75
80 0.01
-80 0.99
81 0.29
-81 0.71
82 0.36
-82 0.64
83 0.8
-83 0.19999999999999996
84 0.46
-84 0.54
85 0.86
-85 0.14
86 0.91
-86 0.08999999999999997
87 0.94
-87 0.06000000000000005
88 0.65
-88 0.35
89 0.98
-89 0.020000000000000018
90 0.44
-90 0.56
91 0.13
-91 0.87
92 0.12
-92 0.88
93 0.02
-93 0.98
94 0.19
-94 0.81
95 0.79
-95 0.20999999999999996
96 0.95
-96 0.050000000000000044
97 0.8
-97 0.19999999999999996
98 0.26
-98 0.74
99 0.54
-99 0.45999999999999996
100 0.22
-100 0.78
