1 0.59
-1 0.41000000000000003
2 0.9
-2 0.09999999999999998
3 0.9
-3 0.09999999999999998
4 0.73
-4 0.27
5 0.87
-5 0.13
6 0.96
-6 0.040000000000000036
7 0.32
-7 0.6799999999999999
8 0.49
-8 0.51
9 0.99
-9 0.010000000000000009
10 0.74
-10 0.26
11 0.63
-11 0.37
12 0.64
-12 0.36
13 0.53
-13 0.47
14 0.89
-14 0.10999999999999999
15 0.88
-15 0.12
16 0.39
-16 0.61
17 0.9
-17 0.09999999999999998
18 0.27
-18 0.73
19 0.64
-19 0.36
20 0.54
-20 0.45999999999999996
21 0.82
-21 0.18000000000000005
22 0.42
-22 0.5800000000000001
23 0.45
-23 0.55
24 0.54
-24 0.45999999999999996
25 0.59
-25 0.41000000000000003
26 0.2
-26 0.8
27 0.53
-27 0.47
28 0.27
-28 0.73
29 0.84
-29 0.16000000000000003
30 0.42
-30 0.5800000000000001
31 0.63
-31 0.37
32 0.55
-32 0.44999999999999996
33 0.6
-33 0.4
34 0.69
-34 0.31000000000000005
35 0.7
-35 0.30000000000000004
36 0.39
-36 0.61
37 0.38
-37 0.62
38 0.03
-38 0.97
39 0.55
-39 0.44999999999999996
40 0.12
-40 0.88
41 0.93
-41 0.06999999999999995
42 0.86
-42 0.14
43 0.17
-43 0.83
44 0.51
-44 0.49
45 0.51
-45 0.49
46 0.21
-46 0.79
47 0.9
-47 0.09999999999999998
48 0.81
-48 0.18999999999999995
49 0.41
-49 0.5900000000000001
50 0.85
-50 0.15000000000000002
51 0.55
-51 0.44999999999999996
52 0.56
-52 0.43999999999999995
53 0.26
-53 0.74
54 0.93
-54 0.06999999999999995
55 0.49
-55 0.51
56 0.43
-56 0.5700000000000001
57 0.21
-57 0.79
58 0.81
-58 0.18999999999999995
59 0.81
-59 0.18999999999999995
60 0.55
-60 0.44999999999999996
61 0.62
-61 0.38
62 0.81
-62 0.18999999999999995
63 0.45
-63 0.55
64 0.41
-64 0.5900000000000001
65 0.36
-65 0.64
66 0.03
-66 0.97
67 0.79
-67 0.20999999999999996
68 0.93
-68 0.06999999999999995
69 0.38
-69 0.62
70 0.51
-70 0.49
71 0.22
-71 0.78
72 0.74
-72 0.26
73 0.7
-73 0.30000000000000004
74 0.54
-74 0.45999999999999996
75 0.4
-75 0.6
76 0.87
-76 0.13
77 0.42
-77 0.5800000000000001
78 0.91
-78 0.08999999999999997
79 0.68
-79 0.31999999999999995
80 0.09
-80 0.91
81 0.44
-81 0.56
82 0.36
-82 0.64
83 0.79
-83 0.20999999999999996
84 0.59
-84 0.41000000000000003
85 0.19
-85 0.81
86 0.58
-86 0.42000000000000004
87 0.85
-87 0.15000000000000002
88 0.92
-88 0.07999999999999996
89 0.99
-89 0.010000000000000009
90 0.52
-90 0.48
91 0.79
-91 0.20999999999999996
92 0.69
-92 0.31000000000000005
93 0.25
-93 0.75
94 0.34
-94 0.6599999999999999
95 0.9
-95 0.09999999999999998
96 0.75
-96 0.25
97 0.45
-97 0.55
98 0.88
-98 0.12
99 0.79
-99 0.20999999999999996
100 0.42
-100 0.5800000000000001
