1 0.34
-1 0.6599999999999999
2 0.05
-2 0.95
3 0.28
-3 0.72
4 0.81
-4 0.18999999999999995
5 0.52
-5 0.48
6 0.76
-6 0.24
7 0.82
-7 0.18000000000000005
8 0.74
-8 0.26
9 0.12
-9 0.88
10 0.14
-10 0.86
11 0.16
-11 0.84
12 0.68
-12 0.31999999999999995
13 0.48
-13 0.52
14 0.13
-14 0.87
15 0.77
-15 0.22999999999999998
16 0.3
-16 0.7
17 0.38
-17 0.62
18 0.52
-18 0.48
19 0.91
-19 0.08999999999999997
20 0.26
-20 0.74
21 0.81
-21 0.18999999999999995
22 0.21
-22 0.79
23 0.93
-23 0.06999999999999995
24 0.16
-24 0.84
25 0.74
-25 0.26
26 0.22
-26 0.78
27 0.76
-27 0.24
28 0.74
-28 0.26
29 0.79
-29 0.20999999999999996
30 0.18
-30 0.8200000000000001
31 0.37
-31 0.63
32 0.44
-32 0.56
33 0.23
-33 0.77
34 0.99
-34 0.010000000000000009
35 0.43
-35 0.5700000000000001
36 0.92
-36 0.07999999999999996
37 0.6
-37 0.4
38 0.57
-38 0.43000000000000005
39 0.74
-39 0.26
40 0.56
-40 0.43999999999999995
41 0.52
-41 0.48
42 0.99
-42 0.010000000000000009
43 0.7
-43 0.30000000000000004
44 0.81
-44 0.18999999999999995
45 0.54
-45 0.45999999999999996
46 0.87
-46 0.13
47 0.96
-47 0.040000000000000036
48 0.37
-48 0.63
49 0.02
-49 0.98
50 0.94
-50 0.06000000000000005
51 0.66
-51 0.33999999999999997
52 0.68
-52 0.31999999999999995
53 0.12
-53 0.88
54 0.48
-54 0.52
55 0.74
-55 0.26
56 0.13
-56 0.87
57 0.8
-57 0.19999999999999996
58 0.3
-58 0.7
59 0.25
-59 0.75
60 0.93
-60 0.06999999999999995
61 0.09
-61 0.91
62 0.79
-62 0.20999999999999996
63 0.71
-63 0.29000000000000004
64 0.71
-64 0.29000000000000004
65 0.69
-65 0.31000000000000005
66 0.28
-66 0.72
67 0.76
-67 0.24
68 0.22
-68 0.78
69 0.51
-69 0.49
70 0.09
-70 0.91
71 0.18
-71 0.8200000000000001
72 0.74
-72 0.26
73 0.27
-73 0.73
74 0.51
-74 0.49
75 0.39
-75 0.61
76 0.51
-76 0.49
77 0.68
-77 0.31999999999999995
78 0.11
-78 0.89
79 0.84
-79 0.16000000000000003
80 0.21
-80 0.79
81 0.93
-81 0.06999999999999995
82 0.01
-82 0.99
83 0.35
-83 0.65
84 0.92
-84 0.07999999999999996
85 0.09
-85 0.91
86 0.56
-86 0.43999999999999995
87 0.16
-87 0.84
88 0.77
-88 0.22999999999999998
89 0.36
-89 0.64
90 0.12
-90 0.88
91 0.44
-91 0.56
92 0.66
-92 0.33999999999999997
93 0.64
-93 0.36
94 0.41
-94 0.5900000000000001
95 0.18
-95 0.8200000000000001
96 0.4
-96 0.6
97 0.82
-97 0.18000000000000005
98 0.17
-98 0.83
99 0.43
-99 0.5700000000000001
100 0.56
-100 0.43999999999999995
