1 0.62
-1 0.38
2 0.74
-2 0.26
3 0.46
-3 0.54
4 0.65
-4 0.35
5 0.45
-5 0.55
6 0.57
-6 0.43000000000000005
7 0.08
-7 0.92
8 0.73
-8 0.27
9 0.74
-9 0.26
10 0.91
-10 0.08999999999999997
11 0.04
-11 0.96
12 0.04
-12 0.96
13 0.54
-13 0.45999999999999996
14 0.5
-14 0.5
15 0.43
-15 0.5700000000000001
16 0.77
-16 0.22999999999999998
17 0.56
-17 0.43999999999999995
18 0.77
-18 0.22999999999999998
19 0.53
-19 0.47
20 0.11
-20 0.89
21 0.66
-21 0.33999999999999997
22 0.24
-22 0.76
23 0.88
-23 0.12
24 0.88
-24 0.12
25 0.85
-25 0.15000000000000002
26 0.96
-26 0.040000000000000036
27 0.06
-27 0.94
28 0.59
-28 0.41000000000000003
29 0.22
-29 0.78
30 0.95
-30 0.050000000000000044
31 0.67
-31 0.32999999999999996
32 0.37
-32 0.63
33 0.95
-33 0.050000000000000044
34 0.15
-34 0.85
35 0.76
-35 0.24
36 0.69
-36 0.31000000000000005
37 0.53
-37 0.47
38 0.11
-38 0.89
39 0.51
-39 0.49
40 0.6
-40 0.4
41 0.21
-41 0.79
42 0.73
-42 0.27
43 0.37
-43 0.63
44 0.05
-44 0.95
45 0.17
-45 0.83
46 0.4
-46 0.6
47 0.45
-47 0.55
48 0.63
-48 0.37
49 0.27
-49 0.73
50 0.39
-50 0.61
51 0.43
-51 0.5700000000000001
52 0.7
-52 0.30000000000000004
53 0.35
-53 0.65
54 0.56
-54 0.43999999999999995
55 0.68
-55 0.31999999999999995
56 0.48
-56 0.52
57 0.04
-57 0.96
58 0.08
-58 0.92
59 0.39
-59 0.61
60 0.37
-60 0.63
61 0.08
-61 0.92
62 0.87
-62 0.13
63 0.3
-63 0.7
64 0.38
-64 0.62
65 0.55
-65 0.44999999999999996
66 0.1
-66 0.9
67 0.5
-67 0.5
68 0.49
-68 0.51
69 0.58
-69 0.42000000000000004
70 0.94
-70 0.06000000000000005
71 0.92
-71 0.07999999999999996
72 0.55
-72 0.44999999999999996
73 0.15
-73 0.85
74 0.41
-74 0.5900000000000001
75 0.69
-75 0.31000000000000005
76 0.37
-76 0.63
77 0.8
-77 0.19999999999999996
78 0.47
-78 0.53
79 0.95
-79 0.050000000000000044
80 0.2
-80 0.8
81 0.5
-81 0.5
82 0.85
-82 0.15000000000000002
83 0.78
-83 0.21999999999999997
84 0.68
-84 0.31999999999999995
85 0.83
-85 0.17000000000000004
86 0.07
-86 0.9299999999999999
87 0.86
-87 0.14
88 0.64
-88 0.36
89 0.84
-89 0.16000000000000003
90 0.3
-90 0.7
91 0.74
-91 0.26
92 0.24
-92 0.76
93 0.06
-93 0.94
94 0.57
-94 0.43000000000000005
95 0.19
-95 0.81
96 0.38
-96 0.62
97 0.78
-97 0.21999999999999997
98 0.73
-98 0.27
99 0.69
-99 0.31000000000000005
100 0.13
-100 0.87
