1 0.9
-1 0.09999999999999998
2 0.35
-2 0.65
3 0.56
-3 0.43999999999999995
4 0.86
-4 0.14
5 0.68
-5 0.31999999999999995
6 0.29
-6 0.71
7 0.3
-7 0.7
8 0.64
-8 0.36
9 0.81
-9 0.18999999999999995
10 0.84
-10 0.16000000000000003
11 0.49
-11 0.51
12 0.56
-12 0.43999999999999995
13 0.04
-13 0.96
14 0.96
-14 0.040000000000000036
15 0.22
-15 0.78
16 0.41
-16 0.5900000000000001
17 0.21
-17 0.79
18 0.46
-18 0.54
19 0.69
-19 0.31000000000000005
20 0.79
-20 0.20999999999999996
21 0.47
-21 0.53
22 0.25
-22 0.75
23 0.09
-23 0.91
24 0.89
-24 0.10999999999999999
25 0.4
-25 0.6
26 0.86
-26 0.14
27 0.05
-27 0.95
28 0.03
-28 0.97
29 0.34
-29 0.6599999999999999
30 0.52
-30 0.48
31 0.59
-31 0.41000000000000003
32 0.86
-32 0.14
33 0.35
-33 0.65
34 0.05
-34 0.95
35 0.35
-35 0.65
36 0.17
-36 0.83
37 0.71
-37 0.29000000000000004
38 0.93
-38 0.06999999999999995
39 0.16
-39 0.84
40 0.79
-40 0.20999999999999996
41 0.45
-41 0.55
42 0.16
-42 0.84
43 0.7
-43 0.30000000000000004
44 0.54
-44 0.45999999999999996
45 0.45
-45 0.55
46 0.56
-46 0.43999999999999995
47 0.92
-47 0.07999999999999996
48 0.62
-48 0.38
49 0.54
-49 0.45999999999999996
50 0.33
-50 0.6699999999999999
51 0.39
-51 0.61
52 0.07
-52 0.9299999999999999
53 0.65
-53 0.35
54 0.95
-54 0.050000000000000044
55 0.32
-55 0.6799999999999999
56 0.91
-56 0.08999999999999997
57 0.1
-57 0.9
58 0.03
-58 0.97
59 0.84
-59 0.16000000000000003
60 0.75
-60 0.25
61 0.4
-61 0.6
62 0.17
-62 0.83
63 0.63
-63 0.37
64 0.2
-64 0.8
65 0.62
-65 0.38
66 0.22
-66 0.78
67 0.7
-67 0.30000000000000004
68 0.94
-68 0.06000000000000005
69 0.94
-69 0.06000000000000005
70 0.26
-70 0.74
71 0.02
-71 0.98
72 0.25
-72 0.75
73 0.03
-73 0.97
74 0.78
-74 0.21999999999999997
75 0.44
-75 0.56
76 0.01
-76 0.99
77 0.02
-77 0.98
78 0.86
-78 0.14
79 0.63
-79 0.37
80 0.59
-80 0.41000000000000003
81 0.58
-81 0.42000000000000004
82 0.49
-82 0.51
83 0.34
-83 0.6599999999999999
84 0.47
-84 0.53
85 0.11
-85 0.89
86 0.59
-86 0.41000000000000003
87 0.64
-87 0.36
88 0.17
-88 0.83
89 0.36
-89 0.64
90 0.44
-90 0.56
91 0.41
-91 0.5900000000000001
92 0.95
-92 0.050000000000000044
93 0.93
-93 0.06999999999999995
94 0.9
-94 0.09999999999999998
95 0.75
-95 0.25
96 0.67
-96 0.32999999999999996
97 0.33
-97 0.6699999999999999
98 0.62
-98 0.38
99 0.67
-99 0.32999999999999996
100 0.41
-100 0.5900000000000001
