1 0.32
-1 0.6799999999999999
2 0.43
-2 0.5700000000000001
3 0.63
-3 0.37
4 0.18
-4 0.8200000000000001
5 0.3
-5 0.7
6 0.4
-6 0.6
7 0.17
-7 0.83
8 0.63
-8 0.37
9 0.59
-9 0.41000000000000003
10 0.78
-10 0.21999999999999997
11 0.37
-11 0.63
12 0.84
-12 0.16000000000000003
13 0.99
-13 0.010000000000000009
14 0.55
-14 0.44999999999999996
15 0.68
-15 0.31999999999999995
16 0.73
-16 0.27
17 0.2
-17 0.8
18 0.09
-18 0.91
19 0.87
-19 0.13
20 0.68
-20 0.31999999999999995
21 0.47
-21 0.53
22 0.24
-22 0.76
23 0.62
-23 0.38
24 0.61
-24 0.39
25 0.61
-25 0.39
26 0.26
-26 0.74
27 0.45
-27 0.55
28 0.47
-28 0.53
29 0.36
-29 0.64
30 0.33
-30 0.6699999999999999
31 0.01
-31 0.99
32 0.58
-32 0.42000000000000004
33 0.76
-33 0.24
34 0.58
-34 0.42000000000000004
35 0.71
-35 0.29000000000000004
36 0.56
-36 0.43999999999999995
37 0.14
-37 0.86
38 0.13
-38 0.87
39 0.38
-39 0.62
40 0.37
-40 0.63
41 0.71
-41 0.29000000000000004
42 0.9
-42 0.09999999999999998
43 0.58
-43 0.42000000000000004
44 0.13
-44 0.87
45 0.28
-45 0.72
46 0.71
-46 0.29000000000000004
47 0.1
-47 0.9
48 0.83
-48 0.17000000000000004
49 0.36
-49 0.64
50 0.7
-50 0.30000000000000004
51 0.4
-51 0.6
52 0.21
-52 0.79
53 0.62
-53 0.38
54 0.58
-54 0.42000000000000004
55 0.62
-55 0.38
56 0.66
-56 0.33999999999999997
57 0.52
-57 0.48
58 0.81
-58 0.18999999999999995
59 0.6
-59 0.4
60 0.7
-60 0.30000000000000004
61 0.06
-61 0.94
62 0.03
-62 0.97
63 0.66
-63 0.33999999999999997
64 0.2
-64 0.8
65 0.06
-65 0.94
66 0.75
-66 0.25
67 0.93
-67 0.06999999999999995
68 0.22
-68 0.78
69 0.39
-69 0.61
70 0.08
-70 0.92
71 0.26
-71 0.74
72 0.21
-72 0.79
73 0.97
-73 0.030000000000000027
74 0.02
-74 0.98
75 0.41
-75 0.5900000000000001
76 0.73
-76 0.27
77 0.47
-77 0.53
78 0.89
-78 0.10999999999999999
79 0.64
-79 0.36
80 0.85
-80 0.15000000000000002
81 0.88
-81 0.12
82 0.67
-82 0.32999999999999996
83 0.53
-83 0.47
84 0.35
-84 0.65
85 0.43
-85 0.5700000000000001
86 0.97
-86 0.030000000000000027
87 0.42
-87 0.5800000000000001
88 0.44
-88 0.56
89 0.75
-89 0.25
90 0.23
-90 0.77
91 0.82
-91 0.18000000000000005
92 0.69
-92 0.31000000000000005
93 0.1
-93 0.9
94 0.62
-94 0.38
95 0.94
-95 0.06000000000000005
96 0.33
-96 0.6699999999999999
97 0.5
-97 0.5
98 0.17
-98 0.83
99 0.93
-99 0.06999999999999995
100 0.41
-100 0.5900000000000001
