1 0.49
-1 0.51
2 0.04
-2 0.96
3 0.22
-3 0.78
4 0.47
-4 0.53
5 0.48
-5 0.52
6 0.89
-6 0.10999999999999999
7 0.43
-7 0.5700000000000001
8 0.42
-8 0.5800000000000001
9 0.58
-9 0.42000000000000004
10 0.76
-10 0.24
11 0.69
-11 0.31000000000000005
12 0.17
-12 0.83
13 0.6
-13 0.4
14 0.73
-14 0.27
15 0.54
-15 0.45999999999999996
16 0.42
-16 0.5800000000000001
17 0.84
-17 0.16000000000000003
18 0.91
-18 0.08999999999999997
19 0.58
-19 0.42000000000000004
20 0.75
-20 0.25
21 0.63
-21 0.37
22 0.73
-22 0.27
23 0.47
-23 0.53
24 0.63
-24 0.37
25 0.68
-25 0.31999999999999995
26 0.48
-26 0.52
27 0.53
-27 0.47
28 0.39
-28 0.61
29 0.05
-29 0.95
30 0.34
-30 0.6599999999999999
31 0.41
-31 0.5900000000000001
32 0.88
-32 0.12
33 0.26
-33 0.74
34 0.55
-34 0.44999999999999996
35 0.54
-35 0.45999999999999996
36 0.99
-36 0.010000000000000009
37 0.65
-37 0.35
38 0.16
-38 0.84
39 0.34
-39 0.6599999999999999
40 0.87
-40 0.13
41 0.43
-41 0.5700000000000001
42 0.47
-42 0.53
43 0.92
-43 0.07999999999999996
44 0.26
-44 0.74
45 0.54
-45 0.45999999999999996
46 0.94
-46 0.06000000000000005
47 0.86
-47 0.14
48 0.25
-48 0.75
49 0.65
-49 0.35
50 0.72
-50 0.28
51 0.44
-51 0.56
52 0.02
-52 0.98
53 0.89
-53 0.10999999999999999
54 0.53
-54 0.47
55 0.69
-55 0.31000000000000005
56 0.63
-56 0.37
57 0.43
-57 0.5700000000000001
58 0.61
-58 0.39
59 0.49
-59 0.51
60 0.46
-60 0.54
61 0.86
-61 0.14
62 0.43
-62 0.5700000000000001
63 0.16
-63 0.84
64 0.78
-64 0.21999999999999997
65 0.36
-65 0.64
66 0.24
-66 0.76
67 0.7
-67 0.30000000000000004
68 0.84
-68 0.16000000000000003
69 0.21
-69 0.79
70 0.18
-70 0.8200000000000001
71 0.16
-71 0.84
72 0.45
-72 0.55
73 0.29
-73 0.71
74 0.11
-74 0.89
75 0.55
-75 0.44999999999999996
76 0.38
-76 0.62
77 0.15
-77 0.85
78 0.14
-78 0.86
79 0.98
-79 0.020000000000000018
80 0.87
-80 0.13
81 0.44
-81 0.56
82 0.55
-82 0.44999999999999996
83 0.55
-83 0.44999999999999996
84 0.01
-84 0.99
85 0.18
-85 0.8200000000000001
86 0.65
-86 0.35
87 0.01
-87 0.99
88 0.23
-88 0.77
89 0.68
-89 0.31999999999999995
90 0.81
-90 0.18999999999999995
91 0.31
-91 0.69
92 0.98
-92 0.020000000000000018
93 0.27
-93 0.73
94 0.43
-94 0.5700000000000001
95 0.06
-95 0.94
96 0.56
-96 0.43999999999999995
97 0.93
-97 0.06999999999999995
98 0.03
-98 0.97
99 0.69
-99 0.31000000000000005
100 0.36
-100 0.64
