1 0.81
-1 0.18999999999999995
2 0.53
-2 0.47
3 0.84
-3 0.16000000000000003
4 0.43
-4 0.5700000000000001
5 0.52
-5 0.48
6 0.59
-6 0.41000000000000003
7 0.54
-7 0.45999999999999996
8 0.98
-8 0.020000000000000018
9 0.25
-9 0.75
10 0.63
-10 0.37
11 0.63
-11 0.37
12 0.52
-12 0.48
13 0.26
-13 0.74
14 0.14
-14 0.86
15 0.22
-15 0.78
16 0.49
-16 0.51
17 0.74
-17 0.26
18 0.01
-18 0.99
19 0.12
-19 0.88
20 0.17
-20 0.83
21 0.19
-21 0.81
22 0.1
-22 0.9
23 0.56
-23 0.43999999999999995
24 0.56
-24 0.43999999999999995
25 0.83
-25 0.17000000000000004
26 0.77
-26 0.22999999999999998
27 0.51
-27 0.49
28 0.79
-28 0.20999999999999996
29 0.44
-29 0.56
30 0.7
-30 0.30000000000000004
31 0.5
-31 0.5
32 0.04
-32 0.96
33 0.59
-33 0.41000000000000003
34 0.33
-34 0.6699999999999999
35 0.69
-35 0.31000000000000005
36 0.9
-36 0.09999999999999998
37 0.23
-37 0.77
38 0.5
-38 0.5
39 0.73
-39 0.27
40 0.68
-40 0.31999999999999995
41 0.48
-41 0.52
42 0.51
-42 0.49
43 0.29
-43 0.71
44 0.82
-44 0.18000000000000005
45 0.02
-45 0.98
46 0.24
-46 0.76
47 0.6
-47 0.4
48 0.83
-48 0.17000000000000004
49 0.93
-49 0.06999999999999995
50 0.36
-50 0.64
51 0.07
-51 0.9299999999999999
52 0.59
-52 0.41000000000000003
53 0.52
-53 0.48
54 0.21
-54 0.79
55 0.69
-55 0.31000000000000005
56 0.63
-56 0.37
57 0.73
-57 0.27
58 0.45
-58 0.55
59 0.37
-59 0.63
60 0.26
-60 0.74
61 0.09
-61 0.91
62 0.44
-62 0.56
63 0.76
-63 0.24
64 0.46
-64 0.54
65 0.51
-65 0.49
66 0.07
-66 0.9299999999999999
67 0.65
-67 0.35
68 0.22
-68 0.78
69 0.08
-69 0.92
70 0.28
-70 0.72
71 0.28
-71 0.72
72 0.42
-72 0.5800000000000001
73 0.86
-73 0.14
74 0.9
-74 0.09999999999999998
75 0.94
-75 0.06000000000000005
76 0.51
-76 0.49
77 0.82
-77 0.18000000000000005
78 0.06
-78 0.94
79 0.61
-79 0.39
80 0.41
-80 0.5900000000000001
81 0.63
-81 0.37
82 0.16
-82 0.84
83 0.48
-83 0.52
84 0.13
-84 0.87
85 0.21
-85 0.79
86 0.13
-86 0.87
87 0.35
-87 0.65
88 0.41
-88 0.5900000000000001
89 0.53
-89 0.47
90 0.57
-90 0.43000000000000005
91 0.11
-91 0.89
92 0.43
-92 0.5700000000000001
93 0.42
-93 0.5800000000000001
94 0.45
-94 0.55
95 0.48
-95 0.52
96 0.97
-96 0.030000000000000027
97 0.97
-97 0.030000000000000027
98 0.93
-98 0.06999999999999995
99 0.85
-99 0.15000000000000002
100 0.32
-100 0.6799999999999999
