1 0.36
-1 0.64
2 0.29
-2 0.71
3 0.12
-3 0.88
4 0.22
-4 0.78
5 0.96
-5 0.040000000000000036
6 0.12
-6 0.88
7 0.92
-7 0.07999999999999996
8 0.2
-8 0.8
9 0.42
-9 0.5800000000000001
10 0.09
-10 0.91
11 0.54
-11 0.45999999999999996
12 0.07
-12 0.9299999999999999
13 0.38
-13 0.62
14 0.18
-14 0.8200000000000001
15 0.71
-15 0.29000000000000004
16 0.19
-16 0.81
17 0.56
-17 0.43999999999999995
18 0.73
-18 0.27
19 0.83
-19 0.17000000000000004
20 0.96
-20 0.040000000000000036
21 0.96
-21 0.040000000000000036
22 0.96
-22 0.040000000000000036
23 0.34
-23 0.6599999999999999
24 0.75
-24 0.25
25 0.66
-25 0.33999999999999997
26 0.94
-26 0.06000000000000005
27 0.29
-27 0.71
28 0.6
-28 0.4
29 0.7
-29 0.30000000000000004
30 0.75
-30 0.25
31 0.5
-31 0.5
32 0.94
-32 0.06000000000000005
33 0.73
-33 0.27
34 0.16
-34 0.84
35 0.82
-35 0.18000000000000005
36 0.71
-36 0.29000000000000004
37 0.87
-37 0.13
38 0.67
-38 0.32999999999999996
39 0.37
-39 0.63
40 0.45
-40 0.55
41 0.18
-41 0.8200000000000001
42 0.01
-42 0.99
43 0.15
-43 0.85
44 0.23
-44 0.77
45 0.5
-45 0.5
46 0.64
-46 0.36
47 0.76
-47 0.24
48 0.05
-48 0.95
49 0.19
-49 0.81
50 0.36
-50 0.64
51 0.05
-51 0.95
52 0.4
-52 0.6
53 0.43
-53 0.5700000000000001
54 0.95
-54 0.050000000000000044
55 0.4
-55 0.6
56 0.72
-56 0.28
57 0.73
-57 0.27
58 0.86
-58 0.14
59 0.33
-59 0.6699999999999999
60 0.96
-60 0.040000000000000036
61 0.93
-61 0.06999999999999995
62 0.02
-62 0.98
63 0.55
-63 0.44999999999999996
64 0.22
-64 0.78
65 0.38
-65 0.62
66 0.96
-66 0.040000000000000036
67 0.91
-67 0.08999999999999997
68 0.31
-68 0.69
69 0.65
-69 0.35
70 0.26
-70 0.74
71 0.3
-71 0.7
72 0.01
-72 0.99
73 0.75
-73 0.25
74 0.03
-74 0.97
75 0.73
-75 0.27
76 0.33
-76 0.6699999999999999
77 0.41
-77 0.5900000000000001
78 0.61
-78 0.39
79 0.95
-79 0.050000000000000044
80 0.9
-80 0.09999999999999998
81 0.5
-81 0.5
82 0.45
-82 0.55
83 0.39
-83 0.61
84 0.02
-84 0.98
85 0.62
-85 0.38
86 0.42
-86 0.5800000000000001
87 0.43
-87 0.5700000000000001
88 0.96
-88 0.040000000000000036
89 0.83
-89 0.17000000000000004
90 0.79
-90 0.20999999999999996
91 0.16
-91 0.84
92 0.78
-92 0.21999999999999997
93 0.85
-93 0.15000000000000002
94 0.61
-94 0.39
95 0.37
-95 0.63
96 0.17
-96 0.83
97 0.7
-97 0.30000000000000004
98 0.3
-98 0.7
99 0.14
-99 0.86
100 0.19
-100 0.81
