1 0.63
-1 0.37
2 0.01
-2 0.99
3 0.26
-3 0.74
4 0.68
-4 0.31999999999999995
5 0.89
-5 0.10999999999999999
6 0.91
-6 0.08999999999999997
7 0.72
-7 0.28
8 0.44
-8 0.56
9 0.82
-9 0.18000000000000005
10 0.21
-10 0.79
11 0.91
-11 0.08999999999999997
12 0.91
-12 0.08999999999999997
13 0.69
-13 0.31000000000000005
14 0.27
-14 0.73
15 0.84
-15 0.16000000000000003
16 0.06
-16 0.94
17 0.04
-17 0.96
18 0.24
-18 0.76
19 0.49
-19 0.51
20 0.41
-20 0.5900000000000001
21 0.05
-21 0.95
22 0.32
-22 0.6799999999999999
23 0.91
-23 0.08999999999999997
24 0.61
-24 0.39
25 0.1
-25 0.9
26 0.31
-26 0.69
27 0.65
-27 0.35
28 0.2
-28 0.8
29 0.72
-29 0.28
30 0.3
-30 0.7
31 0.95
-31 0.050000000000000044
32 0.98
-32 0.020000000000000018
33 0.47
-33 0.53
34 0.15
-34 0.85
35 0.43
-35 0.5700000000000001
36 0.27
-36 0.73
37 0.94
-37 0.06000000000000005
38 0.75
-38 0.25
39 0.72
-39 0.28
40 0.98
-40 0.020000000000000018
41 0.28
-41 0.72
42 0.19
-42 0.81
43 0.01
-43 0.99
44 0.74
-44 0.26
45 0.32
-45 0.6799999999999999
46 0.98
-46 0.020000000000000018
47 0.6
-47 0.4
48 0.53
-48 0.47
49 0.11
-49 0.89
50 0.7
-50 0.30000000000000004
51 0.26
-51 0.74
52 0.06
-52 0.94
53 0.91
-53 0.08999999999999997
54 0.45
-54 0.55
55 0.66
-55 0.33999999999999997
56 0.13
-56 0.87
57 0.17
-57 0.83
58 0.04
-58 0.96
59 0.14
-59 0.86
60 0.53
-60 0.47
61 0.11
-61 0.89
62 0.96
-62 0.040000000000000036
63 0.39
-63 0.61
64 0.24
-64 0.76
65 0.89
-65 0.10999999999999999
66 0.83
-66 0.17000000000000004
67 0.03
-67 0.97
68 0.05
-68 0.95
69 0.92
-69 0.07999999999999996
70 0.3
-70 0.7
71 0.66
-71 0.33999999999999997
72 0.18
-72 0.8200000000000001
73 0.21
-73 0.79
74 0.69
-74 0.31000000000000005
75 0.06
-75 0.94
76 0.79
-76 0.20999999999999996
77 0.95
-77 0.050000000000000044
78 0.95
-78 0.050000000000000044
79 0.12
-79 0.88
80 0.94
-80 0.06000000000000005
81 0.57
-81 0.43000000000000005
82 0.84
-82 0.16000000000000003
83 0.2
-83 0.8
84 0.73
-84 0.27
85 0.04
-85 0.96
86 0.29
-86 0.71
87 0.36
-87 0.64
88 0.81
-88 0.18999999999999995
89 0.27
-89 0.73
90 0.06
-90 0.94
91 0.87
-91 0.13
92 0.67
-92 0.32999999999999996
93 0.77
-93 0.22999999999999998
94 0.34
-94 0.6599999999999999
95 0.14
-95 0.86
96 0.47
-96 0.53
97 0.02
-97 0.98
98 0.37
-98 0.63
99 0.46
-99 0.54
100 0.02
-100 0.98
