1 0.08
-1 0.92
2 0.07
-2 0.9299999999999999
3 0.26
-3 0.74
4 0.11
-4 0.89
5 0.35
-5 0.65
6 0.16
-6 0.84
7 0.13
-7 0.87
8 0.4
-8 0.6
9 0.62
-9 0.38
10 0.07
-10 0.9299999999999999
11 0.7
-11 0.30000000000000004
12 0.15
-12 0.85
13 0.24
-13 0.76
14 0.42
-14 0.5800000000000001
15 0.4
-15 0.6
16 0.09
-16 0.91
17 0.75
-17 0.25
18 0.67
-18 0.32999999999999996
19 0.33
-19 0.6699999999999999
20 0.73
-20 0.27
21 0.41
-21 0.5900000000000001
22 0.59
-22 0.41000000000000003
23 0.44
-23 0.56
24 0.05
-24 0.95
25 0.77
-25 0.22999999999999998
26 0.17
-26 0.83
27 0.19
-27 0.81
28 0.09
-28 0.91
29 0.48
-29 0.52
30 0.33
-30 0.6699999999999999
31 0.67
-31 0.32999999999999996
32 0.07
-32 0.9299999999999999
33 0.59
-33 0.41000000000000003
34 0.16
-34 0.84
35 0.44
-35 0.56
36 0.57
-36 0.43000000000000005
37 0.37
-37 0.63
38 0.37
-38 0.63
39 0.17
-39 0.83
40 0.12
-40 0.88
41 0.71
-41 0.29000000000000004
42 0.16
-42 0.84
43 0.31
-43 0.69
44 0.46
-44 0.54
45 0.21
-45 0.79
46 0.22
-46 0.78
47 0.75
-47 0.25
48 0.47
-48 0.53
49 0.08
-49 0.92
50 0.85
-50 0.15000000000000002
51 0.74
-51 0.26
52 0.99
-52 0.010000000000000009
53 0.64
-53 0.36
54 0.12
-54 0.88
55 0.88
-55 0.12
56 0.4
-56 0.6
57 0.59
-57 0.41000000000000003
58 0.52
-58 0.48
59 0.31
-59 0.69
60 0.36
-60 0.64
61 0.12
-61 0.88
62 0.19
-62 0.81
63 0.68
-63 0.31999999999999995
64 0.51
-64 0.49
65 0.99
-65 0.010000000000000009
66 0.85
-66 0.15000000000000002
67 0.44
-67 0.56
68 0.53
-68 0.47
69 0.64
-69 0.36
70 0.62
-70 0.38
71 0.38
-71 0.62
72 0.88
-72 0.12
73 0.42
-73 0.5800000000000001
74 0.81
-74 0.18999999999999995
75 0.26
-75 0.74
76 0.38
-76 0.62
77 0.86
-77 0.14
78 0.6
-78 0.4
79 0.39
-79 0.61
80 0.22
-80 0.78
81 0.18
-81 0.8200000000000001
82 0.17
-82 0.83
83 0.49
-83 0.51
84 0.11
-84 0.89
85 0.72
-85 0.28
86 0.89
-86 0.10999999999999999
87 0.3
-87 0.7
88 0.52
-88 0.48
89 0.46
-89 0.54
90 0.73
-90 0.27
91 0.51
-91 0.49
92 0.24
-92 0.76
93 0.56
-93 0.43999999999999995
94 0.17
-94 0.83
95 0.33
-95 0.6699999999999999
96 0.87
-96 0.13
97 0.36
-97 0.64
98 0.53
-98 0.47
99 0.29
-99 0.71
100 0.6
-100 0.4
