1 0.53
-1 0.47
2 0.23
-2 0.77
3 0.97
-3 0.030000000000000027
4 0.8
-4 0.19999999999999996
5 0.99
-5 0.010000000000000009
6 0.2
-6 0.8
7 0.29
-7 0.71
8 0.89
-8 0.10999999999999999
9 0.57
-9 0.43000000000000005
10 0.57
-10 0.43000000000000005
11 0.54
-11 0.45999999999999996
12 0.69
-12 0.31000000000000005
13 0.17
-13 0.83
14 0.87
-14 0.13
15 0.77
-15 0.22999999999999998
16 0.75
-16 0.25
17 0.03
-17 0.97
18 0.33
-18 0.6699999999999999
19 0.58
-19 0.42000000000000004
20 0.73
-20 0.27
21 0.95
-21 0.050000000000000044
22 0.61
-22 0.39
23 0.11
-23 0.89
24 0.68
-24 0.31999999999999995
25 0.81
-25 0.18999999999999995
26 0.58
-26 0.42000000000000004
27 0.57
-27 0.43000000000000005
28 0.24
-28 0.76
29 0.23
-29 0.77
30 0.5
-30 0.5
31 0.56
-31 0.43999999999999995
32 0.62
-32 0.38
33 0.99
-33 0.010000000000000009
34 0.12
-34 0.88
35 0.87
-35 0.13
36 0.06
-36 0.94
37 0.49
-37 0.51
38 0.48
-38 0.52
39 0.96
-39 0.040000000000000036
40 0.7
-40 0.30000000000000004
41 0.02
-41 0.98
42 0.55
-42 0.44999999999999996
43 0.54
-43 0.45999999999999996
44 0.23
-44 0.77
45 0.87
-45 0.13
46 0.24
-46 0.76
47 0.87
-47 0.13
48 0.32
-48 0.6799999999999999
49 0.36
-49 0.64
50 0.24
-50 0.76
51 0.44
-51 0.56
52 0.49
-52 0.51
53 0.07
-53 0.9299999999999999
54 0.31
-54 0.69
55 0.13
-55 0.87
56 0.41
-56 0.5900000000000001
57 0.86
-57 0.14
58 0.48
-58 0.52
59 0.91
-59 0.08999999999999997
60 0.03
-60 0.97
61 0.16
-61 0.84
62 0.86
-62 0.14
63 0.45
-63 0.55
64 0.66
-64 0.33999999999999997
65 0.45
-65 0.55
66 0.7
-66 0.30000000000000004
67 0.26
-67 0.74
68 0.66
-68 0.33999999999999997
69 0.75
-69 0.25
70 0.24
-70 0.76
71 0.43
-71 0.5700000000000001
72 0.72
-72 0.28
73 0.68
-73 0.31999999999999995
74 0.6
-74 0.4
75 0.77
-75 0.22999999999999998
76 0.5
-76 0.5
77 0.5
-77 0.5
78 0.95
-78 0.050000000000000044
79 0.59
-79 0.41000000000000003
80 0.04
-80 0.96
81 0.25
-81 0.75
82 0.77
-82 0.22999999999999998
83 0.2
-83 0.8
84 0.95
-84 0.050000000000000044
85 0.71
-85 0.29000000000000004
86 0.27
-86 0.73
87 0.21
-87 0.79
88 0.18
-88 0.8200000000000001
89 0.83
-89 0.17000000000000004
90 0.64
-90 0.36
91 0.75
-91 0.25
92 0.21
-92 0.79
93 0.98
-93 0.020000000000000018
94 0.99
-94 0.010000000000000009
95 0.62
-95 0.38
96 0.16
-96 0.84
97 0.54
-97 0.45999999999999996
98 0.14
-98 0.86
99 0.07
-99 0.9299999999999999
100 0.95
-100 0.050000000000000044
