1 0.76
-1 0.24
2 0.08
-2 0.92
3 0.4
-3 0.6
4 0.26
-4 0.74
5 0.41
-5 0.5900000000000001
6 0.5
-6 0.5
7 0.15
-7 0.85
8 0.54
-8 0.45999999999999996
9 0.15
-9 0.85
10 0.12
-10 0.88
11 0.83
-11 0.17000000000000004
12 0.35
-12 0.65
13 0.04
-13 0.96
14 0.17
-14 0.83
15 0.66
-15 0.33999999999999997
16 0.75
-16 0.25
17 0.3
-17 0.7
18 0.96
-18 0.040000000000000036
19 0.97
-19 0.030000000000000027
20 0.32
-20 0.6799999999999999
21 0.09
-21 0.91
22 0.23
-22 0.77
23 0.59
-23 0.41000000000000003
24 0.05
-24 0.95
25 0.36
-25 0.64
26 0.83
-26 0.17000000000000004
27 0.09
-27 0.91
28 0.82
-28 0.18000000000000005
29 0.33
-29 0.6699999999999999
30 0.16
-30 0.84
31 0.95
-31 0.050000000000000044
32 0.4
-32 0.6
33 0.25
-33 0.75
34 0.21
-34 0.79
35 0.93
-35 0.06999999999999995
36 0.2
-36 0.8
37 0.42
-37 0.5800000000000001
38 0.39
-38 0.61
39 0.01
-39 0.99
40 0.47
-40 0.53
41 0.16
-41 0.84
42 0.92
-42 0.07999999999999996
43 0.59
-43 0.41000000000000003
44 0.93
-44 0.06999999999999995
45 0.98
-45 0.020000000000000018
46 0.76
-46 0.24
47 0.52
-47 0.48
48 0.72
-48 0.28
49 0.29
-49 0.71
50 0.15
-50 0.85
51 0.89
-51 0.10999999999999999
52 0.67
-52 0.32999999999999996
53 0.85
-53 0.15000000000000002
54 0.34
-54 0.6599999999999999
55 0.47
-55 0.53
56 0.14
-56 0.86
57 0.66
-57 0.33999999999999997
58 0.85
-58 0.15000000000000002
59 0.61
-59 0.39
60 0.14
-60 0.86
61 0.42
-61 0.5800000000000001
62 0.64
-62 0.36
63 0.14
-63 0.86
64 0.67
-64 0.32999999999999996
65 0.84
-65 0.16000000000000003
66 0.75
-66 0.25
67 0.85
-67 0.15000000000000002
68 0.21
-68 0.79
69 0.18
-69 0.8200000000000001
70 0.7
-70 0.30000000000000004
71 0.75
-71 0.25
72 0.37
-72 0.63
73 0.81
-73 0.18999999999999995
74 0.33
-74 0.6699999999999999
75 0.47
-75 0.53
76 0.48
-76 0.52
77 0.7
-77 0.30000000000000004
78 0.3
-78 0.7
79 0.41
-79 0.5900000000000001
80 0.93
-80 0.06999999999999995
81 0.19
-81 0.81
82 0.52
-82 0.48
83 0.29
-83 0.71
84 0.4
-84 0.6
85 0.2
-85 0.8
86 0.98
-86 0.020000000000000018
87 0.88
-87 0.12
88 0.85
-88 0.15000000000000002
89 0.42
-89 0.5800000000000001
90 0.36
-90 0.64
91 0.03
-91 0.97
92 0.21
-92 0.79
93 0.72
-93 0.28
94 0.94
-94 0.06000000000000005
95 0.14
-95 0.86
96 0.82
-96 0.18000000000000005
97 0.54
-97 0.45999999999999996
98 0.46
-98 0.54
99 0.36
-99 0.64
100 0.85
-100 0.15000000000000002
