1 0.7
-1 0.30000000000000004
2 0.96
-2 0.040000000000000036
3 0.89
-3 0.10999999999999999
4 0.73
-4 0.27
5 0.09
-5 0.91
6 0.31
-6 0.69
7 0.19
-7 0.81
8 0.89
-8 0.10999999999999999
9 0.01
-9 0.99
10 0.44
-10 0.56
11 0.48
-11 0.52
12 0.35
-12 0.65
13 0.7
-13 0.30000000000000004
14 0.97
-14 0.030000000000000027
15 0.75
-15 0.25
16 0.33
-16 0.6699999999999999
17 0.82
-17 0.18000000000000005
18 0.22
-18 0.78
19 0.17
-19 0.83
20 0.69
-20 0.31000000000000005
21 0.15
-21 0.85
22 0.55
-22 0.44999999999999996
23 0.83
-23 0.17000000000000004
24 0.65
-24 0.35
25 0.88
-25 0.12
26 0.31
-26 0.69
27 0.12
-27 0.88
28 0.28
-28 0.72
29 0.34
-29 0.6599999999999999
30 0.13
-30 0.87
31 0.39
-31 0.61
32 0.31
-32 0.69
33 0.7
-33 0.30000000000000004
34 0.45
-34 0.55
35 0.17
-35 0.83
36 0.91
-36 0.08999999999999997
37 0.56
-37 0.43999999999999995
38 0.12
-38 0.88
39 0.12
-39 0.88
40 0.05
-40 0.95
41 0.27
-41 0.73
42 0.11
-42 0.89
43 0.49
-43 0.51
44 0.65
-44 0.35
45 0.29
-45 0.71
46 0.78
-46 0.21999999999999997
47 0.37
-47 0.63
48 0.86
-48 0.14
49 0.72
-49 0.28
50 0.87
-50 0.13
51 0.23
-51 0.77
52 0.22
-52 0.78
53 0.95
-53 0.050000000000000044
54 0.63
-54 0.37
55 0.33
-55 0.6699999999999999
56 0.68
-56 0.31999999999999995
57 0.95
-57 0.050000000000000044
58 0.88
-58 0.12
59 0.48
-59 0.52
60 0.78
-60 0.21999999999999997
61 0.83
-61 0.17000000000000004
62 0.22
-62 0.78
63 0.91
-63 0.08999999999999997
64 0.59
-64 0.41000000000000003
65 0.22
-65 0.78
66 0.9
-66 0.09999999999999998
67 0.71
-67 0.29000000000000004
68 0.19
-68 0.81
69 0.46
-69 0.54
70 0.06
-70 0.94
71 0.9
-71 0.09999999999999998
72 0.79
-72 0.20999999999999996
73 0.67
-73 0.32999999999999996
74 0.91
-74 0.08999999999999997
75 0.18
-75 0.8200000000000001
76 0.65
-76 0.35
77 0.59
-77 0.41000000000000003
78 0.71
-78 0.29000000000000004
79 0.67
-79 0.32999999999999996
80 0.14
-80 0.86
81 0.2
-81 0.8
82 0.27
-82 0.73
83 0.91
-83 0.08999999999999997
84 0.95
-84 0.050000000000000044
85 0.55
-85 0.44999999999999996
86 0.22
-86 0.78
87 0.93
-87 0.06999999999999995
88 0.22
-88 0.78
89 0.95
-89 0.050000000000000044
90 0.84
-90 0.16000000000000003
91 0.79
-91 0.20999999999999996
92 0.78
-92 0.21999999999999997
93 0.95
-93 0.050000000000000044
94 0.4
-94 0.6
95 0.79
-95 0.20999999999999996
96 0.66
-96 0.33999999999999997
97 0.78
-97 0.21999999999999997
98 0.69
-98 0.31000000000000005
99 0.92
-99 0.07999999999999996
100 0.14
-100 0.86
