1 0.35
-1 0.65
2 0.64
-2 0.36
3 0.85
-3 0.15000000000000002
4 0.54
-4 0.45999999999999996
5 0.87
-5 0.13
6 0.57
-6 0.43000000000000005
7 0.63
-7 0.37
8 0.98
-8 0.020000000000000018
9 0.25
-9 0.75
10 0.2
-10 0.8
11 0.23
-11 0.77
12 0.5
-12 0.5
13 0.71
-13 0.29000000000000004
14 0.64
-14 0.36
15 0.96
-15 0.040000000000000036
16 0.25
-16 0.75
17 0.03
-17 0.97
18 0.73
-18 0.27
19 0.61
-19 0.39
20 0.36
-20 0.64
21 0.39
-21 0.61
22 0.84
-22 0.16000000000000003
23 0.07
-23 0.9299999999999999
24 0.16
-24 0.84
25 0.01
-25 0.99
26 0.61
-26 0.39
27 0.99
-27 0.010000000000000009
28 0.58
-28 0.42000000000000004
29 0.48
-29 0.52
30 0.64
-30 0.36
31 0.39
-31 0.61
32 0.85
-32 0.15000000000000002
33 0.64
-33 0.36
34 0.91
-34 0.08999999999999997
35 0.63
-35 0.37
36 0.56
-36 0.43999999999999995
37 0.2
-37 0.8
38 0.12
-38 0.88
39 0.42
-39 0.5800000000000001
40 0.17
-40 0.83
41 0.12
-41 0.88
42 0.46
-42 0.54
43 0.63
-43 0.37
44 0.91
-44 0.08999999999999997
45 0.11
-45 0.89
46 0.79
-46 0.20999999999999996
47 0.87
-47 0.13
48 0.2
-48 0.8
49 0.98
-49 0.020000000000000018
50 0.75
-50 0.25
51 0.69
-51 0.31000000000000005
52 0.39
-52 0.61
53 0.15
-53 0.85
54 0.64
-54 0.36
55 0.7
-55 0.30000000000000004
56 0.65
-56 0.35
57 0.97
-57 0.030000000000000027
58 0.82
-58 0.18000000000000005
59 0.01
-59 0.99
60 0.91
-60 0.08999999999999997
61 0.54
-61 0.45999999999999996
62 0.81
-62 0.18999999999999995
63 0.98
-63 0.020000000000000018
64 0.36
-64 0.64
65 0.89
-65 0.10999999999999999
66 0.81
-66 0.18999999999999995
67 0.68
-67 0.31999999999999995
68 0.08
-68 0.92
69 0.99
-69 0.010000000000000009
70 0.97
-70 0.030000000000000027
71 0.59
-71 0.41000000000000003
72 0.98
-72 0.020000000000000018
73 0.46
-73 0.54
74 0.8
-74 0.19999999999999996
75 0.88
-75 0.12
76 0.93
-76 0.06999999999999995
77 0.88
-77 0.12
78 0.39
-78 0.61
79 0.21
-79 0.79
80 0.76
-80 0.24
81 0.66
-81 0.33999999999999997
82 0.81
-82 0.18999999999999995
83 0.1
-83 0.9
84 0.39
-84 0.61
85 0.73
-85 0.27
86 0.26
-86 0.74
87 0.89
-87 0.10999999999999999
88 0.43
-88 0.5700000000000001
89 0.3
-89 0.7
90 0.74
-90 0.26
91 0.77
-91 0.22999999999999998
92 0.84
-92 0.16000000000000003
93 0.38
-93 0.62
94 0.36
-94 0.64
95 0.58
-95 0.42000000000000004
96 0.3
-96 0.7
97 0.53
-97 0.47
98 0.66
-98 0.33999999999999997
99 0.64
-99 0.36
100 0.83
-100 0.17000000000000004
