1 0.6
-1 0.4
2 0.65
-2 0.35
3 0.59
-3 0.41000000000000003
4 0.31
-4 0.69
5 0.87
-5 0.13
6 0.38
-6 0.62
7 0.9
-7 0.09999999999999998
8 0.95
-8 0.050000000000000044
9 0.99
-9 0.010000000000000009
10 0.47
-10 0.53
11 0.73
-11 0.27
12 0.87
-12 0.13
13 0.87
-13 0.13
14 0.79
-14 0.20999999999999996
15 0.17
-15 0.83
16 0.07
-16 0.9299999999999999
17 0.66
-17 0.33999999999999997
18 0.1
-18 0.9
19 0.08
-19 0.92
20 0.32
-20 0.6799999999999999
21 0.75
-21 0.25
22 0.52
-22 0.48
23 0.58
-23 0.42000000000000004
24 0.42
-24 0.5800000000000001
25 0.25
-25 0.75
26 0.57
-26 0.43000000000000005
27 0.57
-27 0.43000000000000005
28 0.53
-28 0.47
29 0.89
-29 0.10999999999999999
30 0.53
-30 0.47
31 0.85
-31 0.15000000000000002
32 0.29
-32 0.71
33 0.71
-33 0.29000000000000004
34 0.1
-34 0.9
35 0.22
-35 0.78
36 0.98
-36 0.020000000000000018
37 0.69
-37 0.31000000000000005
38 0.71
-38 0.29000000000000004
39 0.2
-39 0.8
40 0.33
-40 0.6699999999999999
41 0.41
-41 0.5900000000000001
42 0.34
-42 0.6599999999999999
43 0.03
-43 0.97
44 0.52
-44 0.48
45 0.78
-45 0.21999999999999997
46 0.25
-46 0.75
47 0.13
-47 0.87
48 0.54
-48 0.45999999999999996
49 0.59
-49 0.41000000000000003
50 0.52
-50 0.48
51 0.47
-51 0.53
52 0.71
-52 0.29000000000000004
53 0.99
-53 0.010000000000000009
54 0.64
-54 0.36
55 0.84
-55 0.16000000000000003
56 0.16
-56 0.84
57 0.97
-57 0.030000000000000027
58 0.09
-58 0.91
59 0.33
-59 0.6699999999999999
60 0.9
-60 0.09999999999999998
61 0.71
-61 0.29000000000000004
62 0.01
-62 0.99
63 0.88
-63 0.12
64 0.36
-64 0.64
65 0.83
-65 0.17000000000000004
66 0.02
-66 0.98
67 0.97
-67 0.030000000000000027
68 0.56
-68 0.43999999999999995
69 0.5
-69 0.5
70 0.93
-70 0.06999999999999995
71 0.6
-71 0.4
72 0.43
-72 0.5700000000000001
73 0.44
-73 0.56
74 0.17
-74 0.83
75 0.02
-75 0.98
76 0.76
-76 0.24
77 0.17
-77 0.83
78 0.42
-78 0.5800000000000001
79 0.85
-79 0.15000000000000002
80 0.79
-80 0.20999999999999996
81 0.53
-81 0.47
82 0.83
-82 0.17000000000000004
83 0.36
-83 0.64
84 0.94
-84 0.06000000000000005
85 0.83
-85 0.17000000000000004
86 0.55
-86 0.44999999999999996
87 0.09
-87 0.91
88 0.71
-88 0.29000000000000004
89 0.2
-89 0.8
90 0.16
-90 0.84
91 0.44
-91 0.56
92 0.35
-92 0.65
93 0.13
-93 0.87
94 0.03
-94 0.97
95 0.83
-95 0.17000000000000004
96 0.77
-96 0.22999999999999998
97 0.05
-97 0.95
98 0.57
-98 0.43000000000000005
99 0.65
-99 0.35
100 0.44
-100 0.56
