1 0.72
-1 0.28
2 0.72
-2 0.28
3 0.53
-3 0.47
4 0.68
-4 0.31999999999999995
5 0.72
-5 0.28
6 0.69
-6 0.31000000000000005
7 0.48
-7 0.52
8 0.69
-8 0.31000000000000005
9 0.17
-9 0.83
10 0.44
-10 0.56
11 0.29
-11 0.71
12 0.55
-12 0.44999999999999996
13 0.76
-13 0.24
14 0.87
-14 0.13
15 0.46
-15 0.54
16 0.88
-16 0.12
17 0.75
-17 0.25
18 0.15
-18 0.85
19 0.33
-19 0.6699999999999999
20 0.56
-20 0.43999999999999995
21 0.05
-21 0.95
22 0.46
-22 0.54
23 0.76
-23 0.24
24 0.26
-24 0.74
25 0.06
-25 0.94
26 0.3
-26 0.7
27 0.44
-27 0.56
28 0.95
-28 0.050000000000000044
29 0.32
-29 0.6799999999999999
30 0.1
-30 0.9
31 0.72
-31 0.28
32 0.01
-32 0.99
33 0.3
-33 0.7
34 0.55
-34 0.44999999999999996
35 0.89
-35 0.10999999999999999
36 0.1
-36 0.9
37 0.71
-37 0.29000000000000004
38 0.3
-38 0.7
39 0.76
-39 0.24
40 0.42
-40 0.5800000000000001
41 0.43
-41 0.5700000000000001
42 0.46
-42 0.54
43 0.04
-43 0.96
44 0.11
-44 0.89
45 0.09
-45 0.91
46 0.9
-46 0.09999999999999998
47 0.23
-47 0.77
48 0.94
-48 0.06000000000000005
49 0.25
-49 0.75
50 0.05
-50 0.95
51 0.13
-51 0.87
52 0.98
-52 0.020000000000000018
53 0.29
-53 0.71
54 0.42
-54 0.5800000000000001
55 0.25
-55 0.75
56 0.13
-56 0.87
57 0.52
-57 0.48
58 0.33
-58 0.6699999999999999
59 0.54
-59 0.45999999999999996
60 0.23
-60 0.77
61 0.13
-61 0.87
62 0.47
-62 0.53
63 0.66
-63 0.33999999999999997
64 0.36
-64 0.64
65 0.01
-65 0.99
66 0.4
-66 0.6
67 0.83
-67 0.17000000000000004
68 0.37
-68 0.63
69 0.23
-69 0.77
70 0.87
-70 0.13
71 0.53
-71 0.47
72 0.77
-72 0.22999999999999998
73 0.84
-73 0.16000000000000003
74 0.08
-74 0.92
75 0.08
-75 0.92
76 0.74
-76 0.26
77 0.19
-77 0.81
78 0.51
-78 0.49
79 0.38
-79 0.62
80 0.32
-80 0.6799999999999999
81 0.99
-81 0.010000000000000009
82 0.25
-82 0.75
83 0.36
-83 0.64
84 0.06
-84 0.94
85 0.6
-85 0.4
86 0.8
-86 0.19999999999999996
87 0.25
-87 0.75
88 0.11
-88 0.89
89 0.52
-89 0.48
90 0.39
-90 0.61
91 0.85
-91 0.15000000000000002
92 0.98
-92 0.020000000000000018
93 0.98
-93 0.020000000000000018
94 0.46
-94 0.54
95 0.5
-95 0.5
96 0.52
-96 0.48
97 0.23
-97 0.77
98 0.23
-98 0.77
99 0.17
-99 0.83
100 0.4
-100 0.6
