1 0.49
-1 0.51
2 0.94
-2 0.06000000000000005
3 0.11
-3 0.89
4 0.02
-4 0.98
5 0.58
-5 0.42000000000000004
6 0.55
-6 0.44999999999999996
7 0.24
-7 0.76
8 0.33
-8 0.6699999999999999
9 0.34
-9 0.6599999999999999
10 0.68
-10 0.31999999999999995
11 0.31
-11 0.69
12 0.22
-12 0.78
13 0.4
-13 0.6
14 0.28
-14 0.72
15 0.67
-15 0.32999999999999996
16 0.97
-16 0.030000000000000027
17 0.29
-17 0.71
18 0.48
-18 0.52
19 0.91
-19 0.08999999999999997
20 0.9
-20 0.09999999999999998
21 0.38
-21 0.62
22 0.46
-22 0.54
23 0.57
-23 0.43000000000000005
24 0.83
-24 0.17000000000000004
25 0.98
-25 0.020000000000000018
26 0.84
-26 0.16000000000000003
27 0.3
-27 0.7
28 0.34
-28 0.6599999999999999
29 0.22
-29 0.78
30 0.35
-30 0.65
31 0.55
-31 0.44999999999999996
32 0.75
-32 0.25
33 0.69
-33 0.31000000000000005
34 0.5
-34 0.5
35 0.19
-35 0.81
36 0.93
-36 0.06999999999999995
37 0.27
-37 0.73
38 0.28
-38 0.72
39 0.3
-39 0.7
40 0.56
-40 0.43999999999999995
41 0.65
-41 0.35
42 0.1
-42 0.9
43 0.83
-43 0.17000000000000004
44 0.72
-44 0.28
45 0.15
-45 0.85
46 0.28
-46 0.72
47 0.29
-47 0.71
48 0.18
-48 0.8200000000000001
49 0.06
-49 0.94
50 0.94
-50 0.06000000000000005
51 0.64
-51 0.36
52 0.33
-52 0.6699999999999999
53 0.95
-53 0.050000000000000044
54 0.78
-54 0.21999999999999997
55 0.32
-55 0.6799999999999999
56 0.26
-56 0.74
57 0.87
-57 0.13
58 0.6
-58 0.4
59 0.33
-59 0.6699999999999999
60 0.79
-60 0.20999999999999996
61 0.14
-61 0.86
62 0.52
-62 0.48
63 0.22
-63 0.78
64 0.71
-64 0.29000000000000004
65 0.58
-65 0.42000000000000004
66 0.24
-66 0.76
67 0.11
-67 0.89
68 0.84
-68 0.16000000000000003
69 0.4
-69 0.6
70 0.19
-70 0.81
71 0.57
-71 0.43000000000000005
72 0.15
-72 0.85
73 0.87
-73 0.13
74 0.16
-74 0.84
75 0.43
-75 0.5700000000000001
76 0.3
-76 0.7
77 0.83
-77 0.17000000000000004
78 0.15
-78 0.85
79 0.81
-79 0.18999999999999995
80 0.92
-80 0.07999999999999996
81 0.27
-81 0.73
82 0.96
-82 0.040000000000000036
83 0.99
-83 0.010000000000000009
84 0.75
-84 0.25
85 0.2
-85 0.8
86 0.28
-86 0.72
87 0.33
-87 0.6699999999999999
88 0.55
-88 0.44999999999999996
89 0.61
-89 0.39
90 0.64
-90 0.36
91 0.02
-91 0.98
92 0.15
-92 0.85
93 0.01
-93 0.99
94 0.19
-94 0.81
95 0.41
-95 0.5900000000000001
96 0.06
-96 0.94
97 0.58
-97 0.42000000000000004
98 0.69
-98 0.31000000000000005
99 0.14
-99 0.86
100 0.87
-100 0.13
