1 0.67
-1 0.32999999999999996
2 0.41
-2 0.5900000000000001
3 0.3
-3 0.7
4 0.71
-4 0.29000000000000004
5 0.37
-5 0.63
6 0.32
-6 0.6799999999999999
7 0.72
-7 0.28
8 0.9
-8 0.09999999999999998
9 0.22
-9 0.78
10 0.76
-10 0.24
11 0.28
-11 0.72
12 0.97
-12 0.030000000000000027
13 0.95
-13 0.050000000000000044
14 0.91
-14 0.08999999999999997
15 0.33
-15 0.6699999999999999
16 0.55
-16 0.44999999999999996
17 0.04
-17 0.96
18 0.89
-18 0.10999999999999999
19 0.72
-19 0.28
20 0.11
-20 0.89
21 0.7
-21 0.30000000000000004
22 0.73
-22 0.27
23 0.39
-23 0.61
24 0.8
-24 0.19999999999999996
25 0.7
-25 0.30000000000000004
26 0.16
-26 0.84
27 0.59
-27 0.41000000000000003
28 0.05
-28 0.95
29 0.69
-29 0.31000000000000005
30 0.17
-30 0.83
31 0.44
-31 0.56
32 0.97
-32 0.030000000000000027
33 0.74
-33 0.26
34 0.72
-34 0.28
35 0.7
-35 0.30000000000000004
36 0.28
-36 0.72
37 0.01
-37 0.99
38 0.34
-38 0.6599999999999999
39 0.99
-39 0.010000000000000009
40 0.3
-40 0.7
41 0.01
-41 0.99
42 0.68
-42 0.31999999999999995
43 0.7
-43 0.30000000000000004
44 0.06
-44 0.94
45 0.77
-45 0.22999999999999998
46 0.03
-46 0.97
47 0.63
-47 0.37
48 0.43
-48 0.5700000000000001
49 0.03
-49 0.97
50 0.59
-50 0.41000000000000003
51 0.32
-51 0.6799999999999999
52 0.19
-52 0.81
53 0.15
-53 0.85
54 0.09
-54 0.91
55 0.92
-55 0.07999999999999996
56 0.68
-56 0.31999999999999995
57 0.85
-57 0.15000000000000002
58 0.91
-58 0.08999999999999997
59 0.33
-59 0.6699999999999999
60 0.9
-60 0.09999999999999998
61 0.64
-61 0.36
62 0.56
-62 0.43999999999999995
63 0.4
-63 0.6
64 0.43
-64 0.5700000000000001
65 0.89
-65 0.10999999999999999
66 0.2
-66 0.8
67 0.38
-67 0.62
68 0.93
-68 0.06999999999999995
69 0.53
-69 0.47
70 0.53
-70 0.47
71 0.55
-71 0.44999999999999996
72 0.15
-72 0.85
73 0.41
-73 0.5900000000000001
74 0.62
-74 0.38
75 0.55
-75 0.44999999999999996
76 0.07
-76 0.9299999999999999
77 0.21
-77 0.79
78 0.39
-78 0.61
79 0.79
-79 0.20999999999999996
80 0.02
-80 0.98
81 0.03
-81 0.97
82 0.78
-82 0.21999999999999997
83 0.08
-83 0.92
84 0.02
-84 0.98
85 0.6
-85 0.4
86 0.83
-86 0.17000000000000004
87 0.22
-87 0.78
88 0.53
-88 0.47
89 0.89
-89 0.10999999999999999
90 0.9
-90 0.09999999999999998
91 0.49
-91 0.51
92 0.47
-92 0.53
93 0.7
-93 0.30000000000000004
94 0.68
-94 0.31999999999999995
95 0.85
-95 0.15000000000000002
96 0.93
-96 0.06999999999999995
97 0.21
-97 0.79
98 0.51
-98 0.49
99 0.27
-99 0.73
100 0.45
-100 0.55
