1 0.28
-1 0.72
2 0.99
-2 0.010000000000000009
3 0.54
-3 0.45999999999999996
4 0.22
-4 0.78
5 0.66
-5 0.33999999999999997
6 0.21
-6 0.79
7 0.7
-7 0.30000000000000004
8 0.02
-8 0.98
9 0.66
-9 0.33999999999999997
10 0.61
-10 0.39
11 0.1
-11 0.9
12 0.59
-12 0.41000000000000003
13 0.02
-13 0.98
14 0.82
-14 0.18000000000000005
15 0.49
-15 0.51
16 0.12
-16 0.88
17 0.88
-17 0.12
18 0.99
-18 0.010000000000000009
19 0.79
-19 0.20999999999999996
20 0.84
-20 0.16000000000000003
21 0.49
-21 0.51
22 0.28
-22 0.72
23 0.41
-23 0.5900000000000001
24 0.56
-24 0.43999999999999995
25 0.36
-25 0.64
26 0.02
-26 0.98
27 0.26
-27 0.74
28 0.66
-28 0.33999999999999997
29 0.72
-29 0.28
30 0.33
-30 0.6699999999999999
31 0.66
-31 0.33999999999999997
32 0.24
-32 0.76
33 0.35
-33 0.65
34 0.15
-34 0.85
35 0.42
-35 0.5800000000000001
36 0.81
-36 0.18999999999999995
37 0.02
-37 0.98
38 0.97
-38 0.030000000000000027
39 0.93
-39 0.06999999999999995
40 0.44
-40 0.56
41 0.35
-41 0.65
42 0.65
-42 0.35
43 0.37
-43 0.63
44 0.19
-44 0.81
45 0.47
-45 0.53
46 0.19
-46 0.81
47 0.65
-47 0.35
48 0.7
-48 0.30000000000000004
49 0.25
-49 0.75
50 0.25
-50 0.75
51 0.19
-51 0.81
52 0.77
-52 0.22999999999999998
53 0.95
-53 0.050000000000000044
54 0.72
-54 0.28
55 0.2
-55 0.8
56 0.27
-56 0.73
57 0.57
-57 0.43000000000000005
58 0.55
-58 0.44999999999999996
59 0.03
-59 0.97
60 0.3
-60 0.7
61 0.51
-61 0.49
62 0.17
-62 0.83
63 0.15
-63 0.85
64 0.79
-64 0.20999999999999996
65 0.84
-65 0.16000000000000003
66 0.5
-66 0.5
67 0.27
-67 0.73
68 0.52
-68 0.48
69 0.41
-69 0.5900000000000001
70 0.19
-70 0.81
71 0.81
-71 0.18999999999999995
72 0.91
-72 0.08999999999999997
73 0.39
-73 0.61
74 0.36
-74 0.64
75 0.39
-75 0.61
76 0.86
-76 0.14
77 0.28
-77 0.72
78 0.94
-78 0.06000000000000005
79 0.82
-79 0.18000000000000005
80 0.85
-80 0.15000000000000002
81 0.13
-81 0.87
82 0.96
-82 0.040000000000000036
83 0.87
-83 0.13
84 0.56
-84 0.43999999999999995
85 0.19
-85 0.81
86 0.54
-86 0.45999999999999996
87 0.97
-87 0.030000000000000027
88 0.6
-88 0.4
89 0.22
-89 0.78
90 0.29
-90 0.71
91 0.71
-91 0.29000000000000004
92 0.9
-92 0.09999999999999998
93 0.98
-93 0.020000000000000018
94 0.33
-94 0.6699999999999999
95 0.28
-95 0.72
96 0.38
-96 0.62
97 0.96
-97 0.040000000000000036
98 0.84
-98 0.16000000000000003
99 0.09
-99 0.91
100 0.94
-100 0.06000000000000005
