1 0.83
-1 0.17000000000000004
2 0.74
-2 0.26
3 0.02
-3 0.98
4 0.66
-4 0.33999999999999997
5 0.48
-5 0.52
6 0.17
-6 0.83
7 0.82
-7 0.18000000000000005
8 0.71
-8 0.29000000000000004
9 0.22
-9 0.78
10 0.92
-10 0.07999999999999996
11 0.37
-11 0.63
12 0.84
-12 0.16000000000000003
13 0.25
-13 0.75
14 0.5
-14 0.5
15 0.55
-15 0.44999999999999996
16 0.45
-16 0.55
17 0.09
-17 0.91
18 0.36
-18 0.64
19 0.36
-19 0.64
20 0.01
-20 0.99
21 0.11
-21 0.89
22 0.38
-22 0.62
23 0.23
-23 0.77
24 0.8
-24 0.19999999999999996
25 0.08
-25 0.92
26 0.19
-26 0.81
27 0.06
-27 0.94
28 0.47
-28 0.53
29 0.19
-29 0.81
30 0.85
-30 0.15000000000000002
31 0.33
-31 0.6699999999999999
32 0.55
-32 0.44999999999999996
33 0.64
-33 0.36
34 0.39
-34 0.61
35 0.62
-35 0.38
36 0.1
-36 0.9
37 0.16
-37 0.84
38 0.7
-38 0.30000000000000004
39 0.66
-39 0.33999999999999997
40 0.33
-40 0.6699999999999999
41 0.19
-41 0.81
42 0.57
-42 0.43000000000000005
43 0.72
-43 0.28
44 0.01
-44 0.99
45 0.65
-45 0.35
46 0.96
-46 0.040000000000000036
47 0.84
-47 0.16000000000000003
48 0.61
-48 0.39
49 0.32
-49 0.6799999999999999
50 0.06
-50 0.94
51 0.73
-51 0.27
52 0.97
-52 0.030000000000000027
53 0.84
-53 0.16000000000000003
54 0.41
-54 0.5900000000000001
55 0.12
-55 0.88
56 0.3
-56 0.7
57 0.86
-57 0.14
58 0.14
-58 0.86
59 0.39
-59 0.61
60 0.38
-60 0.62
61 0.2
-61 0.8
62 0.34
-62 0.6599999999999999
63 0.9
-63 0.09999999999999998
64 0.35
-64 0.65
65 0.46
-65 0.54
66 0.52
-66 0.48
67 0.5
-67 0.5
68 0.26
-68 0.74
69 0.07
-69 0.9299999999999999
70 0.23
-70 0.77
71 0.72
-71 0.28
72 0.87
-72 0.13
73 0.83
-73 0.17000000000000004
74 0.11
-74 0.89
75 0.74
-75 0.26
76 0.61
-76 0.39
77 0.93
-77 0.06999999999999995
78 0.53
-78 0.47
79 0.08
-79 0.92
80 0.86
-80 0.14
81 0.67
-81 0.32999999999999996
82 0.19
-82 0.81
83 0.57
-83 0.43000000000000005
84 0.08
-84 0.92
85 0.69
-85 0.31000000000000005
86 0.6
-86 0.4
87 0.14
-87 0.86
88 0.81
-88 0.18999999999999995
89 0.05
-89 0.95
90 0.14
-90 0.86
91 0.04
-91 0.96
92 0.5
-92 0.5
93 0.34
-93 0.6599999999999999
94 0.91
-94 0.08999999999999997
95 0.16
-95 0.84
96 0.91
-96 0.08999999999999997
97 0.46
-97 0.54
98 0.82
-98 0.18000000000000005
99 0.83
-99 0.17000000000000004
100 0.63
-100 0.37
