1 0.55
-1 0.44999999999999996
2 0.9
-2 0.09999999999999998
3 0.32
-3 0.6799999999999999
4 0.34
-4 0.6599999999999999
5 0.75
-5 0.25
6 0.34
-6 0.6599999999999999
7 0.38
-7 0.62
8 0.56
-8 0.43999999999999995
9 0.7
-9 0.30000000000000004
10 0.5
-10 0.5
11 0.07
-11 0.9299999999999999
12 0.57
-12 0.43000000000000005
13 0.25
-13 0.75
14 0.18
-14 0.8200000000000001
15 0.88
-15 0.12
16 0.54
-16 0.45999999999999996
17 0.57
-17 0.43000000000000005
18 0.95
-18 0.050000000000000044
19 0.06
-19 0.94
20 0.64
-20 0.36
21 0.15
-21 0.85
22 0.61
-22 0.39
23 0.66
-23 0.33999999999999997
24 0.77
-24 0.22999999999999998
25 0.9
-25 0.09999999999999998
26 0.53
-26 0.47
27 0.77
-27 0.22999999999999998
28 0.59
-28 0.41000000000000003
29 0.09
-29 0.91
30 0.34
-30 0.6599999999999999
31 0.37
-31 0.63
32 0.23
-32 0.77
33 0.17
-33 0.83
34 0.99
-34 0.010000000000000009
35 0.53
-35 0.47
36 0.08
-36 0.92
37 0.07
-37 0.9299999999999999
38 0.9
-38 0.09999999999999998
39 0.1
-39 0.9
40 0.37
-40 0.63
41 0.16
-41 0.84
42 0.82
-42 0.18000000000000005
43 0.28
-43 0.72
44 0.37
-44 0.63
45 0.72
-45 0.28
46 0.68
-46 0.31999999999999995
47 0.28
-47 0.72
48 0.07
-48 0.9299999999999999
49 0.05
-49 0.95
50 0.85
-50 0.15000000000000002
51 0.44
-51 0.56
52 0.76
-52 0.24
53 0.4
-53 0.6
54 0.84
-54 0.16000000000000003
55 0.69
-55 0.31000000000000005
56 0.27
-56 0.73
57 0.81
-57 0.18999999999999995
58 0.37
-58 0.63
59 0.97
-59 0.030000000000000027
60 0.48
-60 0.52
61 0.46
-61 0.54
62 0.3
-62 0.7
63 0.84
-63 0.16000000000000003
64 0.29
-64 0.71
65 0.36
-65 0.64
66 0.51
-66 0.49
67 0.37
-67 0.63
68 0.42
-68 0.5800000000000001
69 0.18
-69 0.8200000000000001
70 0.29
-70 0.71
71 0.54
-71 0.45999999999999996
72 0.65
-72 0.35
73 0.02
-73 0.98
74 0.11
-74 0.89
75 0.26
-75 0.74
76 0.48
-76 0.52
77 0.53
-77 0.47
78 0.41
-78 0.5900000000000001
79 0.87
-79 0.13
80 0.25
-80 0.75
81 0.18
-81 0.8200000000000001
82 0.39
-82 0.61
83 0.11
-83 0.89
84 0.56
-84 0.43999999999999995
85 0.73
-85 0.27
86 0.13
-86 0.87
87 0.58
-87 0.42000000000000004
88 0.52
-88 0.48
89 0.47
-89 0.53
90 0.69
-90 0.31000000000000005
91 0.54
-91 0.45999999999999996
92 0.48
-92 0.52
93 0.75
-93 0.25
94 0.28
-94 0.72
95 0.49
-95 0.51
96 0.61
-96 0.39
97 0.94
-97 0.06000000000000005
98 0.81
-98 0.18999999999999995
99 0.98
-99 0.020000000000000018
100 0.72
-100 0.28
