1 0.46
-1 0.54
2 0.08
-2 0.92
3 0.71
-3 0.29000000000000004
4 0.68
-4 0.31999999999999995
5 0.46
-5 0.54
6 0.76
-6 0.24
7 0.35
-7 0.65
8 0.66
-8 0.33999999999999997
9 0.47
-9 0.53
10 0.4
-10 0.6
11 0.81
-11 0.18999999999999995
12 0.41
-12 0.5900000000000001
13 0.75
-13 0.25
14 0.77
-14 0.22999999999999998
15 0.98
-15 0.020000000000000018
16 0.93
-16 0.06999999999999995
17 0.63
-17 0.37
18 0.06
-18 0.94
19 0.96
-19 0.040000000000000036
20 0.51
-20 0.49
21 0.47
-21 0.53
22 0.02
-22 0.98
23 0.66
-23 0.33999999999999997
24 0.26
-24 0.74
25 0.39
-25 0.61
26 0.11
-26 0.89
27 0.83
-27 0.17000000000000004
28 0.86
-28 0.14
29 0.64
-29 0.36
30 0.71
-30 0.29000000000000004
31 0.56
-31 0.43999999999999995
32 0.48
-32 0.52
33 0.13
-33 0.87
34 0.49
-34 0.51
35 0.07
-35 0.9299999999999999
36 0.55
-36 0.44999999999999996
37 0.2
-37 0.8
38 0.47
-38 0.53
39 0.62
-39 0.38
40 0.49
-40 0.51
41 0.97
-41 0.030000000000000027
42 0.07
-42 0.9299999999999999
43 0.99
-43 0.010000000000000009
44 0.24
-44 0.76
45 0.26
-45 0.74
46 0.96
-46 0.040000000000000036
47 0.32
-47 0.6799999999999999
48 0.42
-48 0.5800000000000001
49 0.43
-49 0.5700000000000001
50 0.1
-50 0.9
51 0.14
-51 0.86
52 0.25
-52 0.75
53 0.76
-53 0.24
54 0.21
-54 0.79
55 0.49
-55 0.51
56 0.08
-56 0.92
57 0.87
-57 0.13
58 0.64
-58 0.36
59 0.36
-59 0.64
60 0.35
-60 0.65
61 0.2
-61 0.8
62 0.53
-62 0.47
63 0.99
-63 0.010000000000000009
64 0.3
-64 0.7
65 0.69
-65 0.31000000000000005
66 0.51
-66 0.49
67 0.22
-67 0.78
68 0.19
-68 0.81
69 0.95
-69 0.050000000000000044
70 0.31
-70 0.69
71 0.44
-71 0.56
72 0.67
-72 0.32999999999999996
73 0.67
-73 0.32999999999999996
74 0.4
-74 0.6
75 0.23
-75 0.77
76 0.63
-76 0.37
77 0.22
-77 0.78
78 0.84
-78 0.16000000000000003
79 0.27
-79 0.73
80 0.57
-80 0.43000000000000005
81 0.07
-81 0.9299999999999999
82 0.64
-82 0.36
83 0.9
-83 0.09999999999999998
84 0.01
-84 0.99
85 0.57
-85 0.43000000000000005
86 0.33
-86 0.6699999999999999
87 0.07
-87 0.9299999999999999
88 0.43
-88 0.5700000000000001
89 0.98
-89 0.020000000000000018
90 0.93
-90 0.06999999999999995
91 0.53
-91 0.47
92 0.95
-92 0.050000000000000044
93 0.66
-93 0.33999999999999997
94 0.31
-94 0.69
95 0.39
-95 0.61
96 0.56
-96 0.43999999999999995
97 0.02
-97 0.98
98 0.77
-98 0.22999999999999998
99 0.91
-99 0.08999999999999997
100 0.21
-100 0.79
