1 0.77
-1 0.22999999999999998
2 0.87
-2 0.13
3 0.7
-3 0.30000000000000004
4 0.49
-4 0.51
5 0.95
-5 0.050000000000000044
6 0.03
-6 0.97
7 0.3
-7 0.7
8 0.87
-8 0.13
9 0.71
-9 0.29000000000000004
10 0.57
-10 0.43000000000000005
11 0.28
-11 0.72
12 0.83
-12 0.17000000000000004
13 0.03
-13 0.97
14 0.9
-14 0.09999999999999998
15 0.21
-15 0.79
16 0.04
-16 0.96
17 0.31
-17 0.69
18 0.66
-18 0.33999999999999997
19 0.11
-19 0.89
20 0.93
-20 0.06999999999999995
21 0.27
-21 0.73
22 0.81
-22 0.18999999999999995
23 0.62
-23 0.38
24 0.61
-24 0.39
25 0.95
-25 0.050000000000000044
26 0.9
-26 0.09999999999999998
27 0.08
-27 0.92
28 0.8
-28 0.19999999999999996
29 0.09
-29 0.91
30 0.65
-30 0.35
31 0.05
-31 0.95
32 0.32
-32 0.6799999999999999
33 0.37
-33 0.63
34 0.53
-34 0.47
35 0.31
-35 0.69
36 0.03
-36 0.97
37 0.37
-37 0.63
38 0.2
-38 0.8
39 0.56
-39 0.43999999999999995
40 0.77
-40 0.22999999999999998
41 0.44
-41 0.56
42 0.13
-42 0.87
43 0.57
-43 0.43000000000000005
44 0.12
-44 0.88
45 0.57
-45 0.43000000000000005
46 0.45
-46 0.55
47 0.2
-47 0.8
48 0.63
-48 0.37
49 0.71
-49 0.29000000000000004
50 0.85
-50 0.15000000000000002
51 0.11
-51 0.89
52 0.6
-52 0.4
53 0.29
-53 0.71
54 0.98
-54 0.020000000000000018
55 0.88
-55 0.12
56 0.21
-56 0.79
57 0.75
-57 0.25
58 0.46
-58 0.54
59 0.51
-59 0.49
60 0.19
-60 0.81
61 0.31
-61 0.69
62 0.77
-62 0.22999999999999998
63 0.98
-63 0.020000000000000018
64 0.05
-64 0.95
65 0.14
-65 0.86
66 0.29
-66 0.71
67 0.07
-67 0.9299999999999999
68 0.65
-68 0.35
69 0.09
-69 0.91
70 0.24
-70 0.76
71 0.32
-71 0.6799999999999999
72 0.69
-72 0.31000000000000005
73 0.14
-73 0.86
74 0.43
-74 0.5700000000000001
75 0.9
-75 0.09999999999999998
76 0.28
-76 0.72
77 0.32
-77 0.6799999999999999
78 0.87
-78 0.13
79 0.95
-79 0.050000000000000044
80 0.89
-80 0.10999999999999999
81 0.65
-81 0.35
82 0.89
-82 0.10999999999999999
83 0.05
-83 0.95
84 0.35
-84 0.65
85 0.82
-85 0.18000000000000005
86 0.67
-86 0.32999999999999996
87 0.38
-87 0.62
88 0.73
-88 0.27
89 0.88
-89 0.12
90 0.53
-90 0.47
91 0.79
-91 0.20999999999999996
92 0.93
-92 0.06999999999999995
93 0.5
-93 0.5
94 0.89
-94 0.10999999999999999
95 0.44
-95 0.56
96 0.97
-96 0.030000000000000027
97 0.43
-97 0.5700000000000001
98 0.66
-98 0.33999999999999997
99 0.86
-99 0.14
100 0.7
-100 0.30000000000000004
