1 0.01
-1 0.99
2 0.33
-2 0.6699999999999999
3 0.64
-3 0.36
4 0.17
-4 0.83
5 0.8
-5 0.19999999999999996
6 0.04
-6 0.96
7 0.64
-7 0.36
8 0.56
-8 0.43999999999999995
9 0.48
-9 0.52
10 0.6
-10 0.4
11 0.68
-11 0.31999999999999995
12 0.08
-12 0.92
13 0.76
-13 0.24
14 0.87
-14 0.13
15 0.05
-15 0.95
16 0.03
-16 0.97
17 0.88
-17 0.12
18 0.57
-18 0.43000000000000005
19 0.43
-19 0.5700000000000001
20 0.85
-20 0.15000000000000002
21 0.5
-21 0.5
22 0.23
-22 0.77
23 0.6
-23 0.4
24 0.09
-24 0.91
25 0.46
-25 0.54
26 0.43
-26 0.5700000000000001
27 0.2
-27 0.8
28 0.8
-28 0.19999999999999996
29 0.6
-29 0.4
30 0.05
-30 0.95
31 0.92
-31 0.07999999999999996
32 0.33
-32 0.6699999999999999
33 0.37
-33 0.63
34 0.71
-34 0.29000000000000004
35 0.33
-35 0.6699999999999999
36 0.11
-36 0.89
37 0.33
-37 0.6699999999999999
38 0.4
-38 0.6
39 0.31
-39 0.69
40 0.81
-40 0.18999999999999995
41 0.98
-41 0.020000000000000018
42 0.96
-42 0.040000000000000036
43 0.45
-43 0.55
44 0.73
-44 0.27
45 0.55
-45 0.44999999999999996
46 0.04
-46 0.96
47 0.28
-47 0.72
48 0.33
-48 0.6699999999999999
49 0.73
-49 0.27
50 0.92
-50 0.07999999999999996
51 0.02
-51 0.98
52 0.97
-52 0.030000000000000027
53 0.18
-53 0.8200000000000001
54 0.79
-54 0.20999999999999996
55 0.76
-55 0.24
56 0.77
-56 0.22999999999999998
57 0.02
-57 0.98
58 0.56
-58 0.43999999999999995
59 0.86
-59 0.14
60 0.62
-60 0.38
61 0.09
-61 0.91
62 0.32
-62 0.6799999999999999
63 0.91
-63 0.08999999999999997
64 0.83
-64 0.17000000000000004
65 0.88
-65 0.12
66 0.88
-66 0.12
67 0.98
-67 0.020000000000000018
68 0.82
-68 0.18000000000000005
69 0.16
-69 0.84
70 0.93
-70 0.06999999999999995
71 0.69
-71 0.31000000000000005
72 0.74
-72 0.26
73 0.68
-73 0.31999999999999995
74 0.51
-74 0.49
75 0.54
-75 0.45999999999999996
76 0.08
-76 0.92
77 0.99
-77 0.010000000000000009
78 0.31
-78 0.69
79 0.8
-79 0.19999999999999996
80 0.95
-80 0.050000000000000044
81 0.71
-81 0.29000000000000004
82 0.89
-82 0.10999999999999999
83 0.53
-83 0.47
84 0.72
-84 0.28
85 0.01
-85 0.99
86 0.88
-86 0.12
87 0.73
-87 0.27
88 0.93
-88 0.06999999999999995
89 0.23
-89 0.77
90 0.23
-90 0.77
91 0.11
-91 0.89
92 0.91
-92 0.08999999999999997
93 0.24
-93 0.76
94 0.27
-94 0.73
95 0.45
-95 0.55
96 0.17
-96 0.83
97 0.8
-97 0.19999999999999996
98 0.59
-98 0.41000000000000003
99 0.74
-99 0.26
100 0.12
-100 0.88
