1 0.82
-1 0.18000000000000005
2 0.75
-2 0.25
3 0.89
-3 0.10999999999999999
4 0.16
-4 0.84
5 0.82
-5 0.18000000000000005
6 0.64
-6 0.36
7 0.77
-7 0.22999999999999998
8 0.58
-8 0.42000000000000004
9 0.38
-9 0.62
10 0.26
-10 0.74
11 0.91
-11 0.08999999999999997
12 0.41
-12 0.5900000000000001
13 0.16
-13 0.84
14 0.56
-14 0.43999999999999995
15 0.95
-15 0.050000000000000044
16 0.56
-16 0.43999999999999995
17 0.16
-17 0.84
18 0.2
-18 0.8
19 0.85
-19 0.15000000000000002
20 0.04
-20 0.96
21 0.63
-21 0.37
22 0.93
-22 0.06999999999999995
23 0.44
-23 0.56
24 0.71
-24 0.29000000000000004
25 0.92
-25 0.07999999999999996
26 0.38
-26 0.62
27 0.97
-27 0.030000000000000027
28 0.46
-28 0.54
29 0.33
-29 0.6699999999999999
30 0.83
-30 0.17000000000000004
31 0.83
-31 0.17000000000000004
32 0.33
-32 0.6699999999999999
33 0.45
-33 0.55
34 0.35
-34 0.65
35 0.22
-35 0.78
36 0.31
-36 0.69
37 0.83
-37 0.17000000000000004
38 0.37
-38 0.63
39 0.74
-39 0.26
40 0.99
-40 0.010000000000000009
41 0.34
-41 0.6599999999999999
42 0.8
-42 0.19999999999999996
43 0.49
-43 0.51
44 0.42
-44 0.5800000000000001
45 0.42
-45 0.5800000000000001
46 0.25
-46 0.75
47 0.86
-47 0.14
48 0.19
-48 0.81
49 0.94
-49 0.06000000000000005
50 0.47
-50 0.53
51 0.88
-51 0.12
52 0.42
-52 0.5800000000000001
53 0.69
-53 0.31000000000000005
54 0.67
-54 0.32999999999999996
55 0.92
-55 0.07999999999999996
56 0.58
-56 0.42000000000000004
57 0.27
-57 0.73
58 0.88
-58 0.12
59 0.62
-59 0.38
60 0.26
-60 0.74
61 0.12
-61 0.88
62 0.22
-62 0.78
63 0.29
-63 0.71
64 0.73
-64 0.27
65 0.24
-65 0.76
66 0.33
-66 0.6699999999999999
67 0.84
-67 0.16000000000000003
68 0.7
-68 0.30000000000000004
69 0.89
-69 0.10999999999999999
70 0.14
-70 0.86
71 0.13
-71 0.87
72 0.17
-72 0.83
73 0.64
-73 0.36
74 0.89
-74 0.10999999999999999
75 0.4
-75 0.6
76 0.94
-76 0.06000000000000005
77 0.78
-77 0.21999999999999997
78 0.81
-78 0.18999999999999995
79 0.76
-79 0.24
80 0.06
-80 0.94
81 0.6
-81 0.4
82 0.79
-82 0.20999999999999996
83 0.9
-83 0.09999999999999998
84 0.66
-84 0.33999999999999997
85 0.66
-85 0.33999999999999997
86 0.98
-86 0.020000000000000018
87 0.05
-87 0.95
88 0.4
-88 0.6
89 0.03
-89 0.97
90 0.68
-90 0.31999999999999995
91 0.82
-91 0.18000000000000005
92 0.74
-92 0.26
93 0.02
-93 0.98
94 0.33
-94 0.6699999999999999
95 0.54
-95 0.45999999999999996
96 0.91
-96 0.08999999999999997
97 0.44
-97 0.56
98 0.27
-98 0.73
99 0.88
-99 0.12
100 0.41
-100 0.5900000000000001
