1 0.16
-1 0.84
2 0.36
-2 0.64
3 0.8
-3 0.19999999999999996
4 0.95
-4 0.050000000000000044
5 0.78
-5 0.21999999999999997
6 0.37
-6 0.63
7 0.19
-7 0.81
8 0.88
-8 0.12
9 0.53
-9 0.47
10 0.49
-10 0.51
11 0.96
-11 0.040000000000000036
12 0.26
-12 0.74
13 0.7
-13 0.30000000000000004
14 0.53
-14 0.47
15 0.76
-15 0.24
16 0.57
-16 0.43000000000000005
17 0.91
-17 0.08999999999999997
18 0.94
-18 0.06000000000000005
19 0.22
-19 0.78
20 0.41
-20 0.5900000000000001
21 0.16
-21 0.84
22 0.3
-22 0.7
23 0.02
-23 0.98
24 0.68
-24 0.31999999999999995
25 0.54
-25 0.45999999999999996
26 0.08
-26 0.92
27 0.74
-27 0.26
28 0.56
-28 0.43999999999999995
29 0.21
-29 0.79
30 0.3
-30 0.7
31 0.49
-31 0.51
32 0.06
-32 0.94
33 0.83
-33 0.17000000000000004
34 0.52
-34 0.48
35 0.04
-35 0.96
36 0.88
-36 0.12
37 0.44
-37 0.56
38 0.57
-38 0.43000000000000005
39 0.19
-39 0.81
40 0.1
-40 0.9
41 0.59
-41 0.41000000000000003
42 0.15
-42 0.85
43 0.94
-43 0.06000000000000005
44 0.4
-44 0.6
45 0.47
-45 0.53
46 0.07
-46 0.9299999999999999
47 0.83
-47 0.17000000000000004
48 0.72
-48 0.28
49 0.9
-49 0.09999999999999998
50 0.76
-50 0.24
51 0.06
-51 0.94
52 0.86
-52 0.14
53 0.39
-53 0.61
54 0.75
-54 0.25
55 0.54
-55 0.45999999999999996
56 0.9
-56 0.09999999999999998
57 0.21
-57 0.79
58 0.31
-58 0.69
59 0.12
-59 0.88
60 0.14
-60 0.86
61 0.72
-61 0.28
62 0.88
-62 0.12
63 0.43
-63 0.5700000000000001
64 0.74
-64 0.26
65 0.26
-65 0.74
66 0.24
-66 0.76
67 0.3
-67 0.7
68 0.38
-68 0.62
69 0.42
-69 0.5800000000000001
70 0.76
-70 0.24
71 0.65
-71 0.35
72 0.22
-72 0.78
73 0.55
-73 0.44999999999999996
74 0.51
-74 0.49
75 0.97
-75 0.030000000000000027
76 0.81
-76 0.18999999999999995
77 0.33
-77 0.6699999999999999
78 0.55
-78 0.44999999999999996
79 0.34
-79 0.6599999999999999
80 0.39
-80 0.61
81 0.47
-81 0.53
82 0.69
-82 0.31000000000000005
83 0.8
-83 0.19999999999999996
84 0.24
-84 0.76
85 0.49
-85 0.51
86 0.38
-86 0.62
87 0.02
-87 0.98
88 0.45
-88 0.55
89 0.82
-89 0.18000000000000005
90 0.72
-90 0.28
91 0.2
-91 0.8
92 0.89
-92 0.10999999999999999
93 0.64
-93 0.36
94 0.01
-94 0.99
95 0.24
-95 0.76
96 0.29
-96 0.71
97 0.94
-97 0.06000000000000005
98 0.58
-98 0.42000000000000004
99 0.69
-99 0.31000000000000005
100 0.46
-100 0.54
