1 0.22
-1 0.78
2 0.6
-2 0.4
3 0.54
-3 0.45999999999999996
4 0.12
-4 0.88
5 0.33
-5 0.6699999999999999
6 0.59
-6 0.41000000000000003
7 0.76
-7 0.24
8 0.39
-8 0.61
9 0.77
-9 0.22999999999999998
10 0.69
-10 0.31000000000000005
11 0.38
-11 0.62
12 0.48
-12 0.52
13 0.75
-13 0.25
14 0.78
-14 0.21999999999999997
15 0.33
-15 0.6699999999999999
16 0.13
-16 0.87
17 0.21
-17 0.79
18 0.34
-18 0.6599999999999999
19 0.06
-19 0.94
20 0.69
-20 0.31000000000000005
21 0.59
-21 0.41000000000000003
22 0.62
-22 0.38
23 0.41
-23 0.5900000000000001
24 0.93
-24 0.06999999999999995
25 0.52
-25 0.48
26 0.73
-26 0.27
27 0.86
-27 0.14
28 0.87
-28 0.13
29 0.88
-29 0.12
30 0.14
-30 0.86
31 0.62
-31 0.38
32 0.67
-32 0.32999999999999996
33 0.22
-33 0.78
34 0.74
-34 0.26
35 0.54
-35 0.45999999999999996
36 0.74
-36 0.26
37 0.18
-37 0.8200000000000001
38 0.33
-38 0.6699999999999999
39 0.84
-39 0.16000000000000003
40 0.89
-40 0.10999999999999999
41 0.47
-41 0.53
42 0.4
-42 0.6
43 0.69
-43 0.31000000000000005
44 0.98
-44 0.020000000000000018
45 0.69
-45 0.31000000000000005
46 0.45
-46 0.55
47 0.61
-47 0.39
48 0.25
-48 0.75
49 0.58
-49 0.42000000000000004
50 0.66
-50 0.33999999999999997
51 0.03
-51 0.97
52 0.38
-52 0.62
53 0.39
-53 0.61
54 0.53
-54 0.47
55 0.56
-55 0.43999999999999995
56 0.43
-56 0.5700000000000001
57 0.6
-57 0.4
58 0.8
-58 0.19999999999999996
59 0.15
-59 0.85
60 0.69
-60 0.31000000000000005
61 0.86
-61 0.14
62 0.32
-62 0.6799999999999999
63 0.96
-63 0.040000000000000036
64 0.59
-64 0.41000000000000003
65 0.3
-65 0.7
66 0.14
-66 0.86
67 0.33
-67 0.6699999999999999
68 0.09
-68 0.91
69 0.81
-69 0.18999999999999995
70 0.52
-70 0.48
71 0.42
-71 0.5800000000000001
72 0.73
-72 0.27
73 0.52
-73 0.48
74 0.22
-74 0.78
75 0.3
-75 0.7
76 0.99
-76 0.010000000000000009
77 0.24
-77 0.76
78 0.01
-78 0.99
79 0.14
-79 0.86
80 0.7
-80 0.30000000000000004
81 0.61
-81 0.39
82 0.93
-82 0.06999999999999995
83 0.24
-83 0.76
84 0.06
-84 0.94
85 0.88
-85 0.12
86 0.98
-86 0.020000000000000018
87 0.24
-87 0.76
88 0.57
-88 0.43000000000000005
89 0.44
-89 0.56
90 0.78
-90 0.21999999999999997
91 0.55
-91 0.44999999999999996
92 0.61
-92 0.39
93 0.1
-93 0.9
94 0.37
-94 0.63
95 0.66
-95 0.33999999999999997
96 0.95
-96 0.050000000000000044
97 0.55
-97 0.44999999999999996
98 0.52
-98 0.48
99 0.48
-99 0.52
100 0.95
-100 0.050000000000000044
