1 0.84
-1 0.16000000000000003
2 0.78
-2 0.21999999999999997
3 0.95
-3 0.050000000000000044
4 0.06
-4 0.94
5 0.88
-5 0.12
6 0.01
-6 0.99
7 0.15
-7 0.85
8 0.38
-8 0.62
9 0.75
-9 0.25
10 0.94
-10 0.06000000000000005
11 0.78
-11 0.21999999999999997
12 0.91
-12 0.08999999999999997
13 0.3
-13 0.7
14 0.77
-14 0.22999999999999998
15 0.41
-15 0.5900000000000001
16 0.7
-16 0.30000000000000004
17 0.2
-17 0.8
18 0.92
-18 0.07999999999999996
19 0.35
-19 0.65
20 0.07
-20 0.9299999999999999
21 0.99
-21 0.010000000000000009
22 0.98
-22 0.020000000000000018
23 0.42
-23 0.5800000000000001
24 0.47
-24 0.53
25 0.16
-25 0.84
26 0.94
-26 0.06000000000000005
27 0.57
-27 0.43000000000000005
28 0.86
-28 0.14
29 0.05
-29 0.95
30 0.22
-30 0.78
31 0.45
-31 0.55
32 0.12
-32 0.88
33 0.3
-33 0.7
34 0.3
-34 0.7
35 0.47
-35 0.53
36 0.91
-36 0.08999999999999997
37 0.81
-37 0.18999999999999995
38 0.75
-38 0.25
39 0.76
-39 0.24
40 0.84
-40 0.16000000000000003
41 0.95
-41 0.050000000000000044
42 0.72
-42 0.28
43 0.36
-43 0.64
44 0.81
-44 0.18999999999999995
45 0.1
-45 0.9
46 0.1
-46 0.9
47 0.44
-47 0.56
48 0.98
-48 0.020000000000000018
49 0.83
-49 0.17000000000000004
50 0.35
-50 0.65
51 0.51
-51 0.49
52 0.54
-52 0.45999999999999996
53 0.03
-53 0.97
54 0.02
-54 0.98
55 0.03
-55 0.97
56 0.36
-56 0.64
57 0.13
-57 0.87
58 0.96
-58 0.040000000000000036
59 0.29
-59 0.71
60 0.6
-60 0.4
61 0.71
-61 0.29000000000000004
62 0.6
-62 0.4
63 0.48
-63 0.52
64 0.38
-64 0.62
65 0.67
-65 0.32999999999999996
66 0.34
-66 0.6599999999999999
67 0.45
-67 0.55
68 0.21
-68 0.79
69 0.6
-69 0.4
70 0.83
-70 0.17000000000000004
71 0.49
-71 0.51
72 0.42
-72 0.5800000000000001
73 0.94
-73 0.06000000000000005
74 0.74
-74 0.26
75 0.06
-75 0.94
76 0.46
-76 0.54
77 0.31
-77 0.69
78 0.03
-78 0.97
79 0.42
-79 0.5800000000000001
80 0.77
-80 0.22999999999999998
81 0.76
-81 0.24
82 0.26
-82 0.74
83 0.79
-83 0.20999999999999996
84 0.97
-84 0.030000000000000027
85 0.26
-85 0.74
86 0.18
-86 0.8200000000000001
87 0.5
-87 0.5
88 0.78
-88 0.21999999999999997
89 0.65
-89 0.35
90 0.69
-90 0.31000000000000005
91 0.94
-91 0.06000000000000005
92 0.81
-92 0.18999999999999995
93 0.81
-93 0.18999999999999995
94 0.36
-94 0.64
95 0.4
-95 0.6
96 0.36
-96 0.64
97 0.04
-97 0.96
98 0.84
-98 0.16000000000000003
99 0.87
-99 0.13
100 0.14
-100 0.86
