1 0.99
-1 0.010000000000000009
2 0.46
-2 0.54
3 0.15
-3 0.85
4 0.47
-4 0.53
5 0.41
-5 0.5900000000000001
6 0.68
-6 0.31999999999999995
7 0.37
-7 0.63
8 0.36
-8 0.64
9 0.22
-9 0.78
10 0.51
-10 0.49
11 0.25
-11 0.75
12 0.8
-12 0.19999999999999996
13 0.15
-13 0.85
14 0.46
-14 0.54
15 0.03
-15 0.97
16 0.16
-16 0.84
17 0.38
-17 0.62
18 0.86
-18 0.14
19 0.65
-19 0.35
20 0.27
-20 0.73
21 0.25
-21 0.75
22 0.11
-22 0.89
23 0.54
-23 0.45999999999999996
24 0.61
-24 0.39
25 0.21
-25 0.79
26 0.59
-26 0.41000000000000003
27 0.84
-27 0.16000000000000003
28 0.15
-28 0.85
29 0.74
-29 0.26
30 0.9
-30 0.09999999999999998
31 0.68
-31 0.31999999999999995
32 0.83
-32 0.17000000000000004
33 0.61
-33 0.39
34 0.38
-34 0.62
35 0.1
-35 0.9
36 0.29
-36 0.71
37 0.97
-37 0.030000000000000027
38 0.97
-38 0.030000000000000027
39 0.58
-39 0.42000000000000004
40 0.97
-40 0.030000000000000027
41 0.37
-41 0.63
42 0.23
-42 0.77
43 0.17
-43 0.83
44 0.66
-44 0.33999999999999997
45 0.41
-45 0.5900000000000001
46 0.97
-46 0.030000000000000027
47 0.37
-47 0.63
48 0.72
-48 0.28
49 0.44
-49 0.56
50 0.82
-50 0.18000000000000005
51 0.13
-51 0.87
52 0.71
-52 0.29000000000000004
53 0.06
-53 0.94
54 0.89
-54 0.10999999999999999
55 0.26
-55 0.74
56 0.85
-56 0.15000000000000002
57 0.04
-57 0.96
58 0.74
-58 0.26
59 0.67
-59 0.32999999999999996
60 0.19
-60 0.81
61 0.78
-61 0.21999999999999997
62 0.03
-62 0.97
63 0.27
-63 0.73
64 0.38
-64 0.62
65 0.24
-65 0.76
66 0.22
-66 0.78
67 0.15
-67 0.85
68 0.13
-68 0.87
69 0.01
-69 0.99
70 0.85
-70 0.15000000000000002
71 0.7
-71 0.30000000000000004
72 0.55
-72 0.44999999999999996
73 0.8
-73 0.19999999999999996
74 0.82
-74 0.18000000000000005
75 0.75
-75 0.25
76 0.91
-76 0.08999999999999997
77 0.45
-77 0.55
78 0.49
-78 0.51
79 0.4
-79 0.6
80 0.25
-80 0.75
81 0.24
-81 0.76
82 0.48
-82 0.52
83 0.51
-83 0.49
84 0.22
-84 0.78
85 0.27
-85 0.73
86 0.38
-86 0.62
87 0.79
-87 0.20999999999999996
88 0.95
-88 0.050000000000000044
89 0.53
-89 0.47
90 0.4
-90 0.6
91 0.81
-91 0.18999999999999995
92 0.23
-92 0.77
93 0.97
-93 0.030000000000000027
94 0.63
-94 0.37
95 0.02
-95 0.98
96 0.91
-96 0.08999999999999997
97 0.16
-97 0.84
98 0.72
-98 0.28
99 0.83
-99 0.17000000000000004
100 0.68
-100 0.31999999999999995
