1 0.83
-1 0.17000000000000004
2 0.7
-2 0.30000000000000004
3 0.45
-3 0.55
4 0.43
-4 0.5700000000000001
5 0.67
-5 0.32999999999999996
6 0.97
-6 0.030000000000000027
7 0.08
-7 0.92
8 0.34
-8 0.6599999999999999
9 0.9
-9 0.09999999999999998
10 0.26
-10 0.74
11 0.48
-11 0.52
12 0.6
-12 0.4
13 0.39
-13 0.61
14 0.77
-14 0.22999999999999998
15 0.88
-15 0.12
16 0.04
-16 0.96
17 0.17
-17 0.83
18 0.4
-18 0.6
19 0.02
-19 0.98
20 0.68
-20 0.31999999999999995
21 0.08
-21 0.92
22 0.53
-22 0.47
23 0.69
-23 0.31000000000000005
24 0.01
-24 0.99
25 0.37
-25 0.63
26 0.17
-26 0.83
27 0.38
-27 0.62
28 0.26
-28 0.74
29 0.87
-29 0.13
30 0.55
-30 0.44999999999999996
31 0.96
-31 0.040000000000000036
32 0.82
-32 0.18000000000000005
33 0.1
-33 0.9
34 0.29
-34 0.71
35 0.14
-35 0.86
36 0.69
-36 0.31000000000000005
37 0.35
-37 0.65
38 0.75
-38 0.25
39 0.69
-39 0.31000000000000005
40 0.37
-40 0.63
41 0.31
-41 0.69
42 0.61
-42 0.39
43 0.97
-43 0.030000000000000027
44 0.06
-44 0.94
45 0.68
-45 0.31999999999999995
46 0.66
-46 0.33999999999999997
47 0.44
-47 0.56
48 0.97
-48 0.030000000000000027
49 0.86
-49 0.14
50 0.7
-50 0.30000000000000004
51 0.87
-51 0.13
52 0.21
-52 0.79
53 0.3
-53 0.7
54 0.61
-54 0.39
55 0.9
-55 0.09999999999999998
56 0.73
-56 0.27
57 0.33
-57 0.6699999999999999
58 0.87
-58 0.13
59 0.03
-59 0.97
60 0.95
-60 0.050000000000000044
61 0.86
-61 0.14
62 0.77
-62 0.22999999999999998
63 0.1
-63 0.9
64 0.78
-64 0.21999999999999997
65 0.01
-65 0.99
66 0.89
-66 0.10999999999999999
67 0.03
-67 0.97
68 0.52
-68 0.48
69 0.02
-69 0.98
70 0.91
-70 0.08999999999999997
71 0.84
-71 0.16000000000000003
72 0.75
-72 0.25
73 0.55
-73 0.44999999999999996
74 0.14
-74 0.86
75 0.47
-75 0.53
76 0.74
-76 0.26
77 0.03
-77 0.97
78 0.71
-78 0.29000000000000004
79 0.86
-79 0.14
80 0.22
-80 0.78
81 0.95
-81 0.050000000000000044
82 0.48
-82 0.52
83 0.95
-83 0.050000000000000044
84 0.72
-84 0.28
85 0.82
-85 0.18000000000000005
86 0.73
-86 0.27
87 0.89
-87 0.10999999999999999
88 0.68
-88 0.31999999999999995
89 0.15
-89 0.85
90 0.29
-90 0.71
91 0.25
-91 0.75
92 0.16
-92 0.84
93 0.12
-93 0.88
94 0.63
-94 0.37
95 0.45
-95 0.55
96 0.35
-96 0.65
97 0.2
-97 0.8
98 0.24
-98 0.76
99 0.54
-99 0.45999999999999996
100 0.46
-100 0.54
