1 0.38
-1 0.62
2 0.58
-2 0.42000000000000004
3 0.61
-3 0.39
4 0.23
-4 0.77
5 0.26
-5 0.74
6 0.13
-6 0.87
7 0.11
-7 0.89
8 0.57
-8 0.43000000000000005
9 0.01
-9 0.99
10 0.18
-10 0.8200000000000001
11 0.88
-11 0.12
12 0.36
-12 0.64
13 0.04
-13 0.96
14 0.74
-14 0.26
15 0.26
-15 0.74
16 0.44
-16 0.56
17 0.14
-17 0.86
18 0.66
-18 0.33999999999999997
19 0.51
-19 0.49
20 0.88
-20 0.12
21 0.79
-21 0.20999999999999996
22 0.55
-22 0.44999999999999996
23 0.9
-23 0.09999999999999998
24 0.39
-24 0.61
25 0.09
-25 0.91
26 0.86
-26 0.14
27 0.66
-27 0.33999999999999997
28 0.84
-28 0.16000000000000003
29 0.95
-29 0.050000000000000044
30 0.16
-30 0.84
31 0.72
-31 0.28
32 0.79
-32 0.20999999999999996
33 0.66
-33 0.33999999999999997
34 0.87
-34 0.13
35 0.22
-35 0.78
36 0.41
-36 0.5900000000000001
37 0.98
-37 0.020000000000000018
38 0.49
-38 0.51
39 0.27
-39 0.73
40 0.8
-40 0.19999999999999996
41 0.03
-41 0.97
42 0.54
-42 0.45999999999999996
43 0.24
-43 0.76
44 0.13
-44 0.87
45 0.98
-45 0.020000000000000018
46 0.36
-46 0.64
47 0.46
-47 0.54
48 0.82
-48 0.18000000000000005
49 0.75
-49 0.25
50 0.69
-50 0.31000000000000005
51 0.68
-51 0.31999999999999995
52 0.5
-52 0.5
53 0.4
-53 0.6
54 0.96
-54 0.040000000000000036
55 0.5
-55 0.5
56 0.04
-56 0.96
57 0.13
-57 0.87
58 0.81
-58 0.18999999999999995
59 0.57
-59 0.43000000000000005
60 0.08
-60 0.92
61 0.47
-61 0.53
62 0.75
-62 0.25
63 0.7
-63 0.30000000000000004
64 0.97
-64 0.030000000000000027
65 0.18
-65 0.8200000000000001
66 0.46
-66 0.54
67 0.48
-67 0.52
68 0.88
-68 0.12
69 0.84
-69 0.16000000000000003
70 0.94
-70 0.06000000000000005
71 0.91
-71 0.08999999999999997
72 0.33
-72 0.6699999999999999
73 0.3
-73 0.7
74 0.54
-74 0.45999999999999996
75 0.82
-75 0.18000000000000005
76 0.16
-76 0.84
77 0.16
-77 0.84
78 0.51
-78 0.49
79 0.12
-79 0.88
80 0.14
-80 0.86
81 0.24
-81 0.76
82 0.75
-82 0.25
83 0.54
-83 0.45999999999999996
84 0.86
-84 0.14
85 0.5
-85 0.5
86 0.18
-86 0.8200000000000001
87 0.19
-87 0.81
88 0.27
-88 0.73
89 0.64
-89 0.36
90 0.93
-90 0.06999999999999995
91 0.72
-91 0.28
92 0.12
-92 0.88
93 0.96
-93 0.040000000000000036
94 0.03
-94 0.97
95 0.83
-95 0.17000000000000004
96 0.23
-96 0.77
97 0.42
-97 0.5800000000000001
98 0.72
-98 0.28
99 0.05
-99 0.95
100 0.35
-100 0.65
