1 0.16
-1 0.84
2 0.99
-2 0.010000000000000009
3 0.63
-3 0.37
4 0.76
-4 0.24
5 0.74
-5 0.26
6 0.08
-6 0.92
7 0.27
-7 0.73
8 0.93
-8 0.06999999999999995
9 0.81
-9 0.18999999999999995
10 0.83
-10 0.17000000000000004
11 0.37
-11 0.63
12 0.29
-12 0.71
13 0.53
-13 0.47
14 0.7
-14 0.30000000000000004
15 0.46
-15 0.54
16 0.41
-16 0.5900000000000001
17 0.16
-17 0.84
18 0.16
-18 0.84
19 0.56
-19 0.43999999999999995
20 0.79
-20 0.20999999999999996
21 0.96
-21 0.040000000000000036
22 0.79
-22 0.20999999999999996
23 0.28
-23 0.72
24 0.47
-24 0.53
25 0.16
-25 0.84
26 0.33
-26 0.6699999999999999
27 0.46
-27 0.54
28 0.76
-28 0.24
29 0.55
-29 0.44999999999999996
30 0.94
-30 0.06000000000000005
31 0.02
-31 0.98
32 0.03
-32 0.97
33 0.25
-33 0.75
34 0.09
-34 0.91
35 0.12
-35 0.88
36 0.74
-36 0.26
37 0.74
-37 0.26
38 0.67
-38 0.32999999999999996
39 0.1
-39 0.9
40 0.13
-40 0.87
41 0.62
-41 0.38
42 0.94
-42 0.06000000000000005
43 0.84
-43 0.16000000000000003
44 0.67
-44 0.32999999999999996
45 0.62
-45 0.38
46 0.28
-46 0.72
47 0.01
-47 0.99
48 0.33
-48 0.6699999999999999
49 0.1
-49 0.9
50 0.96
-50 0.040000000000000036
51 0.78
-51 0.21999999999999997
52 0.56
-52 0.43999999999999995
53 0.52
-53 0.48
54 0.9
-54 0.09999999999999998
55 0.6
-55 0.4
56 0.17
-56 0.83
57 0.4
-57 0.6
58 0.41
-58 0.5900000000000001
59 0.85
-59 0.15000000000000002
60 0.3
-60 0.7
61 0.62
-61 0.38
62 0.56
-62 0.43999999999999995
63 0.67
-63 0.32999999999999996
64 0.8
-64 0.19999999999999996
65 0.78
-65 0.21999999999999997
66 0.08
-66 0.92
67 0.26
-67 0.74
68 0.36
-68 0.64
69 0.06
-69 0.94
70 0.51
-70 0.49
71 0.08
-71 0.92
72 0.51
-72 0.49
73 0.58
-73 0.42000000000000004
74 0.59
-74 0.41000000000000003
75 0.01
-75 0.99
76 0.33
-76 0.6699999999999999
77 0.94
-77 0.06000000000000005
78 0.12
-78 0.88
79 0.47
-79 0.53
80 0.4
-80 0.6
81 0.01
-81 0.99
82 0.99
-82 0.010000000000000009
83 0.94
-83 0.06000000000000005
84 0.15
-84 0.85
85 0.96
-85 0.040000000000000036
86 0.52
-86 0.48
87 0.61
-87 0.39
88 0.2
-88 0.8
89 0.88
-89 0.12
90 0.02
-90 0.98
91 0.42
-91 0.5800000000000001
92 0.68
-92 0.31999999999999995
93 0.27
-93 0.73
94 0.16
-94 0.84
95 0.4
-95 0.6
96 0.04
-96 0.96
97 0.89
-97 0.10999999999999999
98 0.95
-98 0.050000000000000044
99 0.8
-99 0.19999999999999996
100 0.48
-100 0.52
