1 0.62
-1 0.38
2 0.72
-2 0.28
3 0.56
-3 0.43999999999999995
4 0.17
-4 0.83
5 0.4
-5 0.6
6 0.06
-6 0.94
7 0.39
-7 0.61
8 0.57
-8 0.43000000000000005
9 0.76
-9 0.24
10 0.56
-10 0.43999999999999995
11 0.57
-11 0.43000000000000005
12 0.46
-12 0.54
13 0.59
-13 0.41000000000000003
14 0.39
-14 0.61
15 0.14
-15 0.86
16 0.6
-16 0.4
17 0.11
-17 0.89
18 0.3
-18 0.7
19 0.72
-19 0.28
20 0.11
-20 0.89
21 0.36
-21 0.64
22 0.73
-22 0.27
23 0.38
-23 0.62
24 0.3
-24 0.7
25 0.3
-25 0.7
26 0.61
-26 0.39
27 0.73
-27 0.27
28 0.92
-28 0.07999999999999996
29 0.88
-29 0.12
30 0.85
-30 0.15000000000000002
31 0.55
-31 0.44999999999999996
32 0.18
-32 0.8200000000000001
33 0.9
-33 0.09999999999999998
34 0.07
-34 0.9299999999999999
35 0.54
-35 0.45999999999999996
36 0.7
-36 0.30000000000000004
37 0.98
-37 0.020000000000000018
38 0.03
-38 0.97
39 0.21
-39 0.79
40 0.75
-40 0.25
41 0.29
-41 0.71
42 0.27
-42 0.73
43 0.48
-43 0.52
44 0.85
-44 0.15000000000000002
45 0.48
-45 0.52
46 0.97
-46 0.030000000000000027
47 0.84
-47 0.16000000000000003
48 0.01
-48 0.99
49 0.55
-49 0.44999999999999996
50 0.52
-50 0.48
51 0.45
-51 0.55
52 0.71
-52 0.29000000000000004
53 0.57
-53 0.43000000000000005
54 0.4
-54 0.6
55 0.75
-55 0.25
56 0.47
-56 0.53
57 0.87
-57 0.13
58 0.06
-58 0.94
59 0.61
-59 0.39
60 0.78
-60 0.21999999999999997
61 0.37
-61 0.63
62 0.92
-62 0.07999999999999996
63 0.14
-63 0.86
64 0.93
-64 0.06999999999999995
65 0.02
-65 0.98
66 0.65
-66 0.35
67 0.96
-67 0.040000000000000036
68 0.99
-68 0.010000000000000009
69 0.14
-69 0.86
70 0.89
-70 0.10999999999999999
71 0.96
-71 0.040000000000000036
72 0.21
-72 0.79
73 0.66
-73 0.33999999999999997
74 0.22
-74 0.78
75 0.68
-75 0.31999999999999995
76 0.33
-76 0.6699999999999999
77 0.2
-77 0.8
78 0.17
-78 0.83
79 0.29
-79 0.71
80 0.33
-80 0.6699999999999999
81 0.62
-81 0.38
82 0.45
-82 0.55
83 0.74
-83 0.26
84 0.84
-84 0.16000000000000003
85 0.39
-85 0.61
86 0.17
-86 0.83
87 0.4
-87 0.6
88 0.7
-88 0.30000000000000004
89 0.07
-89 0.9299999999999999
90 0.26
-90 0.74
91 0.41
-91 0.5900000000000001
92 0.84
-92 0.16000000000000003
93 0.53
-93 0.47
94 0.81
-94 0.18999999999999995
95 0.68
-95 0.31999999999999995
96 0.5
-96 0.5
97 0.16
-97 0.84
98 0.28
-98 0.72
99 0.79
-99 0.20999999999999996
100 0.66
-100 0.33999999999999997
