1 0.2
-1 0.8
2 0.39
-2 0.61
3 0.74
-3 0.26
4 0.82
-4 0.18000000000000005
5 0.53
-5 0.47
6 0.98
-6 0.020000000000000018
7 0.53
-7 0.47
8 0.92
-8 0.07999999999999996
9 0.23
-9 0.77
10 0.7
-10 0.30000000000000004
11 0.04
-11 0.96
12 0.67
-12 0.32999999999999996
13 0.03
-13 0.97
14 0.22
-14 0.78
15 0.45
-15 0.55
16 0.66
-16 0.33999999999999997
17 0.04
-17 0.96
18 0.16
-18 0.84
19 0.33
-19 0.6699999999999999
20 0.08
-20 0.92
21 0.1
-21 0.9
22 0.07
-22 0.9299999999999999
23 0.4
-23 0.6
24 0.68
-24 0.31999999999999995
25 0.53
-25 0.47
26 0.92
-26 0.07999999999999996
27 0.75
-27 0.25
28 0.29
-28 0.71
29 0.06
-29 0.94
30 0.11
-30 0.89
31 0.28
-31 0.72
32 0.17
-32 0.83
33 0.12
-33 0.88
34 0.64
-34 0.36
35 0.82
-35 0.18000000000000005
36 0.13
-36 0.87
37 0.34
-37 0.6599999999999999
38 0.52
-38 0.48
39 0.55
-39 0.44999999999999996
40 0.9
-40 0.09999999999999998
41 0.65
-41 0.35
42 0.73
-42 0.27
43 0.3
-43 0.7
44 0.56
-44 0.43999999999999995
45 0.55
-45 0.44999999999999996
46 0.47
-46 0.53
47 0.97
-47 0.030000000000000027
48 0.77
-48 0.22999999999999998
49 0.07
-49 0.9299999999999999
50 0.39
-50 0.61
51 0.86
-51 0.14
52 0.76
-52 0.24
53 0.95
-53 0.050000000000000044
54 0.66
-54 0.33999999999999997
55 0.68
-55 0.31999999999999995
56 0.44
-56 0.56
57 0.41
-57 0.5900000000000001
58 0.56
-58 0.43999999999999995
59 0.48
-59 0.52
60 0.47
-60 0.53
61 0.19
-61 0.81
62 0.91
-62 0.08999999999999997
63 0.88
-63 0.12
64 0.92
-64 0.07999999999999996
65 0.3
-65 0.7
66 0.8
-66 0.19999999999999996
67 0.61
-67 0.39
68 0.63
-68 0.37
69 0.83
-69 0.17000000000000004
70 0.28
-70 0.72
71 0.51
-71 0.49
72 0.12
-72 0.88
73 0.76
-73 0.24
74 0.76
-74 0.24
75 0.97
-75 0.030000000000000027
76 0.87
-76 0.13
77 0.01
-77 0.99
78 0.23
-78 0.77
79 0.62
-79 0.38
80 0.3
-80 0.7
81 0.54
-81 0.45999999999999996
82 0.29
-82 0.71
83 0.3
-83 0.7
84 0.4
-84 0.6
85 0.68
-85 0.31999999999999995
86 0.84
-86 0.16000000000000003
87 0.71
-87 0.29000000000000004
88 0.13
-88 0.87
89 0.92
-89 0.07999999999999996
90 0.98
-90 0.020000000000000018
91 0.28
-91 0.72
92 0.5
-92 0.5
93 0.53
-93 0.47
94 0.94
-94 0.06000000000000005
95 0.8
-95 0.19999999999999996
96 0.41
-96 0.5900000000000001
97 0.46
-97 0.54
98 0.64
-98 0.36
99 0.47
-99 0.53
100 0.53
-100 0.47
