1 0.39
-1 0.61
2 0.67
-2 0.32999999999999996
3 0.17
-3 0.83
4 0.66
-4 0.33999999999999997
5 0.72
-5 0.28
6 0.29
-6 0.71
7 0.08
-7 0.92
8 0.43
-8 0.5700000000000001
9 0.62
-9 0.38
10 0.35
-10 0.65
11 0.68
-11 0.31999999999999995
12 0.25
-12 0.75
13 0.14
-13 0.86
14 0.43
-14 0.5700000000000001
15 0.56
-15 0.43999999999999995
16 0.95
-16 0.050000000000000044
17 0.59
-17 0.41000000000000003
18 0.62
-18 0.38
19 0.78
-19 0.21999999999999997
20 0.47
-20 0.53
21 0.98
-21 0.020000000000000018
22 0.3
-22 0.7
23 0.53
-23 0.47
24 0.24
-24 0.76
25 0.55
-25 0.44999999999999996
26 0.39
-26 0.61
27 0.75
-27 0.25
28 0.29
-28 0.71
29 0.31
-29 0.69
30 0.56
-30 0.43999999999999995
31 0.24
-31 0.76
32 0.77
-32 0.22999999999999998
33 0.05
-33 0.95
34 0.26
-34 0.74
35 0.94
-35 0.06000000000000005
36 0.71
-36 0.29000000000000004
37 0.38
-37 0.62
38 0.83
-38 0.17000000000000004
39 0.88
-39 0.12
40 0.24
-40 0.76
41 0.96
-41 0.040000000000000036
42 0.91
-42 0.08999999999999997
43 0.7
-43 0.30000000000000004
44 0.05
-44 0.95
45 0.65
-45 0.35
46 0.61
-46 0.39
47 0.7
-47 0.30000000000000004
48 0.25
-48 0.75
49 0.43
-49 0.5700000000000001
50 0.84
-50 0.16000000000000003
51 0.4
-51 0.6
52 0.32
-52 0.6799999999999999
53 0.33
-53 0.6699999999999999
54 0.45
-54 0.55
55 0.51
-55 0.49
56 0.96
-56 0.040000000000000036
57 0.72
-57 0.28
58 0.82
-58 0.18000000000000005
59 0.79
-59 0.20999999999999996
60 0.33
-60 0.6699999999999999
61 0.27
-61 0.73
62 0.18
-62 0.8200000000000001
63 0.41
-63 0.5900000000000001
64 0.5
-64 0.5
65 0.37
-65 0.63
66 0.53
-66 0.47
67 0.03
-67 0.97
68 0.05
-68 0.95
69 0.08
-69 0.92
70 0.28
-70 0.72
71 0.57
-71 0.43000000000000005
72 0.69
-72 0.31000000000000005
73 0.11
-73 0.89
74 0.08
-74 0.92
75 0.36
-75 0.64
76 0.44
-76 0.56
77 0.52
-77 0.48
78 0.59
-78 0.41000000000000003
79 0.94
-79 0.06000000000000005
80 0.63
-80 0.37
81 0.9
-81 0.09999999999999998
82 0.68
-82 0.31999999999999995
83 0.72
-83 0.28
84 0.39
-84 0.61
85 0.2
-85 0.8
86 0.02
-86 0.98
87 0.71
-87 0.29000000000000004
88 0.53
-88 0.47
89 0.77
-89 0.22999999999999998
90 0.8
-90 0.19999999999999996
91 0.74
-91 0.26
92 0.66
-92 0.33999999999999997
93 0.72
-93 0.28
94 0.38
-94 0.62
95 0.45
-95 0.55
96 0.67
-96 0.32999999999999996
97 0.32
-97 0.6799999999999999
98 0.3
-98 0.7
99 0.39
-99 0.61
100 0.69
-100 0.31000000000000005
