1 0.5
-1 0.5
2 0.95
-2 0.050000000000000044
3 0.28
-3 0.72
4 0.1
-4 0.9
5 0.76
-5 0.24
6 0.08
-6 0.92
7 0.58
-7 0.42000000000000004
8 0.36
-8 0.64
9 0.62
-9 0.38
10 0.22
-10 0.78
11 0.07
-11 0.9299999999999999
12 0.42
-12 0.5800000000000001
13 0.46
-13 0.54
14 0.6
-14 0.4
15 0.76
-15 0.24
16 0.38
-16 0.62
17 0.19
-17 0.81
18 0.64
-18 0.36
19 0.38
-19 0.62
20 0.82
-20 0.18000000000000005
21 0.74
-21 0.26
22 0.85
-22 0.15000000000000002
23 0.67
-23 0.32999999999999996
24 0.28
-24 0.72
25 0.78
-25 0.21999999999999997
26 0.19
-26 0.81
27 0.37
-27 0.63
28 0.81
-28 0.18999999999999995
29 0.65
-29 0.35
30 0.07
-30 0.9299999999999999
31 0.35
-31 0.65
32 0.48
-32 0.52
33 0.61
-33 0.39
34 0.89
-34 0.10999999999999999
35 0.11
-35 0.89
36 0.33
-36 0.6699999999999999
37 0.03
-37 0.97
38 0.52
-38 0.48
39 0.59
-39 0.41000000000000003
40 0.59
-40 0.41000000000000003
41 0.86
-41 0.14
42 0.29
-42 0.71
43 0.5
-43 0.5
44 0.41
-44 0.5900000000000001
45 0.34
-45 0.6599999999999999
46 0.1
-46 0.9
47 0.06
-47 0.94
48 0.98
-48 0.020000000000000018
49 0.78
-49 0.21999999999999997
50 0.22
-50 0.78
51 0.5
-51 0.5
52 0.16
-52 0.84
53 0.75
-53 0.25
54 0.15
-54 0.85
55 0.26
-55 0.74
56 0.74
-56 0.26
57 0.48
-57 0.52
58 0.16
-58 0.84
59 0.96
-59 0.040000000000000036
60 0.75
-60 0.25
61 0.65
-61 0.35
62 0.83
-62 0.17000000000000004
63 0.68
-63 0.31999999999999995
64 0.68
-64 0.31999999999999995
65 0.14
-65 0.86
66 0.49
-66 0.51
67 0.33
-67 0.6699999999999999
68 0.99
-68 0.010000000000000009
69 0.44
-69 0.56
70 0.19
-70 0.81
71 0.03
-71 0.97
72 0.98
-72 0.020000000000000018
73 0.51
-73 0.49
74 0.33
-74 0.6699999999999999
75 0.11
-75 0.89
76 0.14
-76 0.86
77 0.3
-77 0.7
78 0.43
-78 0.5700000000000001
79 0.25
-79 0.75
80 0.76
-80 0.24
81 0.81
-81 0.18999999999999995
82 0.39
-82 0.61
83 0.14
-83 0.86
84 0.4
-84 0.6
85 0.35
-85 0.65
86 0.55
-86 0.44999999999999996
87 0.89
-87 0.10999999999999999
88 0.93
-88 0.06999999999999995
89 0.97
-89 0.030000000000000027
90 0.57
-90 0.43000000000000005
91 0.3
-91 0.7
92 0.98
-92 0.020000000000000018
93 0.75
-93 0.25
94 0.82
-94 0.18000000000000005
95 0.15
-95 0.85
96 0.1
-96 0.9
97 0.76
-97 0.24
98 0.56
-98 0.43999999999999995
99 0.16
-99 0.84
100 0.89
-100 0.10999999999999999
