1 0.39
-1 0.61
2 0.37
-2 0.63
3 0.84
-3 0.16000000000000003
4 0.04
-4 0.96
5 0.92
-5 0.07999999999999996
6 0.9
-6 0.09999999999999998
7 0.37
-7 0.63
8 0.11
-8 0.89
9 0.27
-9 0.73
10 0.58
-10 0.42000000000000004
11 0.45
-11 0.55
12 0.66
-12 0.33999999999999997
13 0.25
-13 0.75
14 0.6
-14 0.4
15 0.13
-15 0.87
16 0.64
-16 0.36
17 0.55
-17 0.44999999999999996
18 0.79
-18 0.20999999999999996
19 0.29
-19 0.71
20 0.94
-20 0.06000000000000005
21 0.97
-21 0.030000000000000027
22 0.27
-22 0.73
23 0.48
-23 0.52
24 0.76
-24 0.24
25 0.29
-25 0.71
26 0.56
-26 0.43999999999999995
27 0.13
-27 0.87
28 0.52
-28 0.48
29 0.27
-29 0.73
30 0.36
-30 0.64
31 0.36
-31 0.64
32 0.1
-32 0.9
33 0.34
-33 0.6599999999999999
34 0.92
-34 0.07999999999999996
35 0.91
-35 0.08999999999999997
36 0.27
-36 0.73
37 0.06
-37 0.94
38 0.27
-38 0.73
39 0.86
-39 0.14
40 0.98
-40 0.020000000000000018
41 0.28
-41 0.72
42 0.52
-42 0.48
43 0.16
-43 0.84
44 0.05
-44 0.95
45 0.33
-45 0.6699999999999999
46 0.83
-46 0.17000000000000004
47 0.45
-47 0.55
48 0.39
-48 0.61
49 0.52
-49 0.48
50 0.66
-50 0.33999999999999997
51 0.5
-51 0.5
52 0.39
-52 0.61
53 0.69
-53 0.31000000000000005
54 0.99
-54 0.010000000000000009
55 0.19
-55 0.81
56 0.35
-56 0.65
57 0.24
-57 0.76
58 0.87
-58 0.13
59 0.21
-59 0.79
60 0.78
-60 0.21999999999999997
61 0.4
-61 0.6
62 0.35
-62 0.65
63 0.41
-63 0.5900000000000001
64 0.75
-64 0.25
65 0.61
-65 0.39
66 0.35
-66 0.65
67 0.26
-67 0.74
68 0.99
-68 0.010000000000000009
69 0.04
-69 0.96
70 0.71
-70 0.29000000000000004
71 0.17
-71 0.83
72 0.49
-72 0.51
73 0.07
-73 0.9299999999999999
74 0.41
-74 0.5900000000000001
75 0.57
-75 0.43000000000000005
76 0.48
-76 0.52
77 0.31
-77 0.69
78 0.32
-78 0.6799999999999999
79 0.27
-79 0.73
80 0.35
-80 0.65
81 0.75
-81 0.25
82 0.93
-82 0.06999999999999995
83 0.74
-83 0.26
84 0.98
-84 0.020000000000000018
85 0.99
-85 0.010000000000000009
86 0.93
-86 0.06999999999999995
87 0.38
-87 0.62
88 0.24
-88 0.76
89 0.62
-89 0.38
90 0.97
-90 0.030000000000000027
91 0.02
-91 0.98
92 0.17
-92 0.83
93 0.7
-93 0.30000000000000004
94 0.49
-94 0.51
95 0.85
-95 0.15000000000000002
96 0.61
-96 0.39
97 0.88
-97 0.12
98 0.44
-98 0.56
99 0.88
-99 0.12
100 0.5
-100 0.5
