1 0.2
-1 0.8
2 0.9
-2 0.09999999999999998
3 0.88
-3 0.12
4 0.53
-4 0.47
5 0.07
-5 0.9299999999999999
6 0.93
-6 0.06999999999999995
7 0.43
-7 0.5700000000000001
8 0.86
-8 0.14
9 0.05
-9 0.95
10 0.63
-10 0.37
11 0.54
-11 0.45999999999999996
12 0.79
-12 0.20999999999999996
13 0.6
-13 0.4
14 0.52
-14 0.48
15 0.6
-15 0.4
16 0.45
-16 0.55
17 0.4
-17 0.6
18 0.61
-18 0.39
19 0.92
-19 0.07999999999999996
20 0.2
-20 0.8
21 0.2
-21 0.8
22 0.1
-22 0.9
23 0.73
-23 0.27
24 0.56
-24 0.43999999999999995
25 0.47
-25 0.53
26 0.28
-26 0.72
27 0.03
-27 0.97
28 0.81
-28 0.18999999999999995
29 0.41
-29 0.5900000000000001
30 0.33
-30 0.6699999999999999
31 0.14
-31 0.86
32 0.91
-32 0.08999999999999997
33 0.84
-33 0.16000000000000003
34 0.94
-34 0.06000000000000005
35 0.82
-35 0.18000000000000005
36 0.24
-36 0.76
37 0.54
-37 0.45999999999999996
38 0.32
-38 0.6799999999999999
39 0.75
-39 0.25
40 0.67
-40 0.32999999999999996
41 0.23
-41 0.77
42 0.15
-42 0.85
43 0.2
-43 0.8
44 0.76
-44 0.24
45 0.23
-45 0.77
46 0.41
-46 0.5900000000000001
47 0.09
-47 0.91
48 0.31
-48 0.69
49 0.12
-49 0.88
50 0.02
-50 0.98
51 0.31
-51 0.69
52 0.43
-52 0.5700000000000001
53 0.34
-53 0.6599999999999999
54 0.18
-54 0.8200000000000001
55 0.59
-55 0.41000000000000003
56 0.86
-56 0.14
57 0.01
-57 0.99
58 0.16
-58 0.84
59 0.97
-59 0.030000000000000027
60 0.11
-60 0.89
61 0.91
-61 0.08999999999999997
62 0.03
-62 0.97
63 0.36
-63 0.64
64 0.23
-64 0.77
65 0.1
-65 0.9
66 0.88
-66 0.12
67 0.21
-67 0.79
68 0.71
-68 0.29000000000000004
69 0.21
-69 0.79
70 0.4
-70 0.6
71 0.44
-71 0.56
72 0.86
-72 0.14
73 0.89
-73 0.10999999999999999
74 0.2
-74 0.8
75 0.04
-75 0.96
76 0.84
-76 0.16000000000000003
77 0.41
-77 0.5900000000000001
78 0.94
-78 0.06000000000000005
79 0.16
-79 0.84
80 0.04
-80 0.96
81 0.73
-81 0.27
82 0.99
-82 0.010000000000000009
83 0.95
-83 0.050000000000000044
84 0.21
-84 0.79
85 0.36
-85 0.64
86 0.02
-86 0.98
87 0.79
-87 0.20999999999999996
88 0.2
-88 0.8
89 0.55
-89 0.44999999999999996
90 0.68
-90 0.31999999999999995
91 0.96
-91 0.040000000000000036
92 0.37
-92 0.63
93 0.11
-93 0.89
94 0.87
-94 0.13
95 0.07
-95 0.9299999999999999
96 0.29
-96 0.71
97 0.48
-97 0.52
98 0.37
-98 0.63
99 0.35
-99 0.65
100 0.57
-100 0.43000000000000005
