1 0.72
-1 0.28
2 0.66
-2 0.33999999999999997
3 0.82
-3 0.18000000000000005
4 0.27
-4 0.73
5 0.56
-5 0.43999999999999995
6 0.5
-6 0.5
7 0.32
-7 0.6799999999999999
8 0.15
-8 0.85
9 0.15
-9 0.85
10 0.86
-10 0.14
11 0.33
-11 0.6699999999999999
12 0.58
-12 0.42000000000000004
13 0.73
-13 0.27
14 0.93
-14 0.06999999999999995
15 0.98
-15 0.020000000000000018
16 0.19
-16 0.81
17 0.24
-17 0.76
18 0.19
-18 0.81
19 0.87
-19 0.13
20 0.45
-20 0.55
21 0.8
-21 0.19999999999999996
22 0.83
-22 0.17000000000000004
23 0.02
-23 0.98
24 0.21
-24 0.79
25 0.24
-25 0.76
26 0.8
-26 0.19999999999999996
27 0.38
-27 0.62
28 0.38
-28 0.62
29 0.82
-29 0.18000000000000005
30 0.35
-30 0.65
31 0.37
-31 0.63
32 0.9
-32 0.09999999999999998
33 0.95
-33 0.050000000000000044
34 0.74
-34 0.26
35 0.14
-35 0.86
36 0.75
-36 0.25
37 0.82
-37 0.18000000000000005
38 0.49
-38 0.51
39 0.45
-39 0.55
40 0.42
-40 0.5800000000000001
41 0.67
-41 0.32999999999999996
42 0.89
-42 0.10999999999999999
43 0.26
-43 0.74
44 0.84
-44 0.16000000000000003
45 0.23
-45 0.77
46 0.85
-46 0.15000000000000002
47 0.78
-47 0.21999999999999997
48 0.73
-48 0.27
49 0.38
-49 0.62
50 0.08
-50 0.92
51 0.2
-51 0.8
52 0.34
-52 0.6599999999999999
53 0.43
-53 0.5700000000000001
54 0.33
-54 0.6699999999999999
55 0.37
-55 0.63
56 0.91
-56 0.08999999999999997
57 0.79
-57 0.20999999999999996
58 0.42
-58 0.5800000000000001
59 0.19
-59 0.81
60 0.61
-60 0.39
61 0.48
-61 0.52
62 0.31
-62 0.69
63 0.64
-63 0.36
64 0.58
-64 0.42000000000000004
65 0.09
-65 0.91
66 0.96
-66 0.040000000000000036
67 0.85
-67 0.15000000000000002
68 0.11
-68 0.89
69 0.24
-69 0.76
70 0.71
-70 0.29000000000000004
71 0.74
-71 0.26
72 0.68
-72 0.31999999999999995
73 0.36
-73 0.64
74 0.14
-74 0.86
75 0.79
-75 0.20999999999999996
76 0.53
-76 0.47
77 0.77
-77 0.22999999999999998
78 0.81
-78 0.18999999999999995
79 0.84
-79 0.16000000000000003
80 0.01
-80 0.99
81 0.26
-81 0.74
82 0.97
-82 0.030000000000000027
83 0.84
-83 0.16000000000000003
84 0.77
-84 0.22999999999999998
85 0.7
-85 0.30000000000000004
86 0.18
-86 0.8200000000000001
87 0.75
-87 0.25
88 0.22
-88 0.78
89 0.79
-89 0.20999999999999996
90 0.27
-90 0.73
91 0.47
-91 0.53
92 0.39
-92 0.61
93 0.6
-93 0.4
94 0.9
-94 0.09999999999999998
95 0.84
-95 0.16000000000000003
96 0.29
-96 0.71
97 0.79
-97 0.20999999999999996
98 0.81
-98 0.18999999999999995
99 0.46
-99 0.54
100 0.68
-100 0.31999999999999995
