1 0.61
-1 0.39
2 0.68
-2 0.31999999999999995
3 0.48
-3 0.52
4 0.08
-4 0.92
5 0.92
-5 0.07999999999999996
6 0.46
-6 0.54
7 0.93
-7 0.06999999999999995
8 0.35
-8 0.65
9 0.63
-9 0.37
10 0.71
-10 0.29000000000000004
11 0.27
-11 0.73
12 0.57
-12 0.43000000000000005
13 0.41
-13 0.5900000000000001
14 0.79
-14 0.20999999999999996
15 0.47
-15 0.53
16 0.84
-16 0.16000000000000003
17 0.36
-17 0.64
18 0.96
-18 0.040000000000000036
19 0.42
-19 0.5800000000000001
20 0.65
-20 0.35
21 0.71
-21 0.29000000000000004
22 0.38
-22 0.62
23 0.26
-23 0.74
24 0.92
-24 0.07999999999999996
25 0.11
-25 0.89
26 0.75
-26 0.25
27 0.04
-27 0.96
28 0.6
-28 0.4
29 0.59
-29 0.41000000000000003
30 0.61
-30 0.39
31 0.22
-31 0.78
32 0.75
-32 0.25
33 0.46
-33 0.54
34 0.97
-34 0.030000000000000027
35 0.3
-35 0.7
36 0.31
-36 0.69
37 0.39
-37 0.61
38 0.54
-38 0.45999999999999996
39 0.24
-39 0.76
40 0.83
-40 0.17000000000000004
41 0.13
-41 0.87
42 0.43
-42 0.5700000000000001
43 0.27
-43 0.73
44 0.55
-44 0.44999999999999996
45 0.18
-45 0.8200000000000001
46 0.49
-46 0.51
47 0.03
-47 0.97
48 0.06
-48 0.94
49 0.56
-49 0.43999999999999995
50 0.16
-50 0.84
51 0.63
-51 0.37
52 0.29
-52 0.71
53 0.84
-53 0.16000000000000003
54 0.9
-54 0.09999999999999998
55 0.62
-55 0.38
56 0.92
-56 0.07999999999999996
57 0.04
-57 0.96
58 0.81
-58 0.18999999999999995
59 0.6
-59 0.4
60 0.74
-60 0.26
61 0.32
-61 0.6799999999999999
62 0.7
-62 0.30000000000000004
63 0.85
-63 0.15000000000000002
64 0.58
-64 0.42000000000000004
65 0.23
-65 0.77
66 0.45
-66 0.55
67 0.88
-67 0.12
68 0.04
-68 0.96
69 0.06
-69 0.94
70 0.29
-70 0.71
71 0.23
-71 0.77
72 0.93
-72 0.06999999999999995
73 0.57
-73 0.43000000000000005
74 0.83
-74 0.17000000000000004
75 0.25
-75 0.75
76 0.37
-76 0.63
77 0.06
-77 0.94
78 0.77
-78 0.22999999999999998
79 0.36
-79 0.64
80 0.45
-80 0.55
81 0.63
-81 0.37
82 0.6
-82 0.4
83 0.82
-83 0.18000000000000005
84 0.23
-84 0.77
85 0.86
-85 0.14
86 0.49
-86 0.51
87 0.23
-87 0.77
88 0.57
-88 0.43000000000000005
89 0.57
-89 0.43000000000000005
90 0.52
-90 0.48
91 0.95
-91 0.050000000000000044
92 0.96
-92 0.040000000000000036
93 0.58
-93 0.42000000000000004
94 0.69
-94 0.31000000000000005
95 0.49
-95 0.51
96 0.24
-96 0.76
97 0.33
-97 0.6699999999999999
98 0.68
-98 0.31999999999999995
99 0.3
-99 0.7
100 0.2
-100 0.8
