1 0.09
-1 0.91
2 0.68
-2 0.31999999999999995
3 0.08
-3 0.92
4 0.88
-4 0.12
5 0.34
-5 0.6599999999999999
6 0.88
-6 0.12
7 0.88
-7 0.12
8 0.86
-8 0.14
9 0.78
-9 0.21999999999999997
10 0.01
-10 0.99
11 0.17
-11 0.83
12 0.37
-12 0.63
13 0.05
-13 0.95
14 0.5
-14 0.5
15 0.36
-15 0.64
16 0.08
-16 0.92
17 0.34
-17 0.6599999999999999
18 0.06
-18 0.94
19 0.05
-19 0.95
20 0.05
-20 0.95
21 0.57
-21 0.43000000000000005
22 0.45
-22 0.55
23 0.25
-23 0.75
24 0.15
-24 0.85
25 0.86
-25 0.14
26 0.59
-26 0.41000000000000003
27 0.49
-27 0.51
28 0.08
-28 0.92
29 0.44
-29 0.56
30 0.05
-30 0.95
31 0.27
-31 0.73
32 0.34
-32 0.6599999999999999
33 0.99
-33 0.010000000000000009
34 0.53
-34 0.47
35 0.67
-35 0.32999999999999996
36 0.89
-36 0.10999999999999999
37 0.79
-37 0.20999999999999996
38 0.66
-38 0.33999999999999997
39 0.96
-39 0.040000000000000036
40 0.34
-40 0.6599999999999999
41 0.83
-41 0.17000000000000004
42 0.87
-42 0.13
43 0.17
-43 0.83
44 0.97
-44 0.030000000000000027
45 0.6
-45 0.4
46 0.59
-46 0.41000000000000003
47 0.15
-47 0.85
48 0.63
-48 0.37
49 0.48
-49 0.52
50 0.42
-50 0.5800000000000001
51 0.72
-51 0.28
52 0.62
-52 0.38
53 0.6
-53 0.4
54 0.74
-54 0.26
55 0.99
-55 0.010000000000000009
56 0.27
-56 0.73
57 0.66
-57 0.33999999999999997
58 0.24
-58 0.76
59 0.17
-59 0.83
60 0.63
-60 0.37
61 0.98
-61 0.020000000000000018
62 0.85
-62 0.15000000000000002
63 0.86
-63 0.14
64 0.03
-64 0.97
65 0.79
-65 0.20999999999999996
66 0.41
-66 0.5900000000000001
67 0.48
-67 0.52
68 0.48
-68 0.52
69 0.54
-69 0.45999999999999996
70 0.76
-70 0.24
71 0.09
-71 0.91
72 0.71
-72 0.29000000000000004
73 0.49
-73 0.51
74 0.18
-74 0.8200000000000001
75 0.08
-75 0.92
76 0.54
-76 0.45999999999999996
77 0.09
-77 0.91
78 0.42
-78 0.5800000000000001
79 0.15
-79 0.85
80 0.49
-80 0.51
81 0.59
-81 0.41000000000000003
82 0.67
-82 0.32999999999999996
83 0.58
-83 0.42000000000000004
84 0.12
-84 0.88
85 0.59
-85 0.41000000000000003
86 0.43
-86 0.5700000000000001
87 0.5
-87 0.5
88 0.33
-88 0.6699999999999999
89 0.03
-89 0.97
90 0.36
-90 0.64
91 0.97
-91 0.030000000000000027
92 0.32
-92 0.6799999999999999
93 0.62
-93 0.38
94 0.32
-94 0.6799999999999999
95 0.81
-95 0.18999999999999995
96 0.84
-96 0.16000000000000003
97 0.76
-97 0.24
98 0.7
-98 0.30000000000000004
99 0.6
-99 0.4
100 0.23
-100 0.77
