1 0.42
-1 0.5800000000000001
2 0.11
-2 0.89
3 0.02
-3 0.98
4 0.82
-4 0.18000000000000005
5 0.8
-5 0.19999999999999996
6 0.6
-6 0.4
7 0.84
-7 0.16000000000000003
8 0.66
-8 0.33999999999999997
9 0.59
-9 0.41000000000000003
10 0.96
-10 0.040000000000000036
11 0.68
-11 0.31999999999999995
12 0.12
-12 0.88
13 0.12
-13 0.88
14 0.61
-14 0.39
15 0.55
-15 0.44999999999999996
16 0.67
-16 0.32999999999999996
17 0.73
-17 0.27
18 0.84
-18 0.16000000000000003
19 0.52
-19 0.48
20 0.89
-20 0.10999999999999999
21 0.76
-21 0.24
22 0.88
-22 0.12
23 0.95
-23 0.050000000000000044
24 0.97
-24 0.030000000000000027
25 0.22
-25 0.78
26 0.8
-26 0.19999999999999996
27 0.67
-27 0.32999999999999996
28 0.45
-28 0.55
29 0.26
-29 0.74
30 0.18
-30 0.8200000000000001
31 0.41
-31 0.5900000000000001
32 0.39
-32 0.61
33 0.1
-33 0.9
34 0.62
-34 0.38
35 0.55
-35 0.44999999999999996
36 0.88
-36 0.12
37 0.12
-37 0.88
38 0.9
-38 0.09999999999999998
39 0.98
-39 0.020000000000000018
40 0.76
-40 0.24
41 0.34
-41 0.6599999999999999
42 0.48
-42 0.52
43 0.73
-43 0.27
44 0.74
-44 0.26
45 0.74
-45 0.26
46 0.74
-46 0.26
47 0.03
-47 0.97
48 0.11
-48 0.89
49 0.97
-49 0.030000000000000027
50 0.16
-50 0.84
51 0.76
-51 0.24
52 0.7
-52 0.30000000000000004
53 0.45
-53 0.55
54 0.81
-54 0.18999999999999995
55 0.26
-55 0.74
56 0.13
-56 0.87
57 0.25
-57 0.75
58 0.15
-58 0.85
59 0.11
-59 0.89
60 0.86
-60 0.14
61 0.98
-61 0.020000000000000018
62 0.11
-62 0.89
63 0.42
-63 0.5800000000000001
64 0.79
-64 0.20999999999999996
65 0.94
-65 0.06000000000000005
66 0.86
-66 0.14
67 0.77
-67 0.22999999999999998
68 0.71
-68 0.29000000000000004
69 0.27
-69 0.73
70 0.28
-70 0.72
71 0.2
-71 0.8
72 0.12
-72 0.88
73 0.9
-73 0.09999999999999998
74 0.32
-74 0.6799999999999999
75 0.74
-75 0.26
76 0.7
-76 0.30000000000000004
77 0.97
-77 0.030000000000000027
78 0.59
-78 0.41000000000000003
79 0.64
-79 0.36
80 0.27
-80 0.73
81 0.24
-81 0.76
82 0.44
-82 0.56
83 0.53
-83 0.47
84 0.75
-84 0.25
85 0.52
-85 0.48
86 0.16
-86 0.84
87 0.57
-87 0.43000000000000005
88 0.4
-88 0.6
89 0.6
-89 0.4
90 0.54
-90 0.45999999999999996
91 0.56
-91 0.43999999999999995
92 0.61
-92 0.39
93 0.32
-93 0.6799999999999999
94 0.19
-94 0.81
95 0.94
-95 0.06000000000000005
96 0.5
-96 0.5
97 0.33
-97 0.6699999999999999
98 0.06
-98 0.94
99 0.27
-99 0.73
100 0.54
-100 0.45999999999999996
