1 0.25
-1 0.75
2 0.31
-2 0.69
3 0.28
-3 0.72
4 0.9
-4 0.09999999999999998
5 0.78
-5 0.21999999999999997
6 0.71
-6 0.29000000000000004
7 0.89
-7 0.10999999999999999
8 0.48
-8 0.52
9 0.17
-9 0.83
10 0.83
-10 0.17000000000000004
11 0.02
-11 0.98
12 0.15
-12 0.85
13 0.88
-13 0.12
14 0.61
-14 0.39
15 0.95
-15 0.050000000000000044
16 0.35
-16 0.65
17 0.92
-17 0.07999999999999996
18 0.14
-18 0.86
19 0.62
-19 0.38
20 0.39
-20 0.61
21 0.97
-21 0.030000000000000027
22 0.26
-22 0.74
23 0.92
-23 0.07999999999999996
24 0.27
-24 0.73
25 0.44
-25 0.56
26 0.76
-26 0.24
27 0.36
-27 0.64
28 0.49
-28 0.51
29 0.96
-29 0.040000000000000036
30 0.06
-30 0.94
31 0.07
-31 0.9299999999999999
32 0.46
-32 0.54
33 0.34
-33 0.6599999999999999
34 0.33
-34 0.6699999999999999
35 0.56
-35 0.43999999999999995
36 0.75
-36 0.25
37 0.29
-37 0.71
38 0.32
-38 0.6799999999999999
39 0.82
-39 0.18000000000000005
40 0.91
-40 0.08999999999999997
41 0.65
-41 0.35
42 0.54
-42 0.45999999999999996
43 0.97
-43 0.030000000000000027
44 0.35
-44 0.65
45 0.8
-45 0.19999999999999996
46 0.97
-46 0.030000000000000027
47 0.1
-47 0.9
48 0.25
-48 0.75
49 0.52
-49 0.48
50 0.69
-50 0.31000000000000005
51 0.91
-51 0.08999999999999997
52 0.85
-52 0.15000000000000002
53 0.94
-53 0.06000000000000005
54 0.16
-54 0.84
55 0.95
-55 0.050000000000000044
56 0.7
-56 0.30000000000000004
57 0.01
-57 0.99
58 0.71
-58 0.29000000000000004
59 0.6
-59 0.4
60 0.88
-60 0.12
61 0.26
-61 0.74
62 0.08
-62 0.92
63 0.62
-63 0.38
64 0.57
-64 0.43000000000000005
65 0.06
-65 0.94
66 0.36
-66 0.64
67 0.55
-67 0.44999999999999996
68 0.58
-68 0.42000000000000004
69 0.24
-69 0.76
70 0.92
-70 0.07999999999999996
71 0.03
-71 0.97
72 0.27
-72 0.73
73 0.07
-73 0.9299999999999999
74 0.76
-74 0.24
75 0.1
-75 0.9
76 0.52
-76 0.48
77 0.43
-77 0.5700000000000001
78 0.69
-78 0.31000000000000005
79 0.37
-79 0.63
80 0.3
-80 0.7
81 0.67
-81 0.32999999999999996
82 0.22
-82 0.78
83 0.05
-83 0.95
84 0.42
-84 0.5800000000000001
85 0.9
-85 0.09999999999999998
86 0.19
-86 0.81
87 0.38
-87 0.62
88 0.98
-88 0.020000000000000018
89 0.39
-89 0.61
90 0.31
-90 0.69
91 0.54
-91 0.45999999999999996
92 0.15
-92 0.85
93 0.27
-93 0.73
94 0.34
-94 0.6599999999999999
95 0.13
-95 0.87
96 0.5
-96 0.5
97 0.02
-97 0.98
98 0.98
-98 0.020000000000000018
99 0.65
-99 0.35
100 0.42
-100 0.5800000000000001
