1 0.17
-1 0.83
2 0.88
-2 0.12
3 0.34
-3 0.6599999999999999
4 0.07
-4 0.9299999999999999
5 0.76
-5 0.24
6 0.54
-6 0.45999999999999996
7 0.42
-7 0.5800000000000001
8 0.2
-8 0.8
9 0.08
-9 0.92
10 0.02
-10 0.98
11 0.4
-11 0.6
12 0.06
-12 0.94
13 0.47
-13 0.53
14 0.55
-14 0.44999999999999996
15 0.29
-15 0.71
16 0.91
-16 0.08999999999999997
17 0.36
-17 0.64
18 0.22
-18 0.78
19 0.31
-19 0.69
20 0.78
-20 0.21999999999999997
21 0.18
-21 0.8200000000000001
22 0.38
-22 0.62
23 0.98
-23 0.020000000000000018
24 0.75
-24 0.25
25 0.11
-25 0.89
26 0.34
-26 0.6599999999999999
27 0.07
-27 0.9299999999999999
28 0.53
-28 0.47
29 0.97
-29 0.030000000000000027
30 0.46
-30 0.54
31 0.29
-31 0.71
32 0.09
-32 0.91
33 0.92
-33 0.07999999999999996
34 0.33
-34 0.6699999999999999
35 0.43
-35 0.5700000000000001
36 0.35
-36 0.65
37 0.12
-37 0.88
38 0.03
-38 0.97
39 0.91
-39 0.08999999999999997
40 0.91
-40 0.08999999999999997
41 0.91
-41 0.08999999999999997
42 0.55
-42 0.44999999999999996
43 0.55
-43 0.44999999999999996
44 0.19
-44 0.81
45 0.56
-45 0.43999999999999995
46 0.88
-46 0.12
47 0.64
-47 0.36
48 0.48
-48 0.52
49 0.98
-49 0.020000000000000018
50 0.98
-50 0.020000000000000018
51 0.85
-51 0.15000000000000002
52 0.17
-52 0.83
53 0.59
-53 0.41000000000000003
54 0.89
-54 0.10999999999999999
55 0.66
-55 0.33999999999999997
56 0.84
-56 0.16000000000000003
57 0.32
-57 0.6799999999999999
58 0.21
-58 0.79
59 0.65
-59 0.35
60 0.38
-60 0.62
61 0.86
-61 0.14
62 0.2
-62 0.8
63 0.98
-63 0.020000000000000018
64 0.17
-64 0.83
65 0.45
-65 0.55
66 0.74
-66 0.26
67 0.44
-67 0.56
68 0.07
-68 0.9299999999999999
69 0.11
-69 0.89
70 0.04
-70 0.96
71 0.66
-71 0.33999999999999997
72 0.47
-72 0.53
73 0.96
-73 0.040000000000000036
74 0.23
-74 0.77
75 0.2
-75 0.8
76 0.23
-76 0.77
77 0.35
-77 0.65
78 0.2
-78 0.8
79 0.86
-79 0.14
80 0.65
-80 0.35
81 0.97
-81 0.030000000000000027
82 0.93
-82 0.06999999999999995
83 0.98
-83 0.020000000000000018
84 0.35
-84 0.65
85 0.16
-85 0.84
86 0.65
-86 0.35
87 0.51
-87 0.49
88 0.79
-88 0.20999999999999996
89 0.51
-89 0.49
90 0.92
-90 0.07999999999999996
91 0.56
-91 0.43999999999999995
92 0.62
-92 0.38
93 0.73
-93 0.27
94 0.98
-94 0.020000000000000018
95 0.15
-95 0.85
96 0.96
-96 0.040000000000000036
97 0.16
-97 0.84
98 0.93
-98 0.06999999999999995
99 0.81
-99 0.18999999999999995
100 0.24
-100 0.76
