1 0.34
-1 0.6599999999999999
2 0.63
-2 0.37
3 0.59
-3 0.41000000000000003
4 0.76
-4 0.24
5 0.7
-5 0.30000000000000004
6 0.71
-6 0.29000000000000004
7 0.68
-7 0.31999999999999995
8 0.38
-8 0.62
9 0.95
-9 0.050000000000000044
10 0.77
-10 0.22999999999999998
11 0.56
-11 0.43999999999999995
12 0.4
-12 0.6
13 0.73
-13 0.27
14 0.93
-14 0.06999999999999995
15 0.11
-15 0.89
16 0.74
-16 0.26
17 0.24
-17 0.76
18 0.44
-18 0.56
19 0.6
-19 0.4
20 0.12
-20 0.88
21 0.65
-21 0.35
22 0.63
-22 0.37
23 0.45
-23 0.55
24 0.58
-24 0.42000000000000004
25 0.49
-25 0.51
26 0.16
-26 0.84
27 0.39
-27 0.61
28 0.15
-28 0.85
29 0.17
-29 0.83
30 0.02
-30 0.98
31 0.3
-31 0.7
32 0.6
-32 0.4
33 0.94
-33 0.06000000000000005
34 0.33
-34 0.6699999999999999
35 0.45
-35 0.55
36 0.59
-36 0.41000000000000003
37 0.03
-37 0.97
38 0.42
-38 0.5800000000000001
39 0.23
-39 0.77
40 0.17
-40 0.83
41 0.22
-41 0.78
42 0.3
-42 0.7
43 0.56
-43 0.43999999999999995
44 0.62
-44 0.38
45 0.95
-45 0.050000000000000044
46 0.27
-46 0.73
47 0.37
-47 0.63
48 0.75
-48 0.25
49 0.85
-49 0.15000000000000002
50 0.16
-50 0.84
51 0.9
-51 0.09999999999999998
52 0.21
-52 0.79
53 0.54
-53 0.45999999999999996
54 0.96
-54 0.040000000000000036
55 0.6
-55 0.4
56 0.01
-56 0.99
57 0.58
-57 0.42000000000000004
58 0.11
-58 0.89
59 0.03
-59 0.97
60 0.09
-60 0.91
61 0.59
-61 0.41000000000000003
62 0.15
-62 0.85
63 0.56
-63 0.43999999999999995
64 0.36
-64 0.64
65 0.92
-65 0.07999999999999996
66 0.52
-66 0.48
67 0.67
-67 0.32999999999999996
68 0.81
-68 0.18999999999999995
69 0.14
-69 0.86
70 0.77
-70 0.22999999999999998
71 0.67
-71 0.32999999999999996
72 0.41
-72 0.5900000000000001
73 0.32
-73 0.6799999999999999
74 0.63
-74 0.37
75 0.89
-75 0.10999999999999999
76 0.78
-76 0.21999999999999997
77 0.05
-77 0.95
78 0.92
-78 0.07999999999999996
79 0.56
-79 0.43999999999999995
80 0.93
-80 0.06999999999999995
81 0.6
-81 0.4
82 0.04
-82 0.96
83 0.04
-83 0.96
84 0.9
-84 0.09999999999999998
85 0.2
-85 0.8
86 0.94
-86 0.06000000000000005
87 0.94
-87 0.06000000000000005
88 0.46
-88 0.54
89 0.11
-89 0.89
90 0.68
-90 0.31999999999999995
91 0.7
-91 0.30000000000000004
92 0.49
-92 0.51
93 0.47
-93 0.53
94 0.23
-94 0.77
95 0.49
-95 0.51
96 0.02
-96 0.98
97 0.34
-97 0.6599999999999999
98 0.7
-98 0.30000000000000004
99 0.91
-99 0.08999999999999997
100 0.86
-100 0.14
