1 0.29
-1 0.71
2 0.88
-2 0.12
3 0.78
-3 0.21999999999999997
4 0.47
-4 0.53
5 0.15
-5 0.85
6 0.36
-6 0.64
7 0.67
-7 0.32999999999999996
8 0.2
-8 0.8
9 0.01
-9 0.99
10 0.58
-10 0.42000000000000004
11 0.71
-11 0.29000000000000004
12 0.83
-12 0.17000000000000004
13 0.22
-13 0.78
14 0.15
-14 0.85
15 0.92
-15 0.07999999999999996
16 0.38
-16 0.62
17 0.23
-17 0.77
18 0.49
-18 0.51
19 0.74
-19 0.26
20 0.89
-20 0.10999999999999999
21 0.16
-21 0.84
22 0.88
-22 0.12
23 0.2
-23 0.8
24 0.75
-24 0.25
25 0.32
-25 0.6799999999999999
26 0.66
-26 0.33999999999999997
27 0.5
-27 0.5
28 0.73
-28 0.27
29 0.83
-29 0.17000000000000004
30 0.12
-30 0.88
31 0.29
-31 0.71
32 0.08
-32 0.92
33 0.08
-33 0.92
34 0.55
-34 0.44999999999999996
35 0.37
-35 0.63
36 0.61
-36 0.39
37 0.71
-37 0.29000000000000004
38 0.2
-38 0.8
39 0.02
-39 0.98
40 0.86
-40 0.14
41 0.25
-41 0.75
42 0.91
-42 0.08999999999999997
43 0.6
-43 0.4
44 0.58
-44 0.42000000000000004
45 0.41
-45 0.5900000000000001
46 0.96
-46 0.040000000000000036
47 0.04
-47 0.96
48 0.11
-48 0.89
49 0.49
-49 0.51
50 0.11
-50 0.89
51 0.89
-51 0.10999999999999999
52 0.28
-52 0.72
53 0.41
-53 0.5900000000000001
54 0.94
-54 0.06000000000000005
55 0.87
-55 0.13
56 0.08
-56 0.92
57 0.46
-57 0.54
58 0.4
-58 0.6
59 0.8
-59 0.19999999999999996
60 0.34
-60 0.6599999999999999
61 0.82
-61 0.18000000000000005
62 0.89
-62 0.10999999999999999
63 0.56
-63 0.43999999999999995
64 0.51
-64 0.49
65 0.23
-65 0.77
66 0.88
-66 0.12
67 0.7
-67 0.30000000000000004
68 0.04
-68 0.96
69 0.46
-69 0.54
70 0.8
-70 0.19999999999999996
71 0.81
-71 0.18999999999999995
72 0.34
-72 0.6599999999999999
73 0.38
-73 0.62
74 0.42
-74 0.5800000000000001
75 0.72
-75 0.28
76 0.7
-76 0.30000000000000004
77 0.62
-77 0.38
78 0.3
-78 0.7
79 0.3
-79 0.7
80 0.56
-80 0.43999999999999995
81 0.76
-81 0.24
82 0.06
-82 0.94
83 0.16
-83 0.84
84 0.36
-84 0.64
85 0.8
-85 0.19999999999999996
86 0.01
-86 0.99
87 0.05
-87 0.95
88 0.56
-88 0.43999999999999995
89 0.28
-89 0.72
90 0.43
-90 0.5700000000000001
91 0.29
-91 0.71
92 0.19
-92 0.81
93 0.55
-93 0.44999999999999996
94 0.27
-94 0.73
95 0.8
-95 0.19999999999999996
96 0.47
-96 0.53
97 0.54
-97 0.45999999999999996
98 0.66
-98 0.33999999999999997
99 0.25
-99 0.75
100 0.94
-100 0.06000000000000005
