1 0.48
-1 0.52
2 0.05
-2 0.95
3 0.05
-3 0.95
4 0.88
-4 0.12
5 0.38
-5 0.62
6 0.68
-6 0.31999999999999995
7 0.43
-7 0.5700000000000001
8 0.11
-8 0.89
9 0.75
-9 0.25
10 0.2
-10 0.8
11 0.87
-11 0.13
12 0.72
-12 0.28
13 0.04
-13 0.96
14 0.93
-14 0.06999999999999995
15 0.91
-15 0.08999999999999997
16 0.93
-16 0.06999999999999995
17 0.82
-17 0.18000000000000005
18 0.58
-18 0.42000000000000004
19 0.44
-19 0.56
20 0.76
-20 0.24
21 0.89
-21 0.10999999999999999
22 0.52
-22 0.48
23 0.85
-23 0.15000000000000002
24 0.25
-24 0.75
25 0.06
-25 0.94
26 0.72
-26 0.28
27 0.79
-27 0.20999999999999996
28 0.24
-28 0.76
29 0.47
-29 0.53
30 0.96
-30 0.040000000000000036
31 0.15
-31 0.85
32 0.75
-32 0.25
33 0.56
-33 0.43999999999999995
34 0.54
-34 0.45999999999999996
35 0.81
-35 0.18999999999999995
36 0.41
-36 0.5900000000000001
37 0.99
-37 0.010000000000000009
38 0.93
-38 0.06999999999999995
39 0.21
-39 0.79
40 0.9
-40 0.09999999999999998
41 0.23
-41 0.77
42 0.2
-42 0.8
43 0.81
-43 0.18999999999999995
44 0.27
-44 0.73
45 0.57
-45 0.43000000000000005
46 0.83
-46 0.17000000000000004
47 0.03
-47 0.97
48 0.94
-48 0.06000000000000005
49 0.62
-49 0.38
50 0.9
-50 0.09999999999999998
51 0.64
-51 0.36
52 0.65
-52 0.35
53 0.77
-53 0.22999999999999998
54 0.55
-54 0.44999999999999996
55 0.36
-55 0.64
56 0.61
-56 0.39
57 0.08
-57 0.92
58 0.2
-58 0.8
59 0.68
-59 0.31999999999999995
60 0.37
-60 0.63
61 0.52
-61 0.48
62 0.18
-62 0.8200000000000001
63 0.89
-63 0.10999999999999999
64 0.16
-64 0.84
65 0.78
-65 0.21999999999999997
66 0.99
-66 0.010000000000000009
67 0.67
-67 0.32999999999999996
68 0.15
-68 0.85
69 0.97
-69 0.030000000000000027
70 0.2
-70 0.8
71 0.24
-71 0.76
72 0.27
-72 0.73
73 0.76
-73 0.24
74 0.97
-74 0.030000000000000027
75 0.68
-75 0.31999999999999995
76 0.22
-76 0.78
77 0.25
-77 0.75
78 0.79
-78 0.20999999999999996
79 0.58
-79 0.42000000000000004
80 0.2
-80 0.8
81 0.42
-81 0.5800000000000001
82 0.72
-82 0.28
83 0.17
-83 0.83
84 0.9
-84 0.09999999999999998
85 0.8
-85 0.19999999999999996
86 0.57
-86 0.43000000000000005
87 0.74
-87 0.26
88 0.63
-88 0.37
89 0.08
-89 0.92
90 0.97
-90 0.030000000000000027
91 0.07
-91 0.9299999999999999
92 0.77
-92 0.22999999999999998
93 0.02
-93 0.98
94 0.36
-94 0.64
95 0.25
-95 0.75
96 0.33
-96 0.6699999999999999
97 0.92
-97 0.07999999999999996
98 0.48
-98 0.52
99 0.17
-99 0.83
100 0.3
-100 0.7
