1 0.31
-1 0.69
2 0.52
-2 0.48
3 0.82
-3 0.18000000000000005
4 0.8
-4 0.19999999999999996
5 0.55
-5 0.44999999999999996
6 0.53
-6 0.47
7 0.4
-7 0.6
8 0.74
-8 0.26
9 0.44
-9 0.56
10 0.13
-10 0.87
11 0.55
-11 0.44999999999999996
12 0.91
-12 0.08999999999999997
13 0.93
-13 0.06999999999999995
14 0.54
-14 0.45999999999999996
15 0.61
-15 0.39
16 0.85
-16 0.15000000000000002
17 0.18
-17 0.8200000000000001
18 0.49
-18 0.51
19 0.72
-19 0.28
20 0.36
-20 0.64
21 0.71
-21 0.29000000000000004
22 0.52
-22 0.48
23 0.92
-23 0.07999999999999996
24 0.18
-24 0.8200000000000001
25 0.6
-25 0.4
26 0.69
-26 0.31000000000000005
27 0.53
-27 0.47
28 0.08
-28 0.92
29 0.24
-29 0.76
30 0.58
-30 0.42000000000000004
31 0.79
-31 0.20999999999999996
32 0.21
-32 0.79
33 0.36
-33 0.64
34 0.53
-34 0.47
35 0.37
-35 0.63
36 0.34
-36 0.6599999999999999
37 0.72
-37 0.28
38 0.09
-38 0.91
39 0.9
-39 0.09999999999999998
40 0.06
-40 0.94
41 0.86
-41 0.14
42 0.7
-42 0.30000000000000004
43 0.18
-43 0.8200000000000001
44 0.56
-44 0.43999999999999995
45 0.64
-45 0.36
46 0.89
-46 0.10999999999999999
47 0.16
-47 0.84
48 0.27
-48 0.73
49 0.68
-49 0.31999999999999995
50 0.78
-50 0.21999999999999997
51 0.05
-51 0.95
52 0.31
-52 0.69
53 0.27
-53 0.73
54 0.72
-54 0.28
55 0.5
-55 0.5
56 0.45
-56 0.55
57 0.36
-57 0.64
58 0.13
-58 0.87
59 0.13
-59 0.87
60 0.39
-60 0.61
61 0.41
-61 0.5900000000000001
62 0.5
-62 0.5
63 0.69
-63 0.31000000000000005
64 0.29
-64 0.71
65 0.96
-65 0.040000000000000036
66 0.72
-66 0.28
67 0.65
-67 0.35
68 0.28
-68 0.72
69 0.74
-69 0.26
70 0.61
-70 0.39
71 0.67
-71 0.32999999999999996
72 0.46
-72 0.54
73 0.36
-73 0.64
74 0.43
-74 0.5700000000000001
75 0.46
-75 0.54
76 0.32
-76 0.6799999999999999
77 0.02
-77 0.98
78 0.31
-78 0.69
79 0.2
-79 0.8
80 0.86
-80 0.14
81 0.95
-81 0.050000000000000044
82 0.15
-82 0.85
83 0.04
-83 0.96
84 0.7
-84 0.30000000000000004
85 0.35
-85 0.65
86 0.07
-86 0.9299999999999999
87 0.25
-87 0.75
88 0.97
-88 0.030000000000000027
89 0.54
-89 0.45999999999999996
90 0.74
-90 0.26
91 0.72
-91 0.28
92 0.57
-92 0.43000000000000005
93 0.86
-93 0.14
94 0.7
-94 0.30000000000000004
95 0.51
-95 0.49
96 0.2
-96 0.8
97 0.5
-97 0.5
98 0.97
-98 0.030000000000000027
99 0.28
-99 0.72
100 0.13
-100 0.87
