1 0.75
-1 0.25
2 0.78
-2 0.21999999999999997
3 0.43
-3 0.5700000000000001
4 0.81
-4 0.18999999999999995
5 0.49
-5 0.51
6 0.84
-6 0.16000000000000003
7 0.33
-7 0.6699999999999999
8 0.02
-8 0.98
9 0.14
-9 0.86
10 0.96
-10 0.040000000000000036
11 0.46
-11 0.54
12 0.91
-12 0.08999999999999997
13 0.01
-13 0.99
14 0.82
-14 0.18000000000000005
15 0.36
-15 0.64
16 0.53
-16 0.47
17 0.88
-17 0.12
18 0.46
-18 0.54
19 0.36
-19 0.64
20 0.11
-20 0.89
21 0.22
-21 0.78
22 0.15
-22 0.85
23 0.09
-23 0.91
24 0.96
-24 0.040000000000000036
25 0.54
-25 0.45999999999999996
26 0.61
-26 0.39
27 0.99
-27 0.010000000000000009
28 0.36
-28 0.64
29 0.76
-29 0.24
30 0.9
-30 0.09999999999999998
31 0.53
-31 0.47
32 0.88
-32 0.12
33 0.44
-33 0.56
34 0.71
-34 0.29000000000000004
35 0.38
-35 0.62
36 0.46
-36 0.54
37 0.57
-37 0.43000000000000005
38 0.86
-38 0.14
39 0.58
-39 0.42000000000000004
40 0.14
-40 0.86
41 0.59
-41 0.41000000000000003
42 0.47
-42 0.53
43 0.29
-43 0.71
44 0.45
-44 0.55
45 0.92
-45 0.07999999999999996
46 0.78
-46 0.21999999999999997
47 0.88
-47 0.12
48 0.38
-48 0.62
49 0.81
-49 0.18999999999999995
50 0.04
-50 0.96
51 0.45
-51 0.55
52 0.96
-52 0.040000000000000036
53 0.92
-53 0.07999999999999996
54 0.72
-54 0.28
55 0.34
-55 0.6599999999999999
56 0.73
-56 0.27
57 0.33
-57 0.6699999999999999
58 0.43
-58 0.5700000000000001
59 0.02
-59 0.98
60 0.09
-60 0.91
61 0.21
-61 0.79
62 0.25
-62 0.75
63 0.69
-63 0.31000000000000005
64 0.38
-64 0.62
65 0.08
-65 0.92
66 0.09
-66 0.91
67 0.42
-67 0.5800000000000001
68 0.27
-68 0.73
69 0.55
-69 0.44999999999999996
70 0.98
-70 0.020000000000000018
71 0.95
-71 0.050000000000000044
72 0.87
-72 0.13
73 0.96
-73 0.040000000000000036
74 0.52
-74 0.48
75 0.24
-75 0.76
76 0.07
-76 0.9299999999999999
77 0.17
-77 0.83
78 0.96
-78 0.040000000000000036
79 0.56
-79 0.43999999999999995
80 0.45
-80 0.55
81 0.8
-81 0.19999999999999996
82 0.13
-82 0.87
83 0.63
-83 0.37
84 0.87
-84 0.13
85 0.12
-85 0.88
86 0.28
-86 0.72
87 0.74
-87 0.26
88 0.8
-88 0.19999999999999996
89 0.35
-89 0.65
90 0.76
-90 0.24
91 0.3
-91 0.7
92 0.9
-92 0.09999999999999998
93 0.37
-93 0.63
94 0.79
-94 0.20999999999999996
95 0.06
-95 0.94
96 0.6
-96 0.4
97 0.52
-97 0.48
98 0.01
-98 0.99
99 0.64
-99 0.36
100 0.79
-100 0.20999999999999996
