1 0.08
-1 0.92
2 0.23
-2 0.77
3 0.1
-3 0.9
4 0.18
-4 0.8200000000000001
5 0.8
-5 0.19999999999999996
6 0.66
-6 0.33999999999999997
7 0.98
-7 0.020000000000000018
8 0.05
-8 0.95
9 0.77
-9 0.22999999999999998
10 0.25
-10 0.75
11 0.72
-11 0.28
12 0.1
-12 0.9
13 0.11
-13 0.89
14 0.84
-14 0.16000000000000003
15 0.21
-15 0.79
16 0.75
-16 0.25
17 0.19
-17 0.81
18 0.75
-18 0.25
19 0.41
-19 0.5900000000000001
20 0.53
-20 0.47
21 0.79
-21 0.20999999999999996
22 0.85
-22 0.15000000000000002
23 0.38
-23 0.62
24 0.06
-24 0.94
25 0.09
-25 0.91
26 0.41
-26 0.5900000000000001
27 0.51
-27 0.49
28 0.12
-28 0.88
29 0.73
-29 0.27
30 0.52
-30 0.48
31 0.66
-31 0.33999999999999997
32 0.03
-32 0.97
33 0.22
-33 0.78
34 0.03
-34 0.97
35 0.25
-35 0.75
36 0.28
-36 0.72
37 0.94
-37 0.06000000000000005
38 0.22
-38 0.78
39 0.95
-39 0.050000000000000044
40 0.49
-40 0.51
41 0.69
-41 0.31000000000000005
42 0.25
-42 0.75
43 0.4
-43 0.6
44 0.6
-44 0.4
45 0.47
-45 0.53
46 0.07
-46 0.9299999999999999
47 0.83
-47 0.17000000000000004
48 0.69
-48 0.31000000000000005
49 0.55
-49 0.44999999999999996
50 0.65
-50 0.35
51 0.67
-51 0.32999999999999996
52 0.19
-52 0.81
53 0.42
-53 0.5800000000000001
54 0.72
-54 0.28
55 0.21
-55 0.79
56 0.5
-56 0.5
57 0.2
-57 0.8
58 0.43
-58 0.5700000000000001
59 0.79
-59 0.20999999999999996
60 0.57
-60 0.43000000000000005
61 0.29
-61 0.71
62 0.77
-62 0.22999999999999998
63 0.52
-63 0.48
64 0.54
-64 0.45999999999999996
65 0.77
-65 0.22999999999999998
66 0.57
-66 0.43000000000000005
67 0.51
-67 0.49
68 0.25
-68 0.75
69 0.8
-69 0.19999999999999996
70 0.35
-70 0.65
71 0.28
-71 0.72
72 0.67
-72 0.32999999999999996
73 0.46
-73 0.54
74 0.63
-74 0.37
75 0.49
-75 0.51
76 0.42
-76 0.5800000000000001
77 0.43
-77 0.5700000000000001
78 0.09
-78 0.91
79 0.63
-79 0.37
80 0.2
-80 0.8
81 0.76
-81 0.24
82 0.67
-82 0.32999999999999996
83 0.47
-83 0.53
84 0.31
-84 0.69
85 0.27
-85 0.73
86 0.57
-86 0.43000000000000005
87 0.93
-87 0.06999999999999995
88 0.34
-88 0.6599999999999999
89 0.29
-89 0.71
90 0.54
-90 0.45999999999999996
91 0.64
-91 0.36
92 0.46
-92 0.54
93 0.88
-93 0.12
94 0.45
-94 0.55
95 0.03
-95 0.97
96 0.14
-96 0.86
97 0.07
-97 0.9299999999999999
98 0.87
-98 0.13
99 0.5
-99 0.5
100 0.04
-100 0.96
