1 0.16
-1 0.84
2 0.7
-2 0.30000000000000004
3 0.32
-3 0.6799999999999999
4 0.92
-4 0.07999999999999996
5 0.78
-5 0.21999999999999997
6 0.75
-6 0.25
7 0.11
-7 0.89
8 0.12
-8 0.88
9 0.29
-9 0.71
10 0.95
-10 0.050000000000000044
11 0.55
-11 0.44999999999999996
12 0.55
-12 0.44999999999999996
13 0.42
-13 0.5800000000000001
14 0.62
-14 0.38
15 0.91
-15 0.08999999999999997
16 0.99
-16 0.010000000000000009
17 0.85
-17 0.15000000000000002
18 0.79
-18 0.20999999999999996
19 0.23
-19 0.77
20 0.86
-20 0.14
21 0.07
-21 0.9299999999999999
22 0.77
-22 0.22999999999999998
23 0.48
-23 0.52
24 0.91
-24 0.08999999999999997
25 0.46
-25 0.54
26 0.53
-26 0.47
27 0.16
-27 0.84
28 0.66
-28 0.33999999999999997
29 0.12
-29 0.88
30 0.49
-30 0.51
31 0.45
-31 0.55
32 0.94
-32 0.06000000000000005
33 0.07
-33 0.9299999999999999
34 0.63
-34 0.37
35 0.68
-35 0.31999999999999995
36 0.13
-36 0.87
37 0.24
-37 0.76
38 0.3
-38 0.7
39 0.38
-39 0.62
40 0.59
-40 0.41000000000000003
41 0.95
-41 0.050000000000000044
42 0.55
-42 0.44999999999999996
43 0.05
-43 0.95
44 0.33
-44 0.6699999999999999
45 0.75
-45 0.25
46 0.48
-46 0.52
47 0.33
-47 0.6699999999999999
48 0.3
-48 0.7
49 0.68
-49 0.31999999999999995
50 0.43
-50 0.5700000000000001
51 0.43
-51 0.5700000000000001
52 0.77
-52 0.22999999999999998
53 0.49
-53 0.51
54 0.84
-54 0.16000000000000003
55 0.33
-55 0.6699999999999999
56 0.2
-56 0.8
57 0.6
-57 0.4
58 0.08
-58 0.92
59 0.8
-59 0.19999999999999996
60 0.39
-60 0.61
61 0.08
-61 0.92
62 0.95
-62 0.050000000000000044
63 0.73
-63 0.27
64 0.61
-64 0.39
65 0.38
-65 0.62
66 0.11
-66 0.89
67 0.06
-67 0.94
68 0.6
-68 0.4
69 0.58
-69 0.42000000000000004
70 0.87
-70 0.13
71 0.99
-71 0.010000000000000009
72 0.41
-72 0.5900000000000001
73 0.67
-73 0.32999999999999996
74 0.35
-74 0.65
75 0.37
-75 0.63
76 0.95
-76 0.050000000000000044
77 0.56
-77 0.43999999999999995
78 0.46
-78 0.54
79 0.61
-79 0.39
80 0.72
-80 0.28
81 0.59
-81 0.41000000000000003
82 0.73
-82 0.27
83 0.5
-83 0.5
84 0.22
-84 0.78
85 0.23
-85 0.77
86 0.32
-86 0.6799999999999999
87 0.25
-87 0.75
88 0.65
-88 0.35
89 0.03
-89 0.97
90 0.24
-90 0.76
91 0.9
-91 0.09999999999999998
92 0.64
-92 0.36
93 0.6
-93 0.4
94 0.37
-94 0.63
95 0.66
-95 0.33999999999999997
96 0.99
-96 0.010000000000000009
97 0.4
-97 0.6
98 0.19
-98 0.81
99 0.75
-99 0.25
100 0.94
-100 0.06000000000000005
