1 0.06
-1 0.94
2 0.56
-2 0.43999999999999995
3 0.3
-3 0.7
4 0.98
-4 0.020000000000000018
5 0.4
-5 0.6
6 0.83
-6 0.17000000000000004
7 0.12
-7 0.88
8 0.85
-8 0.15000000000000002
9 0.97
-9 0.030000000000000027
10 0.33
-10 0.6699999999999999
11 0.27
-11 0.73
12 0.43
-12 0.5700000000000001
13 0.19
-13 0.81
14 0.86
-14 0.14
15 0.69
-15 0.31000000000000005
16 0.95
-16 0.050000000000000044
17 0.85
-17 0.15000000000000002
18 0.74
-18 0.26
19 0.78
-19 0.21999999999999997
20 0.47
-20 0.53
21 0.07
-21 0.9299999999999999
22 0.76
-22 0.24
23 0.02
-23 0.98
24 0.48
-24 0.52
25 0.45
-25 0.55
26 0.43
-26 0.5700000000000001
27 0.15
-27 0.85
28 0.25
-28 0.75
29 0.82
-29 0.18000000000000005
30 0.89
-30 0.10999999999999999
31 0.52
-31 0.48
32 0.25
-32 0.75
33 0.42
-33 0.5800000000000001
34 0.71
-34 0.29000000000000004
35 0.11
-35 0.89
36 0.28
-36 0.72
37 0.4
-37 0.6
38 0.75
-38 0.25
39 0.22
-39 0.78
40 0.26
-40 0.74
41 0.15
-41 0.85
42 0.09
-42 0.91
43 0.99
-43 0.010000000000000009
44 0.62
-44 0.38
45 0.87
-45 0.13
46 0.67
-46 0.32999999999999996
47 0.71
-47 0.29000000000000004
48 0.72
-48 0.28
49 0.2
-49 0.8
50 0.51
-50 0.49
51 0.35
-51 0.65
52 0.02
-52 0.98
53 0.69
-53 0.31000000000000005
54 0.36
-54 0.64
55 0.68
-55 0.31999999999999995
56 0.81
-56 0.18999999999999995
57 0.13
-57 0.87
58 0.33
-58 0.6699999999999999
59 0.26
-59 0.74
60 0.81
-60 0.18999999999999995
61 0.63
-61 0.37
62 0.39
-62 0.61
63 0.72
-63 0.28
64 0.43
-64 0.5700000000000001
65 0.26
-65 0.74
66 0.16
-66 0.84
67 0.55
-67 0.44999999999999996
68 0.78
-68 0.21999999999999997
69 0.85
-69 0.15000000000000002
70 0.08
-70 0.92
71 0.88
-71 0.12
72 0.37
-72 0.63
73 0.01
-73 0.99
74 0.4
-74 0.6
75 0.44
-75 0.56
76 0.01
-76 0.99
77 0.39
-77 0.61
78 0.55
-78 0.44999999999999996
79 0.03
-79 0.97
80 0.7
-80 0.30000000000000004
81 0.9
-81 0.09999999999999998
82 0.77
-82 0.22999999999999998
83 0.92
-83 0.07999999999999996
84 0.78
-84 0.21999999999999997
85 0.12
-85 0.88
86 0.9
-86 0.09999999999999998
87 0.98
-87 0.020000000000000018
88 0.08
-88 0.92
89 0.44
-89 0.56
90 0.48
-90 0.52
91 0.8
-91 0.19999999999999996
92 0.02
-92 0.98
93 0.77
-93 0.22999999999999998
94 0.56
-94 0.43999999999999995
95 0.01
-95 0.99
96 0.8
-96 0.19999999999999996
97 0.78
-97 0.21999999999999997
98 0.39
-98 0.61
99 0.79
-99 0.20999999999999996
100 0.84
-100 0.16000000000000003
