1 0.45
-1 0.55
2 0.21
-2 0.79
3 0.02
-3 0.98
4 0.63
-4 0.37
5 0.68
-5 0.31999999999999995
6 0.43
-6 0.5700000000000001
7 0.71
-7 0.29000000000000004
8 0.61
-8 0.39
9 0.68
-9 0.31999999999999995
10 0.5
-10 0.5
11 0.11
-11 0.89
12 0.81
-12 0.18999999999999995
13 0.59
-13 0.41000000000000003
14 0.86
-14 0.14
15 0.75
-15 0.25
16 0.46
-16 0.54
17 0.12
-17 0.88
18 0.74
-18 0.26
19 0.22
-19 0.78
20 0.78
-20 0.21999999999999997
21 0.97
-21 0.030000000000000027
22 0.63
-22 0.37
23 0.96
-23 0.040000000000000036
24 0.8
-24 0.19999999999999996
25 0.02
-25 0.98
26 0.41
-26 0.5900000000000001
27 0.32
-27 0.6799999999999999
28 0.42
-28 0.5800000000000001
29 0.6
-29 0.4
30 0.79
-30 0.20999999999999996
31 0.87
-31 0.13
32 0.7
-32 0.30000000000000004
33 0.09
-33 0.91
34 0.39
-34 0.61
35 0.52
-35 0.48
36 0.03
-36 0.97
37 0.12
-37 0.88
38 0.19
-38 0.81
39 0.9
-39 0.09999999999999998
40 0.74
-40 0.26
41 0.53
-41 0.47
42 0.22
-42 0.78
43 0.39
-43 0.61
44 0.65
-44 0.35
45 0.82
-45 0.18000000000000005
46 0.29
-46 0.71
47 0.04
-47 0.96
48 0.69
-48 0.31000000000000005
49 0.98
-49 0.020000000000000018
50 0.47
-50 0.53
51 0.15
-51 0.85
52 0.76
-52 0.24
53 0.15
-53 0.85
54 0.48
-54 0.52
55 0.89
-55 0.10999999999999999
56 0.27
-56 0.73
57 0.66
-57 0.33999999999999997
58 0.3
-58 0.7
59 0.92
-59 0.07999999999999996
60 0.38
-60 0.62
61 0.83
-61 0.17000000000000004
62 0.54
-62 0.45999999999999996
63 0.81
-63 0.18999999999999995
64 0.66
-64 0.33999999999999997
65 0.49
-65 0.51
66 0.91
-66 0.08999999999999997
67 0.61
-67 0.39
68 0.75
-68 0.25
69 0.94
-69 0.06000000000000005
70 0.96
-70 0.040000000000000036
71 0.34
-71 0.6599999999999999
72 0.07
-72 0.9299999999999999
73 0.52
-73 0.48
74 0.95
-74 0.050000000000000044
75 0.3
-75 0.7
76 0.66
-76 0.33999999999999997
77 0.46
-77 0.54
78 0.95
-78 0.050000000000000044
79 0.01
-79 0.99
80 0.35
-80 0.65
81 0.81
-81 0.18999999999999995
82 0.5
-82 0.5
83 0.6
-83 0.4
84 0.68
-84 0.31999999999999995
85 0.88
-85 0.12
86 0.22
-86 0.78
87 0.67
-87 0.32999999999999996
88 0.98
-88 0.020000000000000018
89 0.42
-89 0.5800000000000001
90 0.79
-90 0.20999999999999996
91 0.53
-91 0.47
92 0.69
-92 0.31000000000000005
93 0.23
-93 0.77
94 0.81
-94 0.18999999999999995
95 0.38
-95 0.62
96 0.22
-96 0.78
97 0.26
-97 0.74
98 0.42
-98 0.5800000000000001
99 0.64
-99 0.36
100 0.01
-100 0.99
