1 0.95
-1 0.050000000000000044
2 0.98
-2 0.020000000000000018
3 0.06
-3 0.94
4 0.45
-4 0.55
5 0.22
-5 0.78
6 0.94
-6 0.06000000000000005
7 0.14
-7 0.86
8 0.07
-8 0.9299999999999999
9 0.16
-9 0.84
10 0.85
-10 0.15000000000000002
11 0.89
-11 0.10999999999999999
12 0.01
-12 0.99
13 0.32
-13 0.6799999999999999
14 0.81
-14 0.18999999999999995
15 0.29
-15 0.71
16 0.63
-16 0.37
17 0.09
-17 0.91
18 0.67
-18 0.32999999999999996
19 0.17
-19 0.83
20 0.8
-20 0.19999999999999996
21 0.37
-21 0.63
22 0.71
-22 0.29000000000000004
23 0.02
-23 0.98
24 0.45
-24 0.55
25 0.31
-25 0.69
26 0.58
-26 0.42000000000000004
27 0.98
-27 0.020000000000000018
28 0.57
-28 0.43000000000000005
29 0.4
-29 0.6
30 0.11
-30 0.89
31 0.65
-31 0.35
32 0.19
-32 0.81
33 0.38
-33 0.62
34 0.04
-34 0.96
35 0.44
-35 0.56
36 0.24
-36 0.76
37 0.89
-37 0.10999999999999999
38 0.64
-38 0.36
39 0.31
-39 0.69
40 0.55
-40 0.44999999999999996
41 0.12
-41 0.88
42 0.6
-42 0.4
43 0.53
-43 0.47
44 0.55
-44 0.44999999999999996
45 0.2
-45 0.8
46 0.42
-46 0.5800000000000001
47 0.19
-47 0.81
48 0.88
-48 0.12
49 0.84
-49 0.16000000000000003
50 0.3
-50 0.7
51 0.12
-51 0.88
52 0.89
-52 0.10999999999999999
53 0.88
-53 0.12
54 0.9
-54 0.09999999999999998
55 0.49
-55 0.51
56 0.68
-56 0.31999999999999995
57 0.16
-57 0.84
58 0.67
-58 0.32999999999999996
59 0.8
-59 0.19999999999999996
60 0.75
-60 0.25
61 0.52
-61 0.48
62 0.24
-62 0.76
63 0.95
-63 0.050000000000000044
64 0.42
-64 0.5800000000000001
65 0.84
-65 0.16000000000000003
66 0.95
-66 0.050000000000000044
67 0.15
-67 0.85
68 0.91
-68 0.08999999999999997
69 0.26
-69 0.74
70 0.79
-70 0.20999999999999996
71 0.31
-71 0.69
72 0.03
-72 0.97
73 0.13
-73 0.87
74 0.41
-74 0.5900000000000001
75 0.75
-75 0.25
76 0.53
-76 0.47
77 0.83
-77 0.17000000000000004
78 0.34
-78 0.6599999999999999
79 0.02
-79 0.98
80 0.73
-80 0.27
81 0.57
-81 0.43000000000000005
82 0.68
-82 0.31999999999999995
83 0.43
-83 0.5700000000000001
84 0.87
-84 0.13
85 0.11
-85 0.89
86 0.66
-86 0.33999999999999997
87 0.66
-87 0.33999999999999997
88 0.73
-88 0.27
89 0.49
-89 0.51
90 0.16
-90 0.84
91 0.38
-91 0.62
92 0.98
-92 0.020000000000000018
93 0.76
-93 0.24
94 0.43
-94 0.5700000000000001
95 0.36
-95 0.64
96 0.2
-96 0.8
97 0.14
-97 0.86
98 0.46
-98 0.54
99 0.55
-99 0.44999999999999996
100 0.83
-100 0.17000000000000004
