1 0.92
-1 0.07999999999999996
2 0.48
-2 0.52
3 0.61
-3 0.39
4 0.12
-4 0.88
5 0.48
-5 0.52
6 0.45
-6 0.55
7 0.29
-7 0.71
8 0.54
-8 0.45999999999999996
9 0.26
-9 0.74
10 0.98
-10 0.020000000000000018
11 0.62
-11 0.38
12 0.25
-12 0.75
13 0.88
-13 0.12
14 0.97
-14 0.030000000000000027
15 0.48
-15 0.52
16 0.56
-16 0.43999999999999995
17 0.85
-17 0.15000000000000002
18 0.74
-18 0.26
19 0.64
-19 0.36
20 0.5
-20 0.5
21 0.45
-21 0.55
22 0.02
-22 0.98
23 0.34
-23 0.6599999999999999
24 0.07
-24 0.9299999999999999
25 0.23
-25 0.77
26 0.25
-26 0.75
27 0.95
-27 0.050000000000000044
28 0.6
-28 0.4
29 0.67
-29 0.32999999999999996
30 0.48
-30 0.52
31 0.93
-31 0.06999999999999995
32 0.8
-32 0.19999999999999996
33 0.43
-33 0.5700000000000001
34 0.43
-34 0.5700000000000001
35 0.72
-35 0.28
36 0.19
-36 0.81
37 0.27
-37 0.73
38 0.34
-38 0.6599999999999999
39 0.88
-39 0.12
40 0.72
-40 0.28
41 0.8
-41 0.19999999999999996
42 0.8
-42 0.19999999999999996
43 0.69
-43 0.31000000000000005
44 0.54
-44 0.45999999999999996
45 0.26
-45 0.74
46 0.08
-46 0.92
47 0.57
-47 0.43000000000000005
48 0.62
-48 0.38
49 0.53
-49 0.47
50 0.9
-50 0.09999999999999998
51 0.61
-51 0.39
52 0.15
-52 0.85
53 0.4
-53 0.6
54 0.6
-54 0.4
55 0.05
-55 0.95
56 0.98
-56 0.020000000000000018
57 0.61
-57 0.39
58 0.21
-58 0.79
59 0.21
-59 0.79
60 0.71
-60 0.29000000000000004
61 0.28
-61 0.72
62 0.29
-62 0.71
63 0.24
-63 0.76
64 0.23
-64 0.77
65 0.17
-65 0.83
66 0.17
-66 0.83
67 0.26
-67 0.74
68 0.57
-68 0.43000000000000005
69 0.88
-69 0.12
70 0.97
-70 0.030000000000000027
71 0.48
-71 0.52
72 0.88
-72 0.12
73 0.2
-73 0.8
74 0.27
-74 0.73
75 0.01
-75 0.99
76 0.48
-76 0.52
77 0.87
-77 0.13
78 0.84
-78 0.16000000000000003
79 0.03
-79 0.97
80 0.4
-80 0.6
81 0.93
-81 0.06999999999999995
82 0.23
-82 0.77
83 0.72
-83 0.28
84 0.02
-84 0.98
85 0.99
-85 0.010000000000000009
86 0.13
-86 0.87
87 0.52
-87 0.48
88 0.38
-88 0.62
89 0.75
-89 0.25
90 0.02
-90 0.98
91 0.25
-91 0.75
92 0.19
-92 0.81
93 0.6
-93 0.4
94 0.06
-94 0.94
95 0.88
-95 0.12
96 0.29
-96 0.71
97 0.37
-97 0.63
98 0.91
-98 0.08999999999999997
99 0.78
-99 0.21999999999999997
100 0.91
-100 0.08999999999999997
