1 0.79
-1 0.20999999999999996
2 0.12
-2 0.88
3 0.81
-3 0.18999999999999995
4 0.43
-4 0.5700000000000001
5 0.38
-5 0.62
6 0.52
-6 0.48
7 0.2
-7 0.8
8 0.22
-8 0.78
9 0.64
-9 0.36
10 0.76
-10 0.24
11 0.24
-11 0.76
12 0.63
-12 0.37
13 0.58
-13 0.42000000000000004
14 0.23
-14 0.77
15 0.94
-15 0.06000000000000005
16 0.31
-16 0.69
17 0.63
-17 0.37
18 0.12
-18 0.88
19 0.65
-19 0.35
20 0.4
-20 0.6
21 0.8
-21 0.19999999999999996
22 0.64
-22 0.36
23 0.65
-23 0.35
24 0.6
-24 0.4
25 0.11
-25 0.89
26 0.04
-26 0.96
27 0.85
-27 0.15000000000000002
28 0.38
-28 0.62
29 0.74
-29 0.26
30 0.24
-30 0.76
31 0.24
-31 0.76
32 0.63
-32 0.37
33 0.1
-33 0.9
34 0.5
-34 0.5
35 0.12
-35 0.88
36 0.07
-36 0.9299999999999999
37 0.44
-37 0.56
38 0.61
-38 0.39
39 0.38
-39 0.62
40 0.51
-40 0.49
41 0.14
-41 0.86
42 0.64
-42 0.36
43 0.83
-43 0.17000000000000004
44 0.59
-44 0.41000000000000003
45 0.34
-45 0.6599999999999999
46 0.93
-46 0.06999999999999995
47 0.74
-47 0.26
48 0.78
-48 0.21999999999999997
49 0.12
-49 0.88
50 0.38
-50 0.62
51 0.39
-51 0.61
52 0.58
-52 0.42000000000000004
53 0.95
-53 0.050000000000000044
54 0.69
-54 0.31000000000000005
55 0.64
-55 0.36
56 0.11
-56 0.89
57 0.18
-57 0.8200000000000001
58 0.17
-58 0.83
59 0.41
-59 0.5900000000000001
60 0.44
-60 0.56
61 0.07
-61 0.9299999999999999
62 0.01
-62 0.99
63 0.9
-63 0.09999999999999998
64 0.71
-64 0.29000000000000004
65 0.82
-65 0.18000000000000005
66 0.4
-66 0.6
67 0.5
-67 0.5
68 0.53
-68 0.47
69 0.48
-69 0.52
70 0.09
-70 0.91
71 0.32
-71 0.6799999999999999
72 0.37
-72 0.63
73 0.14
-73 0.86
74 0.95
-74 0.050000000000000044
75 0.67
-75 0.32999999999999996
76 0.51
-76 0.49
77 0.16
-77 0.84
78 0.09
-78 0.91
79 0.14
-79 0.86
80 0.13
-80 0.87
81 0.01
-81 0.99
82 0.16
-82 0.84
83 0.45
-83 0.55
84 0.54
-84 0.45999999999999996
85 0.19
-85 0.81
86 0.99
-86 0.010000000000000009
87 0.18
-87 0.8200000000000001
88 0.04
-88 0.96
89 0.8
-89 0.19999999999999996
90 0.62
-90 0.38
91 0.13
-91 0.87
92 0.89
-92 0.10999999999999999
93 0.71
-93 0.29000000000000004
94 0.53
-94 0.47
95 0.4
-95 0.6
96 0.57
-96 0.43000000000000005
97 0.34
-97 0.6599999999999999
98 0.31
-98 0.69
99 0.9
-99 0.09999999999999998
100 0.9
-100 0.09999999999999998
