1 0.76
-1 0.24
2 0.66
-2 0.33999999999999997
3 0.33
-3 0.6699999999999999
4 0.93
-4 0.06999999999999995
5 0.86
-5 0.14
6 0.23
-6 0.77
7 0.28
-7 0.72
8 0.35
-8 0.65
9 0.52
-9 0.48
10 0.06
-10 0.94
11 0.16
-11 0.84
12 0.81
-12 0.18999999999999995
13 0.35
-13 0.65
14 0.94
-14 0.06000000000000005
15 0.22
-15 0.78
16 0.81
-16 0.18999999999999995
17 0.68
-17 0.31999999999999995
18 0.06
-18 0.94
19 0.8
-19 0.19999999999999996
20 0.53
-20 0.47
21 0.04
-21 0.96
22 0.2
-22 0.8
23 0.23
-23 0.77
24 0.48
-24 0.52
25 0.15
-25 0.85
26 0.62
-26 0.38
27 0.9
-27 0.09999999999999998
28 0.52
-28 0.48
29 0.09
-29 0.91
30 0.89
-30 0.10999999999999999
31 0.09
-31 0.91
32 0.81
-32 0.18999999999999995
33 0.54
-33 0.45999999999999996
34 0.48
-34 0.52
35 0.21
-35 0.79
36 0.96
-36 0.040000000000000036
37 0.67
-37 0.32999999999999996
38 0.96
-38 0.040000000000000036
39 0.05
-39 0.95
40 0.34
-40 0.6599999999999999
41 0.07
-41 0.9299999999999999
42 0.15
-42 0.85
43 0.6
-43 0.4
44 0.11
-44 0.89
45 0.57
-45 0.43000000000000005
46 0.8
-46 0.19999999999999996
47 0.03
-47 0.97
48 0.58
-48 0.42000000000000004
49 0.71
-49 0.29000000000000004
50 0.1
-50 0.9
51 0.11
-51 0.89
52 0.92
-52 0.07999999999999996
53 0.54
-53 0.45999999999999996
54 0.99
-54 0.010000000000000009
55 0.8
-55 0.19999999999999996
56 0.52
-56 0.48
57 0.31
-57 0.69
58 0.32
-58 0.6799999999999999
59 0.41
-59 0.5900000000000001
60 0.31
-60 0.69
61 0.62
-61 0.38
62 0.82
-62 0.18000000000000005
63 0.31
-63 0.69
64 0.65
-64 0.35
65 0.66
-65 0.33999999999999997
66 0.71
-66 0.29000000000000004
67 0.1
-67 0.9
68 0.11
-68 0.89
69 0.8
-69 0.19999999999999996
70 0.65
-70 0.35
71 0.89
-71 0.10999999999999999
72 0.31
-72 0.69
73 0.15
-73 0.85
74 0.63
-74 0.37
75 0.27
-75 0.73
76 0.77
-76 0.22999999999999998
77 0.64
-77 0.36
78 0.31
-78 0.69
79 0.09
-79 0.91
80 0.09
-80 0.91
81 0.89
-81 0.10999999999999999
82 0.53
-82 0.47
83 0.64
-83 0.36
84 0.02
-84 0.98
85 0.17
-85 0.83
86 0.26
-86 0.74
87 0.94
-87 0.06000000000000005
88 0.1
-88 0.9
89 0.89
-89 0.10999999999999999
90 0.45
-90 0.55
91 0.51
-91 0.49
92 0.49
-92 0.51
93 0.54
-93 0.45999999999999996
94 0.09
-94 0.91
95 0.71
-95 0.29000000000000004
96 0.15
-96 0.85
97 0.82
-97 0.18000000000000005
98 0.66
-98 0.33999999999999997
99 0.15
-99 0.85
100 0.4
-100 0.6
