1 0.1
-1 0.9
2 0.61
-2 0.39
3 0.75
-3 0.25
4 0.29
-4 0.71
5 0.32
-5 0.6799999999999999
6 0.26
-6 0.74
7 0.83
-7 0.17000000000000004
8 0.2
-8 0.8
9 0.53
-9 0.47
10 0.62
-10 0.38
11 0.97
-11 0.030000000000000027
12 0.23
-12 0.77
13 0.43
-13 0.5700000000000001
14 0.36
-14 0.64
15 0.04
-15 0.96
16 0.62
-16 0.38
17 0.71
-17 0.29000000000000004
18 0.66
-18 0.33999999999999997
19 0.61
-19 0.39
20 0.48
-20 0.52
21 0.77
-21 0.22999999999999998
22 0.25
-22 0.75
23 0.58
-23 0.42000000000000004
24 0.23
-24 0.77
25 0.13
-25 0.87
26 0.6
-26 0.4
27 0.71
-27 0.29000000000000004
28 0.91
-28 0.08999999999999997
29 0.94
-29 0.06000000000000005
30 0.24
-30 0.76
31 0.98
-31 0.020000000000000018
32 0.06
-32 0.94
33 0.94
-33 0.06000000000000005
34 0.91
-34 0.08999999999999997
35 0.28
-35 0.72
36 0.86
-36 0.14
37 0.56
-37 0.43999999999999995
38 0.97
-38 0.030000000000000027
39 0.79
-39 0.20999999999999996
40 0.57
-40 0.43000000000000005
41 0.89
-41 0.10999999999999999
42 0.61
-42 0.39
43 0.25
-43 0.75
44 0.24
-44 0.76
45 0.45
-45 0.55
46 0.16
-46 0.84
47 0.05
-47 0.95
48 0.82
-48 0.18000000000000005
49 0.78
-49 0.21999999999999997
50 0.97
-50 0.030000000000000027
51 0.51
-51 0.49
52 0.09
-52 0.91
53 0.01
-53 0.99
54 0.68
-54 0.31999999999999995
55 0.6
-55 0.4
56 0.92
-56 0.07999999999999996
57 0.85
-57 0.15000000000000002
58 0.64
-58 0.36
59 0.59
-59 0.41000000000000003
60 0.3
-60 0.7
61 0.48
-61 0.52
62 0.01
-62 0.99
63 0.09
-63 0.91
64 0.32
-64 0.6799999999999999
65 0.06
-65 0.94
66 0.43
-66 0.5700000000000001
67 0.15
-67 0.85
68 0.21
-68 0.79
69 0.23
-69 0.77
70 0.28
-70 0.72
71 0.79
-71 0.20999999999999996
72 0.87
-72 0.13
73 0.6
-73 0.4
74 0.68
-74 0.31999999999999995
75 0.43
-75 0.5700000000000001
76 0.61
-76 0.39
77 0.28
-77 0.72
78 0.79
-78 0.20999999999999996
79 0.17
-79 0.83
80 0.62
-80 0.38
81 0.01
-81 0.99
82 0.5
-82 0.5
83 0.49
-83 0.51
84 0.75
-84 0.25
85 0.63
-85 0.37
86 0.52
-86 0.48
87 0.4
-87 0.6
88 0.28
-88 0.72
89 0.1
-89 0.9
90 0.06
-90 0.94
91 0.48
-91 0.52
92 0.76
-92 0.24
93 0.2
-93 0.8
94 0.06
-94 0.94
95 0.15
-95 0.85
96 0.82
-96 0.18000000000000005
97 0.67
-97 0.32999999999999996
98 0.24
-98 0.76
99 0.27
-99 0.73
100 0.98
-100 0.020000000000000018
