1 0.75
-1 0.25
2 0.97
-2 0.030000000000000027
3 0.86
-3 0.14
4 0.01
-4 0.99
5 0.31
-5 0.69
6 0.08
-6 0.92
7 0.7
-7 0.30000000000000004
8 0.8
-8 0.19999999999999996
9 0.31
-9 0.69
10 0.91
-10 0.08999999999999997
11 0.05
-11 0.95
12 0.89
-12 0.10999999999999999
13 0.85
-13 0.15000000000000002
14 0.11
-14 0.89
15 0.01
-15 0.99
16 0.01
-16 0.99
17 0.03
-17 0.97
18 0.97
-18 0.030000000000000027
19 0.56
-19 0.43999999999999995
20 0.41
-20 0.5900000000000001
21 0.45
-21 0.55
22 0.94
-22 0.06000000000000005
23 0.08
-23 0.92
24 0.58
-24 0.42000000000000004
25 0.09
-25 0.91
26 0.3
-26 0.7
27 0.24
-27 0.76
28 0.88
-28 0.12
29 0.39
-29 0.61
30 0.09
-30 0.91
31 0.41
-31 0.5900000000000001
32 0.39
-32 0.61
33 0.61
-33 0.39
34 0.16
-34 0.84
35 0.61
-35 0.39
36 0.51
-36 0.49
37 0.86
-37 0.14
38 0.6
-38 0.4
39 0.6
-39 0.4
40 0.07
-40 0.9299999999999999
41 0.97
-41 0.030000000000000027
42 0.7
-42 0.30000000000000004
43 0.91
-43 0.08999999999999997
44 0.81
-44 0.18999999999999995
45 0.94
-45 0.06000000000000005
46 0.73
-46 0.27
47 0.52
-47 0.48
48 0.07
-48 0.9299999999999999
49 0.55
-49 0.44999999999999996
50 0.96
-50 0.040000000000000036
51 0.06
-51 0.94
52 0.18
-52 0.8200000000000001
53 0.68
-53 0.31999999999999995
54 0.33
-54 0.6699999999999999
55 0.52
-55 0.48
56 0.26
-56 0.74
57 0.01
-57 0.99
58 0.47
-58 0.53
59 0.36
-59 0.64
60 0.8
-60 0.19999999999999996
61 0.35
-61 0.65
62 0.03
-62 0.97
63 0.11
-63 0.89
64 0.09
-64 0.91
65 0.8
-65 0.19999999999999996
66 0.84
-66 0.16000000000000003
67 0.1
-67 0.9
68 0.15
-68 0.85
69 0.14
-69 0.86
70 0.68
-70 0.31999999999999995
71 0.42
-71 0.5800000000000001
72 0.55
-72 0.44999999999999996
73 0.1
-73 0.9
74 0.09
-74 0.91
75 0.05
-75 0.95
76 0.24
-76 0.76
77 0.43
-77 0.5700000000000001
78 0.87
-78 0.13
79 0.97
-79 0.030000000000000027
80 0.86
-80 0.14
81 0.5
-81 0.5
82 0.04
-82 0.96
83 0.5
-83 0.5
84 0.8
-84 0.19999999999999996
85 0.42
-85 0.5800000000000001
86 0.99
-86 0.010000000000000009
87 0.98
-87 0.020000000000000018
88 0.42
-88 0.5800000000000001
89 0.15
-89 0.85
90 0.56
-90 0.43999999999999995
91 0.95
-91 0.050000000000000044
92 0.66
-92 0.33999999999999997
93 0.64
-93 0.36
94 0.93
-94 0.06999999999999995
95 0.32
-95 0.6799999999999999
96 0.77
-96 0.22999999999999998
97 0.73
-97 0.27
98 0.85
-98 0.15000000000000002
99 0.77
-99 0.22999999999999998
100 0.21
-100 0.79
