1 0.2
-1 0.8
2 0.2
-2 0.8
3 0.15
-3 0.85
4 0.61
-4 0.39
5 0.24
-5 0.76
6 0.77
-6 0.22999999999999998
7 0.64
-7 0.36
8 0.69
-8 0.31000000000000005
9 0.81
-9 0.18999999999999995
10 0.97
-10 0.030000000000000027
11 0.67
-11 0.32999999999999996
12 0.5
-12 0.5
13 0.73
-13 0.27
14 0.13
-14 0.87
15 0.08
-15 0.92
16 0.69
-16 0.31000000000000005
17 0.3
-17 0.7
18 0.5
-18 0.5
19 0.15
-19 0.85
20 0.73
-20 0.27
21 0.85
-21 0.15000000000000002
22 0.57
-22 0.43000000000000005
23 0.19
-23 0.81
24 0.38
-24 0.62
25 0.2
-25 0.8
26 0.66
-26 0.33999999999999997
27 0.48
-27 0.52
28 0.28
-28 0.72
29 0.41
-29 0.5900000000000001
30 0.13
-30 0.87
31 0.34
-31 0.6599999999999999
32 0.57
-32 0.43000000000000005
33 0.3
-33 0.7
34 0.59
-34 0.41000000000000003
35 0.98
-35 0.020000000000000018
36 0.54
-36 0.45999999999999996
37 0.67
-37 0.32999999999999996
38 0.82
-38 0.18000000000000005
39 0.36
-39 0.64
40 0.15
-40 0.85
41 0.38
-41 0.62
42 0.74
-42 0.26
43 0.63
-43 0.37
44 0.93
-44 0.06999999999999995
45 0.58
-45 0.42000000000000004
46 0.75
-46 0.25
47 0.83
-47 0.17000000000000004
48 0.95
-48 0.050000000000000044
49 0.79
-49 0.20999999999999996
50 0.5
-50 0.5
51 0.44
-51 0.56
52 0.53
-52 0.47
53 0.12
-53 0.88
54 0.25
-54 0.75
55 0.22
-55 0.78
56 0.35
-56 0.65
57 0.14
-57 0.86
58 0.32
-58 0.6799999999999999
59 0.04
-59 0.96
60 0.8
-60 0.19999999999999996
61 0.07
-61 0.9299999999999999
62 0.66
-62 0.33999999999999997
63 0.61
-63 0.39
64 0.06
-64 0.94
65 0.7
-65 0.30000000000000004
66 0.36
-66 0.64
67 0.62
-67 0.38
68 0.33
-68 0.6699999999999999
69 0.33
-69 0.6699999999999999
70 0.88
-70 0.12
71 0.79
-71 0.20999999999999996
72 0.37
-72 0.63
73 0.35
-73 0.65
74 0.77
-74 0.22999999999999998
75 0.95
-75 0.050000000000000044
76 0.77
-76 0.22999999999999998
77 0.67
-77 0.32999999999999996
78 0.93
-78 0.06999999999999995
79 0.79
-79 0.20999999999999996
80 0.35
-80 0.65
81 0.13
-81 0.87
82 0.4
-82 0.6
83 0.36
-83 0.64
84 0.98
-84 0.020000000000000018
85 0.79
-85 0.20999999999999996
86 0.65
-86 0.35
87 0.75
-87 0.25
88 0.51
-88 0.49
89 0.91
-89 0.08999999999999997
90 0.34
-90 0.6599999999999999
91 0.25
-91 0.75
92 0.03
-92 0.97
93 0.53
-93 0.47
94 0.7
-94 0.30000000000000004
95 0.75
-95 0.25
96 0.12
-96 0.88
97 0.01
-97 0.99
98 0.72
-98 0.28
99 0.2
-99 0.8
100 0.79
-100 0.20999999999999996
