1 0.53
-1 0.47
2 0.77
-2 0.22999999999999998
3 0.54
-3 0.45999999999999996
4 0.84
-4 0.16000000000000003
5 0.61
-5 0.39
6 0.11
-6 0.89
7 0.58
-7 0.42000000000000004
8 0.81
-8 0.18999999999999995
9 0.11
-9 0.89
10 0.85
-10 0.15000000000000002
11 0.56
-11 0.43999999999999995
12 0.06
-12 0.94
13 0.91
-13 0.08999999999999997
14 0.26
-14 0.74
15 0.18
-15 0.8200000000000001
16 0.76
-16 0.24
17 0.08
-17 0.92
18 0.53
-18 0.47
19 0.42
-19 0.5800000000000001
20 0.63
-20 0.37
21 0.11
-21 0.89
22 0.69
-22 0.31000000000000005
23 0.92
-23 0.07999999999999996
24 0.2
-24 0.8
25 0.35
-25 0.65
26 0.94
-26 0.06000000000000005
27 0.48
-27 0.52
28 0.52
-28 0.48
29 0.68
-29 0.31999999999999995
30 0.1
-30 0.9
31 0.45
-31 0.55
32 0.97
-32 0.030000000000000027
33 0.12
-33 0.88
34 0.04
-34 0.96
35 0.67
-35 0.32999999999999996
36 0.63
-36 0.37
37 0.54
-37 0.45999999999999996
38 0.83
-38 0.17000000000000004
39 0.4
-39 0.6
40 0.1
-40 0.9
41 0.18
-41 0.8200000000000001
42 0.82
-42 0.18000000000000005
43 0.19
-43 0.81
44 0.19
-44 0.81
45 0.16
-45 0.84
46 0.98
-46 0.020000000000000018
47 0.59
-47 0.41000000000000003
48 0.8
-48 0.19999999999999996
49 0.49
-49 0.51
50 0.11
-50 0.89
51 0.91
-51 0.08999999999999997
52 0.42
-52 0.5800000000000001
53 0.81
-53 0.18999999999999995
54 0.47
-54 0.53
55 0.6
-55 0.4
56 0.89
-56 0.10999999999999999
57 0.24
-57 0.76
58 0.62
-58 0.38
59 0.46
-59 0.54
60 0.98
-60 0.020000000000000018
61 0.45
-61 0.55
62 0.3
-62 0.7
63 0.33
-63 0.6699999999999999
64 0.36
-64 0.64
65 0.4
-65 0.6
66 0.93
-66 0.06999999999999995
67 0.05
-67 0.95
68 0.29
-68 0.71
69 0.76
-69 0.24
70 0.67
-70 0.32999999999999996
71 0.65
-71 0.35
72 0.15
-72 0.85
73 0.93
-73 0.06999999999999995
74 0.74
-74 0.26
75 0.58
-75 0.42000000000000004
76 0.36
-76 0.64
77 0.25
-77 0.75
78 0.99
-78 0.010000000000000009
79 0.99
-79 0.010000000000000009
80 0.74
-80 0.26
81 0.77
-81 0.22999999999999998
82 0.09
-82 0.91
83 0.97
-83 0.030000000000000027
84 0.83
-84 0.17000000000000004
85 0.76
-85 0.24
86 0.44
-86 0.56
87 0.74
-87 0.26
88 0.27
-88 0.73
89 0.42
-89 0.5800000000000001
90 0.94
-90 0.06000000000000005
91 0.56
-91 0.43999999999999995
92 0.05
-92 0.95
93 0.18
-93 0.8200000000000001
94 0.98
-94 0.020000000000000018
95 0.53
-95 0.47
96 0.11
-96 0.89
97 0.07
-97 0.9299999999999999
98 0.23
-98 0.77
99 0.09
-99 0.91
100 0.35
-100 0.65
