1 0.97
-1 0.030000000000000027
2 0.13
-2 0.87
3 0.39
-3 0.61
4 0.78
-4 0.21999999999999997
5 0.81
-5 0.18999999999999995
6 0.51
-6 0.49
7 0.01
-7 0.99
8 0.38
-8 0.62
9 0.57
-9 0.43000000000000005
10 0.78
-10 0.21999999999999997
11 0.01
-11 0.99
12 0.34
-12 0.6599999999999999
13 0.28
-13 0.72
14 0.66
-14 0.33999999999999997
15 0.96
-15 0.040000000000000036
16 0.02
-16 0.98
17 0.82
-17 0.18000000000000005
18 0.35
-18 0.65
19 0.5
-19 0.5
20 0.88
-20 0.12
21 0.99
-21 0.010000000000000009
22 0.9
-22 0.09999999999999998
23 0.52
-23 0.48
24 0.21
-24 0.79
25 0.73
-25 0.27
26 0.23
-26 0.77
27 0.63
-27 0.37
28 0.25
-28 0.75
29 0.94
-29 0.06000000000000005
30 0.89
-30 0.10999999999999999
31 0.74
-31 0.26
32 0.08
-32 0.92
33 0.75
-33 0.25
34 0.84
-34 0.16000000000000003
35 0.56
-35 0.43999999999999995
36 0.59
-36 0.41000000000000003
37 0.58
-37 0.42000000000000004
38 0.76
-38 0.24
39 0.81
-39 0.18999999999999995
40 0.36
-40 0.64
41 0.1
-41 0.9
42 0.46
-42 0.54
43 0.29
-43 0.71
44 0.12
-44 0.88
45 0.29
-45 0.71
46 0.33
-46 0.6699999999999999
47 0.72
-47 0.28
48 0.72
-48 0.28
49 0.49
-49 0.51
50 0.45
-50 0.55
51 0.91
-51 0.08999999999999997
52 0.64
-52 0.36
53 0.68
-53 0.31999999999999995
54 0.52
-54 0.48
55 0.97
-55 0.030000000000000027
56 0.74
-56 0.26
57 0.61
-57 0.39
58 0.53
-58 0.47
59 0.02
-59 0.98
60 0.5
-60 0.5
61 0.56
-61 0.43999999999999995
62 0.85
-62 0.15000000000000002
63 0.78
-63 0.21999999999999997
64 0.72
-64 0.28
65 0.51
-65 0.49
66 0.72
-66 0.28
67 0.03
-67 0.97
68 0.41
-68 0.5900000000000001
69 0.49
-69 0.51
70 0.61
-70 0.39
71 0.45
-71 0.55
72 0.57
-72 0.43000000000000005
73 0.63
-73 0.37
74 0.55
-74 0.44999999999999996
75 0.44
-75 0.56
76 0.79
-76 0.20999999999999996
77 0.57
-77 0.43000000000000005
78 0.51
-78 0.49
79 0.72
-79 0.28
80 0.5
-80 0.5
81 0.84
-81 0.16000000000000003
82 0.87
-82 0.13
83 0.17
-83 0.83
84 0.24
-84 0.76
85 0.66
-85 0.33999999999999997
86 0.89
-86 0.10999999999999999
87 0.04
-87 0.96
88 0.65
-88 0.35
89 0.2
-89 0.8
90 0.46
-90 0.54
91 0.96
-91 0.040000000000000036
92 0.87
-92 0.13
93 0.55
-93 0.44999999999999996
94 0.61
-94 0.39
95 0.42
-95 0.5800000000000001
96 0.28
-96 0.72
97 0.45
-97 0.55
98 0.85
-98 0.15000000000000002
99 0.64
-99 0.36
100 0.73
-100 0.27
