1 0.49
-1 0.51
2 0.11
-2 0.89
3 0.13
-3 0.87
4 0.41
-4 0.5900000000000001
5 0.77
-5 0.22999999999999998
6 0.97
-6 0.030000000000000027
7 0.14
-7 0.86
8 0.36
-8 0.64
9 0.4
-9 0.6
10 0.21
-10 0.79
11 0.4
-11 0.6
12 0.39
-12 0.61
13 0.72
-13 0.28
14 0.27
-14 0.73
15 0.18
-15 0.8200000000000001
16 0.82
-16 0.18000000000000005
17 0.24
-17 0.76
18 0.81
-18 0.18999999999999995
19 0.84
-19 0.16000000000000003
20 0.27
-20 0.73
21 0.86
-21 0.14
22 0.1
-22 0.9
23 0.22
-23 0.78
24 0.75
-24 0.25
25 0.08
-25 0.92
26 0.99
-26 0.010000000000000009
27 0.66
-27 0.33999999999999997
28 0.97
-28 0.030000000000000027
29 0.11
-29 0.89
30 0.42
-30 0.5800000000000001
31 0.2
-31 0.8
32 0.17
-32 0.83
33 0.33
-33 0.6699999999999999
34 0.13
-34 0.87
35 0.86
-35 0.14
36 0.27
-36 0.73
37 0.96
-37 0.040000000000000036
38 0.76
-38 0.24
39 0.25
-39 0.75
40 0.47
-40 0.53
41 0.45
-41 0.55
42 0.31
-42 0.69
43 0.12
-43 0.88
44 0.04
-44 0.96
45 0.55
-45 0.44999999999999996
46 0.52
-46 0.48
47 0.83
-47 0.17000000000000004
48 0.11
-48 0.89
49 0.65
-49 0.35
50 0.05
-50 0.95
51 0.65
-51 0.35
52 0.89
-52 0.10999999999999999
53 0.15
-53 0.85
54 0.52
-54 0.48
55 0.95
-55 0.050000000000000044
56 0.92
-56 0.07999999999999996
57 0.34
-57 0.6599999999999999
58 0.43
-58 0.5700000000000001
59 0.78
-59 0.21999999999999997
60 0.61
-60 0.39
61 0.31
-61 0.69
62 0.1
-62 0.9
63 0.31
-63 0.69
64 0.47
-64 0.53
65 0.28
-65 0.72
66 0.78
-66 0.21999999999999997
67 0.1
-67 0.9
68 0.03
-68 0.97
69 0.71
-69 0.29000000000000004
70 0.71
-70 0.29000000000000004
71 0.64
-71 0.36
72 0.01
-72 0.99
73 0.47
-73 0.53
74 0.95
-74 0.050000000000000044
75 0.05
-75 0.95
76 0.6
-76 0.4
77 0.37
-77 0.63
78 0.85
-78 0.15000000000000002
79 0.05
-79 0.95
80 0.94
-80 0.06000000000000005
81 0.62
-81 0.38
82 0.24
-82 0.76
83 0.28
-83 0.72
84 0.01
-84 0.99
85 0.76
-85 0.24
86 0.5
-86 0.5
87 0.76
-87 0.24
88 0.04
-88 0.96
89 0.11
-89 0.89
90 0.67
-90 0.32999999999999996
91 0.34
-91 0.6599999999999999
92 0.97
-92 0.030000000000000027
93 0.22
-93 0.78
94 0.72
-94 0.28
95 0.47
-95 0.53
96 0.09
-96 0.91
97 0.74
-97 0.26
98 0.94
-98 0.06000000000000005
99 0.99
-99 0.010000000000000009
100 0.48
-100 0.52
