1 0.9
-1 0.09999999999999998
2 0.01
-2 0.99
3 0.83
-3 0.17000000000000004
4 0.32
-4 0.6799999999999999
5 0.79
-5 0.20999999999999996
6 0.92
-6 0.07999999999999996
7 0.44
-7 0.56
8 0.99
-8 0.010000000000000009
9 0.65
-9 0.35
10 0.5
-10 0.5
11 0.38
-11 0.62
12 0.65
-12 0.35
13 0.86
-13 0.14
14 0.39
-14 0.61
15 0.66
-15 0.33999999999999997
16 0.96
-16 0.040000000000000036
17 0.09
-17 0.91
18 0.24
-18 0.76
19 0.28
-19 0.72
20 0.17
-20 0.83
21 0.4
-21 0.6
22 0.57
-22 0.43000000000000005
23 0.92
-23 0.07999999999999996
24 0.37
-24 0.63
25 0.94
-25 0.06000000000000005
26 0.09
-26 0.91
27 0.09
-27 0.91
28 0.37
-28 0.63
29 0.86
-29 0.14
30 0.49
-30 0.51
31 0.75
-31 0.25
32 0.98
-32 0.020000000000000018
33 0.72
-33 0.28
34 0.12
-34 0.88
35 0.51
-35 0.49
36 0.49
-36 0.51
37 0.59
-37 0.41000000000000003
38 0.28
-38 0.72
39 0.74
-39 0.26
40 0.38
-40 0.62
41 0.4
-41 0.6
42 0.48
-42 0.52
43 0.22
-43 0.78
44 0.66
-44 0.33999999999999997
45 0.05
-45 0.95
46 0.75
-46 0.25
47 0.94
-47 0.06000000000000005
48 0.03
-48 0.97
49 0.42
-49 0.5800000000000001
50 0.88
-50 0.12
51 0.22
-51 0.78
52 0.81
-52 0.18999999999999995
53 0.33
-53 0.6699999999999999
54 0.62
-54 0.38
55 0.72
-55 0.28
56 0.35
-56 0.65
57 0.71
-57 0.29000000000000004
58 0.43
-58 0.5700000000000001
59 0.64
-59 0.36
60 0.57
-60 0.43000000000000005
61 0.51
-61 0.49
62 0.96
-62 0.040000000000000036
63 0.66
-63 0.33999999999999997
64 0.63
-64 0.37
65 0.87
-65 0.13
66 0.21
-66 0.79
67 0.98
-67 0.020000000000000018
68 0.75
-68 0.25
69 0.07
-69 0.9299999999999999
70 0.64
-70 0.36
71 0.37
-71 0.63
72 0.54
-72 0.45999999999999996
73 0.05
-73 0.95
74 0.86
-74 0.14
75 0.85
-75 0.15000000000000002
76 0.03
-76 0.97
77 0.86
-77 0.14
78 0.68
-78 0.31999999999999995
79 0.92
-79 0.07999999999999996
80 0.8
-80 0.19999999999999996
81 0.58
-81 0.42000000000000004
82 0.28
-82 0.72
83 0.91
-83 0.08999999999999997
84 0.38
-84 0.62
85 0.61
-85 0.39
86 0.57
-86 0.43000000000000005
87 0.45
-87 0.55
88 0.92
-88 0.07999999999999996
89 0.02
-89 0.98
90 0.41
-90 0.5900000000000001
91 0.21
-91 0.79
92 0.03
-92 0.97
93 0.28
-93 0.72
94 0.29
-94 0.71
95 0.03
-95 0.97
96 0.83
-96 0.17000000000000004
97 0.63
-97 0.37
98 0.78
-98 0.21999999999999997
99 0.52
-99 0.48
100 0.54
-100 0.45999999999999996
