1 0.84
-1 0.16000000000000003
2 0.09
-2 0.91
3 0.47
-3 0.53
4 0.62
-4 0.38
5 0.39
-5 0.61
6 0.21
-6 0.79
7 0.26
-7 0.74
8 0.16
-8 0.84
9 0.83
-9 0.17000000000000004
10 0.27
-10 0.73
11 0.64
-11 0.36
12 0.89
-12 0.10999999999999999
13 0.27
-13 0.73
14 0.36
-14 0.64
15 0.3
-15 0.7
16 0.91
-16 0.08999999999999997
17 0.61
-17 0.39
18 0.73
-18 0.27
19 0.35
-19 0.65
20 0.45
-20 0.55
21 0.81
-21 0.18999999999999995
22 0.92
-22 0.07999999999999996
23 0.14
-23 0.86
24 0.75
-24 0.25
25 0.65
-25 0.35
26 0.46
-26 0.54
27 0.83
-27 0.17000000000000004
28 0.32
-28 0.6799999999999999
29 0.27
-29 0.73
30 0.41
-30 0.5900000000000001
31 0.24
-31 0.76
32 0.97
-32 0.030000000000000027
33 0.7
-33 0.30000000000000004
34 0.26
-34 0.74
35 0.39
-35 0.61
36 0.48
-36 0.52
37 0.38
-37 0.62
38 0.74
-38 0.26
39 0.4
-39 0.6
40 0.51
-40 0.49
41 0.46
-41 0.54
42 0.67
-42 0.32999999999999996
43 0.79
-43 0.20999999999999996
44 0.42
-44 0.5800000000000001
45 0.9
-45 0.09999999999999998
46 0.5
-46 0.5
47 0.23
-47 0.77
48 0.64
-48 0.36
49 0.3
-49 0.7
50 0.67
-50 0.32999999999999996
51 0.22
-51 0.78
52 0.6
-52 0.4
53 0.59
-53 0.41000000000000003
54 0.54
-54 0.45999999999999996
55 0.18
-55 0.8200000000000001
56 0.54
-56 0.45999999999999996
57 0.76
-57 0.24
58 0.36
-58 0.64
59 0.95
-59 0.050000000000000044
60 0.28
-60 0.72
61 0.58
-61 0.42000000000000004
62 0.44
-62 0.56
63 0.16
-63 0.84
64 0.18
-64 0.8200000000000001
65 0.66
-65 0.33999999999999997
66 0.8
-66 0.19999999999999996
67 0.72
-67 0.28
68 0.87
-68 0.13
69 0.33
-69 0.6699999999999999
70 0.79
-70 0.20999999999999996
71 0.02
-71 0.98
72 0.73
-72 0.27
73 0.93
-73 0.06999999999999995
74 0.49
-74 0.51
75 0.13
-75 0.87
76 0.01
-76 0.99
77 0.44
-77 0.56
78 0.63
-78 0.37
79 0.8
-79 0.19999999999999996
80 0.3
-80 0.7
81 0.32
-81 0.6799999999999999
82 0.19
-82 0.81
83 0.84
-83 0.16000000000000003
84 0.36
-84 0.64
85 0.26
-85 0.74
86 0.71
-86 0.29000000000000004
87 0.16
-87 0.84
88 0.95
-88 0.050000000000000044
89 0.25
-89 0.75
90 0.94
-90 0.06000000000000005
91 0.38
-91 0.62
92 0.22
-92 0.78
93 0.08
-93 0.92
94 0.53
-94 0.47
95 0.77
-95 0.22999999999999998
96 0.16
-96 0.84
97 0.47
-97 0.53
98 0.53
-98 0.47
99 0.55
-99 0.44999999999999996
100 0.92
-100 0.07999999999999996
