1 0.86
-1 0.14
2 0.48
-2 0.52
3 0.7
-3 0.30000000000000004
4 0.43
-4 0.5700000000000001
5 0.48
-5 0.52
6 0.48
-6 0.52
7 0.02
-7 0.98
8 0.06
-8 0.94
9 0.83
-9 0.17000000000000004
10 0.35
-10 0.65
11 0.03
-11 0.97
12 0.23
-12 0.77
13 0.58
-13 0.42000000000000004
14 0.58
-14 0.42000000000000004
15 0.51
-15 0.49
16 0.24
-16 0.76
17 0.12
-17 0.88
18 0.55
-18 0.44999999999999996
19 0.43
-19 0.5700000000000001
20 0.09
-20 0.91
21 0.48
-21 0.52
22 0.17
-22 0.83
23 0.93
-23 0.06999999999999995
24 0.93
-24 0.06999999999999995
25 0.97
-25 0.030000000000000027
26 0.25
-26 0.75
27 0.32
-27 0.6799999999999999
28 0.02
-28 0.98
29 0.51
-29 0.49
30 0.81
-30 0.18999999999999995
31 0.44
-31 0.56
32 0.7
-32 0.30000000000000004
33 0.77
-33 0.22999999999999998
34 0.21
-34 0.79
35 0.41
-35 0.5900000000000001
36 0.87
-36 0.13
37 0.44
-37 0.56
38 0.83
-38 0.17000000000000004
39 0.91
-39 0.08999999999999997
40 0.43
-40 0.5700000000000001
41 0.05
-41 0.95
42 0.4
-42 0.6
43 0.71
-43 0.29000000000000004
44 0.35
-44 0.65
45 0.69
-45 0.31000000000000005
46 0.22
-46 0.78
47 0.94
-47 0.06000000000000005
48 0.13
-48 0.87
49 0.5
-49 0.5
50 0.22
-50 0.78
51 0.28
-51 0.72
52 0.54
-52 0.45999999999999996
53 0.6
-53 0.4
54 0.36
-54 0.64
55 0.16
-55 0.84
56 0.37
-56 0.63
57 0.8
-57 0.19999999999999996
58 0.59
-58 0.41000000000000003
59 0.11
-59 0.89
60 0.16
-60 0.84
61 0.02
-61 0.98
62 0.77
-62 0.22999999999999998
63 0.39
-63 0.61
64 0.27
-64 0.73
65 0.42
-65 0.5800000000000001
66 0.62
-66 0.38
67 0.67
-67 0.32999999999999996
68 0.22
-68 0.78
69 0.59
-69 0.41000000000000003
70 0.97
-70 0.030000000000000027
71 0.92
-71 0.07999999999999996
72 0.78
-72 0.21999999999999997
73 0.04
-73 0.96
74 0.62
-74 0.38
75 0.13
-75 0.87
76 0.58
-76 0.42000000000000004
77 0.43
-77 0.5700000000000001
78 0.08
-78 0.92
79 0.43
-79 0.5700000000000001
80 0.82
-80 0.18000000000000005
81 0.61
-81 0.39
82 0.51
-82 0.49
83 0.82
-83 0.18000000000000005
84 0.96
-84 0.040000000000000036
85 0.48
-85 0.52
86 0.57
-86 0.43000000000000005
87 0.43
-87 0.5700000000000001
88 0.9
-88 0.09999999999999998
89 0.61
-89 0.39
90 0.14
-90 0.86
91 0.97
-91 0.030000000000000027
92 0.21
-92 0.79
93 0.06
-93 0.94
94 0.73
-94 0.27
95 0.84
-95 0.16000000000000003
96 0.99
-96 0.010000000000000009
97 0.02
-97 0.98
98 0.59
-98 0.41000000000000003
99 0.98
-99 0.020000000000000018
100 0.26
-100 0.74
