1 0.13
-1 0.87
2 0.43
-2 0.5700000000000001
3 0.85
-3 0.15000000000000002
4 0.39
-4 0.61
5 0.94
-5 0.06000000000000005
6 0.47
-6 0.53
7 0.8
-7 0.19999999999999996
8 0.97
-8 0.030000000000000027
9 0.98
-9 0.020000000000000018
10 0.26
-10 0.74
11 0.86
-11 0.14
12 0.07
-12 0.9299999999999999
13 0.33
-13 0.6699999999999999
14 0.11
-14 0.89
15 0.33
-15 0.6699999999999999
16 0.86
-16 0.14
17 0.01
-17 0.99
18 0.53
-18 0.47
19 0.48
-19 0.52
20 0.94
-20 0.06000000000000005
21 0.05
-21 0.95
22 0.6
-22 0.4
23 0.31
-23 0.69
24 0.38
-24 0.62
25 0.77
-25 0.22999999999999998
26 0.66
-26 0.33999999999999997
27 0.17
-27 0.83
28 0.51
-28 0.49
29 0.09
-29 0.91
30 0.1
-30 0.9
31 0.15
-31 0.85
32 0.07
-32 0.9299999999999999
33 0.12
-33 0.88
34 0.53
-34 0.47
35 0.39
-35 0.61
36 0.4
-36 0.6
37 0.74
-37 0.26
38 0.41
-38 0.5900000000000001
39 0.28
-39 0.72
40 0.43
-40 0.5700000000000001
41 0.83
-41 0.17000000000000004
42 0.73
-42 0.27
43 0.65
-43 0.35
44 0.59
-44 0.41000000000000003
45 0.19
-45 0.81
46 0.79
-46 0.20999999999999996
47 0.27
-47 0.73
48 0.87
-48 0.13
49 0.09
-49 0.91
50 0.05
-50 0.95
51 0.65
-51 0.35
52 0.32
-52 0.6799999999999999
53 0.56
-53 0.43999999999999995
54 0.77
-54 0.22999999999999998
55 0.62
-55 0.38
56 0.95
-56 0.050000000000000044
57 0.99
-57 0.010000000000000009
58 0.87
-58 0.13
59 0.69
-59 0.31000000000000005
60 0.3
-60 0.7
61 0.77
-61 0.22999999999999998
62 0.54
-62 0.45999999999999996
63 0.09
-63 0.91
64 0.52
-64 0.48
65 0.53
-65 0.47
66 0.79
-66 0.20999999999999996
67 0.82
-67 0.18000000000000005
68 0.02
-68 0.98
69 0.35
-69 0.65
70 0.08
-70 0.92
71 0.58
-71 0.42000000000000004
72 0.94
-72 0.06000000000000005
73 0.63
-73 0.37
74 0.91
-74 0.08999999999999997
75 0.09
-75 0.91
76 0.25
-76 0.75
77 0.17
-77 0.83
78 0.1
-78 0.9
79 0.63
-79 0.37
80 0.2
-80 0.8
81 0.23
-81 0.77
82 0.77
-82 0.22999999999999998
83 0.2
-83 0.8
84 0.84
-84 0.16000000000000003
85 0.92
-85 0.07999999999999996
86 0.62
-86 0.38
87 0.47
-87 0.53
88 0.99
-88 0.010000000000000009
89 0.98
-89 0.020000000000000018
90 0.68
-90 0.31999999999999995
91 0.29
-91 0.71
92 0.44
-92 0.56
93 0.16
-93 0.84
94 0.51
-94 0.49
95 0.03
-95 0.97
96 0.48
-96 0.52
97 0.07
-97 0.9299999999999999
98 0.85
-98 0.15000000000000002
99 0.88
-99 0.12
100 0.48
-100 0.52
