1 0.67
-1 0.32999999999999996
2 0.09
-2 0.91
3 0.99
-3 0.010000000000000009
4 0.88
-4 0.12
5 0.16
-5 0.84
6 0.53
-6 0.47
7 0.57
-7 0.43000000000000005
8 0.1
-8 0.9
9 0.76
-9 0.24
10 0.76
-10 0.24
11 0.45
-11 0.55
12 0.37
-12 0.63
13 0.44
-13 0.56
14 0.31
-14 0.69
15 0.4
-15 0.6
16 0.51
-16 0.49
17 0.33
-17 0.6699999999999999
18 0.86
-18 0.14
19 0.79
-19 0.20999999999999996
20 0.57
-20 0.43000000000000005
21 0.03
-21 0.97
22 0.79
-22 0.20999999999999996
23 0.03
-23 0.97
24 0.01
-24 0.99
25 0.41
-25 0.5900000000000001
26 0.04
-26 0.96
27 0.84
-27 0.16000000000000003
28 0.1
-28 0.9
29 0.74
-29 0.26
30 0.19
-30 0.81
31 0.26
-31 0.74
32 0.53
-32 0.47
33 0.44
-33 0.56
34 0.38
-34 0.62
35 0.92
-35 0.07999999999999996
36 0.51
-36 0.49
37 0.09
-37 0.91
38 0.27
-38 0.73
39 0.49
-39 0.51
40 0.72
-40 0.28
41 0.59
-41 0.41000000000000003
42 0.06
-42 0.94
43 0.72
-43 0.28
44 0.78
-44 0.21999999999999997
45 0.01
-45 0.99
46 0.28
-46 0.72
47 0.76
-47 0.24
48 0.78
-48 0.21999999999999997
49 0.99
-49 0.010000000000000009
50 0.34
-50 0.6599999999999999
51 0.86
-51 0.14
52 0.42
-52 0.5800000000000001
53 0.25
-53 0.75
54 0.41
-54 0.5900000000000001
55 0.43
-55 0.5700000000000001
56 0.06
-56 0.94
57 0.71
-57 0.29000000000000004
58 0.21
-58 0.79
59 0.56
-59 0.43999999999999995
60 0.72
-60 0.28
61 0.09
-61 0.91
62 0.24
-62 0.76
63 0.34
-63 0.6599999999999999
64 0.7
-64 0.30000000000000004
65 0.12
-65 0.88
66 0.68
-66 0.31999999999999995
67 0.88
-67 0.12
68 0.68
-68 0.31999999999999995
69 0.61
-69 0.39
70 0.86
-70 0.14
71 0.18
-71 0.8200000000000001
72 0.54
-72 0.45999999999999996
73 0.45
-73 0.55
74 0.99
-74 0.010000000000000009
75 0.16
-75 0.84
76 0.73
-76 0.27
77 0.16
-77 0.84
78 0.99
-78 0.010000000000000009
79 0.4
-79 0.6
80 0.03
-80 0.97
81 0.38
-81 0.62
82 0.87
-82 0.13
83 0.55
-83 0.44999999999999996
84 0.2
-84 0.8
85 0.39
-85 0.61
86 0.96
-86 0.040000000000000036
87 0.99
-87 0.010000000000000009
88 0.9
-88 0.09999999999999998
89 0.71
-89 0.29000000000000004
90 0.99
-90 0.010000000000000009
91 0.18
-91 0.8200000000000001
92 0.88
-92 0.12
93 0.21
-93 0.79
94 0.15
-94 0.85
95 0.54
-95 0.45999999999999996
96 0.38
-96 0.62
97 0.29
-97 0.71
98 0.42
-98 0.5800000000000001
99 0.84
-99 0.16000000000000003
100 0.58
-100 0.42000000000000004
