1 0.49
-1 0.51
2 0.46
-2 0.54
3 0.24
-3 0.76
4 0.8
-4 0.19999999999999996
5 0.11
-5 0.89
6 0.16
-6 0.84
7 0.1
-7 0.9
8 0.41
-8 0.5900000000000001
9 0.99
-9 0.010000000000000009
10 0.06
-10 0.94
11 0.19
-11 0.81
12 0.28
-12 0.72
13 0.94
-13 0.06000000000000005
14 0.81
-14 0.18999999999999995
15 0.4
-15 0.6
16 0.5
-16 0.5
17 0.34
-17 0.6599999999999999
18 0.66
-18 0.33999999999999997
19 0.33
-19 0.6699999999999999
20 0.15
-20 0.85
21 0.79
-21 0.20999999999999996
22 0.84
-22 0.16000000000000003
23 0.73
-23 0.27
24 0.43
-24 0.5700000000000001
25 0.98
-25 0.020000000000000018
26 0.23
-26 0.77
27 0.2
-27 0.8
28 0.13
-28 0.87
29 0.45
-29 0.55
30 0.15
-30 0.85
31 0.06
-31 0.94
32 0.55
-32 0.44999999999999996
33 0.19
-33 0.81
34 0.9
-34 0.09999999999999998
35 0.47
-35 0.53
36 0.3
-36 0.7
37 0.74
-37 0.26
38 0.62
-38 0.38
39 0.54
-39 0.45999999999999996
40 0.55
-40 0.44999999999999996
41 0.41
-41 0.5900000000000001
42 0.31
-42 0.69
43 0.49
-43 0.51
44 0.46
-44 0.54
45 0.23
-45 0.77
46 0.48
-46 0.52
47 0.4
-47 0.6
48 0.07
-48 0.9299999999999999
49 0.58
-49 0.42000000000000004
50 0.24
-50 0.76
51 0.69
-51 0.31000000000000005
52 0.22
-52 0.78
53 0.4
-53 0.6
54 0.77
-54 0.22999999999999998
55 0.73
-55 0.27
56 0.12
-56 0.88
57 0.08
-57 0.92
58 0.89
-58 0.10999999999999999
59 0.98
-59 0.020000000000000018
60 0.89
-60 0.10999999999999999
61 0.07
-61 0.9299999999999999
62 0.49
-62 0.51
63 0.01
-63 0.99
64 0.71
-64 0.29000000000000004
65 0.23
-65 0.77
66 0.91
-66 0.08999999999999997
67 0.66
-67 0.33999999999999997
68 0.42
-68 0.5800000000000001
69 0.48
-69 0.52
70 0.62
-70 0.38
71 0.96
-71 0.040000000000000036
72 0.16
-72 0.84
73 0.88
-73 0.12
74 0.47
-74 0.53
75 0.9
-75 0.09999999999999998
76 0.42
-76 0.5800000000000001
77 0.12
-77 0.88
78 0.74
-78 0.26
79 0.77
-79 0.22999999999999998
80 0.74
-80 0.26
81 0.25
-81 0.75
82 0.29
-82 0.71
83 0.57
-83 0.43000000000000005
84 0.87
-84 0.13
85 0.47
-85 0.53
86 0.67
-86 0.32999999999999996
87 0.87
-87 0.13
88 0.13
-88 0.87
89 0.09
-89 0.91
90 0.45
-90 0.55
91 0.72
-91 0.28
92 0.61
-92 0.39
93 0.09
-93 0.91
94 0.22
-94 0.78
95 0.56
-95 0.43999999999999995
96 0.17
-96 0.83
97 0.2
-97 0.8
98 0.18
-98 0.8200000000000001
99 0.93
-99 0.06999999999999995
100 0.22
-100 0.78
