1 0.02
-1 0.98
2 0.56
-2 0.43999999999999995
3 0.87
-3 0.13
4 0.29
-4 0.71
5 0.57
-5 0.43000000000000005
6 0.84
-6 0.16000000000000003
7 0.93
-7 0.06999999999999995
8 0.17
-8 0.83
9 0.78
-9 0.21999999999999997
10 0.91
-10 0.08999999999999997
11 0.25
-11 0.75
12 0.87
-12 0.13
13 0.88
-13 0.12
14 0.03
-14 0.97
15 0.85
-15 0.15000000000000002
16 0.87
-16 0.13
17 0.77
-17 0.22999999999999998
18 0.04
-18 0.96
19 0.92
-19 0.07999999999999996
20 0.1
-20 0.9
21 0.52
-21 0.48
22 0.41
-22 0.5900000000000001
23 0.41
-23 0.5900000000000001
24 0.11
-24 0.89
25 0.85
-25 0.15000000000000002
26 0.43
-26 0.5700000000000001
27 0.32
-27 0.6799999999999999
28 0.38
-28 0.62
29 0.45
-29 0.55
30 0.16
-30 0.84
31 0.97
-31 0.030000000000000027
32 0.23
-32 0.77
33 0.47
-33 0.53
34 0.5
-34 0.5
35 0.1
-35 0.9
36 0.42
-36 0.5800000000000001
37 0.15
-37 0.85
38 0.89
-38 0.10999999999999999
39 0.11
-39 0.89
40 0.08
-40 0.92
41 0.16
-41 0.84
42 0.09
-42 0.91
43 0.76
-43 0.24
44 0.17
-44 0.83
45 0.91
-45 0.08999999999999997
46 0.01
-46 0.99
47 0.61
-47 0.39
48 0.75
-48 0.25
49 0.83
-49 0.17000000000000004
50 0.23
-50 0.77
51 0.71
-51 0.29000000000000004
52 0.42
-52 0.5800000000000001
53 0.19
-53 0.81
54 0.29
-54 0.71
55 0.6
-55 0.4
56 0.1
-56 0.9
57 0.66
-57 0.33999999999999997
58 0.95
-58 0.050000000000000044
59 0.53
-59 0.47
60 0.55
-60 0.44999999999999996
61 0.22
-61 0.78
62 0.02
-62 0.98
63 0.9
-63 0.09999999999999998
64 0.5
-64 0.5
65 0.99
-65 0.010000000000000009
66 0.25
-66 0.75
67 0.36
-67 0.64
68 0.32
-68 0.6799999999999999
69 0.29
-69 0.71
70 0.78
-70 0.21999999999999997
71 0.97
-71 0.030000000000000027
72 0.53
-72 0.47
73 0.7
-73 0.30000000000000004
74 0.06
-74 0.94
75 0.98
-75 0.020000000000000018
76 0.31
-76 0.69
77 0.23
-77 0.77
78 0.68
-78 0.31999999999999995
79 0.88
-79 0.12
80 0.86
-80 0.14
81 0.55
-81 0.44999999999999996
82 0.59
-82 0.41000000000000003
83 0.4
-83 0.6
84 0.62
-84 0.38
85 0.27
-85 0.73
86 0.3
-86 0.7
87 0.91
-87 0.08999999999999997
88 0.27
-88 0.73
89 0.41
-89 0.5900000000000001
90 0.6
-90 0.4
91 0.16
-91 0.84
92 0.19
-92 0.81
93 0.23
-93 0.77
94 0.13
-94 0.87
95 0.78
-95 0.21999999999999997
96 0.82
-96 0.18000000000000005
97 0.45
-97 0.55
98 0.99
-98 0.010000000000000009
99 0.51
-99 0.49
100 0.93
-100 0.06999999999999995
