1 0.95
-1 0.050000000000000044
2 0.69
-2 0.31000000000000005
3 0.17
-3 0.83
4 0.93
-4 0.06999999999999995
5 0.46
-5 0.54
6 0.85
-6 0.15000000000000002
7 0.16
-7 0.84
8 0.09
-8 0.91
9 0.16
-9 0.84
10 0.21
-10 0.79
11 0.66
-11 0.33999999999999997
12 0.58
-12 0.42000000000000004
13 0.86
-13 0.14
14 0.82
-14 0.18000000000000005
15 0.75
-15 0.25
16 0.1
-16 0.9
17 0.45
-17 0.55
18 0.89
-18 0.10999999999999999
19 0.32
-19 0.6799999999999999
20 0.96
-20 0.040000000000000036
21 0.54
-21 0.45999999999999996
22 0.48
-22 0.52
23 0.55
-23 0.44999999999999996
24 0.47
-24 0.53
25 0.78
-25 0.21999999999999997
26 0.16
-26 0.84
27 0.55
-27 0.44999999999999996
28 0.49
-28 0.51
29 0.69
-29 0.31000000000000005
30 0.96
-30 0.040000000000000036
31 0.22
-31 0.78
32 0.86
-32 0.14
33 0.28
-33 0.72
34 0.49
-34 0.51
35 0.91
-35 0.08999999999999997
36 0.24
-36 0.76
37 0.5
-37 0.5
38 0.53
-38 0.47
39 0.24
-39 0.76
40 0.84
-40 0.16000000000000003
41 0.28
-41 0.72
42 0.47
-42 0.53
43 0.75
-43 0.25
44 0.77
-44 0.22999999999999998
45 0.48
-45 0.52
46 0.81
-46 0.18999999999999995
47 0.22
-47 0.78
48 0.03
-48 0.97
49 0.91
-49 0.08999999999999997
50 0.59
-50 0.41000000000000003
51 0.47
-51 0.53
52 0.88
-52 0.12
53 0.92
-53 0.07999999999999996
54 0.36
-54 0.64
55 0.31
-55 0.69
56 0.17
-56 0.83
57 0.14
-57 0.86
58 0.66
-58 0.33999999999999997
59 0.01
-59 0.99
60 0.41
-60 0.5900000000000001
61 0.54
-61 0.45999999999999996
62 0.45
-62 0.55
63 0.29
-63 0.71
64 0.93
-64 0.06999999999999995
65 0.57
-65 0.43000000000000005
66 0.91
-66 0.08999999999999997
67 0.15
-67 0.85
68 0.73
-68 0.27
69 0.29
-69 0.71
70 0.23
-70 0.77
71 0.69
-71 0.31000000000000005
72 0.95
-72 0.050000000000000044
73 0.44
-73 0.56
74 0.57
-74 0.43000000000000005
75 0.76
-75 0.24
76 0.95
-76 0.050000000000000044
77 0.23
-77 0.77
78 0.53
-78 0.47
79 0.99
-79 0.010000000000000009
80 0.51
-80 0.49
81 0.39
-81 0.61
82 0.78
-82 0.21999999999999997
83 0.91
-83 0.08999999999999997
84 0.5
-84 0.5
85 0.18
-85 0.8200000000000001
86 0.69
-86 0.31000000000000005
87 0.74
-87 0.26
88 0.35
-88 0.65
89 0.98
-89 0.020000000000000018
90 0.36
-90 0.64
91 0.95
-91 0.050000000000000044
92 0.82
-92 0.18000000000000005
93 0.1
-93 0.9
94 0.58
-94 0.42000000000000004
95 0.47
-95 0.53
96 0.77
-96 0.22999999999999998
97 0.16
-97 0.84
98 0.96
-98 0.040000000000000036
99 0.2
-99 0.8
100 0.28
-100 0.72
