1 0.84
-1 0.16000000000000003
2 0.48
-2 0.52
3 0.71
-3 0.29000000000000004
4 0.22
-4 0.78
5 0.48
-5 0.52
6 0.85
-6 0.15000000000000002
7 0.43
-7 0.5700000000000001
8 0.68
-8 0.31999999999999995
9 0.29
-9 0.71
10 0.84
-10 0.16000000000000003
11 0.86
-11 0.14
12 0.62
-12 0.38
13 0.93
-13 0.06999999999999995
14 0.83
-14 0.17000000000000004
15 0.11
-15 0.89
16 0.15
-16 0.85
17 0.12
-17 0.88
18 0.53
-18 0.47
19 0.65
-19 0.35
20 0.69
-20 0.31000000000000005
21 0.48
-21 0.52
22 0.47
-22 0.53
23 0.56
-23 0.43999999999999995
24 0.88
-24 0.12
25 0.47
-25 0.53
26 0.8
-26 0.19999999999999996
27 0.82
-27 0.18000000000000005
28 0.13
-28 0.87
29 0.47
-29 0.53
30 0.66
-30 0.33999999999999997
31 0.52
-31 0.48
32 0.39
-32 0.61
33 0.75
-33 0.25
34 0.77
-34 0.22999999999999998
35 0.1
-35 0.9
36 0.31
-36 0.69
37 0.7
-37 0.30000000000000004
38 0.51
-38 0.49
39 0.18
-39 0.8200000000000001
40 0.65
-40 0.35
41 0.97
-41 0.030000000000000027
42 0.12
-42 0.88
43 0.42
-43 0.5800000000000001
44 0.48
-44 0.52
45 0.66
-45 0.33999999999999997
46 0.42
-46 0.5800000000000001
47 0.39
-47 0.61
48 0.58
-48 0.42000000000000004
49 0.3
-49 0.7
50 0.01
-50 0.99
51 0.08
-51 0.92
52 0.74
-52 0.26
53 0.96
-53 0.040000000000000036
54 0.01
-54 0.99
55 0.99
-55 0.010000000000000009
56 0.06
-56 0.94
57 0.03
-57 0.97
58 0.97
-58 0.030000000000000027
59 0.49
-59 0.51
60 0.88
-60 0.12
61 0.37
-61 0.63
62 0.66
-62 0.33999999999999997
63 0.76
-63 0.24
64 0.94
-64 0.06000000000000005
65 0.3
-65 0.7
66 0.26
-66 0.74
67 0.71
-67 0.29000000000000004
68 0.77
-68 0.22999999999999998
69 0.11
-69 0.89
70 0.3
-70 0.7
71 0.77
-71 0.22999999999999998
72 0.21
-72 0.79
73 0.6
-73 0.4
74 0.97
-74 0.030000000000000027
75 0.58
-75 0.42000000000000004
76 0.37
-76 0.63
77 0.26
-77 0.74
78 0.5
-78 0.5
79 0.58
-79 0.42000000000000004
80 0.45
-80 0.55
81 0.82
-81 0.18000000000000005
82 0.33
-82 0.6699999999999999
83 0.08
-83 0.92
84 0.44
-84 0.56
85 0.14
-85 0.86
86 0.37
-86 0.63
87 0.57
-87 0.43000000000000005
88 0.77
-88 0.22999999999999998
89 0.82
-89 0.18000000000000005
90 0.47
-90 0.53
91 0.44
-91 0.56
92 0.98
-92 0.020000000000000018
93 0.34
-93 0.6599999999999999
94 0.14
-94 0.86
95 0.09
-95 0.91
96 0.53
-96 0.47
97 0.05
-97 0.95
98 0.31
-98 0.69
99 0.02
-99 0.98
100 0.26
-100 0.74
