1 0.43
-1 0.5700000000000001
2 0.32
-2 0.6799999999999999
3 0.07
-3 0.9299999999999999
4 0.22
-4 0.78
5 0.94
-5 0.06000000000000005
6 0.62
-6 0.38
7 0.31
-7 0.69
8 0.76
-8 0.24
9 0.07
-9 0.9299999999999999
10 0.39
-10 0.61
11 0.16
-11 0.84
12 0.99
-12 0.010000000000000009
13 0.15
-13 0.85
14 0.13
-14 0.87
15 0.74
-15 0.26
16 0.45
-16 0.55
17 0.36
-17 0.64
18 0.77
-18 0.22999999999999998
19 0.02
-19 0.98
20 0.18
-20 0.8200000000000001
21 0.53
-21 0.47
22 0.78
-22 0.21999999999999997
23 0.05
-23 0.95
24 0.81
-24 0.18999999999999995
25 0.2
-25 0.8
26 0.26
-26 0.74
27 0.49
-27 0.51
28 0.75
-28 0.25
29 0.72
-29 0.28
30 0.29
-30 0.71
31 0.01
-31 0.99
32 0.97
-32 0.030000000000000027
33 0.03
-33 0.97
34 0.93
-34 0.06999999999999995
35 0.24
-35 0.76
36 0.19
-36 0.81
37 0.59
-37 0.41000000000000003
38 0.14
-38 0.86
39 0.92
-39 0.07999999999999996
40 0.78
-40 0.21999999999999997
41 0.69
-41 0.31000000000000005
42 0.73
-42 0.27
43 0.62
-43 0.38
44 0.5
-44 0.5
45 0.88
-45 0.12
46 0.44
-46 0.56
47 0.9
-47 0.09999999999999998
48 0.64
-48 0.36
49 0.75
-49 0.25
50 0.37
-50 0.63
51 0.59
-51 0.41000000000000003
52 0.87
-52 0.13
53 0.83
-53 0.17000000000000004
54 0.74
-54 0.26
55 0.98
-55 0.020000000000000018
56 0.36
-56 0.64
57 0.58
-57 0.42000000000000004
58 0.26
-58 0.74
59 0.89
-59 0.10999999999999999
60 0.96
-60 0.040000000000000036
61 0.48
-61 0.52
62 0.67
-62 0.32999999999999996
63 0.29
-63 0.71
64 0.67
-64 0.32999999999999996
65 0.87
-65 0.13
66 0.11
-66 0.89
67 0.11
-67 0.89
68 0.19
-68 0.81
69 0.86
-69 0.14
70 0.72
-70 0.28
71 0.07
-71 0.9299999999999999
72 0.69
-72 0.31000000000000005
73 0.77
-73 0.22999999999999998
74 0.72
-74 0.28
75 0.91
-75 0.08999999999999997
76 0.9
-76 0.09999999999999998
77 0.72
-77 0.28
78 0.57
-78 0.43000000000000005
79 0.74
-79 0.26
80 0.98
-80 0.020000000000000018
81 0.59
-81 0.41000000000000003
82 0.46
-82 0.54
83 0.44
-83 0.56
84 0.04
-84 0.96
85 0.87
-85 0.13
86 0.25
-86 0.75
87 0.73
-87 0.27
88 0.45
-88 0.55
89 0.32
-89 0.6799999999999999
90 0.76
-90 0.24
91 0.54
-91 0.45999999999999996
92 0.26
-92 0.74
93 0.51
-93 0.49
94 0.93
-94 0.06999999999999995
95 0.35
-95 0.65
96 0.86
-96 0.14
97 0.99
-97 0.010000000000000009
98 0.05
-98 0.95
99 0.99
-99 0.010000000000000009
100 0.25
-100 0.75
