1 0.55
-1 0.44999999999999996
2 0.81
-2 0.18999999999999995
3 0.95
-3 0.050000000000000044
4 0.41
-4 0.5900000000000001
5 0.14
-5 0.86
6 0.22
-6 0.78
7 0.14
-7 0.86
8 0.16
-8 0.84
9 0.62
-9 0.38
10 0.73
-10 0.27
11 0.5
-11 0.5
12 0.31
-12 0.69
13 0.93
-13 0.06999999999999995
14 0.66
-14 0.33999999999999997
15 0.08
-15 0.92
16 0.97
-16 0.030000000000000027
17 0.39
-17 0.61
18 0.9
-18 0.09999999999999998
19 0.55
-19 0.44999999999999996
20 0.71
-20 0.29000000000000004
21 0.84
-21 0.16000000000000003
22 0.6
-22 0.4
23 0.28
-23 0.72
24 0.97
-24 0.030000000000000027
25 0.11
-25 0.89
26 0.82
-26 0.18000000000000005
27 0.54
-27 0.45999999999999996
28 0.89
-28 0.10999999999999999
29 0.3
-29 0.7
30 0.97
-30 0.030000000000000027
31 0.31
-31 0.69
32 0.57
-32 0.43000000000000005
33 0.7
-33 0.30000000000000004
34 0.32
-34 0.6799999999999999
35 0.54
-35 0.45999999999999996
36 0.52
-36 0.48
37 0.3
-37 0.7
38 0.35
-38 0.65
39 0.09
-39 0.91
40 0.11
-40 0.89
41 0.1
-41 0.9
42 0.29
-42 0.71
43 0.84
-43 0.16000000000000003
44 0.02
-44 0.98
45 0.76
-45 0.24
46 0.95
-46 0.050000000000000044
47 0.18
-47 0.8200000000000001
48 0.51
-48 0.49
49 0.77
-49 0.22999999999999998
50 0.28
-50 0.72
51 0.88
-51 0.12
52 0.23
-52 0.77
53 0.95
-53 0.050000000000000044
54 0.28
-54 0.72
55 0.7
-55 0.30000000000000004
56 0.83
-56 0.17000000000000004
57 0.59
-57 0.41000000000000003
58 0.69
-58 0.31000000000000005
59 0.03
-59 0.97
60 0.82
-60 0.18000000000000005
61 0.31
-61 0.69
62 0.73
-62 0.27
63 0.84
-63 0.16000000000000003
64 0.85
-64 0.15000000000000002
65 0.04
-65 0.96
66 0.42
-66 0.5800000000000001
67 0.27
-67 0.73
68 0.43
-68 0.5700000000000001
69 0.46
-69 0.54
70 0.37
-70 0.63
71 0.82
-71 0.18000000000000005
72 0.38
-72 0.62
73 0.15
-73 0.85
74 0.19
-74 0.81
75 0.32
-75 0.6799999999999999
76 0.42
-76 0.5800000000000001
77 0.11
-77 0.89
78 0.73
-78 0.27
79 0.61
-79 0.39
80 0.19
-80 0.81
81 0.06
-81 0.94
82 0.81
-82 0.18999999999999995
83 0.68
-83 0.31999999999999995
84 0.46
-84 0.54
85 0.99
-85 0.010000000000000009
86 0.57
-86 0.43000000000000005
87 0.56
-87 0.43999999999999995
88 0.32
-88 0.6799999999999999
89 0.71
-89 0.29000000000000004
90 0.29
-90 0.71
91 0.67
-91 0.32999999999999996
92 0.04
-92 0.96
93 0.79
-93 0.20999999999999996
94 0.73
-94 0.27
95 0.83
-95 0.17000000000000004
96 0.94
-96 0.06000000000000005
97 0.51
-97 0.49
98 0.06
-98 0.94
99 0.51
-99 0.49
100 0.56
-100 0.43999999999999995
