1 0.53
-1 0.47
2 0.2
-2 0.8
3 0.07
-3 0.9299999999999999
4 0.27
-4 0.73
5 0.72
-5 0.28
6 0.02
-6 0.98
7 0.84
-7 0.16000000000000003
8 0.32
-8 0.6799999999999999
9 0.21
-9 0.79
10 0.5
-10 0.5
11 0.25
-11 0.75
12 0.4
-12 0.6
13 0.79
-13 0.20999999999999996
14 0.68
-14 0.31999999999999995
15 0.16
-15 0.84
16 0.52
-16 0.48
17 0.1
-17 0.9
18 0.19
-18 0.81
19 0.02
-19 0.98
20 0.77
-20 0.22999999999999998
21 0.78
-21 0.21999999999999997
22 0.66
-22 0.33999999999999997
23 0.99
-23 0.010000000000000009
24 0.36
-24 0.64
25 0.31
-25 0.69
26 0.61
-26 0.39
27 0.65
-27 0.35
28 0.33
-28 0.6699999999999999
29 0.06
-29 0.94
30 0.19
-30 0.81
31 0.69
-31 0.31000000000000005
32 0.03
-32 0.97
33 0.52
-33 0.48
34 0.03
-34 0.97
35 0.35
-35 0.65
36 0.81
-36 0.18999999999999995
37 0.38
-37 0.62
38 0.36
-38 0.64
39 0.3
-39 0.7
40 0.79
-40 0.20999999999999996
41 0.21
-41 0.79
42 0.42
-42 0.5800000000000001
43 0.87
-43 0.13
44 0.82
-44 0.18000000000000005
45 0.17
-45 0.83
46 0.4
-46 0.6
47 0.27
-47 0.73
48 0.57
-48 0.43000000000000005
49 0.31
-49 0.69
50 0.92
-50 0.07999999999999996
51 0.12
-51 0.88
52 0.64
-52 0.36
53 0.98
-53 0.020000000000000018
54 0.87
-54 0.13
55 0.94
-55 0.06000000000000005
56 0.57
-56 0.43000000000000005
57 0.88
-57 0.12
58 0.8
-58 0.19999999999999996
59 0.11
-59 0.89
60 0.98
-60 0.020000000000000018
61 0.41
-61 0.5900000000000001
62 0.37
-62 0.63
63 0.04
-63 0.96
64 0.31
-64 0.69
65 0.05
-65 0.95
66 0.87
-66 0.13
67 0.23
-67 0.77
68 0.85
-68 0.15000000000000002
69 0.32
-69 0.6799999999999999
70 0.27
-70 0.73
71 0.03
-71 0.97
72 0.55
-72 0.44999999999999996
73 0.35
-73 0.65
74 0.03
-74 0.97
75 0.39
-75 0.61
76 0.42
-76 0.5800000000000001
77 0.15
-77 0.85
78 0.59
-78 0.41000000000000003
79 0.28
-79 0.72
80 0.16
-80 0.84
81 0.31
-81 0.69
82 0.66
-82 0.33999999999999997
83 0.28
-83 0.72
84 0.23
-84 0.77
85 0.84
-85 0.16000000000000003
86 0.71
-86 0.29000000000000004
87 0.48
-87 0.52
88 0.09
-88 0.91
89 0.2
-89 0.8
90 0.91
-90 0.08999999999999997
91 0.75
-91 0.25
92 0.27
-92 0.73
93 0.76
-93 0.24
94 0.77
-94 0.22999999999999998
95 0.94
-95 0.06000000000000005
96 0.7
-96 0.30000000000000004
97 0.32
-97 0.6799999999999999
98 0.42
-98 0.5800000000000001
99 0.46
-99 0.54
100 0.01
-100 0.99
