1 0.51
-1 0.49
2 0.37
-2 0.63
3 0.17
-3 0.83
4 0.11
-4 0.89
5 0.34
-5 0.6599999999999999
6 0.88
-6 0.12
7 0.04
-7 0.96
8 0.99
-8 0.010000000000000009
9 0.13
-9 0.87
10 0.06
-10 0.94
11 0.27
-11 0.73
12 0.28
-12 0.72
13 0.19
-13 0.81
14 0.88
-14 0.12
15 0.5
-15 0.5
16 0.73
-16 0.27
17 0.87
-17 0.13
18 0.82
-18 0.18000000000000005
19 0.72
-19 0.28
20 0.11
-20 0.89
21 0.12
-21 0.88
22 0.3
-22 0.7
23 0.34
-23 0.6599999999999999
24 0.69
-24 0.31000000000000005
25 0.49
-25 0.51
26 0.4
-26 0.6
27 0.79
-27 0.20999999999999996
28 0.4
-28 0.6
29 0.5
-29 0.5
30 0.7
-30 0.30000000000000004
31 0.86
-31 0.14
32 0.4
-32 0.6
33 0.4
-33 0.6
34 0.28
-34 0.72
35 0.45
-35 0.55
36 0.26
-36 0.74
37 0.69
-37 0.31000000000000005
38 0.11
-38 0.89
39 0.16
-39 0.84
40 0.44
-40 0.56
41 0.82
-41 0.18000000000000005
42 0.71
-42 0.29000000000000004
43 0.01
-43 0.99
44 0.68
-44 0.31999999999999995
45 0.35
-45 0.65
46 0.2
-46 0.8
47 0.64
-47 0.36
48 0.37
-48 0.63
49 0.51
-49 0.49
50 0.79
-50 0.20999999999999996
51 0.14
-51 0.86
52 0.18
-52 0.8200000000000001
53 0.09
-53 0.91
54 0.13
-54 0.87
55 0.95
-55 0.050000000000000044
56 0.31
-56 0.69
57 0.81
-57 0.18999999999999995
58 0.67
-58 0.32999999999999996
59 0.06
-59 0.94
60 0.97
-60 0.030000000000000027
61 0.14
-61 0.86
62 0.45
-62 0.55
63 0.79
-63 0.20999999999999996
64 0.47
-64 0.53
65 0.8
-65 0.19999999999999996
66 0.61
-66 0.39
67 0.69
-67 0.31000000000000005
68 0.66
-68 0.33999999999999997
69 0.24
-69 0.76
70 0.54
-70 0.45999999999999996
71 0.21
-71 0.79
72 0.09
-72 0.91
73 0.43
-73 0.5700000000000001
74 0.69
-74 0.31000000000000005
75 0.02
-75 0.98
76 0.11
-76 0.89
77 0.03
-77 0.97
78 0.46
-78 0.54
79 0.53
-79 0.47
80 0.52
-80 0.48
81 0.17
-81 0.83
82 0.99
-82 0.010000000000000009
83 0.14
-83 0.86
84 0.24
-84 0.76
85 0.08
-85 0.92
86 0.81
-86 0.18999999999999995
87 0.46
-87 0.54
88 0.52
-88 0.48
89 0.16
-89 0.84
90 0.82
-90 0.18000000000000005
91 0.9
-91 0.09999999999999998
92 0.76
-92 0.24
93 0.97
-93 0.030000000000000027
94 0.85
-94 0.15000000000000002
95 0.86
-95 0.14
96 0.72
-96 0.28
97 0.41
-97 0.5900000000000001
98 0.97
-98 0.030000000000000027
99 0.84
-99 0.16000000000000003
100 0.04
-100 0.96
