1 0.32
-1 0.6799999999999999
2 0.29
-2 0.71
3 0.48
-3 0.52
4 0.97
-4 0.030000000000000027
5 0.26
-5 0.74
6 0.24
-6 0.76
7 0.32
-7 0.6799999999999999
8 0.62
-8 0.38
9 0.4
-9 0.6
10 0.36
-10 0.64
11 0.4
-11 0.6
12 0.6
-12 0.4
13 0.56
-13 0.43999999999999995
14 0.58
-14 0.42000000000000004
15 0.52
-15 0.48
16 0.1
-16 0.9
17 0.37
-17 0.63
18 0.55
-18 0.44999999999999996
19 0.44
-19 0.56
20 0.63
-20 0.37
21 0.16
-21 0.84
22 0.57
-22 0.43000000000000005
23 0.7
-23 0.30000000000000004
24 0.31
-24 0.69
25 0.34
-25 0.6599999999999999
26 0.02
-26 0.98
27 0.91
-27 0.08999999999999997
28 0.64
-28 0.36
29 0.3
-29 0.7
30 0.58
-30 0.42000000000000004
31 0.94
-31 0.06000000000000005
32 0.01
-32 0.99
33 0.07
-33 0.9299999999999999
34 0.7
-34 0.30000000000000004
35 0.2
-35 0.8
36 0.52
-36 0.48
37 0.84
-37 0.16000000000000003
38 0.72
-38 0.28
39 0.67
-39 0.32999999999999996
40 0.11
-40 0.89
41 0.41
-41 0.5900000000000001
42 0.22
-42 0.78
43 0.27
-43 0.73
44 0.38
-44 0.62
45 0.97
-45 0.030000000000000027
46 0.99
-46 0.010000000000000009
47 0.57
-47 0.43000000000000005
48 0.35
-48 0.65
49 0.84
-49 0.16000000000000003
50 0.92
-50 0.07999999999999996
51 0.96
-51 0.040000000000000036
52 0.29
-52 0.71
53 0.61
-53 0.39
54 0.66
-54 0.33999999999999997
55 0.26
-55 0.74
56 0.35
-56 0.65
57 0.26
-57 0.74
58 0.28
-58 0.72
59 0.14
-59 0.86
60 0.33
-60 0.6699999999999999
61 0.38
-61 0.62
62 0.61
-62 0.39
63 0.24
-63 0.76
64 0.2
-64 0.8
65 0.33
-65 0.6699999999999999
66 0.87
-66 0.13
67 0.48
-67 0.52
68 0.02
-68 0.98
69 0.6
-69 0.4
70 0.01
-70 0.99
71 0.6
-71 0.4
72 0.92
-72 0.07999999999999996
73 0.08
-73 0.92
74 0.46
-74 0.54
75 0.56
-75 0.43999999999999995
76 0.61
-76 0.39
77 0.27
-77 0.73
78 0.98
-78 0.020000000000000018
79 0.52
-79 0.48
80 0.84
-80 0.16000000000000003
81 0.67
-81 0.32999999999999996
82 0.9
-82 0.09999999999999998
83 0.94
-83 0.06000000000000005
84 0.7
-84 0.30000000000000004
85 0.93
-85 0.06999999999999995
86 0.55
-86 0.44999999999999996
87 0.01
-87 0.99
88 0.45
-88 0.55
89 0.03
-89 0.97
90 0.08
-90 0.92
91 0.63
-91 0.37
92 0.04
-92 0.96
93 0.27
-93 0.73
94 0.51
-94 0.49
95 0.91
-95 0.08999999999999997
96 0.71
-96 0.29000000000000004
97 0.5
-97 0.5
98 0.86
-98 0.14
99 0.73
-99 0.27
100 0.04
-100 0.96
