1 0.25
-1 0.75
2 0.92
-2 0.07999999999999996
3 0.3
-3 0.7
4 0.3
-4 0.7
5 0.77
-5 0.22999999999999998
6 0.15
-6 0.85
7 0.8
-7 0.19999999999999996
8 0.79
-8 0.20999999999999996
9 0.32
-9 0.6799999999999999
10 0.92
-10 0.07999999999999996
11 0.17
-11 0.83
12 0.51
-12 0.49
13 0.77
-13 0.22999999999999998
14 0.18
-14 0.8200000000000001
15 0.48
-15 0.52
16 0.25
-16 0.75
17 0.18
-17 0.8200000000000001
18 0.85
-18 0.15000000000000002
19 0.98
-19 0.020000000000000018
20 0.47
-20 0.53
21 0.73
-21 0.27
22 0.15
-22 0.85
23 0.16
-23 0.84
24 0.99
-24 0.010000000000000009
25 0.05
-25 0.95
26 0.13
-26 0.87
27 0.02
-27 0.98
28 0.15
-28 0.85
29 0.41
-29 0.5900000000000001
30 0.44
-30 0.56
31 0.68
-31 0.31999999999999995
32 0.69
-32 0.31000000000000005
33 0.99
-33 0.010000000000000009
34 0.5
-34 0.5
35 0.67
-35 0.32999999999999996
36 0.48
-36 0.52
37 0.08
-37 0.92
38 0.72
-38 0.28
39 0.29
-39 0.71
40 0.4
-40 0.6
41 0.79
-41 0.20999999999999996
42 0.6
-42 0.4
43 0.71
-43 0.29000000000000004
44 0.42
-44 0.5800000000000001
45 0.28
-45 0.72
46 0.55
-46 0.44999999999999996
47 0.39
-47 0.61
48 0.39
-48 0.61
49 0.02
-49 0.98
50 0.05
-50 0.95
51 0.27
-51 0.73
52 0.9
-52 0.09999999999999998
53 0.19
-53 0.81
54 0.03
-54 0.97
55 0.93
-55 0.06999999999999995
56 0.26
-56 0.74
57 0.16
-57 0.84
58 0.91
-58 0.08999999999999997
59 0.96
-59 0.040000000000000036
60 0.38
-60 0.62
61 0.15
-61 0.85
62 0.87
-62 0.13
63 0.75
-63 0.25
64 0.16
-64 0.84
65 0.52
-65 0.48
66 0.15
-66 0.85
67 0.07
-67 0.9299999999999999
68 0.85
-68 0.15000000000000002
69 0.44
-69 0.56
70 0.83
-70 0.17000000000000004
71 0.71
-71 0.29000000000000004
72 0.97
-72 0.030000000000000027
73 0.03
-73 0.97
74 0.87
-74 0.13
75 0.43
-75 0.5700000000000001
76 0.58
-76 0.42000000000000004
77 0.44
-77 0.56
78 0.62
-78 0.38
79 0.13
-79 0.87
80 0.38
-80 0.62
81 0.08
-81 0.92
82 0.48
-82 0.52
83 0.4
-83 0.6
84 0.75
-84 0.25
85 0.66
-85 0.33999999999999997
86 0.63
-86 0.37
87 0.62
-87 0.38
88 0.46
-88 0.54
89 0.13
-89 0.87
90 0.99
-90 0.010000000000000009
91 0.41
-91 0.5900000000000001
92 0.93
-92 0.06999999999999995
93 0.45
-93 0.55
94 0.11
-94 0.89
95 0.08
-95 0.92
96 0.14
-96 0.86
97 0.79
-97 0.20999999999999996
98 0.66
-98 0.33999999999999997
99 0.46
-99 0.54
100 0.62
-100 0.38
