1 0.25
-1 0.75
2 0.18
-2 0.8200000000000001
3 0.25
-3 0.75
4 0.27
-4 0.73
5 0.79
-5 0.20999999999999996
6 0.81
-6 0.18999999999999995
7 0.1
-7 0.9
8 0.63
-8 0.37
9 0.66
-9 0.33999999999999997
10 0.98
-10 0.020000000000000018
11 0.08
-11 0.92
12 0.82
-12 0.18000000000000005
13 0.48
-13 0.52
14 0.14
-14 0.86
15 0.38
-15 0.62
16 0.83
-16 0.17000000000000004
17 0.85
-17 0.15000000000000002
18 0.25
-18 0.75
19 0.11
-19 0.89
20 0.7
-20 0.30000000000000004
21 0.03
-21 0.97
22 0.28
-22 0.72
23 0.96
-23 0.040000000000000036
24 0.11
-24 0.89
25 0.72
-25 0.28
26 0.53
-26 0.47
27 0.79
-27 0.20999999999999996
28 0.52
-28 0.48
29 0.85
-29 0.15000000000000002
30 0.29
-30 0.71
31 0.7
-31 0.30000000000000004
32 0.92
-32 0.07999999999999996
33 0.32
-33 0.6799999999999999
34 0.6
-34 0.4
35 0.27
-35 0.73
36 0.93
-36 0.06999999999999995
37 0.01
-37 0.99
38 0.76
-38 0.24
39 0.6
-39 0.4
40 0.41
-40 0.5900000000000001
41 0.61
-41 0.39
42 0.45
-42 0.55
43 0.66
-43 0.33999999999999997
44 0.13
-44 0.87
45 0.4
-45 0.6
46 0.25
-46 0.75
47 0.07
-47 0.9299999999999999
48 0.26
-48 0.74
49 0.17
-49 0.83
50 0.73
-50 0.27
51 0.22
-51 0.78
52 0.25
-52 0.75
53 0.38
-53 0.62
54 0.81
-54 0.18999999999999995
55 0.35
-55 0.65
56 0.7
-56 0.30000000000000004
57 0.16
-57 0.84
58 0.46
-58 0.54
59 0.51
-59 0.49
60 0.23
-60 0.77
61 0.47
-61 0.53
62 0.69
-62 0.31000000000000005
63 0.43
-63 0.5700000000000001
64 0.84
-64 0.16000000000000003
65 0.95
-65 0.050000000000000044
66 0.62
-66 0.38
67 0.05
-67 0.95
68 0.22
-68 0.78
69 0.91
-69 0.08999999999999997
70 0.47
-70 0.53
71 0.89
-71 0.10999999999999999
72 0.46
-72 0.54
73 0.98
-73 0.020000000000000018
74 0.13
-74 0.87
75 0.31
-75 0.69
76 0.69
-76 0.31000000000000005
77 0.02
-77 0.98
78 0.38
-78 0.62
79 0.84
-79 0.16000000000000003
80 0.01
-80 0.99
81 0.34
-81 0.6599999999999999
82 0.55
-82 0.44999999999999996
83 0.82
-83 0.18000000000000005
84 0.73
-84 0.27
85 0.29
-85 0.71
86 0.47
-86 0.53
87 0.56
-87 0.43999999999999995
88 0.44
-88 0.56
89 0.42
-89 0.5800000000000001
90 0.03
-90 0.97
91 0.21
-91 0.79
92 0.35
-92 0.65
93 0.41
-93 0.5900000000000001
94 0.67
-94 0.32999999999999996
95 0.16
-95 0.84
96 0.4
-96 0.6
97 0.31
-97 0.69
98 0.14
-98 0.86
99 0.42
-99 0.5800000000000001
100 0.73
-100 0.27
