1 0.42
-1 0.5800000000000001
2 0.14
-2 0.86
3 0.76
-3 0.24
4 0.3
-4 0.7
5 0.3
-5 0.7
6 0.22
-6 0.78
7 0.31
-7 0.69
8 0.87
-8 0.13
9 0.17
-9 0.83
10 0.19
-10 0.81
11 0.45
-11 0.55
12 0.55
-12 0.44999999999999996
13 0.64
-13 0.36
14 0.2
-14 0.8
15 0.65
-15 0.35
16 0.29
-16 0.71
17 0.96
-17 0.040000000000000036
18 0.27
-18 0.73
19 0.26
-19 0.74
20 0.74
-20 0.26
21 0.47
-21 0.53
22 0.25
-22 0.75
23 0.15
-23 0.85
24 0.9
-24 0.09999999999999998
25 0.49
-25 0.51
26 0.55
-26 0.44999999999999996
27 0.83
-27 0.17000000000000004
28 0.11
-28 0.89
29 0.68
-29 0.31999999999999995
30 0.09
-30 0.91
31 0.37
-31 0.63
32 0.08
-32 0.92
33 0.07
-33 0.9299999999999999
34 0.13
-34 0.87
35 0.21
-35 0.79
36 0.84
-36 0.16000000000000003
37 0.99
-37 0.010000000000000009
38 0.81
-38 0.18999999999999995
39 0.43
-39 0.5700000000000001
40 0.1
-40 0.9
41 0.19
-41 0.81
42 0.52
-42 0.48
43 0.55
-43 0.44999999999999996
44 0.79
-44 0.20999999999999996
45 0.41
-45 0.5900000000000001
46 0.56
-46 0.43999999999999995
47 0.02
-47 0.98
48 0.54
-48 0.45999999999999996
49 0.32
-49 0.6799999999999999
50 0.82
-50 0.18000000000000005
51 0.42
-51 0.5800000000000001
52 0.78
-52 0.21999999999999997
53 0.97
-53 0.030000000000000027
54 0.98
-54 0.020000000000000018
55 0.13
-55 0.87
56 0.69
-56 0.31000000000000005
57 0.6
-57 0.4
58 0.49
-58 0.51
59 0.16
-59 0.84
60 0.98
-60 0.020000000000000018
61 0.15
-61 0.85
62 0.21
-62 0.79
63 0.27
-63 0.73
64 0.51
-64 0.49
65 0.09
-65 0.91
66 0.42
-66 0.5800000000000001
67 0.84
-67 0.16000000000000003
68 0.27
-68 0.73
69 0.25
-69 0.75
70 0.44
-70 0.56
71 0.24
-71 0.76
72 0.65
-72 0.35
73 0.18
-73 0.8200000000000001
74 0.01
-74 0.99
75 0.84
-75 0.16000000000000003
76 0.32
-76 0.6799999999999999
77 0.77
-77 0.22999999999999998
78 0.82
-78 0.18000000000000005
79 0.47
-79 0.53
80 0.59
-80 0.41000000000000003
81 0.23
-81 0.77
82 0.74
-82 0.26
83 0.55
-83 0.44999999999999996
84 0.25
-84 0.75
85 0.14
-85 0.86
86 0.82
-86 0.18000000000000005
87 0.02
-87 0.98
88 0.23
-88 0.77
89 0.17
-89 0.83
90 0.76
-90 0.24
91 0.33
-91 0.6699999999999999
92 0.38
-92 0.62
93 0.31
-93 0.69
94 0.26
-94 0.74
95 0.33
-95 0.6699999999999999
96 0.34
-96 0.6599999999999999
97 0.03
-97 0.97
98 0.76
-98 0.24
99 0.59
-99 0.41000000000000003
100 0.03
-100 0.97
