1 0.69
-1 0.31000000000000005
2 0.3
-2 0.7
3 0.01
-3 0.99
4 0.13
-4 0.87
5 0.24
-5 0.76
6 0.95
-6 0.050000000000000044
7 0.77
-7 0.22999999999999998
8 0.93
-8 0.06999999999999995
9 0.45
-9 0.55
10 0.26
-10 0.74
11 0.3
-11 0.7
12 0.07
-12 0.9299999999999999
13 0.41
-13 0.5900000000000001
14 0.64
-14 0.36
15 0.3
-15 0.7
16 0.08
-16 0.92
17 0.81
-17 0.18999999999999995
18 0.13
-18 0.87
19 0.12
-19 0.88
20 0.66
-20 0.33999999999999997
21 0.52
-21 0.48
22 0.97
-22 0.030000000000000027
23 0.26
-23 0.74
24 0.81
-24 0.18999999999999995
25 0.27
-25 0.73
26 0.47
-26 0.53
27 0.21
-27 0.79
28 0.4
-28 0.6
29 0.73
-29 0.27
30 0.29
-30 0.71
31 0.57
-31 0.43000000000000005
32 0.72
-32 0.28
33 0.81
-33 0.18999999999999995
34 0.69
-34 0.31000000000000005
35 0.21
-35 0.79
36 0.88
-36 0.12
37 0.83
-37 0.17000000000000004
38 0.44
-38 0.56
39 0.99
-39 0.010000000000000009
40 0.78
-40 0.21999999999999997
41 0.12
-41 0.88
42 0.89
-42 0.10999999999999999
43 0.55
-43 0.44999999999999996
44 0.21
-44 0.79
45 0.51
-45 0.49
46 0.44
-46 0.56
47 0.45
-47 0.55
48 0.89
-48 0.10999999999999999
49 0.37
-49 0.63
50 0.5
-50 0.5
51 0.33
-51 0.6699999999999999
52 0.43
-52 0.5700000000000001
53 0.84
-53 0.16000000000000003
54 0.99
-54 0.010000000000000009
55 0.47
-55 0.53
56 0.82
-56 0.18000000000000005
57 0.4
-57 0.6
58 0.3
-58 0.7
59 0.27
-59 0.73
60 0.73
-60 0.27
61 0.02
-61 0.98
62 0.28
-62 0.72
63 0.56
-63 0.43999999999999995
64 0.57
-64 0.43000000000000005
65 0.94
-65 0.06000000000000005
66 0.84
-66 0.16000000000000003
67 0.23
-67 0.77
68 0.86
-68 0.14
69 0.52
-69 0.48
70 0.12
-70 0.88
71 0.88
-71 0.12
72 0.93
-72 0.06999999999999995
73 0.45
-73 0.55
74 0.07
-74 0.9299999999999999
75 0.3
-75 0.7
76 0.03
-76 0.97
77 0.64
-77 0.36
78 0.75
-78 0.25
79 0.82
-79 0.18000000000000005
80 0.9
-80 0.09999999999999998
81 0.38
-81 0.62
82 0.72
-82 0.28
83 0.52
-83 0.48
84 0.28
-84 0.72
85 0.68
-85 0.31999999999999995
86 0.37
-86 0.63
87 0.56
-87 0.43999999999999995
88 0.01
-88 0.99
89 0.62
-89 0.38
90 0.88
-90 0.12
91 0.44
-91 0.56
92 0.51
-92 0.49
93 0.95
-93 0.050000000000000044
94 0.4
-94 0.6
95 0.24
-95 0.76
96 0.92
-96 0.07999999999999996
97 0.22
-97 0.78
98 0.13
-98 0.87
99 0.44
-99 0.56
100 0.2
-100 0.8
