1 0.71
-1 0.29000000000000004
2 0.5
-2 0.5
3 0.25
-3 0.75
4 0.23
-4 0.77
5 0.08
-5 0.92
6 0.45
-6 0.55
7 0.36
-7 0.64
8 0.51
-8 0.49
9 0.66
-9 0.33999999999999997
10 0.13
-10 0.87
11 0.02
-11 0.98
12 0.23
-12 0.77
13 0.89
-13 0.10999999999999999
14 0.41
-14 0.5900000000000001
15 0.55
-15 0.44999999999999996
16 0.33
-16 0.6699999999999999
17 0.68
-17 0.31999999999999995
18 0.72
-18 0.28
19 0.47
-19 0.53
20 0.35
-20 0.65
21 0.61
-21 0.39
22 0.71
-22 0.29000000000000004
23 0.22
-23 0.78
24 0.52
-24 0.48
25 0.01
-25 0.99
26 0.15
-26 0.85
27 0.55
-27 0.44999999999999996
28 0.49
-28 0.51
29 0.92
-29 0.07999999999999996
30 0.03
-30 0.97
31 0.69
-31 0.31000000000000005
32 0.74
-32 0.26
33 0.38
-33 0.62
34 0.5
-34 0.5
35 0.21
-35 0.79
36 0.13
-36 0.87
37 0.97
-37 0.030000000000000027
38 0.89
-38 0.10999999999999999
39 0.99
-39 0.010000000000000009
40 0.91
-40 0.08999999999999997
41 0.92
-41 0.07999999999999996
42 0.27
-42 0.73
43 0.43
-43 0.5700000000000001
44 0.35
-44 0.65
45 0.94
-45 0.06000000000000005
46 0.04
-46 0.96
47 0.7
-47 0.30000000000000004
48 0.98
-48 0.020000000000000018
49 0.8
-49 0.19999999999999996
50 0.31
-50 0.69
51 0.61
-51 0.39
52 0.42
-52 0.5800000000000001
53 0.16
-53 0.84
54 0.45
-54 0.55
55 0.58
-55 0.42000000000000004
56 0.24
-56 0.76
57 0.54
-57 0.45999999999999996
58 0.61
-58 0.39
59 0.65
-59 0.35
60 0.79
-60 0.20999999999999996
61 0.22
-61 0.78
62 0.64
-62 0.36
63 0.79
-63 0.20999999999999996
64 0.75
-64 0.25
65 0.27
-65 0.73
66 0.15
-66 0.85
67 0.68
-67 0.31999999999999995
68 0.66
-68 0.33999999999999997
69 0.79
-69 0.20999999999999996
70 0.4
-70 0.6
71 0.73
-71 0.27
72 0.06
-72 0.94
73 0.32
-73 0.6799999999999999
74 0.01
-74 0.99
75 0.98
-75 0.020000000000000018
76 0.65
-76 0.35
77 0.49
-77 0.51
78 0.69
-78 0.31000000000000005
79 0.77
-79 0.22999999999999998
80 0.25
-80 0.75
81 0.61
-81 0.39
82 0.82
-82 0.18000000000000005
83 0.09
-83 0.91
84 0.92
-84 0.07999999999999996
85 0.79
-85 0.20999999999999996
86 0.43
-86 0.5700000000000001
87 0.18
-87 0.8200000000000001
88 0.99
-88 0.010000000000000009
89 0.46
-89 0.54
90 0.11
-90 0.89
91 0.37
-91 0.63
92 0.02
-92 0.98
93 0.89
-93 0.10999999999999999
94 0.18
-94 0.8200000000000001
95 0.48
-95 0.52
96 0.6
-96 0.4
97 0.42
-97 0.5800000000000001
98 0.17
-98 0.83
99 0.33
-99 0.6699999999999999
100 0.12
-100 0.88
