1 0.78
-1 0.21999999999999997
2 0.95
-2 0.050000000000000044
3 0.88
-3 0.12
4 0.14
-4 0.86
5 0.09
-5 0.91
6 0.15
-6 0.85
7 0.02
-7 0.98
8 0.65
-8 0.35
9 0.92
-9 0.07999999999999996
10 0.65
-10 0.35
11 0.36
-11 0.64
12 0.38
-12 0.62
13 0.39
-13 0.61
14 0.5
-14 0.5
15 0.89
-15 0.10999999999999999
16 0.97
-16 0.030000000000000027
17 0.93
-17 0.06999999999999995
18 0.41
-18 0.5900000000000001
19 0.92
-19 0.07999999999999996
20 0.99
-20 0.010000000000000009
21 0.14
-21 0.86
22 0.69
-22 0.31000000000000005
23 0.63
-23 0.37
24 0.01
-24 0.99
25 0.38
-25 0.62
26 0.74
-26 0.26
27 0.92
-27 0.07999999999999996
28 0.73
-28 0.27
29 0.52
-29 0.48
30 0.81
-30 0.18999999999999995
31 0.14
-31 0.86
32 0.14
-32 0.86
33 0.44
-33 0.56
34 0.04
-34 0.96
35 0.48
-35 0.52
36 0.71
-36 0.29000000000000004
37 0.91
-37 0.08999999999999997
38 0.63
-38 0.37
39 0.82
-39 0.18000000000000005
40 0.72
-40 0.28
41 0.54
-41 0.45999999999999996
42 0.94
-42 0.06000000000000005
43 0.05
-43 0.95
44 0.7
-44 0.30000000000000004
45 0.89
-45 0.10999999999999999
46 0.62
-46 0.38
47 0.89
-47 0.10999999999999999
48 0.28
-48 0.72
49 0.72
-49 0.28
50 0.81
-50 0.18999999999999995
51 0.2
-51 0.8
52 0.04
-52 0.96
53 0.49
-53 0.51
54 0.67
-54 0.32999999999999996
55 0.51
-55 0.49
56 0.17
-56 0.83
57 0.97
-57 0.030000000000000027
58 0.05
-58 0.95
59 0.58
-59 0.42000000000000004
60 0.24
-60 0.76
61 0.85
-61 0.15000000000000002
62 0.38
-62 0.62
63 0.47
-63 0.53
64 0.07
-64 0.9299999999999999
65 0.06
-65 0.94
66 0.58
-66 0.42000000000000004
67 0.07
-67 0.9299999999999999
68 0.17
-68 0.83
69 0.8
-69 0.19999999999999996
70 0.3
-70 0.7
71 0.75
-71 0.25
72 0.99
-72 0.010000000000000009
73 0.77
-73 0.22999999999999998
74 0.2
-74 0.8
75 0.99
-75 0.010000000000000009
76 0.07
-76 0.9299999999999999
77 0.31
-77 0.69
78 0.95
-78 0.050000000000000044
79 0.28
-79 0.72
80 0.31
-80 0.69
81 0.19
-81 0.81
82 0.78
-82 0.21999999999999997
83 0.44
-83 0.56
84 0.81
-84 0.18999999999999995
85 0.04
-85 0.96
86 0.48
-86 0.52
87 0.94
-87 0.06000000000000005
88 0.15
-88 0.85
89 0.52
-89 0.48
90 0.02
-90 0.98
91 0.72
-91 0.28
92 0.62
-92 0.38
93 0.57
-93 0.43000000000000005
94 0.3
-94 0.7
95 0.46
-95 0.54
96 0.44
-96 0.56
97 0.02
-97 0.98
98 0.2
-98 0.8
99 0.84
-99 0.16000000000000003
100 0.36
-100 0.64
