1 0.04
-1 0.96
2 0.15
-2 0.85
3 0.72
-3 0.28
4 0.65
-4 0.35
5 0.31
-5 0.69
6 0.73
-6 0.27
7 0.8
-7 0.19999999999999996
8 0.13
-8 0.87
9 0.99
-9 0.010000000000000009
10 0.26
-10 0.74
11 0.45
-11 0.55
12 0.66
-12 0.33999999999999997
13 0.54
-13 0.45999999999999996
14 0.61
-14 0.39
15 0.31
-15 0.69
16 0.71
-16 0.29000000000000004
17 0.33
-17 0.6699999999999999
18 0.49
-18 0.51
19 0.83
-19 0.17000000000000004
20 0.35
-20 0.65
21 0.77
-21 0.22999999999999998
22 0.4
-22 0.6
23 0.43
-23 0.5700000000000001
24 0.82
-24 0.18000000000000005
25 0.95
-25 0.050000000000000044
26 0.02
-26 0.98
27 0.24
-27 0.76
28 0.28
-28 0.72
29 0.94
-29 0.06000000000000005
30 0.21
-30 0.79
31 0.31
-31 0.69
32 0.3
-32 0.7
33 0.6
-33 0.4
34 0.75
-34 0.25
35 0.6
-35 0.4
36 0.96
-36 0.040000000000000036
37 0.02
-37 0.98
38 0.39
-38 0.61
39 0.97
-39 0.030000000000000027
40 0.78
-40 0.21999999999999997
41 0.28
-41 0.72
42 0.05
-42 0.95
43 0.17
-43 0.83
44 0.31
-44 0.69
45 0.03
-45 0.97
46 0.01
-46 0.99
47 0.8
-47 0.19999999999999996
48 0.77
-48 0.22999999999999998
49 0.04
-49 0.96
50 0.14
-50 0.86
51 0.92
-51 0.07999999999999996
52 0.84
-52 0.16000000000000003
53 0.3
-53 0.7
54 0.56
-54 0.43999999999999995
55 0.98
-55 0.020000000000000018
56 0.45
-56 0.55
57 0.41
-57 0.5900000000000001
58 0.17
-58 0.83
59 0.16
-59 0.84
60 0.21
-60 0.79
61 0.09
-61 0.91
62 0.38
-62 0.62
63 0.35
-63 0.65
64 0.6
-64 0.4
65 0.1
-65 0.9
66 0.87
-66 0.13
67 0.52
-67 0.48
68 0.3
-68 0.7
69 0.05
-69 0.95
70 0.28
-70 0.72
71 0.33
-71 0.6699999999999999
72 0.9
-72 0.09999999999999998
73 0.32
-73 0.6799999999999999
74 0.42
-74 0.5800000000000001
75 0.78
-75 0.21999999999999997
76 0.91
-76 0.08999999999999997
77 0.52
-77 0.48
78 0.2
-78 0.8
79 0.96
-79 0.040000000000000036
80 0.65
-80 0.35
81 0.71
-81 0.29000000000000004
82 0.13
-82 0.87
83 0.37
-83 0.63
84 0.09
-84 0.91
85 0.54
-85 0.45999999999999996
86 0.73
-86 0.27
87 0.74
-87 0.26
88 0.75
-88 0.25
89 0.56
-89 0.43999999999999995
90 0.55
-90 0.44999999999999996
91 0.04
-91 0.96
92 0.47
-92 0.53
93 0.09
-93 0.91
94 0.34
-94 0.6599999999999999
95 0.39
-95 0.61
96 0.41
-96 0.5900000000000001
97 0.32
-97 0.6799999999999999
98 0.05
-98 0.95
99 0.41
-99 0.5900000000000001
100 0.49
-100 0.51
