1 0.11
-1 0.89
2 0.06
-2 0.94
3 0.23
-3 0.77
4 0.74
-4 0.26
5 0.3
-5 0.7
6 0.6
-6 0.4
7 0.8
-7 0.19999999999999996
8 0.03
-8 0.97
9 0.74
-9 0.26
10 0.73
-10 0.27
11 0.99
-11 0.010000000000000009
12 0.08
-12 0.92
13 0.11
-13 0.89
14 0.07
-14 0.9299999999999999
15 0.73
-15 0.27
16 0.69
-16 0.31000000000000005
17 0.56
-17 0.43999999999999995
18 0.18
-18 0.8200000000000001
19 0.27
-19 0.73
20 0.61
-20 0.39
21 0.4
-21 0.6
22 0.99
-22 0.010000000000000009
23 0.27
-23 0.73
24 0.13
-24 0.87
25 0.4
-25 0.6
26 0.67
-26 0.32999999999999996
27 0.17
-27 0.83
28 0.67
-28 0.32999999999999996
29 0.09
-29 0.91
30 0.7
-30 0.30000000000000004
31 0.2
-31 0.8
32 0.33
-32 0.6699999999999999
33 0.25
-33 0.75
34 0.47
-34 0.53
35 0.99
-35 0.010000000000000009
36 0.94
-36 0.06000000000000005
37 0.71
-37 0.29000000000000004
38 0.93
-38 0.06999999999999995
39 0.33
-39 0.6699999999999999
40 0.69
-40 0.31000000000000005
41 0.44
-41 0.56
42 0.22
-42 0.78
43 0.54
-43 0.45999999999999996
44 0.33
-44 0.6699999999999999
45 0.68
-45 0.31999999999999995
46 0.09
-46 0.91
47 0.62
-47 0.38
48 0.7
-48 0.30000000000000004
49 0.35
-49 0.65
50 0.04
-50 0.96
51 0.06
-51 0.94
52 0.87
-52 0.13
53 0.95
-53 0.050000000000000044
54 0.29
-54 0.71
55 0.6
-55 0.4
56 0.87
-56 0.13
57 0.39
-57 0.61
58 0.95
-58 0.050000000000000044
59 0.11
-59 0.89
60 0.41
-60 0.5900000000000001
61 0.27
-61 0.73
62 0.23
-62 0.77
63 0.52
-63 0.48
64 0.38
-64 0.62
65 0.68
-65 0.31999999999999995
66 0.01
-66 0.99
67 0.23
-67 0.77
68 0.5
-68 0.5
69 0.29
-69 0.71
70 0.96
-70 0.040000000000000036
71 0.28
-71 0.72
72 0.24
-72 0.76
73 0.48
-73 0.52
74 0.27
-74 0.73
75 0.8
-75 0.19999999999999996
76 0.05
-76 0.95
77 0.32
-77 0.6799999999999999
78 0.94
-78 0.06000000000000005
79 0.48
-79 0.52
80 0.26
-80 0.74
81 0.05
-81 0.95
82 0.4
-82 0.6
83 0.67
-83 0.32999999999999996
84 0.9
-84 0.09999999999999998
85 0.27
-85 0.73
86 0.2
-86 0.8
87 0.06
-87 0.94
88 0.22
-88 0.78
89 0.27
-89 0.73
90 0.01
-90 0.99
91 0.72
-91 0.28
92 0.31
-92 0.69
93 0.34
-93 0.6599999999999999
94 0.88
-94 0.12
95 0.63
-95 0.37
96 0.13
-96 0.87
97 0.76
-97 0.24
98 0.83
-98 0.17000000000000004
99 0.05
-99 0.95
100 0.04
-100 0.96
