1 0.56
-1 0.43999999999999995
2 0.68
-2 0.31999999999999995
3 0.54
-3 0.45999999999999996
4 0.73
-4 0.27
5 0.46
-5 0.54
6 0.71
-6 0.29000000000000004
7 0.01
-7 0.99
8 0.19
-8 0.81
9 0.08
-9 0.92
10 0.39
-10 0.61
11 0.17
-11 0.83
12 0.21
-12 0.79
13 0.11
-13 0.89
14 0.64
-14 0.36
15 0.25
-15 0.75
16 0.45
-16 0.55
17 0.66
-17 0.33999999999999997
18 0.38
-18 0.62
19 0.26
-19 0.74
20 0.06
-20 0.94
21 0.04
-21 0.96
22 0.9
-22 0.09999999999999998
23 0.49
-23 0.51
24 0.72
-24 0.28
25 0.79
-25 0.20999999999999996
26 0.57
-26 0.43000000000000005
27 0.96
-27 0.040000000000000036
28 0.66
-28 0.33999999999999997
29 0.06
-29 0.94
30 0.53
-30 0.47
31 0.12
-31 0.88
32 0.89
-32 0.10999999999999999
33 0.14
-33 0.86
34 0.39
-34 0.61
35 0.24
-35 0.76
36 0.41
-36 0.5900000000000001
37 0.24
-37 0.76
38 0.79
-38 0.20999999999999996
39 0.19
-39 0.81
40 0.19
-40 0.81
41 0.47
-41 0.53
42 0.62
-42 0.38
43 0.45
-43 0.55
44 0.93
-44 0.06999999999999995
45 0.4
-45 0.6
46 0.23
-46 0.77
47 0.08
-47 0.92
48 0.06
-48 0.94
49 0.14
-49 0.86
50 0.57
-50 0.43000000000000005
51 0.21
-51 0.79
52 0.13
-52 0.87
53 0.05
-53 0.95
54 0.97
-54 0.030000000000000027
55 0.44
-55 0.56
56 0.67
-56 0.32999999999999996
57 0.23
-57 0.77
58 0.95
-58 0.050000000000000044
59 0.82
-59 0.18000000000000005
60 0.64
-60 0.36
61 0.37
-61 0.63
62 0.81
-62 0.18999999999999995
63 0.83
-63 0.17000000000000004
64 0.09
-64 0.91
65 0.64
-65 0.36
66 0.21
-66 0.79
67 0.47
-67 0.53
68 0.01
-68 0.99
69 0.05
-69 0.95
70 0.48
-70 0.52
71 0.96
-71 0.040000000000000036
72 0.03
-72 0.97
73 0.66
-73 0.33999999999999997
74 0.14
-74 0.86
75 0.55
-75 0.44999999999999996
76 0.52
-76 0.48
77 0.89
-77 0.10999999999999999
78 0.88
-78 0.12
79 0.62
-79 0.38
80 0.86
-80 0.14
81 0.15
-81 0.85
82 0.38
-82 0.62
83 0.66
-83 0.33999999999999997
84 0.73
-84 0.27
85 0.57
-85 0.43000000000000005
86 0.82
-86 0.18000000000000005
87 0.23
-87 0.77
88 0.71
-88 0.29000000000000004
89 0.99
-89 0.010000000000000009
90 0.7
-90 0.30000000000000004
91 0.87
-91 0.13
92 0.98
-92 0.020000000000000018
93 0.93
-93 0.06999999999999995
94 0.09
-94 0.91
95 0.36
-95 0.64
96 0.93
-96 0.06999999999999995
97 0.95
-97 0.050000000000000044
98 0.98
-98 0.020000000000000018
99 0.1
-99 0.9
100 0.86
-100 0.14
