1 0.19
-1 0.81
2 0.52
-2 0.48
3 0.64
-3 0.36
4 0.6
-4 0.4
5 0.27
-5 0.73
6 0.38
-6 0.62
7 0.73
-7 0.27
8 0.48
-8 0.52
9 0.87
-9 0.13
10 0.39
-10 0.61
11 0.75
-11 0.25
12 0.32
-12 0.6799999999999999
13 0.45
-13 0.55
14 0.94
-14 0.06000000000000005
15 0.83
-15 0.17000000000000004
16 0.25
-16 0.75
17 0.02
-17 0.98
18 0.74
-18 0.26
19 0.7
-19 0.30000000000000004
20 0.61
-20 0.39
21 0.89
-21 0.10999999999999999
22 0.8
-22 0.19999999999999996
23 0.88
-23 0.12
24 0.43
-24 0.5700000000000001
25 0.34
-25 0.6599999999999999
26 0.05
-26 0.95
27 0.12
-27 0.88
28 0.3
-28 0.7
29 0.45
-29 0.55
30 0.98
-30 0.020000000000000018
31 0.67
-31 0.32999999999999996
32 0.16
-32 0.84
33 0.67
-33 0.32999999999999996
34 0.66
-34 0.33999999999999997
35 0.14
-35 0.86
36 0.95
-36 0.050000000000000044
37 0.81
-37 0.18999999999999995
38 0.26
-38 0.74
39 0.25
-39 0.75
40 0.27
-40 0.73
41 0.67
-41 0.32999999999999996
42 0.63
-42 0.37
43 0.84
-43 0.16000000000000003
44 0.34
-44 0.6599999999999999
45 0.54
-45 0.45999999999999996
46 0.21
-46 0.79
47 0.82
-47 0.18000000000000005
48 0.62
-48 0.38
49 0.43
-49 0.5700000000000001
50 0.48
-50 0.52
51 0.86
-51 0.14
52 0.57
-52 0.43000000000000005
53 0.49
-53 0.51
54 0.11
-54 0.89
55 0.5
-55 0.5
56 0.48
-56 0.52
57 0.03
-57 0.97
58 0.34
-58 0.6599999999999999
59 0.53
-59 0.47
60 0.73
-60 0.27
61 0.74
-61 0.26
62 0.62
-62 0.38
63 0.26
-63 0.74
64 0.73
-64 0.27
65 0.75
-65 0.25
66 0.29
-66 0.71
67 0.29
-67 0.71
68 0.49
-68 0.51
69 0.28
-69 0.72
70 0.02
-70 0.98
71 0.83
-71 0.17000000000000004
72 0.62
-72 0.38
73 0.65
-73 0.35
74 0.79
-74 0.20999999999999996
75 0.05
-75 0.95
76 0.73
-76 0.27
77 0.8
-77 0.19999999999999996
78 0.31
-78 0.69
79 0.91
-79 0.08999999999999997
80 0.42
-80 0.5800000000000001
81 0.78
-81 0.21999999999999997
82 0.98
-82 0.020000000000000018
83 0.35
-83 0.65
84 0.3
-84 0.7
85 0.47
-85 0.53
86 0.77
-86 0.22999999999999998
87 0.63
-87 0.37
88 0.74
-88 0.26
89 0.07
-89 0.9299999999999999
90 0.06
-90 0.94
91 0.66
-91 0.33999999999999997
92 0.54
-92 0.45999999999999996
93 0.33
-93 0.6699999999999999
94 0.21
-94 0.79
95 0.03
-95 0.97
96 0.62
-96 0.38
97 0.72
-97 0.28
98 0.38
-98 0.62
99 0.02
-99 0.98
100 0.94
-100 0.06000000000000005
