1 0.19
-1 0.81
2 0.03
-2 0.97
3 0.19
-3 0.81
4 0.1
-4 0.9
5 0.3
-5 0.7
6 0.79
-6 0.20999999999999996
7 0.74
-7 0.26
8 0.87
-8 0.13
9 0.78
-9 0.21999999999999997
10 0.83
-10 0.17000000000000004
11 0.15
-11 0.85
12 0.58
-12 0.42000000000000004
13 0.9
-13 0.09999999999999998
14 0.31
-14 0.69
15 0.74
-15 0.26
16 0.98
-16 0.020000000000000018
17 0.45
-17 0.55
18 0.47
-18 0.53
19 0.14
-19 0.86
20 0.19
-20 0.81
21 0.82
-21 0.18000000000000005
22 0.11
-22 0.89
23 0.56
-23 0.43999999999999995
24 0.63
-24 0.37
25 0.51
-25 0.49
26 0.77
-26 0.22999999999999998
27 0.38
-27 0.62
28 0.82
-28 0.18000000000000005
29 0.38
-29 0.62
30 0.33
-30 0.6699999999999999
31 0.82
-31 0.18000000000000005
32 0.78
-32 0.21999999999999997
33 0.1
-33 0.9
34 0.66
-34 0.33999999999999997
35 0.17
-35 0.83
36 0.87
-36 0.13
37 0.76
-37 0.24
38 0.07
-38 0.9299999999999999
39 0.35
-39 0.65
40 0.13
-40 0.87
41 0.08
-41 0.92
42 0.86
-42 0.14
43 0.52
-43 0.48
44 0.75
-44 0.25
45 0.08
-45 0.92
46 0.89
-46 0.10999999999999999
47 0.1
-47 0.9
48 0.4
-48 0.6
49 0.87
-49 0.13
50 0.79
-50 0.20999999999999996
51 0.65
-51 0.35
52 0.24
-52 0.76
53 0.88
-53 0.12
54 0.56
-54 0.43999999999999995
55 0.11
-55 0.89
56 0.96
-56 0.040000000000000036
57 0.11
-57 0.89
58 0.67
-58 0.32999999999999996
59 0.8
-59 0.19999999999999996
60 0.63
-60 0.37
61 0.61
-61 0.39
62 0.18
-62 0.8200000000000001
63 0.72
-63 0.28
64 0.46
-64 0.54
65 0.76
-65 0.24
66 0.8
-66 0.19999999999999996
67 0.56
-67 0.43999999999999995
68 0.48
-68 0.52
69 0.73
-69 0.27
70 0.64
-70 0.36
71 0.59
-71 0.41000000000000003
72 0.87
-72 0.13
73 0.79
-73 0.20999999999999996
74 0.22
-74 0.78
75 0.99
-75 0.010000000000000009
76 0.17
-76 0.83
77 0.52
-77 0.48
78 0.43
-78 0.5700000000000001
79 0.57
-79 0.43000000000000005
80 0.74
-80 0.26
81 0.49
-81 0.51
82 0.72
-82 0.28
83 0.11
-83 0.89
84 0.74
-84 0.26
85 0.83
-85 0.17000000000000004
86 0.72
-86 0.28
87 0.69
-87 0.31000000000000005
88 0.74
-88 0.26
89 0.65
-89 0.35
90 0.21
-90 0.79
91 0.26
-91 0.74
92 0.21
-92 0.79
93 0.15
-93 0.85
94 0.36
-94 0.64
95 0.21
-95 0.79
96 0.94
-96 0.06000000000000005
97 0.58
-97 0.42000000000000004
98 0.11
-98 0.89
99 0.49
-99 0.51
100 0.36
-100 0.64
