1 0.4
-1 0.6
2 0.83
-2 0.17000000000000004
3 0.47
-3 0.53
4 0.33
-4 0.6699999999999999
5 0.52
-5 0.48
6 0.65
-6 0.35
7 0.21
-7 0.79
8 0.57
-8 0.43000000000000005
9 0.8
-9 0.19999999999999996
10 0.71
-10 0.29000000000000004
11 0.29
-11 0.71
12 0.37
-12 0.63
13 0.74
-13 0.26
14 0.25
-14 0.75
15 0.89
-15 0.10999999999999999
16 0.31
-16 0.69
17 0.33
-17 0.6699999999999999
18 0.57
-18 0.43000000000000005
19 0.43
-19 0.5700000000000001
20 0.78
-20 0.21999999999999997
21 0.58
-21 0.42000000000000004
22 0.06
-22 0.94
23 0.52
-23 0.48
24 0.55
-24 0.44999999999999996
25 0.28
-25 0.72
26 0.2
-26 0.8
27 0.81
-27 0.18999999999999995
28 0.33
-28 0.6699999999999999
29 0.5
-29 0.5
30 0.34
-30 0.6599999999999999
31 0.89
-31 0.10999999999999999
32 0.51
-32 0.49
33 0.11
-33 0.89
34 0.47
-34 0.53
35 0.48
-35 0.52
36 0.86
-36 0.14
37 0.92
-37 0.07999999999999996
38 0.65
-38 0.35
39 0.97
-39 0.030000000000000027
40 0.84
-40 0.16000000000000003
41 0.22
-41 0.78
42 0.69
-42 0.31000000000000005
43 0.7
-43 0.30000000000000004
44 0.23
-44 0.77
45 0.56
-45 0.43999999999999995
46 0.22
-46 0.78
47 0.36
-47 0.64
48 0.98
-48 0.020000000000000018
49 0.77
-49 0.22999999999999998
50 0.88
-50 0.12
51 0.57
-51 0.43000000000000005
52 0.34
-52 0.6599999999999999
53 0.77
-53 0.22999999999999998
54 0.63
-54 0.37
55 0.7
-55 0.30000000000000004
56 0.67
-56 0.32999999999999996
57 0.32
-57 0.6799999999999999
58 0.61
-58 0.39
59 0.58
-59 0.42000000000000004
60 0.47
-60 0.53
61 0.05
-61 0.95
62 0.14
-62 0.86
63 0.93
-63 0.06999999999999995
64 0.28
-64 0.72
65 0.84
-65 0.16000000000000003
66 0.19
-66 0.81
67 0.28
-67 0.72
68 0.49
-68 0.51
69 0.32
-69 0.6799999999999999
70 0.16
-70 0.84
71 0.95
-71 0.050000000000000044
72 0.33
-72 0.6699999999999999
73 0.48
-73 0.52
74 0.91
-74 0.08999999999999997
75 0.58
-75 0.42000000000000004
76 0.23
-76 0.77
77 0.2
-77 0.8
78 0.15
-78 0.85
79 0.13
-79 0.87
80 0.81
-80 0.18999999999999995
81 0.43
-81 0.5700000000000001
82 0.49
-82 0.51
83 0.75
-83 0.25
84 0.42
-84 0.5800000000000001
85 0.56
-85 0.43999999999999995
86 0.49
-86 0.51
87 0.18
-87 0.8200000000000001
88 0.46
-88 0.54
89 0.69
-89 0.31000000000000005
90 0.22
-90 0.78
91 0.77
-91 0.22999999999999998
92 0.09
-92 0.91
93 0.12
-93 0.88
94 0.02
-94 0.98
95 0.55
-95 0.44999999999999996
96 0.78
-96 0.21999999999999997
97 0.51
-97 0.49
98 0.16
-98 0.84
99 0.7
-99 0.30000000000000004
100 0.72
-100 0.28
