1 0.05
-1 0.95
2 0.29
-2 0.71
3 0.73
-3 0.27
4 0.75
-4 0.25
5 0.37
-5 0.63
6 0.11
-6 0.89
7 0.17
-7 0.83
8 0.94
-8 0.06000000000000005
9 0.63
-9 0.37
10 0.95
-10 0.050000000000000044
11 0.92
-11 0.07999999999999996
12 0.51
-12 0.49
13 0.12
-13 0.88
14 0.55
-14 0.44999999999999996
15 0.85
-15 0.15000000000000002
16 0.37
-16 0.63
17 0.93
-17 0.06999999999999995
18 0.95
-18 0.050000000000000044
19 0.25
-19 0.75
20 0.73
-20 0.27
21 0.02
-21 0.98
22 0.17
-22 0.83
23 0.36
-23 0.64
24 0.8
-24 0.19999999999999996
25 0.63
-25 0.37
26 0.73
-26 0.27
27 0.82
-27 0.18000000000000005
28 0.77
-28 0.22999999999999998
29 0.03
-29 0.97
30 0.69
-30 0.31000000000000005
31 0.05
-31 0.95
32 0.28
-32 0.72
33 0.55
-33 0.44999999999999996
34 0.89
-34 0.10999999999999999
35 0.13
-35 0.87
36 0.18
-36 0.8200000000000001
37 0.5
-37 0.5
38 0.85
-38 0.15000000000000002
39 0.61
-39 0.39
40 0.61
-40 0.39
41 0.71
-41 0.29000000000000004
42 0.81
-42 0.18999999999999995
43 0.13
-43 0.87
44 0.14
-44 0.86
45 0.66
-45 0.33999999999999997
46 0.19
-46 0.81
47 0.98
-47 0.020000000000000018
48 0.95
-48 0.050000000000000044
49 0.05
-49 0.95
50 0.47
-50 0.53
51 0.54
-51 0.45999999999999996
52 0.39
-52 0.61
53 0.12
-53 0.88
54 0.51
-54 0.49
55 0.47
-55 0.53
56 0.61
-56 0.39
57 0.66
-57 0.33999999999999997
58 0.05
-58 0.95
59 0.44
-59 0.56
60 0.03
-60 0.97
61 0.18
-61 0.8200000000000001
62 0.26
-62 0.74
63 0.14
-63 0.86
64 0.48
-64 0.52
65 0.48
-65 0.52
66 0.58
-66 0.42000000000000004
67 0.63
-67 0.37
68 0.9
-68 0.09999999999999998
69 0.53
-69 0.47
70 0.49
-70 0.51
71 0.49
-71 0.51
72 0.89
-72 0.10999999999999999
73 0.31
-73 0.69
74 0.43
-74 0.5700000000000001
75 0.17
-75 0.83
76 0.25
-76 0.75
77 0.9
-77 0.09999999999999998
78 0.6
-78 0.4
79 0.29
-79 0.71
80 0.49
-80 0.51
81 0.85
-81 0.15000000000000002
82 0.03
-82 0.97
83 0.49
-83 0.51
84 0.21
-84 0.79
85 0.08
-85 0.92
86 0.44
-86 0.56
87 0.53
-87 0.47
88 0.12
-88 0.88
89 0.23
-89 0.77
90 0.65
-90 0.35
91 0.1
-91 0.9
92 0.5
-92 0.5
93 0.99
-93 0.010000000000000009
94 0.69
-94 0.31000000000000005
95 0.95
-95 0.050000000000000044
96 0.75
-96 0.25
97 0.86
-97 0.14
98 0.68
-98 0.31999999999999995
99 0.49
-99 0.51
100 0.94
-100 0.06000000000000005
