1 0.55
-1 0.44999999999999996
2 0.68
-2 0.31999999999999995
3 0.86
-3 0.14
4 0.2
-4 0.8
5 0.75
-5 0.25
6 0.97
-6 0.030000000000000027
7 0.78
-7 0.21999999999999997
8 0.22
-8 0.78
9 0.43
-9 0.5700000000000001
10 0.3
-10 0.7
11 0.14
-11 0.86
12 0.64
-12 0.36
13 0.88
-13 0.12
14 0.62
-14 0.38
15 0.35
-15 0.65
16 0.12
-16 0.88
17 0.58
-17 0.42000000000000004
18 0.49
-18 0.51
19 0.91
-19 0.08999999999999997
20 0.68
-20 0.31999999999999995
21 0.13
-21 0.87
22 0.17
-22 0.83
23 0.41
-23 0.5900000000000001
24 0.37
-24 0.63
25 0.05
-25 0.95
26 0.94
-26 0.06000000000000005
27 0.16
-27 0.84
28 0.73
-28 0.27
29 0.19
-29 0.81
30 0.52
-30 0.48
31 0.06
-31 0.94
32 0.78
-32 0.21999999999999997
33 0.62
-33 0.38
34 0.26
-34 0.74
35 0.87
-35 0.13
36 0.1
-36 0.9
37 0.06
-37 0.94
38 0.1
-38 0.9
39 0.57
-39 0.43000000000000005
40 0.45
-40 0.55
41 0.84
-41 0.16000000000000003
42 0.12
-42 0.88
43 0.06
-43 0.94
44 0.21
-44 0.79
45 0.32
-45 0.6799999999999999
46 0.67
-46 0.32999999999999996
47 0.09
-47 0.91
48 0.26
-48 0.74
49 0.52
-49 0.48
50 0.52
-50 0.48
51 0.46
-51 0.54
52 0.77
-52 0.22999999999999998
53 0.15
-53 0.85
54 0.09
-54 0.91
55 0.55
-55 0.44999999999999996
56 0.28
-56 0.72
57 0.16
-57 0.84
58 0.95
-58 0.050000000000000044
59 0.76
-59 0.24
60 0.56
-60 0.43999999999999995
61 0.68
-61 0.31999999999999995
62 0.62
-62 0.38
63 0.15
-63 0.85
64 0.64
-64 0.36
65 0.02
-65 0.98
66 0.68
-66 0.31999999999999995
67 0.21
-67 0.79
68 0.05
-68 0.95
69 0.27
-69 0.73
70 0.06
-70 0.94
71 0.49
-71 0.51
72 0.85
-72 0.15000000000000002
73 0.92
-73 0.07999999999999996
74 0.49
-74 0.51
75 0.9
-75 0.09999999999999998
76 0.11
-76 0.89
77 0.9
-77 0.09999999999999998
78 0.54
-78 0.45999999999999996
79 0.58
-79 0.42000000000000004
80 0.11
-80 0.89
81 0.49
-81 0.51
82 0.23
-82 0.77
83 0.71
-83 0.29000000000000004
84 0.66
-84 0.33999999999999997
85 0.91
-85 0.08999999999999997
86 0.33
-86 0.6699999999999999
87 0.46
-87 0.54
88 0.38
-88 0.62
89 0.85
-89 0.15000000000000002
90 0.59
-90 0.41000000000000003
91 0.54
-91 0.45999999999999996
92 0.41
-92 0.5900000000000001
93 0.91
-93 0.08999999999999997
94 0.83
-94 0.17000000000000004
95 0.44
-95 0.56
96 0.07
-96 0.9299999999999999
97 0.4
-97 0.6
98 0.67
-98 0.32999999999999996
99 0.76
-99 0.24
100 0.76
-100 0.24
