1 0.62
-1 0.38
2 0.15
-2 0.85
3 0.94
-3 0.06000000000000005
4 0.67
-4 0.32999999999999996
5 0.15
-5 0.85
6 0.65
-6 0.35
7 0.19
-7 0.81
8 0.56
-8 0.43999999999999995
9 0.16
-9 0.84
10 0.62
-10 0.38
11 0.84
-11 0.16000000000000003
12 0.58
-12 0.42000000000000004
13 0.01
-13 0.99
14 0.73
-14 0.27
15 0.65
-15 0.35
16 0.03
-16 0.97
17 0.02
-17 0.98
18 0.19
-18 0.81
19 0.3
-19 0.7
20 0.45
-20 0.55
21 0.98
-21 0.020000000000000018
22 0.43
-22 0.5700000000000001
23 0.26
-23 0.74
24 0.27
-24 0.73
25 0.69
-25 0.31000000000000005
26 0.62
-26 0.38
27 0.87
-27 0.13
28 0.2
-28 0.8
29 0.7
-29 0.30000000000000004
30 0.36
-30 0.64
31 0.47
-31 0.53
32 0.77
-32 0.22999999999999998
33 0.31
-33 0.69
34 0.69
-34 0.31000000000000005
35 0.01
-35 0.99
36 0.55
-36 0.44999999999999996
37 0.59
-37 0.41000000000000003
38 0.84
-38 0.16000000000000003
39 0.05
-39 0.95
40 0.55
-40 0.44999999999999996
41 0.81
-41 0.18999999999999995
42 0.44
-42 0.56
43 0.63
-43 0.37
44 0.84
-44 0.16000000000000003
45 0.76
-45 0.24
46 0.97
-46 0.030000000000000027
47 0.68
-47 0.31999999999999995
48 0.81
-48 0.18999999999999995
49 0.1
-49 0.9
50 0.33
-50 0.6699999999999999
51 0.88
-51 0.12
52 0.67
-52 0.32999999999999996
53 0.36
-53 0.64
54 0.08
-54 0.92
55 0.04
-55 0.96
56 0.49
-56 0.51
57 0.22
-57 0.78
58 0.84
-58 0.16000000000000003
59 0.91
-59 0.08999999999999997
60 0.32
-60 0.6799999999999999
61 0.51
-61 0.49
62 0.06
-62 0.94
63 0.18
-63 0.8200000000000001
64 0.98
-64 0.020000000000000018
65 0.57
-65 0.43000000000000005
66 0.62
-66 0.38
67 0.46
-67 0.54
68 0.94
-68 0.06000000000000005
69 0.62
-69 0.38
70 0.18
-70 0.8200000000000001
71 0.83
-71 0.17000000000000004
72 0.49
-72 0.51
73 0.96
-73 0.040000000000000036
74 0.61
-74 0.39
75 0.92
-75 0.07999999999999996
76 0.32
-76 0.6799999999999999
77 0.67
-77 0.32999999999999996
78 0.63
-78 0.37
79 0.39
-79 0.61
80 0.84
-80 0.16000000000000003
81 0.29
-81 0.71
82 0.35
-82 0.65
83 0.93
-83 0.06999999999999995
84 0.02
-84 0.98
85 0.61
-85 0.39
86 0.09
-86 0.91
87 0.47
-87 0.53
88 0.27
-88 0.73
89 0.72
-89 0.28
90 0.75
-90 0.25
91 0.47
-91 0.53
92 0.14
-92 0.86
93 0.67
-93 0.32999999999999996
94 0.85
-94 0.15000000000000002
95 0.9
-95 0.09999999999999998
96 0.6
-96 0.4
97 0.44
-97 0.56
98 0.35
-98 0.65
99 0.38
-99 0.62
100 0.55
-100 0.44999999999999996
