1 0.62
-1 0.38
2 0.96
-2 0.040000000000000036
3 0.05
-3 0.95
4 0.32
-4 0.6799999999999999
5 0.11
-5 0.89
6 0.56
-6 0.43999999999999995
7 0.58
-7 0.42000000000000004
8 0.57
-8 0.43000000000000005
9 0.01
-9 0.99
10 0.75
-10 0.25
11 0.55
-11 0.44999999999999996
12 0.13
-12 0.87
13 0.99
-13 0.010000000000000009
14 0.02
-14 0.98
15 0.91
-15 0.08999999999999997
16 0.27
-16 0.73
17 0.57
-17 0.43000000000000005
18 0.15
-18 0.85
19 0.36
-19 0.64
20 0.34
-20 0.6599999999999999
21 0.28
-21 0.72
22 0.83
-22 0.17000000000000004
23 0.32
-23 0.6799999999999999
24 0.81
-24 0.18999999999999995
25 0.29
-25 0.71
26 0.77
-26 0.22999999999999998
27 0.07
-27 0.9299999999999999
28 0.08
-28 0.92
29 0.54
-29 0.45999999999999996
30 0.18
-30 0.8200000000000001
31 0.98
-31 0.020000000000000018
32 0.13
-32 0.87
33 0.66
-33 0.33999999999999997
34 0.21
-34 0.79
35 0.36
-35 0.64
36 0.48
-36 0.52
37 0.82
-37 0.18000000000000005
38 0.77
-38 0.22999999999999998
39 0.58
-39 0.42000000000000004
40 0.12
-40 0.88
41 0.38
-41 0.62
42 0.48
-42 0.52
43 0.6
-43 0.4
44 0.74
-44 0.26
45 0.11
-45 0.89
46 0.13
-46 0.87
47 0.85
-47 0.15000000000000002
48 0.48
-48 0.52
49 0.07
-49 0.9299999999999999
50 0.3
-50 0.7
51 0.4
-51 0.6
52 0.71
-52 0.29000000000000004
53 0.31
-53 0.69
54 0.69
-54 0.31000000000000005
55 0.27
-55 0.73
56 0.9
-56 0.09999999999999998
57 0.2
-57 0.8
58 0.12
-58 0.88
59 0.69
-59 0.31000000000000005
60 0.65
-60 0.35
61 0.55
-61 0.44999999999999996
62 0.62
-62 0.38
63 0.97
-63 0.030000000000000027
64 0.28
-64 0.72
65 0.85
-65 0.15000000000000002
66 0.98
-66 0.020000000000000018
67 0.61
-67 0.39
68 0.58
-68 0.42000000000000004
69 0.03
-69 0.97
70 0.6
-70 0.4
71 0.3
-71 0.7
72 0.92
-72 0.07999999999999996
73 0.25
-73 0.75
74 0.6
-74 0.4
75 0.85
-75 0.15000000000000002
76 0.76
-76 0.24
77 0.7
-77 0.30000000000000004
78 0.6
-78 0.4
79 0.04
-79 0.96
80 0.53
-80 0.47
81 0.42
-81 0.5800000000000001
82 0.07
-82 0.9299999999999999
83 0.47
-83 0.53
84 0.57
-84 0.43000000000000005
85 0.63
-85 0.37
86 0.11
-86 0.89
87 0.8
-87 0.19999999999999996
88 0.29
-88 0.71
89 0.06
-89 0.94
90 0.87
-90 0.13
91 0.86
-91 0.14
92 0.49
-92 0.51
93 0.6
-93 0.4
94 0.9
-94 0.09999999999999998
95 0.95
-95 0.050000000000000044
96 0.58
-96 0.42000000000000004
97 0.1
-97 0.9
98 0.19
-98 0.81
99 0.64
-99 0.36
100 0.25
-100 0.75
