1 0.13
-1 0.87
2 0.6
-2 0.4
3 0.42
-3 0.5800000000000001
4 0.45
-4 0.55
5 0.64
-5 0.36
6 0.37
-6 0.63
7 0.98
-7 0.020000000000000018
8 0.84
-8 0.16000000000000003
9 0.67
-9 0.32999999999999996
10 0.55
-10 0.44999999999999996
11 0.83
-11 0.17000000000000004
12 0.45
-12 0.55
13 0.97
-13 0.030000000000000027
14 0.01
-14 0.99
15 0.86
-15 0.14
16 0.62
-16 0.38
17 0.12
-17 0.88
18 0.34
-18 0.6599999999999999
19 0.86
-19 0.14
20 0.53
-20 0.47
21 0.97
-21 0.030000000000000027
22 0.9
-22 0.09999999999999998
23 0.35
-23 0.65
24 0.75
-24 0.25
25 0.02
-25 0.98
26 0.26
-26 0.74
27 0.44
-27 0.56
28 0.34
-28 0.6599999999999999
29 0.43
-29 0.5700000000000001
30 0.2
-30 0.8
31 0.76
-31 0.24
32 0.39
-32 0.61
33 0.48
-33 0.52
34 0.4
-34 0.6
35 0.91
-35 0.08999999999999997
36 0.18
-36 0.8200000000000001
37 0.76
-37 0.24
38 0.85
-38 0.15000000000000002
39 0.85
-39 0.15000000000000002
40 0.32
-40 0.6799999999999999
41 0.84
-41 0.16000000000000003
42 0.13
-42 0.87
43 0.5
-43 0.5
44 0.71
-44 0.29000000000000004
45 0.35
-45 0.65
46 0.23
-46 0.77
47 0.23
-47 0.77
48 0.09
-48 0.91
49 0.58
-49 0.42000000000000004
50 0.58
-50 0.42000000000000004
51 0.9
-51 0.09999999999999998
52 0.37
-52 0.63
53 0.49
-53 0.51
54 0.75
-54 0.25
55 0.98
-55 0.020000000000000018
56 0.45
-56 0.55
57 0.4
-57 0.6
58 0.31
-58 0.69
59 0.58
-59 0.42000000000000004
60 0.72
-60 0.28
61 0.21
-61 0.79
62 0.56
-62 0.43999999999999995
63 0.03
-63 0.97
64 0.64
-64 0.36
65 0.73
-65 0.27
66 0.88
-66 0.12
67 0.53
-67 0.47
68 0.24
-68 0.76
69 0.65
-69 0.35
70 0.41
-70 0.5900000000000001
71 0.92
-71 0.07999999999999996
72 0.01
-72 0.99
73 0.53
-73 0.47
74 0.22
-74 0.78
75 0.64
-75 0.36
76 0.78
-76 0.21999999999999997
77 0.95
-77 0.050000000000000044
78 0.57
-78 0.43000000000000005
79 0.29
-79 0.71
80 0.94
-80 0.06000000000000005
81 0.13
-81 0.87
82 0.03
-82 0.97
83 0.62
-83 0.38
84 0.02
-84 0.98
85 0.2
-85 0.8
86 0.31
-86 0.69
87 0.04
-87 0.96
88 0.24
-88 0.76
89 0.9
-89 0.09999999999999998
90 0.44
-90 0.56
91 0.43
-91 0.5700000000000001
92 0.54
-92 0.45999999999999996
93 0.14
-93 0.86
94 0.27
-94 0.73
95 0.76
-95 0.24
96 0.91
-96 0.08999999999999997
97 0.18
-97 0.8200000000000001
98 0.63
-98 0.37
99 0.79
-99 0.20999999999999996
100 0.06
-100 0.94
