1 0.79
-1 0.20999999999999996
2 0.73
-2 0.27
3 0.2
-3 0.8
4 0.13
-4 0.87
5 0.7
-5 0.30000000000000004
6 0.29
-6 0.71
7 0.55
-7 0.44999999999999996
8 0.2
-8 0.8
9 0.53
-9 0.47
10 0.6
-10 0.4
11 0.5
-11 0.5
12 0.92
-12 0.07999999999999996
13 0.7
-13 0.30000000000000004
14 0.37
-14 0.63
15 0.04
-15 0.96
16 0.42
-16 0.5800000000000001
17 0.4
-17 0.6
18 0.09
-18 0.91
19 0.8
-19 0.19999999999999996
20 0.1
-20 0.9
21 0.78
-21 0.21999999999999997
22 0.43
-22 0.5700000000000001
23 0.66
-23 0.33999999999999997
24 0.04
-24 0.96
25 0.71
-25 0.29000000000000004
26 0.05
-26 0.95
27 0.23
-27 0.77
28 0.27
-28 0.73
29 0.81
-29 0.18999999999999995
30 0.9
-30 0.09999999999999998
31 0.81
-31 0.18999999999999995
32 0.87
-32 0.13
33 0.68
-33 0.31999999999999995
34 0.72
-34 0.28
35 0.29
-35 0.71
36 0.65
-36 0.35
37 0.59
-37 0.41000000000000003
38 0.32
-38 0.6799999999999999
39 0.5
-39 0.5
40 0.83
-40 0.17000000000000004
41 0.89
-41 0.10999999999999999
42 0.43
-42 0.5700000000000001
43 0.66
-43 0.33999999999999997
44 0.15
-44 0.85
45 0.97
-45 0.030000000000000027
46 0.71
-46 0.29000000000000004
47 0.16
-47 0.84
48 0.63
-48 0.37
49 0.25
-49 0.75
50 0.57
-50 0.43000000000000005
51 0.16
-51 0.84
52 0.12
-52 0.88
53 0.05
-53 0.95
54 0.91
-54 0.08999999999999997
55 0.58
-55 0.42000000000000004
56 0.45
-56 0.55
57 0.88
-57 0.12
58 0.22
-58 0.78
59 0.49
-59 0.51
60 0.73
-60 0.27
61 0.48
-61 0.52
62 0.49
-62 0.51
63 0.89
-63 0.10999999999999999
64 0.83
-64 0.17000000000000004
65 0.98
-65 0.020000000000000018
66 0.72
-66 0.28
67 0.12
-67 0.88
68 0.99
-68 0.010000000000000009
69 0.97
-69 0.030000000000000027
70 0.03
-70 0.97
71 0.07
-71 0.9299999999999999
72 0.13
-72 0.87
73 0.82
-73 0.18000000000000005
74 0.57
-74 0.43000000000000005
75 0.09
-75 0.91
76 0.65
-76 0.35
77 0.48
-77 0.52
78 0.12
-78 0.88
79 0.59
-79 0.41000000000000003
80 0.64
-80 0.36
81 0.75
-81 0.25
82 0.51
-82 0.49
83 0.56
-83 0.43999999999999995
84 0.1
-84 0.9
85 0.14
-85 0.86
86 0.82
-86 0.18000000000000005
87 0.63
-87 0.37
88 0.56
-88 0.43999999999999995
89 0.78
-89 0.21999999999999997
90 0.56
-90 0.43999999999999995
91 0.02
-91 0.98
92 0.18
-92 0.8200000000000001
93 0.22
-93 0.78
94 0.04
-94 0.96
95 0.33
-95 0.6699999999999999
96 0.58
-96 0.42000000000000004
97 0.16
-97 0.84
98 0.17
-98 0.83
99 0.25
-99 0.75
100 0.5
-100 0.5
