1 0.64
-1 0.36
2 0.57
-2 0.43000000000000005
3 0.4
-3 0.6
4 0.52
-4 0.48
5 0.92
-5 0.07999999999999996
6 0.27
-6 0.73
7 0.62
-7 0.38
8 0.49
-8 0.51
9 0.88
-9 0.12
10 0.18
-10 0.8200000000000001
11 0.18
-11 0.8200000000000001
12 0.36
-12 0.64
13 0.56
-13 0.43999999999999995
14 0.93
-14 0.06999999999999995
15 0.26
-15 0.74
16 0.4
-16 0.6
17 0.77
-17 0.22999999999999998
18 0.63
-18 0.37
19 0.4
-19 0.6
20 0.37
-20 0.63
21 0.34
-21 0.6599999999999999
22 0.76
-22 0.24
23 0.71
-23 0.29000000000000004
24 0.36
-24 0.64
25 0.18
-25 0.8200000000000001
26 0.16
-26 0.84
27 0.09
-27 0.91
28 0.47
-28 0.53
29 0.14
-29 0.86
30 0.8
-30 0.19999999999999996
31 0.6
-31 0.4
32 0.74
-32 0.26
33 0.96
-33 0.040000000000000036
34 0.87
-34 0.13
35 0.55
-35 0.44999999999999996
36 0.03
-36 0.97
37 0.99
-37 0.010000000000000009
38 0.46
-38 0.54
39 0.05
-39 0.95
40 0.76
-40 0.24
41 0.21
-41 0.79
42 0.27
-42 0.73
43 0.83
-43 0.17000000000000004
44 0.59
-44 0.41000000000000003
45 0.59
-45 0.41000000000000003
46 0.42
-46 0.5800000000000001
47 0.99
-47 0.010000000000000009
48 0.23
-48 0.77
49 0.74
-49 0.26
50 0.69
-50 0.31000000000000005
51 0.92
-51 0.07999999999999996
52 0.97
-52 0.030000000000000027
53 0.33
-53 0.6699999999999999
54 0.02
-54 0.98
55 0.84
-55 0.16000000000000003
56 0.02
-56 0.98
57 0.75
-57 0.25
58 0.57
-58 0.43000000000000005
59 0.15
-59 0.85
60 0.85
-60 0.15000000000000002
61 0.51
-61 0.49
62 0.99
-62 0.010000000000000009
63 0.61
-63 0.39
64 0.27
-64 0.73
65 0.69
-65 0.31000000000000005
66 0.11
-66 0.89
67 0.34
-67 0.6599999999999999
68 0.82
-68 0.18000000000000005
69 0.13
-69 0.87
70 0.54
-70 0.45999999999999996
71 0.36
-71 0.64
72 0.41
-72 0.5900000000000001
73 0.03
-73 0.97
74 0.7
-74 0.30000000000000004
75 0.16
-75 0.84
76 0.14
-76 0.86
77 0.85
-77 0.15000000000000002
78 0.49
-78 0.51
79 0.77
-79 0.22999999999999998
80 0.4
-80 0.6
81 0.7
-81 0.30000000000000004
82 0.23
-82 0.77
83 0.72
-83 0.28
84 0.16
-84 0.84
85 0.49
-85 0.51
86 0.49
-86 0.51
87 0.48
-87 0.52
88 0.93
-88 0.06999999999999995
89 0.96
-89 0.040000000000000036
90 0.57
-90 0.43000000000000005
91 0.8
-91 0.19999999999999996
92 0.69
-92 0.31000000000000005
93 0.6
-93 0.4
94 0.4
-94 0.6
95 0.35
-95 0.65
96 0.22
-96 0.78
97 0.46
-97 0.54
98 0.1
-98 0.9
99 0.42
-99 0.5800000000000001
100 0.95
-100 0.050000000000000044
