1 0.76
-1 0.24
2 0.18
-2 0.8200000000000001
3 0.72
-3 0.28
4 0.16
-4 0.84
5 0.66
-5 0.33999999999999997
6 0.42
-6 0.5800000000000001
7 0.15
-7 0.85
8 0.03
-8 0.97
9 0.79
-9 0.20999999999999996
10 0.43
-10 0.5700000000000001
11 0.61
-11 0.39
12 0.21
-12 0.79
13 0.45
-13 0.55
14 0.46
-14 0.54
15 0.96
-15 0.040000000000000036
16 0.47
-16 0.53
17 0.79
-17 0.20999999999999996
18 0.07
-18 0.9299999999999999
19 0.05
-19 0.95
20 0.55
-20 0.44999999999999996
21 0.27
-21 0.73
22 0.94
-22 0.06000000000000005
23 0.05
-23 0.95
24 0.26
-24 0.74
25 0.89
-25 0.10999999999999999
26 0.63
-26 0.37
27 0.42
-27 0.5800000000000001
28 0.93
-28 0.06999999999999995
29 0.79
-29 0.20999999999999996
30 0.61
-30 0.39
31 0.95
-31 0.050000000000000044
32 0.65
-32 0.35
33 0.01
-33 0.99
34 0.79
-34 0.20999999999999996
35 0.83
-35 0.17000000000000004
36 0.52
-36 0.48
37 0.45
-37 0.55
38 0.83
-38 0.17000000000000004
39 0.49
-39 0.51
40 0.82
-40 0.18000000000000005
41 0.52
-41 0.48
42 0.97
-42 0.030000000000000027
43 0.15
-43 0.85
44 0.35
-44 0.65
45 0.58
-45 0.42000000000000004
46 0.49
-46 0.51
47 0.42
-47 0.5800000000000001
48 0.98
-48 0.020000000000000018
49 0.72
-49 0.28
50 0.59
-50 0.41000000000000003
51 0.88
-51 0.12
52 0.66
-52 0.33999999999999997
53 0.29
-53 0.71
54 0.44
-54 0.56
55 0.09
-55 0.91
56 0.34
-56 0.6599999999999999
57 0.93
-57 0.06999999999999995
58 0.66
-58 0.33999999999999997
59 0.33
-59 0.6699999999999999
60 0.74
-60 0.26
61 0.71
-61 0.29000000000000004
62 0.9
-62 0.09999999999999998
63 0.73
-63 0.27
64 0.57
-64 0.43000000000000005
65 0.04
-65 0.96
66 0.1
-66 0.9
67 0.34
-67 0.6599999999999999
68 0.83
-68 0.17000000000000004
69 0.1
-69 0.9
70 0.49
-70 0.51
71 0.08
-71 0.92
72 0.6
-72 0.4
73 0.62
-73 0.38
74 0.48
-74 0.52
75 0.02
-75 0.98
76 0.42
-76 0.5800000000000001
77 0.68
-77 0.31999999999999995
78 0.89
-78 0.10999999999999999
79 0.99
-79 0.010000000000000009
80 0.95
-80 0.050000000000000044
81 0.82
-81 0.18000000000000005
82 0.54
-82 0.45999999999999996
83 0.59
-83 0.41000000000000003
84 0.07
-84 0.9299999999999999
85 0.16
-85 0.84
86 0.32
-86 0.6799999999999999
87 0.59
-87 0.41000000000000003
88 0.31
-88 0.69
89 0.49
-89 0.51
90 0.7
-90 0.30000000000000004
91 0.33
-91 0.6699999999999999
92 0.28
-92 0.72
93 0.6
-93 0.4
94 0.96
-94 0.040000000000000036
95 0.28
-95 0.72
96 0.48
-96 0.52
97 0.13
-97 0.87
98 0.22
-98 0.78
99 0.8
-99 0.19999999999999996
100 0.22
-100 0.78
