1 0.85
-1 0.15000000000000002
2 0.44
-2 0.56
3 0.92
-3 0.07999999999999996
4 0.6
-4 0.4
5 0.54
-5 0.45999999999999996
6 0.75
-6 0.25
7 0.42
-7 0.5800000000000001
8 0.46
-8 0.54
9 0.98
-9 0.020000000000000018
10 0.82
-10 0.18000000000000005
11 0.94
-11 0.06000000000000005
12 0.67
-12 0.32999999999999996
13 0.76
-13 0.24
14 0.45
-14 0.55
15 0.39
-15 0.61
16 0.71
-16 0.29000000000000004
17 0.51
-17 0.49
18 0.39
-18 0.61
19 0.29
-19 0.71
20 0.79
-20 0.20999999999999996
21 0.31
-21 0.69
22 0.63
-22 0.37
23 0.91
-23 0.08999999999999997
24 0.27
-24 0.73
25 0.52
-25 0.48
26 0.3
-26 0.7
27 0.42
-27 0.5800000000000001
28 0.8
-28 0.19999999999999996
29 0.31
-29 0.69
30 0.11
-30 0.89
31 0.97
-31 0.030000000000000027
32 0.18
-32 0.8200000000000001
33 0.81
-33 0.18999999999999995
34 0.49
-34 0.51
35 0.71
-35 0.29000000000000004
36 0.06
-36 0.94
37 0.83
-37 0.17000000000000004
38 0.15
-38 0.85
39 0.72
-39 0.28
40 0.68
-40 0.31999999999999995
41 0.04
-41 0.96
42 0.53
-42 0.47
43 0.53
-43 0.47
44 0.35
-44 0.65
45 0.82
-45 0.18000000000000005
46 0.92
-46 0.07999999999999996
47 0.85
-47 0.15000000000000002
48 0.76
-48 0.24
49 0.8
-49 0.19999999999999996
50 0.02
-50 0.98
51 0.15
-51 0.85
52 0.49
-52 0.51
53 0.15
-53 0.85
54 0.56
-54 0.43999999999999995
55 0.59
-55 0.41000000000000003
56 0.03
-56 0.97
57 0.69
-57 0.31000000000000005
58 0.54
-58 0.45999999999999996
59 0.88
-59 0.12
60 0.92
-60 0.07999999999999996
61 0.79
-61 0.20999999999999996
62 0.78
-62 0.21999999999999997
63 0.21
-63 0.79
64 0.93
-64 0.06999999999999995
65 0.49
-65 0.51
66 0.74
-66 0.26
67 0.22
-67 0.78
68 0.05
-68 0.95
69 0.24
-69 0.76
70 0.5
-70 0.5
71 0.05
-71 0.95
72 0.74
-72 0.26
73 0.77
-73 0.22999999999999998
74 0.34
-74 0.6599999999999999
75 0.1
-75 0.9
76 0.11
-76 0.89
77 0.89
-77 0.10999999999999999
78 0.36
-78 0.64
79 0.63
-79 0.37
80 0.55
-80 0.44999999999999996
81 0.1
-81 0.9
82 0.08
-82 0.92
83 0.1
-83 0.9
84 0.22
-84 0.78
85 0.38
-85 0.62
86 0.02
-86 0.98
87 0.17
-87 0.83
88 0.85
-88 0.15000000000000002
89 0.27
-89 0.73
90 0.69
-90 0.31000000000000005
91 0.59
-91 0.41000000000000003
92 0.01
-92 0.99
93 0.26
-93 0.74
94 0.9
-94 0.09999999999999998
95 0.51
-95 0.49
96 0.52
-96 0.48
97 0.92
-97 0.07999999999999996
98 0.07
-98 0.9299999999999999
99 0.81
-99 0.18999999999999995
100 0.88
-100 0.12
