1 0.92
-1 0.07999999999999996
2 0.44
-2 0.56
3 0.28
-3 0.72
4 0.95
-4 0.050000000000000044
5 0.84
-5 0.16000000000000003
6 0.11
-6 0.89
7 0.43
-7 0.5700000000000001
8 0.58
-8 0.42000000000000004
9 0.68
-9 0.31999999999999995
10 0.09
-10 0.91
11 0.55
-11 0.44999999999999996
12 0.84
-12 0.16000000000000003
13 0.76
-13 0.24
14 0.09
-14 0.91
15 0.99
-15 0.010000000000000009
16 0.73
-16 0.27
17 0.22
-17 0.78
18 0.49
-18 0.51
19 0.77
-19 0.22999999999999998
20 0.97
-20 0.030000000000000027
21 0.19
-21 0.81
22 0.31
-22 0.69
23 0.69
-23 0.31000000000000005
24 0.09
-24 0.91
25 0.46
-25 0.54
26 0.21
-26 0.79
27 0.38
-27 0.62
28 0.41
-28 0.5900000000000001
29 0.51
-29 0.49
30 0.64
-30 0.36
31 0.57
-31 0.43000000000000005
32 0.94
-32 0.06000000000000005
33 0.77
-33 0.22999999999999998
34 0.2
-34 0.8
35 0.81
-35 0.18999999999999995
36 0.66
-36 0.33999999999999997
37 0.6
-37 0.4
38 0.96
-38 0.040000000000000036
39 0.62
-39 0.38
40 0.03
-40 0.97
41 0.18
-41 0.8200000000000001
42 0.92
-42 0.07999999999999996
43 0.8
-43 0.19999999999999996
44 0.29
-44 0.71
45 0.15
-45 0.85
46 0.31
-46 0.69
47 0.57
-47 0.43000000000000005
48 0.95
-48 0.050000000000000044
49 0.52
-49 0.48
50 0.82
-50 0.18000000000000005
51 0.91
-51 0.08999999999999997
52 0.43
-52 0.5700000000000001
53 0.44
-53 0.56
54 0.03
-54 0.97
55 0.89
-55 0.10999999999999999
56 0.25
-56 0.75
57 0.91
-57 0.08999999999999997
58 0.14
-58 0.86
59 0.07
-59 0.9299999999999999
60 0.13
-60 0.87
61 0.97
-61 0.030000000000000027
62 0.69
-62 0.31000000000000005
63 0.92
-63 0.07999999999999996
64 0.59
-64 0.41000000000000003
65 0.58
-65 0.42000000000000004
66 0.16
-66 0.84
67 0.68
-67 0.31999999999999995
68 0.38
-68 0.62
69 0.82
-69 0.18000000000000005
70 0.7
-70 0.30000000000000004
71 0.11
-71 0.89
72 0.64
-72 0.36
73 0.61
-73 0.39
74 0.41
-74 0.5900000000000001
75 0.78
-75 0.21999999999999997
76 0.11
-76 0.89
77 0.68
-77 0.31999999999999995
78 0.05
-78 0.95
79 0.54
-79 0.45999999999999996
80 0.34
-80 0.6599999999999999
81 0.24
-81 0.76
82 0.41
-82 0.5900000000000001
83 0.63
-83 0.37
84 0.23
-84 0.77
85 0.23
-85 0.77
86 0.33
-86 0.6699999999999999
87 0.97
-87 0.030000000000000027
88 0.13
-88 0.87
89 0.06
-89 0.94
90 0.31
-90 0.69
91 0.94
-91 0.06000000000000005
92 0.14
-92 0.86
93 0.3
-93 0.7
94 0.42
-94 0.5800000000000001
95 0.08
-95 0.92
96 0.35
-96 0.65
97 0.64
-97 0.36
98 0.74
-98 0.26
99 0.56
-99 0.43999999999999995
100 0.43
-100 0.5700000000000001
