1 0.66
-1 0.33999999999999997
2 0.81
-2 0.18999999999999995
3 0.55
-3 0.44999999999999996
4 0.83
-4 0.17000000000000004
5 0.97
-5 0.030000000000000027
6 0.54
-6 0.45999999999999996
7 0.98
-7 0.020000000000000018
8 0.59
-8 0.41000000000000003
9 0.07
-9 0.9299999999999999
10 0.38
-10 0.62
11 0.05
-11 0.95
12 0.77
-12 0.22999999999999998
13 0.78
-13 0.21999999999999997
14 0.82
-14 0.18000000000000005
15 0.42
-15 0.5800000000000001
16 0.62
-16 0.38
17 0.34
-17 0.6599999999999999
18 0.91
-18 0.08999999999999997
19 0.14
-19 0.86
20 0.47
-20 0.53
21 0.52
-21 0.48
22 0.26
-22 0.74
23 0.79
-23 0.20999999999999996
24 0.55
-24 0.44999999999999996
25 0.59
-25 0.41000000000000003
26 0.33
-26 0.6699999999999999
27 0.9
-27 0.09999999999999998
28 0.11
-28 0.89
29 0.55
-29 0.44999999999999996
30 0.6
-30 0.4
31 0.68
-31 0.31999999999999995
32 0.71
-32 0.29000000000000004
33 0.86
-33 0.14
34 0.03
-34 0.97
35 0.96
-35 0.040000000000000036
36 0.96
-36 0.040000000000000036
37 0.89
-37 0.10999999999999999
38 0.81
-38 0.18999999999999995
39 0.35
-39 0.65
40 0.5
-40 0.5
41 0.87
-41 0.13
42 0.55
-42 0.44999999999999996
43 0.26
-43 0.74
44 0.32
-44 0.6799999999999999
45 0.24
-45 0.76
46 0.72
-46 0.28
47 0.01
-47 0.99
48 0.42
-48 0.5800000000000001
49 0.24
-49 0.76
50 0.49
-50 0.51
51 0.14
-51 0.86
52 0.72
-52 0.28
53 0.15
-53 0.85
54 0.7
-54 0.30000000000000004
55 0.57
-55 0.43000000000000005
56 0.64
-56 0.36
57 0.58
-57 0.42000000000000004
58 0.27
-58 0.73
59 0.2
-59 0.8
60 0.66
-60 0.33999999999999997
61 0.84
-61 0.16000000000000003
62 0.04
-62 0.96
63 0.67
-63 0.32999999999999996
64 0.04
-64 0.96
65 0.22
-65 0.78
66 0.17
-66 0.83
67 0.95
-67 0.050000000000000044
68 0.26
-68 0.74
69 0.15
-69 0.85
70 0.92
-70 0.07999999999999996
71 0.61
-71 0.39
72 0.12
-72 0.88
73 0.14
-73 0.86
74 0.39
-74 0.61
75 0.9
-75 0.09999999999999998
76 0.67
-76 0.32999999999999996
77 0.19
-77 0.81
78 0.46
-78 0.54
79 0.22
-79 0.78
80 0.5
-80 0.5
81 0.47
-81 0.53
82 0.44
-82 0.56
83 0.44
-83 0.56
84 0.43
-84 0.5700000000000001
85 0.98
-85 0.020000000000000018
86 0.41
-86 0.5900000000000001
87 0.26
-87 0.74
88 0.27
-88 0.73
89 0.49
-89 0.51
90 0.92
-90 0.07999999999999996
91 0.29
-91 0.71
92 0.39
-92 0.61
93 0.18
-93 0.8200000000000001
94 0.58
-94 0.42000000000000004
95 0.88
-95 0.12
96 0.02
-96 0.98
97 0.47
-97 0.53
98 0.56
-98 0.43999999999999995
99 0.09
-99 0.91
100 0.16
-100 0.84
