1 0.34
-1 0.6599999999999999
2 0.49
-2 0.51
3 0.92
-3 0.07999999999999996
4 0.76
-4 0.24
5 0.01
-5 0.99
6 0.03
-6 0.97
7 0.12
-7 0.88
8 0.04
-8 0.96
9 0.97
-9 0.030000000000000027
10 0.24
-10 0.76
11 0.41
-11 0.5900000000000001
12 0.19
-12 0.81
13 0.02
-13 0.98
14 0.82
-14 0.18000000000000005
15 0.97
-15 0.030000000000000027
16 0.2
-16 0.8
17 0.29
-17 0.71
18 0.65
-18 0.35
19 0.91
-19 0.08999999999999997
20 0.52
-20 0.48
21 0.53
-21 0.47
22 0.47
-22 0.53
23 0.6
-23 0.4
24 0.17
-24 0.83
25 0.66
-25 0.33999999999999997
26 0.24
-26 0.76
27 0.12
-27 0.88
28 0.23
-28 0.77
29 0.17
-29 0.83
30 0.55
-30 0.44999999999999996
31 0.66
-31 0.33999999999999997
32 0.42
-32 0.5800000000000001
33 0.34
-33 0.6599999999999999
34 0.19
-34 0.81
35 0.36
-35 0.64
36 0.47
-36 0.53
37 0.35
-37 0.65
38 0.19
-38 0.81
39 0.51
-39 0.49
40 0.28
-40 0.72
41 0.52
-41 0.48
42 0.65
-42 0.35
43 0.87
-43 0.13
44 0.65
-44 0.35
45 0.15
-45 0.85
46 0.92
-46 0.07999999999999996
47 0.65
-47 0.35
48 0.87
-48 0.13
49 0.61
-49 0.39
50 0.72
-50 0.28
51 0.49
-51 0.51
52 0.04
-52 0.96
53 0.2
-53 0.8
54 0.23
-54 0.77
55 0.82
-55 0.18000000000000005
56 0.24
-56 0.76
57 0.34
-57 0.6599999999999999
58 0.95
-58 0.050000000000000044
59 0.53
-59 0.47
60 0.07
-60 0.9299999999999999
61 0.94
-61 0.06000000000000005
62 0.43
-62 0.5700000000000001
63 0.02
-63 0.98
64 0.47
-64 0.53
65 0.02
-65 0.98
66 0.24
-66 0.76
67 0.91
-67 0.08999999999999997
68 0.04
-68 0.96
69 0.06
-69 0.94
70 0.3
-70 0.7
71 0.08
-71 0.92
72 0.13
-72 0.87
73 0.38
-73 0.62
74 0.07
-74 0.9299999999999999
75 0.94
-75 0.06000000000000005
76 0.99
-76 0.010000000000000009
77 0.66
-77 0.33999999999999997
78 0.35
-78 0.65
79 0.86
-79 0.14
80 0.56
-80 0.43999999999999995
81 0.05
-81 0.95
82 0.93
-82 0.06999999999999995
83 0.58
-83 0.42000000000000004
84 0.44
-84 0.56
85 0.83
-85 0.17000000000000004
86 0.05
-86 0.95
87 0.05
-87 0.95
88 0.6
-88 0.4
89 0.32
-89 0.6799999999999999
90 0.53
-90 0.47
91 0.01
-91 0.99
92 0.3
-92 0.7
93 0.65
-93 0.35
94 0.29
-94 0.71
95 0.25
-95 0.75
96 0.42
-96 0.5800000000000001
97 0.53
-97 0.47
98 0.65
-98 0.35
99 0.2
-99 0.8
100 0.31
-100 0.69
