1 0.96
-1 0.040000000000000036
2 0.04
-2 0.96
3 0.86
-3 0.14
4 0.22
-4 0.78
5 0.99
-5 0.010000000000000009
6 0.59
-6 0.41000000000000003
7 0.24
-7 0.76
8 0.06
-8 0.94
9 0.37
-9 0.63
10 0.08
-10 0.92
11 0.22
-11 0.78
12 0.81
-12 0.18999999999999995
13 0.45
-13 0.55
14 0.59
-14 0.41000000000000003
15 0.66
-15 0.33999999999999997
16 0.49
-16 0.51
17 0.4
-17 0.6
18 0.64
-18 0.36
19 0.13
-19 0.87
20 0.93
-20 0.06999999999999995
21 0.27
-21 0.73
22 0.06
-22 0.94
23 0.01
-23 0.99
24 0.75
-24 0.25
25 0.54
-25 0.45999999999999996
26 0.28
-26 0.72
27 0.5
-27 0.5
28 0.74
-28 0.26
29 0.21
-29 0.79
30 0.96
-30 0.040000000000000036
31 0.03
-31 0.97
32 0.83
-32 0.17000000000000004
33 0.18
-33 0.8200000000000001
34 0.77
-34 0.22999999999999998
35 0.16
-35 0.84
36 0.36
-36 0.64
37 0.57
-37 0.43000000000000005
38 0.87
-38 0.13
39 0.56
-39 0.43999999999999995
40 0.05
-40 0.95
41 0.11
-41 0.89
42 0.3
-42 0.7
43 0.49
-43 0.51
44 0.01
-44 0.99
45 0.39
-45 0.61
46 0.63
-46 0.37
47 0.86
-47 0.14
48 0.51
-48 0.49
49 0.19
-49 0.81
50 0.17
-50 0.83
51 0.81
-51 0.18999999999999995
52 0.38
-52 0.62
53 0.7
-53 0.30000000000000004
54 0.89
-54 0.10999999999999999
55 0.91
-55 0.08999999999999997
56 0.53
-56 0.47
57 0.18
-57 0.8200000000000001
58 0.47
-58 0.53
59 0.98
-59 0.020000000000000018
60 0.93
-60 0.06999999999999995
61 0.88
-61 0.12
62 0.54
-62 0.45999999999999996
63 0.78
-63 0.21999999999999997
64 0.01
-64 0.99
65 0.71
-65 0.29000000000000004
66 0.41
-66 0.5900000000000001
67 0.83
-67 0.17000000000000004
68 0.95
-68 0.050000000000000044
69 0.25
-69 0.75
70 0.85
-70 0.15000000000000002
71 0.03
-71 0.97
72 0.98
-72 0.020000000000000018
73 0.8
-73 0.19999999999999996
74 0.03
-74 0.97
75 0.47
-75 0.53
76 0.97
-76 0.030000000000000027
77 0.16
-77 0.84
78 0.55
-78 0.44999999999999996
79 0.94
-79 0.06000000000000005
80 0.24
-80 0.76
81 0.16
-81 0.84
82 0.35
-82 0.65
83 0.96
-83 0.040000000000000036
84 0.52
-84 0.48
85 0.43
-85 0.5700000000000001
86 0.92
-86 0.07999999999999996
87 0.17
-87 0.83
88 0.32
-88 0.6799999999999999
89 0.34
-89 0.6599999999999999
90 0.06
-90 0.94
91 0.5
-91 0.5
92 0.49
-92 0.51
93 0.67
-93 0.32999999999999996
94 0.82
-94 0.18000000000000005
95 0.43
-95 0.5700000000000001
96 0.71
-96 0.29000000000000004
97 0.15
-97 0.85
98 0.24
-98 0.76
99 0.43
-99 0.5700000000000001
100 0.51
-100 0.49
