1 0.74
-1 0.26
2 0.54
-2 0.45999999999999996
3 0.29
-3 0.71
4 0.39
-4 0.61
5 0.33
-5 0.6699999999999999
6 0.61
-6 0.39
7 0.21
-7 0.79
8 0.45
-8 0.55
9 0.97
-9 0.030000000000000027
10 0.3
-10 0.7
11 0.02
-11 0.98
12 0.4
-12 0.6
13 0.54
-13 0.45999999999999996
14 0.71
-14 0.29000000000000004
15 0.18
-15 0.8200000000000001
16 0.78
-16 0.21999999999999997
17 0.2
-17 0.8
18 0.78
-18 0.21999999999999997
19 0.25
-19 0.75
20 0.74
-20 0.26
21 0.78
-21 0.21999999999999997
22 0.54
-22 0.45999999999999996
23 0.32
-23 0.6799999999999999
24 0.05
-24 0.95
25 0.78
-25 0.21999999999999997
26 0.86
-26 0.14
27 0.93
-27 0.06999999999999995
28 0.24
-28 0.76
29 0.06
-29 0.94
30 0.45
-30 0.55
31 0.22
-31 0.78
32 0.27
-32 0.73
33 0.75
-33 0.25
34 0.63
-34 0.37
35 0.19
-35 0.81
36 0.86
-36 0.14
37 0.87
-37 0.13
38 0.78
-38 0.21999999999999997
39 0.2
-39 0.8
40 0.57
-40 0.43000000000000005
41 0.01
-41 0.99
42 0.42
-42 0.5800000000000001
43 0.9
-43 0.09999999999999998
44 0.02
-44 0.98
45 0.37
-45 0.63
46 0.58
-46 0.42000000000000004
47 0.17
-47 0.83
48 0.55
-48 0.44999999999999996
49 0.76
-49 0.24
50 0.89
-50 0.10999999999999999
51 0.18
-51 0.8200000000000001
52 0.87
-52 0.13
53 0.18
-53 0.8200000000000001
54 0.66
-54 0.33999999999999997
55 0.08
-55 0.92
56 0.46
-56 0.54
57 0.6
-57 0.4
58 0.35
-58 0.65
59 0.1
-59 0.9
60 0.51
-60 0.49
61 0.48
-61 0.52
62 0.48
-62 0.52
63 0.67
-63 0.32999999999999996
64 0.24
-64 0.76
65 0.5
-65 0.5
66 0.49
-66 0.51
67 0.49
-67 0.51
68 0.29
-68 0.71
69 0.59
-69 0.41000000000000003
70 0.55
-70 0.44999999999999996
71 0.14
-71 0.86
72 0.14
-72 0.86
73 0.87
-73 0.13
74 0.64
-74 0.36
75 0.36
-75 0.64
76 0.32
-76 0.6799999999999999
77 0.92
-77 0.07999999999999996
78 0.12
-78 0.88
79 0.36
-79 0.64
80 0.12
-80 0.88
81 0.7
-81 0.30000000000000004
82 0.63
-82 0.37
83 0.08
-83 0.92
84 0.8
-84 0.19999999999999996
85 0.91
-85 0.08999999999999997
86 0.87
-86 0.13
87 0.7
-87 0.30000000000000004
88 0.33
-88 0.6699999999999999
89 0.44
-89 0.56
90 0.84
-90 0.16000000000000003
91 0.42
-91 0.5800000000000001
92 0.52
-92 0.48
93 0.93
-93 0.06999999999999995
94 0.68
-94 0.31999999999999995
95 0.61
-95 0.39
96 0.71
-96 0.29000000000000004
97 0.15
-97 0.85
98 0.8
-98 0.19999999999999996
99 0.46
-99 0.54
100 0.97
-100 0.030000000000000027
