1 0.49
-1 0.51
2 0.79
-2 0.20999999999999996
3 0.24
-3 0.76
4 0.3
-4 0.7
5 0.31
-5 0.69
6 0.32
-6 0.6799999999999999
7 0.76
-7 0.24
8 0.49
-8 0.51
9 0.07
-9 0.9299999999999999
10 0.38
-10 0.62
11 0.15
-11 0.85
12 0.54
-12 0.45999999999999996
13 0.7
-13 0.30000000000000004
14 0.9
-14 0.09999999999999998
15 0.04
-15 0.96
16 0.9
-16 0.09999999999999998
17 0.31
-17 0.69
18 0.7
-18 0.30000000000000004
19 0.53
-19 0.47
20 0.52
-20 0.48
21 0.29
-21 0.71
22 0.26
-22 0.74
23 0.4
-23 0.6
24 0.84
-24 0.16000000000000003
25 0.39
-25 0.61
26 0.24
-26 0.76
27 0.43
-27 0.5700000000000001
28 0.02
-28 0.98
29 0.03
-29 0.97
30 0.14
-30 0.86
31 0.75
-31 0.25
32 0.5
-32 0.5
33 0.34
-33 0.6599999999999999
34 0.51
-34 0.49
35 0.25
-35 0.75
36 0.66
-36 0.33999999999999997
37 0.68
-37 0.31999999999999995
38 0.72
-38 0.28
39 0.95
-39 0.050000000000000044
40 0.62
-40 0.38
41 0.65
-41 0.35
42 0.18
-42 0.8200000000000001
43 0.96
-43 0.040000000000000036
44 0.5
-44 0.5
45 0.21
-45 0.79
46 0.51
-46 0.49
47 0.53
-47 0.47
48 0.18
-48 0.8200000000000001
49 0.81
-49 0.18999999999999995
50 0.9
-50 0.09999999999999998
51 0.65
-51 0.35
52 0.25
-52 0.75
53 0.09
-53 0.91
54 0.49
-54 0.51
55 0.59
-55 0.41000000000000003
56 0.85
-56 0.15000000000000002
57 0.18
-57 0.8200000000000001
58 0.9
-58 0.09999999999999998
59 0.78
-59 0.21999999999999997
60 0.93
-60 0.06999999999999995
61 0.99
-61 0.010000000000000009
62 0.14
-62 0.86
63 0.64
-63 0.36
64 0.63
-64 0.37
65 0.44
-65 0.56
66 0.86
-66 0.14
67 0.03
-67 0.97
68 0.35
-68 0.65
69 0.48
-69 0.52
70 0.25
-70 0.75
71 0.41
-71 0.5900000000000001
72 0.03
-72 0.97
73 0.13
-73 0.87
74 0.59
-74 0.41000000000000003
75 0.92
-75 0.07999999999999996
76 0.64
-76 0.36
77 0.97
-77 0.030000000000000027
78 0.44
-78 0.56
79 0.01
-79 0.99
80 0.45
-80 0.55
81 0.67
-81 0.32999999999999996
82 0.81
-82 0.18999999999999995
83 0.52
-83 0.48
84 0.14
-84 0.86
85 0.65
-85 0.35
86 0.78
-86 0.21999999999999997
87 0.97
-87 0.030000000000000027
88 0.71
-88 0.29000000000000004
89 0.93
-89 0.06999999999999995
90 0.11
-90 0.89
91 0.15
-91 0.85
92 0.38
-92 0.62
93 0.77
-93 0.22999999999999998
94 0.66
-94 0.33999999999999997
95 0.65
-95 0.35
96 0.1
-96 0.9
97 0.43
-97 0.5700000000000001
98 0.82
-98 0.18000000000000005
99 0.03
-99 0.97
100 0.26
-100 0.74
