1 0.49
-1 0.51
2 0.63
-2 0.37
3 0.03
-3 0.97
4 0.34
-4 0.6599999999999999
5 0.34
-5 0.6599999999999999
6 0.35
-6 0.65
7 0.65
-7 0.35
8 0.35
-8 0.65
9 0.58
-9 0.42000000000000004
10 0.55
-10 0.44999999999999996
11 0.46
-11 0.54
12 0.26
-12 0.74
13 0.62
-13 0.38
14 0.21
-14 0.79
15 0.07
-15 0.9299999999999999
16 0.86
-16 0.14
17 0.06
-17 0.94
18 0.83
-18 0.17000000000000004
19 0.02
-19 0.98
20 0.72
-20 0.28
21 0.21
-21 0.79
22 0.88
-22 0.12
23 0.67
-23 0.32999999999999996
24 0.09
-24 0.91
25 0.23
-25 0.77
26 0.12
-26 0.88
27 0.86
-27 0.14
28 0.81
-28 0.18999999999999995
29 0.44
-29 0.56
30 0.43
-30 0.5700000000000001
31 0.63
-31 0.37
32 0.27
-32 0.73
33 0.59
-33 0.41000000000000003
34 0.52
-34 0.48
35 0.81
-35 0.18999999999999995
36 0.63
-36 0.37
37 0.85
-37 0.15000000000000002
38 0.13
-38 0.87
39 0.82
-39 0.18000000000000005
40 0.31
-40 0.69
41 0.29
-41 0.71
42 0.43
-42 0.5700000000000001
43 0.33
-43 0.6699999999999999
44 0.48
-44 0.52
45 0.37
-45 0.63
46 0.62
-46 0.38
47 0.74
-47 0.26
48 0.61
-48 0.39
49 0.66
-49 0.33999999999999997
50 0.42
-50 0.5800000000000001
51 0.75
-51 0.25
52 0.64
-52 0.36
53 0.72
-53 0.28
54 0.08
-54 0.92
55 0.66
-55 0.33999999999999997
56 0.31
-56 0.69
57 0.84
-57 0.16000000000000003
58 0.61
-58 0.39
59 0.68
-59 0.31999999999999995
60 0.45
-60 0.55
61 0.6
-61 0.4
62 0.49
-62 0.51
63 0.11
-63 0.89
64 0.03
-64 0.97
65 0.16
-65 0.84
66 0.72
-66 0.28
67 0.38
-67 0.62
68 0.22
-68 0.78
69 0.88
-69 0.12
70 0.23
-70 0.77
71 0.8
-71 0.19999999999999996
72 0.21
-72 0.79
73 0.69
-73 0.31000000000000005
74 0.96
-74 0.040000000000000036
75 0.46
-75 0.54
76 0.82
-76 0.18000000000000005
77 0.99
-77 0.010000000000000009
78 0.25
-78 0.75
79 0.81
-79 0.18999999999999995
80 0.86
-80 0.14
81 0.58
-81 0.42000000000000004
82 0.27
-82 0.73
83 0.52
-83 0.48
84 0.46
-84 0.54
85 0.03
-85 0.97
86 0.63
-86 0.37
87 0.59
-87 0.41000000000000003
88 0.61
-88 0.39
89 0.47
-89 0.53
90 0.04
-90 0.96
91 0.7
-91 0.30000000000000004
92 0.3
-92 0.7
93 0.26
-93 0.74
94 0.9
-94 0.09999999999999998
95 0.06
-95 0.94
96 0.06
-96 0.94
97 0.48
-97 0.52
98 0.81
-98 0.18999999999999995
99 0.11
-99 0.89
100 0.6
-100 0.4
