1 0.66
-1 0.33999999999999997
2 0.66
-2 0.33999999999999997
3 0.51
-3 0.49
4 0.88
-4 0.12
5 0.91
-5 0.08999999999999997
6 0.49
-6 0.51
7 0.11
-7 0.89
8 0.96
-8 0.040000000000000036
9 0.08
-9 0.92
10 0.28
-10 0.72
11 0.17
-11 0.83
12 0.43
-12 0.5700000000000001
13 0.74
-13 0.26
14 0.04
-14 0.96
15 0.79
-15 0.20999999999999996
16 0.46
-16 0.54
17 0.61
-17 0.39
18 0.68
-18 0.31999999999999995
19 0.18
-19 0.8200000000000001
20 0.44
-20 0.56
21 0.01
-21 0.99
22 0.72
-22 0.28
23 0.25
-23 0.75
24 0.79
-24 0.20999999999999996
25 0.17
-25 0.83
26 0.44
-26 0.56
27 0.75
-27 0.25
28 0.15
-28 0.85
29 0.52
-29 0.48
30 0.65
-30 0.35
31 0.84
-31 0.16000000000000003
32 0.28
-32 0.72
33 0.94
-33 0.06000000000000005
34 0.37
-34 0.63
35 0.98
-35 0.020000000000000018
36 0.62
-36 0.38
37 0.99
-37 0.010000000000000009
38 0.32
-38 0.6799999999999999
39 0.95
-39 0.050000000000000044
40 0.81
-40 0.18999999999999995
41 0.58
-41 0.42000000000000004
42 0.51
-42 0.49
43 0.31
-43 0.69
44 0.8
-44 0.19999999999999996
45 0.13
-45 0.87
46 0.33
-46 0.6699999999999999
47 0.85
-47 0.15000000000000002
48 0.91
-48 0.08999999999999997
49 0.05
-49 0.95
50 0.55
-50 0.44999999999999996
51 0.06
-51 0.94
52 0.93
-52 0.06999999999999995
53 0.76
-53 0.24
54 0.87
-54 0.13
55 0.94
-55 0.06000000000000005
56 0.86
-56 0.14
57 0.68
-57 0.31999999999999995
58 0.58
-58 0.42000000000000004
59 0.41
-59 0.5900000000000001
60 0.76
-60 0.24
61 0.65
-61 0.35
62 0.86
-62 0.14
63 0.22
-63 0.78
64 0.22
-64 0.78
65 0.34
-65 0.6599999999999999
66 0.77
-66 0.22999999999999998
67 0.54
-67 0.45999999999999996
68 0.01
-68 0.99
69 0.42
-69 0.5800000000000001
70 0.19
-70 0.81
71 0.89
-71 0.10999999999999999
72 0.95
-72 0.050000000000000044
73 0.21
-73 0.79
74 0.17
-74 0.83
75 0.35
-75 0.65
76 0.89
-76 0.10999999999999999
77 0.61
-77 0.39
78 0.72
-78 0.28
79 0.03
-79 0.97
80 0.23
-80 0.77
81 0.09
-81 0.91
82 0.9
-82 0.09999999999999998
83 0.96
-83 0.040000000000000036
84 0.93
-84 0.06999999999999995
85 0.94
-85 0.06000000000000005
86 0.98
-86 0.020000000000000018
87 0.58
-87 0.42000000000000004
88 0.27
-88 0.73
89 0.13
-89 0.87
90 0.26
-90 0.74
91 0.73
-91 0.27
92 0.8
-92 0.19999999999999996
93 0.36
-93 0.64
94 0.55
-94 0.44999999999999996
95 0.06
-95 0.94
96 0.59
-96 0.41000000000000003
97 0.45
-97 0.55
98 0.77
-98 0.22999999999999998
99 0.93
-99 0.06999999999999995
100 0.72
-100 0.28
