1 0.65
-1 0.35
2 0.63
-2 0.37
3 0.02
-3 0.98
4 0.73
-4 0.27
5 0.6
-5 0.4
6 0.89
-6 0.10999999999999999
7 0.08
-7 0.92
8 0.18
-8 0.8200000000000001
9 0.9
-9 0.09999999999999998
10 0.96
-10 0.040000000000000036
11 0.72
-11 0.28
12 0.69
-12 0.31000000000000005
13 0.18
-13 0.8200000000000001
14 0.76
-14 0.24
15 0.56
-15 0.43999999999999995
16 0.16
-16 0.84
17 0.26
-17 0.74
18 0.77
-18 0.22999999999999998
19 0.95
-19 0.050000000000000044
20 0.57
-20 0.43000000000000005
21 0.86
-21 0.14
22 0.11
-22 0.89
23 0.64
-23 0.36
24 0.72
-24 0.28
25 0.98
-25 0.020000000000000018
26 0.59
-26 0.41000000000000003
27 0.07
-27 0.9299999999999999
28 0.29
-28 0.71
29 0.44
-29 0.56
30 0.46
-30 0.54
31 0.99
-31 0.010000000000000009
32 0.19
-32 0.81
33 0.34
-33 0.6599999999999999
34 0.27
-34 0.73
35 0.21
-35 0.79
36 0.57
-36 0.43000000000000005
37 0.2
-37 0.8
38 0.65
-38 0.35
39 0.54
-39 0.45999999999999996
40 0.3
-40 0.7
41 0.41
-41 0.5900000000000001
42 0.86
-42 0.14
43 0.13
-43 0.87
44 0.02
-44 0.98
45 0.44
-45 0.56
46 0.02
-46 0.98
47 0.63
-47 0.37
48 0.52
-48 0.48
49 0.28
-49 0.72
50 0.16
-50 0.84
51 0.74
-51 0.26
52 0.47
-52 0.53
53 0.62
-53 0.38
54 0.8
-54 0.19999999999999996
55 0.69
-55 0.31000000000000005
56 0.49
-56 0.51
57 0.53
-57 0.47
58 0.93
-58 0.06999999999999995
59 0.82
-59 0.18000000000000005
60 0.15
-60 0.85
61 0.71
-61 0.29000000000000004
62 0.54
-62 0.45999999999999996
63 0.81
-63 0.18999999999999995
64 0.82
-64 0.18000000000000005
65 0.56
-65 0.43999999999999995
66 0.91
-66 0.08999999999999997
67 0.11
-67 0.89
68 0.61
-68 0.39
69 0.57
-69 0.43000000000000005
70 0.37
-70 0.63
71 0.71
-71 0.29000000000000004
72 0.11
-72 0.89
73 0.4
-73 0.6
74 0.6
-74 0.4
75 0.33
-75 0.6699999999999999
76 0.16
-76 0.84
77 0.7
-77 0.30000000000000004
78 0.72
-78 0.28
79 0.21
-79 0.79
80 0.24
-80 0.76
81 0.45
-81 0.55
82 0.51
-82 0.49
83 0.53
-83 0.47
84 0.46
-84 0.54
85 0.32
-85 0.6799999999999999
86 0.82
-86 0.18000000000000005
87 0.25
-87 0.75
88 0.76
-88 0.24
89 0.79
-89 0.20999999999999996
90 0.69
-90 0.31000000000000005
91 0.8
-91 0.19999999999999996
92 0.68
-92 0.31999999999999995
93 0.9
-93 0.09999999999999998
94 0.46
-94 0.54
95 0.18
-95 0.8200000000000001
96 0.19
-96 0.81
97 0.92
-97 0.07999999999999996
98 0.57
-98 0.43000000000000005
99 0.66
-99 0.33999999999999997
100 0.33
-100 0.6699999999999999
