1 0.02
-1 0.98
2 0.06
-2 0.94
3 0.77
-3 0.22999999999999998
4 0.66
-4 0.33999999999999997
5 0.46
-5 0.54
6 0.38
-6 0.62
7 0.85
-7 0.15000000000000002
8 0.22
-8 0.78
9 0.61
-9 0.39
10 0.81
-10 0.18999999999999995
11 0.73
-11 0.27
12 0.97
-12 0.030000000000000027
13 0.38
-13 0.62
14 0.17
-14 0.83
15 0.51
-15 0.49
16 0.76
-16 0.24
17 0.94
-17 0.06000000000000005
18 0.83
-18 0.17000000000000004
19 0.43
-19 0.5700000000000001
20 0.56
-20 0.43999999999999995
21 0.02
-21 0.98
22 0.98
-22 0.020000000000000018
23 0.61
-23 0.39
24 0.53
-24 0.47
25 0.3
-25 0.7
26 0.14
-26 0.86
27 0.01
-27 0.99
28 0.17
-28 0.83
29 0.11
-29 0.89
30 0.09
-30 0.91
31 0.93
-31 0.06999999999999995
32 0.55
-32 0.44999999999999996
33 0.77
-33 0.22999999999999998
34 0.87
-34 0.13
35 0.39
-35 0.61
36 0.42
-36 0.5800000000000001
37 0.91
-37 0.08999999999999997
38 0.66
-38 0.33999999999999997
39 0.79
-39 0.20999999999999996
40 0.84
-40 0.16000000000000003
41 0.16
-41 0.84
42 0.26
-42 0.74
43 0.53
-43 0.47
44 0.51
-44 0.49
45 0.53
-45 0.47
46 0.49
-46 0.51
47 0.81
-47 0.18999999999999995
48 0.55
-48 0.44999999999999996
49 0.98
-49 0.020000000000000018
50 0.96
-50 0.040000000000000036
51 0.75
-51 0.25
52 0.82
-52 0.18000000000000005
53 0.87
-53 0.13
54 0.47
-54 0.53
55 0.36
-55 0.64
56 0.83
-56 0.17000000000000004
57 0.61
-57 0.39
58 0.44
-58 0.56
59 0.79
-59 0.20999999999999996
60 0.66
-60 0.33999999999999997
61 0.33
-61 0.6699999999999999
62 0.22
-62 0.78
63 0.38
-63 0.62
64 0.57
-64 0.43000000000000005
65 0.84
-65 0.16000000000000003
66 0.93
-66 0.06999999999999995
67 0.4
-67 0.6
68 0.8
-68 0.19999999999999996
69 0.1
-69 0.9
70 0.55
-70 0.44999999999999996
71 0.48
-71 0.52
72 0.94
-72 0.06000000000000005
73 0.37
-73 0.63
74 0.27
-74 0.73
75 0.72
-75 0.28
76 0.06
-76 0.94
77 0.24
-77 0.76
78 0.67
-78 0.32999999999999996
79 0.07
-79 0.9299999999999999
80 0.65
-80 0.35
81 0.63
-81 0.37
82 0.58
-82 0.42000000000000004
83 0.75
-83 0.25
84 0.29
-84 0.71
85 0.92
-85 0.07999999999999996
86 0.91
-86 0.08999999999999997
87 0.38
-87 0.62
88 0.63
-88 0.37
89 0.74
-89 0.26
90 0.31
-90 0.69
91 0.81
-91 0.18999999999999995
92 0.91
-92 0.08999999999999997
93 0.34
-93 0.6599999999999999
94 0.97
-94 0.030000000000000027
95 0.46
-95 0.54
96 0.29
-96 0.71
97 0.76
-97 0.24
98 0.79
-98 0.20999999999999996
99 0.7
-99 0.30000000000000004
100 0.05
-100 0.95
