1 0.23
-1 0.77
2 0.98
-2 0.020000000000000018
3 0.6
-3 0.4
4 0.89
-4 0.10999999999999999
5 0.43
-5 0.5700000000000001
6 0.9
-6 0.09999999999999998
7 0.05
-7 0.95
8 0.74
-8 0.26
9 0.35
-9 0.65
10 0.44
-10 0.56
11 0.72
-11 0.28
12 0.12
-12 0.88
13 0.04
-13 0.96
14 0.03
-14 0.97
15 0.56
-15 0.43999999999999995
16 0.69
-16 0.31000000000000005
17 0.43
-17 0.5700000000000001
18 0.93
-18 0.06999999999999995
19 0.98
-19 0.020000000000000018
20 0.87
-20 0.13
21 0.78
-21 0.21999999999999997
22 0.42
-22 0.5800000000000001
23 0.16
-23 0.84
24 0.32
-24 0.6799999999999999
25 0.9
-25 0.09999999999999998
26 0.6
-26 0.4
27 0.28
-27 0.72
28 0.98
-28 0.020000000000000018
29 0.65
-29 0.35
30 0.55
-30 0.44999999999999996
31 0.94
-31 0.06000000000000005
32 0.16
-32 0.84
33 0.49
-33 0.51
34 0.24
-34 0.76
35 0.23
-35 0.77
36 0.77
-36 0.22999999999999998
37 0.29
-37 0.71
38 0.73
-38 0.27
39 0.84
-39 0.16000000000000003
40 0.99
-40 0.010000000000000009
41 0.39
-41 0.61
42 0.49
-42 0.51
43 0.15
-43 0.85
44 0.29
-44 0.71
45 0.44
-45 0.56
46 0.38
-46 0.62
47 0.27
-47 0.73
48 0.84
-48 0.16000000000000003
49 0.78
-49 0.21999999999999997
50 0.85
-50 0.15000000000000002
51 0.26
-51 0.74
52 0.44
-52 0.56
53 0.97
-53 0.030000000000000027
54 0.56
-54 0.43999999999999995
55 0.71
-55 0.29000000000000004
56 0.03
-56 0.97
57 0.38
-57 0.62
58 0.41
-58 0.5900000000000001
59 0.38
-59 0.62
60 0.93
-60 0.06999999999999995
61 0.43
-61 0.5700000000000001
62 0.64
-62 0.36
63 0.52
-63 0.48
64 0.35
-64 0.65
65 0.93
-65 0.06999999999999995
66 0.82
-66 0.18000000000000005
67 0.92
-67 0.07999999999999996
68 0.13
-68 0.87
69 0.83
-69 0.17000000000000004
70 0.45
-70 0.55
71 0.5
-71 0.5
72 0.6
-72 0.4
73 0.75
-73 0.25
74 0.45
-74 0.55
75 0.53
-75 0.47
76 0.67
-76 0.32999999999999996
77 0.1
-77 0.9
78 0.3
-78 0.7
79 0.84
-79 0.16000000000000003
80 0.37
-80 0.63
81 0.95
-81 0.050000000000000044
82 0.71
-82 0.29000000000000004
83 0.44
-83 0.56
84 0.27
-84 0.73
85 0.66
-85 0.33999999999999997
86 0.89
-86 0.10999999999999999
87 0.81
-87 0.18999999999999995
88 0.65
-88 0.35
89 0.24
-89 0.76
90 0.85
-90 0.15000000000000002
91 0.63
-91 0.37
92 0.75
-92 0.25
93 0.46
-93 0.54
94 0.44
-94 0.56
95 0.69
-95 0.31000000000000005
96 0.32
-96 0.6799999999999999
97 0.56
-97 0.43999999999999995
98 0.01
-98 0.99
99 0.32
-99 0.6799999999999999
100 0.21
-100 0.79
