1 0.78
-1 0.21999999999999997
2 0.28
-2 0.72
3 0.71
-3 0.29000000000000004
4 0.18
-4 0.8200000000000001
5 0.49
-5 0.51
6 0.13
-6 0.87
7 0.56
-7 0.43999999999999995
8 0.02
-8 0.98
9 0.43
-9 0.5700000000000001
10 0.78
-10 0.21999999999999997
11 0.97
-11 0.030000000000000027
12 0.14
-12 0.86
13 0.42
-13 0.5800000000000001
14 0.08
-14 0.92
15 0.08
-15 0.92
16 0.22
-16 0.78
17 0.06
-17 0.94
18 0.32
-18 0.6799999999999999
19 0.45
-19 0.55
20 0.8
-20 0.19999999999999996
21 0.8
-21 0.19999999999999996
22 0.88
-22 0.12
23 0.93
-23 0.06999999999999995
24 0.87
-24 0.13
25 0.71
-25 0.29000000000000004
26 0.34
-26 0.6599999999999999
27 0.47
-27 0.53
28 0.23
-28 0.77
29 0.22
-29 0.78
30 0.19
-30 0.81
31 0.24
-31 0.76
32 0.36
-32 0.64
33 0.11
-33 0.89
34 0.37
-34 0.63
35 0.12
-35 0.88
36 0.65
-36 0.35
37 0.93
-37 0.06999999999999995
38 0.48
-38 0.52
39 0.68
-39 0.31999999999999995
40 0.92
-40 0.07999999999999996
41 0.84
-41 0.16000000000000003
42 0.87
-42 0.13
43 0.32
-43 0.6799999999999999
44 0.25
-44 0.75
45 0.3
-45 0.7
46 0.81
-46 0.18999999999999995
47 0.98
-47 0.020000000000000018
48 0.86
-48 0.14
49 0.22
-49 0.78
50 0.56
-50 0.43999999999999995
51 0.76
-51 0.24
52 0.73
-52 0.27
53 0.35
-53 0.65
54 0.16
-54 0.84
55 0.97
-55 0.030000000000000027
56 0.7
-56 0.30000000000000004
57 0.47
-57 0.53
58 0.02
-58 0.98
59 0.2
-59 0.8
60 0.54
-60 0.45999999999999996
61 0.54
-61 0.45999999999999996
62 0.53
-62 0.47
63 0.33
-63 0.6699999999999999
64 0.6
-64 0.4
65 0.36
-65 0.64
66 0.28
-66 0.72
67 0.46
-67 0.54
68 0.41
-68 0.5900000000000001
69 0.84
-69 0.16000000000000003
70 0.55
-70 0.44999999999999996
71 0.99
-71 0.010000000000000009
72 0.06
-72 0.94
73 0.83
-73 0.17000000000000004
74 0.67
-74 0.32999999999999996
75 0.27
-75 0.73
76 0.21
-76 0.79
77 0.86
-77 0.14
78 0.24
-78 0.76
79 0.66
-79 0.33999999999999997
80 0.05
-80 0.95
81 0.19
-81 0.81
82 0.66
-82 0.33999999999999997
83 0.47
-83 0.53
84 0.75
-84 0.25
85 0.39
-85 0.61
86 0.67
-86 0.32999999999999996
87 0.97
-87 0.030000000000000027
88 0.89
-88 0.10999999999999999
89 0.09
-89 0.91
90 0.75
-90 0.25
91 0.54
-91 0.45999999999999996
92 0.22
-92 0.78
93 0.28
-93 0.72
94 0.28
-94 0.72
95 0.66
-95 0.33999999999999997
96 0.76
-96 0.24
97 0.99
-97 0.010000000000000009
98 0.62
-98 0.38
99 0.36
-99 0.64
100 0.44
-100 0.56
