1 0.89
-1 0.10999999999999999
2 0.83
-2 0.17000000000000004
3 0.65
-3 0.35
4 0.91
-4 0.08999999999999997
5 0.23
-5 0.77
6 0.11
-6 0.89
7 0.65
-7 0.35
8 0.3
-8 0.7
9 0.22
-9 0.78
10 0.61
-10 0.39
11 0.09
-11 0.91
12 0.77
-12 0.22999999999999998
13 0.04
-13 0.96
14 0.65
-14 0.35
15 0.46
-15 0.54
16 0.09
-16 0.91
17 0.09
-17 0.91
18 0.26
-18 0.74
19 0.3
-19 0.7
20 0.65
-20 0.35
21 0.35
-21 0.65
22 0.42
-22 0.5800000000000001
23 0.53
-23 0.47
24 0.16
-24 0.84
25 0.56
-25 0.43999999999999995
26 0.04
-26 0.96
27 0.53
-27 0.47
28 0.67
-28 0.32999999999999996
29 0.33
-29 0.6699999999999999
30 0.34
-30 0.6599999999999999
31 0.4
-31 0.6
32 0.96
-32 0.040000000000000036
33 0.81
-33 0.18999999999999995
34 0.61
-34 0.39
35 0.26
-35 0.74
36 0.42
-36 0.5800000000000001
37 0.76
-37 0.24
38 0.07
-38 0.9299999999999999
39 0.48
-39 0.52
40 0.99
-40 0.010000000000000009
41 0.55
-41 0.44999999999999996
42 0.33
-42 0.6699999999999999
43 0.71
-43 0.29000000000000004
44 0.89
-44 0.10999999999999999
45 0.72
-45 0.28
46 0.79
-46 0.20999999999999996
47 0.57
-47 0.43000000000000005
48 0.17
-48 0.83
49 0.17
-49 0.83
50 0.28
-50 0.72
51 0.83
-51 0.17000000000000004
52 0.15
-52 0.85
53 0.86
-53 0.14
54 0.31
-54 0.69
55 0.04
-55 0.96
56 0.53
-56 0.47
57 0.18
-57 0.8200000000000001
58 0.47
-58 0.53
59 0.48
-59 0.52
60 0.52
-60 0.48
61 0.59
-61 0.41000000000000003
62 0.33
-62 0.6699999999999999
63 0.74
-63 0.26
64 0.21
-64 0.79
65 0.12
-65 0.88
66 0.04
-66 0.96
67 0.06
-67 0.94
68 0.92
-68 0.07999999999999996
69 0.36
-69 0.64
70 0.38
-70 0.62
71 0.19
-71 0.81
72 0.99
-72 0.010000000000000009
73 0.85
-73 0.15000000000000002
74 0.6
-74 0.4
75 0.69
-75 0.31000000000000005
76 0.51
-76 0.49
77 0.56
-77 0.43999999999999995
78 0.52
-78 0.48
79 0.4
-79 0.6
80 0.7
-80 0.30000000000000004
81 0.71
-81 0.29000000000000004
82 0.24
-82 0.76
83 0.7
-83 0.30000000000000004
84 0.86
-84 0.14
85 0.23
-85 0.77
86 0.42
-86 0.5800000000000001
87 0.35
-87 0.65
88 0.71
-88 0.29000000000000004
89 0.93
-89 0.06999999999999995
90 0.5
-90 0.5
91 0.69
-91 0.31000000000000005
92 0.75
-92 0.25
93 0.3
-93 0.7
94 0.04
-94 0.96
95 0.68
-95 0.31999999999999995
96 0.5
-96 0.5
97 0.04
-97 0.96
98 0.17
-98 0.83
99 0.53
-99 0.47
100 0.73
-100 0.27
