1 0.53
-1 0.47
2 0.14
-2 0.86
3 0.45
-3 0.55
4 0.13
-4 0.87
5 0.52
-5 0.48
6 0.77
-6 0.22999999999999998
7 0.32
-7 0.6799999999999999
8 0.93
-8 0.06999999999999995
9 0.84
-9 0.16000000000000003
10 0.52
-10 0.48
11 0.73
-11 0.27
12 0.38
-12 0.62
13 0.29
-13 0.71
14 0.59
-14 0.41000000000000003
15 0.21
-15 0.79
16 0.41
-16 0.5900000000000001
17 0.16
-17 0.84
18 0.55
-18 0.44999999999999996
19 0.12
-19 0.88
20 0.26
-20 0.74
21 0.75
-21 0.25
22 0.91
-22 0.08999999999999997
23 0.02
-23 0.98
24 0.44
-24 0.56
25 0.63
-25 0.37
26 0.04
-26 0.96
27 0.89
-27 0.10999999999999999
28 0.19
-28 0.81
29 0.89
-29 0.10999999999999999
30 0.73
-30 0.27
31 0.22
-31 0.78
32 0.59
-32 0.41000000000000003
33 0.51
-33 0.49
34 0.6
-34 0.4
35 0.7
-35 0.30000000000000004
36 0.25
-36 0.75
37 0.86
-37 0.14
38 0.07
-38 0.9299999999999999
39 0.41
-39 0.5900000000000001
40 0.28
-40 0.72
41 0.77
-41 0.22999999999999998
42 0.12
-42 0.88
43 0.37
-43 0.63
44 0.31
-44 0.69
45 0.08
-45 0.92
46 0.86
-46 0.14
47 0.9
-47 0.09999999999999998
48 0.5
-48 0.5
49 0.86
-49 0.14
50 0.95
-50 0.050000000000000044
51 0.19
-51 0.81
52 0.57
-52 0.43000000000000005
53 0.44
-53 0.56
54 0.76
-54 0.24
55 0.45
-55 0.55
56 0.64
-56 0.36
57 0.36
-57 0.64
58 0.07
-58 0.9299999999999999
59 0.3
-59 0.7
60 0.96
-60 0.040000000000000036
61 0.14
-61 0.86
62 0.54
-62 0.45999999999999996
63 0.8
-63 0.19999999999999996
64 0.09
-64 0.91
65 0.29
-65 0.71
66 0.92
-66 0.07999999999999996
67 0.64
-67 0.36
68 0.91
-68 0.08999999999999997
69 0.94
-69 0.06000000000000005
70 0.64
-70 0.36
71 0.62
-71 0.38
72 0.79
-72 0.20999999999999996
73 0.97
-73 0.030000000000000027
74 0.53
-74 0.47
75 0.4
-75 0.6
76 0.98
-76 0.020000000000000018
77 0.24
-77 0.76
78 0.34
-78 0.6599999999999999
79 0.51
-79 0.49
80 0.08
-80 0.92
81 0.7
-81 0.30000000000000004
82 0.19
-82 0.81
83 0.81
-83 0.18999999999999995
84 0.01
-84 0.99
85 0.57
-85 0.43000000000000005
86 0.14
-86 0.86
87 0.54
-87 0.45999999999999996
88 0.52
-88 0.48
89 0.41
-89 0.5900000000000001
90 0.75
-90 0.25
91 0.12
-91 0.88
92 0.87
-92 0.13
93 0.29
-93 0.71
94 0.7
-94 0.30000000000000004
95 0.95
-95 0.050000000000000044
96 0.4
-96 0.6
97 0.34
-97 0.6599999999999999
98 0.39
-98 0.61
99 0.66
-99 0.33999999999999997
100 0.46
-100 0.54
