1 0.55
-1 0.44999999999999996
2 0.44
-2 0.56
3 0.38
-3 0.62
4 0.91
-4 0.08999999999999997
5 0.37
-5 0.63
6 0.1
-6 0.9
7 0.83
-7 0.17000000000000004
8 0.51
-8 0.49
9 0.48
-9 0.52
10 0.61
-10 0.39
11 0.33
-11 0.6699999999999999
12 0.86
-12 0.14
13 0.94
-13 0.06000000000000005
14 0.81
-14 0.18999999999999995
15 0.56
-15 0.43999999999999995
16 0.92
-16 0.07999999999999996
17 0.09
-17 0.91
18 0.11
-18 0.89
19 0.69
-19 0.31000000000000005
20 0.88
-20 0.12
21 0.21
-21 0.79
22 0.52
-22 0.48
23 0.95
-23 0.050000000000000044
24 0.76
-24 0.24
25 0.73
-25 0.27
26 0.71
-26 0.29000000000000004
27 0.37
-27 0.63
28 0.56
-28 0.43999999999999995
29 0.4
-29 0.6
30 0.97
-30 0.030000000000000027
31 0.8
-31 0.19999999999999996
32 0.62
-32 0.38
33 0.94
-33 0.06000000000000005
34 0.35
-34 0.65
35 0.43
-35 0.5700000000000001
36 0.71
-36 0.29000000000000004
37 0.82
-37 0.18000000000000005
38 0.19
-38 0.81
39 0.59
-39 0.41000000000000003
40 0.13
-40 0.87
41 0.69
-41 0.31000000000000005
42 0.35
-42 0.65
43 0.88
-43 0.12
44 0.84
-44 0.16000000000000003
45 0.89
-45 0.10999999999999999
46 0.63
-46 0.37
47 0.29
-47 0.71
48 0.68
-48 0.31999999999999995
49 0.27
-49 0.73
50 0.9
-50 0.09999999999999998
51 0.27
-51 0.73
52 0.23
-52 0.77
53 0.97
-53 0.030000000000000027
54 0.13
-54 0.87
55 0.59
-55 0.41000000000000003
56 0.38
-56 0.62
57 0.89
-57 0.10999999999999999
58 0.45
-58 0.55
59 0.49
-59 0.51
60 0.74
-60 0.26
61 0.86
-61 0.14
62 0.76
-62 0.24
63 0.09
-63 0.91
64 0.97
-64 0.030000000000000027
65 0.03
-65 0.97
66 0.67
-66 0.32999999999999996
67 0.86
-67 0.14
68 0.77
-68 0.22999999999999998
69 0.41
-69 0.5900000000000001
70 0.02
-70 0.98
71 0.27
-71 0.73
72 0.94
-72 0.06000000000000005
73 0.92
-73 0.07999999999999996
74 0.13
-74 0.87
75 0.8
-75 0.19999999999999996
76 0.19
-76 0.81
77 0.27
-77 0.73
78 0.83
-78 0.17000000000000004
79 0.04
-79 0.96
80 0.8
-80 0.19999999999999996
81 0.42
-81 0.5800000000000001
82 0.5
-82 0.5
83 0.01
-83 0.99
84 0.67
-84 0.32999999999999996
85 0.29
-85 0.71
86 0.58
-86 0.42000000000000004
87 0.69
-87 0.31000000000000005
88 0.2
-88 0.8
89 0.62
-89 0.38
90 0.76
-90 0.24
91 0.48
-91 0.52
92 0.55
-92 0.44999999999999996
93 0.45
-93 0.55
94 0.53
-94 0.47
95 0.27
-95 0.73
96 0.86
-96 0.14
97 0.78
-97 0.21999999999999997
98 0.57
-98 0.43000000000000005
99 0.12
-99 0.88
100 0.68
-100 0.31999999999999995
