1 0.21
-1 0.79
2 0.46
-2 0.54
3 0.49
-3 0.51
4 0.3
-4 0.7
5 0.72
-5 0.28
6 0.31
-6 0.69
7 0.13
-7 0.87
8 0.34
-8 0.6599999999999999
9 0.05
-9 0.95
10 0.52
-10 0.48
11 0.37
-11 0.63
12 0.73
-12 0.27
13 0.9
-13 0.09999999999999998
14 0.31
-14 0.69
15 0.27
-15 0.73
16 0.15
-16 0.85
17 0.23
-17 0.77
18 0.45
-18 0.55
19 0.46
-19 0.54
20 0.09
-20 0.91
21 0.99
-21 0.010000000000000009
22 0.36
-22 0.64
23 0.26
-23 0.74
24 0.55
-24 0.44999999999999996
25 0.72
-25 0.28
26 0.03
-26 0.97
27 0.83
-27 0.17000000000000004
28 0.77
-28 0.22999999999999998
29 0.65
-29 0.35
30 0.17
-30 0.83
31 0.93
-31 0.06999999999999995
32 0.99
-32 0.010000000000000009
33 0.06
-33 0.94
34 0.57
-34 0.43000000000000005
35 0.03
-35 0.97
36 0.03
-36 0.97
37 0.5
-37 0.5
38 0.83
-38 0.17000000000000004
39 0.77
-39 0.22999999999999998
40 0.48
-40 0.52
41 0.31
-41 0.69
42 0.71
-42 0.29000000000000004
43 0.96
-43 0.040000000000000036
44 0.91
-44 0.08999999999999997
45 0.28
-45 0.72
46 0.07
-46 0.9299999999999999
47 0.74
-47 0.26
48 0.49
-48 0.51
49 0.89
-49 0.10999999999999999
50 0.96
-50 0.040000000000000036
51 0.91
-51 0.08999999999999997
52 0.18
-52 0.8200000000000001
53 0.72
-53 0.28
54 0.05
-54 0.95
55 0.82
-55 0.18000000000000005
56 0.96
-56 0.040000000000000036
57 0.28
-57 0.72
58 0.09
-58 0.91
59 0.24
-59 0.76
60 0.55
-60 0.44999999999999996
61 0.65
-61 0.35
62 0.12
-62 0.88
63 0.51
-63 0.49
64 0.96
-64 0.040000000000000036
65 0.29
-65 0.71
66 0.97
-66 0.030000000000000027
67 0.6
-67 0.4
68 0.93
-68 0.06999999999999995
69 0.05
-69 0.95
70 0.82
-70 0.18000000000000005
71 0.31
-71 0.69
72 0.59
-72 0.41000000000000003
73 0.26
-73 0.74
74 0.3
-74 0.7
75 0.46
-75 0.54
76 0.02
-76 0.98
77 0.01
-77 0.99
78 0.61
-78 0.39
79 0.32
-79 0.6799999999999999
80 0.8
-80 0.19999999999999996
81 0.39
-81 0.61
82 0.42
-82 0.5800000000000001
83 0.72
-83 0.28
84 0.7
-84 0.30000000000000004
85 0.41
-85 0.5900000000000001
86 0.42
-86 0.5800000000000001
87 0.34
-87 0.6599999999999999
88 0.34
-88 0.6599999999999999
89 0.81
-89 0.18999999999999995
90 0.53
-90 0.47
91 0.97
-91 0.030000000000000027
92 0.19
-92 0.81
93 0.49
-93 0.51
94 0.97
-94 0.030000000000000027
95 0.85
-95 0.15000000000000002
96 0.99
-96 0.010000000000000009
97 0.19
-97 0.81
98 0.57
-98 0.43000000000000005
99 0.25
-99 0.75
100 0.41
-100 0.5900000000000001
