1 0.18
-1 0.8200000000000001
2 0.04
-2 0.96
3 0.98
-3 0.020000000000000018
4 0.37
-4 0.63
5 0.77
-5 0.22999999999999998
6 0.74
-6 0.26
7 0.97
-7 0.030000000000000027
8 0.21
-8 0.79
9 0.49
-9 0.51
10 0.31
-10 0.69
11 0.62
-11 0.38
12 0.44
-12 0.56
13 0.71
-13 0.29000000000000004
14 0.09
-14 0.91
15 0.24
-15 0.76
16 0.52
-16 0.48
17 0.95
-17 0.050000000000000044
18 0.03
-18 0.97
19 0.79
-19 0.20999999999999996
20 0.42
-20 0.5800000000000001
21 0.03
-21 0.97
22 0.46
-22 0.54
23 0.5
-23 0.5
24 0.99
-24 0.010000000000000009
25 0.91
-25 0.08999999999999997
26 0.76
-26 0.24
27 0.49
-27 0.51
28 0.58
-28 0.42000000000000004
29 0.57
-29 0.43000000000000005
30 0.43
-30 0.5700000000000001
31 0.7
-31 0.30000000000000004
32 0.5
-32 0.5
33 0.48
-33 0.52
34 0.83
-34 0.17000000000000004
35 0.69
-35 0.31000000000000005
36 0.35
-36 0.65
37 0.09
-37 0.91
38 0.39
-38 0.61
39 0.28
-39 0.72
40 0.37
-40 0.63
41 0.46
-41 0.54
42 0.25
-42 0.75
43 0.96
-43 0.040000000000000036
44 0.9
-44 0.09999999999999998
45 0.97
-45 0.030000000000000027
46 0.36
-46 0.64
47 0.99
-47 0.010000000000000009
48 0.13
-48 0.87
49 0.03
-49 0.97
50 0.42
-50 0.5800000000000001
51 0.44
-51 0.56
52 0.32
-52 0.6799999999999999
53 0.21
-53 0.79
54 0.43
-54 0.5700000000000001
55 0.34
-55 0.6599999999999999
56 0.1
-56 0.9
57 0.96
-57 0.040000000000000036
58 0.1
-58 0.9
59 0.32
-59 0.6799999999999999
60 0.73
-60 0.27
61 0.33
-61 0.6699999999999999
62 0.05
-62 0.95
63 0.46
-63 0.54
64 0.11
-64 0.89
65 0.2
-65 0.8
66 0.72
-66 0.28
67 0.07
-67 0.9299999999999999
68 0.94
-68 0.06000000000000005
69 0.75
-69 0.25
70 0.21
-70 0.79
71 0.6
-71 0.4
72 0.55
-72 0.44999999999999996
73 0.75
-73 0.25
74 0.93
-74 0.06999999999999995
75 0.89
-75 0.10999999999999999
76 0.04
-76 0.96
77 0.33
-77 0.6699999999999999
78 0.86
-78 0.14
79 0.72
-79 0.28
80 0.5
-80 0.5
81 0.31
-81 0.69
82 0.86
-82 0.14
83 0.16
-83 0.84
84 0.15
-84 0.85
85 0.49
-85 0.51
86 0.08
-86 0.92
87 0.46
-87 0.54
88 0.67
-88 0.32999999999999996
89 0.53
-89 0.47
90 0.54
-90 0.45999999999999996
91 0.32
-91 0.6799999999999999
92 0.83
-92 0.17000000000000004
93 0.5
-93 0.5
94 0.51
-94 0.49
95 0.59
-95 0.41000000000000003
96 0.85
-96 0.15000000000000002
97 0.62
-97 0.38
98 0.35
-98 0.65
99 0.65
-99 0.35
100 0.31
-100 0.69
