1 0.22
-1 0.78
2 0.71
-2 0.29000000000000004
3 0.55
-3 0.44999999999999996
4 0.34
-4 0.6599999999999999
5 0.2
-5 0.8
6 0.65
-6 0.35
7 0.02
-7 0.98
8 0.52
-8 0.48
9 0.15
-9 0.85
10 0.6
-10 0.4
11 0.8
-11 0.19999999999999996
12 0.98
-12 0.020000000000000018
13 0.83
-13 0.17000000000000004
14 0.97
-14 0.030000000000000027
15 0.88
-15 0.12
16 0.2
-16 0.8
17 0.02
-17 0.98
18 0.95
-18 0.050000000000000044
19 0.58
-19 0.42000000000000004
20 0.12
-20 0.88
21 0.45
-21 0.55
22 0.59
-22 0.41000000000000003
23 0.1
-23 0.9
24 0.61
-24 0.39
25 0.06
-25 0.94
26 0.65
-26 0.35
27 0.99
-27 0.010000000000000009
28 0.97
-28 0.030000000000000027
29 0.98
-29 0.020000000000000018
30 0.78
-30 0.21999999999999997
31 0.17
-31 0.83
32 0.36
-32 0.64
33 0.05
-33 0.95
34 0.14
-34 0.86
35 0.92
-35 0.07999999999999996
36 0.75
-36 0.25
37 0.02
-37 0.98
38 0.39
-38 0.61
39 0.48
-39 0.52
40 0.35
-40 0.65
41 0.81
-41 0.18999999999999995
42 0.15
-42 0.85
43 0.43
-43 0.5700000000000001
44 0.7
-44 0.30000000000000004
45 0.51
-45 0.49
46 0.36
-46 0.64
47 0.42
-47 0.5800000000000001
48 0.55
-48 0.44999999999999996
49 0.42
-49 0.5800000000000001
50 0.6
-50 0.4
51 0.73
-51 0.27
52 0.59
-52 0.41000000000000003
53 0.52
-53 0.48
54 0.51
-54 0.49
55 0.17
-55 0.83
56 0.64
-56 0.36
57 0.98
-57 0.020000000000000018
58 0.51
-58 0.49
59 0.48
-59 0.52
60 0.49
-60 0.51
61 0.2
-61 0.8
62 0.74
-62 0.26
63 0.38
-63 0.62
64 0.12
-64 0.88
65 0.35
-65 0.65
66 0.56
-66 0.43999999999999995
67 0.85
-67 0.15000000000000002
68 0.98
-68 0.020000000000000018
69 0.06
-69 0.94
70 0.43
-70 0.5700000000000001
71 0.69
-71 0.31000000000000005
72 0.82
-72 0.18000000000000005
73 0.98
-73 0.020000000000000018
74 0.41
-74 0.5900000000000001
75 0.77
-75 0.22999999999999998
76 0.04
-76 0.96
77 0.82
-77 0.18000000000000005
78 0.04
-78 0.96
79 0.61
-79 0.39
80 0.45
-80 0.55
81 0.58
-81 0.42000000000000004
82 0.79
-82 0.20999999999999996
83 0.37
-83 0.63
84 0.49
-84 0.51
85 0.62
-85 0.38
86 0.72
-86 0.28
87 0.03
-87 0.97
88 0.85
-88 0.15000000000000002
89 0.68
-89 0.31999999999999995
90 0.91
-90 0.08999999999999997
91 0.85
-91 0.15000000000000002
92 0.62
-92 0.38
93 0.2
-93 0.8
94 0.66
-94 0.33999999999999997
95 0.5
-95 0.5
96 0.95
-96 0.050000000000000044
97 0.1
-97 0.9
98 0.12
-98 0.88
99 0.62
-99 0.38
100 0.64
-100 0.36
