1 0.96
-1 0.040000000000000036
2 0.58
-2 0.42000000000000004
3 0.06
-3 0.94
4 0.15
-4 0.85
5 0.4
-5 0.6
6 0.66
-6 0.33999999999999997
7 0.36
-7 0.64
8 0.88
-8 0.12
9 0.75
-9 0.25
10 0.93
-10 0.06999999999999995
11 0.39
-11 0.61
12 0.99
-12 0.010000000000000009
13 0.55
-13 0.44999999999999996
14 0.85
-14 0.15000000000000002
15 0.24
-15 0.76
16 0.83
-16 0.17000000000000004
17 0.44
-17 0.56
18 0.67
-18 0.32999999999999996
19 0.76
-19 0.24
20 0.8
-20 0.19999999999999996
21 0.02
-21 0.98
22 0.14
-22 0.86
23 0.99
-23 0.010000000000000009
24 0.74
-24 0.26
25 0.23
-25 0.77
26 0.27
-26 0.73
27 0.44
-27 0.56
28 0.37
-28 0.63
29 0.34
-29 0.6599999999999999
30 0.48
-30 0.52
31 0.71
-31 0.29000000000000004
32 0.25
-32 0.75
33 0.59
-33 0.41000000000000003
34 0.52
-34 0.48
35 0.17
-35 0.83
36 0.45
-36 0.55
37 0.47
-37 0.53
38 0.56
-38 0.43999999999999995
39 0.89
-39 0.10999999999999999
40 0.75
-40 0.25
41 0.2
-41 0.8
42 0.22
-42 0.78
43 0.85
-43 0.15000000000000002
44 0.91
-44 0.08999999999999997
45 0.07
-45 0.9299999999999999
46 0.82
-46 0.18000000000000005
47 0.61
-47 0.39
48 0.77
-48 0.22999999999999998
49 0.16
-49 0.84
50 0.59
-50 0.41000000000000003
51 0.13
-51 0.87
52 0.17
-52 0.83
53 0.26
-53 0.74
54 0.78
-54 0.21999999999999997
55 0.97
-55 0.030000000000000027
56 0.57
-56 0.43000000000000005
57 0.15
-57 0.85
58 0.93
-58 0.06999999999999995
59 0.65
-59 0.35
60 0.84
-60 0.16000000000000003
61 0.27
-61 0.73
62 0.8
-62 0.19999999999999996
63 0.5
-63 0.5
64 0.5
-64 0.5
65 0.47
-65 0.53
66 0.58
-66 0.42000000000000004
67 0.21
-67 0.79
68 0.93
-68 0.06999999999999995
69 0.68
-69 0.31999999999999995
70 0.22
-70 0.78
71 0.54
-71 0.45999999999999996
72 0.41
-72 0.5900000000000001
73 0.38
-73 0.62
74 0.65
-74 0.35
75 0.5
-75 0.5
76 0.42
-76 0.5800000000000001
77 0.89
-77 0.10999999999999999
78 0.59
-78 0.41000000000000003
79 0.14
-79 0.86
80 0.66
-80 0.33999999999999997
81 0.8
-81 0.19999999999999996
82 0.18
-82 0.8200000000000001
83 0.02
-83 0.98
84 0.43
-84 0.5700000000000001
85 0.05
-85 0.95
86 0.91
-86 0.08999999999999997
87 0.59
-87 0.41000000000000003
88 0.24
-88 0.76
89 0.33
-89 0.6699999999999999
90 0.97
-90 0.030000000000000027
91 0.56
-91 0.43999999999999995
92 0.06
-92 0.94
93 0.84
-93 0.16000000000000003
94 0.87
-94 0.13
95 0.88
-95 0.12
96 0.74
-96 0.26
97 0.54
-97 0.45999999999999996
98 0.54
-98 0.45999999999999996
99 0.26
-99 0.74
100 0.34
-100 0.6599999999999999
