1 0.08
-1 0.92
2 0.92
-2 0.07999999999999996
3 0.73
-3 0.27
4 0.55
-4 0.44999999999999996
5 0.44
-5 0.56
6 0.7
-6 0.30000000000000004
7 0.93
-7 0.06999999999999995
8 0.03
-8 0.97
9 0.99
-9 0.010000000000000009
10 0.59
-10 0.41000000000000003
11 0.38
-11 0.62
12 0.52
-12 0.48
13 0.34
-13 0.6599999999999999
14 0.77
-14 0.22999999999999998
15 0.5
-15 0.5
16 0.31
-16 0.69
17 0.66
-17 0.33999999999999997
18 0.19
-18 0.81
19 0.77
-19 0.22999999999999998
20 0.15
-20 0.85
21 0.62
-21 0.38
22 0.01
-22 0.99
23 0.42
-23 0.5800000000000001
24 0.41
-24 0.5900000000000001
25 0.11
-25 0.89
26 0.02
-26 0.98
27 0.84
-27 0.16000000000000003
28 0.13
-28 0.87
29 0.6
-29 0.4
30 0.03
-30 0.97
31 0.12
-31 0.88
32 0.35
-32 0.65
33 0.97
-33 0.030000000000000027
34 0.54
-34 0.45999999999999996
35 0.92
-35 0.07999999999999996
36 0.41
-36 0.5900000000000001
37 0.37
-37 0.63
38 0.77
-38 0.22999999999999998
39 0.43
-39 0.5700000000000001
40 0.02
-40 0.98
41 0.74
-41 0.26
42 0.38
-42 0.62
43 0.19
-43 0.81
44 0.34
-44 0.6599999999999999
45 0.91
-45 0.08999999999999997
46 0.18
-46 0.8200000000000001
47 0.53
-47 0.47
48 0.39
-48 0.61
49 0.72
-49 0.28
50 0.21
-50 0.79
51 0.26
-51 0.74
52 0.68
-52 0.31999999999999995
53 0.36
-53 0.64
54 0.36
-54 0.64
55 0.78
-55 0.21999999999999997
56 0.56
-56 0.43999999999999995
57 0.49
-57 0.51
58 0.59
-58 0.41000000000000003
59 0.68
-59 0.31999999999999995
60 0.73
-60 0.27
61 0.85
-61 0.15000000000000002
62 0.07
-62 0.9299999999999999
63 0.21
-63 0.79
64 0.49
-64 0.51
65 0.47
-65 0.53
66 0.33
-66 0.6699999999999999
67 0.19
-67 0.81
68 0.37
-68 0.63
69 0.12
-69 0.88
70 0.09
-70 0.91
71 0.35
-71 0.65
72 0.54
-72 0.45999999999999996
73 0.74
-73 0.26
74 0.77
-74 0.22999999999999998
75 0.78
-75 0.21999999999999997
76 0.23
-76 0.77
77 0.46
-77 0.54
78 0.36
-78 0.64
79 0.77
-79 0.22999999999999998
80 0.36
-80 0.64
81 0.94
-81 0.06000000000000005
82 0.58
-82 0.42000000000000004
83 0.97
-83 0.030000000000000027
84 0.57
-84 0.43000000000000005
85 0.35
-85 0.65
86 0.76
-86 0.24
87 0.84
-87 0.16000000000000003
88 0.66
-88 0.33999999999999997
89 0.8
-89 0.19999999999999996
90 0.63
-90 0.37
91 0.75
-91 0.25
92 0.04
-92 0.96
93 0.95
-93 0.050000000000000044
94 0.56
-94 0.43999999999999995
95 0.56
-95 0.43999999999999995
96 0.38
-96 0.62
97 0.81
-97 0.18999999999999995
98 0.4
-98 0.6
99 0.61
-99 0.39
100 0.5
-100 0.5
