1 0.73
-1 0.27
2 0.47
-2 0.53
3 0.36
-3 0.64
4 0.12
-4 0.88
5 0.07
-5 0.9299999999999999
6 0.88
-6 0.12
7 0.61
-7 0.39
8 0.24
-8 0.76
9 0.33
-9 0.6699999999999999
10 0.58
-10 0.42000000000000004
11 0.42
-11 0.5800000000000001
12 0.15
-12 0.85
13 0.05
-13 0.95
14 0.21
-14 0.79
15 0.22
-15 0.78
16 0.29
-16 0.71
17 0.46
-17 0.54
18 0.85
-18 0.15000000000000002
19 0.75
-19 0.25
20 0.07
-20 0.9299999999999999
21 0.84
-21 0.16000000000000003
22 0.55
-22 0.44999999999999996
23 0.55
-23 0.44999999999999996
24 0.9
-24 0.09999999999999998
25 0.76
-25 0.24
26 0.01
-26 0.99
27 0.54
-27 0.45999999999999996
28 0.71
-28 0.29000000000000004
29 0.99
-29 0.010000000000000009
30 0.17
-30 0.83
31 0.68
-31 0.31999999999999995
32 0.02
-32 0.98
33 0.71
-33 0.29000000000000004
34 0.72
-34 0.28
35 0.8
-35 0.19999999999999996
36 0.88
-36 0.12
37 0.5
-37 0.5
38 0.5
-38 0.5
39 0.64
-39 0.36
40 0.89
-40 0.10999999999999999
41 0.52
-41 0.48
42 0.91
-42 0.08999999999999997
43 0.13
-43 0.87
44 0.99
-44 0.010000000000000009
45 0.96
-45 0.040000000000000036
46 0.85
-46 0.15000000000000002
47 0.33
-47 0.6699999999999999
48 0.31
-48 0.69
49 0.53
-49 0.47
50 0.17
-50 0.83
51 0.73
-51 0.27
52 0.09
-52 0.91
53 0.3
-53 0.7
54 0.58
-54 0.42000000000000004
55 0.06
-55 0.94
56 0.52
-56 0.48
57 0.26
-57 0.74
58 0.64
-58 0.36
59 0.33
-59 0.6699999999999999
60 0.47
-60 0.53
61 0.76
-61 0.24
62 0.6
-62 0.4
63 0.56
-63 0.43999999999999995
64 0.76
-64 0.24
65 0.98
-65 0.020000000000000018
66 0.73
-66 0.27
67 0.08
-67 0.92
68 0.76
-68 0.24
69 0.14
-69 0.86
70 0.47
-70 0.53
71 0.78
-71 0.21999999999999997
72 0.85
-72 0.15000000000000002
73 0.13
-73 0.87
74 0.76
-74 0.24
75 0.81
-75 0.18999999999999995
76 0.05
-76 0.95
77 0.81
-77 0.18999999999999995
78 0.29
-78 0.71
79 0.53
-79 0.47
80 0.1
-80 0.9
81 0.72
-81 0.28
82 0.92
-82 0.07999999999999996
83 0.15
-83 0.85
84 0.92
-84 0.07999999999999996
85 0.43
-85 0.5700000000000001
86 0.46
-86 0.54
87 0.47
-87 0.53
88 0.27
-88 0.73
89 0.64
-89 0.36
90 0.44
-90 0.56
91 0.51
-91 0.49
92 0.53
-92 0.47
93 0.92
-93 0.07999999999999996
94 0.95
-94 0.050000000000000044
95 0.77
-95 0.22999999999999998
96 0.09
-96 0.91
97 0.01
-97 0.99
98 0.7
-98 0.30000000000000004
99 0.34
-99 0.6599999999999999
100 0.18
-100 0.8200000000000001
