1 0.17
-1 0.83
2 0.43
-2 0.5700000000000001
3 0.97
-3 0.030000000000000027
4 0.64
-4 0.36
5 0.36
-5 0.64
6 0.22
-6 0.78
7 0.81
-7 0.18999999999999995
8 0.22
-8 0.78
9 0.07
-9 0.9299999999999999
10 0.27
-10 0.73
11 0.11
-11 0.89
12 0.07
-12 0.9299999999999999
13 0.35
-13 0.65
14 0.57
-14 0.43000000000000005
15 0.17
-15 0.83
16 0.09
-16 0.91
17 0.84
-17 0.16000000000000003
18 0.56
-18 0.43999999999999995
19 0.15
-19 0.85
20 0.55
-20 0.44999999999999996
21 0.33
-21 0.6699999999999999
22 0.1
-22 0.9
23 0.02
-23 0.98
24 0.07
-24 0.9299999999999999
25 0.53
-25 0.47
26 0.65
-26 0.35
27 0.62
-27 0.38
28 0.32
-28 0.6799999999999999
29 0.16
-29 0.84
30 0.95
-30 0.050000000000000044
31 0.43
-31 0.5700000000000001
32 0.23
-32 0.77
33 0.24
-33 0.76
34 0.04
-34 0.96
35 0.92
-35 0.07999999999999996
36 0.32
-36 0.6799999999999999
37 0.38
-37 0.62
38 0.85
-38 0.15000000000000002
39 0.29
-39 0.71
40 0.33
-40 0.6699999999999999
41 0.52
-41 0.48
42 0.91
-42 0.08999999999999997
43 0.66
-43 0.33999999999999997
44 0.88
-44 0.12
45 0.83
-45 0.17000000000000004
46 0.71
-46 0.29000000000000004
47 0.81
-47 0.18999999999999995
48 0.99
-48 0.010000000000000009
49 0.91
-49 0.08999999999999997
50 0.77
-50 0.22999999999999998
51 0.81
-51 0.18999999999999995
52 0.84
-52 0.16000000000000003
53 0.45
-53 0.55
54 0.98
-54 0.020000000000000018
55 0.48
-55 0.52
56 0.31
-56 0.69
57 0.47
-57 0.53
58 0.45
-58 0.55
59 0.8
-59 0.19999999999999996
60 0.14
-60 0.86
61 0.99
-61 0.010000000000000009
62 0.12
-62 0.88
63 0.99
-63 0.010000000000000009
64 0.46
-64 0.54
65 0.13
-65 0.87
66 0.09
-66 0.91
67 0.1
-67 0.9
68 0.87
-68 0.13
69 0.16
-69 0.84
70 0.63
-70 0.37
71 0.53
-71 0.47
72 0.23
-72 0.77
73 0.73
-73 0.27
74 0.89
-74 0.10999999999999999
75 0.88
-75 0.12
76 0.81
-76 0.18999999999999995
77 0.29
-77 0.71
78 0.09
-78 0.91
79 0.58
-79 0.42000000000000004
80 0.37
-80 0.63
81 0.01
-81 0.99
82 0.23
-82 0.77
83 0.56
-83 0.43999999999999995
84 0.25
-84 0.75
85 0.7
-85 0.30000000000000004
86 0.24
-86 0.76
87 0.28
-87 0.72
88 0.16
-88 0.84
89 0.77
-89 0.22999999999999998
90 0.01
-90 0.99
91 0.97
-91 0.030000000000000027
92 0.57
-92 0.43000000000000005
93 0.41
-93 0.5900000000000001
94 0.05
-94 0.95
95 0.7
-95 0.30000000000000004
96 0.85
-96 0.15000000000000002
97 0.11
-97 0.89
98 0.42
-98 0.5800000000000001
99 0.58
-99 0.42000000000000004
100 0.17
-100 0.83
