1 0.43
-1 0.5700000000000001
2 0.1
-2 0.9
3 0.06
-3 0.94
4 0.45
-4 0.55
5 0.66
-5 0.33999999999999997
6 0.15
-6 0.85
7 0.64
-7 0.36
8 0.99
-8 0.010000000000000009
9 0.24
-9 0.76
10 0.59
-10 0.41000000000000003
11 0.95
-11 0.050000000000000044
12 0.45
-12 0.55
13 0.74
-13 0.26
14 0.6
-14 0.4
15 0.69
-15 0.31000000000000005
16 0.5
-16 0.5
17 0.96
-17 0.040000000000000036
18 0.82
-18 0.18000000000000005
19 0.71
-19 0.29000000000000004
20 0.73
-20 0.27
21 0.5
-21 0.5
22 0.98
-22 0.020000000000000018
23 0.76
-23 0.24
24 0.78
-24 0.21999999999999997
25 0.78
-25 0.21999999999999997
26 0.43
-26 0.5700000000000001
27 0.03
-27 0.97
28 0.81
-28 0.18999999999999995
29 0.74
-29 0.26
30 0.87
-30 0.13
31 0.31
-31 0.69
32 0.83
-32 0.17000000000000004
33 0.7
-33 0.30000000000000004
34 0.89
-34 0.10999999999999999
35 0.17
-35 0.83
36 0.88
-36 0.12
37 0.14
-37 0.86
38 0.56
-38 0.43999999999999995
39 0.64
-39 0.36
40 0.2
-40 0.8
41 0.91
-41 0.08999999999999997
42 0.23
-42 0.77
43 0.91
-43 0.08999999999999997
44 0.29
-44 0.71
45 0.07
-45 0.9299999999999999
46 0.28
-46 0.72
47 0.67
-47 0.32999999999999996
48 0.69
-48 0.31000000000000005
49 0.91
-49 0.08999999999999997
50 0.43
-50 0.5700000000000001
51 0.93
-51 0.06999999999999995
52 0.37
-52 0.63
53 0.2
-53 0.8
54 0.81
-54 0.18999999999999995
55 0.45
-55 0.55
56 0.26
-56 0.74
57 0.26
-57 0.74
58 0.93
-58 0.06999999999999995
59 0.2
-59 0.8
60 0.34
-60 0.6599999999999999
61 0.85
-61 0.15000000000000002
62 0.68
-62 0.31999999999999995
63 0.43
-63 0.5700000000000001
64 0.32
-64 0.6799999999999999
65 0.51
-65 0.49
66 0.02
-66 0.98
67 0.63
-67 0.37
68 0.5
-68 0.5
69 0.59
-69 0.41000000000000003
70 0.56
-70 0.43999999999999995
71 0.91
-71 0.08999999999999997
72 0.8
-72 0.19999999999999996
73 0.32
-73 0.6799999999999999
74 0.93
-74 0.06999999999999995
75 0.87
-75 0.13
76 0.96
-76 0.040000000000000036
77 0.71
-77 0.29000000000000004
78 0.7
-78 0.30000000000000004
79 0.66
-79 0.33999999999999997
80 0.71
-80 0.29000000000000004
81 0.44
-81 0.56
82 0.61
-82 0.39
83 0.53
-83 0.47
84 0.24
-84 0.76
85 0.38
-85 0.62
86 0.37
-86 0.63
87 0.08
-87 0.92
88 0.73
-88 0.27
89 0.01
-89 0.99
90 0.19
-90 0.81
91 0.18
-91 0.8200000000000001
92 0.08
-92 0.92
93 0.2
-93 0.8
94 0.77
-94 0.22999999999999998
95 0.09
-95 0.91
96 0.62
-96 0.38
97 0.32
-97 0.6799999999999999
98 0.39
-98 0.61
99 0.67
-99 0.32999999999999996
100 0.69
-100 0.31000000000000005
