1 0.95
-1 0.050000000000000044
2 0.12
-2 0.88
3 0.09
-3 0.91
4 0.46
-4 0.54
5 0.49
-5 0.51
6 0.28
-6 0.72
7 0.37
-7 0.63
8 0.05
-8 0.95
9 0.03
-9 0.97
10 0.02
-10 0.98
11 0.38
-11 0.62
12 0.11
-12 0.89
13 0.34
-13 0.6599999999999999
14 0.92
-14 0.07999999999999996
15 0.76
-15 0.24
16 0.71
-16 0.29000000000000004
17 0.82
-17 0.18000000000000005
18 0.71
-18 0.29000000000000004
19 0.91
-19 0.08999999999999997
20 0.77
-20 0.22999999999999998
21 0.8
-21 0.19999999999999996
22 0.52
-22 0.48
23 0.35
-23 0.65
24 0.87
-24 0.13
25 0.75
-25 0.25
26 0.06
-26 0.94
27 0.25
-27 0.75
28 0.72
-28 0.28
29 0.47
-29 0.53
30 0.37
-30 0.63
31 0.75
-31 0.25
32 0.71
-32 0.29000000000000004
33 0.81
-33 0.18999999999999995
34 0.19
-34 0.81
35 0.71
-35 0.29000000000000004
36 0.88
-36 0.12
37 0.18
-37 0.8200000000000001
38 0.54
-38 0.45999999999999996
39 0.25
-39 0.75
40 0.24
-40 0.76
41 0.4
-41 0.6
42 0.05
-42 0.95
43 0.9
-43 0.09999999999999998
44 0.16
-44 0.84
45 0.17
-45 0.83
46 0.83
-46 0.17000000000000004
47 0.63
-47 0.37
48 0.25
-48 0.75
49 0.87
-49 0.13
50 0.82
-50 0.18000000000000005
51 0.74
-51 0.26
52 0.23
-52 0.77
53 0.34
-53 0.6599999999999999
54 0.48
-54 0.52
55 0.89
-55 0.10999999999999999
56 0.08
-56 0.92
57 0.65
-57 0.35
58 0.12
-58 0.88
59 0.94
-59 0.06000000000000005
60 0.34
-60 0.6599999999999999
61 0.46
-61 0.54
62 0.35
-62 0.65
63 0.1
-63 0.9
64 0.51
-64 0.49
65 0.43
-65 0.5700000000000001
66 0.1
-66 0.9
67 0.59
-67 0.41000000000000003
68 0.42
-68 0.5800000000000001
69 0.46
-69 0.54
70 0.89
-70 0.10999999999999999
71 0.08
-71 0.92
72 0.85
-72 0.15000000000000002
73 0.35
-73 0.65
74 0.99
-74 0.010000000000000009
75 0.96
-75 0.040000000000000036
76 0.39
-76 0.61
77 0.79
-77 0.20999999999999996
78 0.78
-78 0.21999999999999997
79 0.58
-79 0.42000000000000004
80 0.83
-80 0.17000000000000004
81 0.53
-81 0.47
82 0.44
-82 0.56
83 0.07
-83 0.9299999999999999
84 0.15
-84 0.85
85 0.72
-85 0.28
86 0.94
-86 0.06000000000000005
87 0.87
-87 0.13
88 0.6
-88 0.4
89 0.74
-89 0.26
90 0.31
-90 0.69
91 0.76
-91 0.24
92 0.43
-92 0.5700000000000001
93 0.91
-93 0.08999999999999997
94 0.35
-94 0.65
95 0.42
-95 0.5800000000000001
96 0.01
-96 0.99
97 0.37
-97 0.63
98 0.7
-98 0.30000000000000004
99 0.28
-99 0.72
100 0.85
-100 0.15000000000000002
