1 0.69
-1 0.31000000000000005
2 0.75
-2 0.25
3 0.5
-3 0.5
4 0.82
-4 0.18000000000000005
5 0.34
-5 0.6599999999999999
6 0.06
-6 0.94
7 0.81
-7 0.18999999999999995
8 0.64
-8 0.36
9 0.96
-9 0.040000000000000036
10 0.08
-10 0.92
11 0.62
-11 0.38
12 0.94
-12 0.06000000000000005
13 0.48
-13 0.52
14 0.03
-14 0.97
15 0.33
-15 0.6699999999999999
16 0.91
-16 0.08999999999999997
17 0.56
-17 0.43999999999999995
18 0.67
-18 0.32999999999999996
19 0.72
-19 0.28
20 0.16
-20 0.84
21 0.49
-21 0.51
22 0.23
-22 0.77
23 0.82
-23 0.18000000000000005
24 0.3
-24 0.7
25 0.31
-25 0.69
26 0.04
-26 0.96
27 0.41
-27 0.5900000000000001
28 0.54
-28 0.45999999999999996
29 0.6
-29 0.4
30 0.09
-30 0.91
31 0.8
-31 0.19999999999999996
32 0.75
-32 0.25
33 0.38
-33 0.62
34 0.41
-34 0.5900000000000001
35 0.73
-35 0.27
36 0.84
-36 0.16000000000000003
37 0.58
-37 0.42000000000000004
38 0.31
-38 0.69
39 0.78
-39 0.21999999999999997
40 0.44
-40 0.56
41 0.21
-41 0.79
42 0.71
-42 0.29000000000000004
43 0.49
-43 0.51
44 0.24
-44 0.76
45 0.68
-45 0.31999999999999995
46 0.4
-46 0.6
47 0.1
-47 0.9
48 0.57
-48 0.43000000000000005
49 0.93
-49 0.06999999999999995
50 0.48
-50 0.52
51 0.96
-51 0.040000000000000036
52 0.6
-52 0.4
53 0.56
-53 0.43999999999999995
54 0.79
-54 0.20999999999999996
55 0.18
-55 0.8200000000000001
56 0.52
-56 0.48
57 0.03
-57 0.97
58 0.46
-58 0.54
59 0.1
-59 0.9
60 0.46
-60 0.54
61 0.09
-61 0.91
62 0.29
-62 0.71
63 0.63
-63 0.37
64 0.44
-64 0.56
65 0.75
-65 0.25
66 0.43
-66 0.5700000000000001
67 0.99
-67 0.010000000000000009
68 0.62
-68 0.38
69 0.59
-69 0.41000000000000003
70 0.54
-70 0.45999999999999996
71 0.79
-71 0.20999999999999996
72 0.46
-72 0.54
73 0.86
-73 0.14
74 0.01
-74 0.99
75 0.64
-75 0.36
76 0.12
-76 0.88
77 0.13
-77 0.87
78 0.72
-78 0.28
79 0.45
-79 0.55
80 0.95
-80 0.050000000000000044
81 0.21
-81 0.79
82 0.66
-82 0.33999999999999997
83 0.26
-83 0.74
84 0.28
-84 0.72
85 0.55
-85 0.44999999999999996
86 0.15
-86 0.85
87 0.42
-87 0.5800000000000001
88 0.12
-88 0.88
89 0.72
-89 0.28
90 0.48
-90 0.52
91 0.5
-91 0.5
92 0.88
-92 0.12
93 0.65
-93 0.35
94 0.61
-94 0.39
95 0.3
-95 0.7
96 0.91
-96 0.08999999999999997
97 0.49
-97 0.51
98 0.52
-98 0.48
99 0.75
-99 0.25
100 0.23
-100 0.77
