1 0.37
-1 0.63
2 0.24
-2 0.76
3 0.99
-3 0.010000000000000009
4 0.73
-4 0.27
5 0.39
-5 0.61
6 0.46
-6 0.54
7 0.86
-7 0.14
8 0.93
-8 0.06999999999999995
9 0.77
-9 0.22999999999999998
10 0.47
-10 0.53
11 0.12
-11 0.88
12 0.55
-12 0.44999999999999996
13 0.77
-13 0.22999999999999998
14 0.04
-14 0.96
15 0.6
-15 0.4
16 0.56
-16 0.43999999999999995
17 0.78
-17 0.21999999999999997
18 0.21
-18 0.79
19 0.17
-19 0.83
20 0.86
-20 0.14
21 0.77
-21 0.22999999999999998
22 0.34
-22 0.6599999999999999
23 0.62
-23 0.38
24 0.41
-24 0.5900000000000001
25 0.09
-25 0.91
26 0.16
-26 0.84
27 0.33
-27 0.6699999999999999
28 0.43
-28 0.5700000000000001
29 0.89
-29 0.10999999999999999
30 0.66
-30 0.33999999999999997
31 0.09
-31 0.91
32 0.45
-32 0.55
33 0.07
-33 0.9299999999999999
34 0.98
-34 0.020000000000000018
35 0.96
-35 0.040000000000000036
36 0.8
-36 0.19999999999999996
37 0.34
-37 0.6599999999999999
38 0.49
-38 0.51
39 0.47
-39 0.53
40 0.9
-40 0.09999999999999998
41 0.27
-41 0.73
42 0.24
-42 0.76
43 0.6
-43 0.4
44 0.37
-44 0.63
45 0.62
-45 0.38
46 0.49
-46 0.51
47 0.69
-47 0.31000000000000005
48 0.5
-48 0.5
49 0.53
-49 0.47
50 0.23
-50 0.77
51 0.06
-51 0.94
52 0.17
-52 0.83
53 0.68
-53 0.31999999999999995
54 0.04
-54 0.96
55 0.11
-55 0.89
56 0.25
-56 0.75
57 0.69
-57 0.31000000000000005
58 0.86
-58 0.14
59 0.8
-59 0.19999999999999996
60 0.97
-60 0.030000000000000027
61 0.44
-61 0.56
62 0.47
-62 0.53
63 0.02
-63 0.98
64 0.7
-64 0.30000000000000004
65 0.92
-65 0.07999999999999996
66 0.2
-66 0.8
67 0.02
-67 0.98
68 0.89
-68 0.10999999999999999
69 0.01
-69 0.99
70 0.09
-70 0.91
71 0.64
-71 0.36
72 0.68
-72 0.31999999999999995
73 0.35
-73 0.65
74 0.44
-74 0.56
75 0.09
-75 0.91
76 0.8
-76 0.19999999999999996
77 0.7
-77 0.30000000000000004
78 0.02
-78 0.98
79 0.71
-79 0.29000000000000004
80 0.02
-80 0.98
81 0.63
-81 0.37
82 0.04
-82 0.96
83 0.63
-83 0.37
84 0.31
-84 0.69
85 0.58
-85 0.42000000000000004
86 0.09
-86 0.91
87 0.27
-87 0.73
88 0.82
-88 0.18000000000000005
89 0.79
-89 0.20999999999999996
90 0.53
-90 0.47
91 0.09
-91 0.91
92 0.21
-92 0.79
93 0.37
-93 0.63
94 0.29
-94 0.71
95 0.95
-95 0.050000000000000044
96 0.22
-96 0.78
97 0.04
-97 0.96
98 0.84
-98 0.16000000000000003
99 0.46
-99 0.54
100 0.04
-100 0.96
