1 0.21
-1 0.79
2 0.32
-2 0.6799999999999999
3 0.01
-3 0.99
4 0.32
-4 0.6799999999999999
5 0.08
-5 0.92
6 0.77
-6 0.22999999999999998
7 0.7
-7 0.30000000000000004
8 0.72
-8 0.28
9 0.81
-9 0.18999999999999995
10 0.89
-10 0.10999999999999999
11 0.44
-11 0.56
12 0.25
-12 0.75
13 0.14
-13 0.86
14 0.51
-14 0.49
15 0.9
-15 0.09999999999999998
16 0.11
-16 0.89
17 0.72
-17 0.28
18 0.89
-18 0.10999999999999999
19 0.75
-19 0.25
20 0.26
-20 0.74
21 0.14
-21 0.86
22 0.87
-22 0.13
23 0.78
-23 0.21999999999999997
24 0.2
-24 0.8
25 0.9
-25 0.09999999999999998
26 0.7
-26 0.30000000000000004
27 0.17
-27 0.83
28 0.26
-28 0.74
29 0.45
-29 0.55
30 0.65
-30 0.35
31 0.67
-31 0.32999999999999996
32 0.41
-32 0.5900000000000001
33 0.72
-33 0.28
34 0.81
-34 0.18999999999999995
35 0.89
-35 0.10999999999999999
36 0.7
-36 0.30000000000000004
37 0.3
-37 0.7
38 0.78
-38 0.21999999999999997
39 0.18
-39 0.8200000000000001
40 0.56
-40 0.43999999999999995
41 0.26
-41 0.74
42 0.4
-42 0.6
43 0.72
-43 0.28
44 0.48
-44 0.52
45 0.87
-45 0.13
46 0.62
-46 0.38
47 0.88
-47 0.12
48 0.18
-48 0.8200000000000001
49 0.77
-49 0.22999999999999998
50 0.76
-50 0.24
51 0.42
-51 0.5800000000000001
52 0.69
-52 0.31000000000000005
53 0.58
-53 0.42000000000000004
54 0.32
-54 0.6799999999999999
55 0.72
-55 0.28
56 0.24
-56 0.76
57 0.37
-57 0.63
58 0.23
-58 0.77
59 0.33
-59 0.6699999999999999
60 0.04
-60 0.96
61 0.39
-61 0.61
62 0.47
-62 0.53
63 0.23
-63 0.77
64 0.98
-64 0.020000000000000018
65 0.98
-65 0.020000000000000018
66 0.06
-66 0.94
67 0.63
-67 0.37
68 0.12
-68 0.88
69 0.17
-69 0.83
70 0.78
-70 0.21999999999999997
71 0.88
-71 0.12
72 0.49
-72 0.51
73 0.46
-73 0.54
74 0.33
-74 0.6699999999999999
75 0.92
-75 0.07999999999999996
76 0.73
-76 0.27
77 0.34
-77 0.6599999999999999
78 0.58
-78 0.42000000000000004
79 0.84
-79 0.16000000000000003
80 0.31
-80 0.69
81 0.21
-81 0.79
82 0.71
-82 0.29000000000000004
83 0.38
-83 0.62
84 0.38
-84 0.62
85 0.32
-85 0.6799999999999999
86 0.47
-86 0.53
87 0.46
-87 0.54
88 0.1
-88 0.9
89 0.99
-89 0.010000000000000009
90 0.26
-90 0.74
91 0.04
-91 0.96
92 0.7
-92 0.30000000000000004
93 0.82
-93 0.18000000000000005
94 0.29
-94 0.71
95 0.06
-95 0.94
96 0.64
-96 0.36
97 0.87
-97 0.13
98 0.32
-98 0.6799999999999999
99 0.95
-99 0.050000000000000044
100 0.36
-100 0.64
