1 0.94
-1 0.06000000000000005
2 0.04
-2 0.96
3 0.74
-3 0.26
4 0.85
-4 0.15000000000000002
5 0.96
-5 0.040000000000000036
6 0.06
-6 0.94
7 0.34
-7 0.6599999999999999
8 0.31
-8 0.69
9 0.58
-9 0.42000000000000004
10 0.36
-10 0.64
11 0.85
-11 0.15000000000000002
12 0.79
-12 0.20999999999999996
13 0.17
-13 0.83
14 0.47
-14 0.53
15 0.34
-15 0.6599999999999999
16 0.03
-16 0.97
17 0.99
-17 0.010000000000000009
18 0.91
-18 0.08999999999999997
19 0.2
-19 0.8
20 0.74
-20 0.26
21 0.41
-21 0.5900000000000001
22 0.9
-22 0.09999999999999998
23 0.17
-23 0.83
24 0.63
-24 0.37
25 0.55
-25 0.44999999999999996
26 0.86
-26 0.14
27 0.3
-27 0.7
28 0.54
-28 0.45999999999999996
29 0.89
-29 0.10999999999999999
30 0.75
-30 0.25
31 0.09
-31 0.91
32 0.55
-32 0.44999999999999996
33 0.25
-33 0.75
34 0.11
-34 0.89
35 0.33
-35 0.6699999999999999
36 0.76
-36 0.24
37 0.48
-37 0.52
38 0.34
-38 0.6599999999999999
39 0.21
-39 0.79
40 0.28
-40 0.72
41 0.75
-41 0.25
42 0.63
-42 0.37
43 0.72
-43 0.28
44 0.08
-44 0.92
45 0.16
-45 0.84
46 0.71
-46 0.29000000000000004
47 0.58
-47 0.42000000000000004
48 0.31
-48 0.69
49 0.69
-49 0.31000000000000005
50 0.75
-50 0.25
51 0.46
-51 0.54
52 0.91
-52 0.08999999999999997
53 0.27
-53 0.73
54 0.82
-54 0.18000000000000005
55 0.5
-55 0.5
56 0.58
-56 0.42000000000000004
57 0.29
-57 0.71
58 0.34
-58 0.6599999999999999
59 0.68
-59 0.31999999999999995
60 0.67
-60 0.32999999999999996
61 0.18
-61 0.8200000000000001
62 0.79
-62 0.20999999999999996
63 0.93
-63 0.06999999999999995
64 0.04
-64 0.96
65 0.52
-65 0.48
66 0.76
-66 0.24
67 0.95
-67 0.050000000000000044
68 0.84
-68 0.16000000000000003
69 0.97
-69 0.030000000000000027
70 0.77
-70 0.22999999999999998
