1 0.21
-1 0.79
2 0.63
-2 0.37
3 0.77
-3 0.22999999999999998
4 0.02
-4 0.98
5 0.78
-5 0.21999999999999997
6 0.42
-6 0.5800000000000001
7 0.98
-7 0.020000000000000018
8 0.72
-8 0.28
9 0.31
-9 0.69
10 0.15
-10 0.85
11 0.97
-11 0.030000000000000027
12 0.95
-12 0.050000000000000044
13 0.6
-13 0.4
14 0.3
-14 0.7
15 0.42
-15 0.5800000000000001
16 0.32
-16 0.6799999999999999
17 0.51
-17 0.49
18 0.32
-18 0.6799999999999999
19 0.89
-19 0.10999999999999999
20 0.65
-20 0.35
21 0.99
-21 0.010000000000000009
22 0.46
-22 0.54
23 0.15
-23 0.85
24 0.78
-24 0.21999999999999997
25 0.62
-25 0.38
26 0.64
-26 0.36
27 0.29
-27 0.71
28 0.32
-28 0.6799999999999999
29 0.04
-29 0.96
30 0.29
-30 0.71
31 0.91
-31 0.08999999999999997
32 0.94
-32 0.06000000000000005
33 0.41
-33 0.5900000000000001
34 0.4
-34 0.6
35 0.57
-35 0.43000000000000005
36 0.52
-36 0.48
37 0.9
-37 0.09999999999999998
38 0.88
-38 0.12
39 0.59
-39 0.41000000000000003
40 0.33
-40 0.6699999999999999
41 0.21
-41 0.79
42 0.21
-42 0.79
43 0.33
-43 0.6699999999999999
44 0.52
-44 0.48
45 0.31
-45 0.69
46 0.74
-46 0.26
47 0.24
-47 0.76
48 0.61
-48 0.39
49 0.77
-49 0.22999999999999998
50 0.65
-50 0.35
51 0.23
-51 0.77
52 0.79
-52 0.20999999999999996
53 0.25
-53 0.75
54 0.84
-54 0.16000000000000003
55 0.23
-55 0.77
56 0.79
-56 0.20999999999999996
57 0.16
-57 0.84
58 0.91
-58 0.08999999999999997
59 0.72
-59 0.28
60 0.21
-60 0.79
61 0.22
-61 0.78
62 0.09
-62 0.91
63 0.05
-63 0.95
64 0.79
-64 0.20999999999999996
65 0.81
-65 0.18999999999999995
66 0.57
-66 0.43000000000000005
67 0.72
-67 0.28
68 0.26
-68 0.74
69 0.38
-69 0.62
70 0.58
-70 0.42000000000000004
