1 0.15
-1 0.85
2 0.01
-2 0.99
3 0.77
-3 0.22999999999999998
4 0.91
-4 0.08999999999999997
5 0.54
-5 0.45999999999999996
6 0.02
-6 0.98
7 0.59
-7 0.41000000000000003
8 0.66
-8 0.33999999999999997
9 0.8
-9 0.19999999999999996
10 0.66
-10 0.33999999999999997
11 0.11
-11 0.89
12 0.75
-12 0.25
13 0.56
-13 0.43999999999999995
14 0.5
-14 0.5
15 0.23
-15 0.77
16 0.59
-16 0.41000000000000003
17 0.44
-17 0.56
18 0.36
-18 0.64
19 0.05
-19 0.95
20 0.63
-20 0.37
21 0.31
-21 0.69
22 0.49
-22 0.51
23 0.39
-23 0.61
24 0.07
-24 0.9299999999999999
25 0.58
-25 0.42000000000000004
26 0.43
-26 0.5700000000000001
27 0.6
-27 0.4
28 0.28
-28 0.72
29 0.39
-29 0.61
30 0.47
-30 0.53
31 0.36
-31 0.64
32 0.87
-32 0.13
33 0.14
-33 0.86
34 0.25
-34 0.75
35 0.01
-35 0.99
36 0.62
-36 0.38
37 0.7
-37 0.30000000000000004
38 0.42
-38 0.5800000000000001
39 0.13
-39 0.87
40 0.46
-40 0.54
41 0.32
-41 0.6799999999999999
42 0.43
-42 0.5700000000000001
43 0.03
-43 0.97
44 0.79
-44 0.20999999999999996
45 0.53
-45 0.47
46 0.24
-46 0.76
47 0.49
-47 0.51
48 0.83
-48 0.17000000000000004
49 0.05
-49 0.95
50 0.79
-50 0.20999999999999996
51 0.74
-51 0.26
52 0.29
-52 0.71
53 0.96
-53 0.040000000000000036
54 0.81
-54 0.18999999999999995
55 0.52
-55 0.48
56 0.64
-56 0.36
57 0.31
-57 0.69
58 0.71
-58 0.29000000000000004
59 0.21
-59 0.79
60 0.58
-60 0.42000000000000004
61 0.89
-61 0.10999999999999999
62 0.97
-62 0.030000000000000027
63 0.61
-63 0.39
64 0.37
-64 0.63
65 0.95
-65 0.050000000000000044
66 0.37
-66 0.63
67 0.93
-67 0.06999999999999995
68 0.16
-68 0.84
69 0.43
-69 0.5700000000000001
70 0.92
-70 0.07999999999999996
