1 0.16
-1 0.84
2 0.36
-2 0.64
3 0.61
-3 0.39
4 0.38
-4 0.62
5 0.17
-5 0.83
6 0.52
-6 0.48
7 0.15
-7 0.85
8 0.59
-8 0.41000000000000003
9 0.51
-9 0.49
10 0.46
-10 0.54
11 0.24
-11 0.76
12 0.24
-12 0.76
13 0.37
-13 0.63
14 0.45
-14 0.55
15 0.06
-15 0.94
16 0.85
-16 0.15000000000000002
17 0.04
-17 0.96
18 0.66
-18 0.33999999999999997
19 0.12
-19 0.88
20 0.94
-20 0.06000000000000005
21 0.08
-21 0.92
22 0.26
-22 0.74
23 0.92
-23 0.07999999999999996
24 0.18
-24 0.8200000000000001
25 0.97
-25 0.030000000000000027
26 0.38
-26 0.62
27 0.93
-27 0.06999999999999995
28 0.19
-28 0.81
29 0.89
-29 0.10999999999999999
30 0.19
-30 0.81
31 0.11
-31 0.89
32 0.66
-32 0.33999999999999997
33 0.72
-33 0.28
34 0.39
-34 0.61
35 0.15
-35 0.85
36 0.07
-36 0.9299999999999999
37 0.32
-37 0.6799999999999999
38 0.01
-38 0.99
39 0.35
-39 0.65
40 0.89
-40 0.10999999999999999
41 0.61
-41 0.39
42 0.79
-42 0.20999999999999996
43 0.07
-43 0.9299999999999999
44 0.26
-44 0.74
45 0.03
-45 0.97
46 0.87
-46 0.13
47 0.32
-47 0.6799999999999999
48 0.2
-48 0.8
49 0.24
-49 0.76
50 0.88
-50 0.12
51 0.5
-51 0.5
52 0.41
-52 0.5900000000000001
53 0.37
-53 0.63
54 0.88
-54 0.12
55 0.34
-55 0.6599999999999999
56 0.98
-56 0.020000000000000018
57 0.94
-57 0.06000000000000005
58 0.8
-58 0.19999999999999996
59 0.49
-59 0.51
60 0.88
-60 0.12
61 0.27
-61 0.73
62 0.98
-62 0.020000000000000018
63 0.26
-63 0.74
64 0.5
-64 0.5
65 0.6
-65 0.4
66 0.23
-66 0.77
67 0.99
-67 0.010000000000000009
68 0.42
-68 0.5800000000000001
69 0.19
-69 0.81
70 0.44
-70 0.56
