1 0.54
-1 0.45999999999999996
2 0.37
-2 0.63
3 0.4
-3 0.6
4 0.55
-4 0.44999999999999996
5 0.63
-5 0.37
6 0.63
-6 0.37
7 0.77
-7 0.22999999999999998
8 0.26
-8 0.74
9 0.03
-9 0.97
10 0.28
-10 0.72
11 0.76
-11 0.24
12 0.28
-12 0.72
13 0.61
-13 0.39
14 0.93
-14 0.06999999999999995
15 0.21
-15 0.79
16 0.51
-16 0.49
17 0.27
-17 0.73
18 0.2
-18 0.8
19 0.76
-19 0.24
20 0.46
-20 0.54
21 0.29
-21 0.71
22 0.74
-22 0.26
23 0.54
-23 0.45999999999999996
24 0.31
-24 0.69
25 0.11
-25 0.89
26 0.03
-26 0.97
27 0.06
-27 0.94
28 0.6
-28 0.4
29 0.74
-29 0.26
30 0.65
-30 0.35
31 0.04
-31 0.96
32 0.38
-32 0.62
33 0.84
-33 0.16000000000000003
34 0.64
-34 0.36
35 0.62
-35 0.38
36 0.63
-36 0.37
37 0.1
-37 0.9
38 0.71
-38 0.29000000000000004
39 0.03
-39 0.97
40 0.18
-40 0.8200000000000001
41 0.21
-41 0.79
42 0.55
-42 0.44999999999999996
43 0.21
-43 0.79
44 0.8
-44 0.19999999999999996
45 0.98
-45 0.020000000000000018
46 0.55
-46 0.44999999999999996
47 0.96
-47 0.040000000000000036
48 0.99
-48 0.010000000000000009
49 0.94
-49 0.06000000000000005
50 0.31
-50 0.69
51 0.12
-51 0.88
52 0.77
-52 0.22999999999999998
53 0.37
-53 0.63
54 0.55
-54 0.44999999999999996
55 0.99
-55 0.010000000000000009
56 0.71
-56 0.29000000000000004
57 0.61
-57 0.39
58 0.13
-58 0.87
59 0.94
-59 0.06000000000000005
60 0.58
-60 0.42000000000000004
61 0.59
-61 0.41000000000000003
62 0.77
-62 0.22999999999999998
63 0.86
-63 0.14
64 0.96
-64 0.040000000000000036
65 0.69
-65 0.31000000000000005
66 0.93
-66 0.06999999999999995
67 0.08
-67 0.92
68 0.87
-68 0.13
69 0.23
-69 0.77
70 0.09
-70 0.91
