1 0.74
-1 0.26
2 0.3
-2 0.7
3 0.1
-3 0.9
4 0.97
-4 0.030000000000000027
5 0.12
-5 0.88
6 0.41
-6 0.5900000000000001
7 0.6
-7 0.4
8 0.35
-8 0.65
9 0.27
-9 0.73
10 0.07
-10 0.9299999999999999
11 0.13
-11 0.87
12 0.64
-12 0.36
13 0.33
-13 0.6699999999999999
14 0.7
-14 0.30000000000000004
15 0.26
-15 0.74
16 0.21
-16 0.79
17 0.94
-17 0.06000000000000005
18 0.29
-18 0.71
19 0.22
-19 0.78
20 0.67
-20 0.32999999999999996
21 0.76
-21 0.24
22 0.03
-22 0.97
23 0.73
-23 0.27
24 0.2
-24 0.8
25 0.15
-25 0.85
26 0.24
-26 0.76
27 0.89
-27 0.10999999999999999
28 0.94
-28 0.06000000000000005
29 0.85
-29 0.15000000000000002
30 0.19
-30 0.81
31 0.89
-31 0.10999999999999999
32 0.81
-32 0.18999999999999995
33 0.58
-33 0.42000000000000004
34 0.37
-34 0.63
35 0.73
-35 0.27
36 0.37
-36 0.63
37 0.53
-37 0.47
38 0.3
-38 0.7
39 0.02
-39 0.98
40 0.97
-40 0.030000000000000027
41 0.19
-41 0.81
42 0.92
-42 0.07999999999999996
43 0.6
-43 0.4
44 0.82
-44 0.18000000000000005
45 0.35
-45 0.65
46 0.43
-46 0.5700000000000001
47 0.63
-47 0.37
48 0.72
-48 0.28
49 0.84
-49 0.16000000000000003
50 0.33
-50 0.6699999999999999
51 0.36
-51 0.64
52 0.03
-52 0.97
53 0.12
-53 0.88
54 0.83
-54 0.17000000000000004
55 0.54
-55 0.45999999999999996
56 0.34
-56 0.6599999999999999
57 0.16
-57 0.84
58 0.49
-58 0.51
59 0.35
-59 0.65
60 0.87
-60 0.13
61 0.11
-61 0.89
62 0.25
-62 0.75
63 0.58
-63 0.42000000000000004
64 0.8
-64 0.19999999999999996
65 0.82
-65 0.18000000000000005
66 0.18
-66 0.8200000000000001
67 0.33
-67 0.6699999999999999
68 0.23
-68 0.77
69 0.55
-69 0.44999999999999996
70 0.2
-70 0.8
