1 0.25
-1 0.75
2 0.92
-2 0.07999999999999996
3 0.7
-3 0.30000000000000004
4 0.13
-4 0.87
5 0.97
-5 0.030000000000000027
6 0.42
-6 0.5800000000000001
7 0.19
-7 0.81
8 0.7
-8 0.30000000000000004
9 0.01
-9 0.99
10 0.15
-10 0.85
11 0.21
-11 0.79
12 0.07
-12 0.9299999999999999
13 0.34
-13 0.6599999999999999
14 0.6
-14 0.4
15 0.55
-15 0.44999999999999996
16 0.78
-16 0.21999999999999997
17 0.25
-17 0.75
18 0.79
-18 0.20999999999999996
19 0.15
-19 0.85
20 0.56
-20 0.43999999999999995
21 0.96
-21 0.040000000000000036
22 0.87
-22 0.13
23 0.94
-23 0.06000000000000005
24 0.81
-24 0.18999999999999995
25 0.01
-25 0.99
26 0.33
-26 0.6699999999999999
27 0.53
-27 0.47
28 0.68
-28 0.31999999999999995
29 0.93
-29 0.06999999999999995
30 0.87
-30 0.13
31 0.69
-31 0.31000000000000005
32 0.81
-32 0.18999999999999995
33 0.2
-33 0.8
34 0.2
-34 0.8
35 0.74
-35 0.26
36 0.32
-36 0.6799999999999999
37 0.79
-37 0.20999999999999996
38 0.51
-38 0.49
39 0.76
-39 0.24
40 0.17
-40 0.83
41 0.14
-41 0.86
42 0.46
-42 0.54
43 0.07
-43 0.9299999999999999
44 0.9
-44 0.09999999999999998
45 0.96
-45 0.040000000000000036
46 0.29
-46 0.71
47 0.08
-47 0.92
48 0.38
-48 0.62
49 0.53
-49 0.47
50 0.71
-50 0.29000000000000004
51 0.58
-51 0.42000000000000004
52 0.21
-52 0.79
53 0.7
-53 0.30000000000000004
54 0.02
-54 0.98
55 0.26
-55 0.74
56 0.81
-56 0.18999999999999995
57 0.02
-57 0.98
58 0.08
-58 0.92
59 0.68
-59 0.31999999999999995
60 0.21
-60 0.79
61 0.13
-61 0.87
62 0.97
-62 0.030000000000000027
63 0.98
-63 0.020000000000000018
64 0.87
-64 0.13
65 0.47
-65 0.53
66 0.63
-66 0.37
67 0.03
-67 0.97
68 0.14
-68 0.86
69 0.43
-69 0.5700000000000001
70 0.54
-70 0.45999999999999996
