1 0.19
-1 0.81
2 0.1
-2 0.9
3 0.7
-3 0.30000000000000004
4 0.34
-4 0.6599999999999999
5 0.78
-5 0.21999999999999997
6 0.75
-6 0.25
7 0.2
-7 0.8
8 0.33
-8 0.6699999999999999
9 0.36
-9 0.64
10 0.98
-10 0.020000000000000018
11 0.59
-11 0.41000000000000003
12 0.85
-12 0.15000000000000002
13 0.91
-13 0.08999999999999997
14 0.63
-14 0.37
15 0.34
-15 0.6599999999999999
16 0.53
-16 0.47
17 0.93
-17 0.06999999999999995
18 0.6
-18 0.4
19 0.34
-19 0.6599999999999999
20 0.23
-20 0.77
21 0.02
-21 0.98
22 0.14
-22 0.86
23 0.69
-23 0.31000000000000005
24 0.61
-24 0.39
25 0.1
-25 0.9
26 0.61
-26 0.39
27 0.41
-27 0.5900000000000001
28 0.95
-28 0.050000000000000044
29 0.61
-29 0.39
30 0.82
-30 0.18000000000000005
31 0.88
-31 0.12
32 0.51
-32 0.49
33 0.85
-33 0.15000000000000002
34 0.46
-34 0.54
35 0.36
-35 0.64
36 0.96
-36 0.040000000000000036
37 0.64
-37 0.36
38 0.06
-38 0.94
39 0.62
-39 0.38
40 0.61
-40 0.39
41 0.22
-41 0.78
42 0.07
-42 0.9299999999999999
43 0.13
-43 0.87
44 0.04
-44 0.96
45 0.13
-45 0.87
46 0.31
-46 0.69
47 0.58
-47 0.42000000000000004
48 0.99
-48 0.010000000000000009
49 0.55
-49 0.44999999999999996
50 0.21
-50 0.79
51 0.73
-51 0.27
52 0.1
-52 0.9
53 0.67
-53 0.32999999999999996
54 0.57
-54 0.43000000000000005
55 0.78
-55 0.21999999999999997
56 0.45
-56 0.55
57 0.37
-57 0.63
58 0.65
-58 0.35
59 0.89
-59 0.10999999999999999
60 0.51
-60 0.49
61 0.98
-61 0.020000000000000018
62 0.09
-62 0.91
63 0.53
-63 0.47
64 0.32
-64 0.6799999999999999
65 0.41
-65 0.5900000000000001
66 0.25
-66 0.75
67 0.31
-67 0.69
68 0.8
-68 0.19999999999999996
69 0.04
-69 0.96
70 0.24
-70 0.76
