1 0.14
-1 0.86
2 0.63
-2 0.37
3 0.22
-3 0.78
4 0.74
-4 0.26
5 0.69
-5 0.31000000000000005
6 0.91
-6 0.08999999999999997
7 0.76
-7 0.24
8 0.41
-8 0.5900000000000001
9 0.6
-9 0.4
10 0.92
-10 0.07999999999999996
11 0.26
-11 0.74
12 0.99
-12 0.010000000000000009
13 0.17
-13 0.83
14 0.31
-14 0.69
15 0.77
-15 0.22999999999999998
16 0.77
-16 0.22999999999999998
17 0.59
-17 0.41000000000000003
18 0.77
-18 0.22999999999999998
19 0.9
-19 0.09999999999999998
20 0.35
-20 0.65
21 0.46
-21 0.54
22 0.69
-22 0.31000000000000005
23 0.85
-23 0.15000000000000002
24 0.77
-24 0.22999999999999998
25 0.66
-25 0.33999999999999997
26 0.77
-26 0.22999999999999998
27 0.26
-27 0.74
28 0.14
-28 0.86
29 0.74
-29 0.26
30 0.4
-30 0.6
31 0.52
-31 0.48
32 0.74
-32 0.26
33 0.14
-33 0.86
34 0.28
-34 0.72
35 0.99
-35 0.010000000000000009
36 0.01
-36 0.99
37 0.09
-37 0.91
38 0.57
-38 0.43000000000000005
39 0.9
-39 0.09999999999999998
40 0.15
-40 0.85
41 0.98
-41 0.020000000000000018
42 0.11
-42 0.89
43 0.02
-43 0.98
44 0.15
-44 0.85
45 0.35
-45 0.65
46 0.99
-46 0.010000000000000009
47 0.14
-47 0.86
48 0.01
-48 0.99
49 0.23
-49 0.77
50 0.82
-50 0.18000000000000005
51 0.04
-51 0.96
52 0.5
-52 0.5
53 0.17
-53 0.83
54 0.43
-54 0.5700000000000001
55 0.42
-55 0.5800000000000001
56 0.66
-56 0.33999999999999997
57 0.23
-57 0.77
58 0.66
-58 0.33999999999999997
59 0.17
-59 0.83
60 0.02
-60 0.98
61 0.48
-61 0.52
62 0.35
-62 0.65
63 0.04
-63 0.96
64 0.41
-64 0.5900000000000001
65 0.14
-65 0.86
66 0.88
-66 0.12
67 0.63
-67 0.37
68 0.02
-68 0.98
69 0.54
-69 0.45999999999999996
70 0.7
-70 0.30000000000000004
