1 0.39
-1 0.61
2 0.46
-2 0.54
3 0.01
-3 0.99
4 0.15
-4 0.85
5 0.33
-5 0.6699999999999999
6 0.25
-6 0.75
7 0.57
-7 0.43000000000000005
8 0.82
-8 0.18000000000000005
9 0.42
-9 0.5800000000000001
10 0.79
-10 0.20999999999999996
11 0.85
-11 0.15000000000000002
12 0.07
-12 0.9299999999999999
13 0.91
-13 0.08999999999999997
14 0.74
-14 0.26
15 0.81
-15 0.18999999999999995
16 0.4
-16 0.6
17 0.02
-17 0.98
18 0.22
-18 0.78
19 0.73
-19 0.27
20 0.42
-20 0.5800000000000001
21 0.06
-21 0.94
22 0.43
-22 0.5700000000000001
23 0.57
-23 0.43000000000000005
24 0.59
-24 0.41000000000000003
25 0.26
-25 0.74
26 0.78
-26 0.21999999999999997
27 0.67
-27 0.32999999999999996
28 0.76
-28 0.24
29 0.9
-29 0.09999999999999998
30 0.35
-30 0.65
31 0.9
-31 0.09999999999999998
32 0.1
-32 0.9
33 0.48
-33 0.52
34 0.13
-34 0.87
35 0.09
-35 0.91
36 0.98
-36 0.020000000000000018
37 0.37
-37 0.63
38 0.24
-38 0.76
39 0.61
-39 0.39
40 0.67
-40 0.32999999999999996
41 0.58
-41 0.42000000000000004
42 0.92
-42 0.07999999999999996
43 0.78
-43 0.21999999999999997
44 0.03
-44 0.97
45 0.23
-45 0.77
46 0.4
-46 0.6
47 0.77
-47 0.22999999999999998
48 0.2
-48 0.8
49 0.68
-49 0.31999999999999995
50 0.7
-50 0.30000000000000004
51 0.43
-51 0.5700000000000001
52 0.63
-52 0.37
53 0.08
-53 0.92
54 0.88
-54 0.12
55 0.26
-55 0.74
56 0.99
-56 0.010000000000000009
57 0.08
-57 0.92
58 0.33
-58 0.6699999999999999
59 0.09
-59 0.91
60 0.81
-60 0.18999999999999995
61 0.11
-61 0.89
62 0.56
-62 0.43999999999999995
63 0.65
-63 0.35
64 0.8
-64 0.19999999999999996
65 0.79
-65 0.20999999999999996
66 0.2
-66 0.8
67 0.37
-67 0.63
68 0.18
-68 0.8200000000000001
69 0.99
-69 0.010000000000000009
70 0.28
-70 0.72
