1 0.02
-1 0.98
2 0.56
-2 0.43999999999999995
3 0.03
-3 0.97
4 0.57
-4 0.43000000000000005
5 0.91
-5 0.08999999999999997
6 0.57
-6 0.43000000000000005
7 0.22
-7 0.78
8 0.56
-8 0.43999999999999995
9 0.9
-9 0.09999999999999998
10 0.75
-10 0.25
11 0.86
-11 0.14
12 0.8
-12 0.19999999999999996
13 0.57
-13 0.43000000000000005
14 0.67
-14 0.32999999999999996
15 0.83
-15 0.17000000000000004
16 0.34
-16 0.6599999999999999
17 0.61
-17 0.39
18 0.63
-18 0.37
19 0.77
-19 0.22999999999999998
20 0.27
-20 0.73
21 0.96
-21 0.040000000000000036
22 0.26
-22 0.74
23 0.94
-23 0.06000000000000005
24 0.11
-24 0.89
25 0.61
-25 0.39
26 0.05
-26 0.95
27 0.7
-27 0.30000000000000004
28 0.5
-28 0.5
29 0.33
-29 0.6699999999999999
30 0.65
-30 0.35
31 0.66
-31 0.33999999999999997
32 0.8
-32 0.19999999999999996
33 0.4
-33 0.6
34 0.16
-34 0.84
35 0.09
-35 0.91
36 0.56
-36 0.43999999999999995
37 0.79
-37 0.20999999999999996
38 0.63
-38 0.37
39 0.87
-39 0.13
40 0.17
-40 0.83
41 0.69
-41 0.31000000000000005
42 0.57
-42 0.43000000000000005
43 0.01
-43 0.99
44 0.46
-44 0.54
45 0.66
-45 0.33999999999999997
46 0.62
-46 0.38
47 0.14
-47 0.86
48 0.31
-48 0.69
49 0.58
-49 0.42000000000000004
50 0.84
-50 0.16000000000000003
51 0.05
-51 0.95
52 0.18
-52 0.8200000000000001
53 0.77
-53 0.22999999999999998
54 0.58
-54 0.42000000000000004
55 0.45
-55 0.55
56 0.21
-56 0.79
57 0.96
-57 0.040000000000000036
58 0.31
-58 0.69
59 0.19
-59 0.81
60 0.77
-60 0.22999999999999998
61 0.06
-61 0.94
62 0.51
-62 0.49
63 0.31
-63 0.69
64 0.92
-64 0.07999999999999996
65 0.71
-65 0.29000000000000004
66 0.73
-66 0.27
67 0.52
-67 0.48
68 0.84
-68 0.16000000000000003
69 0.68
-69 0.31999999999999995
70 0.99
-70 0.010000000000000009
