1 0.84
-1 0.16000000000000003
2 0.57
-2 0.43000000000000005
3 0.5
-3 0.5
4 0.84
-4 0.16000000000000003
5 0.06
-5 0.94
6 0.11
-6 0.89
7 0.41
-7 0.5900000000000001
8 0.31
-8 0.69
9 0.12
-9 0.88
10 0.39
-10 0.61
11 0.07
-11 0.9299999999999999
12 0.26
-12 0.74
13 0.59
-13 0.41000000000000003
14 0.84
-14 0.16000000000000003
15 0.69
-15 0.31000000000000005
16 0.82
-16 0.18000000000000005
17 0.13
-17 0.87
18 0.07
-18 0.9299999999999999
19 0.66
-19 0.33999999999999997
20 0.56
-20 0.43999999999999995
21 0.17
-21 0.83
22 0.02
-22 0.98
23 0.2
-23 0.8
24 0.41
-24 0.5900000000000001
25 0.84
-25 0.16000000000000003
26 0.98
-26 0.020000000000000018
27 0.11
-27 0.89
28 0.94
-28 0.06000000000000005
29 0.64
-29 0.36
30 0.71
-30 0.29000000000000004
31 0.72
-31 0.28
32 0.14
-32 0.86
33 0.7
-33 0.30000000000000004
34 0.82
-34 0.18000000000000005
35 0.03
-35 0.97
36 0.17
-36 0.83
37 0.34
-37 0.6599999999999999
38 0.29
-38 0.71
39 0.2
-39 0.8
40 0.08
-40 0.92
41 0.11
-41 0.89
42 0.07
-42 0.9299999999999999
43 0.37
-43 0.63
44 0.81
-44 0.18999999999999995
45 0.95
-45 0.050000000000000044
46 0.17
-46 0.83
47 0.48
-47 0.52
48 0.25
-48 0.75
49 0.68
-49 0.31999999999999995
50 0.31
-50 0.69
51 0.04
-51 0.96
52 0.04
-52 0.96
53 0.63
-53 0.37
54 0.31
-54 0.69
55 0.24
-55 0.76
56 0.45
-56 0.55
57 0.13
-57 0.87
58 0.19
-58 0.81
59 0.13
-59 0.87
60 0.64
-60 0.36
61 0.94
-61 0.06000000000000005
62 0.17
-62 0.83
63 0.26
-63 0.74
64 0.66
-64 0.33999999999999997
65 0.7
-65 0.30000000000000004
66 0.84
-66 0.16000000000000003
67 0.99
-67 0.010000000000000009
68 0.96
-68 0.040000000000000036
69 0.09
-69 0.91
70 0.37
-70 0.63
