1 0.95
-1 0.050000000000000044
2 0.6
-2 0.4
3 0.51
-3 0.49
4 0.64
-4 0.36
5 0.11
-5 0.89
6 0.82
-6 0.18000000000000005
7 0.85
-7 0.15000000000000002
8 0.53
-8 0.47
9 0.92
-9 0.07999999999999996
10 0.51
-10 0.49
11 0.15
-11 0.85
12 0.58
-12 0.42000000000000004
13 0.77
-13 0.22999999999999998
14 0.26
-14 0.74
15 0.52
-15 0.48
16 0.3
-16 0.7
17 0.78
-17 0.21999999999999997
18 0.95
-18 0.050000000000000044
19 0.72
-19 0.28
20 0.22
-20 0.78
21 0.2
-21 0.8
22 0.16
-22 0.84
23 0.15
-23 0.85
24 0.35
-24 0.65
25 0.8
-25 0.19999999999999996
26 0.17
-26 0.83
27 0.08
-27 0.92
28 0.39
-28 0.61
29 0.68
-29 0.31999999999999995
30 0.77
-30 0.22999999999999998
31 0.36
-31 0.64
32 0.21
-32 0.79
33 0.61
-33 0.39
34 0.85
-34 0.15000000000000002
35 0.5
-35 0.5
36 0.78
-36 0.21999999999999997
37 0.33
-37 0.6699999999999999
38 0.94
-38 0.06000000000000005
39 0.31
-39 0.69
40 0.86
-40 0.14
41 0.31
-41 0.69
42 0.34
-42 0.6599999999999999
43 0.32
-43 0.6799999999999999
44 0.63
-44 0.37
45 0.46
-45 0.54
46 0.8
-46 0.19999999999999996
47 0.67
-47 0.32999999999999996
48 0.73
-48 0.27
49 0.14
-49 0.86
50 0.02
-50 0.98
51 0.98
-51 0.020000000000000018
52 0.96
-52 0.040000000000000036
53 0.09
-53 0.91
54 0.72
-54 0.28
55 0.35
-55 0.65
56 0.5
-56 0.5
57 0.24
-57 0.76
58 0.07
-58 0.9299999999999999
59 0.24
-59 0.76
60 0.78
-60 0.21999999999999997
61 0.94
-61 0.06000000000000005
62 0.48
-62 0.52
63 0.87
-63 0.13
64 0.63
-64 0.37
65 0.34
-65 0.6599999999999999
66 0.61
-66 0.39
67 0.36
-67 0.64
68 0.82
-68 0.18000000000000005
69 0.9
-69 0.09999999999999998
70 0.9
-70 0.09999999999999998
