1 0.89
-1 0.10999999999999999
2 0.33
-2 0.6699999999999999
3 0.31
-3 0.69
4 0.09
-4 0.91
5 0.28
-5 0.72
6 0.13
-6 0.87
7 0.64
-7 0.36
8 0.75
-8 0.25
9 0.08
-9 0.92
10 0.6
-10 0.4
11 0.93
-11 0.06999999999999995
12 0.11
-12 0.89
13 0.14
-13 0.86
14 0.94
-14 0.06000000000000005
15 0.19
-15 0.81
16 0.94
-16 0.06000000000000005
17 0.39
-17 0.61
18 0.96
-18 0.040000000000000036
19 0.86
-19 0.14
20 0.52
-20 0.48
21 0.23
-21 0.77
22 0.88
-22 0.12
23 0.7
-23 0.30000000000000004
24 0.5
-24 0.5
25 0.85
-25 0.15000000000000002
26 0.66
-26 0.33999999999999997
27 0.52
-27 0.48
28 0.65
-28 0.35
29 0.2
-29 0.8
30 0.84
-30 0.16000000000000003
31 0.95
-31 0.050000000000000044
32 0.87
-32 0.13
33 0.23
-33 0.77
34 0.96
-34 0.040000000000000036
35 0.99
-35 0.010000000000000009
36 0.2
-36 0.8
37 0.48
-37 0.52
38 0.9
-38 0.09999999999999998
39 0.93
-39 0.06999999999999995
40 0.76
-40 0.24
41 0.03
-41 0.97
42 0.6
-42 0.4
43 0.18
-43 0.8200000000000001
44 0.96
-44 0.040000000000000036
45 0.22
-45 0.78
46 0.34
-46 0.6599999999999999
47 0.63
-47 0.37
48 0.57
-48 0.43000000000000005
49 0.12
-49 0.88
50 0.64
-50 0.36
51 0.63
-51 0.37
52 0.04
-52 0.96
53 0.61
-53 0.39
54 0.52
-54 0.48
55 0.62
-55 0.38
56 0.8
-56 0.19999999999999996
57 0.88
-57 0.12
58 0.22
-58 0.78
59 0.27
-59 0.73
60 0.47
-60 0.53
61 0.67
-61 0.32999999999999996
62 0.67
-62 0.32999999999999996
63 0.14
-63 0.86
64 0.21
-64 0.79
65 0.15
-65 0.85
66 0.14
-66 0.86
67 0.93
-67 0.06999999999999995
68 0.16
-68 0.84
69 0.04
-69 0.96
70 0.44
-70 0.56
