1 0.55
-1 0.44999999999999996
2 0.01
-2 0.99
3 0.04
-3 0.96
4 0.55
-4 0.44999999999999996
5 0.52
-5 0.48
6 0.47
-6 0.53
7 0.79
-7 0.20999999999999996
8 0.39
-8 0.61
9 0.51
-9 0.49
10 0.57
-10 0.43000000000000005
11 0.79
-11 0.20999999999999996
12 0.94
-12 0.06000000000000005
13 0.79
-13 0.20999999999999996
14 0.37
-14 0.63
15 0.38
-15 0.62
16 0.75
-16 0.25
17 0.13
-17 0.87
18 0.43
-18 0.5700000000000001
19 0.36
-19 0.64
20 0.27
-20 0.73
21 0.06
-21 0.94
22 0.39
-22 0.61
23 0.35
-23 0.65
24 0.37
-24 0.63
25 0.29
-25 0.71
26 0.22
-26 0.78
27 0.57
-27 0.43000000000000005
28 0.56
-28 0.43999999999999995
29 0.27
-29 0.73
30 0.94
-30 0.06000000000000005
31 0.1
-31 0.9
32 0.67
-32 0.32999999999999996
33 0.28
-33 0.72
34 0.63
-34 0.37
35 0.94
-35 0.06000000000000005
36 0.72
-36 0.28
37 0.55
-37 0.44999999999999996
38 0.78
-38 0.21999999999999997
39 0.82
-39 0.18000000000000005
40 0.71
-40 0.29000000000000004
41 0.59
-41 0.41000000000000003
42 0.74
-42 0.26
43 0.64
-43 0.36
44 0.77
-44 0.22999999999999998
45 0.77
-45 0.22999999999999998
46 0.37
-46 0.63
47 0.22
-47 0.78
48 0.42
-48 0.5800000000000001
49 0.4
-49 0.6
50 0.94
-50 0.06000000000000005
51 0.9
-51 0.09999999999999998
52 0.31
-52 0.69
53 0.91
-53 0.08999999999999997
54 0.5
-54 0.5
55 0.78
-55 0.21999999999999997
56 0.45
-56 0.55
57 0.25
-57 0.75
58 0.79
-58 0.20999999999999996
59 0.11
-59 0.89
60 0.8
-60 0.19999999999999996
61 0.87
-61 0.13
62 0.66
-62 0.33999999999999997
63 0.74
-63 0.26
64 0.52
-64 0.48
65 0.99
-65 0.010000000000000009
66 0.58
-66 0.42000000000000004
67 0.03
-67 0.97
68 0.02
-68 0.98
69 0.33
-69 0.6699999999999999
70 0.33
-70 0.6699999999999999
