1 0.1
-1 0.9
2 0.96
-2 0.040000000000000036
3 0.51
-3 0.49
4 0.81
-4 0.18999999999999995
5 0.56
-5 0.43999999999999995
6 0.27
-6 0.73
7 0.01
-7 0.99
8 0.25
-8 0.75
9 0.38
-9 0.62
10 0.6
-10 0.4
11 0.18
-11 0.8200000000000001
12 0.06
-12 0.94
13 0.84
-13 0.16000000000000003
14 0.81
-14 0.18999999999999995
15 0.05
-15 0.95
16 0.96
-16 0.040000000000000036
17 0.06
-17 0.94
18 0.21
-18 0.79
19 0.73
-19 0.27
20 0.01
-20 0.99
21 0.26
-21 0.74
22 0.76
-22 0.24
23 0.96
-23 0.040000000000000036
24 0.3
-24 0.7
25 0.85
-25 0.15000000000000002
26 0.05
-26 0.95
27 0.89
-27 0.10999999999999999
28 0.57
-28 0.43000000000000005
29 0.4
-29 0.6
30 0.88
-30 0.12
31 0.57
-31 0.43000000000000005
32 0.1
-32 0.9
33 0.15
-33 0.85
34 0.43
-34 0.5700000000000001
35 0.87
-35 0.13
36 0.42
-36 0.5800000000000001
37 0.49
-37 0.51
38 0.29
-38 0.71
39 0.48
-39 0.52
40 0.18
-40 0.8200000000000001
41 0.66
-41 0.33999999999999997
42 0.5
-42 0.5
43 0.74
-43 0.26
44 0.89
-44 0.10999999999999999
45 0.98
-45 0.020000000000000018
46 0.98
-46 0.020000000000000018
47 0.61
-47 0.39
48 0.87
-48 0.13
49 0.26
-49 0.74
50 0.17
-50 0.83
51 0.19
-51 0.81
52 0.39
-52 0.61
53 0.31
-53 0.69
54 0.6
-54 0.4
55 0.83
-55 0.17000000000000004
56 0.83
-56 0.17000000000000004
57 0.29
-57 0.71
58 0.65
-58 0.35
59 0.46
-59 0.54
60 0.63
-60 0.37
61 0.44
-61 0.56
62 0.2
-62 0.8
63 0.1
-63 0.9
64 0.48
-64 0.52
65 0.57
-65 0.43000000000000005
66 0.67
-66 0.32999999999999996
67 0.69
-67 0.31000000000000005
68 0.88
-68 0.12
69 0.46
-69 0.54
70 0.85
-70 0.15000000000000002
