1 0.62
-1 0.38
2 0.57
-2 0.43000000000000005
3 0.73
-3 0.27
4 0.18
-4 0.8200000000000001
5 0.24
-5 0.76
6 0.74
-6 0.26
7 0.13
-7 0.87
8 0.75
-8 0.25
9 0.18
-9 0.8200000000000001
10 0.76
-10 0.24
11 0.72
-11 0.28
12 0.18
-12 0.8200000000000001
13 0.65
-13 0.35
14 0.58
-14 0.42000000000000004
15 0.93
-15 0.06999999999999995
16 0.53
-16 0.47
17 0.81
-17 0.18999999999999995
18 0.84
-18 0.16000000000000003
19 0.36
-19 0.64
20 0.48
-20 0.52
21 0.2
-21 0.8
22 0.41
-22 0.5900000000000001
23 0.22
-23 0.78
24 0.39
-24 0.61
25 0.74
-25 0.26
26 0.09
-26 0.91
27 0.57
-27 0.43000000000000005
28 0.27
-28 0.73
29 0.4
-29 0.6
30 0.58
-30 0.42000000000000004
31 0.86
-31 0.14
32 0.03
-32 0.97
33 0.2
-33 0.8
34 0.66
-34 0.33999999999999997
35 0.47
-35 0.53
36 0.41
-36 0.5900000000000001
37 0.68
-37 0.31999999999999995
38 0.24
-38 0.76
39 0.95
-39 0.050000000000000044
40 0.93
-40 0.06999999999999995
41 0.32
-41 0.6799999999999999
42 0.79
-42 0.20999999999999996
43 0.73
-43 0.27
44 0.05
-44 0.95
45 0.57
-45 0.43000000000000005
46 0.48
-46 0.52
47 0.16
-47 0.84
48 0.87
-48 0.13
49 0.36
-49 0.64
50 0.46
-50 0.54
51 0.68
-51 0.31999999999999995
52 0.7
-52 0.30000000000000004
53 0.07
-53 0.9299999999999999
54 0.18
-54 0.8200000000000001
55 0.14
-55 0.86
56 0.08
-56 0.92
57 0.05
-57 0.95
58 0.45
-58 0.55
59 0.05
-59 0.95
60 0.66
-60 0.33999999999999997
61 0.02
-61 0.98
62 0.54
-62 0.45999999999999996
63 0.08
-63 0.92
64 0.83
-64 0.17000000000000004
65 0.93
-65 0.06999999999999995
66 0.59
-66 0.41000000000000003
67 0.17
-67 0.83
68 0.52
-68 0.48
69 0.13
-69 0.87
70 0.03
-70 0.97
