1 0.92
-1 0.07999999999999996
2 0.74
-2 0.26
3 0.58
-3 0.42000000000000004
4 0.21
-4 0.79
5 0.95
-5 0.050000000000000044
6 0.93
-6 0.06999999999999995
7 0.86
-7 0.14
8 0.69
-8 0.31000000000000005
9 0.65
-9 0.35
10 0.32
-10 0.6799999999999999
11 0.93
-11 0.06999999999999995
12 0.51
-12 0.49
13 0.11
-13 0.89
14 0.94
-14 0.06000000000000005
15 0.1
-15 0.9
16 0.48
-16 0.52
17 0.17
-17 0.83
18 0.38
-18 0.62
19 0.28
-19 0.72
20 0.23
-20 0.77
21 0.74
-21 0.26
22 0.01
-22 0.99
23 0.42
-23 0.5800000000000001
24 0.09
-24 0.91
25 0.39
-25 0.61
26 0.93
-26 0.06999999999999995
27 0.47
-27 0.53
28 0.59
-28 0.41000000000000003
29 0.95
-29 0.050000000000000044
30 0.08
-30 0.92
31 0.92
-31 0.07999999999999996
32 0.89
-32 0.10999999999999999
33 0.97
-33 0.030000000000000027
34 0.45
-34 0.55
35 0.41
-35 0.5900000000000001
36 0.84
-36 0.16000000000000003
37 0.53
-37 0.47
38 0.66
-38 0.33999999999999997
39 0.05
-39 0.95
40 0.59
-40 0.41000000000000003
41 0.74
-41 0.26
42 0.67
-42 0.32999999999999996
43 0.75
-43 0.25
44 0.76
-44 0.24
45 0.33
-45 0.6699999999999999
46 0.23
-46 0.77
47 0.9
-47 0.09999999999999998
48 0.4
-48 0.6
49 0.8
-49 0.19999999999999996
50 0.6
-50 0.4
51 0.3
-51 0.7
52 0.07
-52 0.9299999999999999
53 0.07
-53 0.9299999999999999
54 0.79
-54 0.20999999999999996
55 0.28
-55 0.72
56 0.91
-56 0.08999999999999997
57 0.22
-57 0.78
58 0.6
-58 0.4
59 0.17
-59 0.83
60 0.11
-60 0.89
61 0.33
-61 0.6699999999999999
62 0.75
-62 0.25
63 0.37
-63 0.63
64 0.06
-64 0.94
65 0.84
-65 0.16000000000000003
66 0.35
-66 0.65
67 0.93
-67 0.06999999999999995
68 0.62
-68 0.38
69 0.18
-69 0.8200000000000001
70 0.03
-70 0.97
