1 0.25
-1 0.75
2 0.62
-2 0.38
3 0.05
-3 0.95
4 0.67
-4 0.32999999999999996
5 0.59
-5 0.41000000000000003
6 0.47
-6 0.53
7 0.69
-7 0.31000000000000005
8 0.25
-8 0.75
9 0.54
-9 0.45999999999999996
10 0.24
-10 0.76
11 0.3
-11 0.7
12 0.93
-12 0.06999999999999995
13 0.56
-13 0.43999999999999995
14 0.38
-14 0.62
15 0.66
-15 0.33999999999999997
16 0.2
-16 0.8
17 0.81
-17 0.18999999999999995
18 0.25
-18 0.75
19 0.71
-19 0.29000000000000004
20 0.97
-20 0.030000000000000027
21 0.54
-21 0.45999999999999996
22 0.67
-22 0.32999999999999996
23 0.54
-23 0.45999999999999996
24 0.75
-24 0.25
25 0.02
-25 0.98
26 0.66
-26 0.33999999999999997
27 0.18
-27 0.8200000000000001
28 0.95
-28 0.050000000000000044
29 0.02
-29 0.98
30 0.29
-30 0.71
31 0.07
-31 0.9299999999999999
32 0.76
-32 0.24
33 0.93
-33 0.06999999999999995
34 0.12
-34 0.88
35 0.54
-35 0.45999999999999996
36 0.48
-36 0.52
37 0.98
-37 0.020000000000000018
38 0.58
-38 0.42000000000000004
39 0.81
-39 0.18999999999999995
40 0.26
-40 0.74
41 0.23
-41 0.77
42 0.19
-42 0.81
43 0.22
-43 0.78
44 0.44
-44 0.56
45 0.84
-45 0.16000000000000003
46 0.08
-46 0.92
47 0.06
-47 0.94
48 0.6
-48 0.4
49 0.22
-49 0.78
50 0.24
-50 0.76
51 0.83
-51 0.17000000000000004
52 0.18
-52 0.8200000000000001
53 0.19
-53 0.81
54 0.1
-54 0.9
55 0.19
-55 0.81
56 0.27
-56 0.73
57 0.96
-57 0.040000000000000036
58 0.77
-58 0.22999999999999998
59 0.34
-59 0.6599999999999999
60 0.93
-60 0.06999999999999995
61 0.77
-61 0.22999999999999998
62 0.09
-62 0.91
63 0.17
-63 0.83
64 0.36
-64 0.64
65 0.15
-65 0.85
66 0.27
-66 0.73
67 0.05
-67 0.95
68 0.58
-68 0.42000000000000004
69 0.42
-69 0.5800000000000001
70 0.35
-70 0.65
