1 0.59
-1 0.41000000000000003
2 0.93
-2 0.06999999999999995
3 0.96
-3 0.040000000000000036
4 0.94
-4 0.06000000000000005
5 0.99
-5 0.010000000000000009
6 0.31
-6 0.69
7 0.13
-7 0.87
8 0.83
-8 0.17000000000000004
9 0.36
-9 0.64
10 0.21
-10 0.79
11 0.23
-11 0.77
12 0.46
-12 0.54
13 0.74
-13 0.26
14 0.42
-14 0.5800000000000001
15 0.49
-15 0.51
16 0.36
-16 0.64
17 0.89
-17 0.10999999999999999
18 0.19
-18 0.81
19 0.13
-19 0.87
20 0.92
-20 0.07999999999999996
21 0.92
-21 0.07999999999999996
22 0.72
-22 0.28
23 0.65
-23 0.35
24 0.8
-24 0.19999999999999996
25 0.98
-25 0.020000000000000018
26 0.8
-26 0.19999999999999996
27 0.02
-27 0.98
28 0.4
-28 0.6
29 0.27
-29 0.73
30 0.31
-30 0.69
31 0.01
-31 0.99
32 0.29
-32 0.71
33 0.39
-33 0.61
34 0.28
-34 0.72
35 0.82
-35 0.18000000000000005
36 0.41
-36 0.5900000000000001
37 0.7
-37 0.30000000000000004
38 0.11
-38 0.89
39 0.49
-39 0.51
40 0.34
-40 0.6599999999999999
41 0.58
-41 0.42000000000000004
42 0.46
-42 0.54
43 0.78
-43 0.21999999999999997
44 0.94
-44 0.06000000000000005
45 0.28
-45 0.72
46 0.97
-46 0.030000000000000027
47 0.01
-47 0.99
48 0.63
-48 0.37
49 0.92
-49 0.07999999999999996
50 0.63
-50 0.37
51 0.94
-51 0.06000000000000005
52 0.06
-52 0.94
53 0.73
-53 0.27
54 0.08
-54 0.92
55 0.74
-55 0.26
56 0.97
-56 0.030000000000000027
57 0.04
-57 0.96
58 0.13
-58 0.87
59 0.68
-59 0.31999999999999995
60 0.83
-60 0.17000000000000004
61 0.9
-61 0.09999999999999998
62 0.32
-62 0.6799999999999999
63 0.26
-63 0.74
64 0.41
-64 0.5900000000000001
65 0.9
-65 0.09999999999999998
66 0.84
-66 0.16000000000000003
67 0.62
-67 0.38
68 0.69
-68 0.31000000000000005
69 0.99
-69 0.010000000000000009
70 0.33
-70 0.6699999999999999
