1 0.97
-1 0.030000000000000027
2 0.85
-2 0.15000000000000002
3 0.49
-3 0.51
4 0.77
-4 0.22999999999999998
5 0.95
-5 0.050000000000000044
6 0.33
-6 0.6699999999999999
7 0.34
-7 0.6599999999999999
8 0.78
-8 0.21999999999999997
9 0.53
-9 0.47
10 0.08
-10 0.92
11 0.71
-11 0.29000000000000004
12 0.42
-12 0.5800000000000001
13 0.22
-13 0.78
14 0.06
-14 0.94
15 0.24
-15 0.76
16 0.21
-16 0.79
17 0.89
-17 0.10999999999999999
18 0.86
-18 0.14
19 0.96
-19 0.040000000000000036
20 0.06
-20 0.94
21 0.47
-21 0.53
22 0.38
-22 0.62
23 0.08
-23 0.92
24 0.12
-24 0.88
25 0.8
-25 0.19999999999999996
26 0.95
-26 0.050000000000000044
27 0.11
-27 0.89
28 0.02
-28 0.98
29 0.86
-29 0.14
30 0.29
-30 0.71
31 0.28
-31 0.72
32 0.97
-32 0.030000000000000027
33 0.75
-33 0.25
34 0.09
-34 0.91
35 0.85
-35 0.15000000000000002
36 0.3
-36 0.7
37 0.55
-37 0.44999999999999996
38 0.58
-38 0.42000000000000004
39 0.19
-39 0.81
40 0.33
-40 0.6699999999999999
41 0.87
-41 0.13
42 0.02
-42 0.98
43 0.42
-43 0.5800000000000001
44 0.73
-44 0.27
45 0.58
-45 0.42000000000000004
46 0.28
-46 0.72
47 0.93
-47 0.06999999999999995
48 0.66
-48 0.33999999999999997
49 0.92
-49 0.07999999999999996
50 0.78
-50 0.21999999999999997
51 0.26
-51 0.74
52 0.12
-52 0.88
53 0.93
-53 0.06999999999999995
54 0.24
-54 0.76
55 0.32
-55 0.6799999999999999
56 0.12
-56 0.88
57 0.11
-57 0.89
58 0.61
-58 0.39
59 0.96
-59 0.040000000000000036
60 0.03
-60 0.97
61 0.32
-61 0.6799999999999999
62 0.68
-62 0.31999999999999995
63 0.47
-63 0.53
64 0.75
-64 0.25
65 0.54
-65 0.45999999999999996
66 0.43
-66 0.5700000000000001
67 0.4
-67 0.6
68 0.04
-68 0.96
69 0.25
-69 0.75
70 0.66
-70 0.33999999999999997
