1 0.54
-1 0.45999999999999996
2 0.17
-2 0.83
3 0.83
-3 0.17000000000000004
4 0.3
-4 0.7
5 0.31
-5 0.69
6 0.07
-6 0.9299999999999999
7 0.02
-7 0.98
8 0.36
-8 0.64
9 0.18
-9 0.8200000000000001
10 0.58
-10 0.42000000000000004
11 0.25
-11 0.75
12 0.33
-12 0.6699999999999999
13 0.5
-13 0.5
14 0.87
-14 0.13
15 0.31
-15 0.69
16 0.5
-16 0.5
17 0.73
-17 0.27
18 0.43
-18 0.5700000000000001
19 0.55
-19 0.44999999999999996
20 0.98
-20 0.020000000000000018
21 0.14
-21 0.86
22 0.12
-22 0.88
23 0.69
-23 0.31000000000000005
24 0.97
-24 0.030000000000000027
25 0.28
-25 0.72
26 0.18
-26 0.8200000000000001
27 0.65
-27 0.35
28 0.76
-28 0.24
29 0.67
-29 0.32999999999999996
30 0.24
-30 0.76
31 0.24
-31 0.76
32 0.32
-32 0.6799999999999999
33 0.98
-33 0.020000000000000018
34 0.27
-34 0.73
35 0.66
-35 0.33999999999999997
36 0.97
-36 0.030000000000000027
37 0.47
-37 0.53
38 0.7
-38 0.30000000000000004
39 0.67
-39 0.32999999999999996
40 0.33
-40 0.6699999999999999
41 0.88
-41 0.12
42 0.33
-42 0.6699999999999999
43 0.94
-43 0.06000000000000005
44 0.38
-44 0.62
45 0.57
-45 0.43000000000000005
46 0.12
-46 0.88
47 0.88
-47 0.12
48 0.61
-48 0.39
49 0.18
-49 0.8200000000000001
50 0.79
-50 0.20999999999999996
51 0.4
-51 0.6
52 0.69
-52 0.31000000000000005
53 0.24
-53 0.76
54 0.39
-54 0.61
55 0.2
-55 0.8
56 0.09
-56 0.91
57 0.44
-57 0.56
58 0.3
-58 0.7
59 0.01
-59 0.99
60 0.58
-60 0.42000000000000004
61 0.06
-61 0.94
62 0.7
-62 0.30000000000000004
63 0.45
-63 0.55
64 0.23
-64 0.77
65 0.6
-65 0.4
66 0.37
-66 0.63
67 0.81
-67 0.18999999999999995
68 0.86
-68 0.14
69 0.13
-69 0.87
70 0.83
-70 0.17000000000000004
