1 0.14
-1 0.86
2 0.86
-2 0.14
3 0.52
-3 0.48
4 0.96
-4 0.040000000000000036
5 0.31
-5 0.69
6 0.3
-6 0.7
7 0.83
-7 0.17000000000000004
8 0.01
-8 0.99
9 0.4
-9 0.6
10 0.82
-10 0.18000000000000005
11 0.67
-11 0.32999999999999996
12 0.73
-12 0.27
13 0.75
-13 0.25
14 0.37
-14 0.63
15 0.08
-15 0.92
16 0.55
-16 0.44999999999999996
17 0.13
-17 0.87
18 0.76
-18 0.24
19 0.43
-19 0.5700000000000001
20 0.21
-20 0.79
21 0.84
-21 0.16000000000000003
22 0.77
-22 0.22999999999999998
23 0.17
-23 0.83
24 0.89
-24 0.10999999999999999
25 0.57
-25 0.43000000000000005
26 0.4
-26 0.6
27 0.22
-27 0.78
28 0.58
-28 0.42000000000000004
29 0.73
-29 0.27
30 0.53
-30 0.47
31 0.94
-31 0.06000000000000005
32 0.1
-32 0.9
33 0.81
-33 0.18999999999999995
34 0.35
-34 0.65
35 0.8
-35 0.19999999999999996
36 0.86
-36 0.14
37 0.07
-37 0.9299999999999999
38 0.11
-38 0.89
39 0.13
-39 0.87
40 0.03
-40 0.97
41 0.24
-41 0.76
42 0.34
-42 0.6599999999999999
43 0.6
-43 0.4
44 0.27
-44 0.73
45 0.41
-45 0.5900000000000001
46 0.48
-46 0.52
47 0.18
-47 0.8200000000000001
48 0.12
-48 0.88
49 0.96
-49 0.040000000000000036
50 0.61
-50 0.39
51 0.58
-51 0.42000000000000004
52 0.64
-52 0.36
53 0.35
-53 0.65
54 0.08
-54 0.92
55 0.32
-55 0.6799999999999999
56 0.72
-56 0.28
57 0.88
-57 0.12
58 0.81
-58 0.18999999999999995
59 0.38
-59 0.62
60 0.08
-60 0.92
61 0.41
-61 0.5900000000000001
62 0.96
-62 0.040000000000000036
63 0.17
-63 0.83
64 0.51
-64 0.49
65 0.48
-65 0.52
66 0.24
-66 0.76
67 0.61
-67 0.39
68 0.48
-68 0.52
69 0.15
-69 0.85
70 0.99
-70 0.010000000000000009
