1 0.24
-1 0.76
2 0.3
-2 0.7
3 0.43
-3 0.5700000000000001
4 0.29
-4 0.71
5 0.35
-5 0.65
6 0.69
-6 0.31000000000000005
7 0.26
-7 0.74
8 0.56
-8 0.43999999999999995
9 0.03
-9 0.97
10 0.25
-10 0.75
11 0.49
-11 0.51
12 0.66
-12 0.33999999999999997
13 0.23
-13 0.77
14 0.19
-14 0.81
15 0.54
-15 0.45999999999999996
16 0.37
-16 0.63
17 0.15
-17 0.85
18 0.64
-18 0.36
19 0.38
-19 0.62
20 0.85
-20 0.15000000000000002
21 0.95
-21 0.050000000000000044
22 0.13
-22 0.87
23 0.84
-23 0.16000000000000003
24 0.22
-24 0.78
25 0.44
-25 0.56
26 0.22
-26 0.78
27 0.88
-27 0.12
28 0.42
-28 0.5800000000000001
29 0.96
-29 0.040000000000000036
30 0.63
-30 0.37
31 0.11
-31 0.89
32 0.87
-32 0.13
33 0.69
-33 0.31000000000000005
34 0.29
-34 0.71
35 0.51
-35 0.49
36 0.16
-36 0.84
37 0.38
-37 0.62
38 0.52
-38 0.48
39 0.94
-39 0.06000000000000005
40 0.37
-40 0.63
41 0.15
-41 0.85
42 0.9
-42 0.09999999999999998
43 0.62
-43 0.38
44 0.25
-44 0.75
45 0.39
-45 0.61
46 0.66
-46 0.33999999999999997
47 0.23
-47 0.77
48 0.59
-48 0.41000000000000003
49 0.49
-49 0.51
50 0.05
-50 0.95
51 0.14
-51 0.86
52 0.54
-52 0.45999999999999996
53 0.7
-53 0.30000000000000004
54 0.77
-54 0.22999999999999998
55 0.67
-55 0.32999999999999996
56 0.18
-56 0.8200000000000001
57 0.08
-57 0.92
58 0.6
-58 0.4
59 0.72
-59 0.28
60 0.18
-60 0.8200000000000001
61 0.6
-61 0.4
62 0.7
-62 0.30000000000000004
63 0.73
-63 0.27
64 0.57
-64 0.43000000000000005
65 0.41
-65 0.5900000000000001
66 0.84
-66 0.16000000000000003
67 0.92
-67 0.07999999999999996
68 0.21
-68 0.79
69 0.49
-69 0.51
70 0.55
-70 0.44999999999999996
