1 0.67
-1 0.32999999999999996
2 0.34
-2 0.6599999999999999
3 0.73
-3 0.27
4 0.67
-4 0.32999999999999996
5 0.76
-5 0.24
6 0.65
-6 0.35
7 0.98
-7 0.020000000000000018
8 0.02
-8 0.98
9 0.61
-9 0.39
10 0.9
-10 0.09999999999999998
11 0.41
-11 0.5900000000000001
12 0.94
-12 0.06000000000000005
13 0.45
-13 0.55
14 0.88
-14 0.12
15 0.89
-15 0.10999999999999999
16 0.48
-16 0.52
17 0.71
-17 0.29000000000000004
18 0.92
-18 0.07999999999999996
19 0.59
-19 0.41000000000000003
20 0.47
-20 0.53
21 0.04
-21 0.96
22 0.98
-22 0.020000000000000018
23 0.49
-23 0.51
24 0.56
-24 0.43999999999999995
25 0.29
-25 0.71
26 0.85
-26 0.15000000000000002
27 0.66
-27 0.33999999999999997
28 0.79
-28 0.20999999999999996
29 0.65
-29 0.35
30 0.33
-30 0.6699999999999999
31 0.15
-31 0.85
32 0.79
-32 0.20999999999999996
33 0.79
-33 0.20999999999999996
34 0.63
-34 0.37
35 0.95
-35 0.050000000000000044
36 0.61
-36 0.39
37 0.71
-37 0.29000000000000004
38 0.29
-38 0.71
39 0.01
-39 0.99
40 0.46
-40 0.54
41 0.46
-41 0.54
42 0.19
-42 0.81
43 0.99
-43 0.010000000000000009
44 0.05
-44 0.95
45 0.33
-45 0.6699999999999999
46 0.23
-46 0.77
47 0.81
-47 0.18999999999999995
48 0.3
-48 0.7
49 0.62
-49 0.38
50 0.42
-50 0.5800000000000001
51 0.38
-51 0.62
52 0.68
-52 0.31999999999999995
53 0.64
-53 0.36
54 0.91
-54 0.08999999999999997
55 0.15
-55 0.85
56 0.22
-56 0.78
57 0.96
-57 0.040000000000000036
58 0.89
-58 0.10999999999999999
59 0.46
-59 0.54
60 0.85
-60 0.15000000000000002
61 0.58
-61 0.42000000000000004
62 0.63
-62 0.37
63 0.61
-63 0.39
64 0.78
-64 0.21999999999999997
65 0.92
-65 0.07999999999999996
66 0.01
-66 0.99
67 0.9
-67 0.09999999999999998
68 0.08
-68 0.92
69 0.2
-69 0.8
70 0.17
-70 0.83
