1 0.21
-1 0.79
2 0.84
-2 0.16000000000000003
3 0.16
-3 0.84
4 0.66
-4 0.33999999999999997
5 0.42
-5 0.5800000000000001
6 0.27
-6 0.73
7 0.94
-7 0.06000000000000005
8 0.6
-8 0.4
9 0.95
-9 0.050000000000000044
10 0.46
-10 0.54
11 0.83
-11 0.17000000000000004
12 0.37
-12 0.63
13 0.12
-13 0.88
14 0.16
-14 0.84
15 0.94
-15 0.06000000000000005
16 0.87
-16 0.13
17 0.05
-17 0.95
18 0.08
-18 0.92
19 0.3
-19 0.7
20 0.62
-20 0.38
21 0.07
-21 0.9299999999999999
22 0.63
-22 0.37
23 0.77
-23 0.22999999999999998
24 0.23
-24 0.77
25 0.57
-25 0.43000000000000005
26 0.65
-26 0.35
27 0.67
-27 0.32999999999999996
28 0.81
-28 0.18999999999999995
29 0.59
-29 0.41000000000000003
30 0.76
-30 0.24
31 0.83
-31 0.17000000000000004
32 0.88
-32 0.12
33 0.81
-33 0.18999999999999995
34 0.63
-34 0.37
35 0.92
-35 0.07999999999999996
36 0.09
-36 0.91
37 0.31
-37 0.69
38 0.4
-38 0.6
39 0.11
-39 0.89
40 0.67
-40 0.32999999999999996
41 0.15
-41 0.85
42 0.38
-42 0.62
43 0.94
-43 0.06000000000000005
44 0.31
-44 0.69
45 0.88
-45 0.12
46 0.87
-46 0.13
47 0.23
-47 0.77
48 0.03
-48 0.97
49 0.23
-49 0.77
50 0.72
-50 0.28
51 0.78
-51 0.21999999999999997
52 0.28
-52 0.72
53 0.44
-53 0.56
54 0.2
-54 0.8
55 0.79
-55 0.20999999999999996
56 0.09
-56 0.91
57 0.97
-57 0.030000000000000027
58 0.68
-58 0.31999999999999995
59 0.15
-59 0.85
60 0.27
-60 0.73
61 0.78
-61 0.21999999999999997
62 0.99
-62 0.010000000000000009
63 0.78
-63 0.21999999999999997
64 0.76
-64 0.24
65 0.01
-65 0.99
66 0.46
-66 0.54
67 0.43
-67 0.5700000000000001
68 0.11
-68 0.89
69 0.18
-69 0.8200000000000001
70 0.25
-70 0.75
