1 0.75
-1 0.25
2 0.54
-2 0.45999999999999996
3 0.49
-3 0.51
4 0.28
-4 0.72
5 0.41
-5 0.5900000000000001
6 0.56
-6 0.43999999999999995
7 0.52
-7 0.48
8 0.09
-8 0.91
9 0.08
-9 0.92
10 0.88
-10 0.12
11 0.82
-11 0.18000000000000005
12 0.34
-12 0.6599999999999999
13 0.38
-13 0.62
14 0.19
-14 0.81
15 0.69
-15 0.31000000000000005
16 0.66
-16 0.33999999999999997
17 0.15
-17 0.85
18 0.27
-18 0.73
19 0.59
-19 0.41000000000000003
20 0.86
-20 0.14
21 0.06
-21 0.94
22 0.45
-22 0.55
23 0.4
-23 0.6
24 0.38
-24 0.62
25 0.67
-25 0.32999999999999996
26 0.85
-26 0.15000000000000002
27 0.32
-27 0.6799999999999999
28 0.09
-28 0.91
29 0.93
-29 0.06999999999999995
30 0.9
-30 0.09999999999999998
31 0.65
-31 0.35
32 0.14
-32 0.86
33 0.94
-33 0.06000000000000005
34 0.47
-34 0.53
35 0.06
-35 0.94
36 0.48
-36 0.52
37 0.27
-37 0.73
38 0.03
-38 0.97
39 0.37
-39 0.63
40 0.72
-40 0.28
41 0.05
-41 0.95
42 0.99
-42 0.010000000000000009
43 0.56
-43 0.43999999999999995
44 0.19
-44 0.81
45 0.69
-45 0.31000000000000005
46 0.42
-46 0.5800000000000001
47 0.91
-47 0.08999999999999997
48 0.68
-48 0.31999999999999995
49 0.78
-49 0.21999999999999997
50 0.28
-50 0.72
51 0.27
-51 0.73
52 0.69
-52 0.31000000000000005
53 0.73
-53 0.27
54 0.11
-54 0.89
55 0.6
-55 0.4
56 0.65
-56 0.35
57 0.87
-57 0.13
58 0.38
-58 0.62
59 0.95
-59 0.050000000000000044
60 0.71
-60 0.29000000000000004
61 0.94
-61 0.06000000000000005
62 0.95
-62 0.050000000000000044
63 0.99
-63 0.010000000000000009
64 0.14
-64 0.86
65 0.57
-65 0.43000000000000005
66 0.93
-66 0.06999999999999995
67 0.82
-67 0.18000000000000005
68 0.26
-68 0.74
69 0.04
-69 0.96
70 0.02
-70 0.98
