1 0.7
-1 0.30000000000000004
2 0.46
-2 0.54
3 0.62
-3 0.38
4 0.99
-4 0.010000000000000009
5 0.66
-5 0.33999999999999997
6 0.57
-6 0.43000000000000005
7 0.06
-7 0.94
8 0.47
-8 0.53
9 0.23
-9 0.77
10 0.6
-10 0.4
11 0.86
-11 0.14
12 0.92
-12 0.07999999999999996
13 0.96
-13 0.040000000000000036
14 0.23
-14 0.77
15 0.22
-15 0.78
16 0.18
-16 0.8200000000000001
17 0.66
-17 0.33999999999999997
18 0.22
-18 0.78
19 0.08
-19 0.92
20 0.55
-20 0.44999999999999996
21 0.9
-21 0.09999999999999998
22 0.87
-22 0.13
23 0.89
-23 0.10999999999999999
24 0.32
-24 0.6799999999999999
25 0.07
-25 0.9299999999999999
26 0.2
-26 0.8
27 0.56
-27 0.43999999999999995
28 0.39
-28 0.61
29 0.52
-29 0.48
30 0.74
-30 0.26
31 0.28
-31 0.72
32 0.78
-32 0.21999999999999997
33 0.2
-33 0.8
34 0.26
-34 0.74
35 0.03
-35 0.97
36 0.14
-36 0.86
37 0.2
-37 0.8
38 0.55
-38 0.44999999999999996
39 0.74
-39 0.26
40 0.3
-40 0.7
41 0.38
-41 0.62
42 0.05
-42 0.95
43 0.41
-43 0.5900000000000001
44 0.99
-44 0.010000000000000009
45 0.37
-45 0.63
46 0.44
-46 0.56
47 0.31
-47 0.69
48 0.45
-48 0.55
49 0.52
-49 0.48
50 0.04
-50 0.96
51 0.66
-51 0.33999999999999997
52 0.2
-52 0.8
53 0.1
-53 0.9
54 0.34
-54 0.6599999999999999
55 0.61
-55 0.39
56 0.72
-56 0.28
57 0.71
-57 0.29000000000000004
58 0.58
-58 0.42000000000000004
59 0.99
-59 0.010000000000000009
60 0.18
-60 0.8200000000000001
61 0.57
-61 0.43000000000000005
62 0.61
-62 0.39
63 0.28
-63 0.72
64 0.47
-64 0.53
65 0.66
-65 0.33999999999999997
66 0.68
-66 0.31999999999999995
67 0.88
-67 0.12
68 0.27
-68 0.73
69 0.58
-69 0.42000000000000004
70 0.09
-70 0.91
