1 0.91
-1 0.08999999999999997
2 0.94
-2 0.06000000000000005
3 0.97
-3 0.030000000000000027
4 0.11
-4 0.89
5 0.51
-5 0.49
6 0.46
-6 0.54
7 0.69
-7 0.31000000000000005
8 0.86
-8 0.14
9 0.74
-9 0.26
10 0.56
-10 0.43999999999999995
11 0.49
-11 0.51
12 0.92
-12 0.07999999999999996
13 0.92
-13 0.07999999999999996
14 0.94
-14 0.06000000000000005
15 0.57
-15 0.43000000000000005
16 0.17
-16 0.83
17 0.27
-17 0.73
18 0.77
-18 0.22999999999999998
19 0.06
-19 0.94
20 0.6
-20 0.4
21 0.58
-21 0.42000000000000004
22 0.77
-22 0.22999999999999998
23 0.54
-23 0.45999999999999996
24 0.06
-24 0.94
25 0.75
-25 0.25
26 0.86
-26 0.14
27 0.29
-27 0.71
28 0.7
-28 0.30000000000000004
29 0.57
-29 0.43000000000000005
30 0.45
-30 0.55
31 0.18
-31 0.8200000000000001
32 0.18
-32 0.8200000000000001
33 0.75
-33 0.25
34 0.49
-34 0.51
35 0.93
-35 0.06999999999999995
36 0.83
-36 0.17000000000000004
37 0.39
-37 0.61
38 0.17
-38 0.83
39 0.02
-39 0.98
40 0.14
-40 0.86
41 0.24
-41 0.76
42 0.51
-42 0.49
43 0.83
-43 0.17000000000000004
44 0.6
-44 0.4
45 0.71
-45 0.29000000000000004
46 0.61
-46 0.39
47 0.88
-47 0.12
48 0.96
-48 0.040000000000000036
49 0.59
-49 0.41000000000000003
50 0.65
-50 0.35
51 0.32
-51 0.6799999999999999
52 0.33
-52 0.6699999999999999
53 0.07
-53 0.9299999999999999
54 0.4
-54 0.6
55 0.25
-55 0.75
56 0.42
-56 0.5800000000000001
57 0.33
-57 0.6699999999999999
58 0.72
-58 0.28
59 0.56
-59 0.43999999999999995
60 0.8
-60 0.19999999999999996
61 0.02
-61 0.98
62 0.22
-62 0.78
63 0.34
-63 0.6599999999999999
64 0.5
-64 0.5
65 0.96
-65 0.040000000000000036
66 0.54
-66 0.45999999999999996
67 0.93
-67 0.06999999999999995
68 0.76
-68 0.24
69 0.57
-69 0.43000000000000005
70 0.71
-70 0.29000000000000004
