1 0.38
-1 0.62
2 0.66
-2 0.33999999999999997
3 0.67
-3 0.32999999999999996
4 0.07
-4 0.9299999999999999
5 0.27
-5 0.73
6 0.35
-6 0.65
7 0.71
-7 0.29000000000000004
8 0.87
-8 0.13
9 0.19
-9 0.81
10 0.67
-10 0.32999999999999996
11 0.98
-11 0.020000000000000018
12 0.57
-12 0.43000000000000005
13 0.55
-13 0.44999999999999996
14 0.44
-14 0.56
15 0.17
-15 0.83
16 0.4
-16 0.6
17 0.17
-17 0.83
18 0.09
-18 0.91
19 0.94
-19 0.06000000000000005
20 0.48
-20 0.52
21 0.52
-21 0.48
22 0.16
-22 0.84
23 0.25
-23 0.75
24 0.31
-24 0.69
25 0.55
-25 0.44999999999999996
26 0.86
-26 0.14
27 0.09
-27 0.91
28 0.03
-28 0.97
29 0.76
-29 0.24
30 0.27
-30 0.73
31 0.39
-31 0.61
32 0.09
-32 0.91
33 0.34
-33 0.6599999999999999
34 0.51
-34 0.49
35 0.87
-35 0.13
36 0.47
-36 0.53
37 0.96
-37 0.040000000000000036
38 0.65
-38 0.35
39 0.38
-39 0.62
40 0.33
-40 0.6699999999999999
41 0.37
-41 0.63
42 0.24
-42 0.76
43 0.25
-43 0.75
44 0.1
-44 0.9
45 0.3
-45 0.7
46 0.95
-46 0.050000000000000044
47 0.45
-47 0.55
48 0.91
-48 0.08999999999999997
49 0.52
-49 0.48
50 0.46
-50 0.54
51 0.19
-51 0.81
52 0.55
-52 0.44999999999999996
53 0.37
-53 0.63
54 0.38
-54 0.62
55 0.3
-55 0.7
56 0.3
-56 0.7
57 0.56
-57 0.43999999999999995
58 0.22
-58 0.78
59 0.27
-59 0.73
60 0.63
-60 0.37
61 0.27
-61 0.73
62 0.53
-62 0.47
63 0.09
-63 0.91
64 0.48
-64 0.52
65 0.09
-65 0.91
66 0.04
-66 0.96
67 0.65
-67 0.35
68 0.18
-68 0.8200000000000001
69 0.3
-69 0.7
70 0.16
-70 0.84
