1 0.83
-1 0.17000000000000004
2 0.87
-2 0.13
3 0.6
-3 0.4
4 0.24
-4 0.76
5 0.71
-5 0.29000000000000004
6 0.25
-6 0.75
7 0.09
-7 0.91
8 0.91
-8 0.08999999999999997
9 0.99
-9 0.010000000000000009
10 0.11
-10 0.89
11 0.9
-11 0.09999999999999998
12 0.65
-12 0.35
13 0.85
-13 0.15000000000000002
14 0.19
-14 0.81
15 0.67
-15 0.32999999999999996
16 0.27
-16 0.73
17 0.45
-17 0.55
18 0.15
-18 0.85
19 0.79
-19 0.20999999999999996
20 0.79
-20 0.20999999999999996
21 0.6
-21 0.4
22 0.99
-22 0.010000000000000009
23 0.87
-23 0.13
24 0.8
-24 0.19999999999999996
25 0.16
-25 0.84
26 0.64
-26 0.36
27 0.7
-27 0.30000000000000004
28 0.41
-28 0.5900000000000001
29 0.38
-29 0.62
30 0.39
-30 0.61
31 0.06
-31 0.94
32 0.8
-32 0.19999999999999996
33 0.21
-33 0.79
34 0.24
-34 0.76
35 0.62
-35 0.38
36 0.05
-36 0.95
37 0.52
-37 0.48
38 0.09
-38 0.91
39 0.67
-39 0.32999999999999996
40 0.24
-40 0.76
41 0.14
-41 0.86
42 0.56
-42 0.43999999999999995
43 0.38
-43 0.62
44 0.23
-44 0.77
45 0.77
-45 0.22999999999999998
46 0.89
-46 0.10999999999999999
47 0.32
-47 0.6799999999999999
48 0.46
-48 0.54
49 0.86
-49 0.14
50 0.08
-50 0.92
51 0.8
-51 0.19999999999999996
52 0.73
-52 0.27
53 0.34
-53 0.6599999999999999
54 0.22
-54 0.78
55 0.85
-55 0.15000000000000002
56 0.13
-56 0.87
57 0.82
-57 0.18000000000000005
58 0.7
-58 0.30000000000000004
59 0.17
-59 0.83
60 0.85
-60 0.15000000000000002
61 0.35
-61 0.65
62 0.03
-62 0.97
63 0.37
-63 0.63
64 0.32
-64 0.6799999999999999
65 0.36
-65 0.64
66 0.75
-66 0.25
67 0.13
-67 0.87
68 0.26
-68 0.74
69 0.47
-69 0.53
70 0.45
-70 0.55
