1 0.18
-1 0.8200000000000001
2 0.19
-2 0.81
3 0.44
-3 0.56
4 0.09
-4 0.91
5 0.59
-5 0.41000000000000003
6 0.55
-6 0.44999999999999996
7 0.99
-7 0.010000000000000009
8 0.27
-8 0.73
9 0.38
-9 0.62
10 0.31
-10 0.69
11 0.5
-11 0.5
12 0.14
-12 0.86
13 0.07
-13 0.9299999999999999
14 0.9
-14 0.09999999999999998
15 0.58
-15 0.42000000000000004
16 0.85
-16 0.15000000000000002
17 0.99
-17 0.010000000000000009
18 0.89
-18 0.10999999999999999
19 0.83
-19 0.17000000000000004
20 0.1
-20 0.9
21 0.84
-21 0.16000000000000003
22 0.54
-22 0.45999999999999996
23 0.78
-23 0.21999999999999997
24 0.75
-24 0.25
25 0.02
-25 0.98
26 0.08
-26 0.92
27 0.35
-27 0.65
28 0.41
-28 0.5900000000000001
29 0.51
-29 0.49
30 0.31
-30 0.69
31 0.41
-31 0.5900000000000001
32 0.92
-32 0.07999999999999996
33 0.95
-33 0.050000000000000044
34 0.7
-34 0.30000000000000004
35 0.77
-35 0.22999999999999998
36 0.42
-36 0.5800000000000001
37 0.61
-37 0.39
38 0.43
-38 0.5700000000000001
39 0.76
-39 0.24
40 0.09
-40 0.91
41 0.11
-41 0.89
42 0.59
-42 0.41000000000000003
43 0.34
-43 0.6599999999999999
44 0.66
-44 0.33999999999999997
45 0.6
-45 0.4
46 0.74
-46 0.26
47 0.86
-47 0.14
48 0.47
-48 0.53
49 0.88
-49 0.12
50 0.39
-50 0.61
51 0.36
-51 0.64
52 0.62
-52 0.38
53 0.95
-53 0.050000000000000044
54 0.29
-54 0.71
55 0.16
-55 0.84
56 0.64
-56 0.36
57 0.82
-57 0.18000000000000005
58 0.73
-58 0.27
59 0.17
-59 0.83
60 0.15
-60 0.85
61 0.82
-61 0.18000000000000005
62 0.13
-62 0.87
63 0.1
-63 0.9
64 0.78
-64 0.21999999999999997
65 0.32
-65 0.6799999999999999
66 0.33
-66 0.6699999999999999
67 0.7
-67 0.30000000000000004
68 0.39
-68 0.61
69 0.3
-69 0.7
70 0.96
-70 0.040000000000000036
