1 0.52
-1 0.48
2 0.3
-2 0.7
3 0.2
-3 0.8
4 0.94
-4 0.06000000000000005
5 0.41
-5 0.5900000000000001
6 0.62
-6 0.38
7 0.8
-7 0.19999999999999996
8 0.03
-8 0.97
9 0.21
-9 0.79
10 0.68
-10 0.31999999999999995
11 0.89
-11 0.10999999999999999
12 0.34
-12 0.6599999999999999
13 0.03
-13 0.97
14 0.24
-14 0.76
15 0.5
-15 0.5
16 0.89
-16 0.10999999999999999
17 0.26
-17 0.74
18 0.45
-18 0.55
19 0.74
-19 0.26
20 0.76
-20 0.24
21 0.46
-21 0.54
22 0.91
-22 0.08999999999999997
23 0.43
-23 0.5700000000000001
24 0.61
-24 0.39
25 0.69
-25 0.31000000000000005
26 0.46
-26 0.54
27 0.99
-27 0.010000000000000009
28 0.11
-28 0.89
29 0.64
-29 0.36
30 0.03
-30 0.97
31 0.73
-31 0.27
32 0.86
-32 0.14
33 0.85
-33 0.15000000000000002
34 0.72
-34 0.28
35 0.91
-35 0.08999999999999997
36 0.21
-36 0.79
37 0.86
-37 0.14
38 0.65
-38 0.35
39 0.91
-39 0.08999999999999997
40 0.88
-40 0.12
41 0.71
-41 0.29000000000000004
42 0.17
-42 0.83
43 0.25
-43 0.75
44 0.83
-44 0.17000000000000004
45 0.47
-45 0.53
46 0.39
-46 0.61
47 0.66
-47 0.33999999999999997
48 0.07
-48 0.9299999999999999
49 0.6
-49 0.4
50 0.51
-50 0.49
51 0.28
-51 0.72
52 0.38
-52 0.62
53 0.7
-53 0.30000000000000004
54 0.51
-54 0.49
55 0.3
-55 0.7
56 0.77
-56 0.22999999999999998
57 0.98
-57 0.020000000000000018
58 0.19
-58 0.81
59 0.89
-59 0.10999999999999999
60 0.02
-60 0.98
61 0.35
-61 0.65
62 0.51
-62 0.49
63 0.77
-63 0.22999999999999998
64 0.44
-64 0.56
65 0.33
-65 0.6699999999999999
66 0.08
-66 0.92
67 0.34
-67 0.6599999999999999
68 0.63
-68 0.37
69 0.13
-69 0.87
70 0.92
-70 0.07999999999999996
