1 0.8
-1 0.19999999999999996
2 0.86
-2 0.14
3 0.15
-3 0.85
4 0.96
-4 0.040000000000000036
5 0.49
-5 0.51
6 0.84
-6 0.16000000000000003
7 0.51
-7 0.49
8 0.67
-8 0.32999999999999996
9 0.14
-9 0.86
10 0.34
-10 0.6599999999999999
11 0.4
-11 0.6
12 0.52
-12 0.48
13 0.3
-13 0.7
14 0.93
-14 0.06999999999999995
15 0.89
-15 0.10999999999999999
16 0.46
-16 0.54
17 0.79
-17 0.20999999999999996
18 0.26
-18 0.74
19 0.1
-19 0.9
20 0.38
-20 0.62
21 0.03
-21 0.97
22 0.34
-22 0.6599999999999999
23 0.4
-23 0.6
24 0.64
-24 0.36
25 0.96
-25 0.040000000000000036
26 0.37
-26 0.63
27 0.82
-27 0.18000000000000005
28 0.7
-28 0.30000000000000004
29 0.47
-29 0.53
30 0.97
-30 0.030000000000000027
31 0.03
-31 0.97
32 0.27
-32 0.73
33 0.69
-33 0.31000000000000005
34 0.58
-34 0.42000000000000004
35 0.11
-35 0.89
36 0.14
-36 0.86
37 0.36
-37 0.64
38 0.66
-38 0.33999999999999997
39 0.46
-39 0.54
40 0.8
-40 0.19999999999999996
41 0.67
-41 0.32999999999999996
42 0.69
-42 0.31000000000000005
43 0.88
-43 0.12
44 0.95
-44 0.050000000000000044
45 0.14
-45 0.86
46 0.3
-46 0.7
47 0.55
-47 0.44999999999999996
48 0.56
-48 0.43999999999999995
49 0.55
-49 0.44999999999999996
50 0.26
-50 0.74
51 0.3
-51 0.7
52 0.18
-52 0.8200000000000001
53 0.03
-53 0.97
54 0.43
-54 0.5700000000000001
55 0.02
-55 0.98
56 0.48
-56 0.52
57 0.2
-57 0.8
58 0.78
-58 0.21999999999999997
59 0.6
-59 0.4
60 0.51
-60 0.49
61 0.27
-61 0.73
62 0.16
-62 0.84
63 0.07
-63 0.9299999999999999
64 0.71
-64 0.29000000000000004
65 0.44
-65 0.56
66 0.98
-66 0.020000000000000018
67 0.46
-67 0.54
68 0.71
-68 0.29000000000000004
69 0.2
-69 0.8
70 0.06
-70 0.94
