1 0.68
-1 0.31999999999999995
2 0.88
-2 0.12
3 0.1
-3 0.9
4 0.74
-4 0.26
5 0.66
-5 0.33999999999999997
6 0.33
-6 0.6699999999999999
7 0.37
-7 0.63
8 0.13
-8 0.87
9 0.85
-9 0.15000000000000002
10 0.51
-10 0.49
11 0.73
-11 0.27
12 0.06
-12 0.94
13 0.5
-13 0.5
14 0.54
-14 0.45999999999999996
15 0.89
-15 0.10999999999999999
16 0.87
-16 0.13
17 0.52
-17 0.48
18 0.92
-18 0.07999999999999996
19 0.93
-19 0.06999999999999995
20 0.77
-20 0.22999999999999998
21 0.31
-21 0.69
22 0.65
-22 0.35
23 0.24
-23 0.76
24 0.9
-24 0.09999999999999998
25 0.55
-25 0.44999999999999996
26 0.84
-26 0.16000000000000003
27 0.83
-27 0.17000000000000004
28 0.31
-28 0.69
29 0.28
-29 0.72
30 0.79
-30 0.20999999999999996
31 0.61
-31 0.39
32 0.16
-32 0.84
33 0.93
-33 0.06999999999999995
34 0.83
-34 0.17000000000000004
35 0.95
-35 0.050000000000000044
36 0.05
-36 0.95
37 0.2
-37 0.8
38 0.53
-38 0.47
39 0.33
-39 0.6699999999999999
40 0.07
-40 0.9299999999999999
41 0.48
-41 0.52
42 0.18
-42 0.8200000000000001
43 0.22
-43 0.78
44 0.52
-44 0.48
45 0.75
-45 0.25
46 0.86
-46 0.14
47 0.48
-47 0.52
48 0.43
-48 0.5700000000000001
49 0.61
-49 0.39
50 0.12
-50 0.88
51 0.04
-51 0.96
52 0.29
-52 0.71
53 0.85
-53 0.15000000000000002
54 0.61
-54 0.39
55 0.5
-55 0.5
56 0.18
-56 0.8200000000000001
57 0.03
-57 0.97
58 0.38
-58 0.62
59 0.62
-59 0.38
60 0.8
-60 0.19999999999999996
61 0.92
-61 0.07999999999999996
62 0.27
-62 0.73
63 0.27
-63 0.73
64 0.34
-64 0.6599999999999999
65 0.52
-65 0.48
66 0.97
-66 0.030000000000000027
67 0.58
-67 0.42000000000000004
68 0.23
-68 0.77
69 0.8
-69 0.19999999999999996
70 0.43
-70 0.5700000000000001
