1 0.93
-1 0.06999999999999995
2 0.96
-2 0.040000000000000036
3 0.4
-3 0.6
4 0.37
-4 0.63
5 0.77
-5 0.22999999999999998
6 0.95
-6 0.050000000000000044
7 0.83
-7 0.17000000000000004
8 0.12
-8 0.88
9 0.67
-9 0.32999999999999996
10 0.8
-10 0.19999999999999996
11 0.42
-11 0.5800000000000001
12 0.57
-12 0.43000000000000005
13 0.95
-13 0.050000000000000044
14 0.61
-14 0.39
15 0.86
-15 0.14
16 0.08
-16 0.92
17 0.63
-17 0.37
18 0.22
-18 0.78
19 0.02
-19 0.98
20 0.55
-20 0.44999999999999996
21 0.5
-21 0.5
22 0.44
-22 0.56
23 0.41
-23 0.5900000000000001
24 0.37
-24 0.63
25 0.04
-25 0.96
26 0.78
-26 0.21999999999999997
27 0.99
-27 0.010000000000000009
28 0.92
-28 0.07999999999999996
29 0.38
-29 0.62
30 0.03
-30 0.97
31 0.49
-31 0.51
32 0.37
-32 0.63
33 0.82
-33 0.18000000000000005
34 0.85
-34 0.15000000000000002
35 0.19
-35 0.81
36 0.18
-36 0.8200000000000001
37 0.71
-37 0.29000000000000004
38 0.26
-38 0.74
39 0.57
-39 0.43000000000000005
40 0.65
-40 0.35
41 0.25
-41 0.75
42 0.14
-42 0.86
43 0.44
-43 0.56
44 0.61
-44 0.39
45 0.09
-45 0.91
46 0.5
-46 0.5
47 0.46
-47 0.54
48 0.64
-48 0.36
49 0.67
-49 0.32999999999999996
50 0.54
-50 0.45999999999999996
51 0.98
-51 0.020000000000000018
52 0.65
-52 0.35
53 0.35
-53 0.65
54 0.36
-54 0.64
55 0.15
-55 0.85
56 0.96
-56 0.040000000000000036
57 0.15
-57 0.85
58 0.48
-58 0.52
59 0.92
-59 0.07999999999999996
60 0.26
-60 0.74
61 0.74
-61 0.26
62 0.09
-62 0.91
63 0.32
-63 0.6799999999999999
64 0.49
-64 0.51
65 0.7
-65 0.30000000000000004
66 0.31
-66 0.69
67 0.44
-67 0.56
68 0.12
-68 0.88
69 0.89
-69 0.10999999999999999
70 0.71
-70 0.29000000000000004
