1 0.39
-1 0.61
2 0.66
-2 0.33999999999999997
3 0.7
-3 0.30000000000000004
4 0.53
-4 0.47
5 0.87
-5 0.13
6 0.74
-6 0.26
7 0.8
-7 0.19999999999999996
8 0.35
-8 0.65
9 0.29
-9 0.71
10 0.02
-10 0.98
11 0.92
-11 0.07999999999999996
12 0.36
-12 0.64
13 0.14
-13 0.86
14 0.29
-14 0.71
15 0.48
-15 0.52
16 0.09
-16 0.91
17 0.53
-17 0.47
18 0.37
-18 0.63
19 0.37
-19 0.63
20 0.46
-20 0.54
21 0.6
-21 0.4
22 0.85
-22 0.15000000000000002
23 0.92
-23 0.07999999999999996
24 0.83
-24 0.17000000000000004
25 0.56
-25 0.43999999999999995
26 0.71
-26 0.29000000000000004
27 0.35
-27 0.65
28 0.74
-28 0.26
29 0.24
-29 0.76
30 0.71
-30 0.29000000000000004
31 0.51
-31 0.49
32 0.6
-32 0.4
33 0.11
-33 0.89
34 0.8
-34 0.19999999999999996
35 0.09
-35 0.91
36 0.25
-36 0.75
37 0.78
-37 0.21999999999999997
38 0.24
-38 0.76
39 0.23
-39 0.77
40 0.94
-40 0.06000000000000005
41 0.97
-41 0.030000000000000027
42 0.75
-42 0.25
43 0.02
-43 0.98
44 0.95
-44 0.050000000000000044
45 0.77
-45 0.22999999999999998
46 0.46
-46 0.54
47 0.07
-47 0.9299999999999999
48 0.98
-48 0.020000000000000018
49 0.23
-49 0.77
50 0.25
-50 0.75
51 0.51
-51 0.49
52 0.05
-52 0.95
53 0.73
-53 0.27
54 0.02
-54 0.98
55 0.02
-55 0.98
56 0.86
-56 0.14
57 0.15
-57 0.85
58 0.9
-58 0.09999999999999998
59 0.27
-59 0.73
60 0.09
-60 0.91
61 0.17
-61 0.83
62 0.29
-62 0.71
63 0.24
-63 0.76
64 0.1
-64 0.9
65 0.41
-65 0.5900000000000001
66 0.37
-66 0.63
67 0.42
-67 0.5800000000000001
68 0.92
-68 0.07999999999999996
69 0.42
-69 0.5800000000000001
70 0.49
-70 0.51
