1 0.67
-1 0.32999999999999996
2 0.24
-2 0.76
3 0.99
-3 0.010000000000000009
4 0.01
-4 0.99
5 0.6
-5 0.4
6 0.89
-6 0.10999999999999999
7 0.79
-7 0.20999999999999996
8 0.98
-8 0.020000000000000018
9 0.14
-9 0.86
10 0.21
-10 0.79
11 0.92
-11 0.07999999999999996
12 0.96
-12 0.040000000000000036
13 0.42
-13 0.5800000000000001
14 0.58
-14 0.42000000000000004
15 0.81
-15 0.18999999999999995
16 0.58
-16 0.42000000000000004
17 0.58
-17 0.42000000000000004
18 0.26
-18 0.74
19 0.63
-19 0.37
20 0.3
-20 0.7
21 0.1
-21 0.9
22 0.16
-22 0.84
23 0.69
-23 0.31000000000000005
24 0.78
-24 0.21999999999999997
25 0.52
-25 0.48
26 0.9
-26 0.09999999999999998
27 0.44
-27 0.56
28 0.04
-28 0.96
29 0.39
-29 0.61
30 0.16
-30 0.84
31 0.77
-31 0.22999999999999998
32 0.2
-32 0.8
33 0.11
-33 0.89
34 0.85
-34 0.15000000000000002
35 0.67
-35 0.32999999999999996
36 0.86
-36 0.14
37 0.73
-37 0.27
38 0.01
-38 0.99
39 0.54
-39 0.45999999999999996
40 0.63
-40 0.37
41 0.75
-41 0.25
42 0.7
-42 0.30000000000000004
43 0.93
-43 0.06999999999999995
44 0.82
-44 0.18000000000000005
45 0.66
-45 0.33999999999999997
46 0.18
-46 0.8200000000000001
47 0.7
-47 0.30000000000000004
48 0.86
-48 0.14
49 0.06
-49 0.94
50 0.28
-50 0.72
51 0.82
-51 0.18000000000000005
52 0.5
-52 0.5
53 0.63
-53 0.37
54 0.59
-54 0.41000000000000003
55 0.97
-55 0.030000000000000027
56 0.52
-56 0.48
57 0.34
-57 0.6599999999999999
58 0.55
-58 0.44999999999999996
59 0.65
-59 0.35
60 0.35
-60 0.65
61 0.61
-61 0.39
62 0.18
-62 0.8200000000000001
63 0.3
-63 0.7
64 0.64
-64 0.36
65 0.92
-65 0.07999999999999996
66 0.55
-66 0.44999999999999996
67 0.13
-67 0.87
68 0.2
-68 0.8
69 0.25
-69 0.75
70 0.37
-70 0.63
