1 0.74
-1 0.26
2 0.07
-2 0.9299999999999999
3 0.46
-3 0.54
4 0.25
-4 0.75
5 0.64
-5 0.36
6 0.01
-6 0.99
7 0.34
-7 0.6599999999999999
8 0.22
-8 0.78
9 0.51
-9 0.49
10 0.13
-10 0.87
11 0.44
-11 0.56
12 0.96
-12 0.040000000000000036
13 0.53
-13 0.47
14 0.15
-14 0.85
15 0.5
-15 0.5
16 0.08
-16 0.92
17 0.99
-17 0.010000000000000009
18 0.12
-18 0.88
19 0.1
-19 0.9
20 0.91
-20 0.08999999999999997
21 0.92
-21 0.07999999999999996
22 0.81
-22 0.18999999999999995
23 0.94
-23 0.06000000000000005
24 0.52
-24 0.48
25 0.31
-25 0.69
26 0.51
-26 0.49
27 0.75
-27 0.25
28 0.81
-28 0.18999999999999995
29 0.31
-29 0.69
30 0.02
-30 0.98
31 0.58
-31 0.42000000000000004
32 0.89
-32 0.10999999999999999
33 0.33
-33 0.6699999999999999
34 0.46
-34 0.54
35 0.15
-35 0.85
36 0.33
-36 0.6699999999999999
37 0.84
-37 0.16000000000000003
38 0.23
-38 0.77
39 0.37
-39 0.63
40 0.76
-40 0.24
41 0.24
-41 0.76
42 0.97
-42 0.030000000000000027
43 0.5
-43 0.5
44 0.11
-44 0.89
45 0.24
-45 0.76
46 0.91
-46 0.08999999999999997
47 0.99
-47 0.010000000000000009
48 0.89
-48 0.10999999999999999
49 0.85
-49 0.15000000000000002
50 0.18
-50 0.8200000000000001
51 0.19
-51 0.81
52 0.92
-52 0.07999999999999996
53 0.34
-53 0.6599999999999999
54 0.9
-54 0.09999999999999998
55 0.27
-55 0.73
56 0.56
-56 0.43999999999999995
57 0.37
-57 0.63
58 0.74
-58 0.26
59 0.8
-59 0.19999999999999996
60 0.59
-60 0.41000000000000003
61 0.85
-61 0.15000000000000002
62 0.06
-62 0.94
63 0.73
-63 0.27
64 0.34
-64 0.6599999999999999
65 0.63
-65 0.37
66 0.18
-66 0.8200000000000001
67 0.16
-67 0.84
68 0.38
-68 0.62
69 0.17
-69 0.83
70 0.63
-70 0.37
