1 0.12
-1 0.88
2 0.76
-2 0.24
3 0.72
-3 0.28
4 0.84
-4 0.16000000000000003
5 0.14
-5 0.86
6 0.13
-6 0.87
7 0.43
-7 0.5700000000000001
8 0.25
-8 0.75
9 0.31
-9 0.69
10 0.87
-10 0.13
11 0.97
-11 0.030000000000000027
12 0.75
-12 0.25
13 0.12
-13 0.88
14 0.35
-14 0.65
15 0.44
-15 0.56
16 0.09
-16 0.91
17 0.65
-17 0.35
18 0.35
-18 0.65
19 0.56
-19 0.43999999999999995
20 0.87
-20 0.13
21 0.52
-21 0.48
22 0.93
-22 0.06999999999999995
23 0.38
-23 0.62
24 0.87
-24 0.13
25 0.34
-25 0.6599999999999999
26 0.08
-26 0.92
27 0.52
-27 0.48
28 0.57
-28 0.43000000000000005
29 0.67
-29 0.32999999999999996
30 0.34
-30 0.6599999999999999
31 0.36
-31 0.64
32 0.59
-32 0.41000000000000003
33 0.59
-33 0.41000000000000003
34 0.06
-34 0.94
35 0.5
-35 0.5
36 0.68
-36 0.31999999999999995
37 0.41
-37 0.5900000000000001
38 0.15
-38 0.85
39 0.38
-39 0.62
40 0.33
-40 0.6699999999999999
41 0.75
-41 0.25
42 0.01
-42 0.99
43 0.99
-43 0.010000000000000009
44 0.53
-44 0.47
45 0.01
-45 0.99
46 0.16
-46 0.84
47 0.27
-47 0.73
48 0.38
-48 0.62
49 0.39
-49 0.61
50 0.59
-50 0.41000000000000003
51 0.8
-51 0.19999999999999996
52 0.81
-52 0.18999999999999995
53 0.29
-53 0.71
54 0.17
-54 0.83
55 0.49
-55 0.51
56 0.46
-56 0.54
57 0.69
-57 0.31000000000000005
58 0.3
-58 0.7
59 0.22
-59 0.78
60 0.61
-60 0.39
61 0.75
-61 0.25
62 0.64
-62 0.36
63 0.7
-63 0.30000000000000004
64 0.86
-64 0.14
65 0.58
-65 0.42000000000000004
66 0.08
-66 0.92
67 0.43
-67 0.5700000000000001
68 0.35
-68 0.65
69 0.5
-69 0.5
70 0.91
-70 0.08999999999999997
