1 0.89
-1 0.10999999999999999
2 0.87
-2 0.13
3 0.28
-3 0.72
4 0.64
-4 0.36
5 0.31
-5 0.69
6 0.52
-6 0.48
7 0.31
-7 0.69
8 0.03
-8 0.97
9 0.9
-9 0.09999999999999998
10 0.7
-10 0.30000000000000004
11 0.94
-11 0.06000000000000005
12 0.42
-12 0.5800000000000001
13 0.01
-13 0.99
14 0.51
-14 0.49
15 0.78
-15 0.21999999999999997
16 0.53
-16 0.47
17 0.05
-17 0.95
18 0.9
-18 0.09999999999999998
19 0.05
-19 0.95
20 0.48
-20 0.52
21 0.41
-21 0.5900000000000001
22 0.65
-22 0.35
23 0.35
-23 0.65
24 0.11
-24 0.89
25 0.76
-25 0.24
26 0.99
-26 0.010000000000000009
27 0.45
-27 0.55
28 0.83
-28 0.17000000000000004
29 0.91
-29 0.08999999999999997
30 0.11
-30 0.89
31 0.14
-31 0.86
32 0.96
-32 0.040000000000000036
33 0.52
-33 0.48
34 0.15
-34 0.85
35 0.53
-35 0.47
36 0.27
-36 0.73
37 0.74
-37 0.26
38 0.31
-38 0.69
39 0.38
-39 0.62
40 0.88
-40 0.12
41 0.15
-41 0.85
42 0.11
-42 0.89
43 0.15
-43 0.85
44 0.61
-44 0.39
45 0.78
-45 0.21999999999999997
46 0.51
-46 0.49
47 0.32
-47 0.6799999999999999
48 0.28
-48 0.72
49 0.63
-49 0.37
50 0.41
-50 0.5900000000000001
51 0.39
-51 0.61
52 0.6
-52 0.4
53 0.82
-53 0.18000000000000005
54 0.68
-54 0.31999999999999995
55 0.54
-55 0.45999999999999996
56 0.28
-56 0.72
57 0.9
-57 0.09999999999999998
58 0.06
-58 0.94
59 0.92
-59 0.07999999999999996
60 0.61
-60 0.39
61 0.46
-61 0.54
62 0.93
-62 0.06999999999999995
63 0.88
-63 0.12
64 0.58
-64 0.42000000000000004
65 0.71
-65 0.29000000000000004
66 0.81
-66 0.18999999999999995
67 0.43
-67 0.5700000000000001
68 0.32
-68 0.6799999999999999
69 0.42
-69 0.5800000000000001
70 0.3
-70 0.7
