1 0.12
-1 0.88
2 0.81
-2 0.18999999999999995
3 0.45
-3 0.55
4 0.99
-4 0.010000000000000009
5 0.2
-5 0.8
6 0.98
-6 0.020000000000000018
7 0.65
-7 0.35
8 0.83
-8 0.17000000000000004
9 0.16
-9 0.84
10 0.07
-10 0.9299999999999999
11 0.41
-11 0.5900000000000001
12 0.73
-12 0.27
13 0.95
-13 0.050000000000000044
14 0.57
-14 0.43000000000000005
15 0.06
-15 0.94
16 0.74
-16 0.26
17 0.96
-17 0.040000000000000036
18 0.78
-18 0.21999999999999997
19 0.17
-19 0.83
20 0.22
-20 0.78
21 0.31
-21 0.69
22 0.17
-22 0.83
23 0.09
-23 0.91
24 0.57
-24 0.43000000000000005
25 0.11
-25 0.89
26 0.66
-26 0.33999999999999997
27 0.01
-27 0.99
28 0.82
-28 0.18000000000000005
29 0.94
-29 0.06000000000000005
30 0.03
-30 0.97
31 0.3
-31 0.7
32 0.57
-32 0.43000000000000005
33 0.58
-33 0.42000000000000004
34 0.45
-34 0.55
35 0.27
-35 0.73
36 0.23
-36 0.77
37 0.62
-37 0.38
38 0.49
-38 0.51
39 0.41
-39 0.5900000000000001
40 0.08
-40 0.92
41 0.27
-41 0.73
42 0.89
-42 0.10999999999999999
43 0.89
-43 0.10999999999999999
44 0.88
-44 0.12
45 0.17
-45 0.83
46 0.99
-46 0.010000000000000009
47 0.25
-47 0.75
48 0.32
-48 0.6799999999999999
49 0.12
-49 0.88
50 0.82
-50 0.18000000000000005
51 0.64
-51 0.36
52 0.58
-52 0.42000000000000004
53 0.31
-53 0.69
54 0.53
-54 0.47
55 0.29
-55 0.71
56 0.98
-56 0.020000000000000018
57 0.26
-57 0.74
58 0.82
-58 0.18000000000000005
59 0.36
-59 0.64
60 0.04
-60 0.96
61 0.51
-61 0.49
62 0.62
-62 0.38
63 0.46
-63 0.54
64 0.1
-64 0.9
65 0.59
-65 0.41000000000000003
66 0.91
-66 0.08999999999999997
67 0.63
-67 0.37
68 0.94
-68 0.06000000000000005
69 0.7
-69 0.30000000000000004
70 0.22
-70 0.78
