1 0.22
-1 0.78
2 0.86
-2 0.14
3 0.06
-3 0.94
4 0.67
-4 0.32999999999999996
5 0.38
-5 0.62
6 0.78
-6 0.21999999999999997
7 0.24
-7 0.76
8 0.6
-8 0.4
9 0.81
-9 0.18999999999999995
10 0.09
-10 0.91
11 0.9
-11 0.09999999999999998
12 0.92
-12 0.07999999999999996
13 0.7
-13 0.30000000000000004
14 0.34
-14 0.6599999999999999
15 0.48
-15 0.52
16 0.88
-16 0.12
17 0.58
-17 0.42000000000000004
18 0.64
-18 0.36
19 0.43
-19 0.5700000000000001
20 0.16
-20 0.84
21 0.1
-21 0.9
22 0.44
-22 0.56
23 0.94
-23 0.06000000000000005
24 0.04
-24 0.96
25 0.86
-25 0.14
26 0.16
-26 0.84
27 0.01
-27 0.99
28 0.69
-28 0.31000000000000005
29 0.65
-29 0.35
30 0.07
-30 0.9299999999999999
31 0.07
-31 0.9299999999999999
32 0.91
-32 0.08999999999999997
33 0.61
-33 0.39
34 0.44
-34 0.56
35 0.12
-35 0.88
36 0.61
-36 0.39
37 0.41
-37 0.5900000000000001
38 0.13
-38 0.87
39 0.7
-39 0.30000000000000004
40 0.56
-40 0.43999999999999995
41 0.06
-41 0.94
42 0.78
-42 0.21999999999999997
43 0.7
-43 0.30000000000000004
44 0.1
-44 0.9
45 0.92
-45 0.07999999999999996
46 0.05
-46 0.95
47 0.49
-47 0.51
48 0.78
-48 0.21999999999999997
49 0.4
-49 0.6
50 0.43
-50 0.5700000000000001
51 0.82
-51 0.18000000000000005
52 0.49
-52 0.51
53 0.83
-53 0.17000000000000004
54 0.94
-54 0.06000000000000005
55 0.16
-55 0.84
56 0.51
-56 0.49
57 0.98
-57 0.020000000000000018
58 0.98
-58 0.020000000000000018
59 0.34
-59 0.6599999999999999
60 0.53
-60 0.47
61 0.93
-61 0.06999999999999995
62 0.57
-62 0.43000000000000005
63 0.16
-63 0.84
64 0.01
-64 0.99
65 0.61
-65 0.39
66 0.66
-66 0.33999999999999997
67 0.2
-67 0.8
68 0.24
-68 0.76
69 0.87
-69 0.13
70 0.5
-70 0.5
