1 0.11
-1 0.89
2 0.12
-2 0.88
3 0.45
-3 0.55
4 0.39
-4 0.61
5 0.7
-5 0.30000000000000004
6 0.73
-6 0.27
7 0.42
-7 0.5800000000000001
8 0.95
-8 0.050000000000000044
9 0.76
-9 0.24
10 0.46
-10 0.54
11 0.72
-11 0.28
12 0.05
-12 0.95
13 0.41
-13 0.5900000000000001
14 0.63
-14 0.37
15 0.32
-15 0.6799999999999999
16 0.54
-16 0.45999999999999996
17 0.14
-17 0.86
18 0.87
-18 0.13
19 0.61
-19 0.39
20 0.45
-20 0.55
21 0.4
-21 0.6
22 0.16
-22 0.84
23 0.94
-23 0.06000000000000005
24 0.55
-24 0.44999999999999996
25 0.25
-25 0.75
26 0.88
-26 0.12
27 0.93
-27 0.06999999999999995
28 0.8
-28 0.19999999999999996
29 0.37
-29 0.63
30 0.02
-30 0.98
31 0.19
-31 0.81
32 0.62
-32 0.38
33 0.33
-33 0.6699999999999999
34 0.69
-34 0.31000000000000005
35 0.38
-35 0.62
36 0.08
-36 0.92
37 0.97
-37 0.030000000000000027
38 0.94
-38 0.06000000000000005
39 0.01
-39 0.99
40 0.96
-40 0.040000000000000036
41 0.08
-41 0.92
42 0.55
-42 0.44999999999999996
43 0.08
-43 0.92
44 0.35
-44 0.65
45 0.57
-45 0.43000000000000005
46 0.55
-46 0.44999999999999996
47 0.36
-47 0.64
48 0.29
-48 0.71
49 0.51
-49 0.49
50 0.25
-50 0.75
51 0.8
-51 0.19999999999999996
52 0.63
-52 0.37
53 0.2
-53 0.8
54 0.77
-54 0.22999999999999998
55 0.9
-55 0.09999999999999998
56 0.1
-56 0.9
57 0.59
-57 0.41000000000000003
58 0.57
-58 0.43000000000000005
59 0.39
-59 0.61
60 0.89
-60 0.10999999999999999
61 0.13
-61 0.87
62 0.74
-62 0.26
63 0.09
-63 0.91
64 0.72
-64 0.28
65 0.93
-65 0.06999999999999995
66 0.18
-66 0.8200000000000001
67 0.24
-67 0.76
68 0.66
-68 0.33999999999999997
69 0.42
-69 0.5800000000000001
70 0.13
-70 0.87
