1 0.35
-1 0.65
2 0.67
-2 0.32999999999999996
3 0.07
-3 0.9299999999999999
4 0.05
-4 0.95
5 0.94
-5 0.06000000000000005
6 0.56
-6 0.43999999999999995
7 0.8
-7 0.19999999999999996
8 0.09
-8 0.91
9 0.27
-9 0.73
10 0.11
-10 0.89
11 0.29
-11 0.71
12 0.87
-12 0.13
13 0.06
-13 0.94
14 0.57
-14 0.43000000000000005
15 0.53
-15 0.47
16 0.03
-16 0.97
17 0.39
-17 0.61
18 0.24
-18 0.76
19 0.94
-19 0.06000000000000005
20 0.3
-20 0.7
21 0.79
-21 0.20999999999999996
22 0.08
-22 0.92
23 0.51
-23 0.49
24 0.4
-24 0.6
25 0.65
-25 0.35
26 0.17
-26 0.83
27 0.23
-27 0.77
28 0.91
-28 0.08999999999999997
29 0.51
-29 0.49
30 0.82
-30 0.18000000000000005
31 0.37
-31 0.63
32 0.7
-32 0.30000000000000004
33 0.06
-33 0.94
34 0.82
-34 0.18000000000000005
35 0.02
-35 0.98
36 0.69
-36 0.31000000000000005
37 0.5
-37 0.5
38 0.5
-38 0.5
39 0.34
-39 0.6599999999999999
40 0.11
-40 0.89
41 0.9
-41 0.09999999999999998
42 0.66
-42 0.33999999999999997
43 0.44
-43 0.56
44 0.63
-44 0.37
45 0.16
-45 0.84
46 0.7
-46 0.30000000000000004
47 0.19
-47 0.81
48 0.92
-48 0.07999999999999996
49 0.37
-49 0.63
50 0.76
-50 0.24
51 0.22
-51 0.78
52 0.96
-52 0.040000000000000036
53 0.45
-53 0.55
54 0.68
-54 0.31999999999999995
55 0.89
-55 0.10999999999999999
56 0.25
-56 0.75
57 0.67
-57 0.32999999999999996
58 0.92
-58 0.07999999999999996
59 0.61
-59 0.39
60 0.72
-60 0.28
61 0.98
-61 0.020000000000000018
62 0.13
-62 0.87
63 0.74
-63 0.26
64 0.78
-64 0.21999999999999997
65 0.97
-65 0.030000000000000027
66 0.1
-66 0.9
67 0.91
-67 0.08999999999999997
68 0.85
-68 0.15000000000000002
69 0.8
-69 0.19999999999999996
70 0.07
-70 0.9299999999999999
