1 0.06
-1 0.94
2 0.62
-2 0.38
3 0.43
-3 0.5700000000000001
4 0.88
-4 0.12
5 0.69
-5 0.31000000000000005
6 0.17
-6 0.83
7 0.73
-7 0.27
8 0.29
-8 0.71
9 0.59
-9 0.41000000000000003
10 0.42
-10 0.5800000000000001
11 0.66
-11 0.33999999999999997
12 0.58
-12 0.42000000000000004
13 0.06
-13 0.94
14 0.09
-14 0.91
15 0.15
-15 0.85
16 0.3
-16 0.7
17 0.2
-17 0.8
18 0.07
-18 0.9299999999999999
19 0.5
-19 0.5
20 0.81
-20 0.18999999999999995
21 0.88
-21 0.12
22 0.2
-22 0.8
23 0.83
-23 0.17000000000000004
24 0.55
-24 0.44999999999999996
25 0.39
-25 0.61
26 0.41
-26 0.5900000000000001
27 0.96
-27 0.040000000000000036
28 0.65
-28 0.35
29 0.94
-29 0.06000000000000005
30 0.49
-30 0.51
31 0.34
-31 0.6599999999999999
32 0.1
-32 0.9
33 0.27
-33 0.73
34 0.46
-34 0.54
35 0.18
-35 0.8200000000000001
36 0.09
-36 0.91
37 0.18
-37 0.8200000000000001
38 0.52
-38 0.48
39 0.64
-39 0.36
40 0.88
-40 0.12
41 0.03
-41 0.97
42 0.36
-42 0.64
43 0.43
-43 0.5700000000000001
44 0.69
-44 0.31000000000000005
45 0.59
-45 0.41000000000000003
46 0.74
-46 0.26
47 0.03
-47 0.97
48 0.5
-48 0.5
49 0.98
-49 0.020000000000000018
50 0.67
-50 0.32999999999999996
51 0.46
-51 0.54
52 0.44
-52 0.56
53 0.94
-53 0.06000000000000005
54 0.16
-54 0.84
55 0.87
-55 0.13
56 0.69
-56 0.31000000000000005
57 0.16
-57 0.84
58 0.43
-58 0.5700000000000001
59 0.16
-59 0.84
60 0.52
-60 0.48
61 0.08
-61 0.92
62 0.13
-62 0.87
63 0.28
-63 0.72
64 0.27
-64 0.73
65 0.39
-65 0.61
66 0.11
-66 0.89
67 0.99
-67 0.010000000000000009
68 0.81
-68 0.18999999999999995
69 0.36
-69 0.64
70 0.75
-70 0.25
