1 0.66
-1 0.33999999999999997
2 0.5
-2 0.5
3 0.99
-3 0.010000000000000009
4 0.13
-4 0.87
5 0.01
-5 0.99
6 0.88
-6 0.12
7 0.04
-7 0.96
8 0.4
-8 0.6
9 0.3
-9 0.7
10 0.2
-10 0.8
11 0.47
-11 0.53
12 0.23
-12 0.77
13 0.39
-13 0.61
14 0.56
-14 0.43999999999999995
15 0.85
-15 0.15000000000000002
16 0.99
-16 0.010000000000000009
17 0.08
-17 0.92
18 0.93
-18 0.06999999999999995
19 0.52
-19 0.48
20 0.19
-20 0.81
21 0.84
-21 0.16000000000000003
22 0.03
-22 0.97
23 0.82
-23 0.18000000000000005
24 0.64
-24 0.36
25 0.56
-25 0.43999999999999995
26 0.26
-26 0.74
27 0.71
-27 0.29000000000000004
28 0.07
-28 0.9299999999999999
29 0.14
-29 0.86
30 0.18
-30 0.8200000000000001
31 0.26
-31 0.74
32 0.26
-32 0.74
33 0.63
-33 0.37
34 0.61
-34 0.39
35 0.32
-35 0.6799999999999999
36 0.1
-36 0.9
37 0.9
-37 0.09999999999999998
38 0.65
-38 0.35
39 0.32
-39 0.6799999999999999
40 0.9
-40 0.09999999999999998
41 0.38
-41 0.62
42 0.88
-42 0.12
43 0.75
-43 0.25
44 0.97
-44 0.030000000000000027
45 0.39
-45 0.61
46 0.59
-46 0.41000000000000003
47 0.02
-47 0.98
48 0.16
-48 0.84
49 0.71
-49 0.29000000000000004
50 0.48
-50 0.52
51 0.52
-51 0.48
52 0.94
-52 0.06000000000000005
53 0.42
-53 0.5800000000000001
54 0.98
-54 0.020000000000000018
55 0.16
-55 0.84
56 0.48
-56 0.52
57 0.37
-57 0.63
58 0.54
-58 0.45999999999999996
59 0.53
-59 0.47
60 0.04
-60 0.96
61 0.92
-61 0.07999999999999996
62 0.7
-62 0.30000000000000004
63 0.79
-63 0.20999999999999996
64 0.37
-64 0.63
65 0.5
-65 0.5
66 0.16
-66 0.84
67 0.91
-67 0.08999999999999997
68 0.86
-68 0.14
69 0.02
-69 0.98
70 0.47
-70 0.53
