1 0.24
-1 0.76
2 0.98
-2 0.020000000000000018
3 0.17
-3 0.83
4 0.76
-4 0.24
5 0.46
-5 0.54
6 0.1
-6 0.9
7 0.27
-7 0.73
8 0.09
-8 0.91
9 0.14
-9 0.86
10 0.26
-10 0.74
11 0.03
-11 0.97
12 0.13
-12 0.87
13 0.25
-13 0.75
14 0.49
-14 0.51
15 0.12
-15 0.88
16 0.93
-16 0.06999999999999995
17 0.27
-17 0.73
18 0.92
-18 0.07999999999999996
19 0.19
-19 0.81
20 0.01
-20 0.99
21 0.61
-21 0.39
22 0.95
-22 0.050000000000000044
23 0.24
-23 0.76
24 0.84
-24 0.16000000000000003
25 0.82
-25 0.18000000000000005
26 0.31
-26 0.69
27 0.58
-27 0.42000000000000004
28 0.04
-28 0.96
29 0.29
-29 0.71
30 0.12
-30 0.88
31 0.15
-31 0.85
32 0.15
-32 0.85
33 0.49
-33 0.51
34 0.77
-34 0.22999999999999998
35 0.8
-35 0.19999999999999996
36 0.8
-36 0.19999999999999996
37 0.66
-37 0.33999999999999997
38 0.35
-38 0.65
39 0.89
-39 0.10999999999999999
40 0.87
-40 0.13
41 0.81
-41 0.18999999999999995
42 0.71
-42 0.29000000000000004
43 0.55
-43 0.44999999999999996
44 0.37
-44 0.63
45 0.95
-45 0.050000000000000044
46 0.67
-46 0.32999999999999996
47 0.62
-47 0.38
48 0.47
-48 0.53
49 0.42
-49 0.5800000000000001
50 0.01
-50 0.99
51 0.58
-51 0.42000000000000004
52 0.44
-52 0.56
53 0.58
-53 0.42000000000000004
54 0.15
-54 0.85
55 0.03
-55 0.97
56 0.07
-56 0.9299999999999999
57 0.5
-57 0.5
58 0.33
-58 0.6699999999999999
59 0.43
-59 0.5700000000000001
60 0.61
-60 0.39
61 0.84
-61 0.16000000000000003
62 0.15
-62 0.85
63 0.8
-63 0.19999999999999996
64 0.99
-64 0.010000000000000009
65 0.43
-65 0.5700000000000001
66 0.19
-66 0.81
67 0.15
-67 0.85
68 0.98
-68 0.020000000000000018
69 0.32
-69 0.6799999999999999
70 0.43
-70 0.5700000000000001
