1 0.26
-1 0.74
2 0.12
-2 0.88
3 0.61
-3 0.39
4 0.14
-4 0.86
5 0.39
-5 0.61
6 0.94
-6 0.06000000000000005
7 0.41
-7 0.5900000000000001
8 0.89
-8 0.10999999999999999
9 0.34
-9 0.6599999999999999
10 0.17
-10 0.83
11 0.96
-11 0.040000000000000036
12 0.42
-12 0.5800000000000001
13 0.54
-13 0.45999999999999996
14 0.22
-14 0.78
15 0.28
-15 0.72
16 0.22
-16 0.78
17 0.7
-17 0.30000000000000004
18 0.3
-18 0.7
19 0.45
-19 0.55
20 0.43
-20 0.5700000000000001
21 0.61
-21 0.39
22 0.02
-22 0.98
23 0.61
-23 0.39
24 0.59
-24 0.41000000000000003
25 0.62
-25 0.38
26 0.54
-26 0.45999999999999996
27 0.85
-27 0.15000000000000002
28 0.94
-28 0.06000000000000005
29 0.09
-29 0.91
30 0.88
-30 0.12
31 0.02
-31 0.98
32 0.87
-32 0.13
33 0.87
-33 0.13
34 0.2
-34 0.8
35 0.29
-35 0.71
36 0.39
-36 0.61
37 0.97
-37 0.030000000000000027
38 0.9
-38 0.09999999999999998
39 0.13
-39 0.87
40 0.28
-40 0.72
41 0.5
-41 0.5
42 0.06
-42 0.94
43 0.38
-43 0.62
44 0.46
-44 0.54
45 0.15
-45 0.85
46 0.11
-46 0.89
47 0.17
-47 0.83
48 0.54
-48 0.45999999999999996
49 0.36
-49 0.64
50 0.62
-50 0.38
51 0.11
-51 0.89
52 0.75
-52 0.25
53 0.52
-53 0.48
54 0.81
-54 0.18999999999999995
55 0.43
-55 0.5700000000000001
56 0.73
-56 0.27
57 0.98
-57 0.020000000000000018
58 0.11
-58 0.89
59 0.97
-59 0.030000000000000027
60 0.36
-60 0.64
61 0.75
-61 0.25
62 0.65
-62 0.35
63 0.93
-63 0.06999999999999995
64 0.41
-64 0.5900000000000001
65 0.98
-65 0.020000000000000018
66 0.04
-66 0.96
67 0.02
-67 0.98
68 0.5
-68 0.5
69 0.56
-69 0.43999999999999995
70 0.09
-70 0.91
