1 0.64
-1 0.36
2 0.08
-2 0.92
3 0.88
-3 0.12
4 0.13
-4 0.87
5 0.01
-5 0.99
6 0.63
-6 0.37
7 0.74
-7 0.26
8 0.22
-8 0.78
9 0.42
-9 0.5800000000000001
10 0.88
-10 0.12
11 0.21
-11 0.79
12 0.81
-12 0.18999999999999995
13 0.69
-13 0.31000000000000005
14 0.93
-14 0.06999999999999995
15 0.69
-15 0.31000000000000005
16 0.44
-16 0.56
17 0.13
-17 0.87
18 0.16
-18 0.84
19 0.6
-19 0.4
20 0.78
-20 0.21999999999999997
21 0.89
-21 0.10999999999999999
22 0.22
-22 0.78
23 0.84
-23 0.16000000000000003
24 0.91
-24 0.08999999999999997
25 0.45
-25 0.55
26 0.34
-26 0.6599999999999999
27 0.21
-27 0.79
28 0.37
-28 0.63
29 0.58
-29 0.42000000000000004
30 0.34
-30 0.6599999999999999
31 0.08
-31 0.92
32 0.07
-32 0.9299999999999999
33 0.8
-33 0.19999999999999996
34 0.28
-34 0.72
35 0.17
-35 0.83
36 0.66
-36 0.33999999999999997
37 0.64
-37 0.36
38 0.2
-38 0.8
39 0.79
-39 0.20999999999999996
40 0.06
-40 0.94
41 0.38
-41 0.62
42 0.28
-42 0.72
43 0.62
-43 0.38
44 0.79
-44 0.20999999999999996
45 0.29
-45 0.71
46 0.67
-46 0.32999999999999996
47 0.34
-47 0.6599999999999999
48 0.73
-48 0.27
49 0.96
-49 0.040000000000000036
50 0.44
-50 0.56
51 0.91
-51 0.08999999999999997
52 0.03
-52 0.97
53 0.92
-53 0.07999999999999996
54 0.3
-54 0.7
55 0.5
-55 0.5
56 0.02
-56 0.98
57 0.31
-57 0.69
58 0.75
-58 0.25
59 0.86
-59 0.14
60 0.61
-60 0.39
61 0.33
-61 0.6699999999999999
62 0.92
-62 0.07999999999999996
63 0.28
-63 0.72
64 0.91
-64 0.08999999999999997
65 0.19
-65 0.81
66 0.66
-66 0.33999999999999997
67 0.09
-67 0.91
68 0.19
-68 0.81
69 0.31
-69 0.69
70 0.8
-70 0.19999999999999996
