1 0.41
-1 0.5900000000000001
2 0.51
-2 0.49
3 0.08
-3 0.92
4 0.01
-4 0.99
5 0.05
-5 0.95
6 0.71
-6 0.29000000000000004
7 0.13
-7 0.87
8 0.08
-8 0.92
9 0.32
-9 0.6799999999999999
10 0.18
-10 0.8200000000000001
11 0.49
-11 0.51
12 0.92
-12 0.07999999999999996
13 0.39
-13 0.61
14 0.81
-14 0.18999999999999995
15 0.73
-15 0.27
16 0.03
-16 0.97
17 0.79
-17 0.20999999999999996
18 0.64
-18 0.36
19 0.15
-19 0.85
20 0.85
-20 0.15000000000000002
21 0.21
-21 0.79
22 0.87
-22 0.13
23 0.85
-23 0.15000000000000002
24 0.07
-24 0.9299999999999999
25 0.23
-25 0.77
26 0.79
-26 0.20999999999999996
27 0.62
-27 0.38
28 0.03
-28 0.97
29 0.53
-29 0.47
30 0.55
-30 0.44999999999999996
31 0.68
-31 0.31999999999999995
32 0.03
-32 0.97
33 0.79
-33 0.20999999999999996
34 0.6
-34 0.4
35 0.13
-35 0.87
36 0.73
-36 0.27
37 0.19
-37 0.81
38 0.96
-38 0.040000000000000036
39 0.34
-39 0.6599999999999999
40 0.71
-40 0.29000000000000004
41 0.12
-41 0.88
42 0.57
-42 0.43000000000000005
43 0.45
-43 0.55
44 0.57
-44 0.43000000000000005
45 0.71
-45 0.29000000000000004
46 0.91
-46 0.08999999999999997
47 0.77
-47 0.22999999999999998
48 0.14
-48 0.86
49 0.48
-49 0.52
50 0.42
-50 0.5800000000000001
51 0.57
-51 0.43000000000000005
52 0.76
-52 0.24
53 0.1
-53 0.9
54 0.84
-54 0.16000000000000003
55 0.98
-55 0.020000000000000018
56 0.68
-56 0.31999999999999995
57 0.84
-57 0.16000000000000003
58 0.73
-58 0.27
59 0.2
-59 0.8
60 0.49
-60 0.51
61 0.91
-61 0.08999999999999997
62 0.5
-62 0.5
63 0.66
-63 0.33999999999999997
64 0.75
-64 0.25
65 0.8
-65 0.19999999999999996
66 0.35
-66 0.65
67 0.35
-67 0.65
68 0.02
-68 0.98
69 0.12
-69 0.88
70 0.51
-70 0.49
