1 0.69
-1 0.31000000000000005
2 0.7
-2 0.30000000000000004
3 0.06
-3 0.94
4 0.17
-4 0.83
5 0.69
-5 0.31000000000000005
6 0.23
-6 0.77
7 0.74
-7 0.26
8 0.56
-8 0.43999999999999995
9 0.2
-9 0.8
10 0.6
-10 0.4
11 0.44
-11 0.56
12 0.3
-12 0.7
13 0.59
-13 0.41000000000000003
14 0.22
-14 0.78
15 0.57
-15 0.43000000000000005
16 0.54
-16 0.45999999999999996
17 0.03
-17 0.97
18 0.32
-18 0.6799999999999999
19 0.54
-19 0.45999999999999996
20 0.66
-20 0.33999999999999997
21 0.6
-21 0.4
22 0.22
-22 0.78
23 0.61
-23 0.39
24 0.51
-24 0.49
25 0.57
-25 0.43000000000000005
26 0.71
-26 0.29000000000000004
27 0.66
-27 0.33999999999999997
28 0.75
-28 0.25
29 0.78
-29 0.21999999999999997
30 0.81
-30 0.18999999999999995
31 0.21
-31 0.79
32 0.49
-32 0.51
33 0.59
-33 0.41000000000000003
34 0.09
-34 0.91
35 0.4
-35 0.6
36 0.73
-36 0.27
37 0.78
-37 0.21999999999999997
38 0.75
-38 0.25
39 0.98
-39 0.020000000000000018
40 0.58
-40 0.42000000000000004
41 0.5
-41 0.5
42 0.75
-42 0.25
43 0.52
-43 0.48
44 0.2
-44 0.8
45 0.05
-45 0.95
46 0.45
-46 0.55
47 0.08
-47 0.92
48 0.54
-48 0.45999999999999996
49 0.6
-49 0.4
50 0.82
-50 0.18000000000000005
51 0.58
-51 0.42000000000000004
52 0.71
-52 0.29000000000000004
53 0.6
-53 0.4
54 0.64
-54 0.36
55 0.55
-55 0.44999999999999996
56 0.51
-56 0.49
57 0.98
-57 0.020000000000000018
58 0.63
-58 0.37
59 0.43
-59 0.5700000000000001
60 0.78
-60 0.21999999999999997
61 0.9
-61 0.09999999999999998
62 0.26
-62 0.74
63 0.89
-63 0.10999999999999999
64 0.66
-64 0.33999999999999997
65 0.02
-65 0.98
66 0.67
-66 0.32999999999999996
67 0.95
-67 0.050000000000000044
68 0.21
-68 0.79
69 0.11
-69 0.89
70 0.72
-70 0.28
