1 0.31
-1 0.69
2 0.68
-2 0.31999999999999995
3 0.33
-3 0.6699999999999999
4 0.47
-4 0.53
5 0.49
-5 0.51
6 0.56
-6 0.43999999999999995
7 0.39
-7 0.61
8 0.39
-8 0.61
9 0.57
-9 0.43000000000000005
10 0.12
-10 0.88
11 0.78
-11 0.21999999999999997
12 0.09
-12 0.91
13 0.3
-13 0.7
14 0.49
-14 0.51
15 0.6
-15 0.4
16 0.41
-16 0.5900000000000001
17 0.78
-17 0.21999999999999997
18 0.31
-18 0.69
19 0.91
-19 0.08999999999999997
20 0.35
-20 0.65
21 0.76
-21 0.24
22 0.23
-22 0.77
23 0.48
-23 0.52
24 0.34
-24 0.6599999999999999
25 0.89
-25 0.10999999999999999
26 0.12
-26 0.88
27 0.82
-27 0.18000000000000005
28 0.51
-28 0.49
29 0.42
-29 0.5800000000000001
30 0.17
-30 0.83
31 0.36
-31 0.64
32 0.85
-32 0.15000000000000002
33 0.13
-33 0.87
34 0.15
-34 0.85
35 0.44
-35 0.56
36 0.99
-36 0.010000000000000009
37 0.18
-37 0.8200000000000001
38 0.29
-38 0.71
39 0.14
-39 0.86
40 0.16
-40 0.84
41 0.7
-41 0.30000000000000004
42 0.24
-42 0.76
43 0.37
-43 0.63
44 0.03
-44 0.97
45 0.32
-45 0.6799999999999999
46 0.41
-46 0.5900000000000001
47 0.47
-47 0.53
48 0.99
-48 0.010000000000000009
49 0.23
-49 0.77
50 0.15
-50 0.85
51 0.11
-51 0.89
52 0.52
-52 0.48
53 0.09
-53 0.91
54 0.29
-54 0.71
55 0.51
-55 0.49
56 0.84
-56 0.16000000000000003
57 0.62
-57 0.38
58 0.13
-58 0.87
59 0.55
-59 0.44999999999999996
60 0.15
-60 0.85
61 0.68
-61 0.31999999999999995
62 0.04
-62 0.96
63 0.35
-63 0.65
64 0.76
-64 0.24
65 0.66
-65 0.33999999999999997
66 0.99
-66 0.010000000000000009
67 0.01
-67 0.99
68 0.45
-68 0.55
69 0.97
-69 0.030000000000000027
70 0.96
-70 0.040000000000000036
