1 0.54
-1 0.45999999999999996
2 0.85
-2 0.15000000000000002
3 0.13
-3 0.87
4 0.37
-4 0.63
5 0.65
-5 0.35
6 0.98
-6 0.020000000000000018
7 0.76
-7 0.24
8 0.67
-8 0.32999999999999996
9 0.67
-9 0.32999999999999996
10 0.01
-10 0.99
11 0.97
-11 0.030000000000000027
12 0.68
-12 0.31999999999999995
13 0.29
-13 0.71
14 0.81
-14 0.18999999999999995
15 0.34
-15 0.6599999999999999
16 0.14
-16 0.86
17 0.19
-17 0.81
18 0.43
-18 0.5700000000000001
19 0.79
-19 0.20999999999999996
20 0.95
-20 0.050000000000000044
21 0.58
-21 0.42000000000000004
22 0.63
-22 0.37
23 0.83
-23 0.17000000000000004
24 0.17
-24 0.83
25 0.33
-25 0.6699999999999999
26 0.23
-26 0.77
27 0.77
-27 0.22999999999999998
28 0.17
-28 0.83
29 0.54
-29 0.45999999999999996
30 0.72
-30 0.28
31 0.17
-31 0.83
32 0.9
-32 0.09999999999999998
33 0.13
-33 0.87
34 0.64
-34 0.36
35 0.4
-35 0.6
36 0.22
-36 0.78
37 0.7
-37 0.30000000000000004
38 0.6
-38 0.4
39 0.62
-39 0.38
40 0.91
-40 0.08999999999999997
41 0.88
-41 0.12
42 0.33
-42 0.6699999999999999
43 0.63
-43 0.37
44 0.36
-44 0.64
45 0.29
-45 0.71
46 0.83
-46 0.17000000000000004
47 0.59
-47 0.41000000000000003
48 0.36
-48 0.64
49 0.14
-49 0.86
50 0.79
-50 0.20999999999999996
51 0.03
-51 0.97
52 0.52
-52 0.48
53 0.2
-53 0.8
54 0.45
-54 0.55
55 0.97
-55 0.030000000000000027
56 0.36
-56 0.64
57 0.73
-57 0.27
58 0.99
-58 0.010000000000000009
59 0.65
-59 0.35
60 0.48
-60 0.52
61 0.94
-61 0.06000000000000005
62 0.37
-62 0.63
63 0.96
-63 0.040000000000000036
64 0.07
-64 0.9299999999999999
65 0.73
-65 0.27
66 0.8
-66 0.19999999999999996
67 0.29
-67 0.71
68 0.79
-68 0.20999999999999996
69 0.78
-69 0.21999999999999997
70 0.02
-70 0.98
