1 0.29
-1 0.71
2 0.78
-2 0.21999999999999997
3 0.31
-3 0.69
4 0.9
-4 0.09999999999999998
5 0.98
-5 0.020000000000000018
6 0.36
-6 0.64
7 0.77
-7 0.22999999999999998
8 0.3
-8 0.7
9 0.72
-9 0.28
10 0.31
-10 0.69
11 0.02
-11 0.98
12 0.12
-12 0.88
13 0.82
-13 0.18000000000000005
14 0.52
-14 0.48
15 0.98
-15 0.020000000000000018
16 0.72
-16 0.28
17 0.38
-17 0.62
18 0.97
-18 0.030000000000000027
19 0.13
-19 0.87
20 0.66
-20 0.33999999999999997
21 0.71
-21 0.29000000000000004
22 0.54
-22 0.45999999999999996
23 0.29
-23 0.71
24 0.65
-24 0.35
25 0.94
-25 0.06000000000000005
26 0.76
-26 0.24
27 0.56
-27 0.43999999999999995
28 0.25
-28 0.75
29 0.88
-29 0.12
30 0.88
-30 0.12
31 0.91
-31 0.08999999999999997
32 0.7
-32 0.30000000000000004
33 0.62
-33 0.38
34 0.03
-34 0.97
35 0.72
-35 0.28
36 0.47
-36 0.53
37 0.43
-37 0.5700000000000001
38 0.15
-38 0.85
39 0.55
-39 0.44999999999999996
40 0.29
-40 0.71
41 0.4
-41 0.6
42 0.16
-42 0.84
43 0.24
-43 0.76
44 0.17
-44 0.83
45 0.43
-45 0.5700000000000001
46 0.16
-46 0.84
47 0.41
-47 0.5900000000000001
48 0.88
-48 0.12
49 0.38
-49 0.62
50 0.14
-50 0.86
51 0.46
-51 0.54
52 0.14
-52 0.86
53 0.66
-53 0.33999999999999997
54 0.16
-54 0.84
55 0.31
-55 0.69
56 0.71
-56 0.29000000000000004
57 0.89
-57 0.10999999999999999
58 0.41
-58 0.5900000000000001
59 0.92
-59 0.07999999999999996
60 0.36
-60 0.64
61 0.5
-61 0.5
62 0.07
-62 0.9299999999999999
63 0.37
-63 0.63
64 0.8
-64 0.19999999999999996
65 0.7
-65 0.30000000000000004
66 0.5
-66 0.5
67 0.86
-67 0.14
68 0.71
-68 0.29000000000000004
69 0.03
-69 0.97
70 0.56
-70 0.43999999999999995
