1 0.23
-1 0.77
2 0.08
-2 0.92
3 0.36
-3 0.64
4 0.9
-4 0.09999999999999998
5 0.27
-5 0.73
6 0.65
-6 0.35
7 0.93
-7 0.06999999999999995
8 0.63
-8 0.37
9 0.39
-9 0.61
10 0.96
-10 0.040000000000000036
11 0.39
-11 0.61
12 0.5
-12 0.5
13 0.07
-13 0.9299999999999999
14 0.11
-14 0.89
15 0.59
-15 0.41000000000000003
16 0.29
-16 0.71
17 0.83
-17 0.17000000000000004
18 0.3
-18 0.7
19 0.53
-19 0.47
20 0.91
-20 0.08999999999999997
21 0.4
-21 0.6
22 0.56
-22 0.43999999999999995
23 0.43
-23 0.5700000000000001
24 0.39
-24 0.61
25 0.65
-25 0.35
26 0.26
-26 0.74
27 0.5
-27 0.5
28 0.94
-28 0.06000000000000005
29 0.68
-29 0.31999999999999995
30 0.29
-30 0.71
31 0.16
-31 0.84
32 0.84
-32 0.16000000000000003
33 0.11
-33 0.89
34 0.37
-34 0.63
35 0.7
-35 0.30000000000000004
36 0.3
-36 0.7
37 0.92
-37 0.07999999999999996
38 0.15
-38 0.85
39 0.06
-39 0.94
40 0.86
-40 0.14
41 0.39
-41 0.61
42 0.61
-42 0.39
43 0.72
-43 0.28
44 0.6
-44 0.4
45 0.84
-45 0.16000000000000003
46 0.57
-46 0.43000000000000005
47 0.92
-47 0.07999999999999996
48 0.9
-48 0.09999999999999998
49 0.71
-49 0.29000000000000004
50 0.85
-50 0.15000000000000002
51 0.84
-51 0.16000000000000003
52 0.32
-52 0.6799999999999999
53 0.24
-53 0.76
54 0.73
-54 0.27
55 0.88
-55 0.12
56 0.9
-56 0.09999999999999998
57 0.41
-57 0.5900000000000001
58 0.67
-58 0.32999999999999996
59 0.26
-59 0.74
60 0.05
-60 0.95
61 0.17
-61 0.83
62 0.56
-62 0.43999999999999995
63 0.44
-63 0.56
64 0.89
-64 0.10999999999999999
65 0.92
-65 0.07999999999999996
66 0.33
-66 0.6699999999999999
67 0.92
-67 0.07999999999999996
68 0.15
-68 0.85
69 0.66
-69 0.33999999999999997
70 0.36
-70 0.64
