1 0.44
-1 0.56
2 0.73
-2 0.27
3 0.22
-3 0.78
4 0.38
-4 0.62
5 0.07
-5 0.9299999999999999
6 0.2
-6 0.8
7 0.91
-7 0.08999999999999997
8 0.31
-8 0.69
9 0.52
-9 0.48
10 0.27
-10 0.73
11 0.81
-11 0.18999999999999995
12 0.63
-12 0.37
13 0.09
-13 0.91
14 0.82
-14 0.18000000000000005
15 0.52
-15 0.48
16 0.95
-16 0.050000000000000044
17 0.4
-17 0.6
18 0.84
-18 0.16000000000000003
19 0.4
-19 0.6
20 0.22
-20 0.78
21 0.55
-21 0.44999999999999996
22 0.99
-22 0.010000000000000009
23 0.39
-23 0.61
24 0.38
-24 0.62
25 0.3
-25 0.7
26 0.96
-26 0.040000000000000036
27 0.74
-27 0.26
28 0.29
-28 0.71
29 0.25
-29 0.75
30 0.63
-30 0.37
31 0.44
-31 0.56
32 0.09
-32 0.91
33 0.42
-33 0.5800000000000001
34 0.67
-34 0.32999999999999996
35 0.28
-35 0.72
36 0.05
-36 0.95
37 0.42
-37 0.5800000000000001
38 0.62
-38 0.38
39 0.43
-39 0.5700000000000001
40 0.84
-40 0.16000000000000003
41 0.5
-41 0.5
42 0.45
-42 0.55
43 0.49
-43 0.51
44 0.23
-44 0.77
45 0.03
-45 0.97
46 0.99
-46 0.010000000000000009
47 0.63
-47 0.37
48 0.84
-48 0.16000000000000003
49 0.61
-49 0.39
50 0.44
-50 0.56
51 0.74
-51 0.26
52 0.14
-52 0.86
53 0.3
-53 0.7
54 0.05
-54 0.95
55 0.56
-55 0.43999999999999995
56 0.8
-56 0.19999999999999996
57 0.21
-57 0.79
58 0.4
-58 0.6
59 0.59
-59 0.41000000000000003
60 0.36
-60 0.64
61 0.47
-61 0.53
62 0.64
-62 0.36
63 0.21
-63 0.79
64 0.77
-64 0.22999999999999998
65 0.7
-65 0.30000000000000004
66 0.93
-66 0.06999999999999995
67 0.35
-67 0.65
68 0.12
-68 0.88
69 0.85
-69 0.15000000000000002
70 0.48
-70 0.52
