1 0.3
-1 0.7
2 0.25
-2 0.75
3 0.99
-3 0.010000000000000009
4 0.5
-4 0.5
5 0.48
-5 0.52
6 0.23
-6 0.77
7 0.74
-7 0.26
8 0.66
-8 0.33999999999999997
9 0.26
-9 0.74
10 0.52
-10 0.48
11 0.18
-11 0.8200000000000001
12 0.66
-12 0.33999999999999997
13 0.62
-13 0.38
14 0.46
-14 0.54
15 0.36
-15 0.64
16 0.93
-16 0.06999999999999995
17 0.21
-17 0.79
18 0.15
-18 0.85
19 0.63
-19 0.37
20 0.3
-20 0.7
21 0.75
-21 0.25
22 0.22
-22 0.78
23 0.09
-23 0.91
24 0.24
-24 0.76
25 0.98
-25 0.020000000000000018
26 0.64
-26 0.36
27 0.52
-27 0.48
28 0.65
-28 0.35
29 0.35
-29 0.65
30 0.32
-30 0.6799999999999999
31 0.6
-31 0.4
32 0.43
-32 0.5700000000000001
33 0.12
-33 0.88
34 0.78
-34 0.21999999999999997
35 0.07
-35 0.9299999999999999
36 0.41
-36 0.5900000000000001
37 0.39
-37 0.61
38 0.75
-38 0.25
39 0.85
-39 0.15000000000000002
40 0.01
-40 0.99
41 0.48
-41 0.52
42 0.07
-42 0.9299999999999999
43 0.23
-43 0.77
44 0.48
-44 0.52
45 0.34
-45 0.6599999999999999
46 0.67
-46 0.32999999999999996
47 0.56
-47 0.43999999999999995
48 0.88
-48 0.12
49 0.36
-49 0.64
50 0.49
-50 0.51
51 0.97
-51 0.030000000000000027
52 0.1
-52 0.9
53 0.8
-53 0.19999999999999996
54 0.95
-54 0.050000000000000044
55 0.31
-55 0.69
56 0.83
-56 0.17000000000000004
57 0.58
-57 0.42000000000000004
58 0.49
-58 0.51
59 0.07
-59 0.9299999999999999
60 0.14
-60 0.86
61 0.62
-61 0.38
62 0.96
-62 0.040000000000000036
63 0.92
-63 0.07999999999999996
64 0.78
-64 0.21999999999999997
65 0.69
-65 0.31000000000000005
66 0.66
-66 0.33999999999999997
67 0.3
-67 0.7
68 0.52
-68 0.48
69 0.35
-69 0.65
70 0.91
-70 0.08999999999999997
