1 0.65
-1 0.35
2 0.22
-2 0.78
3 0.85
-3 0.15000000000000002
4 0.91
-4 0.08999999999999997
5 0.23
-5 0.77
6 0.8
-6 0.19999999999999996
7 0.01
-7 0.99
8 0.22
-8 0.78
9 0.23
-9 0.77
10 0.48
-10 0.52
11 0.61
-11 0.39
12 0.88
-12 0.12
13 0.25
-13 0.75
14 0.63
-14 0.37
15 0.93
-15 0.06999999999999995
16 0.84
-16 0.16000000000000003
17 0.15
-17 0.85
18 0.72
-18 0.28
19 0.6
-19 0.4
20 0.99
-20 0.010000000000000009
21 0.28
-21 0.72
22 0.16
-22 0.84
23 0.11
-23 0.89
24 0.05
-24 0.95
25 0.35
-25 0.65
26 0.09
-26 0.91
27 0.5
-27 0.5
28 0.35
-28 0.65
29 0.3
-29 0.7
30 0.33
-30 0.6699999999999999
31 0.05
-31 0.95
32 0.9
-32 0.09999999999999998
33 0.1
-33 0.9
34 0.15
-34 0.85
35 0.51
-35 0.49
36 0.99
-36 0.010000000000000009
37 0.28
-37 0.72
38 0.86
-38 0.14
39 0.69
-39 0.31000000000000005
40 0.4
-40 0.6
41 0.29
-41 0.71
42 0.21
-42 0.79
43 0.26
-43 0.74
44 0.98
-44 0.020000000000000018
45 0.28
-45 0.72
46 0.95
-46 0.050000000000000044
47 0.18
-47 0.8200000000000001
48 0.28
-48 0.72
49 0.59
-49 0.41000000000000003
50 0.73
-50 0.27
51 0.66
-51 0.33999999999999997
52 0.58
-52 0.42000000000000004
53 0.81
-53 0.18999999999999995
54 0.58
-54 0.42000000000000004
55 0.83
-55 0.17000000000000004
56 0.62
-56 0.38
57 0.39
-57 0.61
58 0.61
-58 0.39
59 0.18
-59 0.8200000000000001
60 0.96
-60 0.040000000000000036
61 0.36
-61 0.64
62 0.06
-62 0.94
63 0.76
-63 0.24
64 0.09
-64 0.91
65 0.95
-65 0.050000000000000044
66 0.27
-66 0.73
67 0.72
-67 0.28
68 0.15
-68 0.85
69 0.84
-69 0.16000000000000003
70 0.22
-70 0.78
