1 0.52
-1 0.48
2 0.3
-2 0.7
3 0.31
-3 0.69
4 0.54
-4 0.45999999999999996
5 0.97
-5 0.030000000000000027
6 0.3
-6 0.7
7 0.38
-7 0.62
8 0.75
-8 0.25
9 0.23
-9 0.77
10 0.64
-10 0.36
11 0.01
-11 0.99
12 0.55
-12 0.44999999999999996
13 0.65
-13 0.35
14 0.4
-14 0.6
15 0.38
-15 0.62
16 0.81
-16 0.18999999999999995
17 0.48
-17 0.52
18 0.72
-18 0.28
19 0.38
-19 0.62
20 0.5
-20 0.5
21 0.81
-21 0.18999999999999995
22 0.99
-22 0.010000000000000009
23 0.8
-23 0.19999999999999996
24 0.92
-24 0.07999999999999996
25 0.15
-25 0.85
26 0.64
-26 0.36
27 0.88
-27 0.12
28 0.53
-28 0.47
29 0.99
-29 0.010000000000000009
30 0.29
-30 0.71
31 0.48
-31 0.52
32 0.53
-32 0.47
33 0.46
-33 0.54
34 0.65
-34 0.35
35 0.37
-35 0.63
36 0.66
-36 0.33999999999999997
37 0.98
-37 0.020000000000000018
38 0.21
-38 0.79
39 0.96
-39 0.040000000000000036
40 0.03
-40 0.97
41 0.58
-41 0.42000000000000004
42 0.08
-42 0.92
43 0.04
-43 0.96
44 0.49
-44 0.51
45 0.81
-45 0.18999999999999995
46 0.53
-46 0.47
47 0.45
-47 0.55
48 0.29
-48 0.71
49 0.26
-49 0.74
50 0.45
-50 0.55
51 0.26
-51 0.74
52 0.7
-52 0.30000000000000004
53 0.11
-53 0.89
54 0.59
-54 0.41000000000000003
55 0.59
-55 0.41000000000000003
56 0.56
-56 0.43999999999999995
57 0.2
-57 0.8
58 0.6
-58 0.4
59 0.64
-59 0.36
60 0.51
-60 0.49
61 0.74
-61 0.26
62 0.42
-62 0.5800000000000001
63 0.17
-63 0.83
64 0.83
-64 0.17000000000000004
65 0.29
-65 0.71
66 0.27
-66 0.73
67 0.77
-67 0.22999999999999998
68 0.58
-68 0.42000000000000004
69 0.29
-69 0.71
70 0.23
-70 0.77
