1 0.73
-1 0.27
2 0.6
-2 0.4
3 0.26
-3 0.74
4 0.59
-4 0.41000000000000003
5 0.39
-5 0.61
6 0.58
-6 0.42000000000000004
7 0.46
-7 0.54
8 0.39
-8 0.61
9 0.53
-9 0.47
10 0.44
-10 0.56
11 0.55
-11 0.44999999999999996
12 0.61
-12 0.39
13 0.51
-13 0.49
14 0.58
-14 0.42000000000000004
15 0.55
-15 0.44999999999999996
16 0.2
-16 0.8
17 0.38
-17 0.62
18 0.02
-18 0.98
19 0.29
-19 0.71
20 0.65
-20 0.35
21 0.19
-21 0.81
22 0.19
-22 0.81
23 0.64
-23 0.36
24 0.02
-24 0.98
25 0.95
-25 0.050000000000000044
26 0.62
-26 0.38
27 0.08
-27 0.92
28 0.47
-28 0.53
29 0.52
-29 0.48
30 0.5
-30 0.5
31 0.84
-31 0.16000000000000003
32 0.26
-32 0.74
33 0.33
-33 0.6699999999999999
34 0.16
-34 0.84
35 0.94
-35 0.06000000000000005
36 0.29
-36 0.71
37 0.22
-37 0.78
38 0.05
-38 0.95
39 0.4
-39 0.6
40 0.51
-40 0.49
41 0.03
-41 0.97
42 0.35
-42 0.65
43 0.96
-43 0.040000000000000036
44 0.68
-44 0.31999999999999995
45 0.83
-45 0.17000000000000004
46 0.36
-46 0.64
47 0.59
-47 0.41000000000000003
48 0.31
-48 0.69
49 0.97
-49 0.030000000000000027
50 0.53
-50 0.47
51 0.96
-51 0.040000000000000036
52 0.64
-52 0.36
53 0.93
-53 0.06999999999999995
54 0.02
-54 0.98
55 0.51
-55 0.49
56 0.41
-56 0.5900000000000001
57 0.8
-57 0.19999999999999996
58 0.87
-58 0.13
59 0.38
-59 0.62
60 0.9
-60 0.09999999999999998
61 0.73
-61 0.27
62 0.45
-62 0.55
63 0.91
-63 0.08999999999999997
64 0.26
-64 0.74
65 0.94
-65 0.06000000000000005
66 0.8
-66 0.19999999999999996
67 0.22
-67 0.78
68 0.76
-68 0.24
69 0.85
-69 0.15000000000000002
70 0.57
-70 0.43000000000000005
