1 0.72
-1 0.28
2 0.47
-2 0.53
3 0.86
-3 0.14
4 0.57
-4 0.43000000000000005
5 0.98
-5 0.020000000000000018
6 0.54
-6 0.45999999999999996
7 0.98
-7 0.020000000000000018
8 0.32
-8 0.6799999999999999
9 0.57
-9 0.43000000000000005
10 0.49
-10 0.51
11 0.78
-11 0.21999999999999997
12 0.17
-12 0.83
13 0.34
-13 0.6599999999999999
14 0.05
-14 0.95
15 0.19
-15 0.81
16 0.51
-16 0.49
17 0.3
-17 0.7
18 0.85
-18 0.15000000000000002
19 0.88
-19 0.12
20 0.17
-20 0.83
21 0.3
-21 0.7
22 0.47
-22 0.53
23 0.26
-23 0.74
24 0.21
-24 0.79
25 0.02
-25 0.98
26 0.41
-26 0.5900000000000001
27 0.86
-27 0.14
28 0.81
-28 0.18999999999999995
29 0.3
-29 0.7
30 0.39
-30 0.61
31 0.88
-31 0.12
32 0.04
-32 0.96
33 0.27
-33 0.73
34 0.76
-34 0.24
35 0.34
-35 0.6599999999999999
36 0.33
-36 0.6699999999999999
37 0.49
-37 0.51
38 0.73
-38 0.27
39 0.8
-39 0.19999999999999996
40 0.71
-40 0.29000000000000004
41 0.08
-41 0.92
42 0.98
-42 0.020000000000000018
43 0.04
-43 0.96
44 0.43
-44 0.5700000000000001
45 0.28
-45 0.72
46 0.74
-46 0.26
47 0.24
-47 0.76
48 0.77
-48 0.22999999999999998
49 0.77
-49 0.22999999999999998
50 0.89
-50 0.10999999999999999
51 0.36
-51 0.64
52 0.54
-52 0.45999999999999996
53 0.45
-53 0.55
54 0.67
-54 0.32999999999999996
55 0.87
-55 0.13
56 0.01
-56 0.99
57 0.46
-57 0.54
58 0.77
-58 0.22999999999999998
59 0.91
-59 0.08999999999999997
60 0.48
-60 0.52
61 0.35
-61 0.65
62 0.45
-62 0.55
63 0.03
-63 0.97
64 0.52
-64 0.48
65 0.38
-65 0.62
66 0.04
-66 0.96
67 0.42
-67 0.5800000000000001
68 0.86
-68 0.14
69 0.85
-69 0.15000000000000002
70 0.21
-70 0.79
