1 0.64
-1 0.36
2 0.75
-2 0.25
3 0.36
-3 0.64
4 0.22
-4 0.78
5 0.94
-5 0.06000000000000005
6 0.48
-6 0.52
7 0.31
-7 0.69
8 0.36
-8 0.64
9 0.45
-9 0.55
10 0.25
-10 0.75
11 0.99
-11 0.010000000000000009
12 0.45
-12 0.55
13 0.65
-13 0.35
14 0.17
-14 0.83
15 0.94
-15 0.06000000000000005
16 0.32
-16 0.6799999999999999
17 0.16
-17 0.84
18 0.9
-18 0.09999999999999998
19 0.23
-19 0.77
20 0.58
-20 0.42000000000000004
21 0.01
-21 0.99
22 0.36
-22 0.64
23 0.67
-23 0.32999999999999996
24 0.09
-24 0.91
25 0.96
-25 0.040000000000000036
26 0.54
-26 0.45999999999999996
27 0.86
-27 0.14
28 0.74
-28 0.26
29 0.8
-29 0.19999999999999996
30 0.07
-30 0.9299999999999999
31 0.73
-31 0.27
32 0.8
-32 0.19999999999999996
33 0.45
-33 0.55
34 0.06
-34 0.94
35 0.31
-35 0.69
36 0.83
-36 0.17000000000000004
37 0.31
-37 0.69
38 0.09
-38 0.91
39 0.9
-39 0.09999999999999998
40 0.88
-40 0.12
41 0.69
-41 0.31000000000000005
42 0.91
-42 0.08999999999999997
43 0.6
-43 0.4
44 0.81
-44 0.18999999999999995
45 0.75
-45 0.25
46 0.89
-46 0.10999999999999999
47 0.58
-47 0.42000000000000004
48 0.94
-48 0.06000000000000005
49 0.37
-49 0.63
50 0.91
-50 0.08999999999999997
51 0.13
-51 0.87
52 0.21
-52 0.79
53 0.08
-53 0.92
54 0.47
-54 0.53
55 0.14
-55 0.86
56 0.73
-56 0.27
57 0.7
-57 0.30000000000000004
58 0.02
-58 0.98
59 0.22
-59 0.78
60 0.96
-60 0.040000000000000036
61 0.04
-61 0.96
62 0.72
-62 0.28
63 0.29
-63 0.71
64 0.22
-64 0.78
65 0.24
-65 0.76
66 0.61
-66 0.39
67 0.39
-67 0.61
68 0.43
-68 0.5700000000000001
69 0.91
-69 0.08999999999999997
70 0.99
-70 0.010000000000000009
