1 0.68
-1 0.31999999999999995
2 0.41
-2 0.5900000000000001
3 0.54
-3 0.45999999999999996
4 0.99
-4 0.010000000000000009
5 0.18
-5 0.8200000000000001
6 0.18
-6 0.8200000000000001
7 0.55
-7 0.44999999999999996
8 0.87
-8 0.13
9 0.44
-9 0.56
10 0.19
-10 0.81
11 0.99
-11 0.010000000000000009
12 0.67
-12 0.32999999999999996
13 0.83
-13 0.17000000000000004
14 0.79
-14 0.20999999999999996
15 0.34
-15 0.6599999999999999
16 0.82
-16 0.18000000000000005
17 0.69
-17 0.31000000000000005
18 0.96
-18 0.040000000000000036
19 0.97
-19 0.030000000000000027
20 0.3
-20 0.7
21 0.54
-21 0.45999999999999996
22 0.24
-22 0.76
23 0.22
-23 0.78
24 0.29
-24 0.71
25 0.32
-25 0.6799999999999999
26 0.66
-26 0.33999999999999997
27 0.63
-27 0.37
28 0.84
-28 0.16000000000000003
29 0.38
-29 0.62
30 0.68
-30 0.31999999999999995
31 0.25
-31 0.75
32 0.15
-32 0.85
33 0.29
-33 0.71
34 0.76
-34 0.24
35 0.65
-35 0.35
36 0.03
-36 0.97
37 0.26
-37 0.74
38 0.2
-38 0.8
39 0.49
-39 0.51
40 0.01
-40 0.99
41 0.47
-41 0.53
42 0.22
-42 0.78
43 0.67
-43 0.32999999999999996
44 0.25
-44 0.75
45 0.96
-45 0.040000000000000036
46 0.07
-46 0.9299999999999999
47 0.56
-47 0.43999999999999995
48 0.55
-48 0.44999999999999996
49 0.32
-49 0.6799999999999999
50 0.05
-50 0.95
51 0.16
-51 0.84
52 0.97
-52 0.030000000000000027
53 0.29
-53 0.71
54 0.05
-54 0.95
55 0.1
-55 0.9
56 0.37
-56 0.63
57 0.33
-57 0.6699999999999999
58 0.25
-58 0.75
59 0.78
-59 0.21999999999999997
60 0.34
-60 0.6599999999999999
61 0.08
-61 0.92
62 0.19
-62 0.81
63 0.89
-63 0.10999999999999999
64 0.26
-64 0.74
65 0.47
-65 0.53
66 0.65
-66 0.35
67 0.44
-67 0.56
68 0.07
-68 0.9299999999999999
69 0.66
-69 0.33999999999999997
70 0.04
-70 0.96
