1 0.29
-1 0.71
2 0.92
-2 0.07999999999999996
3 0.59
-3 0.41000000000000003
4 0.67
-4 0.32999999999999996
5 0.59
-5 0.41000000000000003
6 0.14
-6 0.86
7 0.49
-7 0.51
8 0.48
-8 0.52
9 0.12
-9 0.88
10 0.93
-10 0.06999999999999995
11 0.7
-11 0.30000000000000004
12 0.55
-12 0.44999999999999996
13 0.02
-13 0.98
14 0.27
-14 0.73
15 0.79
-15 0.20999999999999996
16 0.8
-16 0.19999999999999996
17 0.86
-17 0.14
18 0.56
-18 0.43999999999999995
19 0.17
-19 0.83
20 0.9
-20 0.09999999999999998
21 0.22
-21 0.78
22 0.74
-22 0.26
23 0.37
-23 0.63
24 0.7
-24 0.30000000000000004
25 0.68
-25 0.31999999999999995
26 0.68
-26 0.31999999999999995
27 0.85
-27 0.15000000000000002
28 0.5
-28 0.5
29 0.26
-29 0.74
30 0.81
-30 0.18999999999999995
31 0.52
-31 0.48
32 0.7
-32 0.30000000000000004
33 0.49
-33 0.51
34 0.01
-34 0.99
35 0.95
-35 0.050000000000000044
36 0.06
-36 0.94
37 0.74
-37 0.26
38 0.46
-38 0.54
39 0.28
-39 0.72
40 0.74
-40 0.26
41 0.42
-41 0.5800000000000001
42 0.03
-42 0.97
43 0.5
-43 0.5
44 0.49
-44 0.51
45 0.22
-45 0.78
46 0.14
-46 0.86
47 0.76
-47 0.24
48 0.09
-48 0.91
49 0.97
-49 0.030000000000000027
50 0.2
-50 0.8
51 0.9
-51 0.09999999999999998
52 0.27
-52 0.73
53 0.06
-53 0.94
54 0.31
-54 0.69
55 0.8
-55 0.19999999999999996
56 0.61
-56 0.39
57 0.39
-57 0.61
58 0.18
-58 0.8200000000000001
59 0.78
-59 0.21999999999999997
60 0.55
-60 0.44999999999999996
61 0.81
-61 0.18999999999999995
62 0.81
-62 0.18999999999999995
63 0.5
-63 0.5
64 0.31
-64 0.69
65 0.53
-65 0.47
66 0.53
-66 0.47
67 0.79
-67 0.20999999999999996
68 0.6
-68 0.4
69 0.25
-69 0.75
70 0.5
-70 0.5
