1 0.39
-1 0.61
2 0.92
-2 0.07999999999999996
3 0.63
-3 0.37
4 0.44
-4 0.56
5 0.21
-5 0.79
6 0.6
-6 0.4
7 0.4
-7 0.6
8 0.21
-8 0.79
9 0.36
-9 0.64
10 0.48
-10 0.52
11 0.87
-11 0.13
12 0.71
-12 0.29000000000000004
13 0.17
-13 0.83
14 0.68
-14 0.31999999999999995
15 0.02
-15 0.98
16 0.47
-16 0.53
17 0.68
-17 0.31999999999999995
18 0.05
-18 0.95
19 0.01
-19 0.99
20 0.16
-20 0.84
21 0.26
-21 0.74
22 0.96
-22 0.040000000000000036
23 0.6
-23 0.4
24 0.81
-24 0.18999999999999995
25 0.49
-25 0.51
26 0.54
-26 0.45999999999999996
27 0.27
-27 0.73
28 0.66
-28 0.33999999999999997
29 0.11
-29 0.89
30 0.1
-30 0.9
31 0.37
-31 0.63
32 0.25
-32 0.75
33 0.06
-33 0.94
34 0.39
-34 0.61
35 0.43
-35 0.5700000000000001
36 0.29
-36 0.71
37 0.58
-37 0.42000000000000004
38 0.04
-38 0.96
39 0.71
-39 0.29000000000000004
40 0.21
-40 0.79
41 0.32
-41 0.6799999999999999
42 0.21
-42 0.79
43 0.62
-43 0.38
44 0.13
-44 0.87
45 0.12
-45 0.88
46 0.69
-46 0.31000000000000005
47 0.85
-47 0.15000000000000002
48 0.89
-48 0.10999999999999999
49 0.83
-49 0.17000000000000004
50 0.29
-50 0.71
51 0.44
-51 0.56
52 0.06
-52 0.94
53 0.57
-53 0.43000000000000005
54 0.56
-54 0.43999999999999995
55 0.89
-55 0.10999999999999999
56 0.68
-56 0.31999999999999995
57 0.38
-57 0.62
58 0.39
-58 0.61
59 0.13
-59 0.87
60 0.53
-60 0.47
61 0.12
-61 0.88
62 0.39
-62 0.61
63 0.4
-63 0.6
64 0.79
-64 0.20999999999999996
65 0.97
-65 0.030000000000000027
66 0.61
-66 0.39
67 0.04
-67 0.96
68 0.83
-68 0.17000000000000004
69 0.23
-69 0.77
70 0.86
-70 0.14
