1 0.77
-1 0.22999999999999998
2 0.5
-2 0.5
3 0.08
-3 0.92
4 0.83
-4 0.17000000000000004
5 0.7
-5 0.30000000000000004
6 0.39
-6 0.61
7 0.1
-7 0.9
8 0.15
-8 0.85
9 0.99
-9 0.010000000000000009
10 0.11
-10 0.89
11 0.84
-11 0.16000000000000003
12 0.21
-12 0.79
13 0.39
-13 0.61
14 0.58
-14 0.42000000000000004
15 0.82
-15 0.18000000000000005
16 0.25
-16 0.75
17 0.48
-17 0.52
18 0.25
-18 0.75
19 0.05
-19 0.95
20 0.25
-20 0.75
21 0.2
-21 0.8
22 0.98
-22 0.020000000000000018
23 0.49
-23 0.51
24 0.37
-24 0.63
25 0.34
-25 0.6599999999999999
26 0.58
-26 0.42000000000000004
27 0.08
-27 0.92
28 0.74
-28 0.26
29 0.22
-29 0.78
30 0.79
-30 0.20999999999999996
31 0.81
-31 0.18999999999999995
32 0.15
-32 0.85
33 0.78
-33 0.21999999999999997
34 0.51
-34 0.49
35 0.85
-35 0.15000000000000002
36 0.94
-36 0.06000000000000005
37 0.95
-37 0.050000000000000044
38 0.61
-38 0.39
39 0.68
-39 0.31999999999999995
40 0.39
-40 0.61
41 0.99
-41 0.010000000000000009
42 0.09
-42 0.91
43 0.77
-43 0.22999999999999998
44 0.85
-44 0.15000000000000002
45 0.99
-45 0.010000000000000009
46 0.93
-46 0.06999999999999995
47 0.42
-47 0.5800000000000001
48 0.95
-48 0.050000000000000044
49 0.62
-49 0.38
50 0.92
-50 0.07999999999999996
51 0.87
-51 0.13
52 0.67
-52 0.32999999999999996
53 0.89
-53 0.10999999999999999
54 0.28
-54 0.72
55 0.02
-55 0.98
56 0.59
-56 0.41000000000000003
57 0.36
-57 0.64
58 0.81
-58 0.18999999999999995
59 0.35
-59 0.65
60 0.14
-60 0.86
61 0.28
-61 0.72
62 0.02
-62 0.98
63 0.26
-63 0.74
64 0.19
-64 0.81
65 0.02
-65 0.98
66 0.77
-66 0.22999999999999998
67 0.84
-67 0.16000000000000003
68 0.04
-68 0.96
69 0.11
-69 0.89
70 0.67
-70 0.32999999999999996
