1 0.44
-1 0.56
2 0.58
-2 0.42000000000000004
3 0.28
-3 0.72
4 0.28
-4 0.72
5 0.77
-5 0.22999999999999998
6 0.4
-6 0.6
7 0.05
-7 0.95
8 0.53
-8 0.47
9 0.61
-9 0.39
10 0.64
-10 0.36
11 0.72
-11 0.28
12 0.72
-12 0.28
13 0.67
-13 0.32999999999999996
14 0.46
-14 0.54
15 0.27
-15 0.73
16 0.2
-16 0.8
17 0.33
-17 0.6699999999999999
18 0.78
-18 0.21999999999999997
19 0.21
-19 0.79
20 0.99
-20 0.010000000000000009
21 0.93
-21 0.06999999999999995
22 0.05
-22 0.95
23 0.35
-23 0.65
24 0.78
-24 0.21999999999999997
25 0.8
-25 0.19999999999999996
26 0.77
-26 0.22999999999999998
27 0.72
-27 0.28
28 0.64
-28 0.36
29 0.06
-29 0.94
30 0.51
-30 0.49
31 0.3
-31 0.7
32 0.61
-32 0.39
33 0.62
-33 0.38
34 0.09
-34 0.91
35 0.56
-35 0.43999999999999995
36 0.86
-36 0.14
37 0.36
-37 0.64
38 0.79
-38 0.20999999999999996
39 0.81
-39 0.18999999999999995
40 0.38
-40 0.62
41 0.97
-41 0.030000000000000027
42 0.57
-42 0.43000000000000005
43 0.6
-43 0.4
44 0.23
-44 0.77
45 0.61
-45 0.39
46 0.73
-46 0.27
47 0.45
-47 0.55
48 0.95
-48 0.050000000000000044
49 0.8
-49 0.19999999999999996
50 0.79
-50 0.20999999999999996
51 0.41
-51 0.5900000000000001
52 0.59
-52 0.41000000000000003
53 0.8
-53 0.19999999999999996
54 0.61
-54 0.39
55 0.73
-55 0.27
56 0.74
-56 0.26
57 0.66
-57 0.33999999999999997
58 0.46
-58 0.54
59 0.33
-59 0.6699999999999999
60 0.92
-60 0.07999999999999996
61 0.83
-61 0.17000000000000004
62 0.72
-62 0.28
63 0.99
-63 0.010000000000000009
64 0.79
-64 0.20999999999999996
65 0.87
-65 0.13
66 0.26
-66 0.74
67 0.42
-67 0.5800000000000001
68 0.52
-68 0.48
69 0.12
-69 0.88
70 0.33
-70 0.6699999999999999
