1 0.05
-1 0.95
2 0.89
-2 0.10999999999999999
3 0.3
-3 0.7
4 0.04
-4 0.96
5 0.31
-5 0.69
6 0.99
-6 0.010000000000000009
7 0.97
-7 0.030000000000000027
8 0.15
-8 0.85
9 0.19
-9 0.81
10 0.18
-10 0.8200000000000001
11 0.71
-11 0.29000000000000004
12 0.72
-12 0.28
13 0.82
-13 0.18000000000000005
14 0.17
-14 0.83
15 0.52
-15 0.48
16 0.48
-16 0.52
17 0.43
-17 0.5700000000000001
18 0.64
-18 0.36
19 0.62
-19 0.38
20 0.17
-20 0.83
21 0.62
-21 0.38
22 0.28
-22 0.72
23 0.34
-23 0.6599999999999999
24 0.76
-24 0.24
25 0.86
-25 0.14
26 0.02
-26 0.98
27 0.32
-27 0.6799999999999999
28 0.9
-28 0.09999999999999998
29 0.47
-29 0.53
30 0.93
-30 0.06999999999999995
31 0.92
-31 0.07999999999999996
32 0.94
-32 0.06000000000000005
33 0.77
-33 0.22999999999999998
34 0.77
-34 0.22999999999999998
35 0.59
-35 0.41000000000000003
36 0.4
-36 0.6
37 0.05
-37 0.95
38 0.86
-38 0.14
39 0.64
-39 0.36
40 0.62
-40 0.38
41 0.76
-41 0.24
42 0.43
-42 0.5700000000000001
43 0.95
-43 0.050000000000000044
44 0.77
-44 0.22999999999999998
45 0.02
-45 0.98
46 0.71
-46 0.29000000000000004
47 0.23
-47 0.77
48 0.92
-48 0.07999999999999996
49 0.74
-49 0.26
50 0.76
-50 0.24
51 0.05
-51 0.95
52 0.47
-52 0.53
53 0.95
-53 0.050000000000000044
54 0.85
-54 0.15000000000000002
55 0.84
-55 0.16000000000000003
56 0.87
-56 0.13
57 0.43
-57 0.5700000000000001
58 0.24
-58 0.76
59 0.56
-59 0.43999999999999995
60 0.57
-60 0.43000000000000005
61 0.5
-61 0.5
62 0.18
-62 0.8200000000000001
63 0.09
-63 0.91
64 0.14
-64 0.86
65 0.25
-65 0.75
66 0.86
-66 0.14
67 0.93
-67 0.06999999999999995
68 0.1
-68 0.9
69 0.68
-69 0.31999999999999995
70 0.03
-70 0.97
