1 0.32
-1 0.6799999999999999
2 0.38
-2 0.62
3 0.7
-3 0.30000000000000004
4 0.92
-4 0.07999999999999996
5 0.75
-5 0.25
6 0.27
-6 0.73
7 0.11
-7 0.89
8 0.26
-8 0.74
9 0.94
-9 0.06000000000000005
10 0.21
-10 0.79
11 0.93
-11 0.06999999999999995
12 0.4
-12 0.6
13 0.87
-13 0.13
14 0.78
-14 0.21999999999999997
15 0.34
-15 0.6599999999999999
16 0.39
-16 0.61
17 0.67
-17 0.32999999999999996
18 0.32
-18 0.6799999999999999
19 0.95
-19 0.050000000000000044
20 0.64
-20 0.36
21 0.11
-21 0.89
22 0.37
-22 0.63
23 0.19
-23 0.81
24 0.85
-24 0.15000000000000002
25 0.4
-25 0.6
26 0.4
-26 0.6
27 0.52
-27 0.48
28 0.42
-28 0.5800000000000001
29 0.4
-29 0.6
30 0.34
-30 0.6599999999999999
31 0.39
-31 0.61
32 0.86
-32 0.14
33 0.91
-33 0.08999999999999997
34 0.01
-34 0.99
35 0.96
-35 0.040000000000000036
36 0.64
-36 0.36
37 0.49
-37 0.51
38 0.56
-38 0.43999999999999995
39 0.86
-39 0.14
40 0.48
-40 0.52
41 0.22
-41 0.78
42 0.87
-42 0.13
43 0.49
-43 0.51
44 0.65
-44 0.35
45 0.34
-45 0.6599999999999999
46 0.45
-46 0.55
47 0.22
-47 0.78
48 0.46
-48 0.54
49 0.86
-49 0.14
50 0.58
-50 0.42000000000000004
51 0.11
-51 0.89
52 0.34
-52 0.6599999999999999
53 0.3
-53 0.7
54 0.47
-54 0.53
55 0.76
-55 0.24
56 0.09
-56 0.91
57 0.55
-57 0.44999999999999996
58 0.25
-58 0.75
59 0.2
-59 0.8
60 0.64
-60 0.36
61 0.05
-61 0.95
62 0.42
-62 0.5800000000000001
63 0.1
-63 0.9
64 0.15
-64 0.85
65 0.24
-65 0.76
66 0.91
-66 0.08999999999999997
67 0.71
-67 0.29000000000000004
68 0.65
-68 0.35
69 0.36
-69 0.64
70 0.46
-70 0.54
