1 0.41
-1 0.5900000000000001
2 0.22
-2 0.78
3 0.41
-3 0.5900000000000001
4 0.69
-4 0.31000000000000005
5 0.39
-5 0.61
6 0.36
-6 0.64
7 0.49
-7 0.51
8 0.57
-8 0.43000000000000005
9 0.45
-9 0.55
10 0.52
-10 0.48
11 0.18
-11 0.8200000000000001
12 0.28
-12 0.72
13 0.15
-13 0.85
14 0.05
-14 0.95
15 0.7
-15 0.30000000000000004
16 0.49
-16 0.51
17 0.79
-17 0.20999999999999996
18 0.81
-18 0.18999999999999995
19 0.37
-19 0.63
20 0.51
-20 0.49
21 0.74
-21 0.26
22 0.22
-22 0.78
23 0.86
-23 0.14
24 0.59
-24 0.41000000000000003
25 0.86
-25 0.14
26 0.5
-26 0.5
27 0.47
-27 0.53
28 0.2
-28 0.8
29 0.94
-29 0.06000000000000005
30 0.32
-30 0.6799999999999999
31 0.17
-31 0.83
32 0.42
-32 0.5800000000000001
33 0.99
-33 0.010000000000000009
34 0.3
-34 0.7
35 0.09
-35 0.91
36 0.11
-36 0.89
37 0.62
-37 0.38
38 0.09
-38 0.91
39 0.61
-39 0.39
40 0.83
-40 0.17000000000000004
41 0.3
-41 0.7
42 0.84
-42 0.16000000000000003
43 0.91
-43 0.08999999999999997
44 0.7
-44 0.30000000000000004
45 0.97
-45 0.030000000000000027
46 0.53
-46 0.47
47 0.08
-47 0.92
48 0.95
-48 0.050000000000000044
49 0.97
-49 0.030000000000000027
50 0.43
-50 0.5700000000000001
51 0.6
-51 0.4
52 0.68
-52 0.31999999999999995
53 0.99
-53 0.010000000000000009
54 0.53
-54 0.47
55 0.05
-55 0.95
56 0.19
-56 0.81
57 0.26
-57 0.74
58 0.08
-58 0.92
59 0.61
-59 0.39
60 0.95
-60 0.050000000000000044
61 0.99
-61 0.010000000000000009
62 0.97
-62 0.030000000000000027
63 0.31
-63 0.69
64 0.29
-64 0.71
65 0.81
-65 0.18999999999999995
66 0.68
-66 0.31999999999999995
67 0.29
-67 0.71
68 0.91
-68 0.08999999999999997
69 0.32
-69 0.6799999999999999
70 0.58
-70 0.42000000000000004
