1 0.42
-1 0.5800000000000001
2 0.29
-2 0.71
3 0.84
-3 0.16000000000000003
4 0.26
-4 0.74
5 0.1
-5 0.9
6 0.9
-6 0.09999999999999998
7 0.04
-7 0.96
8 0.85
-8 0.15000000000000002
9 0.58
-9 0.42000000000000004
10 0.09
-10 0.91
11 0.81
-11 0.18999999999999995
12 0.53
-12 0.47
13 0.2
-13 0.8
14 0.05
-14 0.95
15 0.25
-15 0.75
16 0.63
-16 0.37
17 0.03
-17 0.97
18 0.51
-18 0.49
19 0.97
-19 0.030000000000000027
20 0.37
-20 0.63
21 0.18
-21 0.8200000000000001
22 0.4
-22 0.6
23 0.58
-23 0.42000000000000004
24 0.52
-24 0.48
25 0.15
-25 0.85
26 0.29
-26 0.71
27 0.11
-27 0.89
28 0.62
-28 0.38
29 0.62
-29 0.38
30 0.36
-30 0.64
31 0.89
-31 0.10999999999999999
32 0.58
-32 0.42000000000000004
33 0.01
-33 0.99
34 0.45
-34 0.55
35 0.39
-35 0.61
36 0.26
-36 0.74
37 0.37
-37 0.63
38 0.9
-38 0.09999999999999998
39 0.38
-39 0.62
40 0.86
-40 0.14
41 0.32
-41 0.6799999999999999
42 0.41
-42 0.5900000000000001
43 0.4
-43 0.6
44 0.63
-44 0.37
45 0.71
-45 0.29000000000000004
46 0.66
-46 0.33999999999999997
47 0.11
-47 0.89
48 0.44
-48 0.56
49 0.84
-49 0.16000000000000003
50 0.37
-50 0.63
51 0.48
-51 0.52
52 0.09
-52 0.91
53 0.18
-53 0.8200000000000001
54 0.56
-54 0.43999999999999995
55 0.68
-55 0.31999999999999995
56 0.33
-56 0.6699999999999999
57 0.05
-57 0.95
58 0.79
-58 0.20999999999999996
59 0.57
-59 0.43000000000000005
60 0.12
-60 0.88
61 0.22
-61 0.78
62 0.42
-62 0.5800000000000001
63 0.3
-63 0.7
64 0.5
-64 0.5
65 0.77
-65 0.22999999999999998
66 0.48
-66 0.52
67 0.64
-67 0.36
68 0.07
-68 0.9299999999999999
69 0.81
-69 0.18999999999999995
70 0.54
-70 0.45999999999999996
