1 0.49
-1 0.51
2 0.16
-2 0.84
3 0.19
-3 0.81
4 0.16
-4 0.84
5 0.95
-5 0.050000000000000044
6 0.63
-6 0.37
7 0.31
-7 0.69
8 0.74
-8 0.26
9 0.59
-9 0.41000000000000003
10 0.68
-10 0.31999999999999995
11 0.09
-11 0.91
12 0.56
-12 0.43999999999999995
13 0.06
-13 0.94
14 0.43
-14 0.5700000000000001
15 0.94
-15 0.06000000000000005
16 0.06
-16 0.94
17 0.12
-17 0.88
18 0.27
-18 0.73
19 0.3
-19 0.7
20 0.97
-20 0.030000000000000027
21 0.63
-21 0.37
22 0.25
-22 0.75
23 0.4
-23 0.6
24 0.12
-24 0.88
25 0.47
-25 0.53
26 0.79
-26 0.20999999999999996
27 0.03
-27 0.97
28 0.87
-28 0.13
29 0.14
-29 0.86
30 0.55
-30 0.44999999999999996
31 0.28
-31 0.72
32 0.86
-32 0.14
33 0.11
-33 0.89
34 0.94
-34 0.06000000000000005
35 0.23
-35 0.77
36 0.08
-36 0.92
37 0.17
-37 0.83
38 0.99
-38 0.010000000000000009
39 0.61
-39 0.39
40 0.68
-40 0.31999999999999995
41 0.38
-41 0.62
42 0.53
-42 0.47
43 0.92
-43 0.07999999999999996
44 0.75
-44 0.25
45 0.58
-45 0.42000000000000004
46 0.85
-46 0.15000000000000002
47 0.35
-47 0.65
48 0.47
-48 0.53
49 0.08
-49 0.92
50 0.44
-50 0.56
51 0.97
-51 0.030000000000000027
52 0.33
-52 0.6699999999999999
53 0.15
-53 0.85
54 0.81
-54 0.18999999999999995
55 0.38
-55 0.62
56 0.9
-56 0.09999999999999998
57 0.58
-57 0.42000000000000004
58 0.67
-58 0.32999999999999996
59 0.61
-59 0.39
60 0.32
-60 0.6799999999999999
61 0.44
-61 0.56
62 0.26
-62 0.74
63 0.74
-63 0.26
64 0.26
-64 0.74
65 0.07
-65 0.9299999999999999
66 0.39
-66 0.61
67 0.75
-67 0.25
68 0.44
-68 0.56
69 0.94
-69 0.06000000000000005
70 0.55
-70 0.44999999999999996
