1 0.13
-1 0.87
2 0.37
-2 0.63
3 0.74
-3 0.26
4 0.24
-4 0.76
5 0.01
-5 0.99
6 0.95
-6 0.050000000000000044
7 0.28
-7 0.72
8 0.1
-8 0.9
9 0.42
-9 0.5800000000000001
10 0.15
-10 0.85
11 0.35
-11 0.65
12 0.02
-12 0.98
13 0.52
-13 0.48
14 0.88
-14 0.12
15 0.2
-15 0.8
16 0.27
-16 0.73
17 0.57
-17 0.43000000000000005
18 0.17
-18 0.83
19 0.74
-19 0.26
20 0.37
-20 0.63
21 0.1
-21 0.9
22 0.26
-22 0.74
23 0.77
-23 0.22999999999999998
24 0.92
-24 0.07999999999999996
25 0.95
-25 0.050000000000000044
26 0.74
-26 0.26
27 0.48
-27 0.52
28 0.98
-28 0.020000000000000018
29 0.07
-29 0.9299999999999999
30 0.43
-30 0.5700000000000001
31 0.86
-31 0.14
32 0.1
-32 0.9
33 0.49
-33 0.51
34 0.96
-34 0.040000000000000036
35 0.74
-35 0.26
36 0.53
-36 0.47
37 0.72
-37 0.28
38 0.43
-38 0.5700000000000001
39 0.37
-39 0.63
40 0.16
-40 0.84
41 0.82
-41 0.18000000000000005
42 0.71
-42 0.29000000000000004
43 0.72
-43 0.28
44 0.18
-44 0.8200000000000001
45 0.41
-45 0.5900000000000001
46 0.45
-46 0.55
47 0.89
-47 0.10999999999999999
48 0.58
-48 0.42000000000000004
49 0.63
-49 0.37
50 0.08
-50 0.92
51 0.37
-51 0.63
52 0.54
-52 0.45999999999999996
53 0.95
-53 0.050000000000000044
54 0.39
-54 0.61
55 0.42
-55 0.5800000000000001
56 0.62
-56 0.38
57 0.19
-57 0.81
58 0.23
-58 0.77
59 0.54
-59 0.45999999999999996
60 0.26
-60 0.74
61 0.12
-61 0.88
62 0.03
-62 0.97
63 0.13
-63 0.87
64 0.42
-64 0.5800000000000001
65 0.34
-65 0.6599999999999999
66 0.79
-66 0.20999999999999996
67 0.94
-67 0.06000000000000005
68 0.28
-68 0.72
69 0.67
-69 0.32999999999999996
70 0.61
-70 0.39
