1 0.67
-1 0.32999999999999996
2 0.32
-2 0.6799999999999999
3 0.83
-3 0.17000000000000004
4 0.41
-4 0.5900000000000001
5 0.77
-5 0.22999999999999998
6 0.96
-6 0.040000000000000036
7 0.54
-7 0.45999999999999996
8 0.98
-8 0.020000000000000018
9 0.01
-9 0.99
10 0.21
-10 0.79
11 0.19
-11 0.81
12 0.43
-12 0.5700000000000001
13 0.75
-13 0.25
14 0.87
-14 0.13
15 0.73
-15 0.27
16 0.47
-16 0.53
17 0.47
-17 0.53
18 0.15
-18 0.85
19 0.42
-19 0.5800000000000001
20 0.09
-20 0.91
21 0.22
-21 0.78
22 0.48
-22 0.52
23 0.91
-23 0.08999999999999997
24 0.38
-24 0.62
25 0.65
-25 0.35
26 0.78
-26 0.21999999999999997
27 0.63
-27 0.37
28 0.13
-28 0.87
29 0.8
-29 0.19999999999999996
30 0.97
-30 0.030000000000000027
31 0.06
-31 0.94
32 0.4
-32 0.6
33 0.38
-33 0.62
34 0.81
-34 0.18999999999999995
35 0.49
-35 0.51
36 0.26
-36 0.74
37 0.36
-37 0.64
38 0.92
-38 0.07999999999999996
39 0.09
-39 0.91
40 0.56
-40 0.43999999999999995
41 0.12
-41 0.88
42 0.48
-42 0.52
43 0.24
-43 0.76
44 0.06
-44 0.94
45 0.11
-45 0.89
46 0.3
-46 0.7
47 0.86
-47 0.14
48 0.4
-48 0.6
49 0.55
-49 0.44999999999999996
50 0.83
-50 0.17000000000000004
51 0.35
-51 0.65
52 0.58
-52 0.42000000000000004
53 0.41
-53 0.5900000000000001
54 0.74
-54 0.26
55 0.27
-55 0.73
56 0.44
-56 0.56
57 0.69
-57 0.31000000000000005
58 0.57
-58 0.43000000000000005
59 0.05
-59 0.95
60 0.44
-60 0.56
61 0.06
-61 0.94
62 0.82
-62 0.18000000000000005
63 0.88
-63 0.12
64 0.83
-64 0.17000000000000004
65 0.28
-65 0.72
66 0.18
-66 0.8200000000000001
67 0.19
-67 0.81
68 0.41
-68 0.5900000000000001
69 0.11
-69 0.89
70 0.23
-70 0.77
