1 0.88
-1 0.12
2 0.59
-2 0.41000000000000003
3 0.22
-3 0.78
4 0.3
-4 0.7
5 0.9
-5 0.09999999999999998
6 0.27
-6 0.73
7 0.93
-7 0.06999999999999995
8 0.23
-8 0.77
9 0.26
-9 0.74
10 0.52
-10 0.48
11 0.23
-11 0.77
12 0.29
-12 0.71
13 0.47
-13 0.53
14 0.9
-14 0.09999999999999998
15 0.12
-15 0.88
16 0.77
-16 0.22999999999999998
17 0.89
-17 0.10999999999999999
18 0.9
-18 0.09999999999999998
19 0.78
-19 0.21999999999999997
20 0.37
-20 0.63
21 0.91
-21 0.08999999999999997
22 0.53
-22 0.47
23 0.3
-23 0.7
24 0.52
-24 0.48
25 0.25
-25 0.75
26 0.08
-26 0.92
27 0.38
-27 0.62
28 0.87
-28 0.13
29 0.8
-29 0.19999999999999996
30 0.57
-30 0.43000000000000005
31 0.43
-31 0.5700000000000001
32 0.93
-32 0.06999999999999995
33 0.22
-33 0.78
34 0.05
-34 0.95
35 0.86
-35 0.14
36 0.47
-36 0.53
37 0.1
-37 0.9
38 0.81
-38 0.18999999999999995
39 0.18
-39 0.8200000000000001
40 0.37
-40 0.63
41 0.67
-41 0.32999999999999996
42 0.9
-42 0.09999999999999998
43 0.55
-43 0.44999999999999996
44 0.41
-44 0.5900000000000001
45 0.07
-45 0.9299999999999999
46 0.7
-46 0.30000000000000004
47 0.19
-47 0.81
48 0.8
-48 0.19999999999999996
49 0.59
-49 0.41000000000000003
50 0.99
-50 0.010000000000000009
51 0.49
-51 0.51
52 0.47
-52 0.53
53 0.25
-53 0.75
54 0.91
-54 0.08999999999999997
55 0.37
-55 0.63
56 0.1
-56 0.9
57 0.36
-57 0.64
58 0.5
-58 0.5
59 0.06
-59 0.94
60 0.38
-60 0.62
61 0.48
-61 0.52
62 0.59
-62 0.41000000000000003
63 0.47
-63 0.53
64 0.73
-64 0.27
65 0.79
-65 0.20999999999999996
66 0.6
-66 0.4
67 0.16
-67 0.84
68 0.89
-68 0.10999999999999999
69 0.47
-69 0.53
70 0.18
-70 0.8200000000000001
