1 0.7
-1 0.30000000000000004
2 0.75
-2 0.25
3 0.83
-3 0.17000000000000004
4 0.13
-4 0.87
5 0.95
-5 0.050000000000000044
6 0.36
-6 0.64
7 0.79
-7 0.20999999999999996
8 0.07
-8 0.9299999999999999
9 0.63
-9 0.37
10 0.25
-10 0.75
11 0.53
-11 0.47
12 0.93
-12 0.06999999999999995
13 0.19
-13 0.81
14 0.8
-14 0.19999999999999996
15 0.49
-15 0.51
16 0.79
-16 0.20999999999999996
17 0.64
-17 0.36
18 0.92
-18 0.07999999999999996
19 0.34
-19 0.6599999999999999
20 0.63
-20 0.37
21 0.19
-21 0.81
22 0.94
-22 0.06000000000000005
23 0.1
-23 0.9
24 0.69
-24 0.31000000000000005
25 0.69
-25 0.31000000000000005
26 0.46
-26 0.54
27 0.6
-27 0.4
28 0.64
-28 0.36
29 0.86
-29 0.14
30 0.43
-30 0.5700000000000001
31 0.49
-31 0.51
32 0.9
-32 0.09999999999999998
33 0.34
-33 0.6599999999999999
34 0.49
-34 0.51
35 0.57
-35 0.43000000000000005
36 0.15
-36 0.85
37 0.62
-37 0.38
38 0.88
-38 0.12
39 0.06
-39 0.94
40 0.83
-40 0.17000000000000004
41 0.62
-41 0.38
42 0.24
-42 0.76
43 0.42
-43 0.5800000000000001
44 0.75
-44 0.25
45 0.75
-45 0.25
46 0.15
-46 0.85
47 0.04
-47 0.96
48 0.41
-48 0.5900000000000001
49 0.27
-49 0.73
50 0.39
-50 0.61
51 0.23
-51 0.77
52 0.55
-52 0.44999999999999996
53 0.64
-53 0.36
54 0.88
-54 0.12
55 0.31
-55 0.69
56 0.84
-56 0.16000000000000003
57 0.66
-57 0.33999999999999997
58 0.53
-58 0.47
59 0.93
-59 0.06999999999999995
60 0.6
-60 0.4
61 0.63
-61 0.37
62 0.3
-62 0.7
63 0.88
-63 0.12
64 0.2
-64 0.8
65 0.24
-65 0.76
66 0.37
-66 0.63
67 0.04
-67 0.96
68 0.36
-68 0.64
69 0.09
-69 0.91
70 0.66
-70 0.33999999999999997
