1 0.05
-1 0.95
2 0.07
-2 0.9299999999999999
3 0.62
-3 0.38
4 0.89
-4 0.10999999999999999
5 0.95
-5 0.050000000000000044
6 0.03
-6 0.97
7 0.1
-7 0.9
8 0.8
-8 0.19999999999999996
9 0.23
-9 0.77
10 0.43
-10 0.5700000000000001
11 0.59
-11 0.41000000000000003
12 0.44
-12 0.56
13 0.17
-13 0.83
14 0.8
-14 0.19999999999999996
15 0.64
-15 0.36
16 0.62
-16 0.38
17 0.69
-17 0.31000000000000005
18 0.84
-18 0.16000000000000003
19 0.6
-19 0.4
20 0.81
-20 0.18999999999999995
21 0.37
-21 0.63
22 0.73
-22 0.27
23 0.38
-23 0.62
24 0.85
-24 0.15000000000000002
25 0.68
-25 0.31999999999999995
26 0.83
-26 0.17000000000000004
27 0.33
-27 0.6699999999999999
28 0.08
-28 0.92
29 0.85
-29 0.15000000000000002
30 0.59
-30 0.41000000000000003
31 0.11
-31 0.89
32 0.49
-32 0.51
33 0.56
-33 0.43999999999999995
34 0.28
-34 0.72
35 0.78
-35 0.21999999999999997
36 0.4
-36 0.6
37 0.09
-37 0.91
38 0.92
-38 0.07999999999999996
39 0.12
-39 0.88
40 0.56
-40 0.43999999999999995
41 0.02
-41 0.98
42 0.66
-42 0.33999999999999997
43 0.71
-43 0.29000000000000004
44 0.89
-44 0.10999999999999999
45 0.66
-45 0.33999999999999997
46 0.75
-46 0.25
47 0.4
-47 0.6
48 0.82
-48 0.18000000000000005
49 0.5
-49 0.5
50 0.93
-50 0.06999999999999995
51 0.97
-51 0.030000000000000027
52 0.02
-52 0.98
53 0.84
-53 0.16000000000000003
54 0.23
-54 0.77
55 0.73
-55 0.27
56 0.85
-56 0.15000000000000002
57 0.14
-57 0.86
58 0.87
-58 0.13
59 0.68
-59 0.31999999999999995
60 0.66
-60 0.33999999999999997
61 0.59
-61 0.41000000000000003
62 0.07
-62 0.9299999999999999
63 0.11
-63 0.89
64 0.42
-64 0.5800000000000001
65 0.45
-65 0.55
66 0.49
-66 0.51
67 0.46
-67 0.54
68 0.2
-68 0.8
69 0.32
-69 0.6799999999999999
70 0.37
-70 0.63
