1 0.89
-1 0.10999999999999999
2 0.07
-2 0.9299999999999999
3 0.73
-3 0.27
4 0.45
-4 0.55
5 0.69
-5 0.31000000000000005
6 0.18
-6 0.8200000000000001
7 0.88
-7 0.12
8 0.56
-8 0.43999999999999995
9 0.21
-9 0.79
10 0.48
-10 0.52
11 0.91
-11 0.08999999999999997
12 0.34
-12 0.6599999999999999
13 0.77
-13 0.22999999999999998
14 0.96
-14 0.040000000000000036
15 0.13
-15 0.87
16 0.33
-16 0.6699999999999999
17 0.72
-17 0.28
18 0.5
-18 0.5
19 0.93
-19 0.06999999999999995
20 0.12
-20 0.88
21 0.05
-21 0.95
22 0.37
-22 0.63
23 0.45
-23 0.55
24 0.75
-24 0.25
25 0.22
-25 0.78
26 0.42
-26 0.5800000000000001
27 0.72
-27 0.28
28 0.85
-28 0.15000000000000002
29 0.82
-29 0.18000000000000005
30 0.02
-30 0.98
31 0.61
-31 0.39
32 0.7
-32 0.30000000000000004
33 0.58
-33 0.42000000000000004
34 0.78
-34 0.21999999999999997
35 0.18
-35 0.8200000000000001
36 0.62
-36 0.38
37 0.16
-37 0.84
38 0.75
-38 0.25
39 0.49
-39 0.51
40 0.86
-40 0.14
41 0.36
-41 0.64
42 0.11
-42 0.89
43 0.36
-43 0.64
44 0.17
-44 0.83
45 0.53
-45 0.47
46 0.43
-46 0.5700000000000001
47 0.85
-47 0.15000000000000002
48 0.55
-48 0.44999999999999996
49 0.86
-49 0.14
50 0.64
-50 0.36
51 0.26
-51 0.74
52 0.67
-52 0.32999999999999996
53 0.13
-53 0.87
54 0.71
-54 0.29000000000000004
55 0.45
-55 0.55
56 0.61
-56 0.39
57 0.29
-57 0.71
58 0.6
-58 0.4
59 0.48
-59 0.52
60 0.5
-60 0.5
61 0.45
-61 0.55
62 0.22
-62 0.78
63 0.26
-63 0.74
64 0.01
-64 0.99
65 0.73
-65 0.27
66 0.46
-66 0.54
67 0.52
-67 0.48
68 0.66
-68 0.33999999999999997
69 0.19
-69 0.81
70 0.36
-70 0.64
