1 0.85
-1 0.15000000000000002
2 0.36
-2 0.64
3 0.25
-3 0.75
4 0.62
-4 0.38
5 0.26
-5 0.74
6 0.15
-6 0.85
7 0.71
-7 0.29000000000000004
8 0.04
-8 0.96
9 0.34
-9 0.6599999999999999
10 0.02
-10 0.98
11 0.06
-11 0.94
12 0.84
-12 0.16000000000000003
13 0.46
-13 0.54
14 0.6
-14 0.4
15 0.89
-15 0.10999999999999999
16 0.76
-16 0.24
17 0.54
-17 0.45999999999999996
18 0.66
-18 0.33999999999999997
19 0.45
-19 0.55
20 0.3
-20 0.7
21 0.71
-21 0.29000000000000004
22 0.74
-22 0.26
23 0.9
-23 0.09999999999999998
24 0.16
-24 0.84
25 0.59
-25 0.41000000000000003
26 0.93
-26 0.06999999999999995
27 0.72
-27 0.28
28 0.34
-28 0.6599999999999999
29 0.5
-29 0.5
30 0.2
-30 0.8
31 0.29
-31 0.71
32 0.46
-32 0.54
33 0.61
-33 0.39
34 0.52
-34 0.48
35 0.25
-35 0.75
36 0.5
-36 0.5
37 0.39
-37 0.61
38 0.99
-38 0.010000000000000009
39 0.18
-39 0.8200000000000001
40 0.05
-40 0.95
41 0.87
-41 0.13
42 0.59
-42 0.41000000000000003
43 0.26
-43 0.74
44 0.94
-44 0.06000000000000005
45 0.13
-45 0.87
46 0.65
-46 0.35
47 0.72
-47 0.28
48 0.8
-48 0.19999999999999996
49 0.97
-49 0.030000000000000027
50 0.9
-50 0.09999999999999998
51 0.46
-51 0.54
52 0.14
-52 0.86
53 0.8
-53 0.19999999999999996
54 0.68
-54 0.31999999999999995
55 0.24
-55 0.76
56 0.01
-56 0.99
57 0.82
-57 0.18000000000000005
58 0.49
-58 0.51
59 0.34
-59 0.6599999999999999
60 0.34
-60 0.6599999999999999
61 0.87
-61 0.13
62 0.71
-62 0.29000000000000004
63 0.57
-63 0.43000000000000005
64 0.87
-64 0.13
65 0.62
-65 0.38
66 0.17
-66 0.83
67 0.91
-67 0.08999999999999997
68 0.37
-68 0.63
69 0.17
-69 0.83
70 0.28
-70 0.72
