1 0.15
-1 0.85
2 0.57
-2 0.43000000000000005
3 0.14
-3 0.86
4 0.44
-4 0.56
5 0.25
-5 0.75
6 0.37
-6 0.63
7 0.53
-7 0.47
8 0.23
-8 0.77
9 0.92
-9 0.07999999999999996
10 0.55
-10 0.44999999999999996
11 0.43
-11 0.5700000000000001
12 0.83
-12 0.17000000000000004
13 0.76
-13 0.24
14 0.22
-14 0.78
15 0.48
-15 0.52
16 0.37
-16 0.63
17 0.87
-17 0.13
18 0.77
-18 0.22999999999999998
19 0.95
-19 0.050000000000000044
20 0.14
-20 0.86
21 0.14
-21 0.86
22 0.68
-22 0.31999999999999995
23 0.46
-23 0.54
24 0.34
-24 0.6599999999999999
25 0.21
-25 0.79
26 0.43
-26 0.5700000000000001
27 0.24
-27 0.76
28 0.72
-28 0.28
29 0.05
-29 0.95
30 0.74
-30 0.26
31 0.18
-31 0.8200000000000001
32 0.72
-32 0.28
33 0.86
-33 0.14
34 0.13
-34 0.87
35 0.66
-35 0.33999999999999997
36 0.16
-36 0.84
37 0.88
-37 0.12
38 0.63
-38 0.37
39 0.98
-39 0.020000000000000018
40 0.41
-40 0.5900000000000001
41 0.43
-41 0.5700000000000001
42 0.86
-42 0.14
43 0.15
-43 0.85
44 0.04
-44 0.96
45 0.98
-45 0.020000000000000018
46 0.01
-46 0.99
47 0.24
-47 0.76
48 0.14
-48 0.86
49 0.88
-49 0.12
50 0.93
-50 0.06999999999999995
51 0.45
-51 0.55
52 0.3
-52 0.7
53 0.89
-53 0.10999999999999999
54 0.46
-54 0.54
55 0.86
-55 0.14
56 0.53
-56 0.47
57 0.83
-57 0.17000000000000004
58 0.6
-58 0.4
59 0.4
-59 0.6
60 0.49
-60 0.51
61 0.47
-61 0.53
62 0.31
-62 0.69
63 0.1
-63 0.9
64 0.26
-64 0.74
65 0.69
-65 0.31000000000000005
66 0.17
-66 0.83
67 0.74
-67 0.26
68 0.59
-68 0.41000000000000003
69 0.09
-69 0.91
70 0.22
-70 0.78
