1 0.75
-1 0.25
2 0.96
-2 0.040000000000000036
3 0.22
-3 0.78
4 0.15
-4 0.85
5 0.92
-5 0.07999999999999996
6 0.38
-6 0.62
7 0.35
-7 0.65
8 0.87
-8 0.13
9 0.11
-9 0.89
10 0.87
-10 0.13
11 0.44
-11 0.56
12 0.64
-12 0.36
13 0.76
-13 0.24
14 0.59
-14 0.41000000000000003
15 0.63
-15 0.37
16 0.28
-16 0.72
17 0.09
-17 0.91
18 0.47
-18 0.53
19 0.44
-19 0.56
20 0.99
-20 0.010000000000000009
21 0.26
-21 0.74
22 0.28
-22 0.72
23 0.84
-23 0.16000000000000003
24 0.6
-24 0.4
25 0.85
-25 0.15000000000000002
26 0.67
-26 0.32999999999999996
27 0.1
-27 0.9
28 0.38
-28 0.62
29 0.04
-29 0.96
30 0.81
-30 0.18999999999999995
31 0.74
-31 0.26
32 0.63
-32 0.37
33 0.98
-33 0.020000000000000018
34 0.46
-34 0.54
35 0.57
-35 0.43000000000000005
36 0.48
-36 0.52
37 0.77
-37 0.22999999999999998
38 0.88
-38 0.12
39 0.84
-39 0.16000000000000003
40 0.54
-40 0.45999999999999996
41 0.02
-41 0.98
42 0.92
-42 0.07999999999999996
43 0.73
-43 0.27
44 0.84
-44 0.16000000000000003
45 0.67
-45 0.32999999999999996
46 0.65
-46 0.35
47 0.72
-47 0.28
48 0.85
-48 0.15000000000000002
49 0.9
-49 0.09999999999999998
50 0.04
-50 0.96
51 0.16
-51 0.84
52 0.04
-52 0.96
53 0.92
-53 0.07999999999999996
54 0.67
-54 0.32999999999999996
55 0.75
-55 0.25
56 0.5
-56 0.5
57 0.72
-57 0.28
58 0.43
-58 0.5700000000000001
59 0.44
-59 0.56
60 0.84
-60 0.16000000000000003
61 0.14
-61 0.86
62 0.34
-62 0.6599999999999999
63 0.85
-63 0.15000000000000002
64 0.26
-64 0.74
65 0.75
-65 0.25
66 0.3
-66 0.7
67 0.92
-67 0.07999999999999996
68 0.51
-68 0.49
69 0.26
-69 0.74
70 0.19
-70 0.81
