1 0.88
-1 0.12
2 0.78
-2 0.21999999999999997
3 0.71
-3 0.29000000000000004
4 0.62
-4 0.38
5 0.79
-5 0.20999999999999996
6 0.91
-6 0.08999999999999997
7 0.78
-7 0.21999999999999997
8 0.87
-8 0.13
9 0.15
-9 0.85
10 0.32
-10 0.6799999999999999
11 0.24
-11 0.76
12 0.44
-12 0.56
13 0.92
-13 0.07999999999999996
14 0.32
-14 0.6799999999999999
15 0.49
-15 0.51
16 0.83
-16 0.17000000000000004
17 0.86
-17 0.14
18 0.71
-18 0.29000000000000004
19 0.74
-19 0.26
20 0.63
-20 0.37
21 0.08
-21 0.92
22 0.5
-22 0.5
23 0.2
-23 0.8
24 0.86
-24 0.14
25 0.46
-25 0.54
26 0.95
-26 0.050000000000000044
27 0.48
-27 0.52
28 0.66
-28 0.33999999999999997
29 0.08
-29 0.92
30 0.66
-30 0.33999999999999997
31 0.47
-31 0.53
32 0.39
-32 0.61
33 0.41
-33 0.5900000000000001
34 0.25
-34 0.75
35 0.21
-35 0.79
36 0.26
-36 0.74
37 0.52
-37 0.48
38 0.36
-38 0.64
39 0.07
-39 0.9299999999999999
40 0.13
-40 0.87
41 0.35
-41 0.65
42 0.6
-42 0.4
43 0.22
-43 0.78
44 0.98
-44 0.020000000000000018
45 0.56
-45 0.43999999999999995
46 0.34
-46 0.6599999999999999
47 0.99
-47 0.010000000000000009
48 0.5
-48 0.5
49 0.43
-49 0.5700000000000001
50 0.18
-50 0.8200000000000001
51 0.15
-51 0.85
52 0.43
-52 0.5700000000000001
53 0.68
-53 0.31999999999999995
54 0.74
-54 0.26
55 0.28
-55 0.72
56 0.72
-56 0.28
57 0.2
-57 0.8
58 0.04
-58 0.96
59 0.25
-59 0.75
60 0.55
-60 0.44999999999999996
61 0.34
-61 0.6599999999999999
62 0.96
-62 0.040000000000000036
63 0.07
-63 0.9299999999999999
64 0.45
-64 0.55
65 0.76
-65 0.24
66 0.75
-66 0.25
67 0.95
-67 0.050000000000000044
68 0.65
-68 0.35
69 0.26
-69 0.74
70 0.46
-70 0.54
