1 0.76
-1 0.24
2 0.52
-2 0.48
3 0.06
-3 0.94
4 0.99
-4 0.010000000000000009
5 0.35
-5 0.65
6 0.49
-6 0.51
7 0.43
-7 0.5700000000000001
8 0.29
-8 0.71
9 0.55
-9 0.44999999999999996
10 0.13
-10 0.87
11 0.82
-11 0.18000000000000005
12 0.07
-12 0.9299999999999999
13 0.07
-13 0.9299999999999999
14 0.09
-14 0.91
15 0.06
-15 0.94
16 0.53
-16 0.47
17 0.84
-17 0.16000000000000003
18 0.93
-18 0.06999999999999995
19 0.9
-19 0.09999999999999998
20 0.75
-20 0.25
21 0.83
-21 0.17000000000000004
22 0.49
-22 0.51
23 0.16
-23 0.84
24 0.68
-24 0.31999999999999995
25 0.68
-25 0.31999999999999995
26 0.67
-26 0.32999999999999996
27 0.44
-27 0.56
28 0.42
-28 0.5800000000000001
29 0.7
-29 0.30000000000000004
30 0.92
-30 0.07999999999999996
31 0.65
-31 0.35
32 0.09
-32 0.91
33 0.44
-33 0.56
34 0.98
-34 0.020000000000000018
35 0.14
-35 0.86
36 0.45
-36 0.55
37 0.8
-37 0.19999999999999996
38 0.78
-38 0.21999999999999997
39 0.34
-39 0.6599999999999999
40 0.91
-40 0.08999999999999997
41 0.15
-41 0.85
42 0.67
-42 0.32999999999999996
43 0.68
-43 0.31999999999999995
44 0.51
-44 0.49
45 0.5
-45 0.5
46 0.64
-46 0.36
47 0.6
-47 0.4
48 0.1
-48 0.9
49 0.96
-49 0.040000000000000036
50 0.58
-50 0.42000000000000004
51 0.37
-51 0.63
52 0.87
-52 0.13
53 0.64
-53 0.36
54 0.83
-54 0.17000000000000004
55 0.44
-55 0.56
56 0.55
-56 0.44999999999999996
57 0.22
-57 0.78
58 0.01
-58 0.99
59 0.36
-59 0.64
60 0.26
-60 0.74
61 0.27
-61 0.73
62 0.84
-62 0.16000000000000003
63 0.97
-63 0.030000000000000027
64 0.43
-64 0.5700000000000001
65 0.69
-65 0.31000000000000005
66 0.86
-66 0.14
67 0.22
-67 0.78
68 0.94
-68 0.06000000000000005
69 0.72
-69 0.28
70 0.92
-70 0.07999999999999996
