1 0.96
-1 0.040000000000000036
2 0.93
-2 0.06999999999999995
3 0.57
-3 0.43000000000000005
4 0.8
-4 0.19999999999999996
5 0.58
-5 0.42000000000000004
6 0.72
-6 0.28
7 0.05
-7 0.95
8 0.09
-8 0.91
9 0.42
-9 0.5800000000000001
10 0.09
-10 0.91
11 0.11
-11 0.89
12 0.28
-12 0.72
13 0.53
-13 0.47
14 0.33
-14 0.6699999999999999
15 0.88
-15 0.12
16 0.28
-16 0.72
17 0.5
-17 0.5
18 0.2
-18 0.8
19 0.07
-19 0.9299999999999999
20 0.05
-20 0.95
21 0.18
-21 0.8200000000000001
22 0.32
-22 0.6799999999999999
23 0.49
-23 0.51
24 0.84
-24 0.16000000000000003
25 0.58
-25 0.42000000000000004
26 0.17
-26 0.83
27 0.9
-27 0.09999999999999998
28 0.4
-28 0.6
29 0.8
-29 0.19999999999999996
30 0.24
-30 0.76
31 0.13
-31 0.87
32 0.62
-32 0.38
33 0.6
-33 0.4
34 0.35
-34 0.65
35 0.12
-35 0.88
36 0.12
-36 0.88
37 0.16
-37 0.84
38 0.3
-38 0.7
39 0.59
-39 0.41000000000000003
40 0.08
-40 0.92
41 0.83
-41 0.17000000000000004
42 0.98
-42 0.020000000000000018
43 0.94
-43 0.06000000000000005
44 0.32
-44 0.6799999999999999
45 0.91
-45 0.08999999999999997
46 0.04
-46 0.96
47 0.3
-47 0.7
48 0.62
-48 0.38
49 0.24
-49 0.76
50 0.8
-50 0.19999999999999996
51 0.73
-51 0.27
52 0.97
-52 0.030000000000000027
53 0.15
-53 0.85
54 0.54
-54 0.45999999999999996
55 0.42
-55 0.5800000000000001
56 0.14
-56 0.86
57 0.79
-57 0.20999999999999996
58 0.61
-58 0.39
59 0.12
-59 0.88
60 0.39
-60 0.61
61 0.92
-61 0.07999999999999996
62 0.25
-62 0.75
63 0.77
-63 0.22999999999999998
64 0.26
-64 0.74
65 0.63
-65 0.37
66 0.77
-66 0.22999999999999998
67 0.23
-67 0.77
68 0.64
-68 0.36
69 0.96
-69 0.040000000000000036
70 0.1
-70 0.9
