1 0.25
-1 0.75
2 0.27
-2 0.73
3 0.66
-3 0.33999999999999997
4 0.05
-4 0.95
5 0.2
-5 0.8
6 0.34
-6 0.6599999999999999
7 0.14
-7 0.86
8 0.09
-8 0.91
9 0.49
-9 0.51
10 0.86
-10 0.14
11 0.83
-11 0.17000000000000004
12 0.41
-12 0.5900000000000001
13 0.47
-13 0.53
14 0.08
-14 0.92
15 0.29
-15 0.71
16 0.66
-16 0.33999999999999997
17 0.15
-17 0.85
18 0.31
-18 0.69
19 0.56
-19 0.43999999999999995
20 0.24
-20 0.76
21 0.36
-21 0.64
22 0.72
-22 0.28
23 0.25
-23 0.75
24 0.28
-24 0.72
25 0.74
-25 0.26
26 0.22
-26 0.78
27 0.61
-27 0.39
28 0.71
-28 0.29000000000000004
29 0.37
-29 0.63
30 0.94
-30 0.06000000000000005
31 0.06
-31 0.94
32 0.87
-32 0.13
33 0.5
-33 0.5
34 0.4
-34 0.6
35 0.07
-35 0.9299999999999999
36 0.96
-36 0.040000000000000036
37 0.73
-37 0.27
38 0.53
-38 0.47
39 0.39
-39 0.61
40 0.74
-40 0.26
41 0.88
-41 0.12
42 0.23
-42 0.77
43 0.13
-43 0.87
44 0.02
-44 0.98
45 0.05
-45 0.95
46 0.13
-46 0.87
47 0.45
-47 0.55
48 0.52
-48 0.48
49 0.81
-49 0.18999999999999995
50 0.93
-50 0.06999999999999995
51 0.08
-51 0.92
52 0.22
-52 0.78
53 0.91
-53 0.08999999999999997
54 0.06
-54 0.94
55 0.76
-55 0.24
56 0.52
-56 0.48
57 0.36
-57 0.64
58 0.57
-58 0.43000000000000005
59 0.41
-59 0.5900000000000001
60 0.43
-60 0.5700000000000001
61 0.12
-61 0.88
62 0.19
-62 0.81
63 0.81
-63 0.18999999999999995
64 0.29
-64 0.71
65 0.61
-65 0.39
66 0.62
-66 0.38
67 0.86
-67 0.14
68 0.92
-68 0.07999999999999996
69 0.7
-69 0.30000000000000004
70 0.13
-70 0.87
