1 0.7
-1 0.30000000000000004
2 0.81
-2 0.18999999999999995
3 0.06
-3 0.94
4 0.36
-4 0.64
5 0.25
-5 0.75
6 0.33
-6 0.6699999999999999
7 0.24
-7 0.76
8 0.61
-8 0.39
9 0.38
-9 0.62
10 0.18
-10 0.8200000000000001
11 0.7
-11 0.30000000000000004
12 0.05
-12 0.95
13 0.17
-13 0.83
14 0.47
-14 0.53
15 0.97
-15 0.030000000000000027
16 0.48
-16 0.52
17 0.75
-17 0.25
18 0.66
-18 0.33999999999999997
19 0.21
-19 0.79
20 0.33
-20 0.6699999999999999
21 0.91
-21 0.08999999999999997
22 0.59
-22 0.41000000000000003
23 0.85
-23 0.15000000000000002
24 0.48
-24 0.52
25 0.44
-25 0.56
26 0.5
-26 0.5
27 0.31
-27 0.69
28 0.97
-28 0.030000000000000027
29 0.5
-29 0.5
30 0.76
-30 0.24
31 0.91
-31 0.08999999999999997
32 0.27
-32 0.73
33 0.97
-33 0.030000000000000027
34 0.7
-34 0.30000000000000004
35 0.78
-35 0.21999999999999997
36 0.69
-36 0.31000000000000005
37 0.01
-37 0.99
38 0.68
-38 0.31999999999999995
39 0.46
-39 0.54
40 0.45
-40 0.55
41 0.92
-41 0.07999999999999996
42 0.45
-42 0.55
43 0.21
-43 0.79
44 0.94
-44 0.06000000000000005
45 0.57
-45 0.43000000000000005
46 0.45
-46 0.55
47 0.29
-47 0.71
48 0.27
-48 0.73
49 0.58
-49 0.42000000000000004
50 0.87
-50 0.13
51 0.07
-51 0.9299999999999999
52 0.03
-52 0.97
53 0.91
-53 0.08999999999999997
54 0.14
-54 0.86
55 0.65
-55 0.35
56 0.43
-56 0.5700000000000001
57 0.67
-57 0.32999999999999996
58 0.89
-58 0.10999999999999999
59 0.39
-59 0.61
60 0.69
-60 0.31000000000000005
61 0.14
-61 0.86
62 0.52
-62 0.48
63 0.34
-63 0.6599999999999999
64 0.22
-64 0.78
65 0.93
-65 0.06999999999999995
66 0.83
-66 0.17000000000000004
67 0.77
-67 0.22999999999999998
68 0.96
-68 0.040000000000000036
69 0.11
-69 0.89
70 0.11
-70 0.89
