1 0.62
-1 0.38
2 0.19
-2 0.81
3 0.93
-3 0.06999999999999995
4 0.67
-4 0.32999999999999996
5 0.45
-5 0.55
6 0.2
-6 0.8
7 0.19
-7 0.81
8 0.89
-8 0.10999999999999999
9 0.23
-9 0.77
10 0.44
-10 0.56
11 0.7
-11 0.30000000000000004
12 0.03
-12 0.97
13 0.6
-13 0.4
14 0.03
-14 0.97
15 0.95
-15 0.050000000000000044
16 0.26
-16 0.74
17 0.69
-17 0.31000000000000005
18 0.15
-18 0.85
19 0.24
-19 0.76
20 0.82
-20 0.18000000000000005
21 0.73
-21 0.27
22 0.53
-22 0.47
23 0.27
-23 0.73
24 0.84
-24 0.16000000000000003
25 0.25
-25 0.75
26 0.9
-26 0.09999999999999998
27 0.92
-27 0.07999999999999996
28 0.53
-28 0.47
29 0.86
-29 0.14
30 0.58
-30 0.42000000000000004
31 0.25
-31 0.75
32 0.8
-32 0.19999999999999996
33 0.48
-33 0.52
34 0.69
-34 0.31000000000000005
35 0.23
-35 0.77
36 0.91
-36 0.08999999999999997
37 0.65
-37 0.35
38 0.1
-38 0.9
39 0.58
-39 0.42000000000000004
40 0.12
-40 0.88
41 0.13
-41 0.87
42 0.76
-42 0.24
43 0.11
-43 0.89
44 0.29
-44 0.71
45 0.64
-45 0.36
46 0.47
-46 0.53
47 0.35
-47 0.65
48 0.68
-48 0.31999999999999995
49 0.26
-49 0.74
50 0.87
-50 0.13
51 0.08
-51 0.92
52 0.01
-52 0.99
53 0.51
-53 0.49
54 0.71
-54 0.29000000000000004
55 0.61
-55 0.39
56 0.95
-56 0.050000000000000044
57 0.81
-57 0.18999999999999995
58 0.78
-58 0.21999999999999997
59 0.16
-59 0.84
60 0.06
-60 0.94
61 0.54
-61 0.45999999999999996
62 0.57
-62 0.43000000000000005
63 0.6
-63 0.4
64 0.93
-64 0.06999999999999995
65 0.33
-65 0.6699999999999999
66 0.19
-66 0.81
67 0.87
-67 0.13
68 0.32
-68 0.6799999999999999
69 0.04
-69 0.96
70 0.2
-70 0.8
