1 0.49
-1 0.51
2 0.55
-2 0.44999999999999996
3 0.99
-3 0.010000000000000009
4 0.55
-4 0.44999999999999996
5 0.87
-5 0.13
6 0.7
-6 0.30000000000000004
7 0.66
-7 0.33999999999999997
8 0.52
-8 0.48
9 0.21
-9 0.79
10 0.62
-10 0.38
11 0.77
-11 0.22999999999999998
12 0.8
-12 0.19999999999999996
13 0.97
-13 0.030000000000000027
14 0.33
-14 0.6699999999999999
15 0.88
-15 0.12
16 0.75
-16 0.25
17 0.05
-17 0.95
18 0.9
-18 0.09999999999999998
19 0.33
-19 0.6699999999999999
20 0.91
-20 0.08999999999999997
21 0.69
-21 0.31000000000000005
22 0.14
-22 0.86
23 0.63
-23 0.37
24 0.26
-24 0.74
25 0.15
-25 0.85
26 0.13
-26 0.87
27 0.62
-27 0.38
28 0.58
-28 0.42000000000000004
29 0.4
-29 0.6
30 0.88
-30 0.12
31 0.49
-31 0.51
32 0.54
-32 0.45999999999999996
33 0.42
-33 0.5800000000000001
34 0.48
-34 0.52
35 0.5
-35 0.5
36 0.69
-36 0.31000000000000005
37 0.34
-37 0.6599999999999999
38 0.08
-38 0.92
39 0.78
-39 0.21999999999999997
40 0.19
-40 0.81
41 0.43
-41 0.5700000000000001
42 0.18
-42 0.8200000000000001
43 0.14
-43 0.86
44 0.45
-44 0.55
45 0.37
-45 0.63
46 0.98
-46 0.020000000000000018
47 0.77
-47 0.22999999999999998
48 0.09
-48 0.91
49 0.6
-49 0.4
50 0.54
-50 0.45999999999999996
51 0.19
-51 0.81
52 0.46
-52 0.54
53 0.97
-53 0.030000000000000027
54 0.57
-54 0.43000000000000005
55 0.05
-55 0.95
56 0.24
-56 0.76
57 0.83
-57 0.17000000000000004
58 0.25
-58 0.75
59 0.31
-59 0.69
60 0.05
-60 0.95
61 0.91
-61 0.08999999999999997
62 0.79
-62 0.20999999999999996
63 0.31
-63 0.69
64 0.45
-64 0.55
65 0.48
-65 0.52
66 0.45
-66 0.55
67 0.78
-67 0.21999999999999997
68 0.02
-68 0.98
69 0.12
-69 0.88
70 0.39
-70 0.61
