1 0.26
-1 0.74
2 0.41
-2 0.5900000000000001
3 0.42
-3 0.5800000000000001
4 0.62
-4 0.38
5 0.86
-5 0.14
6 0.73
-6 0.27
7 0.54
-7 0.45999999999999996
8 0.46
-8 0.54
9 0.68
-9 0.31999999999999995
10 0.18
-10 0.8200000000000001
11 0.09
-11 0.91
12 0.76
-12 0.24
13 0.99
-13 0.010000000000000009
14 0.41
-14 0.5900000000000001
15 0.03
-15 0.97
16 0.47
-16 0.53
17 0.02
-17 0.98
18 0.6
-18 0.4
19 0.64
-19 0.36
20 0.24
-20 0.76
21 0.46
-21 0.54
22 0.01
-22 0.99
23 0.51
-23 0.49
24 0.73
-24 0.27
25 0.32
-25 0.6799999999999999
26 0.8
-26 0.19999999999999996
27 0.8
-27 0.19999999999999996
28 0.41
-28 0.5900000000000001
29 0.32
-29 0.6799999999999999
30 0.09
-30 0.91
31 0.02
-31 0.98
32 0.6
-32 0.4
33 0.2
-33 0.8
34 0.62
-34 0.38
35 0.62
-35 0.38
36 0.86
-36 0.14
37 0.96
-37 0.040000000000000036
38 0.13
-38 0.87
39 0.03
-39 0.97
40 0.26
-40 0.74
41 0.78
-41 0.21999999999999997
42 0.53
-42 0.47
43 0.26
-43 0.74
44 0.25
-44 0.75
45 0.56
-45 0.43999999999999995
46 0.33
-46 0.6699999999999999
47 0.22
-47 0.78
48 0.62
-48 0.38
49 0.01
-49 0.99
50 0.73
-50 0.27
51 0.6
-51 0.4
52 0.75
-52 0.25
53 0.34
-53 0.6599999999999999
54 0.59
-54 0.41000000000000003
55 0.8
-55 0.19999999999999996
56 0.1
-56 0.9
57 0.47
-57 0.53
58 0.87
-58 0.13
59 0.87
-59 0.13
60 0.19
-60 0.81
61 0.9
-61 0.09999999999999998
62 0.14
-62 0.86
63 0.98
-63 0.020000000000000018
64 0.88
-64 0.12
65 0.05
-65 0.95
66 0.07
-66 0.9299999999999999
67 0.26
-67 0.74
68 0.14
-68 0.86
69 0.38
-69 0.62
70 0.8
-70 0.19999999999999996
