1 0.9
-1 0.09999999999999998
2 0.18
-2 0.8200000000000001
3 0.53
-3 0.47
4 0.33
-4 0.6699999999999999
5 0.55
-5 0.44999999999999996
6 0.7
-6 0.30000000000000004
7 0.6
-7 0.4
8 0.83
-8 0.17000000000000004
9 0.64
-9 0.36
10 0.94
-10 0.06000000000000005
11 0.24
-11 0.76
12 0.04
-12 0.96
13 0.33
-13 0.6699999999999999
14 0.03
-14 0.97
15 0.73
-15 0.27
16 0.19
-16 0.81
17 0.39
-17 0.61
18 0.35
-18 0.65
19 0.46
-19 0.54
20 0.76
-20 0.24
21 0.92
-21 0.07999999999999996
22 0.74
-22 0.26
23 0.58
-23 0.42000000000000004
24 0.21
-24 0.79
25 0.37
-25 0.63
26 0.44
-26 0.56
27 0.34
-27 0.6599999999999999
28 0.91
-28 0.08999999999999997
29 0.41
-29 0.5900000000000001
30 0.75
-30 0.25
31 0.52
-31 0.48
32 0.02
-32 0.98
33 0.95
-33 0.050000000000000044
34 0.52
-34 0.48
35 0.75
-35 0.25
36 0.94
-36 0.06000000000000005
37 0.93
-37 0.06999999999999995
38 0.86
-38 0.14
39 0.16
-39 0.84
40 0.44
-40 0.56
41 0.67
-41 0.32999999999999996
42 0.85
-42 0.15000000000000002
43 0.76
-43 0.24
44 0.3
-44 0.7
45 0.52
-45 0.48
46 0.28
-46 0.72
47 0.25
-47 0.75
48 0.29
-48 0.71
49 0.1
-49 0.9
50 0.51
-50 0.49
51 0.35
-51 0.65
52 0.92
-52 0.07999999999999996
53 0.2
-53 0.8
54 0.4
-54 0.6
55 0.08
-55 0.92
56 0.38
-56 0.62
57 0.04
-57 0.96
58 0.16
-58 0.84
59 0.64
-59 0.36
60 0.46
-60 0.54
61 0.19
-61 0.81
62 0.32
-62 0.6799999999999999
63 0.85
-63 0.15000000000000002
64 0.91
-64 0.08999999999999997
65 0.23
-65 0.77
66 0.42
-66 0.5800000000000001
67 0.19
-67 0.81
68 0.78
-68 0.21999999999999997
69 0.77
-69 0.22999999999999998
70 0.72
-70 0.28
