1 0.65
-1 0.35
2 0.95
-2 0.050000000000000044
3 0.62
-3 0.38
4 0.64
-4 0.36
5 0.6
-5 0.4
6 0.75
-6 0.25
7 0.14
-7 0.86
8 0.21
-8 0.79
9 0.85
-9 0.15000000000000002
10 0.56
-10 0.43999999999999995
11 0.27
-11 0.73
12 0.62
-12 0.38
13 0.96
-13 0.040000000000000036
14 0.74
-14 0.26
15 0.97
-15 0.030000000000000027
16 0.08
-16 0.92
17 0.33
-17 0.6699999999999999
18 0.35
-18 0.65
19 0.86
-19 0.14
20 0.83
-20 0.17000000000000004
21 0.18
-21 0.8200000000000001
22 0.35
-22 0.65
23 0.95
-23 0.050000000000000044
24 0.54
-24 0.45999999999999996
25 0.14
-25 0.86
26 0.66
-26 0.33999999999999997
27 0.84
-27 0.16000000000000003
28 0.36
-28 0.64
29 0.41
-29 0.5900000000000001
30 0.42
-30 0.5800000000000001
31 0.97
-31 0.030000000000000027
32 0.16
-32 0.84
33 0.67
-33 0.32999999999999996
34 0.73
-34 0.27
35 0.25
-35 0.75
36 0.74
-36 0.26
37 0.09
-37 0.91
38 0.64
-38 0.36
39 0.76
-39 0.24
40 0.23
-40 0.77
41 0.87
-41 0.13
42 0.09
-42 0.91
43 0.22
-43 0.78
44 0.79
-44 0.20999999999999996
45 0.87
-45 0.13
46 0.66
-46 0.33999999999999997
47 0.55
-47 0.44999999999999996
48 0.15
-48 0.85
49 0.64
-49 0.36
50 0.66
-50 0.33999999999999997
51 0.34
-51 0.6599999999999999
52 0.19
-52 0.81
53 0.71
-53 0.29000000000000004
54 0.38
-54 0.62
55 0.85
-55 0.15000000000000002
56 0.12
-56 0.88
57 0.86
-57 0.14
58 0.55
-58 0.44999999999999996
59 0.25
-59 0.75
60 0.52
-60 0.48
61 0.23
-61 0.77
62 0.71
-62 0.29000000000000004
63 0.28
-63 0.72
64 0.35
-64 0.65
65 0.39
-65 0.61
66 0.56
-66 0.43999999999999995
67 0.23
-67 0.77
68 0.93
-68 0.06999999999999995
69 0.26
-69 0.74
70 0.37
-70 0.63
