1 0.63
-1 0.37
2 0.62
-2 0.38
3 0.4
-3 0.6
4 0.33
-4 0.6699999999999999
5 0.62
-5 0.38
6 0.76
-6 0.24
7 0.13
-7 0.87
8 0.78
-8 0.21999999999999997
9 0.22
-9 0.78
10 0.79
-10 0.20999999999999996
11 0.06
-11 0.94
12 0.24
-12 0.76
13 0.76
-13 0.24
14 0.41
-14 0.5900000000000001
15 0.79
-15 0.20999999999999996
16 0.93
-16 0.06999999999999995
17 0.85
-17 0.15000000000000002
18 0.2
-18 0.8
19 0.39
-19 0.61
20 0.76
-20 0.24
21 0.5
-21 0.5
22 0.6
-22 0.4
23 0.73
-23 0.27
24 0.38
-24 0.62
25 0.28
-25 0.72
26 0.1
-26 0.9
27 0.27
-27 0.73
28 0.58
-28 0.42000000000000004
29 0.62
-29 0.38
30 0.12
-30 0.88
31 0.4
-31 0.6
32 0.24
-32 0.76
33 0.76
-33 0.24
34 0.96
-34 0.040000000000000036
35 0.22
-35 0.78
36 0.31
-36 0.69
37 0.9
-37 0.09999999999999998
38 0.41
-38 0.5900000000000001
39 0.36
-39 0.64
40 0.22
-40 0.78
41 0.34
-41 0.6599999999999999
42 0.98
-42 0.020000000000000018
43 0.91
-43 0.08999999999999997
44 0.7
-44 0.30000000000000004
45 0.78
-45 0.21999999999999997
46 0.87
-46 0.13
47 0.02
-47 0.98
48 0.03
-48 0.97
49 0.04
-49 0.96
50 0.91
-50 0.08999999999999997
51 0.86
-51 0.14
52 0.03
-52 0.97
53 0.77
-53 0.22999999999999998
54 0.81
-54 0.18999999999999995
55 0.18
-55 0.8200000000000001
56 0.25
-56 0.75
57 0.11
-57 0.89
58 0.41
-58 0.5900000000000001
59 0.51
-59 0.49
60 0.09
-60 0.91
61 0.77
-61 0.22999999999999998
62 0.13
-62 0.87
63 0.89
-63 0.10999999999999999
64 0.02
-64 0.98
65 0.08
-65 0.92
66 0.41
-66 0.5900000000000001
67 0.41
-67 0.5900000000000001
68 0.98
-68 0.020000000000000018
69 0.87
-69 0.13
70 0.69
-70 0.31000000000000005
