1 0.98
-1 0.020000000000000018
2 0.31
-2 0.69
3 0.23
-3 0.77
4 0.26
-4 0.74
5 0.36
-5 0.64
6 0.36
-6 0.64
7 0.77
-7 0.22999999999999998
8 0.73
-8 0.27
9 0.87
-9 0.13
10 0.36
-10 0.64
11 0.1
-11 0.9
12 0.84
-12 0.16000000000000003
13 0.71
-13 0.29000000000000004
14 0.63
-14 0.37
15 0.88
-15 0.12
16 0.69
-16 0.31000000000000005
17 0.05
-17 0.95
18 0.34
-18 0.6599999999999999
19 0.08
-19 0.92
20 0.08
-20 0.92
21 0.71
-21 0.29000000000000004
22 0.66
-22 0.33999999999999997
23 0.12
-23 0.88
24 0.87
-24 0.13
25 0.38
-25 0.62
26 0.01
-26 0.99
27 0.3
-27 0.7
28 0.83
-28 0.17000000000000004
29 0.25
-29 0.75
30 0.54
-30 0.45999999999999996
31 0.62
-31 0.38
32 0.27
-32 0.73
33 0.09
-33 0.91
34 0.86
-34 0.14
35 0.39
-35 0.61
36 0.06
-36 0.94
37 0.46
-37 0.54
38 0.01
-38 0.99
39 0.97
-39 0.030000000000000027
40 0.98
-40 0.020000000000000018
41 0.68
-41 0.31999999999999995
42 0.57
-42 0.43000000000000005
43 0.66
-43 0.33999999999999997
44 0.93
-44 0.06999999999999995
45 0.87
-45 0.13
46 0.21
-46 0.79
47 0.57
-47 0.43000000000000005
48 0.61
-48 0.39
49 0.88
-49 0.12
50 0.98
-50 0.020000000000000018
51 0.83
-51 0.17000000000000004
52 0.37
-52 0.63
53 0.53
-53 0.47
54 0.84
-54 0.16000000000000003
55 0.13
-55 0.87
56 0.36
-56 0.64
57 0.98
-57 0.020000000000000018
58 0.68
-58 0.31999999999999995
59 0.04
-59 0.96
60 0.14
-60 0.86
61 0.55
-61 0.44999999999999996
62 0.8
-62 0.19999999999999996
63 0.05
-63 0.95
64 0.05
-64 0.95
65 0.19
-65 0.81
66 0.05
-66 0.95
67 0.2
-67 0.8
68 0.97
-68 0.030000000000000027
69 0.81
-69 0.18999999999999995
70 0.34
-70 0.6599999999999999
