1 0.83
-1 0.17000000000000004
2 0.15
-2 0.85
3 0.25
-3 0.75
4 0.41
-4 0.5900000000000001
5 0.69
-5 0.31000000000000005
6 0.25
-6 0.75
7 0.42
-7 0.5800000000000001
8 0.99
-8 0.010000000000000009
9 0.49
-9 0.51
10 0.5
-10 0.5
11 0.69
-11 0.31000000000000005
12 0.14
-12 0.86
13 0.34
-13 0.6599999999999999
14 0.65
-14 0.35
15 0.38
-15 0.62
16 0.64
-16 0.36
17 0.68
-17 0.31999999999999995
18 0.1
-18 0.9
19 0.92
-19 0.07999999999999996
20 0.39
-20 0.61
21 0.99
-21 0.010000000000000009
22 0.78
-22 0.21999999999999997
23 0.53
-23 0.47
24 0.7
-24 0.30000000000000004
25 0.66
-25 0.33999999999999997
26 0.55
-26 0.44999999999999996
27 0.85
-27 0.15000000000000002
28 0.12
-28 0.88
29 0.57
-29 0.43000000000000005
30 0.19
-30 0.81
31 0.5
-31 0.5
32 0.45
-32 0.55
33 0.98
-33 0.020000000000000018
34 0.99
-34 0.010000000000000009
35 0.35
-35 0.65
36 0.71
-36 0.29000000000000004
37 0.09
-37 0.91
38 0.83
-38 0.17000000000000004
39 0.52
-39 0.48
40 0.17
-40 0.83
41 0.52
-41 0.48
42 0.71
-42 0.29000000000000004
43 0.23
-43 0.77
44 0.89
-44 0.10999999999999999
45 0.46
-45 0.54
46 0.26
-46 0.74
47 0.03
-47 0.97
48 0.88
-48 0.12
49 0.85
-49 0.15000000000000002
50 0.11
-50 0.89
51 0.48
-51 0.52
52 0.95
-52 0.050000000000000044
53 0.63
-53 0.37
54 0.02
-54 0.98
55 0.93
-55 0.06999999999999995
56 0.21
-56 0.79
57 0.19
-57 0.81
58 0.33
-58 0.6699999999999999
59 0.55
-59 0.44999999999999996
60 0.2
-60 0.8
61 0.43
-61 0.5700000000000001
62 0.93
-62 0.06999999999999995
63 0.76
-63 0.24
64 0.37
-64 0.63
65 0.99
-65 0.010000000000000009
66 0.21
-66 0.79
67 0.8
-67 0.19999999999999996
68 0.45
-68 0.55
69 0.79
-69 0.20999999999999996
70 0.71
-70 0.29000000000000004
