1 0.77
-1 0.22999999999999998
2 0.94
-2 0.06000000000000005
3 0.11
-3 0.89
4 0.48
-4 0.52
5 0.93
-5 0.06999999999999995
6 0.91
-6 0.08999999999999997
7 0.73
-7 0.27
8 0.79
-8 0.20999999999999996
9 0.27
-9 0.73
10 0.27
-10 0.73
11 0.72
-11 0.28
12 0.43
-12 0.5700000000000001
13 0.67
-13 0.32999999999999996
14 0.42
-14 0.5800000000000001
15 0.95
-15 0.050000000000000044
16 0.76
-16 0.24
17 0.89
-17 0.10999999999999999
18 0.47
-18 0.53
19 0.16
-19 0.84
20 0.18
-20 0.8200000000000001
21 0.16
-21 0.84
22 0.48
-22 0.52
23 0.51
-23 0.49
24 0.66
-24 0.33999999999999997
25 0.93
-25 0.06999999999999995
26 0.51
-26 0.49
27 0.88
-27 0.12
28 0.12
-28 0.88
29 0.3
-29 0.7
30 0.38
-30 0.62
31 0.73
-31 0.27
32 0.35
-32 0.65
33 0.2
-33 0.8
34 0.33
-34 0.6699999999999999
35 0.79
-35 0.20999999999999996
36 0.53
-36 0.47
37 0.96
-37 0.040000000000000036
38 0.84
-38 0.16000000000000003
39 0.31
-39 0.69
40 0.13
-40 0.87
41 0.79
-41 0.20999999999999996
42 0.95
-42 0.050000000000000044
43 0.44
-43 0.56
44 0.51
-44 0.49
45 0.95
-45 0.050000000000000044
46 0.22
-46 0.78
47 0.55
-47 0.44999999999999996
48 0.72
-48 0.28
49 0.18
-49 0.8200000000000001
50 0.8
-50 0.19999999999999996
51 0.24
-51 0.76
52 0.93
-52 0.06999999999999995
53 0.83
-53 0.17000000000000004
54 0.97
-54 0.030000000000000027
55 0.56
-55 0.43999999999999995
56 0.45
-56 0.55
57 0.53
-57 0.47
58 0.94
-58 0.06000000000000005
59 0.85
-59 0.15000000000000002
60 0.52
-60 0.48
61 0.28
-61 0.72
62 0.79
-62 0.20999999999999996
63 0.16
-63 0.84
64 0.76
-64 0.24
65 0.34
-65 0.6599999999999999
66 0.38
-66 0.62
67 0.11
-67 0.89
68 0.39
-68 0.61
69 0.47
-69 0.53
70 0.16
-70 0.84
