1 0.52
-1 0.48
2 0.69
-2 0.31000000000000005
3 0.95
-3 0.050000000000000044
4 0.42
-4 0.5800000000000001
5 0.28
-5 0.72
6 0.77
-6 0.22999999999999998
7 0.14
-7 0.86
8 0.46
-8 0.54
9 0.47
-9 0.53
10 0.54
-10 0.45999999999999996
11 0.17
-11 0.83
12 0.05
-12 0.95
13 0.22
-13 0.78
14 0.01
-14 0.99
15 0.33
-15 0.6699999999999999
16 0.69
-16 0.31000000000000005
17 0.71
-17 0.29000000000000004
18 0.7
-18 0.30000000000000004
19 0.75
-19 0.25
20 0.01
-20 0.99
21 0.88
-21 0.12
22 0.51
-22 0.49
23 0.85
-23 0.15000000000000002
24 0.1
-24 0.9
25 0.82
-25 0.18000000000000005
26 0.91
-26 0.08999999999999997
27 0.73
-27 0.27
28 0.98
-28 0.020000000000000018
29 0.61
-29 0.39
30 0.54
-30 0.45999999999999996
31 0.88
-31 0.12
32 0.31
-32 0.69
33 0.52
-33 0.48
34 0.44
-34 0.56
35 0.54
-35 0.45999999999999996
36 0.06
-36 0.94
37 0.1
-37 0.9
38 0.07
-38 0.9299999999999999
39 0.06
-39 0.94
40 0.56
-40 0.43999999999999995
41 0.69
-41 0.31000000000000005
42 0.65
-42 0.35
43 0.43
-43 0.5700000000000001
44 0.71
-44 0.29000000000000004
45 0.37
-45 0.63
46 0.14
-46 0.86
47 0.42
-47 0.5800000000000001
48 0.75
-48 0.25
49 0.48
-49 0.52
50 0.81
-50 0.18999999999999995
51 0.81
-51 0.18999999999999995
52 0.52
-52 0.48
53 0.4
-53 0.6
54 0.05
-54 0.95
55 0.06
-55 0.94
56 0.04
-56 0.96
57 0.64
-57 0.36
58 0.81
-58 0.18999999999999995
59 0.91
-59 0.08999999999999997
60 0.44
-60 0.56
61 0.95
-61 0.050000000000000044
62 0.65
-62 0.35
63 0.58
-63 0.42000000000000004
64 0.02
-64 0.98
65 0.06
-65 0.94
66 0.59
-66 0.41000000000000003
67 0.75
-67 0.25
68 0.65
-68 0.35
69 0.1
-69 0.9
70 0.53
-70 0.47
