1 0.73
-1 0.27
2 0.08
-2 0.92
3 0.74
-3 0.26
4 0.53
-4 0.47
5 0.14
-5 0.86
6 0.72
-6 0.28
7 0.53
-7 0.47
8 0.21
-8 0.79
9 0.4
-9 0.6
10 0.48
-10 0.52
11 0.84
-11 0.16000000000000003
12 0.54
-12 0.45999999999999996
13 0.44
-13 0.56
14 0.03
-14 0.97
15 0.49
-15 0.51
16 0.16
-16 0.84
17 0.47
-17 0.53
18 0.81
-18 0.18999999999999995
19 0.34
-19 0.6599999999999999
20 0.8
-20 0.19999999999999996
21 0.07
-21 0.9299999999999999
22 0.83
-22 0.17000000000000004
23 0.66
-23 0.33999999999999997
24 0.8
-24 0.19999999999999996
25 0.19
-25 0.81
26 0.55
-26 0.44999999999999996
27 0.7
-27 0.30000000000000004
28 0.08
-28 0.92
29 0.26
-29 0.74
30 0.99
-30 0.010000000000000009
31 0.71
-31 0.29000000000000004
32 0.76
-32 0.24
33 0.29
-33 0.71
34 0.22
-34 0.78
35 0.17
-35 0.83
36 0.63
-36 0.37
37 0.82
-37 0.18000000000000005
38 0.49
-38 0.51
39 0.38
-39 0.62
40 0.46
-40 0.54
41 0.83
-41 0.17000000000000004
42 0.28
-42 0.72
43 0.37
-43 0.63
44 0.37
-44 0.63
45 0.4
-45 0.6
46 0.86
-46 0.14
47 0.81
-47 0.18999999999999995
48 0.82
-48 0.18000000000000005
49 0.59
-49 0.41000000000000003
50 0.53
-50 0.47
51 0.97
-51 0.030000000000000027
52 0.05
-52 0.95
53 0.01
-53 0.99
54 0.88
-54 0.12
55 0.3
-55 0.7
56 0.35
-56 0.65
57 0.69
-57 0.31000000000000005
58 0.09
-58 0.91
59 0.1
-59 0.9
60 0.34
-60 0.6599999999999999
61 0.32
-61 0.6799999999999999
62 0.46
-62 0.54
63 0.3
-63 0.7
64 0.26
-64 0.74
65 0.85
-65 0.15000000000000002
66 0.36
-66 0.64
67 0.28
-67 0.72
68 0.37
-68 0.63
69 0.74
-69 0.26
70 0.41
-70 0.5900000000000001
