1 0.61
-1 0.39
2 0.54
-2 0.45999999999999996
3 0.05
-3 0.95
4 0.4
-4 0.6
5 0.79
-5 0.20999999999999996
6 0.46
-6 0.54
7 0.8
-7 0.19999999999999996
8 0.49
-8 0.51
9 0.81
-9 0.18999999999999995
10 0.26
-10 0.74
11 0.74
-11 0.26
12 0.38
-12 0.62
13 0.48
-13 0.52
14 0.46
-14 0.54
15 0.41
-15 0.5900000000000001
16 0.71
-16 0.29000000000000004
17 0.72
-17 0.28
18 0.71
-18 0.29000000000000004
19 0.55
-19 0.44999999999999996
20 0.89
-20 0.10999999999999999
21 0.76
-21 0.24
22 0.85
-22 0.15000000000000002
23 0.01
-23 0.99
24 0.62
-24 0.38
25 0.31
-25 0.69
26 0.52
-26 0.48
27 0.99
-27 0.010000000000000009
28 0.32
-28 0.6799999999999999
29 0.11
-29 0.89
30 0.38
-30 0.62
31 0.07
-31 0.9299999999999999
32 0.31
-32 0.69
33 0.81
-33 0.18999999999999995
34 0.6
-34 0.4
35 0.26
-35 0.74
36 0.97
-36 0.030000000000000027
37 0.85
-37 0.15000000000000002
38 0.64
-38 0.36
39 0.95
-39 0.050000000000000044
40 0.41
-40 0.5900000000000001
41 0.84
-41 0.16000000000000003
42 0.64
-42 0.36
43 0.89
-43 0.10999999999999999
44 0.61
-44 0.39
45 0.11
-45 0.89
46 0.87
-46 0.13
47 0.32
-47 0.6799999999999999
48 0.76
-48 0.24
49 0.98
-49 0.020000000000000018
50 0.57
-50 0.43000000000000005
51 0.05
-51 0.95
52 0.7
-52 0.30000000000000004
53 0.7
-53 0.30000000000000004
54 0.68
-54 0.31999999999999995
55 0.35
-55 0.65
56 0.65
-56 0.35
57 0.94
-57 0.06000000000000005
58 0.53
-58 0.47
59 0.96
-59 0.040000000000000036
60 0.49
-60 0.51
61 0.48
-61 0.52
62 0.98
-62 0.020000000000000018
63 0.92
-63 0.07999999999999996
64 0.05
-64 0.95
65 0.35
-65 0.65
66 0.92
-66 0.07999999999999996
67 0.42
-67 0.5800000000000001
68 0.21
-68 0.79
69 0.6
-69 0.4
70 0.69
-70 0.31000000000000005
