1 0.08
-1 0.92
2 0.96
-2 0.040000000000000036
3 0.3
-3 0.7
4 0.31
-4 0.69
5 0.4
-5 0.6
6 0.13
-6 0.87
7 0.79
-7 0.20999999999999996
8 0.96
-8 0.040000000000000036
9 0.3
-9 0.7
10 0.26
-10 0.74
11 0.55
-11 0.44999999999999996
12 0.32
-12 0.6799999999999999
13 0.28
-13 0.72
14 0.21
-14 0.79
15 0.58
-15 0.42000000000000004
16 0.69
-16 0.31000000000000005
17 0.51
-17 0.49
18 0.92
-18 0.07999999999999996
19 0.55
-19 0.44999999999999996
20 0.2
-20 0.8
21 0.35
-21 0.65
22 0.36
-22 0.64
23 0.61
-23 0.39
24 0.28
-24 0.72
25 0.93
-25 0.06999999999999995
26 0.06
-26 0.94
27 0.88
-27 0.12
28 0.4
-28 0.6
29 0.05
-29 0.95
30 0.69
-30 0.31000000000000005
31 0.78
-31 0.21999999999999997
32 0.97
-32 0.030000000000000027
33 0.07
-33 0.9299999999999999
34 0.29
-34 0.71
35 0.59
-35 0.41000000000000003
36 0.69
-36 0.31000000000000005
37 0.02
-37 0.98
38 0.57
-38 0.43000000000000005
39 0.85
-39 0.15000000000000002
40 0.6
-40 0.4
41 0.82
-41 0.18000000000000005
42 0.62
-42 0.38
43 0.08
-43 0.92
44 0.1
-44 0.9
45 0.98
-45 0.020000000000000018
46 0.61
-46 0.39
47 0.14
-47 0.86
48 0.94
-48 0.06000000000000005
49 0.06
-49 0.94
50 0.77
-50 0.22999999999999998
51 0.37
-51 0.63
52 0.54
-52 0.45999999999999996
53 0.82
-53 0.18000000000000005
54 0.94
-54 0.06000000000000005
55 0.24
-55 0.76
56 0.55
-56 0.44999999999999996
57 0.9
-57 0.09999999999999998
58 0.94
-58 0.06000000000000005
59 0.16
-59 0.84
60 0.11
-60 0.89
61 0.52
-61 0.48
62 0.25
-62 0.75
63 0.86
-63 0.14
64 0.87
-64 0.13
65 0.97
-65 0.030000000000000027
66 0.88
-66 0.12
67 0.61
-67 0.39
68 0.96
-68 0.040000000000000036
69 0.25
-69 0.75
70 0.78
-70 0.21999999999999997
