1 0.38
-1 0.62
2 0.69
-2 0.31000000000000005
3 0.47
-3 0.53
4 0.62
-4 0.38
5 0.72
-5 0.28
6 0.87
-6 0.13
7 0.42
-7 0.5800000000000001
8 0.75
-8 0.25
9 0.93
-9 0.06999999999999995
10 0.74
-10 0.26
11 0.36
-11 0.64
12 0.63
-12 0.37
13 0.61
-13 0.39
14 0.5
-14 0.5
15 0.91
-15 0.08999999999999997
16 0.84
-16 0.16000000000000003
17 0.29
-17 0.71
18 0.67
-18 0.32999999999999996
19 0.46
-19 0.54
20 0.36
-20 0.64
21 0.45
-21 0.55
22 0.96
-22 0.040000000000000036
23 0.07
-23 0.9299999999999999
24 0.59
-24 0.41000000000000003
25 0.58
-25 0.42000000000000004
26 0.38
-26 0.62
27 0.55
-27 0.44999999999999996
28 0.26
-28 0.74
29 0.91
-29 0.08999999999999997
30 0.26
-30 0.74
31 0.22
-31 0.78
32 0.79
-32 0.20999999999999996
33 0.97
-33 0.030000000000000027
34 0.42
-34 0.5800000000000001
35 0.01
-35 0.99
36 0.53
-36 0.47
37 0.93
-37 0.06999999999999995
38 0.86
-38 0.14
39 0.73
-39 0.27
40 0.95
-40 0.050000000000000044
41 0.61
-41 0.39
42 0.56
-42 0.43999999999999995
43 0.85
-43 0.15000000000000002
44 0.55
-44 0.44999999999999996
45 0.47
-45 0.53
46 0.38
-46 0.62
47 0.6
-47 0.4
48 0.51
-48 0.49
49 0.46
-49 0.54
50 0.17
-50 0.83
51 0.8
-51 0.19999999999999996
52 0.02
-52 0.98
53 0.74
-53 0.26
54 0.33
-54 0.6699999999999999
55 0.28
-55 0.72
56 0.41
-56 0.5900000000000001
57 0.62
-57 0.38
58 0.48
-58 0.52
59 0.33
-59 0.6699999999999999
60 0.22
-60 0.78
61 0.52
-61 0.48
62 0.91
-62 0.08999999999999997
63 0.64
-63 0.36
64 0.98
-64 0.020000000000000018
65 0.13
-65 0.87
66 0.68
-66 0.31999999999999995
67 0.36
-67 0.64
68 0.63
-68 0.37
69 0.61
-69 0.39
70 0.03
-70 0.97
