1 0.91
-1 0.08999999999999997
2 0.05
-2 0.95
3 0.98
-3 0.020000000000000018
4 0.9
-4 0.09999999999999998
5 0.34
-5 0.6599999999999999
6 0.97
-6 0.030000000000000027
7 0.09
-7 0.91
8 0.05
-8 0.95
9 0.15
-9 0.85
10 0.56
-10 0.43999999999999995
11 0.21
-11 0.79
12 0.7
-12 0.30000000000000004
13 0.04
-13 0.96
14 0.36
-14 0.64
15 0.49
-15 0.51
16 0.23
-16 0.77
17 0.61
-17 0.39
18 0.86
-18 0.14
19 0.33
-19 0.6699999999999999
20 0.42
-20 0.5800000000000001
21 0.53
-21 0.47
22 0.94
-22 0.06000000000000005
23 0.4
-23 0.6
24 0.49
-24 0.51
25 0.43
-25 0.5700000000000001
26 0.44
-26 0.56
27 0.56
-27 0.43999999999999995
28 0.87
-28 0.13
29 0.37
-29 0.63
30 0.15
-30 0.85
31 0.29
-31 0.71
32 0.4
-32 0.6
33 0.35
-33 0.65
34 0.46
-34 0.54
35 0.23
-35 0.77
36 0.47
-36 0.53
37 0.29
-37 0.71
38 0.82
-38 0.18000000000000005
39 0.49
-39 0.51
40 0.11
-40 0.89
41 0.63
-41 0.37
42 0.18
-42 0.8200000000000001
43 0.41
-43 0.5900000000000001
44 0.27
-44 0.73
45 0.23
-45 0.77
46 0.82
-46 0.18000000000000005
47 0.84
-47 0.16000000000000003
48 0.19
-48 0.81
49 0.47
-49 0.53
50 0.38
-50 0.62
51 0.91
-51 0.08999999999999997
52 0.49
-52 0.51
53 0.98
-53 0.020000000000000018
54 0.96
-54 0.040000000000000036
55 0.15
-55 0.85
56 0.29
-56 0.71
57 0.74
-57 0.26
58 0.1
-58 0.9
59 0.95
-59 0.050000000000000044
60 0.58
-60 0.42000000000000004
61 0.06
-61 0.94
62 0.85
-62 0.15000000000000002
63 0.71
-63 0.29000000000000004
64 0.47
-64 0.53
65 0.54
-65 0.45999999999999996
66 0.78
-66 0.21999999999999997
67 0.5
-67 0.5
68 0.42
-68 0.5800000000000001
69 0.37
-69 0.63
70 0.5
-70 0.5
