1 0.13
-1 0.87
2 0.24
-2 0.76
3 0.32
-3 0.6799999999999999
4 0.4
-4 0.6
5 0.38
-5 0.62
6 0.49
-6 0.51
7 0.28
-7 0.72
8 0.56
-8 0.43999999999999995
9 0.48
-9 0.52
10 0.94
-10 0.06000000000000005
11 0.28
-11 0.72
12 0.47
-12 0.53
13 0.87
-13 0.13
14 0.56
-14 0.43999999999999995
15 0.42
-15 0.5800000000000001
16 0.43
-16 0.5700000000000001
17 0.5
-17 0.5
18 0.72
-18 0.28
19 0.42
-19 0.5800000000000001
20 0.27
-20 0.73
21 0.95
-21 0.050000000000000044
22 0.08
-22 0.92
23 0.73
-23 0.27
24 0.17
-24 0.83
25 0.22
-25 0.78
26 0.98
-26 0.020000000000000018
27 0.87
-27 0.13
28 0.52
-28 0.48
29 0.58
-29 0.42000000000000004
30 0.16
-30 0.84
31 0.73
-31 0.27
32 0.91
-32 0.08999999999999997
33 0.2
-33 0.8
34 0.91
-34 0.08999999999999997
35 0.61
-35 0.39
36 0.7
-36 0.30000000000000004
37 0.9
-37 0.09999999999999998
38 0.25
-38 0.75
39 0.13
-39 0.87
40 0.58
-40 0.42000000000000004
41 0.09
-41 0.91
42 0.96
-42 0.040000000000000036
43 0.5
-43 0.5
44 0.6
-44 0.4
45 0.32
-45 0.6799999999999999
46 0.82
-46 0.18000000000000005
47 0.62
-47 0.38
48 0.43
-48 0.5700000000000001
49 0.29
-49 0.71
50 0.17
-50 0.83
51 0.32
-51 0.6799999999999999
52 0.47
-52 0.53
53 0.55
-53 0.44999999999999996
54 0.94
-54 0.06000000000000005
55 0.08
-55 0.92
56 0.64
-56 0.36
57 0.06
-57 0.94
58 0.89
-58 0.10999999999999999
59 0.76
-59 0.24
60 0.31
-60 0.69
61 0.61
-61 0.39
62 0.76
-62 0.24
63 0.17
-63 0.83
64 0.59
-64 0.41000000000000003
65 0.45
-65 0.55
66 0.01
-66 0.99
67 0.12
-67 0.88
68 0.46
-68 0.54
69 0.31
-69 0.69
70 0.86
-70 0.14
