1 0.08
-1 0.92
2 0.59
-2 0.41000000000000003
3 0.4
-3 0.6
4 0.28
-4 0.72
5 0.66
-5 0.33999999999999997
6 0.47
-6 0.53
7 0.25
-7 0.75
8 0.19
-8 0.81
9 0.2
-9 0.8
10 0.75
-10 0.25
11 0.41
-11 0.5900000000000001
12 0.27
-12 0.73
13 0.47
-13 0.53
14 0.88
-14 0.12
15 0.05
-15 0.95
16 0.66
-16 0.33999999999999997
17 0.82
-17 0.18000000000000005
18 0.15
-18 0.85
19 0.01
-19 0.99
20 0.59
-20 0.41000000000000003
21 0.75
-21 0.25
22 0.61
-22 0.39
23 0.27
-23 0.73
24 0.97
-24 0.030000000000000027
25 0.24
-25 0.76
26 0.46
-26 0.54
27 0.61
-27 0.39
28 0.43
-28 0.5700000000000001
29 0.2
-29 0.8
30 0.12
-30 0.88
31 0.04
-31 0.96
32 0.58
-32 0.42000000000000004
33 0.96
-33 0.040000000000000036
34 0.5
-34 0.5
35 0.86
-35 0.14
36 0.24
-36 0.76
37 0.72
-37 0.28
38 0.19
-38 0.81
39 0.33
-39 0.6699999999999999
40 0.79
-40 0.20999999999999996
41 0.73
-41 0.27
42 0.89
-42 0.10999999999999999
43 0.95
-43 0.050000000000000044
44 0.57
-44 0.43000000000000005
45 0.8
-45 0.19999999999999996
46 0.64
-46 0.36
47 0.17
-47 0.83
48 0.7
-48 0.30000000000000004
49 0.46
-49 0.54
50 0.77
-50 0.22999999999999998
51 0.05
-51 0.95
52 0.61
-52 0.39
53 0.69
-53 0.31000000000000005
54 0.38
-54 0.62
55 0.31
-55 0.69
56 0.48
-56 0.52
57 0.86
-57 0.14
58 0.35
-58 0.65
59 0.14
-59 0.86
60 0.42
-60 0.5800000000000001
61 0.87
-61 0.13
62 0.37
-62 0.63
63 0.76
-63 0.24
64 0.96
-64 0.040000000000000036
65 0.87
-65 0.13
66 0.82
-66 0.18000000000000005
67 0.02
-67 0.98
68 0.62
-68 0.38
69 0.83
-69 0.17000000000000004
70 0.89
-70 0.10999999999999999
