1 0.38
-1 0.62
2 0.43
-2 0.5700000000000001
3 0.13
-3 0.87
4 0.33
-4 0.6699999999999999
5 0.91
-5 0.08999999999999997
6 0.37
-6 0.63
7 0.56
-7 0.43999999999999995
8 0.1
-8 0.9
9 0.83
-9 0.17000000000000004
10 0.09
-10 0.91
11 0.74
-11 0.26
12 0.86
-12 0.14
13 0.14
-13 0.86
14 0.74
-14 0.26
15 0.75
-15 0.25
16 0.53
-16 0.47
17 0.25
-17 0.75
18 0.09
-18 0.91
19 0.25
-19 0.75
20 0.14
-20 0.86
21 0.8
-21 0.19999999999999996
22 0.51
-22 0.49
23 0.92
-23 0.07999999999999996
24 0.53
-24 0.47
25 0.66
-25 0.33999999999999997
26 0.48
-26 0.52
27 0.54
-27 0.45999999999999996
28 0.45
-28 0.55
29 0.52
-29 0.48
30 0.92
-30 0.07999999999999996
31 0.7
-31 0.30000000000000004
32 0.62
-32 0.38
33 0.76
-33 0.24
34 0.16
-34 0.84
35 0.37
-35 0.63
36 0.17
-36 0.83
37 0.44
-37 0.56
38 0.31
-38 0.69
39 0.65
-39 0.35
40 0.13
-40 0.87
41 0.21
-41 0.79
42 0.93
-42 0.06999999999999995
43 0.77
-43 0.22999999999999998
44 0.37
-44 0.63
45 0.5
-45 0.5
46 0.99
-46 0.010000000000000009
47 0.22
-47 0.78
48 0.67
-48 0.32999999999999996
49 0.75
-49 0.25
50 0.47
-50 0.53
51 0.77
-51 0.22999999999999998
52 0.24
-52 0.76
53 0.73
-53 0.27
54 0.77
-54 0.22999999999999998
55 0.81
-55 0.18999999999999995
56 0.8
-56 0.19999999999999996
57 0.22
-57 0.78
58 0.47
-58 0.53
59 0.65
-59 0.35
60 0.7
-60 0.30000000000000004
61 0.05
-61 0.95
62 0.31
-62 0.69
63 0.81
-63 0.18999999999999995
64 0.76
-64 0.24
65 0.02
-65 0.98
66 0.06
-66 0.94
67 0.25
-67 0.75
68 0.69
-68 0.31000000000000005
69 0.61
-69 0.39
70 0.15
-70 0.85
