1 0.45
-1 0.55
2 0.11
-2 0.89
3 0.74
-3 0.26
4 0.06
-4 0.94
5 0.93
-5 0.06999999999999995
6 0.43
-6 0.5700000000000001
7 0.48
-7 0.52
8 0.86
-8 0.14
9 0.55
-9 0.44999999999999996
10 0.04
-10 0.96
11 0.87
-11 0.13
12 0.26
-12 0.74
13 0.06
-13 0.94
14 0.89
-14 0.10999999999999999
15 0.11
-15 0.89
16 0.09
-16 0.91
17 0.81
-17 0.18999999999999995
18 0.33
-18 0.6699999999999999
19 0.91
-19 0.08999999999999997
20 0.17
-20 0.83
21 0.02
-21 0.98
22 0.78
-22 0.21999999999999997
23 0.63
-23 0.37
24 0.59
-24 0.41000000000000003
25 0.45
-25 0.55
26 0.69
-26 0.31000000000000005
27 0.52
-27 0.48
28 0.45
-28 0.55
29 0.12
-29 0.88
30 0.35
-30 0.65
31 0.48
-31 0.52
32 0.27
-32 0.73
33 0.29
-33 0.71
34 0.04
-34 0.96
35 0.26
-35 0.74
36 0.4
-36 0.6
37 0.18
-37 0.8200000000000001
38 0.49
-38 0.51
39 0.65
-39 0.35
40 0.52
-40 0.48
41 0.6
-41 0.4
42 0.86
-42 0.14
43 0.46
-43 0.54
44 0.22
-44 0.78
45 0.08
-45 0.92
46 0.72
-46 0.28
47 0.12
-47 0.88
48 0.75
-48 0.25
49 0.61
-49 0.39
50 0.1
-50 0.9
51 0.51
-51 0.49
52 0.39
-52 0.61
53 0.74
-53 0.26
54 0.72
-54 0.28
55 0.77
-55 0.22999999999999998
56 0.56
-56 0.43999999999999995
57 0.04
-57 0.96
58 0.26
-58 0.74
59 0.22
-59 0.78
60 0.45
-60 0.55
61 0.29
-61 0.71
62 0.63
-62 0.37
63 0.75
-63 0.25
64 0.72
-64 0.28
65 0.69
-65 0.31000000000000005
66 0.48
-66 0.52
67 0.66
-67 0.33999999999999997
68 0.3
-68 0.7
69 0.48
-69 0.52
70 0.27
-70 0.73
