1 0.59
-1 0.41000000000000003
2 0.11
-2 0.89
3 0.39
-3 0.61
4 0.94
-4 0.06000000000000005
5 0.63
-5 0.37
6 0.33
-6 0.6699999999999999
7 0.58
-7 0.42000000000000004
8 0.49
-8 0.51
9 0.83
-9 0.17000000000000004
10 0.72
-10 0.28
11 0.55
-11 0.44999999999999996
12 0.72
-12 0.28
13 0.68
-13 0.31999999999999995
14 0.95
-14 0.050000000000000044
15 0.09
-15 0.91
16 0.51
-16 0.49
17 0.74
-17 0.26
18 0.19
-18 0.81
19 0.4
-19 0.6
20 0.43
-20 0.5700000000000001
21 0.27
-21 0.73
22 0.6
-22 0.4
23 0.7
-23 0.30000000000000004
24 0.97
-24 0.030000000000000027
25 0.2
-25 0.8
26 0.47
-26 0.53
27 0.87
-27 0.13
28 0.97
-28 0.030000000000000027
29 0.01
-29 0.99
30 0.12
-30 0.88
31 0.36
-31 0.64
32 0.57
-32 0.43000000000000005
33 0.93
-33 0.06999999999999995
34 0.3
-34 0.7
35 0.11
-35 0.89
36 0.32
-36 0.6799999999999999
37 0.37
-37 0.63
38 0.93
-38 0.06999999999999995
39 0.09
-39 0.91
40 0.81
-40 0.18999999999999995
41 0.53
-41 0.47
42 0.72
-42 0.28
43 0.93
-43 0.06999999999999995
44 0.17
-44 0.83
45 0.6
-45 0.4
46 0.86
-46 0.14
47 0.67
-47 0.32999999999999996
48 0.77
-48 0.22999999999999998
49 0.62
-49 0.38
50 0.79
-50 0.20999999999999996
51 0.14
-51 0.86
52 0.51
-52 0.49
53 0.91
-53 0.08999999999999997
54 0.83
-54 0.17000000000000004
55 0.61
-55 0.39
56 0.6
-56 0.4
57 0.62
-57 0.38
58 0.18
-58 0.8200000000000001
59 0.53
-59 0.47
60 0.34
-60 0.6599999999999999
61 0.08
-61 0.92
62 0.96
-62 0.040000000000000036
63 0.91
-63 0.08999999999999997
64 0.87
-64 0.13
65 0.71
-65 0.29000000000000004
66 0.75
-66 0.25
67 0.23
-67 0.77
68 0.8
-68 0.19999999999999996
69 0.84
-69 0.16000000000000003
70 0.59
-70 0.41000000000000003
