1 0.36
-1 0.64
2 0.11
-2 0.89
3 0.53
-3 0.47
4 0.16
-4 0.84
5 0.95
-5 0.050000000000000044
6 0.09
-6 0.91
7 0.15
-7 0.85
8 0.63
-8 0.37
9 0.55
-9 0.44999999999999996
10 0.89
-10 0.10999999999999999
11 0.77
-11 0.22999999999999998
12 0.1
-12 0.9
13 0.65
-13 0.35
14 0.18
-14 0.8200000000000001
15 0.51
-15 0.49
16 0.35
-16 0.65
17 0.34
-17 0.6599999999999999
18 0.5
-18 0.5
19 0.22
-19 0.78
20 0.37
-20 0.63
21 0.07
-21 0.9299999999999999
22 0.46
-22 0.54
23 0.38
-23 0.62
24 0.69
-24 0.31000000000000005
25 0.95
-25 0.050000000000000044
26 0.98
-26 0.020000000000000018
27 0.9
-27 0.09999999999999998
28 0.38
-28 0.62
29 0.7
-29 0.30000000000000004
30 0.15
-30 0.85
31 0.25
-31 0.75
32 0.19
-32 0.81
33 0.79
-33 0.20999999999999996
34 0.38
-34 0.62
35 0.7
-35 0.30000000000000004
36 0.86
-36 0.14
37 0.27
-37 0.73
38 0.65
-38 0.35
39 0.73
-39 0.27
40 0.14
-40 0.86
41 0.37
-41 0.63
42 0.71
-42 0.29000000000000004
43 0.38
-43 0.62
44 0.87
-44 0.13
45 0.64
-45 0.36
46 0.53
-46 0.47
47 0.17
-47 0.83
48 0.02
-48 0.98
49 0.8
-49 0.19999999999999996
50 0.23
-50 0.77
51 0.55
-51 0.44999999999999996
52 0.63
-52 0.37
53 0.1
-53 0.9
54 0.79
-54 0.20999999999999996
55 0.7
-55 0.30000000000000004
56 0.39
-56 0.61
57 0.39
-57 0.61
58 0.41
-58 0.5900000000000001
59 0.99
-59 0.010000000000000009
60 0.4
-60 0.6
61 0.41
-61 0.5900000000000001
62 0.33
-62 0.6699999999999999
63 0.15
-63 0.85
64 0.41
-64 0.5900000000000001
65 0.08
-65 0.92
66 0.21
-66 0.79
67 0.55
-67 0.44999999999999996
68 0.57
-68 0.43000000000000005
69 0.34
-69 0.6599999999999999
70 0.7
-70 0.30000000000000004
