1 0.89
-1 0.10999999999999999
2 0.65
-2 0.35
3 0.77
-3 0.22999999999999998
4 0.52
-4 0.48
5 0.37
-5 0.63
6 0.03
-6 0.97
7 0.25
-7 0.75
8 0.57
-8 0.43000000000000005
9 0.1
-9 0.9
10 0.78
-10 0.21999999999999997
11 0.65
-11 0.35
12 0.54
-12 0.45999999999999996
13 0.81
-13 0.18999999999999995
14 0.72
-14 0.28
15 0.57
-15 0.43000000000000005
16 0.05
-16 0.95
17 0.34
-17 0.6599999999999999
18 0.43
-18 0.5700000000000001
19 0.34
-19 0.6599999999999999
20 0.42
-20 0.5800000000000001
21 0.54
-21 0.45999999999999996
22 0.03
-22 0.97
23 0.09
-23 0.91
24 0.66
-24 0.33999999999999997
25 0.1
-25 0.9
26 0.93
-26 0.06999999999999995
27 0.38
-27 0.62
28 0.16
-28 0.84
29 0.91
-29 0.08999999999999997
30 0.44
-30 0.56
31 0.8
-31 0.19999999999999996
32 0.04
-32 0.96
33 0.58
-33 0.42000000000000004
34 0.8
-34 0.19999999999999996
35 0.17
-35 0.83
36 0.27
-36 0.73
37 0.22
-37 0.78
38 0.99
-38 0.010000000000000009
39 0.86
-39 0.14
40 0.76
-40 0.24
41 0.64
-41 0.36
42 0.16
-42 0.84
43 0.54
-43 0.45999999999999996
44 0.61
-44 0.39
45 0.39
-45 0.61
46 0.89
-46 0.10999999999999999
47 0.99
-47 0.010000000000000009
48 0.01
-48 0.99
49 0.39
-49 0.61
50 0.03
-50 0.97
51 0.67
-51 0.32999999999999996
52 0.89
-52 0.10999999999999999
53 0.67
-53 0.32999999999999996
54 0.84
-54 0.16000000000000003
55 0.53
-55 0.47
56 0.52
-56 0.48
57 0.69
-57 0.31000000000000005
58 0.44
-58 0.56
59 0.92
-59 0.07999999999999996
60 0.16
-60 0.84
61 0.11
-61 0.89
62 0.23
-62 0.77
63 0.45
-63 0.55
64 0.84
-64 0.16000000000000003
65 0.9
-65 0.09999999999999998
66 0.24
-66 0.76
67 0.86
-67 0.14
68 0.78
-68 0.21999999999999997
69 0.97
-69 0.030000000000000027
70 0.46
-70 0.54
