1 0.95
-1 0.050000000000000044
2 0.03
-2 0.97
3 0.15
-3 0.85
4 0.28
-4 0.72
5 0.27
-5 0.73
6 0.29
-6 0.71
7 0.25
-7 0.75
8 0.41
-8 0.5900000000000001
9 0.2
-9 0.8
10 0.39
-10 0.61
11 0.86
-11 0.14
12 0.77
-12 0.22999999999999998
13 0.54
-13 0.45999999999999996
14 0.5
-14 0.5
15 0.09
-15 0.91
16 0.5
-16 0.5
17 0.14
-17 0.86
18 0.2
-18 0.8
19 0.46
-19 0.54
20 0.67
-20 0.32999999999999996
21 0.3
-21 0.7
22 0.48
-22 0.52
23 0.14
-23 0.86
24 0.52
-24 0.48
25 0.53
-25 0.47
26 0.52
-26 0.48
27 0.67
-27 0.32999999999999996
28 0.39
-28 0.61
29 0.09
-29 0.91
30 0.32
-30 0.6799999999999999
31 0.38
-31 0.62
32 0.98
-32 0.020000000000000018
33 0.15
-33 0.85
34 0.63
-34 0.37
35 0.44
-35 0.56
36 0.43
-36 0.5700000000000001
37 0.54
-37 0.45999999999999996
38 0.02
-38 0.98
39 0.38
-39 0.62
40 0.61
-40 0.39
41 0.13
-41 0.87
42 0.41
-42 0.5900000000000001
43 0.45
-43 0.55
44 0.69
-44 0.31000000000000005
45 0.79
-45 0.20999999999999996
46 0.44
-46 0.56
47 0.89
-47 0.10999999999999999
48 0.3
-48 0.7
49 0.52
-49 0.48
50 0.48
-50 0.52
51 0.71
-51 0.29000000000000004
52 0.42
-52 0.5800000000000001
53 0.63
-53 0.37
54 0.29
-54 0.71
55 0.02
-55 0.98
56 0.74
-56 0.26
57 0.78
-57 0.21999999999999997
58 0.67
-58 0.32999999999999996
59 0.74
-59 0.26
60 0.88
-60 0.12
61 0.87
-61 0.13
62 0.25
-62 0.75
63 0.51
-63 0.49
64 0.69
-64 0.31000000000000005
65 0.57
-65 0.43000000000000005
66 0.4
-66 0.6
67 0.47
-67 0.53
68 0.9
-68 0.09999999999999998
69 0.11
-69 0.89
70 0.37
-70 0.63
