1 0.65
-1 0.35
2 0.58
-2 0.42000000000000004
3 0.49
-3 0.51
4 0.77
-4 0.22999999999999998
5 0.25
-5 0.75
6 0.15
-6 0.85
7 0.85
-7 0.15000000000000002
8 0.83
-8 0.17000000000000004
9 0.64
-9 0.36
10 0.97
-10 0.030000000000000027
11 0.65
-11 0.35
12 0.22
-12 0.78
13 0.3
-13 0.7
14 0.37
-14 0.63
15 0.07
-15 0.9299999999999999
16 0.98
-16 0.020000000000000018
17 0.22
-17 0.78
18 0.3
-18 0.7
19 0.7
-19 0.30000000000000004
20 0.91
-20 0.08999999999999997
21 0.5
-21 0.5
22 0.84
-22 0.16000000000000003
23 0.57
-23 0.43000000000000005
24 0.98
-24 0.020000000000000018
25 0.83
-25 0.17000000000000004
26 0.61
-26 0.39
27 0.62
-27 0.38
28 0.77
-28 0.22999999999999998
29 0.28
-29 0.72
30 0.55
-30 0.44999999999999996
31 0.31
-31 0.69
32 0.21
-32 0.79
33 0.55
-33 0.44999999999999996
34 0.54
-34 0.45999999999999996
35 0.2
-35 0.8
36 0.59
-36 0.41000000000000003
37 0.44
-37 0.56
38 0.94
-38 0.06000000000000005
39 0.94
-39 0.06000000000000005
40 0.24
-40 0.76
41 0.03
-41 0.97
42 0.02
-42 0.98
43 0.82
-43 0.18000000000000005
44 0.64
-44 0.36
45 0.07
-45 0.9299999999999999
46 0.86
-46 0.14
47 0.62
-47 0.38
48 0.07
-48 0.9299999999999999
49 0.52
-49 0.48
50 0.71
-50 0.29000000000000004
51 0.7
-51 0.30000000000000004
52 0.97
-52 0.030000000000000027
53 0.51
-53 0.49
54 0.99
-54 0.010000000000000009
55 0.52
-55 0.48
56 0.28
-56 0.72
57 0.85
-57 0.15000000000000002
58 0.28
-58 0.72
59 0.02
-59 0.98
60 0.9
-60 0.09999999999999998
61 0.39
-61 0.61
62 0.09
-62 0.91
63 0.79
-63 0.20999999999999996
64 0.56
-64 0.43999999999999995
65 0.38
-65 0.62
66 0.15
-66 0.85
67 0.99
-67 0.010000000000000009
68 0.66
-68 0.33999999999999997
69 0.86
-69 0.14
70 0.96
-70 0.040000000000000036
