1 0.68
-1 0.31999999999999995
2 0.09
-2 0.91
3 0.33
-3 0.6699999999999999
4 0.71
-4 0.29000000000000004
5 0.2
-5 0.8
6 0.07
-6 0.9299999999999999
7 0.35
-7 0.65
8 0.99
-8 0.010000000000000009
9 0.07
-9 0.9299999999999999
10 0.41
-10 0.5900000000000001
11 0.98
-11 0.020000000000000018
12 0.64
-12 0.36
13 0.88
-13 0.12
14 0.66
-14 0.33999999999999997
15 0.66
-15 0.33999999999999997
16 0.79
-16 0.20999999999999996
17 0.96
-17 0.040000000000000036
18 0.61
-18 0.39
19 0.77
-19 0.22999999999999998
20 0.71
-20 0.29000000000000004
21 0.17
-21 0.83
22 0.74
-22 0.26
23 0.46
-23 0.54
24 0.81
-24 0.18999999999999995
25 0.56
-25 0.43999999999999995
26 0.49
-26 0.51
27 0.68
-27 0.31999999999999995
28 0.4
-28 0.6
29 0.6
-29 0.4
30 0.74
-30 0.26
31 0.19
-31 0.81
32 0.57
-32 0.43000000000000005
33 0.76
-33 0.24
34 0.66
-34 0.33999999999999997
35 0.51
-35 0.49
36 0.17
-36 0.83
37 0.02
-37 0.98
38 0.17
-38 0.83
39 0.38
-39 0.62
40 0.04
-40 0.96
41 0.75
-41 0.25
42 0.81
-42 0.18999999999999995
43 0.26
-43 0.74
44 0.88
-44 0.12
45 0.81
-45 0.18999999999999995
46 0.16
-46 0.84
47 0.74
-47 0.26
48 0.02
-48 0.98
49 0.33
-49 0.6699999999999999
50 0.9
-50 0.09999999999999998
51 0.88
-51 0.12
52 0.33
-52 0.6699999999999999
53 0.82
-53 0.18000000000000005
54 0.79
-54 0.20999999999999996
55 0.87
-55 0.13
56 0.95
-56 0.050000000000000044
57 0.39
-57 0.61
58 0.28
-58 0.72
59 0.06
-59 0.94
60 0.62
-60 0.38
61 0.37
-61 0.63
62 0.34
-62 0.6599999999999999
63 0.62
-63 0.38
64 0.83
-64 0.17000000000000004
65 0.24
-65 0.76
66 0.21
-66 0.79
67 0.96
-67 0.040000000000000036
68 0.11
-68 0.89
69 0.59
-69 0.41000000000000003
70 0.56
-70 0.43999999999999995
