1 0.5
-1 0.5
2 0.57
-2 0.43000000000000005
3 0.83
-3 0.17000000000000004
4 0.04
-4 0.96
5 0.56
-5 0.43999999999999995
6 0.67
-6 0.32999999999999996
7 0.35
-7 0.65
8 0.99
-8 0.010000000000000009
9 0.55
-9 0.44999999999999996
10 0.65
-10 0.35
11 0.18
-11 0.8200000000000001
12 0.9
-12 0.09999999999999998
13 0.22
-13 0.78
14 0.15
-14 0.85
15 0.78
-15 0.21999999999999997
16 0.09
-16 0.91
17 0.37
-17 0.63
18 0.93
-18 0.06999999999999995
19 0.54
-19 0.45999999999999996
20 0.4
-20 0.6
21 0.77
-21 0.22999999999999998
22 0.29
-22 0.71
23 0.11
-23 0.89
24 0.38
-24 0.62
25 0.68
-25 0.31999999999999995
26 0.1
-26 0.9
27 0.3
-27 0.7
28 0.66
-28 0.33999999999999997
29 0.51
-29 0.49
30 0.05
-30 0.95
31 0.48
-31 0.52
32 0.42
-32 0.5800000000000001
33 0.4
-33 0.6
34 0.32
-34 0.6799999999999999
35 0.82
-35 0.18000000000000005
36 0.4
-36 0.6
37 0.42
-37 0.5800000000000001
38 0.43
-38 0.5700000000000001
39 0.71
-39 0.29000000000000004
40 0.36
-40 0.64
41 0.36
-41 0.64
42 0.33
-42 0.6699999999999999
43 0.5
-43 0.5
44 0.78
-44 0.21999999999999997
45 0.4
-45 0.6
46 0.47
-46 0.53
47 0.55
-47 0.44999999999999996
48 0.81
-48 0.18999999999999995
49 0.23
-49 0.77
50 0.21
-50 0.79
51 0.75
-51 0.25
52 0.51
-52 0.49
53 0.06
-53 0.94
54 0.61
-54 0.39
55 0.54
-55 0.45999999999999996
56 0.21
-56 0.79
57 0.83
-57 0.17000000000000004
58 0.6
-58 0.4
59 0.68
-59 0.31999999999999995
60 0.97
-60 0.030000000000000027
61 0.69
-61 0.31000000000000005
62 0.57
-62 0.43000000000000005
63 0.96
-63 0.040000000000000036
64 0.72
-64 0.28
65 0.06
-65 0.94
66 0.71
-66 0.29000000000000004
67 0.27
-67 0.73
68 0.62
-68 0.38
69 0.59
-69 0.41000000000000003
70 0.78
-70 0.21999999999999997
