1 0.94
-1 0.06000000000000005
2 0.27
-2 0.73
3 0.41
-3 0.5900000000000001
4 0.25
-4 0.75
5 0.04
-5 0.96
6 0.53
-6 0.47
7 0.53
-7 0.47
8 0.89
-8 0.10999999999999999
9 0.34
-9 0.6599999999999999
10 0.65
-10 0.35
11 0.52
-11 0.48
12 0.27
-12 0.73
13 0.83
-13 0.17000000000000004
14 0.29
-14 0.71
15 0.58
-15 0.42000000000000004
16 0.09
-16 0.91
17 0.18
-17 0.8200000000000001
18 0.09
-18 0.91
19 0.19
-19 0.81
20 0.49
-20 0.51
21 0.2
-21 0.8
22 0.16
-22 0.84
23 0.66
-23 0.33999999999999997
24 0.77
-24 0.22999999999999998
25 0.04
-25 0.96
26 0.56
-26 0.43999999999999995
27 0.44
-27 0.56
28 0.45
-28 0.55
29 0.48
-29 0.52
30 0.49
-30 0.51
31 0.1
-31 0.9
32 0.59
-32 0.41000000000000003
33 0.93
-33 0.06999999999999995
34 0.36
-34 0.64
35 0.75
-35 0.25
36 0.7
-36 0.30000000000000004
37 0.96
-37 0.040000000000000036
38 0.09
-38 0.91
39 0.08
-39 0.92
40 0.02
-40 0.98
41 0.32
-41 0.6799999999999999
42 0.11
-42 0.89
43 0.66
-43 0.33999999999999997
44 0.07
-44 0.9299999999999999
45 0.06
-45 0.94
46 0.7
-46 0.30000000000000004
47 0.36
-47 0.64
48 0.2
-48 0.8
49 0.8
-49 0.19999999999999996
50 0.96
-50 0.040000000000000036
51 0.03
-51 0.97
52 0.26
-52 0.74
53 0.79
-53 0.20999999999999996
54 0.93
-54 0.06999999999999995
55 0.22
-55 0.78
56 0.98
-56 0.020000000000000018
57 0.21
-57 0.79
58 0.53
-58 0.47
59 0.34
-59 0.6599999999999999
60 0.12
-60 0.88
61 0.57
-61 0.43000000000000005
62 0.77
-62 0.22999999999999998
63 0.02
-63 0.98
64 0.89
-64 0.10999999999999999
65 0.18
-65 0.8200000000000001
66 0.02
-66 0.98
67 0.92
-67 0.07999999999999996
68 0.34
-68 0.6599999999999999
69 0.4
-69 0.6
70 0.1
-70 0.9
