1 0.31
-1 0.69
2 0.36
-2 0.64
3 0.01
-3 0.99
4 0.59
-4 0.41000000000000003
5 0.3
-5 0.7
6 0.22
-6 0.78
7 0.13
-7 0.87
8 0.39
-8 0.61
9 0.25
-9 0.75
10 0.33
-10 0.6699999999999999
11 0.17
-11 0.83
12 0.65
-12 0.35
13 0.28
-13 0.72
14 0.24
-14 0.76
15 0.74
-15 0.26
16 0.68
-16 0.31999999999999995
17 0.74
-17 0.26
18 0.25
-18 0.75
19 0.66
-19 0.33999999999999997
20 0.95
-20 0.050000000000000044
21 0.82
-21 0.18000000000000005
22 0.75
-22 0.25
23 0.29
-23 0.71
24 0.59
-24 0.41000000000000003
25 0.6
-25 0.4
26 0.07
-26 0.9299999999999999
27 0.55
-27 0.44999999999999996
28 0.63
-28 0.37
29 0.15
-29 0.85
30 0.03
-30 0.97
31 0.4
-31 0.6
32 0.24
-32 0.76
33 0.76
-33 0.24
34 0.21
-34 0.79
35 0.34
-35 0.6599999999999999
36 0.89
-36 0.10999999999999999
37 0.63
-37 0.37
38 0.88
-38 0.12
39 0.85
-39 0.15000000000000002
40 0.86
-40 0.14
41 0.37
-41 0.63
42 0.93
-42 0.06999999999999995
43 0.18
-43 0.8200000000000001
44 0.56
-44 0.43999999999999995
45 0.26
-45 0.74
46 0.96
-46 0.040000000000000036
47 0.43
-47 0.5700000000000001
48 0.85
-48 0.15000000000000002
49 0.1
-49 0.9
50 0.07
-50 0.9299999999999999
51 0.28
-51 0.72
52 0.27
-52 0.73
53 0.89
-53 0.10999999999999999
54 0.89
-54 0.10999999999999999
55 0.47
-55 0.53
56 0.69
-56 0.31000000000000005
57 0.57
-57 0.43000000000000005
58 0.39
-58 0.61
59 0.16
-59 0.84
60 0.99
-60 0.010000000000000009
61 0.84
-61 0.16000000000000003
62 0.04
-62 0.96
63 0.27
-63 0.73
64 0.71
-64 0.29000000000000004
65 0.46
-65 0.54
66 0.28
-66 0.72
67 0.98
-67 0.020000000000000018
68 0.07
-68 0.9299999999999999
69 0.11
-69 0.89
70 0.59
-70 0.41000000000000003
