1 0.12
-1 0.88
2 0.93
-2 0.06999999999999995
3 0.67
-3 0.32999999999999996
4 0.87
-4 0.13
5 0.7
-5 0.30000000000000004
6 0.28
-6 0.72
7 0.01
-7 0.99
8 0.3
-8 0.7
9 0.27
-9 0.73
10 0.28
-10 0.72
11 0.62
-11 0.38
12 0.46
-12 0.54
13 0.74
-13 0.26
14 0.9
-14 0.09999999999999998
15 0.82
-15 0.18000000000000005
16 0.12
-16 0.88
17 0.66
-17 0.33999999999999997
18 0.1
-18 0.9
19 0.39
-19 0.61
20 0.64
-20 0.36
21 0.88
-21 0.12
22 0.59
-22 0.41000000000000003
23 0.08
-23 0.92
24 0.55
-24 0.44999999999999996
25 0.77
-25 0.22999999999999998
26 0.92
-26 0.07999999999999996
27 0.21
-27 0.79
28 0.78
-28 0.21999999999999997
29 0.41
-29 0.5900000000000001
30 0.29
-30 0.71
31 0.08
-31 0.92
32 0.34
-32 0.6599999999999999
33 0.84
-33 0.16000000000000003
34 0.23
-34 0.77
35 0.46
-35 0.54
36 0.75
-36 0.25
37 0.76
-37 0.24
38 0.05
-38 0.95
39 0.41
-39 0.5900000000000001
40 0.09
-40 0.91
41 0.9
-41 0.09999999999999998
42 0.37
-42 0.63
43 0.77
-43 0.22999999999999998
44 0.95
-44 0.050000000000000044
45 0.57
-45 0.43000000000000005
46 0.05
-46 0.95
47 0.05
-47 0.95
48 0.07
-48 0.9299999999999999
49 0.31
-49 0.69
50 0.57
-50 0.43000000000000005
51 0.25
-51 0.75
52 0.12
-52 0.88
53 0.07
-53 0.9299999999999999
54 0.44
-54 0.56
55 0.45
-55 0.55
56 0.15
-56 0.85
57 0.39
-57 0.61
58 0.91
-58 0.08999999999999997
59 0.51
-59 0.49
60 0.83
-60 0.17000000000000004
61 0.06
-61 0.94
62 0.95
-62 0.050000000000000044
63 0.81
-63 0.18999999999999995
64 0.34
-64 0.6599999999999999
65 0.59
-65 0.41000000000000003
66 0.66
-66 0.33999999999999997
67 0.59
-67 0.41000000000000003
68 0.46
-68 0.54
69 0.57
-69 0.43000000000000005
70 0.96
-70 0.040000000000000036
