1 0.23
-1 0.77
2 0.3
-2 0.7
3 0.33
-3 0.6699999999999999
4 0.48
-4 0.52
5 0.32
-5 0.6799999999999999
6 0.51
-6 0.49
7 0.64
-7 0.36
8 0.45
-8 0.55
9 0.26
-9 0.74
10 0.52
-10 0.48
11 0.54
-11 0.45999999999999996
12 0.67
-12 0.32999999999999996
13 0.1
-13 0.9
14 0.97
-14 0.030000000000000027
15 0.43
-15 0.5700000000000001
16 0.41
-16 0.5900000000000001
17 0.23
-17 0.77
18 0.01
-18 0.99
19 0.33
-19 0.6699999999999999
20 0.3
-20 0.7
21 0.65
-21 0.35
22 0.02
-22 0.98
23 0.55
-23 0.44999999999999996
24 0.41
-24 0.5900000000000001
25 0.82
-25 0.18000000000000005
26 0.94
-26 0.06000000000000005
27 0.14
-27 0.86
28 0.45
-28 0.55
29 0.55
-29 0.44999999999999996
30 0.21
-30 0.79
31 0.74
-31 0.26
32 0.78
-32 0.21999999999999997
33 0.05
-33 0.95
34 0.32
-34 0.6799999999999999
35 0.57
-35 0.43000000000000005
36 0.18
-36 0.8200000000000001
37 0.66
-37 0.33999999999999997
38 0.44
-38 0.56
39 0.6
-39 0.4
40 0.26
-40 0.74
41 0.82
-41 0.18000000000000005
42 0.73
-42 0.27
43 0.12
-43 0.88
44 0.95
-44 0.050000000000000044
45 0.2
-45 0.8
46 0.2
-46 0.8
47 0.5
-47 0.5
48 0.74
-48 0.26
49 0.3
-49 0.7
50 0.76
-50 0.24
51 0.76
-51 0.24
52 0.47
-52 0.53
53 0.99
-53 0.010000000000000009
54 0.3
-54 0.7
55 0.91
-55 0.08999999999999997
56 0.71
-56 0.29000000000000004
57 0.18
-57 0.8200000000000001
58 0.73
-58 0.27
59 0.87
-59 0.13
60 0.02
-60 0.98
61 0.55
-61 0.44999999999999996
62 0.67
-62 0.32999999999999996
63 0.89
-63 0.10999999999999999
64 0.66
-64 0.33999999999999997
65 0.65
-65 0.35
66 0.73
-66 0.27
67 0.15
-67 0.85
68 0.42
-68 0.5800000000000001
69 0.27
-69 0.73
70 0.98
-70 0.020000000000000018
