1 0.04
-1 0.96
2 0.3
-2 0.7
3 0.32
-3 0.6799999999999999
4 0.71
-4 0.29000000000000004
5 0.78
-5 0.21999999999999997
6 0.13
-6 0.87
7 0.25
-7 0.75
8 0.78
-8 0.21999999999999997
9 0.17
-9 0.83
10 0.68
-10 0.31999999999999995
11 0.36
-11 0.64
12 0.59
-12 0.41000000000000003
13 0.59
-13 0.41000000000000003
14 0.53
-14 0.47
15 0.36
-15 0.64
16 0.87
-16 0.13
17 0.06
-17 0.94
18 0.42
-18 0.5800000000000001
19 0.62
-19 0.38
20 0.56
-20 0.43999999999999995
21 0.97
-21 0.030000000000000027
22 0.16
-22 0.84
23 0.82
-23 0.18000000000000005
24 0.37
-24 0.63
25 0.98
-25 0.020000000000000018
26 0.08
-26 0.92
27 0.79
-27 0.20999999999999996
28 0.86
-28 0.14
29 0.21
-29 0.79
30 0.49
-30 0.51
31 0.19
-31 0.81
32 0.15
-32 0.85
33 0.38
-33 0.62
34 0.07
-34 0.9299999999999999
35 0.65
-35 0.35
36 0.4
-36 0.6
37 0.88
-37 0.12
38 0.23
-38 0.77
39 0.92
-39 0.07999999999999996
40 0.49
-40 0.51
41 0.07
-41 0.9299999999999999
42 0.03
-42 0.97
43 0.66
-43 0.33999999999999997
44 0.6
-44 0.4
45 0.34
-45 0.6599999999999999
46 0.83
-46 0.17000000000000004
47 0.6
-47 0.4
48 0.84
-48 0.16000000000000003
49 0.35
-49 0.65
50 0.31
-50 0.69
51 0.18
-51 0.8200000000000001
52 0.53
-52 0.47
53 0.5
-53 0.5
54 0.2
-54 0.8
55 0.42
-55 0.5800000000000001
56 0.82
-56 0.18000000000000005
57 0.38
-57 0.62
58 0.59
-58 0.41000000000000003
59 0.19
-59 0.81
60 0.67
-60 0.32999999999999996
61 0.09
-61 0.91
62 0.44
-62 0.56
63 0.86
-63 0.14
64 0.84
-64 0.16000000000000003
65 0.69
-65 0.31000000000000005
66 0.67
-66 0.32999999999999996
67 0.55
-67 0.44999999999999996
68 0.22
-68 0.78
69 0.75
-69 0.25
70 0.65
-70 0.35
