1 0.23
-1 0.77
2 0.83
-2 0.17000000000000004
3 0.41
-3 0.5900000000000001
4 0.51
-4 0.49
5 0.91
-5 0.08999999999999997
6 0.22
-6 0.78
7 0.94
-7 0.06000000000000005
8 0.57
-8 0.43000000000000005
9 0.02
-9 0.98
10 0.22
-10 0.78
11 0.53
-11 0.47
12 0.25
-12 0.75
13 0.41
-13 0.5900000000000001
14 0.96
-14 0.040000000000000036
15 0.75
-15 0.25
16 0.57
-16 0.43000000000000005
17 0.35
-17 0.65
18 0.77
-18 0.22999999999999998
19 0.25
-19 0.75
20 0.61
-20 0.39
21 0.62
-21 0.38
22 0.44
-22 0.56
23 0.55
-23 0.44999999999999996
24 0.84
-24 0.16000000000000003
25 0.5
-25 0.5
26 0.37
-26 0.63
27 0.77
-27 0.22999999999999998
28 0.24
-28 0.76
29 0.27
-29 0.73
30 0.2
-30 0.8
31 0.6
-31 0.4
32 0.92
-32 0.07999999999999996
33 0.41
-33 0.5900000000000001
34 0.93
-34 0.06999999999999995
35 0.59
-35 0.41000000000000003
36 0.89
-36 0.10999999999999999
37 0.34
-37 0.6599999999999999
38 0.18
-38 0.8200000000000001
39 0.79
-39 0.20999999999999996
40 0.84
-40 0.16000000000000003
41 0.45
-41 0.55
42 0.17
-42 0.83
43 0.59
-43 0.41000000000000003
44 0.44
-44 0.56
45 0.69
-45 0.31000000000000005
46 0.21
-46 0.79
47 0.3
-47 0.7
48 0.82
-48 0.18000000000000005
49 0.08
-49 0.92
50 0.47
-50 0.53
51 0.96
-51 0.040000000000000036
52 0.69
-52 0.31000000000000005
53 0.32
-53 0.6799999999999999
54 0.75
-54 0.25
55 0.22
-55 0.78
56 0.21
-56 0.79
57 0.85
-57 0.15000000000000002
58 0.44
-58 0.56
59 0.66
-59 0.33999999999999997
60 0.57
-60 0.43000000000000005
61 0.16
-61 0.84
62 0.9
-62 0.09999999999999998
63 0.48
-63 0.52
64 0.29
-64 0.71
65 0.18
-65 0.8200000000000001
66 0.16
-66 0.84
67 0.62
-67 0.38
68 0.26
-68 0.74
69 0.21
-69 0.79
70 0.89
-70 0.10999999999999999
