1 0.12
-1 0.88
2 0.78
-2 0.21999999999999997
3 0.12
-3 0.88
4 0.21
-4 0.79
5 0.03
-5 0.97
6 0.23
-6 0.77
7 0.79
-7 0.20999999999999996
8 0.52
-8 0.48
9 0.05
-9 0.95
10 0.87
-10 0.13
11 0.82
-11 0.18000000000000005
12 0.47
-12 0.53
13 0.13
-13 0.87
14 0.5
-14 0.5
15 0.64
-15 0.36
16 0.6
-16 0.4
17 0.59
-17 0.41000000000000003
18 0.37
-18 0.63
19 0.76
-19 0.24
20 0.76
-20 0.24
21 0.94
-21 0.06000000000000005
22 0.09
-22 0.91
23 0.49
-23 0.51
24 0.41
-24 0.5900000000000001
25 0.04
-25 0.96
26 0.47
-26 0.53
27 0.76
-27 0.24
28 0.1
-28 0.9
29 0.35
-29 0.65
30 0.69
-30 0.31000000000000005
31 0.79
-31 0.20999999999999996
32 0.05
-32 0.95
33 0.82
-33 0.18000000000000005
34 0.83
-34 0.17000000000000004
35 0.91
-35 0.08999999999999997
36 0.36
-36 0.64
37 0.66
-37 0.33999999999999997
38 0.83
-38 0.17000000000000004
39 0.49
-39 0.51
40 0.72
-40 0.28
41 0.94
-41 0.06000000000000005
42 0.74
-42 0.26
43 0.38
-43 0.62
44 0.95
-44 0.050000000000000044
45 0.07
-45 0.9299999999999999
46 0.23
-46 0.77
47 0.75
-47 0.25
48 0.09
-48 0.91
49 0.41
-49 0.5900000000000001
50 0.45
-50 0.55
51 0.11
-51 0.89
52 0.85
-52 0.15000000000000002
53 0.7
-53 0.30000000000000004
54 0.13
-54 0.87
55 0.88
-55 0.12
56 0.63
-56 0.37
57 0.24
-57 0.76
58 0.99
-58 0.010000000000000009
59 0.69
-59 0.31000000000000005
60 0.77
-60 0.22999999999999998
61 0.45
-61 0.55
62 0.86
-62 0.14
63 0.9
-63 0.09999999999999998
64 0.59
-64 0.41000000000000003
65 0.62
-65 0.38
66 0.05
-66 0.95
67 0.19
-67 0.81
68 0.01
-68 0.99
69 0.48
-69 0.52
70 0.67
-70 0.32999999999999996
