1 0.91
-1 0.08999999999999997
2 0.47
-2 0.53
3 0.92
-3 0.07999999999999996
4 0.86
-4 0.14
5 0.01
-5 0.99
6 0.76
-6 0.24
7 0.96
-7 0.040000000000000036
8 0.02
-8 0.98
9 0.27
-9 0.73
10 0.7
-10 0.30000000000000004
11 0.79
-11 0.20999999999999996
12 0.87
-12 0.13
13 0.69
-13 0.31000000000000005
14 0.53
-14 0.47
15 0.28
-15 0.72
16 0.22
-16 0.78
17 0.9
-17 0.09999999999999998
18 0.21
-18 0.79
19 0.06
-19 0.94
20 0.47
-20 0.53
21 0.13
-21 0.87
22 0.61
-22 0.39
23 0.29
-23 0.71
24 0.22
-24 0.78
25 0.89
-25 0.10999999999999999
26 0.52
-26 0.48
27 0.67
-27 0.32999999999999996
28 0.75
-28 0.25
29 0.32
-29 0.6799999999999999
30 0.8
-30 0.19999999999999996
31 0.97
-31 0.030000000000000027
32 0.05
-32 0.95
33 0.82
-33 0.18000000000000005
34 0.66
-34 0.33999999999999997
35 0.14
-35 0.86
36 0.38
-36 0.62
37 0.51
-37 0.49
38 0.44
-38 0.56
39 0.3
-39 0.7
40 0.16
-40 0.84
41 0.07
-41 0.9299999999999999
42 0.25
-42 0.75
43 0.44
-43 0.56
44 0.33
-44 0.6699999999999999
45 0.11
-45 0.89
46 0.6
-46 0.4
47 0.5
-47 0.5
48 0.56
-48 0.43999999999999995
49 0.62
-49 0.38
50 0.9
-50 0.09999999999999998
51 0.56
-51 0.43999999999999995
52 0.36
-52 0.64
53 0.88
-53 0.12
54 0.62
-54 0.38
55 0.72
-55 0.28
56 0.23
-56 0.77
57 0.69
-57 0.31000000000000005
58 0.37
-58 0.63
59 0.17
-59 0.83
60 0.91
-60 0.08999999999999997
61 0.87
-61 0.13
62 0.62
-62 0.38
63 0.08
-63 0.92
64 0.78
-64 0.21999999999999997
65 0.22
-65 0.78
66 0.06
-66 0.94
67 0.38
-67 0.62
68 0.01
-68 0.99
69 0.29
-69 0.71
70 0.99
-70 0.010000000000000009
