1 0.18
-1 0.8200000000000001
2 0.92
-2 0.07999999999999996
3 0.86
-3 0.14
4 0.81
-4 0.18999999999999995
5 0.92
-5 0.07999999999999996
6 0.86
-6 0.14
7 0.06
-7 0.94
8 0.37
-8 0.63
9 0.75
-9 0.25
10 0.95
-10 0.050000000000000044
11 0.58
-11 0.42000000000000004
12 0.58
-12 0.42000000000000004
13 0.6
-13 0.4
14 0.68
-14 0.31999999999999995
15 0.3
-15 0.7
16 0.29
-16 0.71
17 0.19
-17 0.81
18 0.78
-18 0.21999999999999997
19 0.3
-19 0.7
20 0.8
-20 0.19999999999999996
21 0.56
-21 0.43999999999999995
22 0.82
-22 0.18000000000000005
23 0.12
-23 0.88
24 0.62
-24 0.38
25 0.66
-25 0.33999999999999997
26 0.63
-26 0.37
27 0.1
-27 0.9
28 0.75
-28 0.25
29 0.63
-29 0.37
30 0.51
-30 0.49
31 0.35
-31 0.65
32 0.93
-32 0.06999999999999995
33 0.11
-33 0.89
34 0.91
-34 0.08999999999999997
35 0.64
-35 0.36
36 0.2
-36 0.8
37 0.74
-37 0.26
38 0.33
-38 0.6699999999999999
39 0.04
-39 0.96
40 0.4
-40 0.6
41 0.58
-41 0.42000000000000004
42 0.22
-42 0.78
43 0.12
-43 0.88
44 0.53
-44 0.47
45 0.52
-45 0.48
46 0.32
-46 0.6799999999999999
47 0.01
-47 0.99
48 0.47
-48 0.53
49 0.96
-49 0.040000000000000036
50 0.73
-50 0.27
51 0.71
-51 0.29000000000000004
52 0.97
-52 0.030000000000000027
53 0.41
-53 0.5900000000000001
54 0.4
-54 0.6
55 0.54
-55 0.45999999999999996
56 0.75
-56 0.25
57 0.62
-57 0.38
58 0.86
-58 0.14
59 0.38
-59 0.62
60 0.34
-60 0.6599999999999999
61 0.61
-61 0.39
62 0.34
-62 0.6599999999999999
63 0.94
-63 0.06000000000000005
64 0.8
-64 0.19999999999999996
65 0.59
-65 0.41000000000000003
66 0.75
-66 0.25
67 0.93
-67 0.06999999999999995
68 0.45
-68 0.55
69 0.06
-69 0.94
70 0.05
-70 0.95
