1 0.19
-1 0.81
2 0.99
-2 0.010000000000000009
3 0.76
-3 0.24
4 0.42
-4 0.5800000000000001
5 0.21
-5 0.79
6 0.73
-6 0.27
7 0.26
-7 0.74
8 0.5
-8 0.5
9 0.46
-9 0.54
10 0.26
-10 0.74
11 0.8
-11 0.19999999999999996
12 0.19
-12 0.81
13 0.39
-13 0.61
14 0.77
-14 0.22999999999999998
15 0.17
-15 0.83
16 0.32
-16 0.6799999999999999
17 0.03
-17 0.97
18 0.82
-18 0.18000000000000005
19 0.06
-19 0.94
20 0.95
-20 0.050000000000000044
21 0.41
-21 0.5900000000000001
22 0.36
-22 0.64
23 0.64
-23 0.36
24 0.66
-24 0.33999999999999997
25 0.36
-25 0.64
26 0.96
-26 0.040000000000000036
27 0.88
-27 0.12
28 0.79
-28 0.20999999999999996
29 0.25
-29 0.75
30 0.04
-30 0.96
31 0.61
-31 0.39
32 0.18
-32 0.8200000000000001
33 0.9
-33 0.09999999999999998
34 0.95
-34 0.050000000000000044
35 0.49
-35 0.51
36 0.32
-36 0.6799999999999999
37 0.4
-37 0.6
38 0.4
-38 0.6
39 0.55
-39 0.44999999999999996
40 0.87
-40 0.13
41 0.68
-41 0.31999999999999995
42 0.55
-42 0.44999999999999996
43 0.01
-43 0.99
44 0.37
-44 0.63
45 0.97
-45 0.030000000000000027
46 0.19
-46 0.81
47 0.14
-47 0.86
48 0.26
-48 0.74
49 0.87
-49 0.13
50 0.09
-50 0.91
51 0.37
-51 0.63
52 0.55
-52 0.44999999999999996
53 0.19
-53 0.81
54 0.99
-54 0.010000000000000009
55 0.81
-55 0.18999999999999995
56 0.45
-56 0.55
57 0.76
-57 0.24
58 0.34
-58 0.6599999999999999
59 0.74
-59 0.26
60 0.15
-60 0.85
61 0.72
-61 0.28
62 0.44
-62 0.56
63 0.77
-63 0.22999999999999998
64 0.91
-64 0.08999999999999997
65 0.72
-65 0.28
66 0.03
-66 0.97
67 0.42
-67 0.5800000000000001
68 0.23
-68 0.77
69 0.2
-69 0.8
70 0.36
-70 0.64
