1 0.05
-1 0.95
2 0.73
-2 0.27
3 0.38
-3 0.62
4 0.56
-4 0.43999999999999995
5 0.07
-5 0.9299999999999999
6 0.35
-6 0.65
7 0.43
-7 0.5700000000000001
8 0.52
-8 0.48
9 0.74
-9 0.26
10 0.7
-10 0.30000000000000004
11 0.04
-11 0.96
12 0.52
-12 0.48
13 0.92
-13 0.07999999999999996
14 0.81
-14 0.18999999999999995
15 0.41
-15 0.5900000000000001
16 0.79
-16 0.20999999999999996
17 0.87
-17 0.13
18 0.75
-18 0.25
19 0.78
-19 0.21999999999999997
20 0.96
-20 0.040000000000000036
21 0.56
-21 0.43999999999999995
22 0.39
-22 0.61
23 0.35
-23 0.65
24 0.8
-24 0.19999999999999996
25 0.08
-25 0.92
26 0.36
-26 0.64
27 0.47
-27 0.53
28 0.19
-28 0.81
29 0.67
-29 0.32999999999999996
30 0.22
-30 0.78
31 0.79
-31 0.20999999999999996
32 0.81
-32 0.18999999999999995
33 0.62
-33 0.38
34 0.28
-34 0.72
35 0.94
-35 0.06000000000000005
36 0.66
-36 0.33999999999999997
37 0.21
-37 0.79
38 0.06
-38 0.94
39 0.37
-39 0.63
40 0.55
-40 0.44999999999999996
41 0.62
-41 0.38
42 0.34
-42 0.6599999999999999
43 0.78
-43 0.21999999999999997
44 0.22
-44 0.78
45 0.45
-45 0.55
46 0.31
-46 0.69
47 0.55
-47 0.44999999999999996
48 0.88
-48 0.12
49 0.9
-49 0.09999999999999998
50 0.73
-50 0.27
51 0.05
-51 0.95
52 0.88
-52 0.12
53 0.12
-53 0.88
54 0.82
-54 0.18000000000000005
55 0.69
-55 0.31000000000000005
56 0.13
-56 0.87
57 0.67
-57 0.32999999999999996
58 0.94
-58 0.06000000000000005
59 0.37
-59 0.63
60 0.02
-60 0.98
61 0.61
-61 0.39
62 0.53
-62 0.47
63 0.02
-63 0.98
64 0.35
-64 0.65
65 0.66
-65 0.33999999999999997
66 0.97
-66 0.030000000000000027
67 0.07
-67 0.9299999999999999
68 0.66
-68 0.33999999999999997
69 0.89
-69 0.10999999999999999
70 0.91
-70 0.08999999999999997
