1 0.18
-1 0.8200000000000001
2 0.82
-2 0.18000000000000005
3 0.22
-3 0.78
4 0.26
-4 0.74
5 0.03
-5 0.97
6 0.75
-6 0.25
7 0.54
-7 0.45999999999999996
8 0.99
-8 0.010000000000000009
9 0.72
-9 0.28
10 0.42
-10 0.5800000000000001
11 0.2
-11 0.8
12 0.37
-12 0.63
13 0.05
-13 0.95
14 0.42
-14 0.5800000000000001
15 0.51
-15 0.49
16 0.69
-16 0.31000000000000005
17 0.37
-17 0.63
18 0.69
-18 0.31000000000000005
19 0.16
-19 0.84
20 0.56
-20 0.43999999999999995
21 0.1
-21 0.9
22 0.57
-22 0.43000000000000005
23 0.58
-23 0.42000000000000004
24 0.73
-24 0.27
25 0.65
-25 0.35
26 0.64
-26 0.36
27 0.22
-27 0.78
28 0.54
-28 0.45999999999999996
29 0.77
-29 0.22999999999999998
30 0.88
-30 0.12
31 0.07
-31 0.9299999999999999
32 0.65
-32 0.35
33 0.91
-33 0.08999999999999997
34 0.6
-34 0.4
35 0.41
-35 0.5900000000000001
36 0.67
-36 0.32999999999999996
37 0.69
-37 0.31000000000000005
38 0.4
-38 0.6
39 0.59
-39 0.41000000000000003
40 0.41
-40 0.5900000000000001
41 0.62
-41 0.38
42 0.65
-42 0.35
43 0.95
-43 0.050000000000000044
44 0.78
-44 0.21999999999999997
45 0.72
-45 0.28
46 0.19
-46 0.81
47 0.22
-47 0.78
48 0.52
-48 0.48
49 0.4
-49 0.6
50 0.97
-50 0.030000000000000027
51 0.15
-51 0.85
52 0.37
-52 0.63
53 0.37
-53 0.63
54 0.2
-54 0.8
55 0.85
-55 0.15000000000000002
56 0.89
-56 0.10999999999999999
57 0.47
-57 0.53
58 0.45
-58 0.55
59 0.92
-59 0.07999999999999996
60 0.67
-60 0.32999999999999996
61 0.64
-61 0.36
62 0.45
-62 0.55
63 0.21
-63 0.79
64 0.44
-64 0.56
65 0.79
-65 0.20999999999999996
66 0.94
-66 0.06000000000000005
67 0.11
-67 0.89
68 0.18
-68 0.8200000000000001
69 0.27
-69 0.73
70 0.18
-70 0.8200000000000001
