1 0.77
-1 0.22999999999999998
2 0.29
-2 0.71
3 0.09
-3 0.91
4 0.33
-4 0.6699999999999999
5 0.74
-5 0.26
6 0.03
-6 0.97
7 0.47
-7 0.53
8 0.93
-8 0.06999999999999995
9 0.01
-9 0.99
10 0.21
-10 0.79
11 0.93
-11 0.06999999999999995
12 0.78
-12 0.21999999999999997
13 0.89
-13 0.10999999999999999
14 0.67
-14 0.32999999999999996
15 0.69
-15 0.31000000000000005
16 0.77
-16 0.22999999999999998
17 0.9
-17 0.09999999999999998
18 0.77
-18 0.22999999999999998
19 0.36
-19 0.64
20 0.47
-20 0.53
21 0.05
-21 0.95
22 0.78
-22 0.21999999999999997
23 0.03
-23 0.97
24 0.06
-24 0.94
25 0.32
-25 0.6799999999999999
26 0.8
-26 0.19999999999999996
27 0.03
-27 0.97
28 0.62
-28 0.38
29 0.73
-29 0.27
30 0.62
-30 0.38
31 0.4
-31 0.6
32 0.71
-32 0.29000000000000004
33 0.89
-33 0.10999999999999999
34 0.84
-34 0.16000000000000003
35 0.46
-35 0.54
36 0.19
-36 0.81
37 0.55
-37 0.44999999999999996
38 0.19
-38 0.81
39 0.64
-39 0.36
40 0.58
-40 0.42000000000000004
41 0.73
-41 0.27
42 0.55
-42 0.44999999999999996
43 0.53
-43 0.47
44 0.92
-44 0.07999999999999996
45 0.56
-45 0.43999999999999995
46 0.53
-46 0.47
47 0.37
-47 0.63
48 0.12
-48 0.88
49 0.44
-49 0.56
50 0.71
-50 0.29000000000000004
51 0.83
-51 0.17000000000000004
52 0.88
-52 0.12
53 0.7
-53 0.30000000000000004
54 0.76
-54 0.24
55 0.94
-55 0.06000000000000005
56 0.67
-56 0.32999999999999996
57 0.11
-57 0.89
58 0.96
-58 0.040000000000000036
59 0.4
-59 0.6
60 0.92
-60 0.07999999999999996
61 0.76
-61 0.24
62 0.42
-62 0.5800000000000001
63 0.04
-63 0.96
64 0.53
-64 0.47
65 0.25
-65 0.75
66 0.64
-66 0.36
67 0.75
-67 0.25
68 0.98
-68 0.020000000000000018
69 0.49
-69 0.51
70 0.71
-70 0.29000000000000004
