1 0.82
-1 0.18000000000000005
2 0.58
-2 0.42000000000000004
3 0.2
-3 0.8
4 0.76
-4 0.24
5 0.27
-5 0.73
6 0.88
-6 0.12
7 0.09
-7 0.91
8 0.05
-8 0.95
9 0.73
-9 0.27
10 0.31
-10 0.69
11 0.38
-11 0.62
12 0.58
-12 0.42000000000000004
13 0.35
-13 0.65
14 0.78
-14 0.21999999999999997
15 0.47
-15 0.53
16 0.06
-16 0.94
17 0.95
-17 0.050000000000000044
18 0.22
-18 0.78
19 0.81
-19 0.18999999999999995
20 0.23
-20 0.77
21 0.27
-21 0.73
22 0.86
-22 0.14
23 0.27
-23 0.73
24 0.76
-24 0.24
25 0.97
-25 0.030000000000000027
26 0.85
-26 0.15000000000000002
27 0.97
-27 0.030000000000000027
28 0.82
-28 0.18000000000000005
29 0.06
-29 0.94
30 0.92
-30 0.07999999999999996
31 0.63
-31 0.37
32 0.83
-32 0.17000000000000004
33 0.43
-33 0.5700000000000001
34 0.35
-34 0.65
35 0.52
-35 0.48
36 0.18
-36 0.8200000000000001
37 0.05
-37 0.95
38 0.06
-38 0.94
39 0.42
-39 0.5800000000000001
40 0.59
-40 0.41000000000000003
41 0.27
-41 0.73
42 0.33
-42 0.6699999999999999
43 0.88
-43 0.12
44 0.76
-44 0.24
45 0.8
-45 0.19999999999999996
46 0.87
-46 0.13
47 0.34
-47 0.6599999999999999
48 0.05
-48 0.95
49 0.99
-49 0.010000000000000009
50 0.27
-50 0.73
51 0.78
-51 0.21999999999999997
52 0.91
-52 0.08999999999999997
53 0.74
-53 0.26
54 0.4
-54 0.6
55 0.47
-55 0.53
56 0.48
-56 0.52
57 0.14
-57 0.86
58 0.46
-58 0.54
59 0.5
-59 0.5
60 0.94
-60 0.06000000000000005
61 0.42
-61 0.5800000000000001
62 0.2
-62 0.8
63 0.62
-63 0.38
64 0.89
-64 0.10999999999999999
65 0.53
-65 0.47
66 0.81
-66 0.18999999999999995
67 0.72
-67 0.28
68 0.31
-68 0.69
69 0.24
-69 0.76
70 0.74
-70 0.26
