1 0.94
-1 0.06000000000000005
2 0.24
-2 0.76
3 0.35
-3 0.65
4 0.34
-4 0.6599999999999999
5 0.93
-5 0.06999999999999995
6 0.45
-6 0.55
7 0.83
-7 0.17000000000000004
8 0.55
-8 0.44999999999999996
9 0.65
-9 0.35
10 0.64
-10 0.36
11 0.81
-11 0.18999999999999995
12 0.33
-12 0.6699999999999999
13 0.17
-13 0.83
14 0.5
-14 0.5
15 0.26
-15 0.74
16 0.68
-16 0.31999999999999995
17 0.19
-17 0.81
18 0.66
-18 0.33999999999999997
19 0.12
-19 0.88
20 0.66
-20 0.33999999999999997
21 0.78
-21 0.21999999999999997
22 0.78
-22 0.21999999999999997
23 0.36
-23 0.64
24 0.67
-24 0.32999999999999996
25 0.85
-25 0.15000000000000002
26 0.17
-26 0.83
27 0.93
-27 0.06999999999999995
28 0.25
-28 0.75
29 0.88
-29 0.12
30 0.65
-30 0.35
31 0.57
-31 0.43000000000000005
32 0.88
-32 0.12
33 0.91
-33 0.08999999999999997
34 0.47
-34 0.53
35 0.2
-35 0.8
36 0.3
-36 0.7
37 0.36
-37 0.64
38 0.12
-38 0.88
39 0.43
-39 0.5700000000000001
40 0.29
-40 0.71
41 0.83
-41 0.17000000000000004
42 0.95
-42 0.050000000000000044
43 0.29
-43 0.71
44 0.66
-44 0.33999999999999997
45 0.49
-45 0.51
46 0.36
-46 0.64
47 0.68
-47 0.31999999999999995
48 0.87
-48 0.13
49 0.29
-49 0.71
50 0.48
-50 0.52
51 0.5
-51 0.5
52 0.34
-52 0.6599999999999999
53 0.4
-53 0.6
54 0.95
-54 0.050000000000000044
55 0.85
-55 0.15000000000000002
56 0.02
-56 0.98
57 0.7
-57 0.30000000000000004
58 0.74
-58 0.26
59 0.31
-59 0.69
60 0.75
-60 0.25
61 0.65
-61 0.35
62 0.13
-62 0.87
63 0.63
-63 0.37
64 0.66
-64 0.33999999999999997
65 0.9
-65 0.09999999999999998
66 0.19
-66 0.81
67 0.08
-67 0.92
68 0.35
-68 0.65
69 0.25
-69 0.75
70 0.85
-70 0.15000000000000002
