1 0.27
-1 0.73
2 0.79
-2 0.20999999999999996
3 0.85
-3 0.15000000000000002
4 0.54
-4 0.45999999999999996
5 0.04
-5 0.96
6 0.94
-6 0.06000000000000005
7 0.45
-7 0.55
8 0.24
-8 0.76
9 0.02
-9 0.98
10 0.2
-10 0.8
11 0.4
-11 0.6
12 0.44
-12 0.56
13 0.07
-13 0.9299999999999999
14 0.04
-14 0.96
15 0.18
-15 0.8200000000000001
16 0.3
-16 0.7
17 0.59
-17 0.41000000000000003
18 0.56
-18 0.43999999999999995
19 0.93
-19 0.06999999999999995
20 0.1
-20 0.9
21 0.69
-21 0.31000000000000005
22 0.58
-22 0.42000000000000004
23 0.61
-23 0.39
24 0.77
-24 0.22999999999999998
25 0.45
-25 0.55
26 0.78
-26 0.21999999999999997
27 0.2
-27 0.8
28 0.01
-28 0.99
29 0.11
-29 0.89
30 0.82
-30 0.18000000000000005
31 0.8
-31 0.19999999999999996
32 0.14
-32 0.86
33 0.67
-33 0.32999999999999996
34 0.81
-34 0.18999999999999995
35 0.12
-35 0.88
36 0.33
-36 0.6699999999999999
37 0.17
-37 0.83
38 0.27
-38 0.73
39 0.55
-39 0.44999999999999996
40 0.37
-40 0.63
41 0.8
-41 0.19999999999999996
42 0.22
-42 0.78
43 0.38
-43 0.62
44 0.27
-44 0.73
45 0.04
-45 0.96
46 0.01
-46 0.99
47 0.65
-47 0.35
48 0.4
-48 0.6
49 0.33
-49 0.6699999999999999
50 0.8
-50 0.19999999999999996
51 0.34
-51 0.6599999999999999
52 0.33
-52 0.6699999999999999
53 0.66
-53 0.33999999999999997
54 0.88
-54 0.12
55 0.11
-55 0.89
56 0.5
-56 0.5
57 0.59
-57 0.41000000000000003
58 0.81
-58 0.18999999999999995
59 0.91
-59 0.08999999999999997
60 0.07
-60 0.9299999999999999
61 0.48
-61 0.52
62 0.4
-62 0.6
63 0.32
-63 0.6799999999999999
64 0.51
-64 0.49
65 0.15
-65 0.85
66 0.48
-66 0.52
67 0.79
-67 0.20999999999999996
68 0.35
-68 0.65
69 0.39
-69 0.61
70 0.57
-70 0.43000000000000005
