1 0.65
-1 0.35
2 0.53
-2 0.47
3 0.14
-3 0.86
4 0.03
-4 0.97
5 0.84
-5 0.16000000000000003
6 0.23
-6 0.77
7 0.59
-7 0.41000000000000003
8 0.57
-8 0.43000000000000005
9 0.49
-9 0.51
10 0.23
-10 0.77
11 0.79
-11 0.20999999999999996
12 0.92
-12 0.07999999999999996
13 0.51
-13 0.49
14 0.69
-14 0.31000000000000005
15 0.47
-15 0.53
16 0.56
-16 0.43999999999999995
17 0.86
-17 0.14
18 0.22
-18 0.78
19 0.28
-19 0.72
20 0.97
-20 0.030000000000000027
21 0.06
-21 0.94
22 0.78
-22 0.21999999999999997
23 0.97
-23 0.030000000000000027
24 0.58
-24 0.42000000000000004
25 0.92
-25 0.07999999999999996
26 0.36
-26 0.64
27 0.24
-27 0.76
28 0.38
-28 0.62
29 0.05
-29 0.95
30 0.7
-30 0.30000000000000004
31 0.8
-31 0.19999999999999996
32 0.35
-32 0.65
33 0.61
-33 0.39
34 0.74
-34 0.26
35 0.31
-35 0.69
36 0.18
-36 0.8200000000000001
37 0.52
-37 0.48
38 0.27
-38 0.73
39 0.86
-39 0.14
40 0.74
-40 0.26
41 0.78
-41 0.21999999999999997
42 0.21
-42 0.79
43 0.07
-43 0.9299999999999999
44 0.45
-44 0.55
45 0.59
-45 0.41000000000000003
46 0.96
-46 0.040000000000000036
47 0.71
-47 0.29000000000000004
48 0.31
-48 0.69
49 0.2
-49 0.8
50 0.08
-50 0.92
51 0.33
-51 0.6699999999999999
52 0.15
-52 0.85
53 0.83
-53 0.17000000000000004
54 0.93
-54 0.06999999999999995
55 0.67
-55 0.32999999999999996
56 0.87
-56 0.13
57 0.19
-57 0.81
58 0.06
-58 0.94
59 0.19
-59 0.81
60 0.4
-60 0.6
61 0.88
-61 0.12
62 0.82
-62 0.18000000000000005
63 0.73
-63 0.27
64 0.46
-64 0.54
65 0.89
-65 0.10999999999999999
66 0.11
-66 0.89
67 0.63
-67 0.37
68 0.76
-68 0.24
69 0.81
-69 0.18999999999999995
70 0.66
-70 0.33999999999999997
