1 0.76
-1 0.24
2 0.55
-2 0.44999999999999996
3 0.45
-3 0.55
4 0.88
-4 0.12
5 0.04
-5 0.96
6 0.38
-6 0.62
7 0.03
-7 0.97
8 0.13
-8 0.87
9 0.77
-9 0.22999999999999998
10 0.63
-10 0.37
11 0.64
-11 0.36
12 0.06
-12 0.94
13 0.1
-13 0.9
14 0.5
-14 0.5
15 0.27
-15 0.73
16 0.69
-16 0.31000000000000005
17 0.48
-17 0.52
18 0.15
-18 0.85
19 0.58
-19 0.42000000000000004
20 0.04
-20 0.96
21 0.15
-21 0.85
22 0.22
-22 0.78
23 0.89
-23 0.10999999999999999
24 0.92
-24 0.07999999999999996
25 0.59
-25 0.41000000000000003
26 0.68
-26 0.31999999999999995
27 0.42
-27 0.5800000000000001
28 0.01
-28 0.99
29 0.77
-29 0.22999999999999998
30 0.58
-30 0.42000000000000004
31 0.21
-31 0.79
32 0.59
-32 0.41000000000000003
33 0.86
-33 0.14
34 0.19
-34 0.81
35 0.71
-35 0.29000000000000004
36 0.28
-36 0.72
37 0.25
-37 0.75
38 0.7
-38 0.30000000000000004
39 0.07
-39 0.9299999999999999
40 0.8
-40 0.19999999999999996
41 0.91
-41 0.08999999999999997
42 0.84
-42 0.16000000000000003
43 0.33
-43 0.6699999999999999
44 0.22
-44 0.78
45 0.47
-45 0.53
46 0.57
-46 0.43000000000000005
47 0.19
-47 0.81
48 0.95
-48 0.050000000000000044
49 0.72
-49 0.28
50 0.14
-50 0.86
51 0.17
-51 0.83
52 0.16
-52 0.84
53 0.49
-53 0.51
54 0.68
-54 0.31999999999999995
55 0.11
-55 0.89
56 0.02
-56 0.98
57 0.76
-57 0.24
58 0.51
-58 0.49
59 0.43
-59 0.5700000000000001
60 0.67
-60 0.32999999999999996
61 0.77
-61 0.22999999999999998
62 0.61
-62 0.39
63 0.59
-63 0.41000000000000003
64 0.49
-64 0.51
65 0.04
-65 0.96
66 0.39
-66 0.61
67 0.44
-67 0.56
68 0.12
-68 0.88
69 0.05
-69 0.95
70 0.56
-70 0.43999999999999995
