1 0.86
-1 0.14
2 0.06
-2 0.94
3 0.36
-3 0.64
4 0.68
-4 0.31999999999999995
5 0.48
-5 0.52
6 0.44
-6 0.56
7 0.63
-7 0.37
8 0.88
-8 0.12
9 0.36
-9 0.64
10 0.81
-10 0.18999999999999995
11 0.06
-11 0.94
12 0.85
-12 0.15000000000000002
13 0.72
-13 0.28
14 0.91
-14 0.08999999999999997
15 0.55
-15 0.44999999999999996
16 0.07
-16 0.9299999999999999
17 0.99
-17 0.010000000000000009
18 0.18
-18 0.8200000000000001
19 0.95
-19 0.050000000000000044
20 0.75
-20 0.25
21 0.98
-21 0.020000000000000018
22 0.9
-22 0.09999999999999998
23 0.78
-23 0.21999999999999997
24 0.62
-24 0.38
25 0.18
-25 0.8200000000000001
26 0.23
-26 0.77
27 0.75
-27 0.25
28 0.73
-28 0.27
29 0.99
-29 0.010000000000000009
30 0.62
-30 0.38
31 0.41
-31 0.5900000000000001
32 0.27
-32 0.73
33 0.33
-33 0.6699999999999999
34 0.29
-34 0.71
35 0.17
-35 0.83
36 0.72
-36 0.28
37 0.55
-37 0.44999999999999996
38 0.59
-38 0.41000000000000003
39 0.64
-39 0.36
40 0.01
-40 0.99
41 0.46
-41 0.54
42 0.9
-42 0.09999999999999998
43 0.5
-43 0.5
44 0.76
-44 0.24
45 0.18
-45 0.8200000000000001
46 0.67
-46 0.32999999999999996
47 0.15
-47 0.85
48 0.73
-48 0.27
49 0.71
-49 0.29000000000000004
50 0.59
-50 0.41000000000000003
51 0.92
-51 0.07999999999999996
52 0.71
-52 0.29000000000000004
53 0.37
-53 0.63
54 0.7
-54 0.30000000000000004
55 0.89
-55 0.10999999999999999
56 0.75
-56 0.25
57 0.55
-57 0.44999999999999996
58 0.37
-58 0.63
59 0.35
-59 0.65
60 0.25
-60 0.75
61 0.1
-61 0.9
62 0.56
-62 0.43999999999999995
63 0.67
-63 0.32999999999999996
64 0.46
-64 0.54
65 0.23
-65 0.77
66 0.2
-66 0.8
67 0.13
-67 0.87
68 0.78
-68 0.21999999999999997
69 0.43
-69 0.5700000000000001
70 0.4
-70 0.6
