1 0.21
-1 0.79
2 0.7
-2 0.30000000000000004
3 0.28
-3 0.72
4 0.85
-4 0.15000000000000002
5 0.25
-5 0.75
6 0.48
-6 0.52
7 0.46
-7 0.54
8 0.98
-8 0.020000000000000018
9 0.24
-9 0.76
10 0.77
-10 0.22999999999999998
11 0.68
-11 0.31999999999999995
12 0.89
-12 0.10999999999999999
13 0.18
-13 0.8200000000000001
14 0.56
-14 0.43999999999999995
15 0.88
-15 0.12
16 0.99
-16 0.010000000000000009
17 0.32
-17 0.6799999999999999
18 0.56
-18 0.43999999999999995
19 0.92
-19 0.07999999999999996
20 0.08
-20 0.92
21 0.7
-21 0.30000000000000004
22 0.53
-22 0.47
23 0.91
-23 0.08999999999999997
24 0.41
-24 0.5900000000000001
25 0.41
-25 0.5900000000000001
26 0.93
-26 0.06999999999999995
27 0.25
-27 0.75
28 0.06
-28 0.94
29 0.24
-29 0.76
30 0.21
-30 0.79
31 0.19
-31 0.81
32 0.69
-32 0.31000000000000005
33 0.64
-33 0.36
34 0.18
-34 0.8200000000000001
35 0.81
-35 0.18999999999999995
36 0.56
-36 0.43999999999999995
37 0.38
-37 0.62
38 0.65
-38 0.35
39 0.48
-39 0.52
40 0.46
-40 0.54
41 0.67
-41 0.32999999999999996
42 0.1
-42 0.9
43 0.13
-43 0.87
44 0.72
-44 0.28
45 0.03
-45 0.97
46 0.01
-46 0.99
47 0.21
-47 0.79
48 0.21
-48 0.79
49 0.93
-49 0.06999999999999995
50 0.28
-50 0.72
51 0.16
-51 0.84
52 0.91
-52 0.08999999999999997
53 0.46
-53 0.54
54 0.71
-54 0.29000000000000004
55 0.7
-55 0.30000000000000004
56 0.83
-56 0.17000000000000004
57 0.88
-57 0.12
58 0.93
-58 0.06999999999999995
59 0.87
-59 0.13
60 0.88
-60 0.12
61 0.6
-61 0.4
62 0.36
-62 0.64
63 0.46
-63 0.54
64 0.12
-64 0.88
65 0.2
-65 0.8
66 0.57
-66 0.43000000000000005
67 0.76
-67 0.24
68 0.57
-68 0.43000000000000005
69 0.32
-69 0.6799999999999999
70 0.85
-70 0.15000000000000002
