1 0.53
-1 0.47
2 0.55
-2 0.44999999999999996
3 0.07
-3 0.9299999999999999
4 0.13
-4 0.87
5 0.51
-5 0.49
6 0.36
-6 0.64
7 0.89
-7 0.10999999999999999
8 0.15
-8 0.85
9 0.54
-9 0.45999999999999996
10 0.36
-10 0.64
11 0.63
-11 0.37
12 0.04
-12 0.96
13 0.78
-13 0.21999999999999997
14 0.87
-14 0.13
15 0.46
-15 0.54
16 0.18
-16 0.8200000000000001
17 0.17
-17 0.83
18 0.77
-18 0.22999999999999998
19 0.25
-19 0.75
20 0.68
-20 0.31999999999999995
21 0.23
-21 0.77
22 0.56
-22 0.43999999999999995
23 0.85
-23 0.15000000000000002
24 0.82
-24 0.18000000000000005
25 0.92
-25 0.07999999999999996
26 0.19
-26 0.81
27 0.08
-27 0.92
28 0.04
-28 0.96
29 0.79
-29 0.20999999999999996
30 0.98
-30 0.020000000000000018
31 0.34
-31 0.6599999999999999
32 0.45
-32 0.55
33 0.41
-33 0.5900000000000001
34 0.97
-34 0.030000000000000027
35 0.68
-35 0.31999999999999995
36 0.4
-36 0.6
37 0.95
-37 0.050000000000000044
38 0.17
-38 0.83
39 0.67
-39 0.32999999999999996
40 0.84
-40 0.16000000000000003
41 0.99
-41 0.010000000000000009
42 0.57
-42 0.43000000000000005
43 0.68
-43 0.31999999999999995
44 0.02
-44 0.98
45 0.41
-45 0.5900000000000001
46 0.21
-46 0.79
47 0.15
-47 0.85
48 0.03
-48 0.97
49 0.07
-49 0.9299999999999999
50 0.46
-50 0.54
51 0.61
-51 0.39
52 0.84
-52 0.16000000000000003
53 0.44
-53 0.56
54 0.26
-54 0.74
55 0.92
-55 0.07999999999999996
56 0.12
-56 0.88
57 0.16
-57 0.84
58 0.8
-58 0.19999999999999996
59 0.45
-59 0.55
60 0.45
-60 0.55
61 0.9
-61 0.09999999999999998
62 0.98
-62 0.020000000000000018
63 0.74
-63 0.26
64 0.2
-64 0.8
65 0.47
-65 0.53
66 0.59
-66 0.41000000000000003
67 0.88
-67 0.12
68 0.38
-68 0.62
69 0.55
-69 0.44999999999999996
70 0.94
-70 0.06000000000000005
