1 0.01
-1 0.99
2 0.61
-2 0.39
3 0.15
-3 0.85
4 0.35
-4 0.65
5 0.74
-5 0.26
6 0.94
-6 0.06000000000000005
7 0.65
-7 0.35
8 0.19
-8 0.81
9 0.35
-9 0.65
10 0.78
-10 0.21999999999999997
11 0.78
-11 0.21999999999999997
12 0.77
-12 0.22999999999999998
13 0.27
-13 0.73
14 0.96
-14 0.040000000000000036
15 0.66
-15 0.33999999999999997
16 0.65
-16 0.35
17 0.42
-17 0.5800000000000001
18 0.59
-18 0.41000000000000003
19 0.4
-19 0.6
20 0.64
-20 0.36
21 0.1
-21 0.9
22 0.9
-22 0.09999999999999998
23 0.69
-23 0.31000000000000005
24 0.98
-24 0.020000000000000018
25 0.44
-25 0.56
26 0.99
-26 0.010000000000000009
27 0.99
-27 0.010000000000000009
28 0.32
-28 0.6799999999999999
29 0.26
-29 0.74
30 0.38
-30 0.62
31 0.49
-31 0.51
32 0.03
-32 0.97
33 0.47
-33 0.53
34 0.25
-34 0.75
35 0.84
-35 0.16000000000000003
36 0.09
-36 0.91
37 0.23
-37 0.77
38 0.97
-38 0.030000000000000027
39 0.59
-39 0.41000000000000003
40 0.54
-40 0.45999999999999996
41 0.45
-41 0.55
42 0.89
-42 0.10999999999999999
43 0.21
-43 0.79
44 0.9
-44 0.09999999999999998
45 0.19
-45 0.81
46 0.57
-46 0.43000000000000005
47 0.26
-47 0.74
48 0.46
-48 0.54
49 0.21
-49 0.79
50 0.86
-50 0.14
51 0.28
-51 0.72
52 0.57
-52 0.43000000000000005
53 0.77
-53 0.22999999999999998
54 0.38
-54 0.62
55 0.97
-55 0.030000000000000027
56 0.94
-56 0.06000000000000005
57 0.11
-57 0.89
58 0.09
-58 0.91
59 0.95
-59 0.050000000000000044
60 0.63
-60 0.37
61 0.63
-61 0.37
62 0.52
-62 0.48
63 0.4
-63 0.6
64 0.86
-64 0.14
65 0.8
-65 0.19999999999999996
66 0.13
-66 0.87
67 0.65
-67 0.35
68 0.82
-68 0.18000000000000005
69 0.13
-69 0.87
70 0.49
-70 0.51
