1 0.82
-1 0.18000000000000005
2 0.43
-2 0.5700000000000001
3 0.35
-3 0.65
4 0.21
-4 0.79
5 0.99
-5 0.010000000000000009
6 0.82
-6 0.18000000000000005
7 0.56
-7 0.43999999999999995
8 0.85
-8 0.15000000000000002
9 0.36
-9 0.64
10 0.35
-10 0.65
11 0.33
-11 0.6699999999999999
12 0.59
-12 0.41000000000000003
13 0.68
-13 0.31999999999999995
14 0.86
-14 0.14
15 0.47
-15 0.53
16 0.39
-16 0.61
17 0.83
-17 0.17000000000000004
18 0.38
-18 0.62
19 0.14
-19 0.86
20 0.06
-20 0.94
21 0.62
-21 0.38
22 0.75
-22 0.25
23 0.56
-23 0.43999999999999995
24 0.22
-24 0.78
25 0.43
-25 0.5700000000000001
26 0.05
-26 0.95
27 0.65
-27 0.35
28 0.66
-28 0.33999999999999997
29 0.16
-29 0.84
30 0.35
-30 0.65
31 0.71
-31 0.29000000000000004
32 0.31
-32 0.69
33 0.38
-33 0.62
34 0.47
-34 0.53
35 0.76
-35 0.24
36 0.27
-36 0.73
37 0.93
-37 0.06999999999999995
38 0.57
-38 0.43000000000000005
39 0.66
-39 0.33999999999999997
40 0.12
-40 0.88
41 0.23
-41 0.77
42 0.15
-42 0.85
43 0.64
-43 0.36
44 0.7
-44 0.30000000000000004
45 0.95
-45 0.050000000000000044
46 0.53
-46 0.47
47 0.44
-47 0.56
48 0.25
-48 0.75
49 0.28
-49 0.72
50 0.36
-50 0.64
51 0.42
-51 0.5800000000000001
52 0.43
-52 0.5700000000000001
53 0.66
-53 0.33999999999999997
54 0.21
-54 0.79
55 0.09
-55 0.91
56 0.47
-56 0.53
57 0.64
-57 0.36
58 0.11
-58 0.89
59 0.14
-59 0.86
60 0.47
-60 0.53
61 0.27
-61 0.73
62 0.68
-62 0.31999999999999995
63 0.66
-63 0.33999999999999997
64 0.55
-64 0.44999999999999996
65 0.19
-65 0.81
66 0.42
-66 0.5800000000000001
67 0.18
-67 0.8200000000000001
68 0.8
-68 0.19999999999999996
69 0.1
-69 0.9
70 0.54
-70 0.45999999999999996
