1 0.48
-1 0.52
2 0.18
-2 0.8200000000000001
3 0.97
-3 0.030000000000000027
4 0.8
-4 0.19999999999999996
5 0.65
-5 0.35
6 0.78
-6 0.21999999999999997
7 0.65
-7 0.35
8 0.13
-8 0.87
9 0.54
-9 0.45999999999999996
10 0.35
-10 0.65
11 0.43
-11 0.5700000000000001
12 0.6
-12 0.4
13 0.44
-13 0.56
14 0.61
-14 0.39
15 0.82
-15 0.18000000000000005
16 0.42
-16 0.5800000000000001
17 0.37
-17 0.63
18 0.02
-18 0.98
19 0.35
-19 0.65
20 0.18
-20 0.8200000000000001
21 0.79
-21 0.20999999999999996
22 0.46
-22 0.54
23 0.68
-23 0.31999999999999995
24 0.1
-24 0.9
25 0.67
-25 0.32999999999999996
26 0.45
-26 0.55
27 0.74
-27 0.26
28 0.13
-28 0.87
29 0.27
-29 0.73
30 0.42
-30 0.5800000000000001
31 0.53
-31 0.47
32 0.26
-32 0.74
33 0.99
-33 0.010000000000000009
34 0.88
-34 0.12
35 0.19
-35 0.81
36 0.17
-36 0.83
37 0.29
-37 0.71
38 0.74
-38 0.26
39 0.45
-39 0.55
40 0.03
-40 0.97
41 0.14
-41 0.86
42 0.64
-42 0.36
43 0.94
-43 0.06000000000000005
44 0.92
-44 0.07999999999999996
45 0.72
-45 0.28
46 0.12
-46 0.88
47 0.16
-47 0.84
48 0.95
-48 0.050000000000000044
49 0.28
-49 0.72
50 0.36
-50 0.64
51 0.32
-51 0.6799999999999999
52 0.07
-52 0.9299999999999999
53 0.24
-53 0.76
54 0.52
-54 0.48
55 0.1
-55 0.9
56 0.76
-56 0.24
57 0.82
-57 0.18000000000000005
58 0.73
-58 0.27
59 0.79
-59 0.20999999999999996
60 0.92
-60 0.07999999999999996
61 0.45
-61 0.55
62 0.67
-62 0.32999999999999996
63 0.73
-63 0.27
64 0.05
-64 0.95
65 0.56
-65 0.43999999999999995
66 0.17
-66 0.83
67 0.86
-67 0.14
68 0.89
-68 0.10999999999999999
69 0.08
-69 0.92
70 0.49
-70 0.51
