1 0.33
-1 0.6699999999999999
2 0.72
-2 0.28
3 0.18
-3 0.8200000000000001
4 0.68
-4 0.31999999999999995
5 0.63
-5 0.37
6 0.03
-6 0.97
7 0.77
-7 0.22999999999999998
8 0.31
-8 0.69
9 0.97
-9 0.030000000000000027
10 0.42
-10 0.5800000000000001
11 0.58
-11 0.42000000000000004
12 0.09
-12 0.91
13 0.26
-13 0.74
14 0.81
-14 0.18999999999999995
15 0.05
-15 0.95
16 0.2
-16 0.8
17 0.43
-17 0.5700000000000001
18 0.29
-18 0.71
19 0.9
-19 0.09999999999999998
20 0.58
-20 0.42000000000000004
21 0.32
-21 0.6799999999999999
22 0.46
-22 0.54
23 0.51
-23 0.49
24 0.06
-24 0.94
25 0.24
-25 0.76
26 0.18
-26 0.8200000000000001
27 0.93
-27 0.06999999999999995
28 0.53
-28 0.47
29 0.68
-29 0.31999999999999995
30 0.34
-30 0.6599999999999999
31 0.5
-31 0.5
32 0.72
-32 0.28
33 0.83
-33 0.17000000000000004
34 0.68
-34 0.31999999999999995
35 0.66
-35 0.33999999999999997
36 0.75
-36 0.25
37 0.09
-37 0.91
38 0.96
-38 0.040000000000000036
39 0.03
-39 0.97
40 0.75
-40 0.25
41 0.72
-41 0.28
42 0.33
-42 0.6699999999999999
43 0.59
-43 0.41000000000000003
44 0.02
-44 0.98
45 0.75
-45 0.25
46 0.26
-46 0.74
47 0.59
-47 0.41000000000000003
48 0.96
-48 0.040000000000000036
49 0.15
-49 0.85
50 0.48
-50 0.52
51 0.69
-51 0.31000000000000005
52 0.28
-52 0.72
53 0.92
-53 0.07999999999999996
54 0.59
-54 0.41000000000000003
55 0.13
-55 0.87
56 0.8
-56 0.19999999999999996
57 0.55
-57 0.44999999999999996
58 0.8
-58 0.19999999999999996
59 0.54
-59 0.45999999999999996
60 0.2
-60 0.8
61 0.9
-61 0.09999999999999998
62 0.1
-62 0.9
63 0.27
-63 0.73
64 0.33
-64 0.6699999999999999
65 0.45
-65 0.55
66 0.35
-66 0.65
67 0.26
-67 0.74
68 0.49
-68 0.51
69 0.58
-69 0.42000000000000004
70 0.67
-70 0.32999999999999996
