1 0.08
-1 0.92
2 0.67
-2 0.32999999999999996
3 0.49
-3 0.51
4 0.58
-4 0.42000000000000004
5 0.69
-5 0.31000000000000005
6 0.56
-6 0.43999999999999995
7 0.3
-7 0.7
8 0.31
-8 0.69
9 0.22
-9 0.78
10 0.11
-10 0.89
11 0.86
-11 0.14
12 0.7
-12 0.30000000000000004
13 0.61
-13 0.39
14 0.23
-14 0.77
15 0.39
-15 0.61
16 0.88
-16 0.12
17 0.69
-17 0.31000000000000005
18 0.32
-18 0.6799999999999999
19 0.87
-19 0.13
20 0.14
-20 0.86
21 0.88
-21 0.12
22 0.39
-22 0.61
23 0.54
-23 0.45999999999999996
24 0.78
-24 0.21999999999999997
25 0.24
-25 0.76
26 0.94
-26 0.06000000000000005
27 0.28
-27 0.72
28 0.37
-28 0.63
29 0.98
-29 0.020000000000000018
30 0.05
-30 0.95
31 0.94
-31 0.06000000000000005
32 0.17
-32 0.83
33 0.96
-33 0.040000000000000036
34 0.25
-34 0.75
35 0.41
-35 0.5900000000000001
36 0.53
-36 0.47
37 0.96
-37 0.040000000000000036
38 0.73
-38 0.27
39 0.65
-39 0.35
40 0.35
-40 0.65
41 0.09
-41 0.91
42 0.65
-42 0.35
43 0.49
-43 0.51
44 0.77
-44 0.22999999999999998
45 0.02
-45 0.98
46 0.7
-46 0.30000000000000004
47 0.9
-47 0.09999999999999998
48 0.1
-48 0.9
49 0.62
-49 0.38
50 0.75
-50 0.25
51 0.09
-51 0.91
52 0.82
-52 0.18000000000000005
53 0.01
-53 0.99
54 0.61
-54 0.39
55 0.81
-55 0.18999999999999995
56 0.04
-56 0.96
57 0.83
-57 0.17000000000000004
58 0.85
-58 0.15000000000000002
59 0.91
-59 0.08999999999999997
60 0.07
-60 0.9299999999999999
61 0.19
-61 0.81
62 0.83
-62 0.17000000000000004
63 0.82
-63 0.18000000000000005
64 0.66
-64 0.33999999999999997
65 0.66
-65 0.33999999999999997
66 0.63
-66 0.37
67 0.83
-67 0.17000000000000004
68 0.82
-68 0.18000000000000005
69 0.28
-69 0.72
70 0.9
-70 0.09999999999999998
