1 0.37
-1 0.63
2 0.04
-2 0.96
3 0.93
-3 0.06999999999999995
4 0.29
-4 0.71
5 0.69
-5 0.31000000000000005
6 0.87
-6 0.13
7 0.22
-7 0.78
8 0.3
-8 0.7
9 0.11
-9 0.89
10 0.01
-10 0.99
11 0.6
-11 0.4
12 0.45
-12 0.55
13 0.82
-13 0.18000000000000005
14 0.87
-14 0.13
15 0.8
-15 0.19999999999999996
16 0.75
-16 0.25
17 0.24
-17 0.76
18 0.89
-18 0.10999999999999999
19 0.74
-19 0.26
20 0.42
-20 0.5800000000000001
21 0.47
-21 0.53
22 0.36
-22 0.64
23 0.01
-23 0.99
24 0.64
-24 0.36
25 0.83
-25 0.17000000000000004
26 0.14
-26 0.86
27 0.58
-27 0.42000000000000004
28 0.96
-28 0.040000000000000036
29 0.49
-29 0.51
30 0.56
-30 0.43999999999999995
31 0.88
-31 0.12
32 0.4
-32 0.6
33 0.91
-33 0.08999999999999997
34 0.06
-34 0.94
35 0.64
-35 0.36
36 0.62
-36 0.38
37 0.5
-37 0.5
38 0.02
-38 0.98
39 0.87
-39 0.13
40 0.63
-40 0.37
41 0.65
-41 0.35
42 0.37
-42 0.63
43 0.76
-43 0.24
44 0.56
-44 0.43999999999999995
45 0.21
-45 0.79
46 0.47
-46 0.53
47 0.8
-47 0.19999999999999996
48 0.88
-48 0.12
49 0.79
-49 0.20999999999999996
50 0.49
-50 0.51
51 0.97
-51 0.030000000000000027
52 0.46
-52 0.54
53 0.07
-53 0.9299999999999999
54 0.08
-54 0.92
55 0.34
-55 0.6599999999999999
56 0.23
-56 0.77
57 0.76
-57 0.24
58 0.78
-58 0.21999999999999997
59 0.46
-59 0.54
60 0.22
-60 0.78
61 0.7
-61 0.30000000000000004
62 0.84
-62 0.16000000000000003
63 0.33
-63 0.6699999999999999
64 0.61
-64 0.39
65 0.49
-65 0.51
66 0.2
-66 0.8
67 0.07
-67 0.9299999999999999
68 0.77
-68 0.22999999999999998
69 0.17
-69 0.83
70 0.23
-70 0.77
