1 0.32
-1 0.6799999999999999
2 0.61
-2 0.39
3 0.61
-3 0.39
4 0.84
-4 0.16000000000000003
5 0.78
-5 0.21999999999999997
6 0.04
-6 0.96
7 0.73
-7 0.27
8 0.99
-8 0.010000000000000009
9 0.18
-9 0.8200000000000001
10 0.56
-10 0.43999999999999995
11 0.32
-11 0.6799999999999999
12 0.69
-12 0.31000000000000005
13 0.57
-13 0.43000000000000005
14 0.04
-14 0.96
15 0.62
-15 0.38
16 0.22
-16 0.78
17 0.03
-17 0.97
18 0.33
-18 0.6699999999999999
19 0.3
-19 0.7
20 0.36
-20 0.64
21 0.18
-21 0.8200000000000001
22 0.17
-22 0.83
23 0.31
-23 0.69
24 0.93
-24 0.06999999999999995
25 0.19
-25 0.81
26 0.07
-26 0.9299999999999999
27 0.15
-27 0.85
28 0.51
-28 0.49
29 0.48
-29 0.52
30 0.44
-30 0.56
31 0.76
-31 0.24
32 0.4
-32 0.6
33 0.36
-33 0.64
34 0.58
-34 0.42000000000000004
35 0.51
-35 0.49
36 0.78
-36 0.21999999999999997
37 0.95
-37 0.050000000000000044
38 0.23
-38 0.77
39 0.99
-39 0.010000000000000009
40 0.74
-40 0.26
41 0.75
-41 0.25
42 0.75
-42 0.25
43 0.74
-43 0.26
44 0.68
-44 0.31999999999999995
45 0.43
-45 0.5700000000000001
46 0.86
-46 0.14
47 0.48
-47 0.52
48 0.3
-48 0.7
49 0.01
-49 0.99
50 0.68
-50 0.31999999999999995
51 0.25
-51 0.75
52 0.64
-52 0.36
53 0.2
-53 0.8
54 0.49
-54 0.51
55 0.34
-55 0.6599999999999999
56 0.03
-56 0.97
57 0.78
-57 0.21999999999999997
58 0.69
-58 0.31000000000000005
59 0.99
-59 0.010000000000000009
60 0.25
-60 0.75
61 0.67
-61 0.32999999999999996
62 0.58
-62 0.42000000000000004
63 0.99
-63 0.010000000000000009
64 0.57
-64 0.43000000000000005
65 0.93
-65 0.06999999999999995
66 0.74
-66 0.26
67 0.94
-67 0.06000000000000005
68 0.46
-68 0.54
69 0.29
-69 0.71
70 0.48
-70 0.52
