1 0.34
-1 0.6599999999999999
2 0.03
-2 0.97
3 0.7
-3 0.30000000000000004
4 0.65
-4 0.35
5 0.25
-5 0.75
6 0.53
-6 0.47
7 0.11
-7 0.89
8 0.9
-8 0.09999999999999998
9 0.78
-9 0.21999999999999997
10 0.45
-10 0.55
11 0.64
-11 0.36
12 0.3
-12 0.7
13 0.99
-13 0.010000000000000009
14 0.29
-14 0.71
15 0.18
-15 0.8200000000000001
16 0.74
-16 0.26
17 0.56
-17 0.43999999999999995
18 0.77
-18 0.22999999999999998
19 0.1
-19 0.9
20 0.68
-20 0.31999999999999995
21 0.78
-21 0.21999999999999997
22 0.62
-22 0.38
23 0.34
-23 0.6599999999999999
24 0.59
-24 0.41000000000000003
25 0.84
-25 0.16000000000000003
26 0.01
-26 0.99
27 0.93
-27 0.06999999999999995
28 0.99
-28 0.010000000000000009
29 0.47
-29 0.53
30 0.32
-30 0.6799999999999999
31 0.59
-31 0.41000000000000003
32 0.69
-32 0.31000000000000005
33 0.94
-33 0.06000000000000005
34 0.58
-34 0.42000000000000004
35 0.1
-35 0.9
36 0.99
-36 0.010000000000000009
37 0.36
-37 0.64
38 0.2
-38 0.8
39 0.93
-39 0.06999999999999995
40 0.71
-40 0.29000000000000004
41 0.23
-41 0.77
42 0.14
-42 0.86
43 0.59
-43 0.41000000000000003
44 0.67
-44 0.32999999999999996
45 0.02
-45 0.98
46 0.08
-46 0.92
47 0.36
-47 0.64
48 0.58
-48 0.42000000000000004
49 0.71
-49 0.29000000000000004
50 0.2
-50 0.8
51 0.61
-51 0.39
52 0.86
-52 0.14
53 0.01
-53 0.99
54 0.69
-54 0.31000000000000005
55 0.96
-55 0.040000000000000036
56 0.9
-56 0.09999999999999998
57 0.96
-57 0.040000000000000036
58 0.91
-58 0.08999999999999997
59 0.53
-59 0.47
60 0.34
-60 0.6599999999999999
61 0.22
-61 0.78
62 0.36
-62 0.64
63 0.19
-63 0.81
64 0.29
-64 0.71
65 0.72
-65 0.28
66 0.28
-66 0.72
67 0.79
-67 0.20999999999999996
68 0.46
-68 0.54
69 0.18
-69 0.8200000000000001
70 0.82
-70 0.18000000000000005
