1 0.55
-1 0.44999999999999996
2 0.28
-2 0.72
3 0.42
-3 0.5800000000000001
4 0.21
-4 0.79
5 0.83
-5 0.17000000000000004
6 0.48
-6 0.52
7 0.9
-7 0.09999999999999998
8 0.03
-8 0.97
9 0.53
-9 0.47
10 0.22
-10 0.78
11 0.37
-11 0.63
12 0.14
-12 0.86
13 0.88
-13 0.12
14 0.27
-14 0.73
15 0.28
-15 0.72
16 0.98
-16 0.020000000000000018
17 0.94
-17 0.06000000000000005
18 0.71
-18 0.29000000000000004
19 0.74
-19 0.26
20 0.76
-20 0.24
21 0.26
-21 0.74
22 0.59
-22 0.41000000000000003
23 0.32
-23 0.6799999999999999
24 0.39
-24 0.61
25 0.55
-25 0.44999999999999996
26 0.78
-26 0.21999999999999997
27 0.31
-27 0.69
28 0.4
-28 0.6
29 0.38
-29 0.62
30 0.83
-30 0.17000000000000004
31 0.08
-31 0.92
32 0.49
-32 0.51
33 0.87
-33 0.13
34 0.06
-34 0.94
35 0.55
-35 0.44999999999999996
36 0.99
-36 0.010000000000000009
37 0.5
-37 0.5
38 0.78
-38 0.21999999999999997
39 0.95
-39 0.050000000000000044
40 0.5
-40 0.5
41 0.04
-41 0.96
42 0.56
-42 0.43999999999999995
43 0.03
-43 0.97
44 0.55
-44 0.44999999999999996
45 0.54
-45 0.45999999999999996
46 0.52
-46 0.48
47 0.25
-47 0.75
48 0.88
-48 0.12
49 0.45
-49 0.55
50 0.99
-50 0.010000000000000009
51 0.73
-51 0.27
52 0.19
-52 0.81
53 0.03
-53 0.97
54 0.15
-54 0.85
55 0.23
-55 0.77
56 0.31
-56 0.69
57 0.36
-57 0.64
58 0.35
-58 0.65
59 0.89
-59 0.10999999999999999
60 0.6
-60 0.4
61 0.17
-61 0.83
62 0.68
-62 0.31999999999999995
63 0.32
-63 0.6799999999999999
64 0.4
-64 0.6
65 0.75
-65 0.25
66 0.49
-66 0.51
67 0.31
-67 0.69
68 0.95
-68 0.050000000000000044
69 0.7
-69 0.30000000000000004
70 0.64
-70 0.36
