1 0.82
-1 0.18000000000000005
2 0.56
-2 0.43999999999999995
3 0.79
-3 0.20999999999999996
4 0.41
-4 0.5900000000000001
5 0.78
-5 0.21999999999999997
6 0.2
-6 0.8
7 0.05
-7 0.95
8 0.12
-8 0.88
9 0.06
-9 0.94
10 0.12
-10 0.88
11 0.4
-11 0.6
12 0.06
-12 0.94
13 0.7
-13 0.30000000000000004
14 0.29
-14 0.71
15 0.76
-15 0.24
16 0.3
-16 0.7
17 0.56
-17 0.43999999999999995
18 0.01
-18 0.99
19 0.69
-19 0.31000000000000005
20 0.34
-20 0.6599999999999999
21 0.13
-21 0.87
22 0.48
-22 0.52
23 0.84
-23 0.16000000000000003
24 0.15
-24 0.85
25 0.64
-25 0.36
26 0.04
-26 0.96
27 0.26
-27 0.74
28 0.08
-28 0.92
29 0.23
-29 0.77
30 0.95
-30 0.050000000000000044
31 0.14
-31 0.86
32 0.06
-32 0.94
33 0.56
-33 0.43999999999999995
34 0.35
-34 0.65
35 0.14
-35 0.86
36 0.79
-36 0.20999999999999996
37 0.42
-37 0.5800000000000001
38 0.11
-38 0.89
39 0.87
-39 0.13
40 0.25
-40 0.75
41 0.26
-41 0.74
42 0.43
-42 0.5700000000000001
43 0.93
-43 0.06999999999999995
44 0.42
-44 0.5800000000000001
45 0.71
-45 0.29000000000000004
46 0.14
-46 0.86
47 0.38
-47 0.62
48 0.75
-48 0.25
49 0.18
-49 0.8200000000000001
50 0.19
-50 0.81
51 0.29
-51 0.71
52 0.72
-52 0.28
53 0.95
-53 0.050000000000000044
54 0.67
-54 0.32999999999999996
55 0.12
-55 0.88
56 0.92
-56 0.07999999999999996
57 0.83
-57 0.17000000000000004
58 0.7
-58 0.30000000000000004
59 0.79
-59 0.20999999999999996
60 0.36
-60 0.64
61 0.34
-61 0.6599999999999999
62 0.4
-62 0.6
63 0.89
-63 0.10999999999999999
64 0.27
-64 0.73
65 0.81
-65 0.18999999999999995
66 0.87
-66 0.13
67 0.55
-67 0.44999999999999996
68 0.9
-68 0.09999999999999998
69 0.33
-69 0.6699999999999999
70 0.69
-70 0.31000000000000005
