1 0.44
-1 0.56
2 0.1
-2 0.9
3 0.4
-3 0.6
4 0.7
-4 0.30000000000000004
5 0.42
-5 0.5800000000000001
6 0.75
-6 0.25
7 0.27
-7 0.73
8 0.54
-8 0.45999999999999996
9 0.1
-9 0.9
10 0.65
-10 0.35
11 0.59
-11 0.41000000000000003
12 0.92
-12 0.07999999999999996
13 0.77
-13 0.22999999999999998
14 0.16
-14 0.84
15 0.62
-15 0.38
16 0.12
-16 0.88
17 0.24
-17 0.76
18 0.04
-18 0.96
19 0.03
-19 0.97
20 0.34
-20 0.6599999999999999
21 0.18
-21 0.8200000000000001
22 0.9
-22 0.09999999999999998
23 0.11
-23 0.89
24 0.38
-24 0.62
25 0.85
-25 0.15000000000000002
26 0.7
-26 0.30000000000000004
27 0.52
-27 0.48
28 0.13
-28 0.87
29 0.7
-29 0.30000000000000004
30 0.98
-30 0.020000000000000018
31 0.24
-31 0.76
32 0.93
-32 0.06999999999999995
33 0.25
-33 0.75
34 0.52
-34 0.48
35 0.33
-35 0.6699999999999999
36 0.62
-36 0.38
37 0.33
-37 0.6699999999999999
38 0.76
-38 0.24
39 0.34
-39 0.6599999999999999
40 0.73
-40 0.27
41 0.82
-41 0.18000000000000005
42 0.08
-42 0.92
43 0.25
-43 0.75
44 0.1
-44 0.9
45 0.8
-45 0.19999999999999996
46 0.23
-46 0.77
47 0.75
-47 0.25
48 0.77
-48 0.22999999999999998
49 0.88
-49 0.12
50 0.86
-50 0.14
51 0.93
-51 0.06999999999999995
52 0.98
-52 0.020000000000000018
53 0.18
-53 0.8200000000000001
54 0.67
-54 0.32999999999999996
55 0.3
-55 0.7
56 0.21
-56 0.79
57 0.54
-57 0.45999999999999996
58 0.72
-58 0.28
59 0.77
-59 0.22999999999999998
60 0.06
-60 0.94
61 0.78
-61 0.21999999999999997
62 0.59
-62 0.41000000000000003
63 0.54
-63 0.45999999999999996
64 0.76
-64 0.24
65 0.58
-65 0.42000000000000004
66 0.52
-66 0.48
67 0.16
-67 0.84
68 0.01
-68 0.99
69 0.56
-69 0.43999999999999995
70 0.26
-70 0.74
