1 0.72
-1 0.28
2 0.6
-2 0.4
3 0.39
-3 0.61
4 0.34
-4 0.6599999999999999
5 0.56
-5 0.43999999999999995
6 0.98
-6 0.020000000000000018
7 0.3
-7 0.7
8 0.19
-8 0.81
9 0.47
-9 0.53
10 0.39
-10 0.61
11 0.82
-11 0.18000000000000005
12 0.01
-12 0.99
13 0.26
-13 0.74
14 0.71
-14 0.29000000000000004
15 0.93
-15 0.06999999999999995
16 0.78
-16 0.21999999999999997
17 0.66
-17 0.33999999999999997
18 0.19
-18 0.81
19 0.33
-19 0.6699999999999999
20 0.91
-20 0.08999999999999997
21 0.63
-21 0.37
22 0.15
-22 0.85
23 0.9
-23 0.09999999999999998
24 0.17
-24 0.83
25 0.76
-25 0.24
26 0.46
-26 0.54
27 0.54
-27 0.45999999999999996
28 0.39
-28 0.61
29 0.16
-29 0.84
30 0.12
-30 0.88
31 0.98
-31 0.020000000000000018
32 0.48
-32 0.52
33 0.78
-33 0.21999999999999997
34 0.54
-34 0.45999999999999996
35 0.47
-35 0.53
36 0.58
-36 0.42000000000000004
37 0.77
-37 0.22999999999999998
38 0.84
-38 0.16000000000000003
39 0.91
-39 0.08999999999999997
40 0.57
-40 0.43000000000000005
41 0.81
-41 0.18999999999999995
42 0.3
-42 0.7
43 0.43
-43 0.5700000000000001
44 0.03
-44 0.97
45 0.22
-45 0.78
46 0.88
-46 0.12
47 0.5
-47 0.5
48 0.86
-48 0.14
49 0.53
-49 0.47
50 0.06
-50 0.94
51 0.64
-51 0.36
52 0.09
-52 0.91
53 0.87
-53 0.13
54 0.03
-54 0.97
55 0.56
-55 0.43999999999999995
56 0.4
-56 0.6
57 0.36
-57 0.64
58 0.09
-58 0.91
59 0.26
-59 0.74
60 0.25
-60 0.75
61 0.25
-61 0.75
62 0.84
-62 0.16000000000000003
63 0.57
-63 0.43000000000000005
64 0.68
-64 0.31999999999999995
65 0.65
-65 0.35
66 0.13
-66 0.87
67 0.29
-67 0.71
68 0.71
-68 0.29000000000000004
69 0.56
-69 0.43999999999999995
70 0.47
-70 0.53
