1 0.75
-1 0.25
2 0.07
-2 0.9299999999999999
3 0.96
-3 0.040000000000000036
4 0.22
-4 0.78
5 0.65
-5 0.35
6 0.2
-6 0.8
7 0.72
-7 0.28
8 0.76
-8 0.24
9 0.95
-9 0.050000000000000044
10 0.76
-10 0.24
11 0.69
-11 0.31000000000000005
12 0.82
-12 0.18000000000000005
13 0.85
-13 0.15000000000000002
14 0.05
-14 0.95
15 0.76
-15 0.24
16 0.6
-16 0.4
17 0.97
-17 0.030000000000000027
18 0.7
-18 0.30000000000000004
19 0.72
-19 0.28
20 0.43
-20 0.5700000000000001
21 0.82
-21 0.18000000000000005
22 0.25
-22 0.75
23 0.36
-23 0.64
24 0.6
-24 0.4
25 0.94
-25 0.06000000000000005
26 0.51
-26 0.49
27 0.27
-27 0.73
28 0.85
-28 0.15000000000000002
29 0.59
-29 0.41000000000000003
30 0.4
-30 0.6
31 0.03
-31 0.97
32 0.52
-32 0.48
33 0.55
-33 0.44999999999999996
34 0.28
-34 0.72
35 0.84
-35 0.16000000000000003
36 0.2
-36 0.8
37 0.08
-37 0.92
38 0.88
-38 0.12
39 0.03
-39 0.97
40 0.61
-40 0.39
41 0.31
-41 0.69
42 0.64
-42 0.36
43 0.65
-43 0.35
44 0.93
-44 0.06999999999999995
45 0.88
-45 0.12
46 0.56
-46 0.43999999999999995
47 0.26
-47 0.74
48 0.43
-48 0.5700000000000001
49 0.16
-49 0.84
50 0.83
-50 0.17000000000000004
51 0.47
-51 0.53
52 0.87
-52 0.13
53 0.44
-53 0.56
54 0.68
-54 0.31999999999999995
55 0.61
-55 0.39
56 0.05
-56 0.95
57 0.02
-57 0.98
58 0.17
-58 0.83
59 0.25
-59 0.75
60 0.04
-60 0.96
61 0.47
-61 0.53
62 0.56
-62 0.43999999999999995
63 0.8
-63 0.19999999999999996
64 0.84
-64 0.16000000000000003
65 0.09
-65 0.91
66 0.51
-66 0.49
67 0.96
-67 0.040000000000000036
68 0.2
-68 0.8
69 0.26
-69 0.74
70 0.38
-70 0.62
