1 0.24
-1 0.76
2 0.46
-2 0.54
3 0.18
-3 0.8200000000000001
4 0.33
-4 0.6699999999999999
5 0.27
-5 0.73
6 0.73
-6 0.27
7 0.88
-7 0.12
8 0.55
-8 0.44999999999999996
9 0.73
-9 0.27
10 0.43
-10 0.5700000000000001
11 0.89
-11 0.10999999999999999
12 0.53
-12 0.47
13 0.47
-13 0.53
14 0.28
-14 0.72
15 0.2
-15 0.8
16 0.23
-16 0.77
17 0.86
-17 0.14
18 0.61
-18 0.39
19 0.88
-19 0.12
20 0.3
-20 0.7
21 0.34
-21 0.6599999999999999
22 0.06
-22 0.94
23 0.25
-23 0.75
24 0.4
-24 0.6
25 0.9
-25 0.09999999999999998
26 0.64
-26 0.36
27 0.42
-27 0.5800000000000001
28 0.79
-28 0.20999999999999996
29 0.35
-29 0.65
30 0.34
-30 0.6599999999999999
31 0.56
-31 0.43999999999999995
32 0.42
-32 0.5800000000000001
33 0.7
-33 0.30000000000000004
34 0.33
-34 0.6699999999999999
35 0.95
-35 0.050000000000000044
36 0.44
-36 0.56
37 0.22
-37 0.78
38 0.71
-38 0.29000000000000004
39 0.46
-39 0.54
40 0.66
-40 0.33999999999999997
41 0.42
-41 0.5800000000000001
42 0.85
-42 0.15000000000000002
43 0.78
-43 0.21999999999999997
44 0.67
-44 0.32999999999999996
45 0.39
-45 0.61
46 0.58
-46 0.42000000000000004
47 0.16
-47 0.84
48 0.39
-48 0.61
49 0.19
-49 0.81
50 0.21
-50 0.79
51 0.48
-51 0.52
52 0.48
-52 0.52
53 0.83
-53 0.17000000000000004
54 0.15
-54 0.85
55 0.14
-55 0.86
56 0.02
-56 0.98
57 0.29
-57 0.71
58 0.43
-58 0.5700000000000001
59 0.66
-59 0.33999999999999997
60 0.84
-60 0.16000000000000003
61 0.24
-61 0.76
62 0.2
-62 0.8
63 0.41
-63 0.5900000000000001
64 0.27
-64 0.73
65 0.27
-65 0.73
66 0.13
-66 0.87
67 0.87
-67 0.13
68 0.73
-68 0.27
69 0.08
-69 0.92
70 0.57
-70 0.43000000000000005
