1 0.69
-1 0.31000000000000005
2 0.23
-2 0.77
3 0.05
-3 0.95
4 0.46
-4 0.54
5 0.88
-5 0.12
6 0.64
-6 0.36
7 0.23
-7 0.77
8 0.85
-8 0.15000000000000002
9 0.96
-9 0.040000000000000036
10 0.81
-10 0.18999999999999995
11 0.69
-11 0.31000000000000005
12 0.38
-12 0.62
13 0.55
-13 0.44999999999999996
14 0.31
-14 0.69
15 0.25
-15 0.75
16 0.16
-16 0.84
17 0.07
-17 0.9299999999999999
18 0.04
-18 0.96
19 0.37
-19 0.63
20 0.34
-20 0.6599999999999999
21 0.19
-21 0.81
22 0.31
-22 0.69
23 0.27
-23 0.73
24 0.72
-24 0.28
25 0.98
-25 0.020000000000000018
26 0.37
-26 0.63
27 0.06
-27 0.94
28 0.47
-28 0.53
29 0.58
-29 0.42000000000000004
30 0.08
-30 0.92
31 0.66
-31 0.33999999999999997
32 0.53
-32 0.47
33 0.02
-33 0.98
34 0.53
-34 0.47
35 0.65
-35 0.35
36 0.19
-36 0.81
37 0.79
-37 0.20999999999999996
38 0.4
-38 0.6
39 0.23
-39 0.77
40 0.09
-40 0.91
41 0.8
-41 0.19999999999999996
42 0.9
-42 0.09999999999999998
43 0.22
-43 0.78
44 0.26
-44 0.74
45 0.02
-45 0.98
46 0.91
-46 0.08999999999999997
47 0.29
-47 0.71
48 0.36
-48 0.64
49 0.02
-49 0.98
50 0.11
-50 0.89
51 0.22
-51 0.78
52 0.32
-52 0.6799999999999999
53 0.77
-53 0.22999999999999998
54 0.92
-54 0.07999999999999996
55 0.93
-55 0.06999999999999995
56 0.56
-56 0.43999999999999995
57 0.78
-57 0.21999999999999997
58 0.26
-58 0.74
59 0.2
-59 0.8
60 0.95
-60 0.050000000000000044
61 0.96
-61 0.040000000000000036
62 0.14
-62 0.86
63 0.27
-63 0.73
64 0.45
-64 0.55
65 0.3
-65 0.7
66 0.75
-66 0.25
67 0.57
-67 0.43000000000000005
68 0.43
-68 0.5700000000000001
69 0.79
-69 0.20999999999999996
70 0.3
-70 0.7
