1 0.06
-1 0.94
2 0.73
-2 0.27
3 0.46
-3 0.54
4 0.37
-4 0.63
5 0.3
-5 0.7
6 0.57
-6 0.43000000000000005
7 0.6
-7 0.4
8 0.77
-8 0.22999999999999998
9 0.06
-9 0.94
10 0.77
-10 0.22999999999999998
11 0.64
-11 0.36
12 0.25
-12 0.75
13 0.69
-13 0.31000000000000005
14 0.4
-14 0.6
15 0.34
-15 0.6599999999999999
16 0.99
-16 0.010000000000000009
17 0.31
-17 0.69
18 0.22
-18 0.78
19 0.96
-19 0.040000000000000036
20 0.01
-20 0.99
21 0.92
-21 0.07999999999999996
22 0.51
-22 0.49
23 0.54
-23 0.45999999999999996
24 0.02
-24 0.98
25 0.93
-25 0.06999999999999995
26 0.08
-26 0.92
27 0.11
-27 0.89
28 0.2
-28 0.8
29 0.2
-29 0.8
30 0.82
-30 0.18000000000000005
31 0.15
-31 0.85
32 0.07
-32 0.9299999999999999
33 0.47
-33 0.53
34 0.62
-34 0.38
35 0.84
-35 0.16000000000000003
36 0.06
-36 0.94
37 0.61
-37 0.39
38 0.54
-38 0.45999999999999996
39 0.83
-39 0.17000000000000004
40 0.64
-40 0.36
41 0.36
-41 0.64
42 0.62
-42 0.38
43 0.43
-43 0.5700000000000001
44 0.35
-44 0.65
45 0.03
-45 0.97
46 0.05
-46 0.95
47 0.75
-47 0.25
48 0.21
-48 0.79
49 0.88
-49 0.12
50 0.45
-50 0.55
51 0.59
-51 0.41000000000000003
52 0.66
-52 0.33999999999999997
53 0.95
-53 0.050000000000000044
54 0.72
-54 0.28
55 0.43
-55 0.5700000000000001
56 0.56
-56 0.43999999999999995
57 0.68
-57 0.31999999999999995
58 0.09
-58 0.91
59 0.2
-59 0.8
60 0.25
-60 0.75
61 0.7
-61 0.30000000000000004
62 0.01
-62 0.99
63 0.28
-63 0.72
64 0.31
-64 0.69
65 0.25
-65 0.75
66 0.85
-66 0.15000000000000002
67 0.14
-67 0.86
68 0.8
-68 0.19999999999999996
69 0.1
-69 0.9
70 0.31
-70 0.69
