1 0.54
-1 0.45999999999999996
2 0.61
-2 0.39
3 0.43
-3 0.5700000000000001
4 0.15
-4 0.85
5 0.88
-5 0.12
6 0.04
-6 0.96
7 0.15
-7 0.85
8 0.6
-8 0.4
9 0.08
-9 0.92
10 0.35
-10 0.65
11 0.86
-11 0.14
12 0.75
-12 0.25
13 0.11
-13 0.89
14 0.54
-14 0.45999999999999996
15 0.42
-15 0.5800000000000001
16 0.4
-16 0.6
17 0.1
-17 0.9
18 0.33
-18 0.6699999999999999
19 0.68
-19 0.31999999999999995
20 0.81
-20 0.18999999999999995
21 0.41
-21 0.5900000000000001
22 0.14
-22 0.86
23 0.87
-23 0.13
24 0.43
-24 0.5700000000000001
25 0.71
-25 0.29000000000000004
26 0.7
-26 0.30000000000000004
27 0.88
-27 0.12
28 0.29
-28 0.71
29 0.98
-29 0.020000000000000018
30 0.8
-30 0.19999999999999996
31 0.76
-31 0.24
32 0.31
-32 0.69
33 0.12
-33 0.88
34 0.93
-34 0.06999999999999995
35 0.9
-35 0.09999999999999998
36 0.01
-36 0.99
37 0.81
-37 0.18999999999999995
38 0.73
-38 0.27
39 0.53
-39 0.47
40 0.06
-40 0.94
41 0.66
-41 0.33999999999999997
42 0.54
-42 0.45999999999999996
43 0.48
-43 0.52
44 0.6
-44 0.4
45 0.86
-45 0.14
46 0.44
-46 0.56
47 0.39
-47 0.61
48 0.4
-48 0.6
49 0.73
-49 0.27
50 0.56
-50 0.43999999999999995
51 0.37
-51 0.63
52 0.58
-52 0.42000000000000004
53 0.95
-53 0.050000000000000044
54 0.38
-54 0.62
55 0.29
-55 0.71
56 0.06
-56 0.94
57 0.25
-57 0.75
58 0.23
-58 0.77
59 0.99
-59 0.010000000000000009
60 0.6
-60 0.4
61 0.49
-61 0.51
62 0.5
-62 0.5
63 0.43
-63 0.5700000000000001
64 0.23
-64 0.77
65 0.37
-65 0.63
66 0.45
-66 0.55
67 0.71
-67 0.29000000000000004
68 0.98
-68 0.020000000000000018
69 0.28
-69 0.72
70 0.71
-70 0.29000000000000004
