1 0.2
-1 0.8
2 0.1
-2 0.9
3 0.72
-3 0.28
4 0.05
-4 0.95
5 0.82
-5 0.18000000000000005
6 0.18
-6 0.8200000000000001
7 0.52
-7 0.48
8 0.67
-8 0.32999999999999996
9 0.2
-9 0.8
10 0.99
-10 0.010000000000000009
11 0.46
-11 0.54
12 0.73
-12 0.27
13 0.57
-13 0.43000000000000005
14 0.11
-14 0.89
15 0.6
-15 0.4
16 0.48
-16 0.52
17 0.58
-17 0.42000000000000004
18 0.34
-18 0.6599999999999999
19 0.78
-19 0.21999999999999997
20 0.52
-20 0.48
21 0.62
-21 0.38
22 0.14
-22 0.86
23 0.01
-23 0.99
24 0.83
-24 0.17000000000000004
25 0.11
-25 0.89
26 0.35
-26 0.65
27 0.37
-27 0.63
28 0.51
-28 0.49
29 0.31
-29 0.69
30 0.47
-30 0.53
31 0.47
-31 0.53
32 0.6
-32 0.4
33 0.28
-33 0.72
34 0.37
-34 0.63
35 0.92
-35 0.07999999999999996
36 0.48
-36 0.52
37 0.67
-37 0.32999999999999996
38 0.78
-38 0.21999999999999997
39 0.8
-39 0.19999999999999996
40 0.38
-40 0.62
41 0.45
-41 0.55
42 0.67
-42 0.32999999999999996
43 0.67
-43 0.32999999999999996
44 0.29
-44 0.71
45 0.62
-45 0.38
46 0.58
-46 0.42000000000000004
47 0.9
-47 0.09999999999999998
48 0.37
-48 0.63
49 0.27
-49 0.73
50 0.91
-50 0.08999999999999997
51 0.97
-51 0.030000000000000027
52 0.67
-52 0.32999999999999996
53 0.03
-53 0.97
54 0.29
-54 0.71
55 0.27
-55 0.73
56 0.18
-56 0.8200000000000001
57 0.72
-57 0.28
58 0.99
-58 0.010000000000000009
59 0.86
-59 0.14
60 0.21
-60 0.79
61 0.14
-61 0.86
62 0.37
-62 0.63
63 0.81
-63 0.18999999999999995
64 0.33
-64 0.6699999999999999
65 0.39
-65 0.61
66 0.32
-66 0.6799999999999999
67 0.76
-67 0.24
68 0.99
-68 0.010000000000000009
69 0.46
-69 0.54
70 0.51
-70 0.49
