1 0.07
-1 0.9299999999999999
2 0.72
-2 0.28
3 0.72
-3 0.28
4 0.96
-4 0.040000000000000036
5 0.45
-5 0.55
6 0.06
-6 0.94
7 0.44
-7 0.56
8 0.72
-8 0.28
9 0.8
-9 0.19999999999999996
10 0.47
-10 0.53
11 0.65
-11 0.35
12 0.83
-12 0.17000000000000004
13 0.48
-13 0.52
14 0.99
-14 0.010000000000000009
15 0.38
-15 0.62
16 0.7
-16 0.30000000000000004
17 0.72
-17 0.28
18 0.37
-18 0.63
19 0.51
-19 0.49
20 0.57
-20 0.43000000000000005
21 0.94
-21 0.06000000000000005
22 0.18
-22 0.8200000000000001
23 0.51
-23 0.49
24 0.95
-24 0.050000000000000044
25 0.24
-25 0.76
26 0.89
-26 0.10999999999999999
27 0.87
-27 0.13
28 0.51
-28 0.49
29 0.13
-29 0.87
30 0.99
-30 0.010000000000000009
31 0.69
-31 0.31000000000000005
32 0.31
-32 0.69
33 0.77
-33 0.22999999999999998
34 0.28
-34 0.72
35 0.97
-35 0.030000000000000027
36 0.92
-36 0.07999999999999996
37 0.94
-37 0.06000000000000005
38 0.14
-38 0.86
39 0.15
-39 0.85
40 0.02
-40 0.98
41 0.7
-41 0.30000000000000004
42 0.41
-42 0.5900000000000001
43 0.04
-43 0.96
44 0.96
-44 0.040000000000000036
45 0.19
-45 0.81
46 0.21
-46 0.79
47 0.28
-47 0.72
48 0.14
-48 0.86
49 0.65
-49 0.35
50 0.82
-50 0.18000000000000005
51 0.93
-51 0.06999999999999995
52 0.04
-52 0.96
53 0.11
-53 0.89
54 0.73
-54 0.27
55 0.07
-55 0.9299999999999999
56 0.43
-56 0.5700000000000001
57 0.2
-57 0.8
58 0.23
-58 0.77
59 0.48
-59 0.52
60 0.51
-60 0.49
61 0.97
-61 0.030000000000000027
62 0.97
-62 0.030000000000000027
63 0.25
-63 0.75
64 0.86
-64 0.14
65 0.42
-65 0.5800000000000001
66 0.37
-66 0.63
67 0.8
-67 0.19999999999999996
68 0.41
-68 0.5900000000000001
69 0.79
-69 0.20999999999999996
70 0.15
-70 0.85
