1 0.97
-1 0.030000000000000027
2 0.36
-2 0.64
3 0.93
-3 0.06999999999999995
4 0.42
-4 0.5800000000000001
5 0.2
-5 0.8
6 0.9
-6 0.09999999999999998
7 0.81
-7 0.18999999999999995
8 0.26
-8 0.74
9 0.79
-9 0.20999999999999996
10 0.81
-10 0.18999999999999995
11 0.15
-11 0.85
12 0.14
-12 0.86
13 0.2
-13 0.8
14 0.84
-14 0.16000000000000003
15 0.21
-15 0.79
16 0.76
-16 0.24
17 0.16
-17 0.84
18 0.65
-18 0.35
19 0.65
-19 0.35
20 0.07
-20 0.9299999999999999
21 0.26
-21 0.74
22 0.82
-22 0.18000000000000005
23 0.6
-23 0.4
24 0.71
-24 0.29000000000000004
25 0.83
-25 0.17000000000000004
26 0.59
-26 0.41000000000000003
27 0.32
-27 0.6799999999999999
28 0.71
-28 0.29000000000000004
29 0.02
-29 0.98
30 0.15
-30 0.85
31 0.24
-31 0.76
32 0.9
-32 0.09999999999999998
33 0.61
-33 0.39
34 0.63
-34 0.37
35 0.23
-35 0.77
36 0.42
-36 0.5800000000000001
37 0.9
-37 0.09999999999999998
38 0.97
-38 0.030000000000000027
39 0.52
-39 0.48
40 0.12
-40 0.88
41 0.16
-41 0.84
42 0.45
-42 0.55
43 0.02
-43 0.98
44 0.93
-44 0.06999999999999995
45 0.95
-45 0.050000000000000044
46 0.34
-46 0.6599999999999999
47 0.66
-47 0.33999999999999997
48 0.63
-48 0.37
49 0.99
-49 0.010000000000000009
50 0.14
-50 0.86
51 0.45
-51 0.55
52 0.88
-52 0.12
53 0.8
-53 0.19999999999999996
54 0.8
-54 0.19999999999999996
55 0.93
-55 0.06999999999999995
56 0.58
-56 0.42000000000000004
57 0.18
-57 0.8200000000000001
58 0.63
-58 0.37
59 0.34
-59 0.6599999999999999
60 0.62
-60 0.38
61 0.71
-61 0.29000000000000004
62 0.29
-62 0.71
63 0.88
-63 0.12
64 0.59
-64 0.41000000000000003
65 0.38
-65 0.62
66 0.22
-66 0.78
67 0.49
-67 0.51
68 0.93
-68 0.06999999999999995
69 0.54
-69 0.45999999999999996
70 0.84
-70 0.16000000000000003
