1 0.66
-1 0.33999999999999997
2 0.76
-2 0.24
3 0.84
-3 0.16000000000000003
4 0.25
-4 0.75
5 0.78
-5 0.21999999999999997
6 0.88
-6 0.12
7 0.67
-7 0.32999999999999996
8 0.28
-8 0.72
9 0.11
-9 0.89
10 0.33
-10 0.6699999999999999
11 0.62
-11 0.38
12 0.8
-12 0.19999999999999996
13 0.47
-13 0.53
14 0.41
-14 0.5900000000000001
15 0.96
-15 0.040000000000000036
16 0.82
-16 0.18000000000000005
17 0.19
-17 0.81
18 0.59
-18 0.41000000000000003
19 0.48
-19 0.52
20 0.71
-20 0.29000000000000004
21 0.45
-21 0.55
22 0.66
-22 0.33999999999999997
23 0.93
-23 0.06999999999999995
24 0.07
-24 0.9299999999999999
25 0.82
-25 0.18000000000000005
26 0.31
-26 0.69
27 0.1
-27 0.9
28 0.61
-28 0.39
29 0.61
-29 0.39
30 0.7
-30 0.30000000000000004
31 0.84
-31 0.16000000000000003
32 0.07
-32 0.9299999999999999
33 0.33
-33 0.6699999999999999
34 0.78
-34 0.21999999999999997
35 0.18
-35 0.8200000000000001
36 0.17
-36 0.83
37 0.04
-37 0.96
38 0.12
-38 0.88
39 0.55
-39 0.44999999999999996
40 0.42
-40 0.5800000000000001
41 0.98
-41 0.020000000000000018
42 0.64
-42 0.36
43 0.74
-43 0.26
44 0.9
-44 0.09999999999999998
45 0.54
-45 0.45999999999999996
46 0.7
-46 0.30000000000000004
47 0.57
-47 0.43000000000000005
48 0.19
-48 0.81
49 0.32
-49 0.6799999999999999
50 0.2
-50 0.8
51 0.06
-51 0.94
52 0.1
-52 0.9
53 0.27
-53 0.73
54 0.78
-54 0.21999999999999997
55 0.96
-55 0.040000000000000036
56 0.44
-56 0.56
57 0.59
-57 0.41000000000000003
58 0.2
-58 0.8
59 0.82
-59 0.18000000000000005
60 0.97
-60 0.030000000000000027
61 0.19
-61 0.81
62 0.85
-62 0.15000000000000002
63 0.6
-63 0.4
64 0.68
-64 0.31999999999999995
65 0.66
-65 0.33999999999999997
66 0.55
-66 0.44999999999999996
67 0.49
-67 0.51
68 0.35
-68 0.65
69 0.02
-69 0.98
70 0.23
-70 0.77
