1 0.88
-1 0.12
2 0.25
-2 0.75
3 0.13
-3 0.87
4 0.62
-4 0.38
5 0.92
-5 0.07999999999999996
6 0.18
-6 0.8200000000000001
7 0.05
-7 0.95
8 0.66
-8 0.33999999999999997
9 0.92
-9 0.07999999999999996
10 0.24
-10 0.76
11 0.79
-11 0.20999999999999996
12 0.24
-12 0.76
13 0.28
-13 0.72
14 0.77
-14 0.22999999999999998
15 0.01
-15 0.99
16 0.36
-16 0.64
17 0.06
-17 0.94
18 0.06
-18 0.94
19 0.35
-19 0.65
20 0.86
-20 0.14
21 0.57
-21 0.43000000000000005
22 0.59
-22 0.41000000000000003
23 0.22
-23 0.78
24 0.36
-24 0.64
25 0.28
-25 0.72
26 0.83
-26 0.17000000000000004
27 0.45
-27 0.55
28 0.59
-28 0.41000000000000003
29 0.03
-29 0.97
30 0.06
-30 0.94
31 0.29
-31 0.71
32 0.63
-32 0.37
33 0.6
-33 0.4
34 0.5
-34 0.5
35 0.52
-35 0.48
36 0.25
-36 0.75
37 0.01
-37 0.99
38 0.67
-38 0.32999999999999996
39 0.36
-39 0.64
40 0.23
-40 0.77
41 0.7
-41 0.30000000000000004
42 0.81
-42 0.18999999999999995
43 0.12
-43 0.88
44 0.64
-44 0.36
45 0.46
-45 0.54
46 0.87
-46 0.13
47 0.21
-47 0.79
48 0.67
-48 0.32999999999999996
49 0.6
-49 0.4
50 0.26
-50 0.74
51 0.04
-51 0.96
52 0.76
-52 0.24
53 0.85
-53 0.15000000000000002
54 0.73
-54 0.27
55 0.21
-55 0.79
56 0.53
-56 0.47
57 0.08
-57 0.92
58 0.03
-58 0.97
59 0.11
-59 0.89
60 0.66
-60 0.33999999999999997
61 0.31
-61 0.69
62 0.11
-62 0.89
63 0.11
-63 0.89
64 0.44
-64 0.56
65 0.56
-65 0.43999999999999995
66 0.63
-66 0.37
67 0.79
-67 0.20999999999999996
68 0.9
-68 0.09999999999999998
69 0.53
-69 0.47
70 0.72
-70 0.28
