1 0.64
-1 0.36
2 0.75
-2 0.25
3 0.95
-3 0.050000000000000044
4 0.71
-4 0.29000000000000004
5 0.06
-5 0.94
6 0.91
-6 0.08999999999999997
7 0.69
-7 0.31000000000000005
8 0.31
-8 0.69
9 0.24
-9 0.76
10 0.55
-10 0.44999999999999996
11 0.26
-11 0.74
12 0.27
-12 0.73
13 0.79
-13 0.20999999999999996
14 0.09
-14 0.91
15 0.65
-15 0.35
16 0.15
-16 0.85
17 0.55
-17 0.44999999999999996
18 0.85
-18 0.15000000000000002
19 0.99
-19 0.010000000000000009
20 0.34
-20 0.6599999999999999
21 0.68
-21 0.31999999999999995
22 0.42
-22 0.5800000000000001
23 0.31
-23 0.69
24 0.82
-24 0.18000000000000005
25 0.42
-25 0.5800000000000001
26 0.58
-26 0.42000000000000004
27 0.7
-27 0.30000000000000004
28 0.22
-28 0.78
29 0.85
-29 0.15000000000000002
30 0.76
-30 0.24
31 0.78
-31 0.21999999999999997
32 0.18
-32 0.8200000000000001
33 0.88
-33 0.12
34 0.94
-34 0.06000000000000005
35 0.57
-35 0.43000000000000005
36 0.53
-36 0.47
37 0.78
-37 0.21999999999999997
38 0.72
-38 0.28
39 0.48
-39 0.52
40 0.43
-40 0.5700000000000001
41 0.68
-41 0.31999999999999995
42 0.28
-42 0.72
43 0.55
-43 0.44999999999999996
44 0.34
-44 0.6599999999999999
45 0.74
-45 0.26
46 0.19
-46 0.81
47 0.15
-47 0.85
48 0.36
-48 0.64
49 0.88
-49 0.12
50 0.45
-50 0.55
51 0.84
-51 0.16000000000000003
52 0.56
-52 0.43999999999999995
53 0.35
-53 0.65
54 0.1
-54 0.9
55 0.45
-55 0.55
56 0.62
-56 0.38
57 0.76
-57 0.24
58 0.59
-58 0.41000000000000003
59 0.08
-59 0.92
60 0.27
-60 0.73
61 0.57
-61 0.43000000000000005
62 0.5
-62 0.5
63 0.33
-63 0.6699999999999999
64 0.57
-64 0.43000000000000005
65 0.62
-65 0.38
66 0.76
-66 0.24
67 0.59
-67 0.41000000000000003
68 0.38
-68 0.62
69 0.13
-69 0.87
70 0.18
-70 0.8200000000000001
