1 0.06
-1 0.94
2 0.19
-2 0.81
3 0.74
-3 0.26
4 0.26
-4 0.74
5 0.37
-5 0.63
6 0.15
-6 0.85
7 0.76
-7 0.24
8 0.11
-8 0.89
9 0.84
-9 0.16000000000000003
10 0.5
-10 0.5
11 0.35
-11 0.65
12 0.08
-12 0.92
13 0.69
-13 0.31000000000000005
14 0.96
-14 0.040000000000000036
15 0.95
-15 0.050000000000000044
16 0.74
-16 0.26
17 0.17
-17 0.83
18 0.72
-18 0.28
19 0.16
-19 0.84
20 0.75
-20 0.25
21 0.86
-21 0.14
22 0.69
-22 0.31000000000000005
23 0.77
-23 0.22999999999999998
24 0.46
-24 0.54
25 0.94
-25 0.06000000000000005
26 0.82
-26 0.18000000000000005
27 0.33
-27 0.6699999999999999
28 0.12
-28 0.88
29 0.18
-29 0.8200000000000001
30 0.7
-30 0.30000000000000004
31 0.78
-31 0.21999999999999997
32 0.98
-32 0.020000000000000018
33 0.01
-33 0.99
34 0.41
-34 0.5900000000000001
35 0.7
-35 0.30000000000000004
36 0.46
-36 0.54
37 0.49
-37 0.51
38 0.97
-38 0.030000000000000027
39 0.23
-39 0.77
40 0.17
-40 0.83
41 0.61
-41 0.39
42 0.29
-42 0.71
43 0.04
-43 0.96
44 0.67
-44 0.32999999999999996
45 0.6
-45 0.4
46 0.8
-46 0.19999999999999996
47 0.52
-47 0.48
48 0.82
-48 0.18000000000000005
49 0.65
-49 0.35
50 0.72
-50 0.28
51 0.11
-51 0.89
52 0.28
-52 0.72
53 0.84
-53 0.16000000000000003
54 0.1
-54 0.9
55 0.99
-55 0.010000000000000009
56 0.6
-56 0.4
57 0.25
-57 0.75
58 0.24
-58 0.76
59 0.6
-59 0.4
60 0.62
-60 0.38
61 0.26
-61 0.74
62 0.81
-62 0.18999999999999995
63 0.86
-63 0.14
64 0.01
-64 0.99
65 0.3
-65 0.7
66 0.51
-66 0.49
67 0.88
-67 0.12
68 0.79
-68 0.20999999999999996
69 0.64
-69 0.36
70 0.03
-70 0.97
