1 0.81
-1 0.18999999999999995
2 0.41
-2 0.5900000000000001
3 0.19
-3 0.81
4 0.74
-4 0.26
5 0.62
-5 0.38
6 0.85
-6 0.15000000000000002
7 0.08
-7 0.92
8 0.61
-8 0.39
9 0.28
-9 0.72
10 0.81
-10 0.18999999999999995
11 0.98
-11 0.020000000000000018
12 0.45
-12 0.55
13 0.25
-13 0.75
14 0.25
-14 0.75
15 0.61
-15 0.39
16 0.91
-16 0.08999999999999997
17 0.18
-17 0.8200000000000001
18 0.77
-18 0.22999999999999998
19 0.89
-19 0.10999999999999999
20 0.62
-20 0.38
21 0.71
-21 0.29000000000000004
22 0.28
-22 0.72
23 0.31
-23 0.69
24 0.3
-24 0.7
25 0.85
-25 0.15000000000000002
26 0.25
-26 0.75
27 0.31
-27 0.69
28 0.27
-28 0.73
29 0.72
-29 0.28
30 0.56
-30 0.43999999999999995
31 0.57
-31 0.43000000000000005
32 0.48
-32 0.52
33 0.9
-33 0.09999999999999998
34 0.33
-34 0.6699999999999999
35 0.75
-35 0.25
36 0.92
-36 0.07999999999999996
37 0.4
-37 0.6
38 0.24
-38 0.76
39 0.25
-39 0.75
40 0.24
-40 0.76
41 0.15
-41 0.85
42 0.95
-42 0.050000000000000044
43 0.35
-43 0.65
44 0.28
-44 0.72
45 0.78
-45 0.21999999999999997
46 0.11
-46 0.89
47 0.93
-47 0.06999999999999995
48 0.71
-48 0.29000000000000004
49 0.34
-49 0.6599999999999999
50 0.74
-50 0.26
51 0.18
-51 0.8200000000000001
52 0.63
-52 0.37
53 0.23
-53 0.77
54 0.01
-54 0.99
55 0.19
-55 0.81
56 0.35
-56 0.65
57 0.68
-57 0.31999999999999995
58 0.11
-58 0.89
59 0.68
-59 0.31999999999999995
60 0.12
-60 0.88
61 0.94
-61 0.06000000000000005
62 0.75
-62 0.25
63 0.4
-63 0.6
64 0.33
-64 0.6699999999999999
65 0.31
-65 0.69
66 0.45
-66 0.55
67 0.34
-67 0.6599999999999999
68 0.58
-68 0.42000000000000004
69 0.73
-69 0.27
70 0.76
-70 0.24
