1 0.2
-1 0.8
2 0.89
-2 0.10999999999999999
3 0.69
-3 0.31000000000000005
4 0.95
-4 0.050000000000000044
5 0.39
-5 0.61
6 0.3
-6 0.7
7 0.68
-7 0.31999999999999995
8 0.29
-8 0.71
9 0.82
-9 0.18000000000000005
10 0.47
-10 0.53
11 0.65
-11 0.35
12 0.66
-12 0.33999999999999997
13 0.15
-13 0.85
14 0.01
-14 0.99
15 0.75
-15 0.25
16 0.69
-16 0.31000000000000005
17 0.95
-17 0.050000000000000044
18 0.25
-18 0.75
19 0.36
-19 0.64
20 0.52
-20 0.48
21 0.02
-21 0.98
22 0.1
-22 0.9
23 0.94
-23 0.06000000000000005
24 0.48
-24 0.52
25 0.8
-25 0.19999999999999996
26 0.98
-26 0.020000000000000018
27 0.26
-27 0.74
28 0.87
-28 0.13
29 0.49
-29 0.51
30 0.78
-30 0.21999999999999997
31 0.02
-31 0.98
32 0.26
-32 0.74
33 0.75
-33 0.25
34 0.19
-34 0.81
35 0.51
-35 0.49
36 0.78
-36 0.21999999999999997
37 0.76
-37 0.24
38 0.47
-38 0.53
39 0.55
-39 0.44999999999999996
40 0.25
-40 0.75
41 0.72
-41 0.28
42 0.16
-42 0.84
43 0.51
-43 0.49
44 0.66
-44 0.33999999999999997
45 0.15
-45 0.85
46 0.07
-46 0.9299999999999999
47 0.7
-47 0.30000000000000004
48 0.3
-48 0.7
49 0.03
-49 0.97
50 0.42
-50 0.5800000000000001
51 0.85
-51 0.15000000000000002
52 0.08
-52 0.92
53 0.65
-53 0.35
54 0.77
-54 0.22999999999999998
55 0.1
-55 0.9
56 0.76
-56 0.24
57 0.71
-57 0.29000000000000004
58 0.94
-58 0.06000000000000005
59 0.91
-59 0.08999999999999997
60 0.99
-60 0.010000000000000009
61 0.78
-61 0.21999999999999997
62 0.62
-62 0.38
63 0.05
-63 0.95
64 0.06
-64 0.94
65 0.47
-65 0.53
66 0.47
-66 0.53
67 0.38
-67 0.62
68 0.07
-68 0.9299999999999999
69 0.05
-69 0.95
70 0.3
-70 0.7
