1 0.47
-1 0.53
2 0.43
-2 0.5700000000000001
3 0.98
-3 0.020000000000000018
4 0.39
-4 0.61
5 0.75
-5 0.25
6 0.6
-6 0.4
7 0.23
-7 0.77
8 0.98
-8 0.020000000000000018
9 0.98
-9 0.020000000000000018
10 0.47
-10 0.53
11 0.02
-11 0.98
12 0.33
-12 0.6699999999999999
13 0.88
-13 0.12
14 0.62
-14 0.38
15 0.03
-15 0.97
16 0.12
-16 0.88
17 0.16
-17 0.84
18 0.58
-18 0.42000000000000004
19 0.93
-19 0.06999999999999995
20 0.56
-20 0.43999999999999995
21 0.77
-21 0.22999999999999998
22 0.19
-22 0.81
23 0.41
-23 0.5900000000000001
24 0.18
-24 0.8200000000000001
25 0.78
-25 0.21999999999999997
26 0.89
-26 0.10999999999999999
27 0.36
-27 0.64
28 0.06
-28 0.94
29 0.67
-29 0.32999999999999996
30 0.2
-30 0.8
31 0.2
-31 0.8
32 0.9
-32 0.09999999999999998
33 0.69
-33 0.31000000000000005
34 0.14
-34 0.86
35 0.45
-35 0.55
36 0.89
-36 0.10999999999999999
37 0.62
-37 0.38
38 0.35
-38 0.65
39 0.88
-39 0.12
40 0.45
-40 0.55
41 0.23
-41 0.77
42 0.88
-42 0.12
43 0.32
-43 0.6799999999999999
44 0.08
-44 0.92
45 0.77
-45 0.22999999999999998
46 0.27
-46 0.73
47 0.66
-47 0.33999999999999997
48 0.24
-48 0.76
49 0.68
-49 0.31999999999999995
50 0.49
-50 0.51
51 0.05
-51 0.95
52 0.56
-52 0.43999999999999995
53 0.08
-53 0.92
54 0.03
-54 0.97
55 0.21
-55 0.79
56 0.53
-56 0.47
57 0.65
-57 0.35
58 0.28
-58 0.72
59 0.58
-59 0.42000000000000004
60 0.13
-60 0.87
61 0.31
-61 0.69
62 0.01
-62 0.99
63 0.42
-63 0.5800000000000001
64 0.94
-64 0.06000000000000005
65 0.84
-65 0.16000000000000003
66 0.85
-66 0.15000000000000002
67 0.44
-67 0.56
68 0.93
-68 0.06999999999999995
69 0.98
-69 0.020000000000000018
70 0.41
-70 0.5900000000000001
