1 0.51
-1 0.49
2 0.32
-2 0.6799999999999999
3 0.17
-3 0.83
4 0.74
-4 0.26
5 0.64
-5 0.36
6 0.3
-6 0.7
7 0.49
-7 0.51
8 0.39
-8 0.61
9 0.23
-9 0.77
10 0.46
-10 0.54
11 0.44
-11 0.56
12 0.99
-12 0.010000000000000009
13 0.74
-13 0.26
14 0.86
-14 0.14
15 0.01
-15 0.99
16 0.93
-16 0.06999999999999995
17 0.64
-17 0.36
18 0.12
-18 0.88
19 0.77
-19 0.22999999999999998
20 0.52
-20 0.48
21 0.45
-21 0.55
22 0.06
-22 0.94
23 0.21
-23 0.79
24 0.15
-24 0.85
25 0.23
-25 0.77
26 0.63
-26 0.37
27 0.47
-27 0.53
28 0.19
-28 0.81
29 0.48
-29 0.52
30 0.32
-30 0.6799999999999999
31 0.16
-31 0.84
32 0.6
-32 0.4
33 0.04
-33 0.96
34 0.46
-34 0.54
35 0.2
-35 0.8
36 0.42
-36 0.5800000000000001
37 0.82
-37 0.18000000000000005
38 0.79
-38 0.20999999999999996
39 0.64
-39 0.36
40 0.16
-40 0.84
41 0.15
-41 0.85
42 0.27
-42 0.73
43 0.67
-43 0.32999999999999996
44 0.06
-44 0.94
45 0.51
-45 0.49
46 0.03
-46 0.97
47 0.01
-47 0.99
48 0.73
-48 0.27
49 0.39
-49 0.61
50 0.3
-50 0.7
51 0.94
-51 0.06000000000000005
52 0.19
-52 0.81
53 0.25
-53 0.75
54 0.29
-54 0.71
55 0.19
-55 0.81
56 0.52
-56 0.48
57 0.11
-57 0.89
58 0.48
-58 0.52
59 0.71
-59 0.29000000000000004
60 0.41
-60 0.5900000000000001
61 0.58
-61 0.42000000000000004
62 0.91
-62 0.08999999999999997
63 0.11
-63 0.89
64 0.93
-64 0.06999999999999995
65 0.94
-65 0.06000000000000005
66 0.63
-66 0.37
67 0.32
-67 0.6799999999999999
68 0.98
-68 0.020000000000000018
69 0.32
-69 0.6799999999999999
70 0.3
-70 0.7
