1 0.85
-1 0.15000000000000002
2 0.56
-2 0.43999999999999995
3 0.51
-3 0.49
4 0.76
-4 0.24
5 0.1
-5 0.9
6 0.34
-6 0.6599999999999999
7 0.03
-7 0.97
8 0.43
-8 0.5700000000000001
9 0.52
-9 0.48
10 0.88
-10 0.12
11 0.22
-11 0.78
12 0.37
-12 0.63
13 0.19
-13 0.81
14 0.51
-14 0.49
15 0.67
-15 0.32999999999999996
16 0.67
-16 0.32999999999999996
17 0.38
-17 0.62
18 0.87
-18 0.13
19 0.82
-19 0.18000000000000005
20 0.15
-20 0.85
21 0.04
-21 0.96
22 0.04
-22 0.96
23 0.2
-23 0.8
24 0.05
-24 0.95
25 0.89
-25 0.10999999999999999
26 0.78
-26 0.21999999999999997
27 0.89
-27 0.10999999999999999
28 0.96
-28 0.040000000000000036
29 0.29
-29 0.71
30 0.03
-30 0.97
31 0.34
-31 0.6599999999999999
32 0.73
-32 0.27
33 0.8
-33 0.19999999999999996
34 0.87
-34 0.13
35 0.87
-35 0.13
36 0.13
-36 0.87
37 0.03
-37 0.97
38 0.07
-38 0.9299999999999999
39 0.2
-39 0.8
40 0.56
-40 0.43999999999999995
41 0.3
-41 0.7
42 0.73
-42 0.27
43 0.85
-43 0.15000000000000002
44 0.6
-44 0.4
45 0.99
-45 0.010000000000000009
46 0.9
-46 0.09999999999999998
47 0.65
-47 0.35
48 0.1
-48 0.9
49 0.11
-49 0.89
50 0.49
-50 0.51
51 0.42
-51 0.5800000000000001
52 0.05
-52 0.95
53 0.35
-53 0.65
54 0.97
-54 0.030000000000000027
55 0.49
-55 0.51
56 0.7
-56 0.30000000000000004
57 0.84
-57 0.16000000000000003
58 0.97
-58 0.030000000000000027
59 0.9
-59 0.09999999999999998
60 0.63
-60 0.37
61 0.8
-61 0.19999999999999996
62 0.55
-62 0.44999999999999996
63 0.17
-63 0.83
64 0.11
-64 0.89
65 0.91
-65 0.08999999999999997
66 0.01
-66 0.99
67 0.14
-67 0.86
68 0.31
-68 0.69
69 0.12
-69 0.88
70 0.35
-70 0.65
