1 0.46
-1 0.54
2 0.42
-2 0.5800000000000001
3 0.27
-3 0.73
4 0.4
-4 0.6
5 0.16
-5 0.84
6 0.97
-6 0.030000000000000027
7 0.37
-7 0.63
8 0.4
-8 0.6
9 0.3
-9 0.7
10 0.46
-10 0.54
11 0.88
-11 0.12
12 0.05
-12 0.95
13 0.76
-13 0.24
14 0.63
-14 0.37
15 0.99
-15 0.010000000000000009
16 0.99
-16 0.010000000000000009
17 0.57
-17 0.43000000000000005
18 0.3
-18 0.7
19 0.52
-19 0.48
20 0.36
-20 0.64
21 0.81
-21 0.18999999999999995
22 0.11
-22 0.89
23 0.1
-23 0.9
24 0.02
-24 0.98
25 0.97
-25 0.030000000000000027
26 0.62
-26 0.38
27 0.6
-27 0.4
28 0.43
-28 0.5700000000000001
29 0.42
-29 0.5800000000000001
30 0.49
-30 0.51
31 0.87
-31 0.13
32 0.06
-32 0.94
33 0.02
-33 0.98
34 0.52
-34 0.48
35 0.41
-35 0.5900000000000001
36 0.32
-36 0.6799999999999999
37 0.38
-37 0.62
38 0.82
-38 0.18000000000000005
39 0.2
-39 0.8
40 0.67
-40 0.32999999999999996
41 0.06
-41 0.94
42 0.55
-42 0.44999999999999996
43 0.49
-43 0.51
44 0.02
-44 0.98
45 0.39
-45 0.61
46 0.29
-46 0.71
47 0.73
-47 0.27
48 0.36
-48 0.64
49 0.25
-49 0.75
50 0.35
-50 0.65
51 0.75
-51 0.25
52 0.08
-52 0.92
53 0.84
-53 0.16000000000000003
54 0.01
-54 0.99
55 0.82
-55 0.18000000000000005
56 0.16
-56 0.84
57 0.24
-57 0.76
58 0.97
-58 0.030000000000000027
59 0.01
-59 0.99
60 0.77
-60 0.22999999999999998
61 0.05
-61 0.95
62 0.27
-62 0.73
63 0.35
-63 0.65
64 0.1
-64 0.9
65 0.21
-65 0.79
66 0.44
-66 0.56
67 0.87
-67 0.13
68 0.44
-68 0.56
69 0.57
-69 0.43000000000000005
70 0.12
-70 0.88
