1 0.52
-1 0.48
2 0.47
-2 0.53
3 0.34
-3 0.6599999999999999
4 0.53
-4 0.47
5 0.11
-5 0.89
6 0.22
-6 0.78
7 0.74
-7 0.26
8 0.87
-8 0.13
9 0.64
-9 0.36
10 0.25
-10 0.75
11 0.37
-11 0.63
12 0.6
-12 0.4
13 0.84
-13 0.16000000000000003
14 0.48
-14 0.52
15 0.23
-15 0.77
16 0.33
-16 0.6699999999999999
17 0.51
-17 0.49
18 0.97
-18 0.030000000000000027
19 0.87
-19 0.13
20 0.61
-20 0.39
21 0.04
-21 0.96
22 0.64
-22 0.36
23 0.83
-23 0.17000000000000004
24 0.73
-24 0.27
25 0.66
-25 0.33999999999999997
26 0.74
-26 0.26
27 0.49
-27 0.51
28 0.22
-28 0.78
29 0.48
-29 0.52
30 0.16
-30 0.84
31 0.74
-31 0.26
32 0.99
-32 0.010000000000000009
33 0.95
-33 0.050000000000000044
34 0.81
-34 0.18999999999999995
35 0.26
-35 0.74
36 0.96
-36 0.040000000000000036
37 0.09
-37 0.91
38 0.88
-38 0.12
39 0.67
-39 0.32999999999999996
40 0.07
-40 0.9299999999999999
41 0.66
-41 0.33999999999999997
42 0.44
-42 0.56
43 0.14
-43 0.86
44 0.07
-44 0.9299999999999999
45 0.28
-45 0.72
46 0.15
-46 0.85
47 0.29
-47 0.71
48 0.2
-48 0.8
49 0.4
-49 0.6
50 0.49
-50 0.51
51 0.6
-51 0.4
52 0.53
-52 0.47
53 0.55
-53 0.44999999999999996
54 0.8
-54 0.19999999999999996
55 0.45
-55 0.55
56 0.52
-56 0.48
57 0.1
-57 0.9
58 0.98
-58 0.020000000000000018
59 0.72
-59 0.28
60 0.05
-60 0.95
61 0.59
-61 0.41000000000000003
62 0.51
-62 0.49
63 0.2
-63 0.8
64 0.86
-64 0.14
65 0.5
-65 0.5
66 0.82
-66 0.18000000000000005
67 0.61
-67 0.39
68 0.51
-68 0.49
69 0.52
-69 0.48
70 0.79
-70 0.20999999999999996
