1 0.73
-1 0.27
2 0.5
-2 0.5
3 0.48
-3 0.52
4 0.14
-4 0.86
5 0.83
-5 0.17000000000000004
6 0.49
-6 0.51
7 0.25
-7 0.75
8 0.19
-8 0.81
9 0.42
-9 0.5800000000000001
10 0.77
-10 0.22999999999999998
11 0.24
-11 0.76
12 0.42
-12 0.5800000000000001
13 0.65
-13 0.35
14 0.35
-14 0.65
15 0.04
-15 0.96
16 0.55
-16 0.44999999999999996
17 0.21
-17 0.79
18 0.2
-18 0.8
19 0.04
-19 0.96
20 0.79
-20 0.20999999999999996
21 0.01
-21 0.99
22 0.99
-22 0.010000000000000009
23 0.53
-23 0.47
24 0.62
-24 0.38
25 0.93
-25 0.06999999999999995
26 0.85
-26 0.15000000000000002
27 0.7
-27 0.30000000000000004
28 0.65
-28 0.35
29 0.77
-29 0.22999999999999998
30 0.69
-30 0.31000000000000005
31 0.49
-31 0.51
32 0.44
-32 0.56
33 0.77
-33 0.22999999999999998
34 0.79
-34 0.20999999999999996
35 0.49
-35 0.51
36 0.48
-36 0.52
37 0.3
-37 0.7
38 0.74
-38 0.26
39 0.12
-39 0.88
40 0.16
-40 0.84
41 0.64
-41 0.36
42 0.18
-42 0.8200000000000001
43 0.99
-43 0.010000000000000009
44 0.82
-44 0.18000000000000005
45 0.56
-45 0.43999999999999995
46 0.6
-46 0.4
47 0.17
-47 0.83
48 0.87
-48 0.13
49 0.01
-49 0.99
50 0.29
-50 0.71
51 0.92
-51 0.07999999999999996
52 0.32
-52 0.6799999999999999
53 0.2
-53 0.8
54 0.84
-54 0.16000000000000003
55 0.19
-55 0.81
56 0.68
-56 0.31999999999999995
57 0.14
-57 0.86
58 0.59
-58 0.41000000000000003
59 0.71
-59 0.29000000000000004
60 0.53
-60 0.47
61 0.12
-61 0.88
62 0.58
-62 0.42000000000000004
63 0.7
-63 0.30000000000000004
64 0.25
-64 0.75
65 0.64
-65 0.36
66 0.68
-66 0.31999999999999995
67 0.74
-67 0.26
68 0.27
-68 0.73
69 0.24
-69 0.76
70 0.98
-70 0.020000000000000018
