1 0.2
-1 0.8
2 0.03
-2 0.97
3 0.41
-3 0.5900000000000001
4 0.64
-4 0.36
5 0.47
-5 0.53
6 0.69
-6 0.31000000000000005
7 0.96
-7 0.040000000000000036
8 0.71
-8 0.29000000000000004
9 0.24
-9 0.76
10 0.7
-10 0.30000000000000004
11 0.79
-11 0.20999999999999996
12 0.85
-12 0.15000000000000002
13 0.79
-13 0.20999999999999996
14 0.28
-14 0.72
15 0.19
-15 0.81
16 0.81
-16 0.18999999999999995
17 0.22
-17 0.78
18 0.7
-18 0.30000000000000004
19 0.9
-19 0.09999999999999998
20 0.9
-20 0.09999999999999998
21 0.68
-21 0.31999999999999995
22 0.29
-22 0.71
23 0.59
-23 0.41000000000000003
24 0.12
-24 0.88
25 0.32
-25 0.6799999999999999
26 0.56
-26 0.43999999999999995
27 0.38
-27 0.62
28 0.16
-28 0.84
29 0.42
-29 0.5800000000000001
30 0.56
-30 0.43999999999999995
31 0.36
-31 0.64
32 0.78
-32 0.21999999999999997
33 0.16
-33 0.84
34 0.63
-34 0.37
35 0.71
-35 0.29000000000000004
36 0.77
-36 0.22999999999999998
37 0.1
-37 0.9
38 0.49
-38 0.51
39 0.75
-39 0.25
40 0.68
-40 0.31999999999999995
41 0.51
-41 0.49
42 0.13
-42 0.87
43 0.79
-43 0.20999999999999996
44 0.19
-44 0.81
45 0.44
-45 0.56
46 0.39
-46 0.61
47 0.86
-47 0.14
48 0.28
-48 0.72
49 0.19
-49 0.81
50 0.22
-50 0.78
51 0.99
-51 0.010000000000000009
52 0.79
-52 0.20999999999999996
53 0.17
-53 0.83
54 0.7
-54 0.30000000000000004
55 0.82
-55 0.18000000000000005
56 0.64
-56 0.36
57 0.82
-57 0.18000000000000005
58 0.3
-58 0.7
59 0.68
-59 0.31999999999999995
60 0.94
-60 0.06000000000000005
61 0.19
-61 0.81
62 0.09
-62 0.91
63 0.29
-63 0.71
64 0.61
-64 0.39
65 0.4
-65 0.6
66 0.58
-66 0.42000000000000004
67 0.81
-67 0.18999999999999995
68 0.11
-68 0.89
69 0.33
-69 0.6699999999999999
70 0.58
-70 0.42000000000000004
