1 0.45
-1 0.55
2 0.37
-2 0.63
3 0.56
-3 0.43999999999999995
4 0.28
-4 0.72
5 0.47
-5 0.53
6 0.36
-6 0.64
7 0.43
-7 0.5700000000000001
8 0.79
-8 0.20999999999999996
9 0.94
-9 0.06000000000000005
10 0.08
-10 0.92
11 0.94
-11 0.06000000000000005
12 0.63
-12 0.37
13 0.96
-13 0.040000000000000036
14 0.5
-14 0.5
15 0.76
-15 0.24
16 0.38
-16 0.62
17 0.46
-17 0.54
18 0.88
-18 0.12
19 0.4
-19 0.6
20 0.51
-20 0.49
21 0.9
-21 0.09999999999999998
22 0.59
-22 0.41000000000000003
23 0.79
-23 0.20999999999999996
24 0.84
-24 0.16000000000000003
25 0.42
-25 0.5800000000000001
26 0.01
-26 0.99
27 0.96
-27 0.040000000000000036
28 0.84
-28 0.16000000000000003
29 0.38
-29 0.62
30 0.07
-30 0.9299999999999999
31 0.19
-31 0.81
32 0.57
-32 0.43000000000000005
33 0.92
-33 0.07999999999999996
34 0.65
-34 0.35
35 0.42
-35 0.5800000000000001
36 0.85
-36 0.15000000000000002
37 0.07
-37 0.9299999999999999
38 0.11
-38 0.89
39 0.53
-39 0.47
40 0.47
-40 0.53
41 0.01
-41 0.99
42 0.02
-42 0.98
43 0.51
-43 0.49
44 0.69
-44 0.31000000000000005
45 0.85
-45 0.15000000000000002
46 0.28
-46 0.72
47 0.33
-47 0.6699999999999999
48 0.93
-48 0.06999999999999995
49 0.42
-49 0.5800000000000001
50 0.14
-50 0.86
51 0.4
-51 0.6
52 0.65
-52 0.35
53 0.99
-53 0.010000000000000009
54 0.94
-54 0.06000000000000005
55 0.59
-55 0.41000000000000003
56 0.58
-56 0.42000000000000004
57 0.76
-57 0.24
58 0.7
-58 0.30000000000000004
59 0.18
-59 0.8200000000000001
60 0.17
-60 0.83
61 0.31
-61 0.69
62 0.22
-62 0.78
63 0.63
-63 0.37
64 0.58
-64 0.42000000000000004
65 0.59
-65 0.41000000000000003
66 0.59
-66 0.41000000000000003
67 0.14
-67 0.86
68 0.09
-68 0.91
69 0.9
-69 0.09999999999999998
70 0.92
-70 0.07999999999999996
