1 0.84
-1 0.16000000000000003
2 0.97
-2 0.030000000000000027
3 0.43
-3 0.5700000000000001
4 0.92
-4 0.07999999999999996
5 0.21
-5 0.79
6 0.81
-6 0.18999999999999995
7 0.41
-7 0.5900000000000001
8 0.43
-8 0.5700000000000001
9 0.17
-9 0.83
10 0.14
-10 0.86
11 0.64
-11 0.36
12 0.93
-12 0.06999999999999995
13 0.02
-13 0.98
14 0.68
-14 0.31999999999999995
15 0.09
-15 0.91
16 0.59
-16 0.41000000000000003
17 0.66
-17 0.33999999999999997
18 0.16
-18 0.84
19 0.05
-19 0.95
20 0.96
-20 0.040000000000000036
21 0.54
-21 0.45999999999999996
22 0.46
-22 0.54
23 0.95
-23 0.050000000000000044
24 0.78
-24 0.21999999999999997
25 0.79
-25 0.20999999999999996
26 0.48
-26 0.52
27 0.29
-27 0.71
28 0.8
-28 0.19999999999999996
29 0.52
-29 0.48
30 0.3
-30 0.7
31 0.33
-31 0.6699999999999999
32 0.07
-32 0.9299999999999999
33 0.33
-33 0.6699999999999999
34 0.84
-34 0.16000000000000003
35 0.32
-35 0.6799999999999999
36 0.17
-36 0.83
37 0.04
-37 0.96
38 0.66
-38 0.33999999999999997
39 0.55
-39 0.44999999999999996
40 0.44
-40 0.56
41 0.74
-41 0.26
42 0.04
-42 0.96
43 0.84
-43 0.16000000000000003
44 0.27
-44 0.73
45 0.5
-45 0.5
46 0.08
-46 0.92
47 0.63
-47 0.37
48 0.75
-48 0.25
49 0.38
-49 0.62
50 0.78
-50 0.21999999999999997
51 0.97
-51 0.030000000000000027
52 0.91
-52 0.08999999999999997
53 0.76
-53 0.24
54 0.99
-54 0.010000000000000009
55 0.03
-55 0.97
56 0.72
-56 0.28
57 0.28
-57 0.72
58 0.82
-58 0.18000000000000005
59 0.08
-59 0.92
60 0.68
-60 0.31999999999999995
61 0.09
-61 0.91
62 0.23
-62 0.77
63 0.85
-63 0.15000000000000002
64 0.71
-64 0.29000000000000004
65 0.2
-65 0.8
66 0.96
-66 0.040000000000000036
67 0.28
-67 0.72
68 0.44
-68 0.56
69 0.18
-69 0.8200000000000001
70 0.57
-70 0.43000000000000005
