1 0.52
-1 0.48
2 0.73
-2 0.27
3 0.54
-3 0.45999999999999996
4 0.01
-4 0.99
5 0.94
-5 0.06000000000000005
6 0.96
-6 0.040000000000000036
7 0.62
-7 0.38
8 0.68
-8 0.31999999999999995
9 0.01
-9 0.99
10 0.87
-10 0.13
11 0.99
-11 0.010000000000000009
12 0.7
-12 0.30000000000000004
13 0.34
-13 0.6599999999999999
14 0.29
-14 0.71
15 0.3
-15 0.7
16 0.45
-16 0.55
17 0.78
-17 0.21999999999999997
18 0.51
-18 0.49
19 0.47
-19 0.53
20 0.19
-20 0.81
21 0.65
-21 0.35
22 0.37
-22 0.63
23 0.94
-23 0.06000000000000005
24 0.26
-24 0.74
25 0.33
-25 0.6699999999999999
26 0.63
-26 0.37
27 0.22
-27 0.78
28 0.47
-28 0.53
29 0.96
-29 0.040000000000000036
30 0.36
-30 0.64
31 0.31
-31 0.69
32 0.45
-32 0.55
33 0.28
-33 0.72
34 0.49
-34 0.51
35 0.28
-35 0.72
36 0.85
-36 0.15000000000000002
37 0.72
-37 0.28
38 0.36
-38 0.64
39 0.85
-39 0.15000000000000002
40 0.83
-40 0.17000000000000004
41 0.56
-41 0.43999999999999995
42 0.58
-42 0.42000000000000004
43 0.16
-43 0.84
44 0.01
-44 0.99
45 0.16
-45 0.84
46 0.87
-46 0.13
47 0.38
-47 0.62
48 0.15
-48 0.85
49 0.89
-49 0.10999999999999999
50 0.77
-50 0.22999999999999998
51 0.62
-51 0.38
52 0.54
-52 0.45999999999999996
53 0.73
-53 0.27
54 0.8
-54 0.19999999999999996
55 0.13
-55 0.87
56 0.22
-56 0.78
57 0.28
-57 0.72
58 0.53
-58 0.47
59 0.69
-59 0.31000000000000005
60 0.46
-60 0.54
61 0.77
-61 0.22999999999999998
62 0.09
-62 0.91
63 0.31
-63 0.69
64 0.51
-64 0.49
65 0.79
-65 0.20999999999999996
66 0.7
-66 0.30000000000000004
67 0.96
-67 0.040000000000000036
68 0.61
-68 0.39
69 0.89
-69 0.10999999999999999
70 0.72
-70 0.28
