1 0.61
-1 0.39
2 0.61
-2 0.39
3 0.1
-3 0.9
4 0.39
-4 0.61
5 0.92
-5 0.07999999999999996
6 0.69
-6 0.31000000000000005
7 0.14
-7 0.86
8 0.99
-8 0.010000000000000009
9 0.67
-9 0.32999999999999996
10 0.18
-10 0.8200000000000001
11 0.17
-11 0.83
12 0.65
-12 0.35
13 0.12
-13 0.88
14 0.79
-14 0.20999999999999996
15 0.54
-15 0.45999999999999996
16 0.4
-16 0.6
17 0.08
-17 0.92
18 0.27
-18 0.73
19 0.23
-19 0.77
20 0.83
-20 0.17000000000000004
21 0.63
-21 0.37
22 0.64
-22 0.36
23 0.53
-23 0.47
24 0.27
-24 0.73
25 0.3
-25 0.7
26 0.08
-26 0.92
27 0.88
-27 0.12
28 0.47
-28 0.53
29 0.02
-29 0.98
30 0.23
-30 0.77
31 0.18
-31 0.8200000000000001
32 0.6
-32 0.4
33 0.24
-33 0.76
34 0.23
-34 0.77
35 0.46
-35 0.54
36 0.96
-36 0.040000000000000036
37 0.56
-37 0.43999999999999995
38 0.7
-38 0.30000000000000004
39 0.89
-39 0.10999999999999999
40 0.36
-40 0.64
41 0.53
-41 0.47
42 0.28
-42 0.72
43 0.96
-43 0.040000000000000036
44 0.86
-44 0.14
45 0.19
-45 0.81
46 0.73
-46 0.27
47 0.04
-47 0.96
48 0.94
-48 0.06000000000000005
49 0.15
-49 0.85
50 0.16
-50 0.84
51 0.37
-51 0.63
52 0.88
-52 0.12
53 0.91
-53 0.08999999999999997
54 0.41
-54 0.5900000000000001
55 0.34
-55 0.6599999999999999
56 0.62
-56 0.38
57 0.53
-57 0.47
58 0.75
-58 0.25
59 0.95
-59 0.050000000000000044
60 0.93
-60 0.06999999999999995
61 0.08
-61 0.92
62 0.52
-62 0.48
63 0.63
-63 0.37
64 0.86
-64 0.14
65 0.41
-65 0.5900000000000001
66 0.68
-66 0.31999999999999995
67 0.39
-67 0.61
68 0.02
-68 0.98
69 0.83
-69 0.17000000000000004
70 0.01
-70 0.99
