1 0.04
-1 0.96
2 0.15
-2 0.85
3 0.99
-3 0.010000000000000009
4 0.09
-4 0.91
5 0.42
-5 0.5800000000000001
6 0.24
-6 0.76
7 0.36
-7 0.64
8 0.58
-8 0.42000000000000004
9 0.75
-9 0.25
10 0.95
-10 0.050000000000000044
11 0.03
-11 0.97
12 0.15
-12 0.85
13 0.9
-13 0.09999999999999998
14 0.7
-14 0.30000000000000004
15 0.88
-15 0.12
16 0.17
-16 0.83
17 0.89
-17 0.10999999999999999
18 0.39
-18 0.61
19 0.24
-19 0.76
20 0.32
-20 0.6799999999999999
21 0.12
-21 0.88
22 0.25
-22 0.75
23 0.72
-23 0.28
24 0.64
-24 0.36
25 0.75
-25 0.25
26 0.76
-26 0.24
27 0.9
-27 0.09999999999999998
28 0.49
-28 0.51
29 0.59
-29 0.41000000000000003
30 0.78
-30 0.21999999999999997
31 0.56
-31 0.43999999999999995
32 0.77
-32 0.22999999999999998
33 0.5
-33 0.5
34 0.46
-34 0.54
35 0.37
-35 0.63
36 0.45
-36 0.55
37 0.09
-37 0.91
38 0.83
-38 0.17000000000000004
39 0.5
-39 0.5
40 0.31
-40 0.69
41 0.44
-41 0.56
42 0.17
-42 0.83
43 0.39
-43 0.61
44 0.4
-44 0.6
45 0.64
-45 0.36
46 0.04
-46 0.96
47 0.45
-47 0.55
48 0.81
-48 0.18999999999999995
49 0.74
-49 0.26
50 0.06
-50 0.94
51 0.42
-51 0.5800000000000001
52 0.29
-52 0.71
53 0.16
-53 0.84
54 0.49
-54 0.51
55 0.25
-55 0.75
56 0.47
-56 0.53
57 0.4
-57 0.6
58 0.65
-58 0.35
59 0.29
-59 0.71
60 0.76
-60 0.24
61 0.04
-61 0.96
62 0.52
-62 0.48
63 0.35
-63 0.65
64 0.97
-64 0.030000000000000027
65 0.89
-65 0.10999999999999999
66 0.82
-66 0.18000000000000005
67 0.18
-67 0.8200000000000001
68 0.39
-68 0.61
69 0.11
-69 0.89
70 0.25
-70 0.75
