1 0.16
-1 0.84
2 0.41
-2 0.5900000000000001
3 0.44
-3 0.56
4 0.27
-4 0.73
5 0.91
-5 0.08999999999999997
6 0.31
-6 0.69
7 0.1
-7 0.9
8 0.22
-8 0.78
9 0.19
-9 0.81
10 0.74
-10 0.26
11 0.24
-11 0.76
12 0.58
-12 0.42000000000000004
13 0.18
-13 0.8200000000000001
14 0.9
-14 0.09999999999999998
15 0.96
-15 0.040000000000000036
16 0.82
-16 0.18000000000000005
17 0.99
-17 0.010000000000000009
18 0.42
-18 0.5800000000000001
19 0.66
-19 0.33999999999999997
20 0.65
-20 0.35
21 0.96
-21 0.040000000000000036
22 0.37
-22 0.63
23 0.9
-23 0.09999999999999998
24 0.41
-24 0.5900000000000001
25 0.84
-25 0.16000000000000003
26 0.48
-26 0.52
27 0.55
-27 0.44999999999999996
28 0.8
-28 0.19999999999999996
29 0.1
-29 0.9
30 0.77
-30 0.22999999999999998
31 0.5
-31 0.5
32 0.08
-32 0.92
33 0.42
-33 0.5800000000000001
34 0.34
-34 0.6599999999999999
35 0.42
-35 0.5800000000000001
36 0.87
-36 0.13
37 0.46
-37 0.54
38 0.99
-38 0.010000000000000009
39 0.15
-39 0.85
40 0.58
-40 0.42000000000000004
41 0.34
-41 0.6599999999999999
42 0.02
-42 0.98
43 0.46
-43 0.54
44 0.65
-44 0.35
45 0.09
-45 0.91
46 0.16
-46 0.84
47 0.22
-47 0.78
48 0.85
-48 0.15000000000000002
49 0.29
-49 0.71
50 0.94
-50 0.06000000000000005
51 0.92
-51 0.07999999999999996
52 0.11
-52 0.89
53 0.14
-53 0.86
54 0.28
-54 0.72
55 0.1
-55 0.9
56 0.38
-56 0.62
57 0.74
-57 0.26
58 0.48
-58 0.52
59 0.56
-59 0.43999999999999995
60 0.03
-60 0.97
61 0.46
-61 0.54
62 0.55
-62 0.44999999999999996
63 0.53
-63 0.47
64 0.83
-64 0.17000000000000004
65 0.52
-65 0.48
66 0.98
-66 0.020000000000000018
67 0.68
-67 0.31999999999999995
68 0.99
-68 0.010000000000000009
69 0.8
-69 0.19999999999999996
70 0.4
-70 0.6
