1 0.55
-1 0.44999999999999996
2 0.98
-2 0.020000000000000018
3 0.3
-3 0.7
4 0.85
-4 0.15000000000000002
5 0.25
-5 0.75
6 0.9
-6 0.09999999999999998
7 0.48
-7 0.52
8 0.96
-8 0.040000000000000036
9 0.89
-9 0.10999999999999999
10 0.14
-10 0.86
11 0.51
-11 0.49
12 0.57
-12 0.43000000000000005
13 0.64
-13 0.36
14 0.76
-14 0.24
15 0.88
-15 0.12
16 0.77
-16 0.22999999999999998
17 0.32
-17 0.6799999999999999
18 0.4
-18 0.6
19 0.41
-19 0.5900000000000001
20 0.67
-20 0.32999999999999996
21 0.7
-21 0.30000000000000004
22 0.51
-22 0.49
23 0.1
-23 0.9
24 0.74
-24 0.26
25 0.72
-25 0.28
26 0.55
-26 0.44999999999999996
27 0.54
-27 0.45999999999999996
28 0.13
-28 0.87
29 0.78
-29 0.21999999999999997
30 0.03
-30 0.97
31 0.64
-31 0.36
32 0.9
-32 0.09999999999999998
33 0.83
-33 0.17000000000000004
34 0.41
-34 0.5900000000000001
35 0.53
-35 0.47
36 0.46
-36 0.54
37 0.11
-37 0.89
38 0.63
-38 0.37
39 0.49
-39 0.51
40 0.85
-40 0.15000000000000002
41 0.35
-41 0.65
42 0.98
-42 0.020000000000000018
43 0.71
-43 0.29000000000000004
44 0.93
-44 0.06999999999999995
45 0.97
-45 0.030000000000000027
46 0.28
-46 0.72
47 0.07
-47 0.9299999999999999
48 0.52
-48 0.48
49 0.12
-49 0.88
50 0.15
-50 0.85
51 0.54
-51 0.45999999999999996
52 0.08
-52 0.92
53 0.28
-53 0.72
54 0.64
-54 0.36
55 0.66
-55 0.33999999999999997
56 0.26
-56 0.74
57 0.77
-57 0.22999999999999998
58 0.63
-58 0.37
59 0.72
-59 0.28
60 0.41
-60 0.5900000000000001
61 0.43
-61 0.5700000000000001
62 0.63
-62 0.37
63 0.25
-63 0.75
64 0.78
-64 0.21999999999999997
65 0.46
-65 0.54
66 0.33
-66 0.6699999999999999
67 0.16
-67 0.84
68 0.08
-68 0.92
69 0.18
-69 0.8200000000000001
70 0.78
-70 0.21999999999999997
