1 0.71
-1 0.29000000000000004
2 0.63
-2 0.37
3 0.93
-3 0.06999999999999995
4 0.51
-4 0.49
5 0.11
-5 0.89
6 0.9
-6 0.09999999999999998
7 0.95
-7 0.050000000000000044
8 0.38
-8 0.62
9 0.55
-9 0.44999999999999996
10 0.37
-10 0.63
11 0.38
-11 0.62
12 0.22
-12 0.78
13 0.9
-13 0.09999999999999998
14 0.74
-14 0.26
15 0.22
-15 0.78
16 0.69
-16 0.31000000000000005
17 0.33
-17 0.6699999999999999
18 0.25
-18 0.75
19 0.55
-19 0.44999999999999996
20 0.43
-20 0.5700000000000001
21 0.74
-21 0.26
22 0.38
-22 0.62
23 0.07
-23 0.9299999999999999
24 0.69
-24 0.31000000000000005
25 0.31
-25 0.69
26 0.87
-26 0.13
27 0.98
-27 0.020000000000000018
28 0.16
-28 0.84
29 0.15
-29 0.85
30 0.07
-30 0.9299999999999999
31 0.56
-31 0.43999999999999995
32 0.24
-32 0.76
33 0.36
-33 0.64
34 0.76
-34 0.24
35 0.54
-35 0.45999999999999996
36 0.15
-36 0.85
37 0.79
-37 0.20999999999999996
38 0.89
-38 0.10999999999999999
39 0.69
-39 0.31000000000000005
40 0.43
-40 0.5700000000000001
41 0.88
-41 0.12
42 0.03
-42 0.97
43 0.95
-43 0.050000000000000044
44 0.32
-44 0.6799999999999999
45 0.97
-45 0.030000000000000027
46 0.3
-46 0.7
47 0.07
-47 0.9299999999999999
48 0.78
-48 0.21999999999999997
49 0.5
-49 0.5
50 0.7
-50 0.30000000000000004
51 0.27
-51 0.73
52 0.58
-52 0.42000000000000004
53 0.17
-53 0.83
54 0.36
-54 0.64
55 0.04
-55 0.96
56 0.44
-56 0.56
57 0.65
-57 0.35
58 0.58
-58 0.42000000000000004
59 0.29
-59 0.71
60 0.68
-60 0.31999999999999995
61 0.77
-61 0.22999999999999998
62 0.24
-62 0.76
63 0.72
-63 0.28
64 0.46
-64 0.54
65 0.1
-65 0.9
66 0.31
-66 0.69
67 0.87
-67 0.13
68 0.53
-68 0.47
69 0.57
-69 0.43000000000000005
70 0.66
-70 0.33999999999999997
