1 0.33
-1 0.6699999999999999
2 0.65
-2 0.35
3 0.88
-3 0.12
4 0.65
-4 0.35
5 0.07
-5 0.9299999999999999
6 0.58
-6 0.42000000000000004
7 0.36
-7 0.64
8 0.12
-8 0.88
9 0.25
-9 0.75
10 0.04
-10 0.96
11 0.3
-11 0.7
12 0.71
-12 0.29000000000000004
13 0.65
-13 0.35
14 0.52
-14 0.48
15 0.11
-15 0.89
16 0.83
-16 0.17000000000000004
17 0.2
-17 0.8
18 0.5
-18 0.5
19 0.65
-19 0.35
20 0.95
-20 0.050000000000000044
21 0.92
-21 0.07999999999999996
22 0.29
-22 0.71
23 0.71
-23 0.29000000000000004
24 0.39
-24 0.61
25 0.45
-25 0.55
26 0.83
-26 0.17000000000000004
27 0.47
-27 0.53
28 0.78
-28 0.21999999999999997
29 0.88
-29 0.12
30 0.63
-30 0.37
31 0.29
-31 0.71
32 0.92
-32 0.07999999999999996
33 0.1
-33 0.9
34 0.3
-34 0.7
35 0.05
-35 0.95
36 0.97
-36 0.030000000000000027
37 0.41
-37 0.5900000000000001
38 0.32
-38 0.6799999999999999
39 0.53
-39 0.47
40 0.25
-40 0.75
41 0.68
-41 0.31999999999999995
42 0.5
-42 0.5
43 0.89
-43 0.10999999999999999
44 0.86
-44 0.14
45 0.12
-45 0.88
46 0.37
-46 0.63
47 0.1
-47 0.9
48 0.95
-48 0.050000000000000044
49 0.53
-49 0.47
50 0.8
-50 0.19999999999999996
51 0.63
-51 0.37
52 0.1
-52 0.9
53 0.54
-53 0.45999999999999996
54 0.74
-54 0.26
55 0.28
-55 0.72
56 0.97
-56 0.030000000000000027
57 0.57
-57 0.43000000000000005
58 0.43
-58 0.5700000000000001
59 0.57
-59 0.43000000000000005
60 0.06
-60 0.94
61 0.33
-61 0.6699999999999999
62 0.83
-62 0.17000000000000004
63 0.52
-63 0.48
64 0.61
-64 0.39
65 0.56
-65 0.43999999999999995
66 0.26
-66 0.74
67 0.21
-67 0.79
68 0.93
-68 0.06999999999999995
69 0.02
-69 0.98
70 0.9
-70 0.09999999999999998
