1 0.05
-1 0.95
2 0.18
-2 0.8200000000000001
3 0.33
-3 0.6699999999999999
4 0.45
-4 0.55
5 0.71
-5 0.29000000000000004
6 0.9
-6 0.09999999999999998
7 0.16
-7 0.84
8 0.36
-8 0.64
9 0.35
-9 0.65
10 0.91
-10 0.08999999999999997
11 0.91
-11 0.08999999999999997
12 0.84
-12 0.16000000000000003
13 0.37
-13 0.63
14 0.79
-14 0.20999999999999996
15 0.19
-15 0.81
16 0.11
-16 0.89
17 0.45
-17 0.55
18 0.4
-18 0.6
19 0.27
-19 0.73
20 0.3
-20 0.7
21 0.42
-21 0.5800000000000001
22 0.92
-22 0.07999999999999996
23 0.27
-23 0.73
24 0.69
-24 0.31000000000000005
25 0.79
-25 0.20999999999999996
26 0.45
-26 0.55
27 0.83
-27 0.17000000000000004
28 0.3
-28 0.7
29 0.61
-29 0.39
30 0.56
-30 0.43999999999999995
31 0.92
-31 0.07999999999999996
32 0.6
-32 0.4
33 0.43
-33 0.5700000000000001
34 0.88
-34 0.12
35 0.43
-35 0.5700000000000001
36 0.8
-36 0.19999999999999996
37 0.61
-37 0.39
38 0.7
-38 0.30000000000000004
39 0.77
-39 0.22999999999999998
40 0.62
-40 0.38
41 0.55
-41 0.44999999999999996
42 0.06
-42 0.94
43 0.85
-43 0.15000000000000002
44 0.59
-44 0.41000000000000003
45 0.88
-45 0.12
46 0.91
-46 0.08999999999999997
47 0.26
-47 0.74
48 0.04
-48 0.96
49 0.28
-49 0.72
50 0.18
-50 0.8200000000000001
51 0.31
-51 0.69
52 0.41
-52 0.5900000000000001
53 0.84
-53 0.16000000000000003
54 0.45
-54 0.55
55 0.98
-55 0.020000000000000018
56 0.73
-56 0.27
57 0.99
-57 0.010000000000000009
58 0.19
-58 0.81
59 0.28
-59 0.72
60 0.38
-60 0.62
61 0.63
-61 0.37
62 0.39
-62 0.61
63 0.53
-63 0.47
64 0.49
-64 0.51
65 0.56
-65 0.43999999999999995
66 0.63
-66 0.37
67 0.27
-67 0.73
68 0.25
-68 0.75
69 0.5
-69 0.5
70 0.99
-70 0.010000000000000009
