1 0.17
-1 0.83
2 0.1
-2 0.9
3 0.62
-3 0.38
4 0.35
-4 0.65
5 0.98
-5 0.020000000000000018
6 0.52
-6 0.48
7 0.16
-7 0.84
8 0.14
-8 0.86
9 0.98
-9 0.020000000000000018
10 0.44
-10 0.56
11 0.72
-11 0.28
12 0.44
-12 0.56
13 0.39
-13 0.61
14 0.79
-14 0.20999999999999996
15 0.81
-15 0.18999999999999995
16 0.46
-16 0.54
17 0.16
-17 0.84
18 0.73
-18 0.27
19 0.19
-19 0.81
20 0.88
-20 0.12
21 0.97
-21 0.030000000000000027
22 0.76
-22 0.24
23 0.1
-23 0.9
24 0.05
-24 0.95
25 0.3
-25 0.7
26 0.62
-26 0.38
27 0.21
-27 0.79
28 0.58
-28 0.42000000000000004
29 0.64
-29 0.36
30 0.06
-30 0.94
31 0.39
-31 0.61
32 0.9
-32 0.09999999999999998
33 0.47
-33 0.53
34 0.9
-34 0.09999999999999998
35 0.64
-35 0.36
36 0.38
-36 0.62
37 0.17
-37 0.83
38 0.79
-38 0.20999999999999996
39 0.47
-39 0.53
40 0.38
-40 0.62
41 0.94
-41 0.06000000000000005
42 0.54
-42 0.45999999999999996
43 0.49
-43 0.51
44 0.42
-44 0.5800000000000001
45 0.85
-45 0.15000000000000002
46 0.54
-46 0.45999999999999996
47 0.51
-47 0.49
48 0.87
-48 0.13
49 0.4
-49 0.6
50 0.84
-50 0.16000000000000003
51 0.35
-51 0.65
52 0.96
-52 0.040000000000000036
53 0.54
-53 0.45999999999999996
54 0.34
-54 0.6599999999999999
55 0.86
-55 0.14
56 0.3
-56 0.7
57 0.72
-57 0.28
58 0.35
-58 0.65
59 0.69
-59 0.31000000000000005
60 0.87
-60 0.13
61 0.39
-61 0.61
62 0.53
-62 0.47
63 0.2
-63 0.8
64 0.1
-64 0.9
65 0.29
-65 0.71
66 0.31
-66 0.69
67 0.06
-67 0.94
68 0.17
-68 0.83
69 0.18
-69 0.8200000000000001
70 0.81
-70 0.18999999999999995
