1 0.96
-1 0.040000000000000036
2 0.72
-2 0.28
3 0.46
-3 0.54
4 0.63
-4 0.37
5 0.52
-5 0.48
6 0.87
-6 0.13
7 0.01
-7 0.99
8 0.49
-8 0.51
9 0.63
-9 0.37
10 0.73
-10 0.27
11 0.3
-11 0.7
12 0.51
-12 0.49
13 0.94
-13 0.06000000000000005
14 0.92
-14 0.07999999999999996
15 0.72
-15 0.28
16 0.69
-16 0.31000000000000005
17 0.67
-17 0.32999999999999996
18 0.74
-18 0.26
19 0.02
-19 0.98
20 0.68
-20 0.31999999999999995
21 0.86
-21 0.14
22 0.43
-22 0.5700000000000001
23 0.78
-23 0.21999999999999997
24 0.79
-24 0.20999999999999996
25 0.55
-25 0.44999999999999996
26 0.91
-26 0.08999999999999997
27 0.53
-27 0.47
28 0.74
-28 0.26
29 0.07
-29 0.9299999999999999
30 0.97
-30 0.030000000000000027
31 0.81
-31 0.18999999999999995
32 0.97
-32 0.030000000000000027
33 0.08
-33 0.92
34 0.29
-34 0.71
35 0.77
-35 0.22999999999999998
36 0.22
-36 0.78
37 0.97
-37 0.030000000000000027
38 0.43
-38 0.5700000000000001
39 0.09
-39 0.91
40 0.8
-40 0.19999999999999996
41 0.95
-41 0.050000000000000044
42 0.75
-42 0.25
43 0.9
-43 0.09999999999999998
44 0.85
-44 0.15000000000000002
45 0.46
-45 0.54
46 0.63
-46 0.37
47 0.77
-47 0.22999999999999998
48 0.28
-48 0.72
49 0.38
-49 0.62
50 0.58
-50 0.42000000000000004
51 0.54
-51 0.45999999999999996
52 0.66
-52 0.33999999999999997
53 0.28
-53 0.72
54 0.82
-54 0.18000000000000005
55 0.24
-55 0.76
56 0.86
-56 0.14
57 0.24
-57 0.76
58 0.52
-58 0.48
59 0.08
-59 0.92
60 0.77
-60 0.22999999999999998
61 0.97
-61 0.030000000000000027
62 0.69
-62 0.31000000000000005
63 0.56
-63 0.43999999999999995
64 0.07
-64 0.9299999999999999
65 0.53
-65 0.47
66 0.35
-66 0.65
67 0.29
-67 0.71
68 0.95
-68 0.050000000000000044
69 0.05
-69 0.95
70 0.57
-70 0.43000000000000005
