1 0.49
-1 0.51
2 0.21
-2 0.79
3 0.31
-3 0.69
4 0.32
-4 0.6799999999999999
5 0.64
-5 0.36
6 0.23
-6 0.77
7 0.23
-7 0.77
8 0.5
-8 0.5
9 0.48
-9 0.52
10 0.34
-10 0.6599999999999999
11 0.34
-11 0.6599999999999999
12 0.16
-12 0.84
13 0.35
-13 0.65
14 0.22
-14 0.78
15 0.85
-15 0.15000000000000002
16 0.29
-16 0.71
17 0.21
-17 0.79
18 0.76
-18 0.24
19 0.61
-19 0.39
20 0.9
-20 0.09999999999999998
21 0.38
-21 0.62
22 0.8
-22 0.19999999999999996
23 0.48
-23 0.52
24 0.31
-24 0.69
25 0.73
-25 0.27
26 0.34
-26 0.6599999999999999
27 0.77
-27 0.22999999999999998
28 0.65
-28 0.35
29 0.29
-29 0.71
30 0.89
-30 0.10999999999999999
31 0.37
-31 0.63
32 0.71
-32 0.29000000000000004
33 0.08
-33 0.92
34 0.65
-34 0.35
35 0.84
-35 0.16000000000000003
36 0.84
-36 0.16000000000000003
37 0.43
-37 0.5700000000000001
38 0.5
-38 0.5
39 0.29
-39 0.71
40 0.72
-40 0.28
41 0.49
-41 0.51
42 0.32
-42 0.6799999999999999
43 0.01
-43 0.99
44 0.58
-44 0.42000000000000004
45 0.92
-45 0.07999999999999996
46 0.82
-46 0.18000000000000005
47 0.83
-47 0.17000000000000004
48 0.13
-48 0.87
49 0.45
-49 0.55
50 0.26
-50 0.74
51 0.28
-51 0.72
52 0.43
-52 0.5700000000000001
53 0.16
-53 0.84
54 0.29
-54 0.71
55 0.55
-55 0.44999999999999996
56 0.76
-56 0.24
57 0.81
-57 0.18999999999999995
58 0.34
-58 0.6599999999999999
59 0.62
-59 0.38
60 0.75
-60 0.25
61 0.45
-61 0.55
62 0.4
-62 0.6
63 0.15
-63 0.85
64 0.47
-64 0.53
65 0.86
-65 0.14
66 0.21
-66 0.79
67 0.83
-67 0.17000000000000004
68 0.2
-68 0.8
69 0.73
-69 0.27
70 0.91
-70 0.08999999999999997
