1 0.76
-1 0.24
2 0.2
-2 0.8
3 0.73
-3 0.27
4 0.04
-4 0.96
5 0.52
-5 0.48
6 0.59
-6 0.41000000000000003
7 0.66
-7 0.33999999999999997
8 0.76
-8 0.24
9 0.26
-9 0.74
10 0.24
-10 0.76
11 0.52
-11 0.48
12 0.77
-12 0.22999999999999998
13 0.99
-13 0.010000000000000009
14 0.65
-14 0.35
15 0.63
-15 0.37
16 0.09
-16 0.91
17 0.28
-17 0.72
18 0.29
-18 0.71
19 0.51
-19 0.49
20 0.56
-20 0.43999999999999995
21 0.57
-21 0.43000000000000005
22 0.92
-22 0.07999999999999996
23 0.73
-23 0.27
24 0.29
-24 0.71
25 0.13
-25 0.87
26 0.42
-26 0.5800000000000001
27 0.05
-27 0.95
28 0.81
-28 0.18999999999999995
29 0.62
-29 0.38
30 0.69
-30 0.31000000000000005
31 0.05
-31 0.95
32 0.23
-32 0.77
33 0.45
-33 0.55
34 0.54
-34 0.45999999999999996
35 0.25
-35 0.75
36 0.46
-36 0.54
37 0.38
-37 0.62
38 0.59
-38 0.41000000000000003
39 0.17
-39 0.83
40 0.72
-40 0.28
41 0.58
-41 0.42000000000000004
42 0.48
-42 0.52
43 0.95
-43 0.050000000000000044
44 0.32
-44 0.6799999999999999
45 0.07
-45 0.9299999999999999
46 0.83
-46 0.17000000000000004
47 0.67
-47 0.32999999999999996
48 0.11
-48 0.89
49 0.67
-49 0.32999999999999996
50 0.04
-50 0.96
51 0.86
-51 0.14
52 0.9
-52 0.09999999999999998
53 0.61
-53 0.39
54 0.19
-54 0.81
55 0.51
-55 0.49
56 0.1
-56 0.9
57 0.92
-57 0.07999999999999996
58 0.29
-58 0.71
59 0.72
-59 0.28
60 0.27
-60 0.73
61 0.58
-61 0.42000000000000004
62 0.94
-62 0.06000000000000005
63 0.12
-63 0.88
64 0.08
-64 0.92
65 0.61
-65 0.39
66 0.55
-66 0.44999999999999996
67 0.76
-67 0.24
68 0.77
-68 0.22999999999999998
69 0.63
-69 0.37
70 0.33
-70 0.6699999999999999
