1 0.68
-1 0.31999999999999995
2 0.13
-2 0.87
3 0.57
-3 0.43000000000000005
4 0.9
-4 0.09999999999999998
5 0.22
-5 0.78
6 0.93
-6 0.06999999999999995
7 0.85
-7 0.15000000000000002
8 0.3
-8 0.7
9 0.76
-9 0.24
10 0.6
-10 0.4
11 0.32
-11 0.6799999999999999
12 0.57
-12 0.43000000000000005
13 0.17
-13 0.83
14 0.85
-14 0.15000000000000002
15 0.14
-15 0.86
16 0.6
-16 0.4
17 0.06
-17 0.94
18 0.96
-18 0.040000000000000036
19 0.16
-19 0.84
20 0.79
-20 0.20999999999999996
21 0.9
-21 0.09999999999999998
22 0.73
-22 0.27
23 0.79
-23 0.20999999999999996
24 0.34
-24 0.6599999999999999
25 0.12
-25 0.88
26 0.21
-26 0.79
27 0.21
-27 0.79
28 0.6
-28 0.4
29 0.07
-29 0.9299999999999999
30 0.81
-30 0.18999999999999995
31 0.2
-31 0.8
32 0.46
-32 0.54
33 0.89
-33 0.10999999999999999
34 0.58
-34 0.42000000000000004
35 0.49
-35 0.51
36 0.01
-36 0.99
37 0.04
-37 0.96
38 0.95
-38 0.050000000000000044
39 0.23
-39 0.77
40 0.46
-40 0.54
41 0.27
-41 0.73
42 0.35
-42 0.65
43 0.67
-43 0.32999999999999996
44 0.69
-44 0.31000000000000005
45 0.63
-45 0.37
46 0.65
-46 0.35
47 0.49
-47 0.51
48 0.37
-48 0.63
49 0.5
-49 0.5
50 0.21
-50 0.79
51 0.89
-51 0.10999999999999999
52 0.37
-52 0.63
53 0.71
-53 0.29000000000000004
54 0.76
-54 0.24
55 0.26
-55 0.74
56 0.45
-56 0.55
57 0.08
-57 0.92
58 0.82
-58 0.18000000000000005
59 0.45
-59 0.55
60 0.05
-60 0.95
61 0.32
-61 0.6799999999999999
62 0.11
-62 0.89
63 0.08
-63 0.92
64 0.35
-64 0.65
65 0.33
-65 0.6699999999999999
66 0.97
-66 0.030000000000000027
67 0.24
-67 0.76
68 0.02
-68 0.98
69 0.74
-69 0.26
70 0.94
-70 0.06000000000000005
