1 0.03
-1 0.97
2 0.8
-2 0.19999999999999996
3 0.53
-3 0.47
4 0.83
-4 0.17000000000000004
5 0.36
-5 0.64
6 0.46
-6 0.54
7 0.25
-7 0.75
8 0.84
-8 0.16000000000000003
9 0.4
-9 0.6
10 0.16
-10 0.84
11 0.72
-11 0.28
12 0.22
-12 0.78
13 0.43
-13 0.5700000000000001
14 0.43
-14 0.5700000000000001
15 0.99
-15 0.010000000000000009
16 0.48
-16 0.52
17 0.14
-17 0.86
18 0.64
-18 0.36
19 0.89
-19 0.10999999999999999
20 0.42
-20 0.5800000000000001
21 0.25
-21 0.75
22 0.61
-22 0.39
23 0.83
-23 0.17000000000000004
24 0.84
-24 0.16000000000000003
25 0.88
-25 0.12
26 0.04
-26 0.96
27 0.08
-27 0.92
28 0.82
-28 0.18000000000000005
29 0.66
-29 0.33999999999999997
30 0.25
-30 0.75
31 0.82
-31 0.18000000000000005
32 0.77
-32 0.22999999999999998
33 0.28
-33 0.72
34 0.65
-34 0.35
35 0.09
-35 0.91
36 0.53
-36 0.47
37 0.55
-37 0.44999999999999996
38 0.68
-38 0.31999999999999995
39 0.73
-39 0.27
40 0.35
-40 0.65
41 0.74
-41 0.26
42 0.12
-42 0.88
43 0.54
-43 0.45999999999999996
44 0.37
-44 0.63
45 0.06
-45 0.94
46 0.44
-46 0.56
47 0.09
-47 0.91
48 0.09
-48 0.91
49 0.1
-49 0.9
50 0.7
-50 0.30000000000000004
51 0.74
-51 0.26
52 0.23
-52 0.77
53 0.13
-53 0.87
54 0.23
-54 0.77
55 0.7
-55 0.30000000000000004
56 0.99
-56 0.010000000000000009
57 0.11
-57 0.89
58 0.63
-58 0.37
59 0.09
-59 0.91
60 0.01
-60 0.99
61 0.68
-61 0.31999999999999995
62 0.21
-62 0.79
63 0.38
-63 0.62
64 0.46
-64 0.54
65 0.84
-65 0.16000000000000003
66 0.44
-66 0.56
67 0.6
-67 0.4
68 0.56
-68 0.43999999999999995
69 0.35
-69 0.65
70 0.98
-70 0.020000000000000018
