1 0.05
-1 0.95
2 0.87
-2 0.13
3 0.94
-3 0.06000000000000005
4 0.61
-4 0.39
5 0.79
-5 0.20999999999999996
6 0.82
-6 0.18000000000000005
7 0.46
-7 0.54
8 0.43
-8 0.5700000000000001
9 0.66
-9 0.33999999999999997
10 0.68
-10 0.31999999999999995
11 0.04
-11 0.96
12 0.36
-12 0.64
13 0.81
-13 0.18999999999999995
14 0.07
-14 0.9299999999999999
15 0.25
-15 0.75
16 0.31
-16 0.69
17 0.66
-17 0.33999999999999997
18 0.12
-18 0.88
19 0.23
-19 0.77
20 0.79
-20 0.20999999999999996
21 0.28
-21 0.72
22 0.32
-22 0.6799999999999999
23 0.61
-23 0.39
24 0.54
-24 0.45999999999999996
25 0.19
-25 0.81
26 0.93
-26 0.06999999999999995
27 0.54
-27 0.45999999999999996
28 0.4
-28 0.6
29 0.25
-29 0.75
30 0.59
-30 0.41000000000000003
31 0.62
-31 0.38
32 0.87
-32 0.13
33 0.58
-33 0.42000000000000004
34 0.9
-34 0.09999999999999998
35 0.42
-35 0.5800000000000001
36 0.82
-36 0.18000000000000005
37 0.88
-37 0.12
38 0.11
-38 0.89
39 0.05
-39 0.95
40 0.39
-40 0.61
41 0.88
-41 0.12
42 0.13
-42 0.87
43 0.47
-43 0.53
44 0.98
-44 0.020000000000000018
45 0.56
-45 0.43999999999999995
46 0.16
-46 0.84
47 0.63
-47 0.37
48 0.87
-48 0.13
49 0.68
-49 0.31999999999999995
50 0.68
-50 0.31999999999999995
51 0.8
-51 0.19999999999999996
52 0.24
-52 0.76
53 0.33
-53 0.6699999999999999
54 0.15
-54 0.85
55 0.08
-55 0.92
56 0.68
-56 0.31999999999999995
57 0.52
-57 0.48
58 0.76
-58 0.24
59 0.36
-59 0.64
60 0.19
-60 0.81
61 0.4
-61 0.6
62 0.08
-62 0.92
63 0.61
-63 0.39
64 0.64
-64 0.36
65 0.48
-65 0.52
66 0.78
-66 0.21999999999999997
67 0.74
-67 0.26
68 0.15
-68 0.85
69 0.16
-69 0.84
70 0.61
-70 0.39
