1 0.76
-1 0.24
2 0.29
-2 0.71
3 0.81
-3 0.18999999999999995
4 0.58
-4 0.42000000000000004
5 0.01
-5 0.99
6 0.26
-6 0.74
7 0.99
-7 0.010000000000000009
8 0.05
-8 0.95
9 0.16
-9 0.84
10 0.94
-10 0.06000000000000005
11 0.43
-11 0.5700000000000001
12 0.76
-12 0.24
13 0.04
-13 0.96
14 0.51
-14 0.49
15 0.33
-15 0.6699999999999999
16 0.75
-16 0.25
17 0.87
-17 0.13
18 0.07
-18 0.9299999999999999
19 0.81
-19 0.18999999999999995
20 0.5
-20 0.5
21 0.89
-21 0.10999999999999999
22 0.63
-22 0.37
23 0.91
-23 0.08999999999999997
24 0.53
-24 0.47
25 0.46
-25 0.54
26 0.67
-26 0.32999999999999996
27 0.61
-27 0.39
28 0.34
-28 0.6599999999999999
29 0.3
-29 0.7
30 0.95
-30 0.050000000000000044
31 0.44
-31 0.56
32 0.58
-32 0.42000000000000004
33 0.73
-33 0.27
34 0.69
-34 0.31000000000000005
35 0.32
-35 0.6799999999999999
36 0.57
-36 0.43000000000000005
37 0.63
-37 0.37
38 0.07
-38 0.9299999999999999
39 0.38
-39 0.62
40 0.54
-40 0.45999999999999996
41 0.77
-41 0.22999999999999998
42 0.82
-42 0.18000000000000005
43 0.63
-43 0.37
44 0.85
-44 0.15000000000000002
45 0.58
-45 0.42000000000000004
46 0.04
-46 0.96
47 0.99
-47 0.010000000000000009
48 0.65
-48 0.35
49 0.5
-49 0.5
50 0.39
-50 0.61
51 0.31
-51 0.69
52 0.66
-52 0.33999999999999997
53 0.06
-53 0.94
54 0.16
-54 0.84
55 0.31
-55 0.69
56 0.99
-56 0.010000000000000009
57 0.77
-57 0.22999999999999998
58 0.2
-58 0.8
59 0.3
-59 0.7
60 0.37
-60 0.63
61 0.95
-61 0.050000000000000044
62 0.79
-62 0.20999999999999996
63 0.5
-63 0.5
64 0.38
-64 0.62
65 0.72
-65 0.28
66 0.01
-66 0.99
67 0.92
-67 0.07999999999999996
68 0.36
-68 0.64
69 0.04
-69 0.96
70 0.21
-70 0.79
