1 0.44
-1 0.56
2 0.8
-2 0.19999999999999996
3 0.2
-3 0.8
4 0.6
-4 0.4
5 0.43
-5 0.5700000000000001
6 0.19
-6 0.81
7 0.43
-7 0.5700000000000001
8 0.93
-8 0.06999999999999995
9 0.49
-9 0.51
10 0.41
-10 0.5900000000000001
11 0.37
-11 0.63
12 0.61
-12 0.39
13 0.49
-13 0.51
14 0.51
-14 0.49
15 0.02
-15 0.98
16 0.6
-16 0.4
17 0.5
-17 0.5
18 0.45
-18 0.55
19 0.41
-19 0.5900000000000001
20 0.12
-20 0.88
21 0.39
-21 0.61
22 0.52
-22 0.48
23 0.15
-23 0.85
24 0.93
-24 0.06999999999999995
25 0.05
-25 0.95
26 0.43
-26 0.5700000000000001
27 0.27
-27 0.73
28 0.4
-28 0.6
29 0.02
-29 0.98
30 0.46
-30 0.54
31 0.15
-31 0.85
32 0.2
-32 0.8
33 0.42
-33 0.5800000000000001
34 0.17
-34 0.83
35 0.13
-35 0.87
36 0.67
-36 0.32999999999999996
37 0.91
-37 0.08999999999999997
38 0.32
-38 0.6799999999999999
39 0.56
-39 0.43999999999999995
40 0.95
-40 0.050000000000000044
41 0.4
-41 0.6
42 0.99
-42 0.010000000000000009
43 0.16
-43 0.84
44 0.9
-44 0.09999999999999998
45 0.48
-45 0.52
46 0.43
-46 0.5700000000000001
47 0.89
-47 0.10999999999999999
48 0.4
-48 0.6
49 0.59
-49 0.41000000000000003
50 0.26
-50 0.74
51 0.82
-51 0.18000000000000005
52 0.32
-52 0.6799999999999999
53 0.79
-53 0.20999999999999996
54 0.68
-54 0.31999999999999995
55 0.42
-55 0.5800000000000001
56 0.6
-56 0.4
57 0.57
-57 0.43000000000000005
58 0.45
-58 0.55
59 0.28
-59 0.72
60 0.16
-60 0.84
61 0.95
-61 0.050000000000000044
62 0.28
-62 0.72
63 0.93
-63 0.06999999999999995
64 0.2
-64 0.8
65 0.09
-65 0.91
66 0.08
-66 0.92
67 0.92
-67 0.07999999999999996
68 0.19
-68 0.81
69 0.01
-69 0.99
70 0.24
-70 0.76
