1 0.86
-1 0.14
2 0.96
-2 0.040000000000000036
3 0.39
-3 0.61
4 0.03
-4 0.97
5 0.64
-5 0.36
6 0.06
-6 0.94
7 0.57
-7 0.43000000000000005
8 0.96
-8 0.040000000000000036
9 0.34
-9 0.6599999999999999
10 0.33
-10 0.6699999999999999
11 0.72
-11 0.28
12 0.19
-12 0.81
13 0.33
-13 0.6699999999999999
14 0.79
-14 0.20999999999999996
15 0.22
-15 0.78
16 0.65
-16 0.35
17 0.33
-17 0.6699999999999999
18 0.98
-18 0.020000000000000018
19 0.51
-19 0.49
20 0.84
-20 0.16000000000000003
21 0.5
-21 0.5
22 0.12
-22 0.88
23 0.32
-23 0.6799999999999999
24 0.22
-24 0.78
25 0.22
-25 0.78
26 0.05
-26 0.95
27 0.03
-27 0.97
28 0.9
-28 0.09999999999999998
29 0.85
-29 0.15000000000000002
30 0.11
-30 0.89
31 0.33
-31 0.6699999999999999
32 0.58
-32 0.42000000000000004
33 0.56
-33 0.43999999999999995
34 0.71
-34 0.29000000000000004
35 0.02
-35 0.98
36 0.31
-36 0.69
37 0.59
-37 0.41000000000000003
38 0.52
-38 0.48
39 0.78
-39 0.21999999999999997
40 0.86
-40 0.14
41 0.71
-41 0.29000000000000004
42 0.18
-42 0.8200000000000001
43 0.72
-43 0.28
44 0.98
-44 0.020000000000000018
45 0.21
-45 0.79
46 0.37
-46 0.63
47 0.86
-47 0.14
48 0.02
-48 0.98
49 0.77
-49 0.22999999999999998
50 0.86
-50 0.14
51 0.17
-51 0.83
52 0.4
-52 0.6
53 0.58
-53 0.42000000000000004
54 0.23
-54 0.77
55 0.5
-55 0.5
56 0.31
-56 0.69
57 0.6
-57 0.4
58 0.77
-58 0.22999999999999998
59 0.16
-59 0.84
60 0.37
-60 0.63
61 0.25
-61 0.75
62 0.84
-62 0.16000000000000003
63 0.68
-63 0.31999999999999995
64 0.28
-64 0.72
65 0.07
-65 0.9299999999999999
66 0.7
-66 0.30000000000000004
67 0.98
-67 0.020000000000000018
68 0.56
-68 0.43999999999999995
69 0.4
-69 0.6
70 0.49
-70 0.51
