1 0.56
-1 0.43999999999999995
2 0.17
-2 0.83
3 0.85
-3 0.15000000000000002
4 0.66
-4 0.33999999999999997
5 0.16
-5 0.84
6 0.72
-6 0.28
7 0.93
-7 0.06999999999999995
8 0.71
-8 0.29000000000000004
9 0.69
-9 0.31000000000000005
10 0.69
-10 0.31000000000000005
11 0.78
-11 0.21999999999999997
12 0.72
-12 0.28
13 0.89
-13 0.10999999999999999
14 0.7
-14 0.30000000000000004
15 0.98
-15 0.020000000000000018
16 0.77
-16 0.22999999999999998
17 0.43
-17 0.5700000000000001
18 0.94
-18 0.06000000000000005
19 0.81
-19 0.18999999999999995
20 0.91
-20 0.08999999999999997
21 0.02
-21 0.98
22 0.61
-22 0.39
23 0.84
-23 0.16000000000000003
24 0.67
-24 0.32999999999999996
25 0.11
-25 0.89
26 0.21
-26 0.79
27 0.82
-27 0.18000000000000005
28 0.08
-28 0.92
29 0.87
-29 0.13
30 0.01
-30 0.99
31 0.13
-31 0.87
32 0.35
-32 0.65
33 0.16
-33 0.84
34 0.43
-34 0.5700000000000001
35 0.41
-35 0.5900000000000001
36 0.61
-36 0.39
37 0.43
-37 0.5700000000000001
38 0.4
-38 0.6
39 0.62
-39 0.38
40 0.56
-40 0.43999999999999995
41 0.3
-41 0.7
42 0.16
-42 0.84
43 0.26
-43 0.74
44 0.72
-44 0.28
45 0.36
-45 0.64
46 0.97
-46 0.030000000000000027
47 0.91
-47 0.08999999999999997
48 0.22
-48 0.78
49 0.66
-49 0.33999999999999997
50 0.59
-50 0.41000000000000003
51 0.86
-51 0.14
52 0.06
-52 0.94
53 0.11
-53 0.89
54 0.3
-54 0.7
55 0.62
-55 0.38
56 0.79
-56 0.20999999999999996
57 0.78
-57 0.21999999999999997
58 0.66
-58 0.33999999999999997
59 0.53
-59 0.47
60 0.03
-60 0.97
61 0.57
-61 0.43000000000000005
62 0.42
-62 0.5800000000000001
63 0.56
-63 0.43999999999999995
64 0.92
-64 0.07999999999999996
65 0.33
-65 0.6699999999999999
66 0.54
-66 0.45999999999999996
67 0.38
-67 0.62
68 0.63
-68 0.37
69 0.51
-69 0.49
70 0.79
-70 0.20999999999999996
