1 0.89
-1 0.10999999999999999
2 0.18
-2 0.8200000000000001
3 0.47
-3 0.53
4 0.86
-4 0.14
5 0.6
-5 0.4
6 0.15
-6 0.85
7 0.42
-7 0.5800000000000001
8 0.14
-8 0.86
9 0.99
-9 0.010000000000000009
10 0.66
-10 0.33999999999999997
11 0.74
-11 0.26
12 0.7
-12 0.30000000000000004
13 0.16
-13 0.84
14 0.85
-14 0.15000000000000002
15 0.98
-15 0.020000000000000018
16 0.34
-16 0.6599999999999999
17 0.24
-17 0.76
18 0.19
-18 0.81
19 0.6
-19 0.4
20 0.01
-20 0.99
21 0.31
-21 0.69
22 0.35
-22 0.65
23 0.06
-23 0.94
24 0.49
-24 0.51
25 0.16
-25 0.84
26 0.98
-26 0.020000000000000018
27 0.73
-27 0.27
28 0.31
-28 0.69
29 0.16
-29 0.84
30 0.85
-30 0.15000000000000002
31 0.89
-31 0.10999999999999999
32 0.5
-32 0.5
33 0.31
-33 0.69
34 0.89
-34 0.10999999999999999
35 0.96
-35 0.040000000000000036
36 0.98
-36 0.020000000000000018
37 0.22
-37 0.78
38 0.62
-38 0.38
39 0.54
-39 0.45999999999999996
40 0.86
-40 0.14
41 0.93
-41 0.06999999999999995
42 0.96
-42 0.040000000000000036
43 0.3
-43 0.7
44 0.84
-44 0.16000000000000003
45 0.44
-45 0.56
46 0.16
-46 0.84
47 0.19
-47 0.81
48 0.5
-48 0.5
49 0.17
-49 0.83
50 0.26
-50 0.74
51 0.89
-51 0.10999999999999999
52 0.32
-52 0.6799999999999999
53 0.1
-53 0.9
54 0.33
-54 0.6699999999999999
55 0.21
-55 0.79
56 0.69
-56 0.31000000000000005
57 0.49
-57 0.51
58 0.89
-58 0.10999999999999999
59 0.59
-59 0.41000000000000003
60 0.83
-60 0.17000000000000004
61 0.77
-61 0.22999999999999998
62 0.71
-62 0.29000000000000004
63 0.27
-63 0.73
64 0.31
-64 0.69
65 0.45
-65 0.55
66 0.14
-66 0.86
67 0.04
-67 0.96
68 0.42
-68 0.5800000000000001
69 0.71
-69 0.29000000000000004
70 0.69
-70 0.31000000000000005
