1 0.3
-1 0.7
2 0.33
-2 0.6699999999999999
3 0.35
-3 0.65
4 0.76
-4 0.24
5 0.2
-5 0.8
6 0.09
-6 0.91
7 0.51
-7 0.49
8 0.96
-8 0.040000000000000036
9 0.32
-9 0.6799999999999999
10 0.93
-10 0.06999999999999995
11 0.58
-11 0.42000000000000004
12 0.63
-12 0.37
13 0.18
-13 0.8200000000000001
14 0.34
-14 0.6599999999999999
15 0.05
-15 0.95
16 0.74
-16 0.26
17 0.13
-17 0.87
18 0.17
-18 0.83
19 0.74
-19 0.26
20 0.79
-20 0.20999999999999996
21 0.57
-21 0.43000000000000005
22 0.62
-22 0.38
23 0.47
-23 0.53
24 0.94
-24 0.06000000000000005
25 0.07
-25 0.9299999999999999
26 0.69
-26 0.31000000000000005
27 0.62
-27 0.38
28 0.29
-28 0.71
29 0.6
-29 0.4
30 0.15
-30 0.85
31 0.3
-31 0.7
32 0.68
-32 0.31999999999999995
33 0.81
-33 0.18999999999999995
34 0.16
-34 0.84
35 0.67
-35 0.32999999999999996
36 0.95
-36 0.050000000000000044
37 0.77
-37 0.22999999999999998
38 0.37
-38 0.63
39 0.82
-39 0.18000000000000005
40 0.84
-40 0.16000000000000003
41 0.24
-41 0.76
42 0.27
-42 0.73
43 0.17
-43 0.83
44 0.38
-44 0.62
45 0.46
-45 0.54
46 0.88
-46 0.12
47 0.31
-47 0.69
48 0.84
-48 0.16000000000000003
49 0.38
-49 0.62
50 0.61
-50 0.39
51 0.11
-51 0.89
52 0.16
-52 0.84
53 0.3
-53 0.7
54 0.11
-54 0.89
55 0.83
-55 0.17000000000000004
56 0.86
-56 0.14
57 0.83
-57 0.17000000000000004
58 0.81
-58 0.18999999999999995
59 0.85
-59 0.15000000000000002
60 0.33
-60 0.6699999999999999
61 0.79
-61 0.20999999999999996
62 0.66
-62 0.33999999999999997
63 0.3
-63 0.7
64 0.51
-64 0.49
65 0.2
-65 0.8
66 0.43
-66 0.5700000000000001
67 0.48
-67 0.52
68 0.55
-68 0.44999999999999996
69 0.74
-69 0.26
70 0.4
-70 0.6
