1 0.94
-1 0.06000000000000005
2 0.44
-2 0.56
3 0.4
-3 0.6
4 0.29
-4 0.71
5 0.36
-5 0.64
6 0.9
-6 0.09999999999999998
7 0.02
-7 0.98
8 0.13
-8 0.87
9 0.8
-9 0.19999999999999996
10 0.81
-10 0.18999999999999995
11 0.3
-11 0.7
12 0.64
-12 0.36
13 0.48
-13 0.52
14 0.38
-14 0.62
15 0.82
-15 0.18000000000000005
16 0.74
-16 0.26
17 0.62
-17 0.38
18 0.29
-18 0.71
19 0.97
-19 0.030000000000000027
20 0.8
-20 0.19999999999999996
21 0.23
-21 0.77
22 0.76
-22 0.24
23 0.4
-23 0.6
24 0.87
-24 0.13
25 0.29
-25 0.71
26 0.02
-26 0.98
27 0.65
-27 0.35
28 0.93
-28 0.06999999999999995
29 0.34
-29 0.6599999999999999
30 0.78
-30 0.21999999999999997
31 0.99
-31 0.010000000000000009
32 0.34
-32 0.6599999999999999
33 0.22
-33 0.78
34 0.95
-34 0.050000000000000044
35 0.24
-35 0.76
36 0.11
-36 0.89
37 0.97
-37 0.030000000000000027
38 0.16
-38 0.84
39 0.93
-39 0.06999999999999995
40 0.67
-40 0.32999999999999996
41 0.57
-41 0.43000000000000005
42 0.84
-42 0.16000000000000003
43 0.07
-43 0.9299999999999999
44 0.37
-44 0.63
45 0.68
-45 0.31999999999999995
46 0.26
-46 0.74
47 0.53
-47 0.47
48 0.25
-48 0.75
49 0.78
-49 0.21999999999999997
50 0.59
-50 0.41000000000000003
51 0.86
-51 0.14
52 0.02
-52 0.98
53 0.54
-53 0.45999999999999996
54 0.62
-54 0.38
55 0.57
-55 0.43000000000000005
56 0.34
-56 0.6599999999999999
57 0.07
-57 0.9299999999999999
58 0.29
-58 0.71
59 0.2
-59 0.8
60 0.23
-60 0.77
61 0.85
-61 0.15000000000000002
62 0.11
-62 0.89
63 0.16
-63 0.84
64 0.09
-64 0.91
65 0.69
-65 0.31000000000000005
66 0.74
-66 0.26
67 0.39
-67 0.61
68 0.13
-68 0.87
69 0.66
-69 0.33999999999999997
70 0.4
-70 0.6
