1 0.23
-1 0.77
2 0.19
-2 0.81
3 0.62
-3 0.38
4 0.31
-4 0.69
5 0.22
-5 0.78
6 0.3
-6 0.7
7 0.12
-7 0.88
8 0.99
-8 0.010000000000000009
9 0.77
-9 0.22999999999999998
10 0.47
-10 0.53
11 0.73
-11 0.27
12 0.71
-12 0.29000000000000004
13 0.67
-13 0.32999999999999996
14 0.82
-14 0.18000000000000005
15 0.45
-15 0.55
16 0.92
-16 0.07999999999999996
17 0.54
-17 0.45999999999999996
18 0.29
-18 0.71
19 0.92
-19 0.07999999999999996
20 0.78
-20 0.21999999999999997
21 0.83
-21 0.17000000000000004
22 0.78
-22 0.21999999999999997
23 0.42
-23 0.5800000000000001
24 0.2
-24 0.8
25 0.59
-25 0.41000000000000003
26 0.73
-26 0.27
27 0.45
-27 0.55
28 0.72
-28 0.28
29 0.31
-29 0.69
30 0.65
-30 0.35
31 0.11
-31 0.89
32 0.78
-32 0.21999999999999997
33 0.19
-33 0.81
34 0.85
-34 0.15000000000000002
35 0.84
-35 0.16000000000000003
36 0.15
-36 0.85
37 0.48
-37 0.52
38 0.32
-38 0.6799999999999999
39 0.72
-39 0.28
40 0.49
-40 0.51
41 0.37
-41 0.63
42 0.77
-42 0.22999999999999998
43 0.58
-43 0.42000000000000004
44 0.22
-44 0.78
45 0.67
-45 0.32999999999999996
46 0.76
-46 0.24
47 0.32
-47 0.6799999999999999
48 0.18
-48 0.8200000000000001
49 0.56
-49 0.43999999999999995
50 0.71
-50 0.29000000000000004
51 0.02
-51 0.98
52 0.8
-52 0.19999999999999996
53 0.36
-53 0.64
54 0.61
-54 0.39
55 0.79
-55 0.20999999999999996
56 0.54
-56 0.45999999999999996
57 0.75
-57 0.25
58 0.35
-58 0.65
59 0.32
-59 0.6799999999999999
60 0.73
-60 0.27
61 0.28
-61 0.72
62 0.32
-62 0.6799999999999999
63 0.17
-63 0.83
64 0.5
-64 0.5
65 0.13
-65 0.87
66 0.5
-66 0.5
67 0.42
-67 0.5800000000000001
68 0.8
-68 0.19999999999999996
69 0.33
-69 0.6699999999999999
70 0.56
-70 0.43999999999999995
