1 0.74
-1 0.26
2 0.65
-2 0.35
3 0.97
-3 0.030000000000000027
4 0.07
-4 0.9299999999999999
5 0.84
-5 0.16000000000000003
6 0.23
-6 0.77
7 0.67
-7 0.32999999999999996
8 0.65
-8 0.35
9 0.72
-9 0.28
10 0.99
-10 0.010000000000000009
11 0.23
-11 0.77
12 0.36
-12 0.64
13 0.02
-13 0.98
14 0.91
-14 0.08999999999999997
15 0.11
-15 0.89
16 0.26
-16 0.74
17 0.28
-17 0.72
18 0.9
-18 0.09999999999999998
19 0.37
-19 0.63
20 0.53
-20 0.47
21 0.51
-21 0.49
22 0.35
-22 0.65
23 0.53
-23 0.47
24 0.41
-24 0.5900000000000001
25 0.81
-25 0.18999999999999995
26 0.6
-26 0.4
27 0.06
-27 0.94
28 0.53
-28 0.47
29 0.7
-29 0.30000000000000004
30 0.36
-30 0.64
31 0.88
-31 0.12
32 0.17
-32 0.83
33 0.53
-33 0.47
34 0.33
-34 0.6699999999999999
35 0.9
-35 0.09999999999999998
36 0.07
-36 0.9299999999999999
37 0.55
-37 0.44999999999999996
38 0.13
-38 0.87
39 0.57
-39 0.43000000000000005
40 0.82
-40 0.18000000000000005
41 0.67
-41 0.32999999999999996
42 0.77
-42 0.22999999999999998
43 0.11
-43 0.89
44 0.05
-44 0.95
45 0.43
-45 0.5700000000000001
46 0.68
-46 0.31999999999999995
47 0.2
-47 0.8
48 0.5
-48 0.5
49 0.35
-49 0.65
50 0.08
-50 0.92
51 0.59
-51 0.41000000000000003
52 0.23
-52 0.77
53 0.7
-53 0.30000000000000004
54 0.92
-54 0.07999999999999996
55 0.62
-55 0.38
56 0.62
-56 0.38
57 0.65
-57 0.35
58 0.43
-58 0.5700000000000001
59 0.04
-59 0.96
60 0.2
-60 0.8
61 0.96
-61 0.040000000000000036
62 0.48
-62 0.52
63 0.55
-63 0.44999999999999996
64 0.01
-64 0.99
65 0.84
-65 0.16000000000000003
66 0.13
-66 0.87
67 0.64
-67 0.36
68 0.98
-68 0.020000000000000018
69 0.49
-69 0.51
70 0.83
-70 0.17000000000000004
