1 0.17
-1 0.83
2 0.55
-2 0.44999999999999996
3 0.72
-3 0.28
4 0.46
-4 0.54
5 0.85
-5 0.15000000000000002
6 0.8
-6 0.19999999999999996
7 0.16
-7 0.84
8 0.6
-8 0.4
9 0.18
-9 0.8200000000000001
10 0.08
-10 0.92
11 0.87
-11 0.13
12 0.71
-12 0.29000000000000004
13 0.07
-13 0.9299999999999999
14 0.2
-14 0.8
15 0.28
-15 0.72
16 0.28
-16 0.72
17 0.07
-17 0.9299999999999999
18 0.59
-18 0.41000000000000003
19 0.24
-19 0.76
20 0.87
-20 0.13
21 0.43
-21 0.5700000000000001
22 0.2
-22 0.8
23 0.04
-23 0.96
24 0.18
-24 0.8200000000000001
25 0.02
-25 0.98
26 0.04
-26 0.96
27 0.26
-27 0.74
28 0.66
-28 0.33999999999999997
29 0.83
-29 0.17000000000000004
30 0.32
-30 0.6799999999999999
31 0.48
-31 0.52
32 0.72
-32 0.28
33 0.79
-33 0.20999999999999996
34 0.13
-34 0.87
35 0.47
-35 0.53
36 0.06
-36 0.94
37 0.78
-37 0.21999999999999997
38 0.9
-38 0.09999999999999998
39 0.36
-39 0.64
40 0.77
-40 0.22999999999999998
41 0.51
-41 0.49
42 0.07
-42 0.9299999999999999
43 0.19
-43 0.81
44 0.59
-44 0.41000000000000003
45 0.75
-45 0.25
46 0.21
-46 0.79
47 0.64
-47 0.36
48 0.8
-48 0.19999999999999996
49 0.69
-49 0.31000000000000005
50 0.26
-50 0.74
51 0.94
-51 0.06000000000000005
52 0.66
-52 0.33999999999999997
53 0.4
-53 0.6
54 0.28
-54 0.72
55 0.69
-55 0.31000000000000005
56 0.44
-56 0.56
57 0.27
-57 0.73
58 0.21
-58 0.79
59 0.22
-59 0.78
60 0.34
-60 0.6599999999999999
61 0.05
-61 0.95
62 0.53
-62 0.47
63 0.35
-63 0.65
64 0.9
-64 0.09999999999999998
65 0.06
-65 0.94
66 0.28
-66 0.72
67 0.25
-67 0.75
68 0.08
-68 0.92
69 0.52
-69 0.48
70 0.79
-70 0.20999999999999996
