1 0.33
-1 0.6699999999999999
2 0.73
-2 0.27
3 0.8
-3 0.19999999999999996
4 0.14
-4 0.86
5 0.68
-5 0.31999999999999995
6 0.44
-6 0.56
7 0.45
-7 0.55
8 0.83
-8 0.17000000000000004
9 0.85
-9 0.15000000000000002
10 0.43
-10 0.5700000000000001
11 0.32
-11 0.6799999999999999
12 0.44
-12 0.56
13 0.89
-13 0.10999999999999999
14 0.48
-14 0.52
15 0.09
-15 0.91
16 0.77
-16 0.22999999999999998
17 0.35
-17 0.65
18 0.81
-18 0.18999999999999995
19 0.93
-19 0.06999999999999995
20 0.77
-20 0.22999999999999998
21 0.74
-21 0.26
22 0.68
-22 0.31999999999999995
23 0.65
-23 0.35
24 0.62
-24 0.38
25 0.75
-25 0.25
26 0.44
-26 0.56
27 0.32
-27 0.6799999999999999
28 0.84
-28 0.16000000000000003
29 0.09
-29 0.91
30 0.6
-30 0.4
31 0.64
-31 0.36
32 0.93
-32 0.06999999999999995
33 0.08
-33 0.92
34 0.1
-34 0.9
35 0.47
-35 0.53
36 0.23
-36 0.77
37 0.56
-37 0.43999999999999995
38 0.86
-38 0.14
39 0.27
-39 0.73
40 0.81
-40 0.18999999999999995
41 0.98
-41 0.020000000000000018
42 0.5
-42 0.5
43 0.21
-43 0.79
44 0.26
-44 0.74
45 0.99
-45 0.010000000000000009
46 0.9
-46 0.09999999999999998
47 0.53
-47 0.47
48 0.36
-48 0.64
49 0.78
-49 0.21999999999999997
50 0.89
-50 0.10999999999999999
51 0.9
-51 0.09999999999999998
52 0.36
-52 0.64
53 0.23
-53 0.77
54 0.35
-54 0.65
55 0.02
-55 0.98
56 0.91
-56 0.08999999999999997
57 0.26
-57 0.74
58 0.68
-58 0.31999999999999995
59 0.55
-59 0.44999999999999996
60 0.41
-60 0.5900000000000001
61 0.07
-61 0.9299999999999999
62 0.19
-62 0.81
63 0.23
-63 0.77
64 0.2
-64 0.8
65 0.14
-65 0.86
66 0.35
-66 0.65
67 0.52
-67 0.48
68 0.14
-68 0.86
69 0.77
-69 0.22999999999999998
70 0.76
-70 0.24
