1 0.34
-1 0.6599999999999999
2 0.52
-2 0.48
3 0.62
-3 0.38
4 0.88
-4 0.12
5 0.8
-5 0.19999999999999996
6 0.96
-6 0.040000000000000036
7 0.75
-7 0.25
8 0.34
-8 0.6599999999999999
9 0.06
-9 0.94
10 0.59
-10 0.41000000000000003
11 0.12
-11 0.88
12 0.61
-12 0.39
13 0.71
-13 0.29000000000000004
14 0.66
-14 0.33999999999999997
15 0.75
-15 0.25
16 0.73
-16 0.27
17 0.08
-17 0.92
18 0.05
-18 0.95
19 0.51
-19 0.49
20 0.39
-20 0.61
21 0.12
-21 0.88
22 0.16
-22 0.84
23 0.79
-23 0.20999999999999996
24 0.25
-24 0.75
25 0.24
-25 0.76
26 0.27
-26 0.73
27 0.48
-27 0.52
28 0.99
-28 0.010000000000000009
29 0.69
-29 0.31000000000000005
30 0.89
-30 0.10999999999999999
31 0.72
-31 0.28
32 0.26
-32 0.74
33 0.85
-33 0.15000000000000002
34 0.08
-34 0.92
35 0.56
-35 0.43999999999999995
36 0.07
-36 0.9299999999999999
37 0.11
-37 0.89
38 0.6
-38 0.4
39 0.62
-39 0.38
40 0.34
-40 0.6599999999999999
41 0.99
-41 0.010000000000000009
42 0.85
-42 0.15000000000000002
43 0.91
-43 0.08999999999999997
44 0.54
-44 0.45999999999999996
45 0.65
-45 0.35
46 0.31
-46 0.69
47 0.59
-47 0.41000000000000003
48 0.14
-48 0.86
49 0.98
-49 0.020000000000000018
50 0.31
-50 0.69
51 0.67
-51 0.32999999999999996
52 0.77
-52 0.22999999999999998
53 0.47
-53 0.53
54 0.48
-54 0.52
55 0.75
-55 0.25
56 0.15
-56 0.85
57 0.19
-57 0.81
58 0.17
-58 0.83
59 0.26
-59 0.74
60 0.18
-60 0.8200000000000001
61 0.9
-61 0.09999999999999998
62 0.34
-62 0.6599999999999999
63 0.07
-63 0.9299999999999999
64 0.75
-64 0.25
65 0.18
-65 0.8200000000000001
66 0.24
-66 0.76
67 0.24
-67 0.76
68 0.77
-68 0.22999999999999998
69 0.79
-69 0.20999999999999996
70 0.4
-70 0.6
