1 0.03
-1 0.97
2 0.82
-2 0.18000000000000005
3 0.77
-3 0.22999999999999998
4 0.81
-4 0.18999999999999995
5 0.63
-5 0.37
6 0.03
-6 0.97
7 0.33
-7 0.6699999999999999
8 0.28
-8 0.72
9 0.22
-9 0.78
10 0.67
-10 0.32999999999999996
11 0.05
-11 0.95
12 0.79
-12 0.20999999999999996
13 0.09
-13 0.91
14 0.12
-14 0.88
15 0.28
-15 0.72
16 0.4
-16 0.6
17 0.31
-17 0.69
18 0.72
-18 0.28
19 0.59
-19 0.41000000000000003
20 0.6
-20 0.4
21 0.91
-21 0.08999999999999997
22 0.59
-22 0.41000000000000003
23 0.38
-23 0.62
24 0.48
-24 0.52
25 0.69
-25 0.31000000000000005
26 0.71
-26 0.29000000000000004
27 0.54
-27 0.45999999999999996
28 0.73
-28 0.27
29 0.29
-29 0.71
30 0.8
-30 0.19999999999999996
31 0.25
-31 0.75
32 0.38
-32 0.62
33 0.17
-33 0.83
34 0.35
-34 0.65
35 0.45
-35 0.55
36 0.01
-36 0.99
37 0.24
-37 0.76
38 0.43
-38 0.5700000000000001
39 0.6
-39 0.4
40 0.27
-40 0.73
41 0.2
-41 0.8
42 0.11
-42 0.89
43 0.94
-43 0.06000000000000005
44 0.22
-44 0.78
45 0.63
-45 0.37
46 0.23
-46 0.77
47 0.61
-47 0.39
48 0.58
-48 0.42000000000000004
49 0.59
-49 0.41000000000000003
50 0.57
-50 0.43000000000000005
51 0.59
-51 0.41000000000000003
52 0.31
-52 0.69
53 0.16
-53 0.84
54 0.38
-54 0.62
55 0.87
-55 0.13
56 0.66
-56 0.33999999999999997
57 0.19
-57 0.81
58 0.86
-58 0.14
59 0.32
-59 0.6799999999999999
60 0.58
-60 0.42000000000000004
61 0.9
-61 0.09999999999999998
62 0.03
-62 0.97
63 0.97
-63 0.030000000000000027
64 0.6
-64 0.4
65 0.11
-65 0.89
66 0.85
-66 0.15000000000000002
67 0.53
-67 0.47
68 0.8
-68 0.19999999999999996
69 0.01
-69 0.99
70 0.9
-70 0.09999999999999998
