1 0.89
-1 0.10999999999999999
2 0.72
-2 0.28
3 0.56
-3 0.43999999999999995
4 0.01
-4 0.99
5 0.67
-5 0.32999999999999996
6 0.64
-6 0.36
7 0.72
-7 0.28
8 0.49
-8 0.51
9 0.82
-9 0.18000000000000005
10 0.74
-10 0.26
11 0.57
-11 0.43000000000000005
12 0.67
-12 0.32999999999999996
13 0.02
-13 0.98
14 0.36
-14 0.64
15 0.9
-15 0.09999999999999998
16 0.09
-16 0.91
17 0.3
-17 0.7
18 0.56
-18 0.43999999999999995
19 0.22
-19 0.78
20 0.21
-20 0.79
21 0.17
-21 0.83
22 0.8
-22 0.19999999999999996
23 0.71
-23 0.29000000000000004
24 0.96
-24 0.040000000000000036
25 0.11
-25 0.89
26 0.04
-26 0.96
27 0.39
-27 0.61
28 0.71
-28 0.29000000000000004
29 0.85
-29 0.15000000000000002
30 0.81
-30 0.18999999999999995
31 0.99
-31 0.010000000000000009
32 0.32
-32 0.6799999999999999
33 0.4
-33 0.6
34 0.15
-34 0.85
35 0.81
-35 0.18999999999999995
36 0.16
-36 0.84
37 0.76
-37 0.24
38 0.66
-38 0.33999999999999997
39 0.41
-39 0.5900000000000001
40 0.91
-40 0.08999999999999997
41 0.77
-41 0.22999999999999998
42 0.98
-42 0.020000000000000018
43 0.82
-43 0.18000000000000005
44 0.6
-44 0.4
45 0.69
-45 0.31000000000000005
46 0.16
-46 0.84
47 0.74
-47 0.26
48 0.3
-48 0.7
49 0.06
-49 0.94
50 0.9
-50 0.09999999999999998
51 0.84
-51 0.16000000000000003
52 0.19
-52 0.81
53 0.84
-53 0.16000000000000003
54 0.93
-54 0.06999999999999995
55 0.62
-55 0.38
56 0.57
-56 0.43000000000000005
57 0.12
-57 0.88
58 0.29
-58 0.71
59 0.87
-59 0.13
60 0.85
-60 0.15000000000000002
61 0.72
-61 0.28
62 0.31
-62 0.69
63 0.67
-63 0.32999999999999996
64 0.5
-64 0.5
65 0.32
-65 0.6799999999999999
66 0.12
-66 0.88
67 0.36
-67 0.64
68 0.69
-68 0.31000000000000005
69 0.23
-69 0.77
70 0.49
-70 0.51
