1 0.14
-1 0.86
2 0.07
-2 0.9299999999999999
3 0.49
-3 0.51
4 0.55
-4 0.44999999999999996
5 0.2
-5 0.8
6 0.16
-6 0.84
7 0.71
-7 0.29000000000000004
8 0.43
-8 0.5700000000000001
9 0.16
-9 0.84
10 0.83
-10 0.17000000000000004
11 0.61
-11 0.39
12 0.33
-12 0.6699999999999999
13 0.74
-13 0.26
14 0.05
-14 0.95
15 0.93
-15 0.06999999999999995
16 0.36
-16 0.64
17 0.06
-17 0.94
18 0.59
-18 0.41000000000000003
19 0.56
-19 0.43999999999999995
20 0.03
-20 0.97
21 0.73
-21 0.27
22 0.05
-22 0.95
23 0.12
-23 0.88
24 0.53
-24 0.47
25 0.38
-25 0.62
26 0.51
-26 0.49
27 0.79
-27 0.20999999999999996
28 0.16
-28 0.84
29 0.64
-29 0.36
30 0.22
-30 0.78
31 0.7
-31 0.30000000000000004
32 0.31
-32 0.69
33 0.8
-33 0.19999999999999996
34 0.85
-34 0.15000000000000002
35 0.09
-35 0.91
36 0.75
-36 0.25
37 0.55
-37 0.44999999999999996
38 0.7
-38 0.30000000000000004
39 0.64
-39 0.36
40 0.31
-40 0.69
41 0.8
-41 0.19999999999999996
42 0.91
-42 0.08999999999999997
43 0.5
-43 0.5
44 0.76
-44 0.24
45 0.78
-45 0.21999999999999997
46 0.02
-46 0.98
47 0.39
-47 0.61
48 0.16
-48 0.84
49 0.79
-49 0.20999999999999996
50 0.55
-50 0.44999999999999996
51 0.53
-51 0.47
52 0.22
-52 0.78
53 0.77
-53 0.22999999999999998
54 0.47
-54 0.53
55 0.84
-55 0.16000000000000003
56 0.83
-56 0.17000000000000004
57 0.47
-57 0.53
58 0.62
-58 0.38
59 0.09
-59 0.91
60 0.23
-60 0.77
61 0.43
-61 0.5700000000000001
62 0.7
-62 0.30000000000000004
63 0.83
-63 0.17000000000000004
64 0.39
-64 0.61
65 0.39
-65 0.61
66 0.01
-66 0.99
67 0.51
-67 0.49
68 0.03
-68 0.97
69 0.57
-69 0.43000000000000005
70 0.68
-70 0.31999999999999995
