1 0.48
-1 0.52
2 0.7
-2 0.30000000000000004
3 0.82
-3 0.18000000000000005
4 0.73
-4 0.27
5 0.97
-5 0.030000000000000027
6 0.29
-6 0.71
7 0.11
-7 0.89
8 0.52
-8 0.48
9 0.85
-9 0.15000000000000002
10 0.24
-10 0.76
11 0.04
-11 0.96
12 0.6
-12 0.4
13 0.92
-13 0.07999999999999996
14 0.15
-14 0.85
15 0.98
-15 0.020000000000000018
16 0.86
-16 0.14
17 0.91
-17 0.08999999999999997
18 0.51
-18 0.49
19 0.27
-19 0.73
20 0.11
-20 0.89
21 0.77
-21 0.22999999999999998
22 0.83
-22 0.17000000000000004
23 0.67
-23 0.32999999999999996
24 0.36
-24 0.64
25 0.68
-25 0.31999999999999995
26 0.95
-26 0.050000000000000044
27 0.52
-27 0.48
28 0.16
-28 0.84
29 0.75
-29 0.25
30 0.63
-30 0.37
31 0.56
-31 0.43999999999999995
32 0.21
-32 0.79
33 0.41
-33 0.5900000000000001
34 0.74
-34 0.26
35 0.19
-35 0.81
36 0.59
-36 0.41000000000000003
37 0.34
-37 0.6599999999999999
38 0.04
-38 0.96
39 0.83
-39 0.17000000000000004
40 0.46
-40 0.54
41 0.2
-41 0.8
42 0.43
-42 0.5700000000000001
43 0.96
-43 0.040000000000000036
44 0.31
-44 0.69
45 0.61
-45 0.39
46 0.23
-46 0.77
47 0.45
-47 0.55
48 0.75
-48 0.25
49 0.09
-49 0.91
50 0.67
-50 0.32999999999999996
51 0.99
-51 0.010000000000000009
52 0.63
-52 0.37
53 0.75
-53 0.25
54 0.87
-54 0.13
55 0.55
-55 0.44999999999999996
56 0.69
-56 0.31000000000000005
57 0.67
-57 0.32999999999999996
58 0.25
-58 0.75
59 0.22
-59 0.78
60 0.42
-60 0.5800000000000001
61 0.28
-61 0.72
62 0.27
-62 0.73
63 0.84
-63 0.16000000000000003
64 0.32
-64 0.6799999999999999
65 0.6
-65 0.4
66 0.44
-66 0.56
67 0.63
-67 0.37
68 0.02
-68 0.98
69 0.25
-69 0.75
70 0.96
-70 0.040000000000000036
