1 0.44
-1 0.56
2 0.84
-2 0.16000000000000003
3 0.88
-3 0.12
4 0.73
-4 0.27
5 0.16
-5 0.84
6 0.43
-6 0.5700000000000001
7 0.63
-7 0.37
8 0.59
-8 0.41000000000000003
9 0.33
-9 0.6699999999999999
10 0.9
-10 0.09999999999999998
11 0.78
-11 0.21999999999999997
12 0.37
-12 0.63
13 0.77
-13 0.22999999999999998
14 0.19
-14 0.81
15 0.77
-15 0.22999999999999998
16 0.7
-16 0.30000000000000004
17 0.76
-17 0.24
18 0.71
-18 0.29000000000000004
19 0.11
-19 0.89
20 0.72
-20 0.28
21 0.18
-21 0.8200000000000001
22 0.46
-22 0.54
23 0.3
-23 0.7
24 0.59
-24 0.41000000000000003
25 0.37
-25 0.63
26 0.44
-26 0.56
27 0.59
-27 0.41000000000000003
28 0.53
-28 0.47
29 0.62
-29 0.38
30 0.18
-30 0.8200000000000001
31 0.61
-31 0.39
32 0.38
-32 0.62
33 0.19
-33 0.81
34 0.33
-34 0.6699999999999999
35 0.1
-35 0.9
36 0.2
-36 0.8
37 0.44
-37 0.56
38 0.17
-38 0.83
39 0.47
-39 0.53
40 0.33
-40 0.6699999999999999
41 0.13
-41 0.87
42 0.02
-42 0.98
43 0.91
-43 0.08999999999999997
44 0.26
-44 0.74
45 0.46
-45 0.54
46 0.02
-46 0.98
47 0.69
-47 0.31000000000000005
48 0.28
-48 0.72
49 0.34
-49 0.6599999999999999
50 0.96
-50 0.040000000000000036
51 0.69
-51 0.31000000000000005
52 0.98
-52 0.020000000000000018
53 0.64
-53 0.36
54 0.43
-54 0.5700000000000001
55 0.8
-55 0.19999999999999996
56 0.99
-56 0.010000000000000009
57 0.05
-57 0.95
58 0.23
-58 0.77
59 0.51
-59 0.49
60 0.5
-60 0.5
61 0.84
-61 0.16000000000000003
62 0.58
-62 0.42000000000000004
63 0.6
-63 0.4
64 0.68
-64 0.31999999999999995
65 0.9
-65 0.09999999999999998
66 0.57
-66 0.43000000000000005
67 0.08
-67 0.92
68 0.42
-68 0.5800000000000001
69 0.78
-69 0.21999999999999997
70 0.47
-70 0.53
