1 0.97
-1 0.030000000000000027
2 0.18
-2 0.8200000000000001
3 0.76
-3 0.24
4 0.13
-4 0.87
5 0.11
-5 0.89
6 0.59
-6 0.41000000000000003
7 0.21
-7 0.79
8 0.25
-8 0.75
9 0.56
-9 0.43999999999999995
10 0.44
-10 0.56
11 0.01
-11 0.99
12 0.21
-12 0.79
13 0.22
-13 0.78
14 0.31
-14 0.69
15 0.61
-15 0.39
16 0.06
-16 0.94
17 0.62
-17 0.38
18 0.23
-18 0.77
19 0.36
-19 0.64
20 0.03
-20 0.97
21 0.21
-21 0.79
22 0.46
-22 0.54
23 0.27
-23 0.73
24 0.32
-24 0.6799999999999999
25 0.62
-25 0.38
26 0.9
-26 0.09999999999999998
27 0.99
-27 0.010000000000000009
28 0.06
-28 0.94
29 0.72
-29 0.28
30 0.62
-30 0.38
31 0.76
-31 0.24
32 0.19
-32 0.81
33 0.85
-33 0.15000000000000002
34 0.03
-34 0.97
35 0.59
-35 0.41000000000000003
36 0.8
-36 0.19999999999999996
37 0.9
-37 0.09999999999999998
38 0.6
-38 0.4
39 0.97
-39 0.030000000000000027
40 0.6
-40 0.4
41 0.05
-41 0.95
42 0.68
-42 0.31999999999999995
43 0.17
-43 0.83
44 0.47
-44 0.53
45 0.66
-45 0.33999999999999997
46 0.61
-46 0.39
47 0.08
-47 0.92
48 0.4
-48 0.6
49 0.81
-49 0.18999999999999995
50 0.88
-50 0.12
51 0.3
-51 0.7
52 0.68
-52 0.31999999999999995
53 0.83
-53 0.17000000000000004
54 0.15
-54 0.85
55 0.55
-55 0.44999999999999996
56 0.9
-56 0.09999999999999998
57 0.72
-57 0.28
58 0.12
-58 0.88
59 0.89
-59 0.10999999999999999
60 0.43
-60 0.5700000000000001
61 0.54
-61 0.45999999999999996
62 0.32
-62 0.6799999999999999
63 0.83
-63 0.17000000000000004
64 0.48
-64 0.52
65 0.99
-65 0.010000000000000009
66 0.18
-66 0.8200000000000001
67 0.72
-67 0.28
68 0.03
-68 0.97
69 0.74
-69 0.26
70 0.99
-70 0.010000000000000009
