1 0.38
-1 0.62
2 0.22
-2 0.78
3 0.43
-3 0.5700000000000001
4 0.85
-4 0.15000000000000002
5 0.43
-5 0.5700000000000001
6 0.42
-6 0.5800000000000001
7 0.64
-7 0.36
8 0.71
-8 0.29000000000000004
9 0.79
-9 0.20999999999999996
10 0.7
-10 0.30000000000000004
11 0.38
-11 0.62
12 0.79
-12 0.20999999999999996
13 0.02
-13 0.98
14 0.41
-14 0.5900000000000001
15 0.78
-15 0.21999999999999997
16 0.12
-16 0.88
17 0.68
-17 0.31999999999999995
18 0.42
-18 0.5800000000000001
19 0.72
-19 0.28
20 0.83
-20 0.17000000000000004
21 0.5
-21 0.5
22 0.38
-22 0.62
23 0.57
-23 0.43000000000000005
24 0.38
-24 0.62
25 0.93
-25 0.06999999999999995
26 0.81
-26 0.18999999999999995
27 0.18
-27 0.8200000000000001
28 0.85
-28 0.15000000000000002
29 0.14
-29 0.86
30 0.42
-30 0.5800000000000001
31 0.14
-31 0.86
32 0.63
-32 0.37
33 0.12
-33 0.88
34 0.31
-34 0.69
35 0.38
-35 0.62
36 0.97
-36 0.030000000000000027
37 0.44
-37 0.56
38 0.38
-38 0.62
39 0.29
-39 0.71
40 0.7
-40 0.30000000000000004
41 0.71
-41 0.29000000000000004
42 0.73
-42 0.27
43 0.55
-43 0.44999999999999996
44 0.01
-44 0.99
45 0.17
-45 0.83
46 0.73
-46 0.27
47 0.26
-47 0.74
48 0.73
-48 0.27
49 0.03
-49 0.97
50 0.56
-50 0.43999999999999995
51 0.65
-51 0.35
52 0.95
-52 0.050000000000000044
53 0.37
-53 0.63
54 0.86
-54 0.14
55 0.89
-55 0.10999999999999999
56 0.39
-56 0.61
57 0.79
-57 0.20999999999999996
58 0.07
-58 0.9299999999999999
59 0.24
-59 0.76
60 0.32
-60 0.6799999999999999
61 0.77
-61 0.22999999999999998
62 0.56
-62 0.43999999999999995
63 0.29
-63 0.71
64 0.93
-64 0.06999999999999995
65 0.89
-65 0.10999999999999999
66 0.26
-66 0.74
67 0.12
-67 0.88
68 0.36
-68 0.64
69 0.28
-69 0.72
70 0.82
-70 0.18000000000000005
