1 0.99
-1 0.010000000000000009
2 0.87
-2 0.13
3 0.99
-3 0.010000000000000009
4 0.9
-4 0.09999999999999998
5 0.08
-5 0.92
6 0.63
-6 0.37
7 0.5
-7 0.5
8 0.86
-8 0.14
9 0.06
-9 0.94
10 0.54
-10 0.45999999999999996
11 0.2
-11 0.8
12 0.45
-12 0.55
13 0.3
-13 0.7
14 0.27
-14 0.73
15 0.83
-15 0.17000000000000004
16 0.01
-16 0.99
17 0.53
-17 0.47
18 0.22
-18 0.78
19 0.2
-19 0.8
20 0.72
-20 0.28
21 0.49
-21 0.51
22 0.74
-22 0.26
23 0.01
-23 0.99
24 0.38
-24 0.62
25 0.58
-25 0.42000000000000004
26 0.5
-26 0.5
27 0.4
-27 0.6
28 0.11
-28 0.89
29 0.88
-29 0.12
30 0.45
-30 0.55
31 0.72
-31 0.28
32 0.81
-32 0.18999999999999995
33 0.91
-33 0.08999999999999997
34 0.28
-34 0.72
35 0.67
-35 0.32999999999999996
36 0.03
-36 0.97
37 0.46
-37 0.54
38 0.18
-38 0.8200000000000001
39 0.27
-39 0.73
40 0.67
-40 0.32999999999999996
41 0.61
-41 0.39
42 0.77
-42 0.22999999999999998
43 0.06
-43 0.94
44 0.74
-44 0.26
45 0.22
-45 0.78
46 0.77
-46 0.22999999999999998
47 0.42
-47 0.5800000000000001
48 0.6
-48 0.4
49 0.15
-49 0.85
50 0.03
-50 0.97
51 0.13
-51 0.87
52 0.89
-52 0.10999999999999999
53 0.87
-53 0.13
54 0.23
-54 0.77
55 0.24
-55 0.76
56 0.95
-56 0.050000000000000044
57 0.01
-57 0.99
58 0.14
-58 0.86
59 0.65
-59 0.35
60 0.72
-60 0.28
61 0.19
-61 0.81
62 0.18
-62 0.8200000000000001
63 0.09
-63 0.91
64 0.57
-64 0.43000000000000005
65 0.7
-65 0.30000000000000004
66 0.17
-66 0.83
67 0.7
-67 0.30000000000000004
68 0.01
-68 0.99
69 0.58
-69 0.42000000000000004
70 0.26
-70 0.74
