1 0.32
-1 0.6799999999999999
2 0.34
-2 0.6599999999999999
3 0.51
-3 0.49
4 0.5
-4 0.5
5 0.83
-5 0.17000000000000004
6 0.42
-6 0.5800000000000001
7 0.77
-7 0.22999999999999998
8 0.67
-8 0.32999999999999996
9 0.32
-9 0.6799999999999999
10 0.83
-10 0.17000000000000004
11 0.98
-11 0.020000000000000018
12 0.16
-12 0.84
13 0.37
-13 0.63
14 0.12
-14 0.88
15 0.93
-15 0.06999999999999995
16 0.43
-16 0.5700000000000001
17 0.96
-17 0.040000000000000036
18 0.93
-18 0.06999999999999995
19 0.83
-19 0.17000000000000004
20 0.14
-20 0.86
21 0.7
-21 0.30000000000000004
22 0.52
-22 0.48
23 0.46
-23 0.54
24 0.01
-24 0.99
25 0.24
-25 0.76
26 0.88
-26 0.12
27 0.17
-27 0.83
28 0.93
-28 0.06999999999999995
29 0.59
-29 0.41000000000000003
30 0.21
-30 0.79
31 0.24
-31 0.76
32 0.82
-32 0.18000000000000005
33 0.93
-33 0.06999999999999995
34 0.5
-34 0.5
35 0.64
-35 0.36
36 0.92
-36 0.07999999999999996
37 0.62
-37 0.38
38 0.21
-38 0.79
39 0.95
-39 0.050000000000000044
40 0.71
-40 0.29000000000000004
41 0.6
-41 0.4
42 0.17
-42 0.83
43 0.79
-43 0.20999999999999996
44 0.54
-44 0.45999999999999996
45 0.6
-45 0.4
46 0.7
-46 0.30000000000000004
47 0.38
-47 0.62
48 0.44
-48 0.56
49 0.01
-49 0.99
50 0.99
-50 0.010000000000000009
51 0.39
-51 0.61
52 0.56
-52 0.43999999999999995
53 0.43
-53 0.5700000000000001
54 0.97
-54 0.030000000000000027
55 0.91
-55 0.08999999999999997
56 0.98
-56 0.020000000000000018
57 0.42
-57 0.5800000000000001
58 0.58
-58 0.42000000000000004
59 0.91
-59 0.08999999999999997
60 0.19
-60 0.81
61 0.05
-61 0.95
62 0.72
-62 0.28
63 0.08
-63 0.92
64 0.1
-64 0.9
65 0.94
-65 0.06000000000000005
66 0.77
-66 0.22999999999999998
67 0.85
-67 0.15000000000000002
68 0.43
-68 0.5700000000000001
69 0.18
-69 0.8200000000000001
70 0.7
-70 0.30000000000000004
