1 0.34
-1 0.6599999999999999
2 0.61
-2 0.39
3 0.24
-3 0.76
4 0.03
-4 0.97
5 0.19
-5 0.81
6 0.69
-6 0.31000000000000005
7 0.46
-7 0.54
8 0.51
-8 0.49
9 0.32
-9 0.6799999999999999
10 0.63
-10 0.37
11 0.27
-11 0.73
12 0.05
-12 0.95
13 0.13
-13 0.87
14 0.64
-14 0.36
15 0.81
-15 0.18999999999999995
16 0.75
-16 0.25
17 0.91
-17 0.08999999999999997
18 0.72
-18 0.28
19 0.97
-19 0.030000000000000027
20 0.62
-20 0.38
21 0.1
-21 0.9
22 0.86
-22 0.14
23 0.66
-23 0.33999999999999997
24 0.43
-24 0.5700000000000001
25 0.54
-25 0.45999999999999996
26 0.43
-26 0.5700000000000001
27 0.48
-27 0.52
28 0.15
-28 0.85
29 0.19
-29 0.81
30 0.34
-30 0.6599999999999999
31 0.1
-31 0.9
32 0.71
-32 0.29000000000000004
33 0.85
-33 0.15000000000000002
34 0.47
-34 0.53
35 0.61
-35 0.39
36 0.74
-36 0.26
37 0.66
-37 0.33999999999999997
38 0.32
-38 0.6799999999999999
39 0.34
-39 0.6599999999999999
40 0.62
-40 0.38
41 0.83
-41 0.17000000000000004
42 0.28
-42 0.72
43 0.82
-43 0.18000000000000005
44 0.91
-44 0.08999999999999997
45 0.37
-45 0.63
46 0.62
-46 0.38
47 0.08
-47 0.92
48 0.38
-48 0.62
49 0.47
-49 0.53
50 0.07
-50 0.9299999999999999
51 0.51
-51 0.49
52 0.69
-52 0.31000000000000005
53 0.28
-53 0.72
54 0.12
-54 0.88
55 0.54
-55 0.45999999999999996
56 0.51
-56 0.49
57 0.4
-57 0.6
58 0.96
-58 0.040000000000000036
59 0.61
-59 0.39
60 0.28
-60 0.72
61 0.08
-61 0.92
62 0.8
-62 0.19999999999999996
63 0.37
-63 0.63
64 0.71
-64 0.29000000000000004
65 0.75
-65 0.25
66 0.7
-66 0.30000000000000004
67 0.69
-67 0.31000000000000005
68 0.73
-68 0.27
69 0.99
-69 0.010000000000000009
70 0.12
-70 0.88
