1 0.23
-1 0.77
2 0.49
-2 0.51
3 0.37
-3 0.63
4 0.23
-4 0.77
5 0.29
-5 0.71
6 0.37
-6 0.63
7 0.79
-7 0.20999999999999996
8 0.44
-8 0.56
9 0.42
-9 0.5800000000000001
10 0.78
-10 0.21999999999999997
11 0.17
-11 0.83
12 0.44
-12 0.56
13 0.36
-13 0.64
14 0.2
-14 0.8
15 0.47
-15 0.53
16 0.87
-16 0.13
17 0.2
-17 0.8
18 0.1
-18 0.9
19 0.98
-19 0.020000000000000018
20 0.3
-20 0.7
21 0.24
-21 0.76
22 0.37
-22 0.63
23 0.71
-23 0.29000000000000004
24 0.76
-24 0.24
25 0.1
-25 0.9
26 0.36
-26 0.64
27 0.61
-27 0.39
28 0.01
-28 0.99
29 0.31
-29 0.69
30 0.01
-30 0.99
31 0.58
-31 0.42000000000000004
32 0.66
-32 0.33999999999999997
33 0.92
-33 0.07999999999999996
34 0.67
-34 0.32999999999999996
35 0.04
-35 0.96
36 0.71
-36 0.29000000000000004
37 0.05
-37 0.95
38 0.46
-38 0.54
39 0.35
-39 0.65
40 0.91
-40 0.08999999999999997
41 0.57
-41 0.43000000000000005
42 0.42
-42 0.5800000000000001
43 0.36
-43 0.64
44 0.14
-44 0.86
45 0.68
-45 0.31999999999999995
46 0.42
-46 0.5800000000000001
47 0.49
-47 0.51
48 0.91
-48 0.08999999999999997
49 0.54
-49 0.45999999999999996
50 0.06
-50 0.94
51 0.95
-51 0.050000000000000044
52 0.7
-52 0.30000000000000004
53 0.21
-53 0.79
54 0.61
-54 0.39
55 0.87
-55 0.13
56 0.06
-56 0.94
57 0.76
-57 0.24
58 0.57
-58 0.43000000000000005
59 0.45
-59 0.55
60 0.86
-60 0.14
61 0.04
-61 0.96
62 0.49
-62 0.51
63 0.38
-63 0.62
64 0.27
-64 0.73
65 0.66
-65 0.33999999999999997
66 0.47
-66 0.53
67 0.74
-67 0.26
68 0.81
-68 0.18999999999999995
69 0.7
-69 0.30000000000000004
70 0.41
-70 0.5900000000000001
