1 0.01
-1 0.99
2 0.5
-2 0.5
3 0.4
-3 0.6
4 0.4
-4 0.6
5 0.42
-5 0.5800000000000001
6 0.9
-6 0.09999999999999998
7 0.36
-7 0.64
8 0.4
-8 0.6
9 0.84
-9 0.16000000000000003
10 0.06
-10 0.94
11 0.21
-11 0.79
12 0.28
-12 0.72
13 0.81
-13 0.18999999999999995
14 0.02
-14 0.98
15 0.86
-15 0.14
16 0.15
-16 0.85
17 0.72
-17 0.28
18 0.36
-18 0.64
19 0.84
-19 0.16000000000000003
20 0.73
-20 0.27
21 0.48
-21 0.52
22 0.78
-22 0.21999999999999997
23 0.51
-23 0.49
24 0.46
-24 0.54
25 0.36
-25 0.64
26 0.75
-26 0.25
27 0.16
-27 0.84
28 0.19
-28 0.81
29 0.05
-29 0.95
30 0.46
-30 0.54
31 0.1
-31 0.9
32 0.01
-32 0.99
33 0.78
-33 0.21999999999999997
34 0.62
-34 0.38
35 0.44
-35 0.56
36 0.05
-36 0.95
37 0.39
-37 0.61
38 0.83
-38 0.17000000000000004
39 0.34
-39 0.6599999999999999
40 0.44
-40 0.56
41 0.34
-41 0.6599999999999999
42 0.11
-42 0.89
43 0.78
-43 0.21999999999999997
44 0.35
-44 0.65
45 0.82
-45 0.18000000000000005
46 0.19
-46 0.81
47 0.17
-47 0.83
48 0.37
-48 0.63
49 0.81
-49 0.18999999999999995
50 0.33
-50 0.6699999999999999
51 0.79
-51 0.20999999999999996
52 0.1
-52 0.9
53 0.87
-53 0.13
54 0.56
-54 0.43999999999999995
55 0.37
-55 0.63
56 0.42
-56 0.5800000000000001
57 0.71
-57 0.29000000000000004
58 0.57
-58 0.43000000000000005
59 0.65
-59 0.35
60 0.67
-60 0.32999999999999996
61 0.52
-61 0.48
62 0.44
-62 0.56
63 0.88
-63 0.12
64 0.56
-64 0.43999999999999995
65 0.17
-65 0.83
66 0.52
-66 0.48
67 0.34
-67 0.6599999999999999
68 0.07
-68 0.9299999999999999
69 0.4
-69 0.6
70 0.25
-70 0.75
