1 0.96
-1 0.040000000000000036
2 0.32
-2 0.6799999999999999
3 0.78
-3 0.21999999999999997
4 0.62
-4 0.38
5 0.6
-5 0.4
6 0.85
-6 0.15000000000000002
7 0.27
-7 0.73
8 0.55
-8 0.44999999999999996
9 0.97
-9 0.030000000000000027
10 0.71
-10 0.29000000000000004
11 0.79
-11 0.20999999999999996
12 0.09
-12 0.91
13 0.52
-13 0.48
14 0.94
-14 0.06000000000000005
15 0.57
-15 0.43000000000000005
16 0.2
-16 0.8
17 0.01
-17 0.99
18 0.17
-18 0.83
19 0.91
-19 0.08999999999999997
20 0.79
-20 0.20999999999999996
21 0.69
-21 0.31000000000000005
22 0.92
-22 0.07999999999999996
23 0.85
-23 0.15000000000000002
24 0.95
-24 0.050000000000000044
25 0.53
-25 0.47
26 0.58
-26 0.42000000000000004
27 0.34
-27 0.6599999999999999
28 0.05
-28 0.95
29 0.1
-29 0.9
30 0.04
-30 0.96
31 0.46
-31 0.54
32 0.81
-32 0.18999999999999995
33 0.65
-33 0.35
34 0.42
-34 0.5800000000000001
35 0.58
-35 0.42000000000000004
36 0.52
-36 0.48
37 0.24
-37 0.76
38 0.97
-38 0.030000000000000027
39 0.32
-39 0.6799999999999999
40 0.26
-40 0.74
41 0.04
-41 0.96
42 0.78
-42 0.21999999999999997
43 0.62
-43 0.38
44 0.85
-44 0.15000000000000002
45 0.74
-45 0.26
46 0.07
-46 0.9299999999999999
47 0.68
-47 0.31999999999999995
48 0.63
-48 0.37
49 0.46
-49 0.54
50 0.81
-50 0.18999999999999995
51 0.55
-51 0.44999999999999996
52 0.65
-52 0.35
53 0.29
-53 0.71
54 0.63
-54 0.37
55 0.46
-55 0.54
56 0.83
-56 0.17000000000000004
57 0.81
-57 0.18999999999999995
58 0.84
-58 0.16000000000000003
59 0.76
-59 0.24
60 0.68
-60 0.31999999999999995
61 0.26
-61 0.74
62 0.06
-62 0.94
63 0.52
-63 0.48
64 0.83
-64 0.17000000000000004
65 0.17
-65 0.83
66 0.23
-66 0.77
67 0.98
-67 0.020000000000000018
68 0.34
-68 0.6599999999999999
69 0.68
-69 0.31999999999999995
70 0.18
-70 0.8200000000000001
