1 0.37
-1 0.63
2 0.72
-2 0.28
3 0.87
-3 0.13
4 0.71
-4 0.29000000000000004
5 0.71
-5 0.29000000000000004
6 0.06
-6 0.94
7 0.71
-7 0.29000000000000004
8 0.8
-8 0.19999999999999996
9 0.63
-9 0.37
10 0.58
-10 0.42000000000000004
11 0.97
-11 0.030000000000000027
12 0.53
-12 0.47
13 0.08
-13 0.92
14 0.16
-14 0.84
15 0.98
-15 0.020000000000000018
16 0.9
-16 0.09999999999999998
17 0.78
-17 0.21999999999999997
18 0.66
-18 0.33999999999999997
19 0.39
-19 0.61
20 0.06
-20 0.94
21 0.26
-21 0.74
22 0.15
-22 0.85
23 0.56
-23 0.43999999999999995
24 0.98
-24 0.020000000000000018
25 0.77
-25 0.22999999999999998
26 0.33
-26 0.6699999999999999
27 0.95
-27 0.050000000000000044
28 0.48
-28 0.52
29 0.45
-29 0.55
30 0.84
-30 0.16000000000000003
31 0.83
-31 0.17000000000000004
32 0.79
-32 0.20999999999999996
33 0.85
-33 0.15000000000000002
34 0.13
-34 0.87
35 0.97
-35 0.030000000000000027
36 0.11
-36 0.89
37 0.68
-37 0.31999999999999995
38 0.95
-38 0.050000000000000044
39 0.1
-39 0.9
40 0.22
-40 0.78
41 0.68
-41 0.31999999999999995
42 0.27
-42 0.73
43 0.32
-43 0.6799999999999999
44 0.86
-44 0.14
45 0.71
-45 0.29000000000000004
46 0.5
-46 0.5
47 0.84
-47 0.16000000000000003
48 0.31
-48 0.69
49 0.31
-49 0.69
50 0.45
-50 0.55
51 0.24
-51 0.76
52 0.13
-52 0.87
53 0.54
-53 0.45999999999999996
54 0.4
-54 0.6
55 0.36
-55 0.64
56 0.36
-56 0.64
57 0.1
-57 0.9
58 0.86
-58 0.14
59 0.13
-59 0.87
60 0.05
-60 0.95
61 0.6
-61 0.4
62 0.54
-62 0.45999999999999996
63 0.38
-63 0.62
64 0.37
-64 0.63
65 0.12
-65 0.88
66 0.86
-66 0.14
67 0.79
-67 0.20999999999999996
68 0.97
-68 0.030000000000000027
69 0.42
-69 0.5800000000000001
70 0.9
-70 0.09999999999999998
