1 0.83
-1 0.17000000000000004
2 0.49
-2 0.51
3 0.3
-3 0.7
4 0.7
-4 0.30000000000000004
5 0.31
-5 0.69
6 0.14
-6 0.86
7 0.97
-7 0.030000000000000027
8 0.9
-8 0.09999999999999998
9 0.35
-9 0.65
10 0.44
-10 0.56
11 0.66
-11 0.33999999999999997
12 0.05
-12 0.95
13 0.12
-13 0.88
14 0.04
-14 0.96
15 0.45
-15 0.55
16 0.02
-16 0.98
17 0.86
-17 0.14
18 0.02
-18 0.98
19 0.73
-19 0.27
20 0.03
-20 0.97
21 0.51
-21 0.49
22 0.91
-22 0.08999999999999997
23 0.85
-23 0.15000000000000002
24 0.21
-24 0.79
25 0.06
-25 0.94
26 0.41
-26 0.5900000000000001
27 0.51
-27 0.49
28 0.48
-28 0.52
29 0.85
-29 0.15000000000000002
30 0.97
-30 0.030000000000000027
31 0.04
-31 0.96
32 0.89
-32 0.10999999999999999
33 0.63
-33 0.37
34 0.83
-34 0.17000000000000004
35 0.24
-35 0.76
36 0.39
-36 0.61
37 0.62
-37 0.38
38 0.74
-38 0.26
39 0.64
-39 0.36
40 0.19
-40 0.81
41 0.39
-41 0.61
42 0.01
-42 0.99
43 0.71
-43 0.29000000000000004
44 0.81
-44 0.18999999999999995
45 0.58
-45 0.42000000000000004
46 0.29
-46 0.71
47 0.52
-47 0.48
48 0.89
-48 0.10999999999999999
49 0.82
-49 0.18000000000000005
50 0.08
-50 0.92
51 0.67
-51 0.32999999999999996
52 0.84
-52 0.16000000000000003
53 0.24
-53 0.76
54 0.04
-54 0.96
55 0.98
-55 0.020000000000000018
56 0.11
-56 0.89
57 0.44
-57 0.56
58 0.66
-58 0.33999999999999997
59 0.33
-59 0.6699999999999999
60 0.28
-60 0.72
61 0.28
-61 0.72
62 0.06
-62 0.94
63 0.06
-63 0.94
64 0.47
-64 0.53
65 0.3
-65 0.7
66 0.89
-66 0.10999999999999999
67 0.28
-67 0.72
68 0.66
-68 0.33999999999999997
69 0.87
-69 0.13
70 0.01
-70 0.99
