1 0.13
-1 0.87
2 0.13
-2 0.87
3 0.43
-3 0.5700000000000001
4 0.07
-4 0.9299999999999999
5 0.01
-5 0.99
6 0.63
-6 0.37
7 0.61
-7 0.39
8 0.07
-8 0.9299999999999999
9 0.64
-9 0.36
10 0.62
-10 0.38
11 0.04
-11 0.96
12 0.44
-12 0.56
13 0.62
-13 0.38
14 0.88
-14 0.12
15 0.27
-15 0.73
16 0.67
-16 0.32999999999999996
17 0.73
-17 0.27
18 0.32
-18 0.6799999999999999
19 0.85
-19 0.15000000000000002
20 0.97
-20 0.030000000000000027
21 0.39
-21 0.61
22 0.31
-22 0.69
23 0.96
-23 0.040000000000000036
24 0.32
-24 0.6799999999999999
25 0.77
-25 0.22999999999999998
26 0.78
-26 0.21999999999999997
27 0.56
-27 0.43999999999999995
28 0.28
-28 0.72
29 0.74
-29 0.26
30 0.33
-30 0.6699999999999999
31 0.63
-31 0.37
32 0.48
-32 0.52
33 0.66
-33 0.33999999999999997
34 0.3
-34 0.7
35 0.97
-35 0.030000000000000027
36 0.26
-36 0.74
37 0.49
-37 0.51
38 0.28
-38 0.72
39 0.17
-39 0.83
40 0.22
-40 0.78
41 0.89
-41 0.10999999999999999
42 0.37
-42 0.63
43 0.72
-43 0.28
44 0.89
-44 0.10999999999999999
45 0.21
-45 0.79
46 0.13
-46 0.87
47 0.46
-47 0.54
48 0.83
-48 0.17000000000000004
49 0.86
-49 0.14
50 0.37
-50 0.63
51 0.94
-51 0.06000000000000005
52 0.24
-52 0.76
53 0.54
-53 0.45999999999999996
54 0.89
-54 0.10999999999999999
55 0.95
-55 0.050000000000000044
56 0.71
-56 0.29000000000000004
57 0.07
-57 0.9299999999999999
58 0.19
-58 0.81
59 0.54
-59 0.45999999999999996
60 0.92
-60 0.07999999999999996
61 0.3
-61 0.7
62 0.3
-62 0.7
63 0.24
-63 0.76
64 0.59
-64 0.41000000000000003
65 0.98
-65 0.020000000000000018
66 0.79
-66 0.20999999999999996
67 0.68
-67 0.31999999999999995
68 0.42
-68 0.5800000000000001
69 0.14
-69 0.86
70 0.12
-70 0.88
