1 0.68
-1 0.31999999999999995
2 0.51
-2 0.49
3 0.62
-3 0.38
4 0.95
-4 0.050000000000000044
5 0.6
-5 0.4
6 0.55
-6 0.44999999999999996
7 0.87
-7 0.13
8 0.64
-8 0.36
9 0.02
-9 0.98
10 0.92
-10 0.07999999999999996
11 0.9
-11 0.09999999999999998
12 0.82
-12 0.18000000000000005
13 0.39
-13 0.61
14 0.3
-14 0.7
15 0.11
-15 0.89
16 0.08
-16 0.92
17 0.46
-17 0.54
18 0.63
-18 0.37
19 0.32
-19 0.6799999999999999
20 0.39
-20 0.61
21 0.61
-21 0.39
22 0.17
-22 0.83
23 0.66
-23 0.33999999999999997
24 0.67
-24 0.32999999999999996
25 0.67
-25 0.32999999999999996
26 0.09
-26 0.91
27 0.19
-27 0.81
28 0.61
-28 0.39
29 0.61
-29 0.39
30 0.64
-30 0.36
31 0.56
-31 0.43999999999999995
32 0.77
-32 0.22999999999999998
33 0.66
-33 0.33999999999999997
34 0.66
-34 0.33999999999999997
35 0.11
-35 0.89
36 0.32
-36 0.6799999999999999
37 0.02
-37 0.98
38 0.62
-38 0.38
39 0.24
-39 0.76
40 0.15
-40 0.85
41 0.47
-41 0.53
42 0.6
-42 0.4
43 0.47
-43 0.53
44 0.07
-44 0.9299999999999999
45 0.93
-45 0.06999999999999995
46 0.08
-46 0.92
47 0.38
-47 0.62
48 0.89
-48 0.10999999999999999
49 0.91
-49 0.08999999999999997
50 0.97
-50 0.030000000000000027
51 0.24
-51 0.76
52 0.91
-52 0.08999999999999997
53 0.97
-53 0.030000000000000027
54 0.11
-54 0.89
55 0.96
-55 0.040000000000000036
56 0.02
-56 0.98
57 0.7
-57 0.30000000000000004
58 0.06
-58 0.94
59 0.89
-59 0.10999999999999999
60 0.76
-60 0.24
61 0.81
-61 0.18999999999999995
62 0.4
-62 0.6
63 0.26
-63 0.74
64 0.52
-64 0.48
65 0.6
-65 0.4
66 0.42
-66 0.5800000000000001
67 0.97
-67 0.030000000000000027
68 0.5
-68 0.5
69 0.36
-69 0.64
70 0.54
-70 0.45999999999999996
