1 0.2
-1 0.8
2 0.1
-2 0.9
3 0.19
-3 0.81
4 0.47
-4 0.53
5 0.04
-5 0.96
6 0.54
-6 0.45999999999999996
7 0.76
-7 0.24
8 0.62
-8 0.38
9 0.81
-9 0.18999999999999995
10 0.52
-10 0.48
11 0.53
-11 0.47
12 0.3
-12 0.7
13 0.7
-13 0.30000000000000004
14 0.22
-14 0.78
15 0.05
-15 0.95
16 0.39
-16 0.61
17 0.14
-17 0.86
18 0.99
-18 0.010000000000000009
19 0.14
-19 0.86
20 0.36
-20 0.64
21 0.48
-21 0.52
22 0.45
-22 0.55
23 0.28
-23 0.72
24 0.13
-24 0.87
25 0.73
-25 0.27
26 0.35
-26 0.65
27 0.69
-27 0.31000000000000005
28 0.39
-28 0.61
29 0.79
-29 0.20999999999999996
30 0.21
-30 0.79
31 0.26
-31 0.74
32 0.82
-32 0.18000000000000005
33 0.23
-33 0.77
34 0.78
-34 0.21999999999999997
35 0.67
-35 0.32999999999999996
36 0.19
-36 0.81
37 0.57
-37 0.43000000000000005
38 0.11
-38 0.89
39 0.76
-39 0.24
40 0.18
-40 0.8200000000000001
41 0.76
-41 0.24
42 0.6
-42 0.4
43 0.23
-43 0.77
44 0.74
-44 0.26
45 0.01
-45 0.99
46 0.32
-46 0.6799999999999999
47 0.98
-47 0.020000000000000018
48 0.62
-48 0.38
49 0.93
-49 0.06999999999999995
50 0.56
-50 0.43999999999999995
51 0.3
-51 0.7
52 0.67
-52 0.32999999999999996
53 0.97
-53 0.030000000000000027
54 0.87
-54 0.13
55 0.8
-55 0.19999999999999996
56 0.05
-56 0.95
57 0.67
-57 0.32999999999999996
58 0.31
-58 0.69
59 0.25
-59 0.75
60 0.14
-60 0.86
61 0.22
-61 0.78
62 0.62
-62 0.38
63 0.48
-63 0.52
64 0.76
-64 0.24
65 0.34
-65 0.6599999999999999
66 0.59
-66 0.41000000000000003
67 0.39
-67 0.61
68 0.11
-68 0.89
69 0.01
-69 0.99
70 0.66
-70 0.33999999999999997
