1 0.68
-1 0.31999999999999995
2 0.44
-2 0.56
3 0.46
-3 0.54
4 0.37
-4 0.63
5 0.16
-5 0.84
6 0.77
-6 0.22999999999999998
7 0.24
-7 0.76
8 0.09
-8 0.91
9 0.95
-9 0.050000000000000044
10 0.38
-10 0.62
11 0.55
-11 0.44999999999999996
12 0.9
-12 0.09999999999999998
13 0.07
-13 0.9299999999999999
14 0.29
-14 0.71
15 0.98
-15 0.020000000000000018
16 0.65
-16 0.35
17 0.31
-17 0.69
18 0.53
-18 0.47
19 0.74
-19 0.26
20 0.83
-20 0.17000000000000004
21 0.68
-21 0.31999999999999995
22 0.3
-22 0.7
23 0.82
-23 0.18000000000000005
24 0.47
-24 0.53
25 0.54
-25 0.45999999999999996
26 0.96
-26 0.040000000000000036
27 0.09
-27 0.91
28 0.81
-28 0.18999999999999995
29 0.23
-29 0.77
30 0.64
-30 0.36
31 0.76
-31 0.24
32 0.69
-32 0.31000000000000005
33 0.28
-33 0.72
34 0.56
-34 0.43999999999999995
35 0.46
-35 0.54
36 0.33
-36 0.6699999999999999
37 0.63
-37 0.37
38 0.2
-38 0.8
39 0.53
-39 0.47
40 0.32
-40 0.6799999999999999
41 0.11
-41 0.89
42 0.28
-42 0.72
43 0.98
-43 0.020000000000000018
44 0.91
-44 0.08999999999999997
45 0.92
-45 0.07999999999999996
46 0.5
-46 0.5
47 0.7
-47 0.30000000000000004
48 0.03
-48 0.97
49 0.89
-49 0.10999999999999999
50 0.07
-50 0.9299999999999999
51 0.01
-51 0.99
52 0.38
-52 0.62
53 0.39
-53 0.61
54 0.62
-54 0.38
55 0.14
-55 0.86
56 0.48
-56 0.52
57 0.58
-57 0.42000000000000004
58 0.39
-58 0.61
59 0.96
-59 0.040000000000000036
60 0.87
-60 0.13
61 0.64
-61 0.36
62 0.3
-62 0.7
63 0.17
-63 0.83
64 0.13
-64 0.87
65 0.07
-65 0.9299999999999999
66 0.58
-66 0.42000000000000004
67 0.54
-67 0.45999999999999996
68 0.46
-68 0.54
69 0.13
-69 0.87
70 0.09
-70 0.91
