1 0.83
-1 0.17000000000000004
2 0.05
-2 0.95
3 0.38
-3 0.62
4 0.75
-4 0.25
5 0.75
-5 0.25
6 0.26
-6 0.74
7 0.59
-7 0.41000000000000003
8 0.7
-8 0.30000000000000004
9 0.74
-9 0.26
10 0.23
-10 0.77
11 0.18
-11 0.8200000000000001
12 0.97
-12 0.030000000000000027
13 0.58
-13 0.42000000000000004
14 0.95
-14 0.050000000000000044
15 0.1
-15 0.9
16 0.14
-16 0.86
17 0.03
-17 0.97
18 0.47
-18 0.53
19 0.4
-19 0.6
20 0.08
-20 0.92
21 0.3
-21 0.7
22 0.64
-22 0.36
23 0.39
-23 0.61
24 0.72
-24 0.28
25 0.38
-25 0.62
26 0.91
-26 0.08999999999999997
27 0.73
-27 0.27
28 0.86
-28 0.14
29 0.17
-29 0.83
30 0.75
-30 0.25
31 0.25
-31 0.75
32 0.71
-32 0.29000000000000004
33 0.9
-33 0.09999999999999998
34 0.66
-34 0.33999999999999997
35 0.24
-35 0.76
36 0.05
-36 0.95
37 0.14
-37 0.86
38 0.84
-38 0.16000000000000003
39 0.97
-39 0.030000000000000027
40 0.54
-40 0.45999999999999996
41 0.71
-41 0.29000000000000004
42 0.84
-42 0.16000000000000003
43 0.64
-43 0.36
44 0.03
-44 0.97
45 0.09
-45 0.91
46 0.54
-46 0.45999999999999996
47 0.62
-47 0.38
48 0.37
-48 0.63
49 0.64
-49 0.36
50 0.74
-50 0.26
51 0.14
-51 0.86
52 0.37
-52 0.63
53 0.66
-53 0.33999999999999997
54 0.68
-54 0.31999999999999995
55 0.98
-55 0.020000000000000018
56 0.51
-56 0.49
57 0.04
-57 0.96
58 0.32
-58 0.6799999999999999
59 0.94
-59 0.06000000000000005
60 0.71
-60 0.29000000000000004
61 0.91
-61 0.08999999999999997
62 0.79
-62 0.20999999999999996
63 0.03
-63 0.97
64 0.61
-64 0.39
65 0.73
-65 0.27
66 0.29
-66 0.71
67 0.96
-67 0.040000000000000036
68 0.45
-68 0.55
69 0.42
-69 0.5800000000000001
70 0.12
-70 0.88
