1 0.85
-1 0.15000000000000002
2 0.34
-2 0.6599999999999999
3 0.91
-3 0.08999999999999997
4 0.71
-4 0.29000000000000004
5 0.23
-5 0.77
6 0.24
-6 0.76
7 0.92
-7 0.07999999999999996
8 0.26
-8 0.74
9 0.89
-9 0.10999999999999999
10 0.97
-10 0.030000000000000027
11 0.64
-11 0.36
12 0.91
-12 0.08999999999999997
13 0.53
-13 0.47
14 0.64
-14 0.36
15 0.79
-15 0.20999999999999996
16 0.88
-16 0.12
17 0.57
-17 0.43000000000000005
18 0.8
-18 0.19999999999999996
19 0.16
-19 0.84
20 0.94
-20 0.06000000000000005
21 0.68
-21 0.31999999999999995
22 0.52
-22 0.48
23 0.72
-23 0.28
24 0.83
-24 0.17000000000000004
25 0.55
-25 0.44999999999999996
26 0.29
-26 0.71
27 0.97
-27 0.030000000000000027
28 0.35
-28 0.65
29 0.53
-29 0.47
30 0.02
-30 0.98
31 0.83
-31 0.17000000000000004
32 0.43
-32 0.5700000000000001
33 0.59
-33 0.41000000000000003
34 0.17
-34 0.83
35 0.24
-35 0.76
36 0.48
-36 0.52
37 0.67
-37 0.32999999999999996
38 0.76
-38 0.24
39 0.57
-39 0.43000000000000005
40 0.63
-40 0.37
41 0.34
-41 0.6599999999999999
42 0.81
-42 0.18999999999999995
43 0.8
-43 0.19999999999999996
44 0.97
-44 0.030000000000000027
45 0.61
-45 0.39
46 0.19
-46 0.81
47 0.79
-47 0.20999999999999996
48 0.52
-48 0.48
49 0.32
-49 0.6799999999999999
50 0.03
-50 0.97
51 0.99
-51 0.010000000000000009
52 0.51
-52 0.49
53 0.97
-53 0.030000000000000027
54 0.19
-54 0.81
55 0.2
-55 0.8
56 0.45
-56 0.55
57 0.04
-57 0.96
58 0.64
-58 0.36
59 0.78
-59 0.21999999999999997
60 0.76
-60 0.24
61 0.5
-61 0.5
62 0.03
-62 0.97
63 0.64
-63 0.36
64 0.58
-64 0.42000000000000004
65 0.09
-65 0.91
66 0.46
-66 0.54
67 0.99
-67 0.010000000000000009
68 0.59
-68 0.41000000000000003
69 0.87
-69 0.13
70 0.41
-70 0.5900000000000001
