1 0.25
-1 0.75
2 0.67
-2 0.32999999999999996
3 0.51
-3 0.49
4 0.38
-4 0.62
5 0.52
-5 0.48
6 0.45
-6 0.55
7 0.94
-7 0.06000000000000005
8 0.02
-8 0.98
9 0.92
-9 0.07999999999999996
10 0.34
-10 0.6599999999999999
11 0.73
-11 0.27
12 0.77
-12 0.22999999999999998
13 0.81
-13 0.18999999999999995
14 0.23
-14 0.77
15 0.74
-15 0.26
16 0.95
-16 0.050000000000000044
17 0.28
-17 0.72
18 0.7
-18 0.30000000000000004
19 0.59
-19 0.41000000000000003
20 0.79
-20 0.20999999999999996
21 0.7
-21 0.30000000000000004
22 0.33
-22 0.6699999999999999
23 0.22
-23 0.78
24 0.41
-24 0.5900000000000001
25 0.42
-25 0.5800000000000001
26 0.4
-26 0.6
27 0.06
-27 0.94
28 0.48
-28 0.52
29 0.72
-29 0.28
30 0.45
-30 0.55
31 0.1
-31 0.9
32 0.11
-32 0.89
33 0.61
-33 0.39
34 0.03
-34 0.97
35 0.98
-35 0.020000000000000018
36 0.26
-36 0.74
37 0.02
-37 0.98
38 0.16
-38 0.84
39 0.18
-39 0.8200000000000001
40 0.47
-40 0.53
41 0.57
-41 0.43000000000000005
42 0.6
-42 0.4
43 0.93
-43 0.06999999999999995
44 0.76
-44 0.24
45 0.59
-45 0.41000000000000003
46 0.72
-46 0.28
47 0.63
-47 0.37
48 0.84
-48 0.16000000000000003
49 0.66
-49 0.33999999999999997
50 0.78
-50 0.21999999999999997
51 0.89
-51 0.10999999999999999
52 0.21
-52 0.79
53 0.52
-53 0.48
54 0.3
-54 0.7
55 0.4
-55 0.6
56 0.94
-56 0.06000000000000005
57 0.55
-57 0.44999999999999996
58 0.91
-58 0.08999999999999997
59 0.12
-59 0.88
60 0.12
-60 0.88
61 0.65
-61 0.35
62 0.88
-62 0.12
63 0.44
-63 0.56
64 0.23
-64 0.77
65 0.74
-65 0.26
66 0.17
-66 0.83
67 0.87
-67 0.13
68 0.81
-68 0.18999999999999995
69 0.53
-69 0.47
70 0.16
-70 0.84
