1 0.51
-1 0.49
2 0.92
-2 0.07999999999999996
3 0.3
-3 0.7
4 0.38
-4 0.62
5 0.11
-5 0.89
6 0.03
-6 0.97
7 0.6
-7 0.4
8 0.7
-8 0.30000000000000004
9 0.58
-9 0.42000000000000004
10 0.04
-10 0.96
11 0.56
-11 0.43999999999999995
12 0.41
-12 0.5900000000000001
13 0.05
-13 0.95
14 0.74
-14 0.26
15 0.45
-15 0.55
16 0.57
-16 0.43000000000000005
17 0.51
-17 0.49
18 0.35
-18 0.65
19 0.28
-19 0.72
20 0.93
-20 0.06999999999999995
21 0.59
-21 0.41000000000000003
22 0.63
-22 0.37
23 0.54
-23 0.45999999999999996
24 0.15
-24 0.85
25 0.76
-25 0.24
26 0.85
-26 0.15000000000000002
27 0.2
-27 0.8
28 0.8
-28 0.19999999999999996
29 0.45
-29 0.55
30 0.08
-30 0.92
31 0.55
-31 0.44999999999999996
32 0.74
-32 0.26
33 0.9
-33 0.09999999999999998
34 0.68
-34 0.31999999999999995
35 0.47
-35 0.53
36 0.39
-36 0.61
37 0.43
-37 0.5700000000000001
38 0.45
-38 0.55
39 0.25
-39 0.75
40 0.44
-40 0.56
41 0.41
-41 0.5900000000000001
42 0.83
-42 0.17000000000000004
43 0.97
-43 0.030000000000000027
44 0.82
-44 0.18000000000000005
45 0.55
-45 0.44999999999999996
46 0.64
-46 0.36
47 0.63
-47 0.37
48 0.9
-48 0.09999999999999998
49 0.46
-49 0.54
50 0.14
-50 0.86
51 0.31
-51 0.69
52 0.12
-52 0.88
53 0.35
-53 0.65
54 0.35
-54 0.65
55 0.31
-55 0.69
56 0.35
-56 0.65
57 0.15
-57 0.85
58 0.09
-58 0.91
59 0.17
-59 0.83
60 0.45
-60 0.55
61 0.55
-61 0.44999999999999996
62 0.88
-62 0.12
63 0.96
-63 0.040000000000000036
64 0.01
-64 0.99
65 0.17
-65 0.83
66 0.19
-66 0.81
67 0.26
-67 0.74
68 0.36
-68 0.64
69 0.71
-69 0.29000000000000004
70 0.55
-70 0.44999999999999996
