1 0.31
-1 0.69
2 0.54
-2 0.45999999999999996
3 0.92
-3 0.07999999999999996
4 0.21
-4 0.79
5 0.06
-5 0.94
6 0.86
-6 0.14
7 0.41
-7 0.5900000000000001
8 0.46
-8 0.54
9 0.89
-9 0.10999999999999999
10 0.4
-10 0.6
11 0.34
-11 0.6599999999999999
12 0.24
-12 0.76
13 0.15
-13 0.85
14 0.21
-14 0.79
15 0.3
-15 0.7
16 0.07
-16 0.9299999999999999
17 0.42
-17 0.5800000000000001
18 0.5
-18 0.5
19 0.6
-19 0.4
20 0.81
-20 0.18999999999999995
21 0.87
-21 0.13
22 0.18
-22 0.8200000000000001
23 0.14
-23 0.86
24 0.3
-24 0.7
25 0.46
-25 0.54
26 0.44
-26 0.56
27 0.24
-27 0.76
28 0.08
-28 0.92
29 0.49
-29 0.51
30 0.11
-30 0.89
31 0.97
-31 0.030000000000000027
32 0.32
-32 0.6799999999999999
33 0.01
-33 0.99
34 0.07
-34 0.9299999999999999
35 0.28
-35 0.72
36 0.38
-36 0.62
37 0.11
-37 0.89
38 0.43
-38 0.5700000000000001
39 0.81
-39 0.18999999999999995
40 0.79
-40 0.20999999999999996
41 0.33
-41 0.6699999999999999
42 0.38
-42 0.62
43 0.62
-43 0.38
44 0.19
-44 0.81
45 0.62
-45 0.38
46 0.79
-46 0.20999999999999996
47 0.04
-47 0.96
48 0.34
-48 0.6599999999999999
49 0.24
-49 0.76
50 0.58
-50 0.42000000000000004
51 0.11
-51 0.89
52 0.58
-52 0.42000000000000004
53 0.28
-53 0.72
54 0.58
-54 0.42000000000000004
55 0.39
-55 0.61
56 0.78
-56 0.21999999999999997
57 0.22
-57 0.78
58 0.82
-58 0.18000000000000005
59 0.22
-59 0.78
60 0.97
-60 0.030000000000000027
61 0.37
-61 0.63
62 0.39
-62 0.61
63 0.75
-63 0.25
64 0.34
-64 0.6599999999999999
65 0.13
-65 0.87
66 0.68
-66 0.31999999999999995
67 0.05
-67 0.95
68 0.46
-68 0.54
69 0.03
-69 0.97
70 0.39
-70 0.61
