1 0.7
-1 0.30000000000000004
2 0.63
-2 0.37
3 0.42
-3 0.5800000000000001
4 0.76
-4 0.24
5 0.19
-5 0.81
6 0.83
-6 0.17000000000000004
7 0.06
-7 0.94
8 0.87
-8 0.13
9 0.22
-9 0.78
10 0.57
-10 0.43000000000000005
11 0.7
-11 0.30000000000000004
12 0.32
-12 0.6799999999999999
13 0.02
-13 0.98
14 0.4
-14 0.6
15 0.89
-15 0.10999999999999999
16 0.27
-16 0.73
17 0.97
-17 0.030000000000000027
18 0.38
-18 0.62
19 0.39
-19 0.61
20 0.25
-20 0.75
21 0.16
-21 0.84
22 0.1
-22 0.9
23 0.02
-23 0.98
24 0.51
-24 0.49
25 0.23
-25 0.77
26 0.3
-26 0.7
27 0.39
-27 0.61
28 0.74
-28 0.26
29 0.05
-29 0.95
30 0.34
-30 0.6599999999999999
31 0.47
-31 0.53
32 0.65
-32 0.35
33 0.33
-33 0.6699999999999999
34 0.36
-34 0.64
35 0.73
-35 0.27
36 0.22
-36 0.78
37 0.31
-37 0.69
38 0.8
-38 0.19999999999999996
39 0.62
-39 0.38
40 0.29
-40 0.71
41 0.24
-41 0.76
42 0.55
-42 0.44999999999999996
43 0.62
-43 0.38
44 0.53
-44 0.47
45 0.03
-45 0.97
46 0.62
-46 0.38
47 0.56
-47 0.43999999999999995
48 0.35
-48 0.65
49 0.68
-49 0.31999999999999995
50 0.32
-50 0.6799999999999999
51 0.07
-51 0.9299999999999999
52 0.91
-52 0.08999999999999997
53 0.43
-53 0.5700000000000001
54 0.38
-54 0.62
55 0.61
-55 0.39
56 0.41
-56 0.5900000000000001
57 0.98
-57 0.020000000000000018
58 0.79
-58 0.20999999999999996
59 0.64
-59 0.36
60 0.62
-60 0.38
61 0.26
-61 0.74
62 0.17
-62 0.83
63 0.21
-63 0.79
64 0.03
-64 0.97
65 0.07
-65 0.9299999999999999
66 0.46
-66 0.54
67 0.76
-67 0.24
68 0.11
-68 0.89
69 0.6
-69 0.4
70 0.79
-70 0.20999999999999996
