1 0.45
-1 0.55
2 0.14
-2 0.86
3 0.1
-3 0.9
4 0.72
-4 0.28
5 0.78
-5 0.21999999999999997
6 0.56
-6 0.43999999999999995
7 0.98
-7 0.020000000000000018
8 0.75
-8 0.25
9 0.83
-9 0.17000000000000004
10 0.16
-10 0.84
11 0.66
-11 0.33999999999999997
12 0.3
-12 0.7
13 0.99
-13 0.010000000000000009
14 0.69
-14 0.31000000000000005
15 0.55
-15 0.44999999999999996
16 0.31
-16 0.69
17 0.74
-17 0.26
18 0.23
-18 0.77
19 0.32
-19 0.6799999999999999
20 0.89
-20 0.10999999999999999
21 0.57
-21 0.43000000000000005
22 0.99
-22 0.010000000000000009
23 0.9
-23 0.09999999999999998
24 0.69
-24 0.31000000000000005
25 0.3
-25 0.7
26 0.04
-26 0.96
27 0.94
-27 0.06000000000000005
28 0.71
-28 0.29000000000000004
29 0.29
-29 0.71
30 0.37
-30 0.63
31 0.15
-31 0.85
32 0.06
-32 0.94
33 0.51
-33 0.49
34 0.56
-34 0.43999999999999995
35 0.67
-35 0.32999999999999996
36 0.91
-36 0.08999999999999997
37 0.78
-37 0.21999999999999997
38 0.89
-38 0.10999999999999999
39 0.39
-39 0.61
40 0.48
-40 0.52
41 0.13
-41 0.87
42 0.39
-42 0.61
43 0.68
-43 0.31999999999999995
44 0.6
-44 0.4
45 0.91
-45 0.08999999999999997
46 0.8
-46 0.19999999999999996
47 0.36
-47 0.64
48 0.47
-48 0.53
49 0.43
-49 0.5700000000000001
50 0.83
-50 0.17000000000000004
51 0.99
-51 0.010000000000000009
52 0.17
-52 0.83
53 0.33
-53 0.6699999999999999
54 0.05
-54 0.95
55 0.1
-55 0.9
56 0.96
-56 0.040000000000000036
57 0.17
-57 0.83
58 0.58
-58 0.42000000000000004
59 0.85
-59 0.15000000000000002
60 0.81
-60 0.18999999999999995
61 0.14
-61 0.86
62 0.54
-62 0.45999999999999996
63 0.7
-63 0.30000000000000004
64 0.73
-64 0.27
65 0.67
-65 0.32999999999999996
66 0.72
-66 0.28
67 0.59
-67 0.41000000000000003
68 0.48
-68 0.52
69 0.51
-69 0.49
70 0.96
-70 0.040000000000000036
