1 0.54
-1 0.45999999999999996
2 0.25
-2 0.75
3 0.31
-3 0.69
4 0.33
-4 0.6699999999999999
5 0.62
-5 0.38
6 0.2
-6 0.8
7 0.38
-7 0.62
8 0.85
-8 0.15000000000000002
9 0.7
-9 0.30000000000000004
10 0.64
-10 0.36
11 0.39
-11 0.61
12 0.27
-12 0.73
13 0.88
-13 0.12
14 0.95
-14 0.050000000000000044
15 0.5
-15 0.5
16 0.12
-16 0.88
17 0.01
-17 0.99
18 0.78
-18 0.21999999999999997
19 0.02
-19 0.98
20 0.51
-20 0.49
21 0.55
-21 0.44999999999999996
22 0.36
-22 0.64
23 0.65
-23 0.35
24 0.17
-24 0.83
25 0.24
-25 0.76
26 0.26
-26 0.74
27 0.12
-27 0.88
28 0.06
-28 0.94
29 0.01
-29 0.99
30 0.43
-30 0.5700000000000001
31 0.14
-31 0.86
32 0.62
-32 0.38
33 0.22
-33 0.78
34 0.5
-34 0.5
35 0.92
-35 0.07999999999999996
36 0.64
-36 0.36
37 0.31
-37 0.69
38 0.44
-38 0.56
39 0.76
-39 0.24
40 0.09
-40 0.91
41 0.8
-41 0.19999999999999996
42 0.55
-42 0.44999999999999996
43 0.86
-43 0.14
44 0.8
-44 0.19999999999999996
45 0.89
-45 0.10999999999999999
46 0.84
-46 0.16000000000000003
47 0.9
-47 0.09999999999999998
48 0.89
-48 0.10999999999999999
49 0.77
-49 0.22999999999999998
50 0.21
-50 0.79
51 0.71
-51 0.29000000000000004
52 0.92
-52 0.07999999999999996
53 0.84
-53 0.16000000000000003
54 0.31
-54 0.69
55 0.71
-55 0.29000000000000004
56 0.73
-56 0.27
57 0.6
-57 0.4
58 0.03
-58 0.97
59 0.75
-59 0.25
60 0.66
-60 0.33999999999999997
61 0.78
-61 0.21999999999999997
62 0.29
-62 0.71
63 0.03
-63 0.97
64 0.78
-64 0.21999999999999997
65 0.2
-65 0.8
66 0.69
-66 0.31000000000000005
67 0.91
-67 0.08999999999999997
68 0.19
-68 0.81
69 0.78
-69 0.21999999999999997
70 0.67
-70 0.32999999999999996
