1 0.5
-1 0.5
2 0.05
-2 0.95
3 0.87
-3 0.13
4 0.3
-4 0.7
5 0.56
-5 0.43999999999999995
6 0.54
-6 0.45999999999999996
7 0.88
-7 0.12
8 0.42
-8 0.5800000000000001
9 0.47
-9 0.53
10 0.35
-10 0.65
11 0.32
-11 0.6799999999999999
12 0.03
-12 0.97
13 0.93
-13 0.06999999999999995
14 0.04
-14 0.96
15 0.93
-15 0.06999999999999995
16 0.8
-16 0.19999999999999996
17 0.41
-17 0.5900000000000001
18 0.82
-18 0.18000000000000005
19 0.49
-19 0.51
20 0.63
-20 0.37
21 0.51
-21 0.49
22 0.76
-22 0.24
23 0.51
-23 0.49
24 0.68
-24 0.31999999999999995
25 0.93
-25 0.06999999999999995
26 0.12
-26 0.88
27 0.98
-27 0.020000000000000018
28 0.47
-28 0.53
29 0.11
-29 0.89
30 0.22
-30 0.78
31 0.25
-31 0.75
32 0.95
-32 0.050000000000000044
33 0.04
-33 0.96
34 0.35
-34 0.65
35 0.6
-35 0.4
36 0.02
-36 0.98
37 0.32
-37 0.6799999999999999
38 0.38
-38 0.62
39 0.3
-39 0.7
40 0.66
-40 0.33999999999999997
41 0.86
-41 0.14
42 0.66
-42 0.33999999999999997
43 0.27
-43 0.73
44 0.88
-44 0.12
45 0.37
-45 0.63
46 0.53
-46 0.47
47 0.68
-47 0.31999999999999995
48 0.4
-48 0.6
49 0.2
-49 0.8
50 0.94
-50 0.06000000000000005
51 0.6
-51 0.4
52 0.34
-52 0.6599999999999999
53 0.53
-53 0.47
54 0.6
-54 0.4
55 0.9
-55 0.09999999999999998
56 0.25
-56 0.75
57 0.05
-57 0.95
58 0.91
-58 0.08999999999999997
59 0.04
-59 0.96
60 0.12
-60 0.88
61 0.94
-61 0.06000000000000005
62 0.07
-62 0.9299999999999999
63 0.55
-63 0.44999999999999996
64 0.23
-64 0.77
65 0.68
-65 0.31999999999999995
66 0.18
-66 0.8200000000000001
67 0.27
-67 0.73
68 0.31
-68 0.69
69 0.72
-69 0.28
70 0.98
-70 0.020000000000000018
