1 0.23
-1 0.77
2 0.15
-2 0.85
3 0.23
-3 0.77
4 0.63
-4 0.37
5 0.61
-5 0.39
6 0.04
-6 0.96
7 0.44
-7 0.56
8 0.83
-8 0.17000000000000004
9 0.94
-9 0.06000000000000005
10 0.86
-10 0.14
11 0.94
-11 0.06000000000000005
12 0.83
-12 0.17000000000000004
13 0.99
-13 0.010000000000000009
14 0.08
-14 0.92
15 0.37
-15 0.63
16 0.84
-16 0.16000000000000003
17 0.41
-17 0.5900000000000001
18 0.81
-18 0.18999999999999995
19 0.68
-19 0.31999999999999995
20 0.44
-20 0.56
21 0.6
-21 0.4
22 0.07
-22 0.9299999999999999
23 0.77
-23 0.22999999999999998
24 0.84
-24 0.16000000000000003
25 0.95
-25 0.050000000000000044
26 0.77
-26 0.22999999999999998
27 0.51
-27 0.49
28 0.06
-28 0.94
29 0.74
-29 0.26
30 0.37
-30 0.63
31 0.39
-31 0.61
32 0.95
-32 0.050000000000000044
33 0.5
-33 0.5
34 0.1
-34 0.9
35 0.09
-35 0.91
36 0.85
-36 0.15000000000000002
37 0.26
-37 0.74
38 0.06
-38 0.94
39 0.47
-39 0.53
40 0.26
-40 0.74
41 0.14
-41 0.86
42 0.73
-42 0.27
43 0.28
-43 0.72
44 0.79
-44 0.20999999999999996
45 0.47
-45 0.53
46 0.79
-46 0.20999999999999996
47 0.35
-47 0.65
48 0.49
-48 0.51
49 0.91
-49 0.08999999999999997
50 0.8
-50 0.19999999999999996
51 0.21
-51 0.79
52 0.45
-52 0.55
53 0.47
-53 0.53
54 0.37
-54 0.63
55 0.94
-55 0.06000000000000005
56 0.97
-56 0.030000000000000027
57 0.57
-57 0.43000000000000005
58 0.95
-58 0.050000000000000044
59 0.36
-59 0.64
60 0.12
-60 0.88
61 0.31
-61 0.69
62 0.17
-62 0.83
63 0.28
-63 0.72
64 0.25
-64 0.75
65 0.56
-65 0.43999999999999995
66 0.6
-66 0.4
67 0.95
-67 0.050000000000000044
68 0.92
-68 0.07999999999999996
69 0.76
-69 0.24
70 0.62
-70 0.38
