1 0.42
-1 0.5800000000000001
2 0.53
-2 0.47
3 0.68
-3 0.31999999999999995
4 0.68
-4 0.31999999999999995
5 0.89
-5 0.10999999999999999
6 0.49
-6 0.51
7 0.7
-7 0.30000000000000004
8 0.39
-8 0.61
9 0.91
-9 0.08999999999999997
10 0.76
-10 0.24
11 0.38
-11 0.62
12 0.4
-12 0.6
13 0.33
-13 0.6699999999999999
14 0.65
-14 0.35
15 0.38
-15 0.62
16 0.29
-16 0.71
17 0.27
-17 0.73
18 0.5
-18 0.5
19 0.58
-19 0.42000000000000004
20 0.57
-20 0.43000000000000005
21 0.42
-21 0.5800000000000001
22 0.34
-22 0.6599999999999999
23 0.72
-23 0.28
24 0.87
-24 0.13
25 0.67
-25 0.32999999999999996
26 0.61
-26 0.39
27 0.69
-27 0.31000000000000005
28 0.07
-28 0.9299999999999999
29 0.24
-29 0.76
30 0.07
-30 0.9299999999999999
31 0.58
-31 0.42000000000000004
32 0.17
-32 0.83
33 0.16
-33 0.84
34 0.38
-34 0.62
35 0.17
-35 0.83
36 0.41
-36 0.5900000000000001
37 0.68
-37 0.31999999999999995
38 0.28
-38 0.72
39 0.86
-39 0.14
40 0.88
-40 0.12
41 0.76
-41 0.24
42 0.86
-42 0.14
43 0.69
-43 0.31000000000000005
44 0.5
-44 0.5
45 0.95
-45 0.050000000000000044
46 0.99
-46 0.010000000000000009
47 0.82
-47 0.18000000000000005
48 0.95
-48 0.050000000000000044
49 0.35
-49 0.65
50 0.81
-50 0.18999999999999995
51 0.4
-51 0.6
52 0.76
-52 0.24
53 0.51
-53 0.49
54 0.87
-54 0.13
55 0.75
-55 0.25
56 0.56
-56 0.43999999999999995
57 0.04
-57 0.96
58 0.86
-58 0.14
59 0.94
-59 0.06000000000000005
60 0.47
-60 0.53
61 0.43
-61 0.5700000000000001
62 0.26
-62 0.74
63 0.77
-63 0.22999999999999998
64 0.65
-64 0.35
65 0.72
-65 0.28
66 0.17
-66 0.83
67 0.66
-67 0.33999999999999997
68 0.48
-68 0.52
69 0.79
-69 0.20999999999999996
70 0.71
-70 0.29000000000000004
