1 0.09
-1 0.91
2 0.55
-2 0.44999999999999996
3 0.98
-3 0.020000000000000018
4 0.42
-4 0.5800000000000001
5 0.2
-5 0.8
6 0.51
-6 0.49
7 0.91
-7 0.08999999999999997
8 0.22
-8 0.78
9 0.94
-9 0.06000000000000005
10 0.33
-10 0.6699999999999999
11 0.02
-11 0.98
12 0.18
-12 0.8200000000000001
13 0.71
-13 0.29000000000000004
14 0.03
-14 0.97
15 0.34
-15 0.6599999999999999
16 0.26
-16 0.74
17 0.27
-17 0.73
18 0.96
-18 0.040000000000000036
19 0.4
-19 0.6
20 0.86
-20 0.14
21 0.19
-21 0.81
22 0.17
-22 0.83
23 0.2
-23 0.8
24 0.27
-24 0.73
25 0.21
-25 0.79
26 0.44
-26 0.56
27 0.16
-27 0.84
28 0.54
-28 0.45999999999999996
29 0.04
-29 0.96
30 0.02
-30 0.98
31 0.48
-31 0.52
32 0.88
-32 0.12
33 0.16
-33 0.84
34 0.86
-34 0.14
35 0.6
-35 0.4
36 0.3
-36 0.7
37 0.28
-37 0.72
38 0.11
-38 0.89
39 0.63
-39 0.37
40 0.71
-40 0.29000000000000004
41 0.72
-41 0.28
42 0.02
-42 0.98
43 0.33
-43 0.6699999999999999
44 0.48
-44 0.52
45 0.78
-45 0.21999999999999997
46 0.57
-46 0.43000000000000005
47 0.2
-47 0.8
48 0.27
-48 0.73
49 0.67
-49 0.32999999999999996
50 0.05
-50 0.95
51 0.1
-51 0.9
52 0.42
-52 0.5800000000000001
53 0.29
-53 0.71
54 0.7
-54 0.30000000000000004
55 0.26
-55 0.74
56 0.43
-56 0.5700000000000001
57 0.61
-57 0.39
58 0.58
-58 0.42000000000000004
59 0.83
-59 0.17000000000000004
60 0.29
-60 0.71
61 0.25
-61 0.75
62 0.91
-62 0.08999999999999997
63 0.03
-63 0.97
64 0.94
-64 0.06000000000000005
65 0.59
-65 0.41000000000000003
66 0.99
-66 0.010000000000000009
67 0.97
-67 0.030000000000000027
68 0.63
-68 0.37
69 0.67
-69 0.32999999999999996
70 0.05
-70 0.95
