1 0.26
-1 0.74
2 0.06
-2 0.94
3 0.19
-3 0.81
4 0.38
-4 0.62
5 0.87
-5 0.13
6 0.46
-6 0.54
7 0.76
-7 0.24
8 0.06
-8 0.94
9 0.03
-9 0.97
10 0.18
-10 0.8200000000000001
11 0.14
-11 0.86
12 0.53
-12 0.47
13 0.55
-13 0.44999999999999996
14 0.48
-14 0.52
15 0.82
-15 0.18000000000000005
16 0.18
-16 0.8200000000000001
17 0.51
-17 0.49
18 0.58
-18 0.42000000000000004
19 0.45
-19 0.55
20 0.81
-20 0.18999999999999995
21 0.53
-21 0.47
22 0.43
-22 0.5700000000000001
23 0.71
-23 0.29000000000000004
24 0.1
-24 0.9
25 0.72
-25 0.28
26 0.12
-26 0.88
27 0.12
-27 0.88
28 0.5
-28 0.5
29 0.93
-29 0.06999999999999995
30 0.68
-30 0.31999999999999995
31 0.68
-31 0.31999999999999995
32 0.91
-32 0.08999999999999997
33 0.78
-33 0.21999999999999997
34 0.1
-34 0.9
35 0.12
-35 0.88
36 0.14
-36 0.86
37 0.47
-37 0.53
38 0.71
-38 0.29000000000000004
39 0.18
-39 0.8200000000000001
40 0.91
-40 0.08999999999999997
41 0.35
-41 0.65
42 0.31
-42 0.69
43 0.45
-43 0.55
44 0.44
-44 0.56
45 0.76
-45 0.24
46 0.82
-46 0.18000000000000005
47 0.3
-47 0.7
48 0.8
-48 0.19999999999999996
49 0.7
-49 0.30000000000000004
50 0.91
-50 0.08999999999999997
51 0.9
-51 0.09999999999999998
52 0.19
-52 0.81
53 0.85
-53 0.15000000000000002
54 0.79
-54 0.20999999999999996
55 0.68
-55 0.31999999999999995
56 0.39
-56 0.61
57 0.51
-57 0.49
58 0.97
-58 0.030000000000000027
59 0.59
-59 0.41000000000000003
60 0.96
-60 0.040000000000000036
61 0.83
-61 0.17000000000000004
62 0.75
-62 0.25
63 0.33
-63 0.6699999999999999
64 0.53
-64 0.47
65 0.28
-65 0.72
66 0.59
-66 0.41000000000000003
67 0.81
-67 0.18999999999999995
68 0.28
-68 0.72
69 0.83
-69 0.17000000000000004
70 0.72
-70 0.28
