1 0.3
-1 0.7
2 0.37
-2 0.63
3 0.81
-3 0.18999999999999995
4 0.82
-4 0.18000000000000005
5 0.39
-5 0.61
6 0.6
-6 0.4
7 0.8
-7 0.19999999999999996
8 0.7
-8 0.30000000000000004
9 0.42
-9 0.5800000000000001
10 0.67
-10 0.32999999999999996
11 0.36
-11 0.64
12 0.27
-12 0.73
13 0.02
-13 0.98
14 0.32
-14 0.6799999999999999
15 0.92
-15 0.07999999999999996
16 0.65
-16 0.35
17 0.98
-17 0.020000000000000018
18 0.09
-18 0.91
19 0.58
-19 0.42000000000000004
20 0.91
-20 0.08999999999999997
21 0.74
-21 0.26
22 0.99
-22 0.010000000000000009
23 0.22
-23 0.78
24 0.68
-24 0.31999999999999995
25 0.8
-25 0.19999999999999996
26 0.93
-26 0.06999999999999995
27 0.89
-27 0.10999999999999999
28 0.4
-28 0.6
29 0.46
-29 0.54
30 0.38
-30 0.62
31 0.22
-31 0.78
32 0.24
-32 0.76
33 0.84
-33 0.16000000000000003
34 0.08
-34 0.92
35 0.97
-35 0.030000000000000027
36 0.31
-36 0.69
37 0.48
-37 0.52
38 0.03
-38 0.97
39 0.46
-39 0.54
40 0.57
-40 0.43000000000000005
41 0.22
-41 0.78
42 0.76
-42 0.24
43 0.07
-43 0.9299999999999999
44 0.86
-44 0.14
45 0.7
-45 0.30000000000000004
46 0.54
-46 0.45999999999999996
47 0.68
-47 0.31999999999999995
48 0.13
-48 0.87
49 0.45
-49 0.55
50 0.1
-50 0.9
51 0.09
-51 0.91
52 0.09
-52 0.91
53 0.44
-53 0.56
54 0.81
-54 0.18999999999999995
55 0.13
-55 0.87
56 0.86
-56 0.14
57 0.86
-57 0.14
58 0.65
-58 0.35
59 0.76
-59 0.24
60 0.65
-60 0.35
61 0.69
-61 0.31000000000000005
62 0.12
-62 0.88
63 0.68
-63 0.31999999999999995
64 0.12
-64 0.88
65 0.93
-65 0.06999999999999995
66 0.34
-66 0.6599999999999999
67 0.2
-67 0.8
68 0.62
-68 0.38
69 0.15
-69 0.85
70 0.93
-70 0.06999999999999995
