1 0.3
-1 0.7
2 0.89
-2 0.10999999999999999
3 0.81
-3 0.18999999999999995
4 0.28
-4 0.72
5 0.18
-5 0.8200000000000001
6 0.78
-6 0.21999999999999997
7 0.37
-7 0.63
8 0.15
-8 0.85
9 0.07
-9 0.9299999999999999
10 0.2
-10 0.8
11 0.22
-11 0.78
12 0.14
-12 0.86
13 0.31
-13 0.69
14 0.82
-14 0.18000000000000005
15 0.2
-15 0.8
16 0.75
-16 0.25
17 0.37
-17 0.63
18 0.96
-18 0.040000000000000036
19 0.22
-19 0.78
20 0.6
-20 0.4
21 0.63
-21 0.37
22 0.68
-22 0.31999999999999995
23 0.24
-23 0.76
24 0.15
-24 0.85
25 0.2
-25 0.8
26 0.51
-26 0.49
27 0.78
-27 0.21999999999999997
28 0.31
-28 0.69
29 0.16
-29 0.84
30 0.24
-30 0.76
31 0.67
-31 0.32999999999999996
32 0.92
-32 0.07999999999999996
33 0.96
-33 0.040000000000000036
34 0.06
-34 0.94
35 0.83
-35 0.17000000000000004
36 0.09
-36 0.91
37 0.75
-37 0.25
38 0.9
-38 0.09999999999999998
39 0.78
-39 0.21999999999999997
40 0.28
-40 0.72
41 0.45
-41 0.55
42 0.46
-42 0.54
43 0.96
-43 0.040000000000000036
44 0.79
-44 0.20999999999999996
45 0.91
-45 0.08999999999999997
46 0.86
-46 0.14
47 0.28
-47 0.72
48 0.52
-48 0.48
49 0.21
-49 0.79
50 0.04
-50 0.96
51 0.32
-51 0.6799999999999999
52 0.1
-52 0.9
53 0.31
-53 0.69
54 0.59
-54 0.41000000000000003
55 0.65
-55 0.35
56 0.67
-56 0.32999999999999996
57 0.54
-57 0.45999999999999996
58 0.34
-58 0.6599999999999999
59 0.15
-59 0.85
60 0.2
-60 0.8
61 0.29
-61 0.71
62 0.72
-62 0.28
63 0.01
-63 0.99
64 0.08
-64 0.92
65 0.48
-65 0.52
66 0.11
-66 0.89
67 0.87
-67 0.13
68 0.27
-68 0.73
69 0.36
-69 0.64
70 0.24
-70 0.76
