1 0.87
-1 0.13
2 0.69
-2 0.31000000000000005
3 0.04
-3 0.96
4 0.27
-4 0.73
5 0.94
-5 0.06000000000000005
6 0.94
-6 0.06000000000000005
7 0.96
-7 0.040000000000000036
8 0.01
-8 0.99
9 0.51
-9 0.49
10 0.12
-10 0.88
11 0.06
-11 0.94
12 0.26
-12 0.74
13 0.68
-13 0.31999999999999995
14 0.84
-14 0.16000000000000003
15 0.56
-15 0.43999999999999995
16 0.92
-16 0.07999999999999996
17 0.24
-17 0.76
18 0.5
-18 0.5
19 0.89
-19 0.10999999999999999
20 0.61
-20 0.39
21 0.41
-21 0.5900000000000001
22 0.59
-22 0.41000000000000003
23 0.64
-23 0.36
24 0.6
-24 0.4
25 0.52
-25 0.48
26 0.16
-26 0.84
27 0.14
-27 0.86
28 0.97
-28 0.030000000000000027
29 0.05
-29 0.95
30 0.29
-30 0.71
31 0.7
-31 0.30000000000000004
32 0.04
-32 0.96
33 0.65
-33 0.35
34 0.15
-34 0.85
35 0.78
-35 0.21999999999999997
36 0.18
-36 0.8200000000000001
37 0.5
-37 0.5
38 0.63
-38 0.37
39 0.99
-39 0.010000000000000009
40 0.5
-40 0.5
41 0.87
-41 0.13
42 0.17
-42 0.83
43 0.89
-43 0.10999999999999999
44 0.48
-44 0.52
45 0.58
-45 0.42000000000000004
46 0.37
-46 0.63
47 0.5
-47 0.5
48 0.64
-48 0.36
49 0.19
-49 0.81
50 0.77
-50 0.22999999999999998
51 0.01
-51 0.99
52 0.23
-52 0.77
53 0.34
-53 0.6599999999999999
54 0.5
-54 0.5
55 0.76
-55 0.24
56 0.89
-56 0.10999999999999999
57 0.29
-57 0.71
58 0.45
-58 0.55
59 0.43
-59 0.5700000000000001
60 0.31
-60 0.69
61 0.97
-61 0.030000000000000027
62 0.31
-62 0.69
63 0.59
-63 0.41000000000000003
64 0.34
-64 0.6599999999999999
65 0.96
-65 0.040000000000000036
66 0.12
-66 0.88
67 0.5
-67 0.5
68 0.2
-68 0.8
69 0.13
-69 0.87
70 0.06
-70 0.94
