1 0.04
-1 0.96
2 0.28
-2 0.72
3 0.8
-3 0.19999999999999996
4 0.69
-4 0.31000000000000005
5 0.21
-5 0.79
6 0.13
-6 0.87
7 0.29
-7 0.71
8 0.42
-8 0.5800000000000001
9 0.18
-9 0.8200000000000001
10 0.31
-10 0.69
11 0.16
-11 0.84
12 0.34
-12 0.6599999999999999
13 0.34
-13 0.6599999999999999
14 0.17
-14 0.83
15 0.8
-15 0.19999999999999996
16 0.38
-16 0.62
17 0.39
-17 0.61
18 0.06
-18 0.94
19 0.69
-19 0.31000000000000005
20 0.87
-20 0.13
21 0.07
-21 0.9299999999999999
22 0.8
-22 0.19999999999999996
23 0.5
-23 0.5
24 0.45
-24 0.55
25 0.44
-25 0.56
26 0.89
-26 0.10999999999999999
27 0.42
-27 0.5800000000000001
28 0.27
-28 0.73
29 0.94
-29 0.06000000000000005
30 0.02
-30 0.98
31 0.71
-31 0.29000000000000004
32 0.23
-32 0.77
33 0.7
-33 0.30000000000000004
34 0.81
-34 0.18999999999999995
35 0.46
-35 0.54
36 0.19
-36 0.81
37 0.07
-37 0.9299999999999999
38 0.07
-38 0.9299999999999999
39 0.43
-39 0.5700000000000001
40 0.29
-40 0.71
41 0.78
-41 0.21999999999999997
42 0.03
-42 0.97
43 0.56
-43 0.43999999999999995
44 0.74
-44 0.26
45 0.48
-45 0.52
46 0.7
-46 0.30000000000000004
47 0.55
-47 0.44999999999999996
48 0.01
-48 0.99
49 0.91
-49 0.08999999999999997
50 0.48
-50 0.52
51 0.74
-51 0.26
52 0.23
-52 0.77
53 0.42
-53 0.5800000000000001
54 0.25
-54 0.75
55 0.35
-55 0.65
56 0.27
-56 0.73
57 0.51
-57 0.49
58 0.79
-58 0.20999999999999996
59 0.36
-59 0.64
60 0.02
-60 0.98
61 0.54
-61 0.45999999999999996
62 0.91
-62 0.08999999999999997
63 0.75
-63 0.25
64 0.43
-64 0.5700000000000001
65 0.31
-65 0.69
66 0.38
-66 0.62
67 0.59
-67 0.41000000000000003
68 0.13
-68 0.87
69 0.76
-69 0.24
70 0.38
-70 0.62
