1 0.63
-1 0.37
2 0.79
-2 0.20999999999999996
3 0.55
-3 0.44999999999999996
4 0.33
-4 0.6699999999999999
5 0.16
-5 0.84
6 0.92
-6 0.07999999999999996
7 0.34
-7 0.6599999999999999
8 0.53
-8 0.47
9 0.35
-9 0.65
10 0.21
-10 0.79
11 0.24
-11 0.76
12 0.49
-12 0.51
13 0.78
-13 0.21999999999999997
14 0.42
-14 0.5800000000000001
15 0.68
-15 0.31999999999999995
16 0.24
-16 0.76
17 0.13
-17 0.87
18 0.12
-18 0.88
19 0.95
-19 0.050000000000000044
20 0.62
-20 0.38
21 0.51
-21 0.49
22 0.33
-22 0.6699999999999999
23 0.8
-23 0.19999999999999996
24 0.72
-24 0.28
25 0.3
-25 0.7
26 0.29
-26 0.71
27 0.41
-27 0.5900000000000001
28 0.97
-28 0.030000000000000027
29 0.8
-29 0.19999999999999996
30 0.87
-30 0.13
31 0.97
-31 0.030000000000000027
32 0.54
-32 0.45999999999999996
33 0.74
-33 0.26
34 0.22
-34 0.78
35 0.92
-35 0.07999999999999996
36 0.8
-36 0.19999999999999996
37 0.98
-37 0.020000000000000018
38 0.32
-38 0.6799999999999999
39 0.03
-39 0.97
40 0.04
-40 0.96
41 0.43
-41 0.5700000000000001
42 0.55
-42 0.44999999999999996
43 0.78
-43 0.21999999999999997
44 0.95
-44 0.050000000000000044
45 0.61
-45 0.39
46 0.59
-46 0.41000000000000003
47 0.58
-47 0.42000000000000004
48 0.01
-48 0.99
49 0.1
-49 0.9
50 0.4
-50 0.6
51 0.14
-51 0.86
52 0.33
-52 0.6699999999999999
53 0.45
-53 0.55
54 0.78
-54 0.21999999999999997
55 0.82
-55 0.18000000000000005
56 0.42
-56 0.5800000000000001
57 0.89
-57 0.10999999999999999
58 0.91
-58 0.08999999999999997
59 0.72
-59 0.28
60 0.36
-60 0.64
61 0.91
-61 0.08999999999999997
62 0.52
-62 0.48
63 0.17
-63 0.83
64 0.23
-64 0.77
65 0.05
-65 0.95
66 0.72
-66 0.28
67 0.92
-67 0.07999999999999996
68 0.32
-68 0.6799999999999999
69 0.18
-69 0.8200000000000001
70 0.66
-70 0.33999999999999997
