1 0.37
-1 0.63
2 0.58
-2 0.42000000000000004
3 0.17
-3 0.83
4 0.25
-4 0.75
5 0.35
-5 0.65
6 0.95
-6 0.050000000000000044
7 0.21
-7 0.79
8 0.7
-8 0.30000000000000004
9 0.34
-9 0.6599999999999999
10 0.3
-10 0.7
11 0.89
-11 0.10999999999999999
12 0.58
-12 0.42000000000000004
13 0.2
-13 0.8
14 0.02
-14 0.98
15 0.05
-15 0.95
16 0.77
-16 0.22999999999999998
17 0.71
-17 0.29000000000000004
18 0.66
-18 0.33999999999999997
19 0.94
-19 0.06000000000000005
20 0.99
-20 0.010000000000000009
21 0.64
-21 0.36
22 0.04
-22 0.96
23 0.5
-23 0.5
24 0.34
-24 0.6599999999999999
25 0.65
-25 0.35
26 0.22
-26 0.78
27 0.38
-27 0.62
28 0.37
-28 0.63
29 0.8
-29 0.19999999999999996
30 0.18
-30 0.8200000000000001
31 0.9
-31 0.09999999999999998
32 0.08
-32 0.92
33 0.98
-33 0.020000000000000018
34 0.04
-34 0.96
35 0.42
-35 0.5800000000000001
36 0.03
-36 0.97
37 0.05
-37 0.95
38 0.13
-38 0.87
39 0.98
-39 0.020000000000000018
40 0.34
-40 0.6599999999999999
41 0.83
-41 0.17000000000000004
42 0.83
-42 0.17000000000000004
43 0.15
-43 0.85
44 0.98
-44 0.020000000000000018
45 0.1
-45 0.9
46 0.87
-46 0.13
47 0.86
-47 0.14
48 0.62
-48 0.38
49 0.98
-49 0.020000000000000018
50 0.33
-50 0.6699999999999999
51 0.16
-51 0.84
52 0.91
-52 0.08999999999999997
53 0.95
-53 0.050000000000000044
54 0.54
-54 0.45999999999999996
55 0.62
-55 0.38
56 0.71
-56 0.29000000000000004
57 0.45
-57 0.55
58 0.36
-58 0.64
59 0.77
-59 0.22999999999999998
60 0.22
-60 0.78
61 0.72
-61 0.28
62 0.56
-62 0.43999999999999995
63 0.06
-63 0.94
64 0.93
-64 0.06999999999999995
65 0.59
-65 0.41000000000000003
66 0.28
-66 0.72
67 0.45
-67 0.55
68 0.59
-68 0.41000000000000003
69 0.76
-69 0.24
70 0.02
-70 0.98
