1 0.92
-1 0.07999999999999996
2 0.35
-2 0.65
3 0.66
-3 0.33999999999999997
4 0.88
-4 0.12
5 0.36
-5 0.64
6 0.86
-6 0.14
7 0.12
-7 0.88
8 0.68
-8 0.31999999999999995
9 0.96
-9 0.040000000000000036
10 0.88
-10 0.12
11 0.66
-11 0.33999999999999997
12 0.81
-12 0.18999999999999995
13 0.54
-13 0.45999999999999996
14 0.17
-14 0.83
15 0.34
-15 0.6599999999999999
16 0.44
-16 0.56
17 0.45
-17 0.55
18 0.62
-18 0.38
19 0.2
-19 0.8
20 0.09
-20 0.91
21 0.11
-21 0.89
22 0.22
-22 0.78
23 0.65
-23 0.35
24 0.78
-24 0.21999999999999997
25 0.24
-25 0.76
26 0.29
-26 0.71
27 0.8
-27 0.19999999999999996
28 0.03
-28 0.97
29 0.04
-29 0.96
30 0.71
-30 0.29000000000000004
31 0.01
-31 0.99
32 0.3
-32 0.7
33 0.94
-33 0.06000000000000005
34 0.09
-34 0.91
35 0.12
-35 0.88
36 0.69
-36 0.31000000000000005
37 0.28
-37 0.72
38 0.83
-38 0.17000000000000004
39 0.16
-39 0.84
40 0.52
-40 0.48
41 0.6
-41 0.4
42 0.71
-42 0.29000000000000004
43 0.06
-43 0.94
44 0.98
-44 0.020000000000000018
45 0.51
-45 0.49
46 0.76
-46 0.24
47 0.57
-47 0.43000000000000005
48 0.11
-48 0.89
49 0.75
-49 0.25
50 0.77
-50 0.22999999999999998
51 0.96
-51 0.040000000000000036
52 0.11
-52 0.89
53 0.84
-53 0.16000000000000003
54 0.05
-54 0.95
55 0.69
-55 0.31000000000000005
56 0.49
-56 0.51
57 0.35
-57 0.65
58 0.86
-58 0.14
59 0.27
-59 0.73
60 0.36
-60 0.64
61 0.78
-61 0.21999999999999997
62 0.75
-62 0.25
63 0.73
-63 0.27
64 0.65
-64 0.35
65 0.6
-65 0.4
66 0.83
-66 0.17000000000000004
67 0.97
-67 0.030000000000000027
68 0.19
-68 0.81
69 0.22
-69 0.78
70 0.53
-70 0.47
