1 0.25
-1 0.75
2 0.27
-2 0.73
3 0.19
-3 0.81
4 0.85
-4 0.15000000000000002
5 0.55
-5 0.44999999999999996
6 0.37
-6 0.63
7 0.13
-7 0.87
8 0.93
-8 0.06999999999999995
9 0.81
-9 0.18999999999999995
10 0.4
-10 0.6
11 0.99
-11 0.010000000000000009
12 0.44
-12 0.56
13 0.53
-13 0.47
14 0.2
-14 0.8
15 0.18
-15 0.8200000000000001
16 0.39
-16 0.61
17 0.42
-17 0.5800000000000001
18 0.69
-18 0.31000000000000005
19 0.54
-19 0.45999999999999996
20 0.67
-20 0.32999999999999996
21 0.66
-21 0.33999999999999997
22 0.85
-22 0.15000000000000002
23 0.09
-23 0.91
24 0.33
-24 0.6699999999999999
25 0.3
-25 0.7
26 0.18
-26 0.8200000000000001
27 0.6
-27 0.4
28 0.66
-28 0.33999999999999997
29 0.24
-29 0.76
30 0.86
-30 0.14
31 0.66
-31 0.33999999999999997
32 0.78
-32 0.21999999999999997
33 0.33
-33 0.6699999999999999
34 0.58
-34 0.42000000000000004
35 0.4
-35 0.6
36 0.28
-36 0.72
37 0.25
-37 0.75
38 0.59
-38 0.41000000000000003
39 0.86
-39 0.14
40 0.16
-40 0.84
41 0.01
-41 0.99
42 0.17
-42 0.83
43 0.6
-43 0.4
44 0.17
-44 0.83
45 0.19
-45 0.81
46 0.32
-46 0.6799999999999999
47 0.9
-47 0.09999999999999998
48 0.95
-48 0.050000000000000044
49 0.85
-49 0.15000000000000002
50 0.89
-50 0.10999999999999999
51 0.58
-51 0.42000000000000004
52 0.75
-52 0.25
53 0.45
-53 0.55
54 0.29
-54 0.71
55 0.3
-55 0.7
56 0.43
-56 0.5700000000000001
57 0.36
-57 0.64
58 0.51
-58 0.49
59 0.83
-59 0.17000000000000004
60 0.71
-60 0.29000000000000004
61 0.12
-61 0.88
62 0.68
-62 0.31999999999999995
63 0.78
-63 0.21999999999999997
64 0.27
-64 0.73
65 0.02
-65 0.98
66 0.25
-66 0.75
67 0.41
-67 0.5900000000000001
68 0.29
-68 0.71
69 0.39
-69 0.61
70 0.64
-70 0.36
