1 0.1
-1 0.9
2 0.48
-2 0.52
3 0.49
-3 0.51
4 0.49
-4 0.51
5 0.88
-5 0.12
6 0.15
-6 0.85
7 0.31
-7 0.69
8 0.45
-8 0.55
9 0.8
-9 0.19999999999999996
10 0.08
-10 0.92
11 0.88
-11 0.12
12 0.5
-12 0.5
13 0.28
-13 0.72
14 0.63
-14 0.37
15 0.12
-15 0.88
16 0.08
-16 0.92
17 0.04
-17 0.96
18 0.27
-18 0.73
19 0.82
-19 0.18000000000000005
20 0.61
-20 0.39
21 0.89
-21 0.10999999999999999
22 0.39
-22 0.61
23 0.56
-23 0.43999999999999995
24 0.42
-24 0.5800000000000001
25 0.51
-25 0.49
26 0.01
-26 0.99
27 0.29
-27 0.71
28 0.6
-28 0.4
29 0.91
-29 0.08999999999999997
30 0.5
-30 0.5
31 0.98
-31 0.020000000000000018
32 0.79
-32 0.20999999999999996
33 0.26
-33 0.74
34 0.73
-34 0.27
35 0.05
-35 0.95
36 0.63
-36 0.37
37 0.5
-37 0.5
38 0.36
-38 0.64
39 0.85
-39 0.15000000000000002
40 0.25
-40 0.75
41 0.39
-41 0.61
42 0.88
-42 0.12
43 0.27
-43 0.73
44 0.52
-44 0.48
45 0.94
-45 0.06000000000000005
46 0.06
-46 0.94
47 0.55
-47 0.44999999999999996
48 0.43
-48 0.5700000000000001
49 0.84
-49 0.16000000000000003
50 0.67
-50 0.32999999999999996
51 0.25
-51 0.75
52 0.67
-52 0.32999999999999996
53 0.77
-53 0.22999999999999998
54 0.85
-54 0.15000000000000002
55 0.92
-55 0.07999999999999996
56 0.97
-56 0.030000000000000027
57 0.62
-57 0.38
58 0.86
-58 0.14
59 0.69
-59 0.31000000000000005
60 0.81
-60 0.18999999999999995
61 0.29
-61 0.71
62 0.04
-62 0.96
63 0.36
-63 0.64
64 0.31
-64 0.69
65 0.11
-65 0.89
66 0.19
-66 0.81
67 0.83
-67 0.17000000000000004
68 0.14
-68 0.86
69 0.97
-69 0.030000000000000027
70 0.63
-70 0.37
