1 0.91
-1 0.08999999999999997
2 0.93
-2 0.06999999999999995
3 0.44
-3 0.56
4 0.6
-4 0.4
5 0.33
-5 0.6699999999999999
6 0.76
-6 0.24
7 0.77
-7 0.22999999999999998
8 0.13
-8 0.87
9 0.06
-9 0.94
10 0.59
-10 0.41000000000000003
11 0.84
-11 0.16000000000000003
12 0.1
-12 0.9
13 0.96
-13 0.040000000000000036
14 0.91
-14 0.08999999999999997
15 0.6
-15 0.4
16 0.81
-16 0.18999999999999995
17 0.05
-17 0.95
18 0.61
-18 0.39
19 0.14
-19 0.86
20 0.08
-20 0.92
21 0.15
-21 0.85
22 0.71
-22 0.29000000000000004
23 0.1
-23 0.9
24 0.88
-24 0.12
25 0.62
-25 0.38
26 0.35
-26 0.65
27 0.17
-27 0.83
28 0.86
-28 0.14
29 0.11
-29 0.89
30 0.01
-30 0.99
31 0.54
-31 0.45999999999999996
32 0.81
-32 0.18999999999999995
33 0.14
-33 0.86
34 0.32
-34 0.6799999999999999
35 0.7
-35 0.30000000000000004
36 0.94
-36 0.06000000000000005
37 0.91
-37 0.08999999999999997
38 0.07
-38 0.9299999999999999
39 0.85
-39 0.15000000000000002
40 0.89
-40 0.10999999999999999
41 0.59
-41 0.41000000000000003
42 0.17
-42 0.83
43 0.75
-43 0.25
44 0.98
-44 0.020000000000000018
45 0.47
-45 0.53
46 0.15
-46 0.85
47 0.63
-47 0.37
48 0.82
-48 0.18000000000000005
49 0.48
-49 0.52
50 0.95
-50 0.050000000000000044
51 0.53
-51 0.47
52 0.12
-52 0.88
53 0.78
-53 0.21999999999999997
54 0.54
-54 0.45999999999999996
55 0.9
-55 0.09999999999999998
56 0.98
-56 0.020000000000000018
57 0.76
-57 0.24
58 0.19
-58 0.81
59 0.11
-59 0.89
60 0.46
-60 0.54
61 0.96
-61 0.040000000000000036
62 0.52
-62 0.48
63 0.05
-63 0.95
64 0.77
-64 0.22999999999999998
65 0.71
-65 0.29000000000000004
66 0.45
-66 0.55
67 0.14
-67 0.86
68 0.69
-68 0.31000000000000005
69 0.49
-69 0.51
70 0.93
-70 0.06999999999999995
