1 0.55
-1 0.44999999999999996
2 0.7
-2 0.30000000000000004
3 0.9
-3 0.09999999999999998
4 0.52
-4 0.48
5 0.96
-5 0.040000000000000036
6 0.7
-6 0.30000000000000004
7 0.65
-7 0.35
8 0.19
-8 0.81
9 0.62
-9 0.38
10 0.87
-10 0.13
11 0.2
-11 0.8
12 0.84
-12 0.16000000000000003
13 0.6
-13 0.4
14 0.94
-14 0.06000000000000005
15 0.36
-15 0.64
16 0.31
-16 0.69
17 0.32
-17 0.6799999999999999
18 0.37
-18 0.63
19 0.84
-19 0.16000000000000003
20 0.8
-20 0.19999999999999996
21 0.89
-21 0.10999999999999999
22 0.69
-22 0.31000000000000005
23 0.13
-23 0.87
24 0.5
-24 0.5
25 0.81
-25 0.18999999999999995
26 0.13
-26 0.87
27 0.01
-27 0.99
28 0.23
-28 0.77
29 0.41
-29 0.5900000000000001
30 0.65
-30 0.35
31 0.59
-31 0.41000000000000003
32 0.84
-32 0.16000000000000003
33 0.99
-33 0.010000000000000009
34 0.02
-34 0.98
35 0.23
-35 0.77
36 0.28
-36 0.72
37 0.33
-37 0.6699999999999999
38 0.81
-38 0.18999999999999995
39 0.07
-39 0.9299999999999999
40 0.71
-40 0.29000000000000004
41 0.72
-41 0.28
42 0.21
-42 0.79
43 0.07
-43 0.9299999999999999
44 0.78
-44 0.21999999999999997
45 0.18
-45 0.8200000000000001
46 0.96
-46 0.040000000000000036
47 0.9
-47 0.09999999999999998
48 0.76
-48 0.24
49 0.55
-49 0.44999999999999996
50 0.13
-50 0.87
51 0.01
-51 0.99
52 0.19
-52 0.81
53 0.25
-53 0.75
54 0.05
-54 0.95
55 0.43
-55 0.5700000000000001
56 0.69
-56 0.31000000000000005
57 0.44
-57 0.56
58 0.37
-58 0.63
59 0.3
-59 0.7
60 0.46
-60 0.54
61 0.66
-61 0.33999999999999997
62 0.72
-62 0.28
63 0.59
-63 0.41000000000000003
64 0.93
-64 0.06999999999999995
65 0.84
-65 0.16000000000000003
66 0.67
-66 0.32999999999999996
67 0.79
-67 0.20999999999999996
68 0.04
-68 0.96
69 0.71
-69 0.29000000000000004
70 0.06
-70 0.94
