1 0.63
-1 0.37
2 0.33
-2 0.6699999999999999
3 0.33
-3 0.6699999999999999
4 0.36
-4 0.64
5 0.86
-5 0.14
6 0.37
-6 0.63
7 0.22
-7 0.78
8 0.62
-8 0.38
9 0.23
-9 0.77
10 0.51
-10 0.49
11 0.05
-11 0.95
12 0.22
-12 0.78
13 0.97
-13 0.030000000000000027
14 0.78
-14 0.21999999999999997
15 0.72
-15 0.28
16 0.48
-16 0.52
17 0.67
-17 0.32999999999999996
18 0.3
-18 0.7
19 0.23
-19 0.77
20 0.79
-20 0.20999999999999996
21 0.82
-21 0.18000000000000005
22 0.04
-22 0.96
23 0.32
-23 0.6799999999999999
24 0.76
-24 0.24
25 0.37
-25 0.63
26 0.58
-26 0.42000000000000004
27 0.78
-27 0.21999999999999997
28 0.28
-28 0.72
29 0.64
-29 0.36
30 0.46
-30 0.54
31 0.77
-31 0.22999999999999998
32 0.05
-32 0.95
33 0.97
-33 0.030000000000000027
34 0.64
-34 0.36
35 0.19
-35 0.81
36 0.61
-36 0.39
37 0.12
-37 0.88
38 0.81
-38 0.18999999999999995
39 0.99
-39 0.010000000000000009
40 0.08
-40 0.92
41 0.25
-41 0.75
42 0.56
-42 0.43999999999999995
43 0.26
-43 0.74
44 0.46
-44 0.54
45 0.37
-45 0.63
46 0.42
-46 0.5800000000000001
47 0.34
-47 0.6599999999999999
48 0.98
-48 0.020000000000000018
49 0.54
-49 0.45999999999999996
50 0.05
-50 0.95
51 0.82
-51 0.18000000000000005
52 0.17
-52 0.83
53 0.71
-53 0.29000000000000004
54 0.03
-54 0.97
55 0.43
-55 0.5700000000000001
56 0.65
-56 0.35
57 0.41
-57 0.5900000000000001
58 0.49
-58 0.51
59 0.38
-59 0.62
60 0.21
-60 0.79
61 0.01
-61 0.99
62 0.18
-62 0.8200000000000001
63 0.44
-63 0.56
64 0.66
-64 0.33999999999999997
65 0.73
-65 0.27
66 0.34
-66 0.6599999999999999
67 0.29
-67 0.71
68 0.73
-68 0.27
69 0.46
-69 0.54
70 0.76
-70 0.24
