1 0.41
-1 0.5900000000000001
2 0.28
-2 0.72
3 0.9
-3 0.09999999999999998
4 0.34
-4 0.6599999999999999
5 0.16
-5 0.84
6 0.15
-6 0.85
7 0.62
-7 0.38
8 0.6
-8 0.4
9 0.35
-9 0.65
10 0.61
-10 0.39
11 0.77
-11 0.22999999999999998
12 0.79
-12 0.20999999999999996
13 0.87
-13 0.13
14 0.73
-14 0.27
15 0.48
-15 0.52
16 0.01
-16 0.99
17 0.51
-17 0.49
18 0.98
-18 0.020000000000000018
19 0.14
-19 0.86
20 0.15
-20 0.85
21 0.15
-21 0.85
22 0.62
-22 0.38
23 0.12
-23 0.88
24 0.8
-24 0.19999999999999996
25 0.35
-25 0.65
26 0.62
-26 0.38
27 0.95
-27 0.050000000000000044
28 0.55
-28 0.44999999999999996
29 0.78
-29 0.21999999999999997
30 0.26
-30 0.74
31 0.08
-31 0.92
32 0.8
-32 0.19999999999999996
33 0.68
-33 0.31999999999999995
34 0.18
-34 0.8200000000000001
35 0.42
-35 0.5800000000000001
36 0.48
-36 0.52
37 0.34
-37 0.6599999999999999
38 0.55
-38 0.44999999999999996
39 0.78
-39 0.21999999999999997
40 0.43
-40 0.5700000000000001
41 0.75
-41 0.25
42 0.74
-42 0.26
43 0.72
-43 0.28
44 0.94
-44 0.06000000000000005
45 0.85
-45 0.15000000000000002
46 0.48
-46 0.52
47 0.82
-47 0.18000000000000005
48 0.72
-48 0.28
49 0.17
-49 0.83
50 0.59
-50 0.41000000000000003
51 0.02
-51 0.98
52 0.64
-52 0.36
53 0.9
-53 0.09999999999999998
54 0.05
-54 0.95
55 0.01
-55 0.99
56 0.73
-56 0.27
57 0.22
-57 0.78
58 0.73
-58 0.27
59 0.97
-59 0.030000000000000027
60 0.19
-60 0.81
61 0.19
-61 0.81
62 0.78
-62 0.21999999999999997
63 0.78
-63 0.21999999999999997
64 0.2
-64 0.8
65 0.04
-65 0.96
66 0.71
-66 0.29000000000000004
67 0.31
-67 0.69
68 0.79
-68 0.20999999999999996
69 0.09
-69 0.91
70 0.61
-70 0.39
