1 0.41
-1 0.5900000000000001
2 0.04
-2 0.96
3 0.83
-3 0.17000000000000004
4 0.91
-4 0.08999999999999997
5 0.32
-5 0.6799999999999999
6 0.81
-6 0.18999999999999995
7 0.62
-7 0.38
8 0.42
-8 0.5800000000000001
9 0.76
-9 0.24
10 0.01
-10 0.99
11 0.23
-11 0.77
12 0.97
-12 0.030000000000000027
13 0.69
-13 0.31000000000000005
14 0.45
-14 0.55
15 0.04
-15 0.96
16 0.07
-16 0.9299999999999999
17 0.91
-17 0.08999999999999997
18 0.84
-18 0.16000000000000003
19 0.24
-19 0.76
20 0.27
-20 0.73
21 0.35
-21 0.65
22 0.13
-22 0.87
23 0.06
-23 0.94
24 0.62
-24 0.38
25 0.13
-25 0.87
26 0.91
-26 0.08999999999999997
27 0.14
-27 0.86
28 0.44
-28 0.56
29 0.63
-29 0.37
30 0.45
-30 0.55
31 0.4
-31 0.6
32 0.91
-32 0.08999999999999997
33 0.41
-33 0.5900000000000001
34 0.85
-34 0.15000000000000002
35 0.11
-35 0.89
36 0.8
-36 0.19999999999999996
37 0.8
-37 0.19999999999999996
38 0.88
-38 0.12
39 0.26
-39 0.74
40 0.97
-40 0.030000000000000027
41 0.44
-41 0.56
42 0.15
-42 0.85
43 0.54
-43 0.45999999999999996
44 0.38
-44 0.62
45 0.35
-45 0.65
46 0.82
-46 0.18000000000000005
47 0.04
-47 0.96
48 0.44
-48 0.56
49 0.34
-49 0.6599999999999999
50 0.54
-50 0.45999999999999996
51 0.27
-51 0.73
52 0.07
-52 0.9299999999999999
53 0.29
-53 0.71
54 0.83
-54 0.17000000000000004
55 0.17
-55 0.83
56 0.58
-56 0.42000000000000004
57 0.36
-57 0.64
58 0.41
-58 0.5900000000000001
59 0.2
-59 0.8
60 0.1
-60 0.9
61 0.24
-61 0.76
62 0.55
-62 0.44999999999999996
63 0.39
-63 0.61
64 0.52
-64 0.48
65 0.22
-65 0.78
66 0.14
-66 0.86
67 0.29
-67 0.71
68 0.29
-68 0.71
69 0.4
-69 0.6
70 0.68
-70 0.31999999999999995
