1 0.66
-1 0.33999999999999997
2 0.84
-2 0.16000000000000003
3 0.24
-3 0.76
4 0.8
-4 0.19999999999999996
5 0.94
-5 0.06000000000000005
6 0.61
-6 0.39
7 0.11
-7 0.89
8 0.23
-8 0.77
9 0.1
-9 0.9
10 0.64
-10 0.36
11 0.62
-11 0.38
12 0.82
-12 0.18000000000000005
13 0.62
-13 0.38
14 0.16
-14 0.84
15 0.82
-15 0.18000000000000005
16 0.82
-16 0.18000000000000005
17 0.43
-17 0.5700000000000001
18 0.57
-18 0.43000000000000005
19 0.97
-19 0.030000000000000027
20 0.27
-20 0.73
21 0.24
-21 0.76
22 0.76
-22 0.24
23 0.01
-23 0.99
24 0.04
-24 0.96
25 0.01
-25 0.99
26 0.8
-26 0.19999999999999996
27 0.63
-27 0.37
28 0.07
-28 0.9299999999999999
29 0.8
-29 0.19999999999999996
30 0.96
-30 0.040000000000000036
31 0.48
-31 0.52
32 0.63
-32 0.37
33 0.79
-33 0.20999999999999996
34 0.72
-34 0.28
35 0.41
-35 0.5900000000000001
36 0.38
-36 0.62
37 0.55
-37 0.44999999999999996
38 0.9
-38 0.09999999999999998
39 0.08
-39 0.92
40 0.69
-40 0.31000000000000005
41 0.81
-41 0.18999999999999995
42 0.01
-42 0.99
43 0.82
-43 0.18000000000000005
44 0.39
-44 0.61
45 0.98
-45 0.020000000000000018
46 0.21
-46 0.79
47 0.28
-47 0.72
48 0.07
-48 0.9299999999999999
49 0.35
-49 0.65
50 0.92
-50 0.07999999999999996
51 0.4
-51 0.6
52 0.5
-52 0.5
53 0.59
-53 0.41000000000000003
54 0.85
-54 0.15000000000000002
55 0.25
-55 0.75
56 0.55
-56 0.44999999999999996
57 0.08
-57 0.92
58 0.13
-58 0.87
59 0.54
-59 0.45999999999999996
60 0.04
-60 0.96
61 0.45
-61 0.55
62 0.25
-62 0.75
63 0.09
-63 0.91
64 0.73
-64 0.27
65 0.94
-65 0.06000000000000005
66 0.39
-66 0.61
67 0.8
-67 0.19999999999999996
68 0.34
-68 0.6599999999999999
69 0.12
-69 0.88
70 0.96
-70 0.040000000000000036
