1 0.72
-1 0.28
2 0.62
-2 0.38
3 0.84
-3 0.16000000000000003
4 0.14
-4 0.86
5 0.59
-5 0.41000000000000003
6 0.86
-6 0.14
7 0.02
-7 0.98
8 0.81
-8 0.18999999999999995
9 0.09
-9 0.91
10 0.2
-10 0.8
11 0.78
-11 0.21999999999999997
12 0.91
-12 0.08999999999999997
13 0.51
-13 0.49
14 0.25
-14 0.75
15 0.15
-15 0.85
16 0.58
-16 0.42000000000000004
17 0.32
-17 0.6799999999999999
18 0.67
-18 0.32999999999999996
19 0.36
-19 0.64
20 0.14
-20 0.86
21 0.36
-21 0.64
22 0.36
-22 0.64
23 0.58
-23 0.42000000000000004
24 0.32
-24 0.6799999999999999
25 0.98
-25 0.020000000000000018
26 0.42
-26 0.5800000000000001
27 0.85
-27 0.15000000000000002
28 0.79
-28 0.20999999999999996
29 0.99
-29 0.010000000000000009
30 0.68
-30 0.31999999999999995
31 0.34
-31 0.6599999999999999
32 0.05
-32 0.95
33 0.7
-33 0.30000000000000004
34 0.81
-34 0.18999999999999995
35 0.83
-35 0.17000000000000004
36 0.78
-36 0.21999999999999997
37 0.36
-37 0.64
38 0.47
-38 0.53
39 0.66
-39 0.33999999999999997
40 0.73
-40 0.27
41 0.73
-41 0.27
42 0.83
-42 0.17000000000000004
43 0.41
-43 0.5900000000000001
44 0.71
-44 0.29000000000000004
45 0.41
-45 0.5900000000000001
46 0.31
-46 0.69
47 0.94
-47 0.06000000000000005
48 0.87
-48 0.13
49 0.1
-49 0.9
50 0.88
-50 0.12
51 0.26
-51 0.74
52 0.12
-52 0.88
53 0.59
-53 0.41000000000000003
54 0.15
-54 0.85
55 0.64
-55 0.36
56 0.78
-56 0.21999999999999997
57 0.09
-57 0.91
58 0.8
-58 0.19999999999999996
59 0.56
-59 0.43999999999999995
60 0.7
-60 0.30000000000000004
61 0.99
-61 0.010000000000000009
62 0.54
-62 0.45999999999999996
63 0.56
-63 0.43999999999999995
64 0.4
-64 0.6
65 0.13
-65 0.87
66 0.68
-66 0.31999999999999995
67 0.99
-67 0.010000000000000009
68 0.98
-68 0.020000000000000018
69 0.42
-69 0.5800000000000001
70 0.67
-70 0.32999999999999996
