1 0.17
-1 0.83
2 0.61
-2 0.39
3 0.69
-3 0.31000000000000005
4 0.34
-4 0.6599999999999999
5 0.22
-5 0.78
6 0.42
-6 0.5800000000000001
7 0.83
-7 0.17000000000000004
8 0.19
-8 0.81
9 0.21
-9 0.79
10 0.82
-10 0.18000000000000005
11 0.16
-11 0.84
12 0.38
-12 0.62
13 0.02
-13 0.98
14 0.7
-14 0.30000000000000004
15 0.36
-15 0.64
16 0.38
-16 0.62
17 0.23
-17 0.77
18 0.09
-18 0.91
19 0.17
-19 0.83
20 0.64
-20 0.36
21 0.2
-21 0.8
22 0.98
-22 0.020000000000000018
23 0.34
-23 0.6599999999999999
24 0.99
-24 0.010000000000000009
25 0.38
-25 0.62
26 0.28
-26 0.72
27 0.13
-27 0.87
28 0.55
-28 0.44999999999999996
29 0.73
-29 0.27
30 0.33
-30 0.6699999999999999
31 0.54
-31 0.45999999999999996
32 0.84
-32 0.16000000000000003
33 0.2
-33 0.8
34 0.4
-34 0.6
35 0.08
-35 0.92
36 0.35
-36 0.65
37 0.01
-37 0.99
38 0.73
-38 0.27
39 0.24
-39 0.76
40 0.14
-40 0.86
41 0.31
-41 0.69
42 0.06
-42 0.94
43 0.98
-43 0.020000000000000018
44 0.56
-44 0.43999999999999995
45 0.72
-45 0.28
46 0.72
-46 0.28
47 0.32
-47 0.6799999999999999
48 0.96
-48 0.040000000000000036
49 0.55
-49 0.44999999999999996
50 0.92
-50 0.07999999999999996
51 0.59
-51 0.41000000000000003
52 0.62
-52 0.38
53 0.33
-53 0.6699999999999999
54 0.74
-54 0.26
55 0.11
-55 0.89
56 0.41
-56 0.5900000000000001
57 0.89
-57 0.10999999999999999
58 0.81
-58 0.18999999999999995
59 0.61
-59 0.39
60 0.12
-60 0.88
61 0.75
-61 0.25
62 0.06
-62 0.94
63 0.83
-63 0.17000000000000004
64 0.91
-64 0.08999999999999997
65 0.35
-65 0.65
66 0.72
-66 0.28
67 0.02
-67 0.98
68 0.18
-68 0.8200000000000001
69 0.67
-69 0.32999999999999996
70 0.36
-70 0.64
