1 0.01
-1 0.99
2 0.38
-2 0.62
3 0.73
-3 0.27
4 0.72
-4 0.28
5 0.94
-5 0.06000000000000005
6 0.84
-6 0.16000000000000003
7 0.03
-7 0.97
8 0.9
-8 0.09999999999999998
9 0.25
-9 0.75
10 0.3
-10 0.7
11 0.94
-11 0.06000000000000005
12 0.53
-12 0.47
13 0.25
-13 0.75
14 0.24
-14 0.76
15 0.84
-15 0.16000000000000003
16 0.32
-16 0.6799999999999999
17 0.71
-17 0.29000000000000004
18 0.73
-18 0.27
19 0.19
-19 0.81
20 0.48
-20 0.52
21 0.19
-21 0.81
22 0.87
-22 0.13
23 0.76
-23 0.24
24 0.37
-24 0.63
25 0.07
-25 0.9299999999999999
26 0.65
-26 0.35
27 0.7
-27 0.30000000000000004
28 0.76
-28 0.24
29 0.79
-29 0.20999999999999996
30 0.49
-30 0.51
31 0.6
-31 0.4
32 0.8
-32 0.19999999999999996
33 0.56
-33 0.43999999999999995
34 0.07
-34 0.9299999999999999
35 0.92
-35 0.07999999999999996
36 0.75
-36 0.25
37 0.85
-37 0.15000000000000002
38 0.33
-38 0.6699999999999999
39 0.11
-39 0.89
40 0.19
-40 0.81
41 0.84
-41 0.16000000000000003
42 0.76
-42 0.24
43 0.07
-43 0.9299999999999999
44 0.99
-44 0.010000000000000009
45 0.48
-45 0.52
46 0.13
-46 0.87
47 0.73
-47 0.27
48 0.63
-48 0.37
49 0.67
-49 0.32999999999999996
50 0.85
-50 0.15000000000000002
51 0.34
-51 0.6599999999999999
52 0.57
-52 0.43000000000000005
53 0.86
-53 0.14
54 0.74
-54 0.26
55 0.07
-55 0.9299999999999999
56 0.48
-56 0.52
57 0.54
-57 0.45999999999999996
58 0.27
-58 0.73
59 0.76
-59 0.24
60 0.89
-60 0.10999999999999999
61 0.36
-61 0.64
62 0.1
-62 0.9
63 0.61
-63 0.39
64 0.91
-64 0.08999999999999997
65 0.54
-65 0.45999999999999996
66 0.63
-66 0.37
67 0.03
-67 0.97
68 0.13
-68 0.87
69 0.81
-69 0.18999999999999995
70 0.44
-70 0.56
