1 0.78
-1 0.21999999999999997
2 0.8
-2 0.19999999999999996
3 0.59
-3 0.41000000000000003
4 0.86
-4 0.14
5 0.63
-5 0.37
6 0.94
-6 0.06000000000000005
7 0.75
-7 0.25
8 0.64
-8 0.36
9 0.91
-9 0.08999999999999997
10 0.89
-10 0.10999999999999999
11 0.39
-11 0.61
12 0.23
-12 0.77
13 0.46
-13 0.54
14 0.62
-14 0.38
15 0.75
-15 0.25
16 0.18
-16 0.8200000000000001
17 0.25
-17 0.75
18 0.14
-18 0.86
19 0.05
-19 0.95
20 0.15
-20 0.85
21 0.83
-21 0.17000000000000004
22 0.42
-22 0.5800000000000001
23 0.3
-23 0.7
24 0.09
-24 0.91
25 0.14
-25 0.86
26 0.52
-26 0.48
27 0.31
-27 0.69
28 0.68
-28 0.31999999999999995
29 0.15
-29 0.85
30 0.55
-30 0.44999999999999996
31 0.21
-31 0.79
32 0.13
-32 0.87
33 0.03
-33 0.97
34 0.95
-34 0.050000000000000044
35 0.92
-35 0.07999999999999996
36 0.99
-36 0.010000000000000009
37 0.02
-37 0.98
38 0.68
-38 0.31999999999999995
39 0.14
-39 0.86
40 0.09
-40 0.91
41 0.92
-41 0.07999999999999996
42 0.4
-42 0.6
43 0.12
-43 0.88
44 0.45
-44 0.55
45 0.26
-45 0.74
46 0.27
-46 0.73
47 0.49
-47 0.51
48 0.12
-48 0.88
49 0.41
-49 0.5900000000000001
50 0.7
-50 0.30000000000000004
51 0.76
-51 0.24
52 0.63
-52 0.37
53 0.58
-53 0.42000000000000004
54 0.67
-54 0.32999999999999996
55 0.21
-55 0.79
56 0.23
-56 0.77
57 0.34
-57 0.6599999999999999
58 0.01
-58 0.99
59 0.52
-59 0.48
60 0.44
-60 0.56
61 0.01
-61 0.99
62 0.58
-62 0.42000000000000004
63 0.67
-63 0.32999999999999996
64 0.64
-64 0.36
65 0.18
-65 0.8200000000000001
66 0.58
-66 0.42000000000000004
67 0.7
-67 0.30000000000000004
68 0.86
-68 0.14
69 0.28
-69 0.72
70 0.23
-70 0.77
