1 0.57
-1 0.43000000000000005
2 0.3
-2 0.7
3 0.51
-3 0.49
4 0.84
-4 0.16000000000000003
5 0.16
-5 0.84
6 0.38
-6 0.62
7 0.24
-7 0.76
8 0.32
-8 0.6799999999999999
9 0.72
-9 0.28
10 0.09
-10 0.91
11 0.22
-11 0.78
12 0.52
-12 0.48
13 0.72
-13 0.28
14 0.15
-14 0.85
15 0.59
-15 0.41000000000000003
16 0.2
-16 0.8
17 0.64
-17 0.36
18 0.54
-18 0.45999999999999996
19 0.61
-19 0.39
20 0.5
-20 0.5
21 0.71
-21 0.29000000000000004
22 0.57
-22 0.43000000000000005
23 0.07
-23 0.9299999999999999
24 0.64
-24 0.36
25 0.16
-25 0.84
26 0.61
-26 0.39
27 0.04
-27 0.96
28 0.53
-28 0.47
29 0.9
-29 0.09999999999999998
30 0.24
-30 0.76
31 0.59
-31 0.41000000000000003
32 0.34
-32 0.6599999999999999
33 0.8
-33 0.19999999999999996
34 0.17
-34 0.83
35 0.89
-35 0.10999999999999999
36 0.64
-36 0.36
37 0.36
-37 0.64
38 0.39
-38 0.61
39 0.27
-39 0.73
40 0.53
-40 0.47
41 0.06
-41 0.94
42 0.93
-42 0.06999999999999995
43 0.14
-43 0.86
44 0.48
-44 0.52
45 0.17
-45 0.83
46 0.28
-46 0.72
47 0.04
-47 0.96
48 0.24
-48 0.76
49 0.16
-49 0.84
50 0.48
-50 0.52
51 0.37
-51 0.63
52 0.4
-52 0.6
53 0.79
-53 0.20999999999999996
54 0.18
-54 0.8200000000000001
55 0.77
-55 0.22999999999999998
56 0.92
-56 0.07999999999999996
57 0.46
-57 0.54
58 0.3
-58 0.7
59 0.25
-59 0.75
60 0.77
-60 0.22999999999999998
61 0.78
-61 0.21999999999999997
62 0.11
-62 0.89
63 0.81
-63 0.18999999999999995
64 0.82
-64 0.18000000000000005
65 0.18
-65 0.8200000000000001
66 0.73
-66 0.27
67 0.28
-67 0.72
68 0.93
-68 0.06999999999999995
69 0.27
-69 0.73
70 0.47
-70 0.53
