1 0.79
-1 0.20999999999999996
2 0.42
-2 0.5800000000000001
3 0.4
-3 0.6
4 0.49
-4 0.51
5 0.07
-5 0.9299999999999999
6 0.55
-6 0.44999999999999996
7 0.76
-7 0.24
8 0.68
-8 0.31999999999999995
9 0.35
-9 0.65
10 0.97
-10 0.030000000000000027
11 0.33
-11 0.6699999999999999
12 0.44
-12 0.56
13 0.7
-13 0.30000000000000004
14 0.24
-14 0.76
15 0.03
-15 0.97
16 0.19
-16 0.81
17 0.33
-17 0.6699999999999999
18 0.77
-18 0.22999999999999998
19 0.53
-19 0.47
20 0.78
-20 0.21999999999999997
21 0.99
-21 0.010000000000000009
22 0.23
-22 0.77
23 0.14
-23 0.86
24 0.29
-24 0.71
25 0.87
-25 0.13
26 0.09
-26 0.91
27 0.6
-27 0.4
28 0.76
-28 0.24
29 0.81
-29 0.18999999999999995
30 0.62
-30 0.38
31 0.14
-31 0.86
32 0.35
-32 0.65
33 0.78
-33 0.21999999999999997
34 0.36
-34 0.64
35 0.37
-35 0.63
36 0.62
-36 0.38
37 0.5
-37 0.5
38 0.4
-38 0.6
39 0.35
-39 0.65
40 0.14
-40 0.86
41 0.29
-41 0.71
42 0.34
-42 0.6599999999999999
43 0.7
-43 0.30000000000000004
44 0.16
-44 0.84
45 0.02
-45 0.98
46 0.77
-46 0.22999999999999998
47 0.71
-47 0.29000000000000004
48 0.19
-48 0.81
49 0.44
-49 0.56
50 0.33
-50 0.6699999999999999
51 0.42
-51 0.5800000000000001
52 0.33
-52 0.6699999999999999
53 0.39
-53 0.61
54 0.7
-54 0.30000000000000004
55 0.67
-55 0.32999999999999996
56 0.95
-56 0.050000000000000044
57 0.68
-57 0.31999999999999995
58 0.15
-58 0.85
59 0.29
-59 0.71
60 0.68
-60 0.31999999999999995
61 0.4
-61 0.6
62 0.66
-62 0.33999999999999997
63 0.78
-63 0.21999999999999997
64 0.56
-64 0.43999999999999995
65 0.53
-65 0.47
66 0.22
-66 0.78
67 0.13
-67 0.87
68 0.25
-68 0.75
69 0.61
-69 0.39
70 0.23
-70 0.77
