1 0.58
-1 0.42000000000000004
2 0.91
-2 0.08999999999999997
3 0.21
-3 0.79
4 0.26
-4 0.74
5 0.61
-5 0.39
6 0.33
-6 0.6699999999999999
7 0.77
-7 0.22999999999999998
8 0.61
-8 0.39
9 0.34
-9 0.6599999999999999
10 0.13
-10 0.87
11 0.63
-11 0.37
12 0.44
-12 0.56
13 0.51
-13 0.49
14 0.45
-14 0.55
15 0.66
-15 0.33999999999999997
16 0.6
-16 0.4
17 0.36
-17 0.64
18 0.93
-18 0.06999999999999995
19 0.01
-19 0.99
20 0.63
-20 0.37
21 0.48
-21 0.52
22 0.7
-22 0.30000000000000004
23 0.28
-23 0.72
24 0.77
-24 0.22999999999999998
25 0.82
-25 0.18000000000000005
26 0.47
-26 0.53
27 0.34
-27 0.6599999999999999
28 0.49
-28 0.51
29 0.06
-29 0.94
30 0.38
-30 0.62
31 0.32
-31 0.6799999999999999
32 0.16
-32 0.84
33 0.95
-33 0.050000000000000044
34 0.28
-34 0.72
35 0.66
-35 0.33999999999999997
36 0.05
-36 0.95
37 0.69
-37 0.31000000000000005
38 0.98
-38 0.020000000000000018
39 0.1
-39 0.9
40 0.64
-40 0.36
41 0.38
-41 0.62
42 0.64
-42 0.36
43 0.18
-43 0.8200000000000001
44 0.16
-44 0.84
45 0.19
-45 0.81
46 0.09
-46 0.91
47 0.44
-47 0.56
48 0.14
-48 0.86
49 0.26
-49 0.74
50 0.74
-50 0.26
51 0.92
-51 0.07999999999999996
52 0.58
-52 0.42000000000000004
53 0.75
-53 0.25
54 0.71
-54 0.29000000000000004
55 0.12
-55 0.88
56 0.18
-56 0.8200000000000001
57 0.63
-57 0.37
58 0.42
-58 0.5800000000000001
59 0.99
-59 0.010000000000000009
60 0.1
-60 0.9
61 0.54
-61 0.45999999999999996
62 0.55
-62 0.44999999999999996
63 0.57
-63 0.43000000000000005
64 0.65
-64 0.35
65 0.54
-65 0.45999999999999996
66 0.62
-66 0.38
67 0.6
-67 0.4
68 0.28
-68 0.72
69 0.47
-69 0.53
70 0.5
-70 0.5
