1 0.92
-1 0.07999999999999996
2 0.14
-2 0.86
3 0.09
-3 0.91
4 0.08
-4 0.92
5 0.17
-5 0.83
6 0.46
-6 0.54
7 0.1
-7 0.9
8 0.2
-8 0.8
9 0.63
-9 0.37
10 0.01
-10 0.99
11 0.91
-11 0.08999999999999997
12 0.62
-12 0.38
13 0.75
-13 0.25
14 0.89
-14 0.10999999999999999
15 0.12
-15 0.88
16 0.33
-16 0.6699999999999999
17 0.11
-17 0.89
18 0.14
-18 0.86
19 0.13
-19 0.87
20 0.34
-20 0.6599999999999999
21 0.58
-21 0.42000000000000004
22 0.12
-22 0.88
23 0.31
-23 0.69
24 0.43
-24 0.5700000000000001
25 0.14
-25 0.86
26 0.55
-26 0.44999999999999996
27 0.83
-27 0.17000000000000004
28 0.92
-28 0.07999999999999996
29 0.26
-29 0.74
30 0.41
-30 0.5900000000000001
31 0.88
-31 0.12
32 0.24
-32 0.76
33 0.94
-33 0.06000000000000005
34 0.18
-34 0.8200000000000001
35 0.23
-35 0.77
36 0.76
-36 0.24
37 0.28
-37 0.72
38 0.4
-38 0.6
39 0.54
-39 0.45999999999999996
40 0.4
-40 0.6
41 0.82
-41 0.18000000000000005
42 0.7
-42 0.30000000000000004
43 0.73
-43 0.27
44 0.16
-44 0.84
45 0.24
-45 0.76
46 0.63
-46 0.37
47 0.95
-47 0.050000000000000044
48 0.24
-48 0.76
49 0.49
-49 0.51
50 0.42
-50 0.5800000000000001
51 0.27
-51 0.73
52 0.11
-52 0.89
53 0.17
-53 0.83
54 0.59
-54 0.41000000000000003
55 0.91
-55 0.08999999999999997
56 0.85
-56 0.15000000000000002
57 0.17
-57 0.83
58 0.25
-58 0.75
59 0.64
-59 0.36
60 0.14
-60 0.86
61 0.71
-61 0.29000000000000004
62 0.1
-62 0.9
63 0.97
-63 0.030000000000000027
64 0.69
-64 0.31000000000000005
65 0.9
-65 0.09999999999999998
66 0.13
-66 0.87
67 0.01
-67 0.99
68 0.57
-68 0.43000000000000005
69 0.55
-69 0.44999999999999996
70 0.46
-70 0.54
