1 0.08
-1 0.92
2 0.71
-2 0.29000000000000004
3 0.47
-3 0.53
4 0.98
-4 0.020000000000000018
5 0.65
-5 0.35
6 0.93
-6 0.06999999999999995
7 0.63
-7 0.37
8 0.86
-8 0.14
9 0.73
-9 0.27
10 0.75
-10 0.25
11 0.96
-11 0.040000000000000036
12 0.76
-12 0.24
13 0.85
-13 0.15000000000000002
14 0.26
-14 0.74
15 0.92
-15 0.07999999999999996
16 0.51
-16 0.49
17 0.31
-17 0.69
18 0.93
-18 0.06999999999999995
19 0.22
-19 0.78
20 0.85
-20 0.15000000000000002
21 0.68
-21 0.31999999999999995
22 0.18
-22 0.8200000000000001
23 0.64
-23 0.36
24 0.97
-24 0.030000000000000027
25 0.59
-25 0.41000000000000003
26 0.34
-26 0.6599999999999999
27 0.18
-27 0.8200000000000001
28 0.49
-28 0.51
29 0.91
-29 0.08999999999999997
30 0.94
-30 0.06000000000000005
31 0.08
-31 0.92
32 0.07
-32 0.9299999999999999
33 0.8
-33 0.19999999999999996
34 0.76
-34 0.24
35 0.18
-35 0.8200000000000001
36 0.15
-36 0.85
37 0.22
-37 0.78
38 0.95
-38 0.050000000000000044
39 0.41
-39 0.5900000000000001
40 0.68
-40 0.31999999999999995
41 0.2
-41 0.8
42 0.27
-42 0.73
43 0.89
-43 0.10999999999999999
44 0.93
-44 0.06999999999999995
45 0.71
-45 0.29000000000000004
46 0.43
-46 0.5700000000000001
47 0.08
-47 0.92
48 0.76
-48 0.24
49 0.63
-49 0.37
50 0.69
-50 0.31000000000000005
51 0.37
-51 0.63
52 0.13
-52 0.87
53 0.82
-53 0.18000000000000005
54 0.96
-54 0.040000000000000036
55 0.46
-55 0.54
56 0.59
-56 0.41000000000000003
57 0.28
-57 0.72
58 0.41
-58 0.5900000000000001
59 0.81
-59 0.18999999999999995
60 0.71
-60 0.29000000000000004
61 0.11
-61 0.89
62 0.63
-62 0.37
63 0.82
-63 0.18000000000000005
64 0.87
-64 0.13
65 0.43
-65 0.5700000000000001
66 0.16
-66 0.84
67 0.02
-67 0.98
68 0.76
-68 0.24
69 0.1
-69 0.9
70 0.65
-70 0.35
