1 0.49
-1 0.51
2 0.57
-2 0.43000000000000005
3 0.42
-3 0.5800000000000001
4 0.35
-4 0.65
5 0.67
-5 0.32999999999999996
6 0.46
-6 0.54
7 0.26
-7 0.74
8 0.32
-8 0.6799999999999999
9 0.39
-9 0.61
10 0.75
-10 0.25
11 0.29
-11 0.71
12 0.32
-12 0.6799999999999999
13 0.67
-13 0.32999999999999996
14 0.83
-14 0.17000000000000004
15 0.92
-15 0.07999999999999996
16 0.88
-16 0.12
17 0.59
-17 0.41000000000000003
18 0.57
-18 0.43000000000000005
19 0.42
-19 0.5800000000000001
20 0.41
-20 0.5900000000000001
21 0.12
-21 0.88
22 0.4
-22 0.6
23 0.14
-23 0.86
24 0.03
-24 0.97
25 0.92
-25 0.07999999999999996
26 0.31
-26 0.69
27 0.53
-27 0.47
28 0.97
-28 0.030000000000000027
29 0.93
-29 0.06999999999999995
30 0.79
-30 0.20999999999999996
31 0.3
-31 0.7
32 0.84
-32 0.16000000000000003
33 0.82
-33 0.18000000000000005
34 0.32
-34 0.6799999999999999
35 0.39
-35 0.61
36 0.61
-36 0.39
37 0.47
-37 0.53
38 0.36
-38 0.64
39 0.06
-39 0.94
40 0.95
-40 0.050000000000000044
41 0.08
-41 0.92
42 0.27
-42 0.73
43 0.64
-43 0.36
44 0.6
-44 0.4
45 0.32
-45 0.6799999999999999
46 0.59
-46 0.41000000000000003
47 0.99
-47 0.010000000000000009
48 0.47
-48 0.53
49 0.45
-49 0.55
50 0.87
-50 0.13
51 0.13
-51 0.87
52 0.22
-52 0.78
53 0.08
-53 0.92
54 0.53
-54 0.47
55 0.54
-55 0.45999999999999996
56 0.02
-56 0.98
57 0.88
-57 0.12
58 0.27
-58 0.73
59 0.68
-59 0.31999999999999995
60 0.49
-60 0.51
61 0.34
-61 0.6599999999999999
62 0.12
-62 0.88
63 0.72
-63 0.28
64 0.72
-64 0.28
65 0.45
-65 0.55
66 0.92
-66 0.07999999999999996
67 0.27
-67 0.73
68 0.48
-68 0.52
69 0.51
-69 0.49
70 0.53
-70 0.47
