1 0.67
-1 0.32999999999999996
2 0.47
-2 0.53
3 0.34
-3 0.6599999999999999
4 0.29
-4 0.71
5 0.05
-5 0.95
6 0.13
-6 0.87
7 0.6
-7 0.4
8 0.37
-8 0.63
9 0.8
-9 0.19999999999999996
10 0.05
-10 0.95
11 0.92
-11 0.07999999999999996
12 0.93
-12 0.06999999999999995
13 0.51
-13 0.49
14 0.82
-14 0.18000000000000005
15 0.79
-15 0.20999999999999996
16 0.97
-16 0.030000000000000027
17 0.01
-17 0.99
18 0.71
-18 0.29000000000000004
19 0.47
-19 0.53
20 0.58
-20 0.42000000000000004
21 0.26
-21 0.74
22 0.88
-22 0.12
23 0.61
-23 0.39
24 0.16
-24 0.84
25 0.14
-25 0.86
26 0.14
-26 0.86
27 0.03
-27 0.97
28 0.23
-28 0.77
29 0.87
-29 0.13
30 0.9
-30 0.09999999999999998
31 0.2
-31 0.8
32 0.11
-32 0.89
33 0.32
-33 0.6799999999999999
34 0.75
-34 0.25
35 0.76
-35 0.24
36 0.83
-36 0.17000000000000004
37 0.99
-37 0.010000000000000009
38 0.5
-38 0.5
39 0.91
-39 0.08999999999999997
40 0.36
-40 0.64
41 0.55
-41 0.44999999999999996
42 0.54
-42 0.45999999999999996
43 0.79
-43 0.20999999999999996
44 0.89
-44 0.10999999999999999
45 0.41
-45 0.5900000000000001
46 0.13
-46 0.87
47 0.2
-47 0.8
48 0.4
-48 0.6
49 0.72
-49 0.28
50 0.35
-50 0.65
51 0.98
-51 0.020000000000000018
52 0.48
-52 0.52
53 0.08
-53 0.92
54 0.97
-54 0.030000000000000027
55 0.78
-55 0.21999999999999997
56 0.39
-56 0.61
57 0.79
-57 0.20999999999999996
58 0.41
-58 0.5900000000000001
59 0.42
-59 0.5800000000000001
60 0.49
-60 0.51
61 0.52
-61 0.48
62 0.98
-62 0.020000000000000018
63 0.31
-63 0.69
64 0.58
-64 0.42000000000000004
65 0.35
-65 0.65
66 0.99
-66 0.010000000000000009
67 0.52
-67 0.48
68 0.91
-68 0.08999999999999997
69 0.24
-69 0.76
70 0.09
-70 0.91
