1 0.99
-1 0.010000000000000009
2 0.81
-2 0.18999999999999995
3 0.35
-3 0.65
4 0.98
-4 0.020000000000000018
5 0.03
-5 0.97
6 0.63
-6 0.37
7 0.26
-7 0.74
8 0.45
-8 0.55
9 0.03
-9 0.97
10 0.9
-10 0.09999999999999998
11 0.66
-11 0.33999999999999997
12 0.2
-12 0.8
13 0.66
-13 0.33999999999999997
14 0.12
-14 0.88
15 0.59
-15 0.41000000000000003
16 0.38
-16 0.62
17 0.2
-17 0.8
18 0.06
-18 0.94
19 0.07
-19 0.9299999999999999
20 0.79
-20 0.20999999999999996
21 0.56
-21 0.43999999999999995
22 0.55
-22 0.44999999999999996
23 0.18
-23 0.8200000000000001
24 0.85
-24 0.15000000000000002
25 0.13
-25 0.87
26 0.42
-26 0.5800000000000001
27 0.17
-27 0.83
28 0.3
-28 0.7
29 0.78
-29 0.21999999999999997
30 0.78
-30 0.21999999999999997
31 0.08
-31 0.92
32 0.87
-32 0.13
33 0.76
-33 0.24
34 0.74
-34 0.26
35 0.32
-35 0.6799999999999999
36 0.34
-36 0.6599999999999999
37 0.69
-37 0.31000000000000005
38 0.37
-38 0.63
39 0.58
-39 0.42000000000000004
40 0.07
-40 0.9299999999999999
41 0.21
-41 0.79
42 0.69
-42 0.31000000000000005
43 0.86
-43 0.14
44 0.76
-44 0.24
45 0.59
-45 0.41000000000000003
46 0.71
-46 0.29000000000000004
47 0.39
-47 0.61
48 0.15
-48 0.85
49 0.3
-49 0.7
50 0.79
-50 0.20999999999999996
51 0.07
-51 0.9299999999999999
52 0.61
-52 0.39
53 0.86
-53 0.14
54 0.96
-54 0.040000000000000036
55 0.41
-55 0.5900000000000001
56 0.67
-56 0.32999999999999996
57 0.56
-57 0.43999999999999995
58 0.36
-58 0.64
59 0.03
-59 0.97
60 0.31
-60 0.69
61 0.91
-61 0.08999999999999997
62 0.21
-62 0.79
63 0.87
-63 0.13
64 0.78
-64 0.21999999999999997
65 0.4
-65 0.6
66 0.02
-66 0.98
67 0.58
-67 0.42000000000000004
68 0.74
-68 0.26
69 0.02
-69 0.98
70 0.75
-70 0.25
