1 0.07
-1 0.9299999999999999
2 0.68
-2 0.31999999999999995
3 0.82
-3 0.18000000000000005
4 0.52
-4 0.48
5 0.67
-5 0.32999999999999996
6 0.9
-6 0.09999999999999998
7 0.47
-7 0.53
8 0.75
-8 0.25
9 0.61
-9 0.39
10 0.75
-10 0.25
11 0.73
-11 0.27
12 0.72
-12 0.28
13 0.23
-13 0.77
14 0.33
-14 0.6699999999999999
15 0.14
-15 0.86
16 0.21
-16 0.79
17 0.72
-17 0.28
18 0.71
-18 0.29000000000000004
19 0.76
-19 0.24
20 0.81
-20 0.18999999999999995
21 0.51
-21 0.49
22 0.67
-22 0.32999999999999996
23 0.41
-23 0.5900000000000001
24 0.17
-24 0.83
25 0.38
-25 0.62
26 0.28
-26 0.72
27 0.7
-27 0.30000000000000004
28 0.62
-28 0.38
29 0.33
-29 0.6699999999999999
30 0.68
-30 0.31999999999999995
31 0.78
-31 0.21999999999999997
32 0.02
-32 0.98
33 0.96
-33 0.040000000000000036
34 0.28
-34 0.72
35 0.94
-35 0.06000000000000005
36 0.95
-36 0.050000000000000044
37 0.1
-37 0.9
38 0.92
-38 0.07999999999999996
39 0.95
-39 0.050000000000000044
40 0.77
-40 0.22999999999999998
41 0.78
-41 0.21999999999999997
42 0.95
-42 0.050000000000000044
43 0.36
-43 0.64
44 0.2
-44 0.8
45 0.65
-45 0.35
46 0.85
-46 0.15000000000000002
47 0.74
-47 0.26
48 0.87
-48 0.13
49 0.7
-49 0.30000000000000004
50 0.62
-50 0.38
51 0.02
-51 0.98
52 0.92
-52 0.07999999999999996
53 0.45
-53 0.55
54 0.28
-54 0.72
55 0.15
-55 0.85
56 0.76
-56 0.24
57 0.38
-57 0.62
58 0.48
-58 0.52
59 0.48
-59 0.52
60 0.22
-60 0.78
61 0.7
-61 0.30000000000000004
62 0.51
-62 0.49
63 0.02
-63 0.98
64 0.84
-64 0.16000000000000003
65 0.77
-65 0.22999999999999998
66 0.19
-66 0.81
67 0.16
-67 0.84
68 0.52
-68 0.48
69 0.8
-69 0.19999999999999996
70 0.71
-70 0.29000000000000004
