1 0.74
-1 0.26
2 0.44
-2 0.56
3 0.05
-3 0.95
4 0.69
-4 0.31000000000000005
5 0.48
-5 0.52
6 0.63
-6 0.37
7 0.36
-7 0.64
8 0.44
-8 0.56
9 0.08
-9 0.92
10 0.22
-10 0.78
11 0.55
-11 0.44999999999999996
12 0.75
-12 0.25
13 0.68
-13 0.31999999999999995
14 0.19
-14 0.81
15 0.3
-15 0.7
16 0.21
-16 0.79
17 0.98
-17 0.020000000000000018
18 0.68
-18 0.31999999999999995
19 0.7
-19 0.30000000000000004
20 0.02
-20 0.98
21 0.91
-21 0.08999999999999997
22 0.47
-22 0.53
23 0.58
-23 0.42000000000000004
24 0.97
-24 0.030000000000000027
25 0.11
-25 0.89
26 0.01
-26 0.99
27 0.25
-27 0.75
28 0.1
-28 0.9
29 0.79
-29 0.20999999999999996
30 0.8
-30 0.19999999999999996
31 0.83
-31 0.17000000000000004
32 0.71
-32 0.29000000000000004
33 0.33
-33 0.6699999999999999
34 0.1
-34 0.9
35 0.08
-35 0.92
36 0.33
-36 0.6699999999999999
37 0.49
-37 0.51
38 0.97
-38 0.030000000000000027
39 0.3
-39 0.7
40 0.93
-40 0.06999999999999995
41 0.38
-41 0.62
42 0.62
-42 0.38
43 0.43
-43 0.5700000000000001
44 0.7
-44 0.30000000000000004
45 0.08
-45 0.92
46 0.12
-46 0.88
47 0.6
-47 0.4
48 0.32
-48 0.6799999999999999
49 0.06
-49 0.94
50 0.38
-50 0.62
51 0.85
-51 0.15000000000000002
52 0.38
-52 0.62
53 0.88
-53 0.12
54 0.54
-54 0.45999999999999996
55 0.88
-55 0.12
56 0.34
-56 0.6599999999999999
57 0.07
-57 0.9299999999999999
58 0.64
-58 0.36
59 0.32
-59 0.6799999999999999
60 0.68
-60 0.31999999999999995
61 0.92
-61 0.07999999999999996
62 0.23
-62 0.77
63 0.78
-63 0.21999999999999997
64 0.41
-64 0.5900000000000001
65 0.82
-65 0.18000000000000005
66 0.06
-66 0.94
67 0.08
-67 0.92
68 0.17
-68 0.83
69 0.08
-69 0.92
70 0.48
-70 0.52
