1 0.75
-1 0.25
2 0.23
-2 0.77
3 0.88
-3 0.12
4 0.84
-4 0.16000000000000003
5 0.74
-5 0.26
6 0.37
-6 0.63
7 0.1
-7 0.9
8 0.39
-8 0.61
9 0.58
-9 0.42000000000000004
10 0.45
-10 0.55
11 0.5
-11 0.5
12 0.67
-12 0.32999999999999996
13 0.71
-13 0.29000000000000004
14 0.16
-14 0.84
15 0.35
-15 0.65
16 0.49
-16 0.51
17 0.92
-17 0.07999999999999996
18 0.09
-18 0.91
19 0.61
-19 0.39
20 0.61
-20 0.39
21 0.83
-21 0.17000000000000004
22 0.7
-22 0.30000000000000004
23 0.27
-23 0.73
24 0.14
-24 0.86
25 0.19
-25 0.81
26 0.86
-26 0.14
27 0.43
-27 0.5700000000000001
28 0.54
-28 0.45999999999999996
29 0.1
-29 0.9
30 0.01
-30 0.99
31 0.27
-31 0.73
32 0.81
-32 0.18999999999999995
33 0.94
-33 0.06000000000000005
34 0.16
-34 0.84
35 0.84
-35 0.16000000000000003
36 0.71
-36 0.29000000000000004
37 0.55
-37 0.44999999999999996
38 0.98
-38 0.020000000000000018
39 0.42
-39 0.5800000000000001
40 0.47
-40 0.53
41 0.73
-41 0.27
42 0.72
-42 0.28
43 0.38
-43 0.62
44 0.21
-44 0.79
45 0.18
-45 0.8200000000000001
46 0.15
-46 0.85
47 0.25
-47 0.75
48 0.09
-48 0.91
49 0.66
-49 0.33999999999999997
50 0.79
-50 0.20999999999999996
51 0.91
-51 0.08999999999999997
52 0.49
-52 0.51
53 0.07
-53 0.9299999999999999
54 0.87
-54 0.13
55 0.47
-55 0.53
56 0.73
-56 0.27
57 0.65
-57 0.35
58 0.02
-58 0.98
59 0.92
-59 0.07999999999999996
60 0.49
-60 0.51
61 0.2
-61 0.8
62 0.98
-62 0.020000000000000018
63 0.01
-63 0.99
64 0.58
-64 0.42000000000000004
65 0.79
-65 0.20999999999999996
66 0.31
-66 0.69
67 0.31
-67 0.69
68 0.83
-68 0.17000000000000004
69 0.17
-69 0.83
70 0.81
-70 0.18999999999999995
