1 0.59
-1 0.41000000000000003
2 0.29
-2 0.71
3 0.65
-3 0.35
4 0.04
-4 0.96
5 0.94
-5 0.06000000000000005
6 0.18
-6 0.8200000000000001
7 0.48
-7 0.52
8 0.92
-8 0.07999999999999996
9 0.73
-9 0.27
10 0.36
-10 0.64
11 0.87
-11 0.13
12 0.62
-12 0.38
13 0.98
-13 0.020000000000000018
14 0.83
-14 0.17000000000000004
15 0.9
-15 0.09999999999999998
16 0.66
-16 0.33999999999999997
17 0.54
-17 0.45999999999999996
18 0.69
-18 0.31000000000000005
19 0.87
-19 0.13
20 0.15
-20 0.85
21 0.2
-21 0.8
22 0.42
-22 0.5800000000000001
23 0.15
-23 0.85
24 0.75
-24 0.25
25 0.08
-25 0.92
26 0.46
-26 0.54
27 0.24
-27 0.76
28 0.13
-28 0.87
29 0.17
-29 0.83
30 0.61
-30 0.39
31 0.02
-31 0.98
32 0.56
-32 0.43999999999999995
33 0.27
-33 0.73
34 0.59
-34 0.41000000000000003
35 0.81
-35 0.18999999999999995
36 0.49
-36 0.51
37 0.36
-37 0.64
38 0.23
-38 0.77
39 0.57
-39 0.43000000000000005
40 0.2
-40 0.8
41 0.93
-41 0.06999999999999995
42 0.94
-42 0.06000000000000005
43 0.49
-43 0.51
44 0.91
-44 0.08999999999999997
45 0.59
-45 0.41000000000000003
46 0.66
-46 0.33999999999999997
47 0.43
-47 0.5700000000000001
48 0.31
-48 0.69
49 0.9
-49 0.09999999999999998
50 0.73
-50 0.27
51 0.62
-51 0.38
52 0.13
-52 0.87
53 0.74
-53 0.26
54 0.69
-54 0.31000000000000005
55 0.51
-55 0.49
56 0.24
-56 0.76
57 0.66
-57 0.33999999999999997
58 0.25
-58 0.75
59 0.49
-59 0.51
60 0.2
-60 0.8
61 0.15
-61 0.85
62 0.93
-62 0.06999999999999995
63 0.03
-63 0.97
64 0.61
-64 0.39
65 0.77
-65 0.22999999999999998
66 0.93
-66 0.06999999999999995
67 0.01
-67 0.99
68 0.55
-68 0.44999999999999996
69 0.64
-69 0.36
70 0.92
-70 0.07999999999999996
