1 0.34
-1 0.6599999999999999
2 0.23
-2 0.77
3 0.89
-3 0.10999999999999999
4 0.71
-4 0.29000000000000004
5 0.36
-5 0.64
6 0.76
-6 0.24
7 0.33
-7 0.6699999999999999
8 0.71
-8 0.29000000000000004
9 0.31
-9 0.69
10 0.63
-10 0.37
11 0.78
-11 0.21999999999999997
12 0.1
-12 0.9
13 0.6
-13 0.4
14 0.64
-14 0.36
15 0.14
-15 0.86
16 0.29
-16 0.71
17 0.84
-17 0.16000000000000003
18 0.78
-18 0.21999999999999997
19 0.87
-19 0.13
20 0.32
-20 0.6799999999999999
21 0.68
-21 0.31999999999999995
22 0.44
-22 0.56
23 0.52
-23 0.48
24 0.71
-24 0.29000000000000004
25 0.86
-25 0.14
26 0.18
-26 0.8200000000000001
27 0.69
-27 0.31000000000000005
28 0.6
-28 0.4
29 0.73
-29 0.27
30 0.41
-30 0.5900000000000001
31 0.33
-31 0.6699999999999999
32 0.13
-32 0.87
33 0.15
-33 0.85
34 0.05
-34 0.95
35 0.39
-35 0.61
36 0.72
-36 0.28
37 0.77
-37 0.22999999999999998
38 0.6
-38 0.4
39 0.45
-39 0.55
40 0.81
-40 0.18999999999999995
41 0.89
-41 0.10999999999999999
42 0.76
-42 0.24
43 0.54
-43 0.45999999999999996
44 0.76
-44 0.24
45 0.75
-45 0.25
46 0.71
-46 0.29000000000000004
47 0.68
-47 0.31999999999999995
48 0.57
-48 0.43000000000000005
49 0.37
-49 0.63
50 0.86
-50 0.14
51 0.91
-51 0.08999999999999997
52 0.45
-52 0.55
53 0.68
-53 0.31999999999999995
54 0.9
-54 0.09999999999999998
55 0.98
-55 0.020000000000000018
56 0.72
-56 0.28
57 0.65
-57 0.35
58 0.36
-58 0.64
59 0.23
-59 0.77
60 0.63
-60 0.37
61 0.19
-61 0.81
62 0.96
-62 0.040000000000000036
63 0.77
-63 0.22999999999999998
64 0.54
-64 0.45999999999999996
65 0.89
-65 0.10999999999999999
66 0.47
-66 0.53
67 0.27
-67 0.73
68 0.11
-68 0.89
69 0.86
-69 0.14
70 0.18
-70 0.8200000000000001
