1 0.77
-1 0.22999999999999998
2 0.74
-2 0.26
3 0.36
-3 0.64
4 0.19
-4 0.81
5 0.64
-5 0.36
6 0.28
-6 0.72
7 0.37
-7 0.63
8 0.23
-8 0.77
9 0.43
-9 0.5700000000000001
10 0.84
-10 0.16000000000000003
11 0.59
-11 0.41000000000000003
12 0.59
-12 0.41000000000000003
13 0.22
-13 0.78
14 0.61
-14 0.39
15 0.81
-15 0.18999999999999995
16 0.51
-16 0.49
17 0.53
-17 0.47
18 0.36
-18 0.64
19 0.48
-19 0.52
20 0.48
-20 0.52
21 0.72
-21 0.28
22 0.81
-22 0.18999999999999995
23 0.68
-23 0.31999999999999995
24 0.89
-24 0.10999999999999999
25 0.16
-25 0.84
26 0.9
-26 0.09999999999999998
27 0.7
-27 0.30000000000000004
28 0.41
-28 0.5900000000000001
29 0.43
-29 0.5700000000000001
30 0.93
-30 0.06999999999999995
31 0.88
-31 0.12
32 0.59
-32 0.41000000000000003
33 0.4
-33 0.6
34 0.96
-34 0.040000000000000036
35 0.7
-35 0.30000000000000004
36 0.23
-36 0.77
37 0.47
-37 0.53
38 0.23
-38 0.77
39 0.95
-39 0.050000000000000044
40 0.73
-40 0.27
41 0.58
-41 0.42000000000000004
42 0.32
-42 0.6799999999999999
43 0.32
-43 0.6799999999999999
44 0.79
-44 0.20999999999999996
45 0.96
-45 0.040000000000000036
46 0.88
-46 0.12
47 0.36
-47 0.64
48 0.79
-48 0.20999999999999996
49 0.41
-49 0.5900000000000001
50 0.52
-50 0.48
51 0.93
-51 0.06999999999999995
52 0.6
-52 0.4
53 0.84
-53 0.16000000000000003
54 0.44
-54 0.56
55 0.04
-55 0.96
56 0.62
-56 0.38
57 0.38
-57 0.62
58 0.42
-58 0.5800000000000001
59 0.73
-59 0.27
60 0.86
-60 0.14
61 0.55
-61 0.44999999999999996
62 0.2
-62 0.8
63 0.42
-63 0.5800000000000001
64 0.9
-64 0.09999999999999998
65 0.85
-65 0.15000000000000002
66 0.93
-66 0.06999999999999995
67 0.29
-67 0.71
68 0.02
-68 0.98
69 0.2
-69 0.8
70 0.54
-70 0.45999999999999996
