1 0.45
-1 0.55
2 0.67
-2 0.32999999999999996
3 0.77
-3 0.22999999999999998
4 0.92
-4 0.07999999999999996
5 0.07
-5 0.9299999999999999
6 0.21
-6 0.79
7 0.19
-7 0.81
8 0.96
-8 0.040000000000000036
9 0.41
-9 0.5900000000000001
10 0.49
-10 0.51
11 0.62
-11 0.38
12 0.66
-12 0.33999999999999997
13 0.12
-13 0.88
14 0.44
-14 0.56
15 0.4
-15 0.6
16 0.59
-16 0.41000000000000003
17 0.46
-17 0.54
18 0.29
-18 0.71
19 0.72
-19 0.28
20 0.21
-20 0.79
21 0.4
-21 0.6
22 0.75
-22 0.25
23 0.51
-23 0.49
24 0.16
-24 0.84
25 0.22
-25 0.78
26 0.78
-26 0.21999999999999997
27 0.43
-27 0.5700000000000001
28 0.76
-28 0.24
29 0.47
-29 0.53
30 0.51
-30 0.49
31 0.57
-31 0.43000000000000005
32 0.34
-32 0.6599999999999999
33 0.26
-33 0.74
34 0.99
-34 0.010000000000000009
35 0.3
-35 0.7
36 0.3
-36 0.7
37 0.85
-37 0.15000000000000002
38 0.98
-38 0.020000000000000018
39 0.49
-39 0.51
40 0.68
-40 0.31999999999999995
41 0.05
-41 0.95
42 0.53
-42 0.47
43 0.2
-43 0.8
44 0.18
-44 0.8200000000000001
45 0.82
-45 0.18000000000000005
46 0.73
-46 0.27
47 0.42
-47 0.5800000000000001
48 0.49
-48 0.51
49 0.62
-49 0.38
50 0.61
-50 0.39
51 0.72
-51 0.28
52 0.07
-52 0.9299999999999999
53 0.85
-53 0.15000000000000002
54 0.4
-54 0.6
55 0.66
-55 0.33999999999999997
56 0.35
-56 0.65
57 0.46
-57 0.54
58 0.09
-58 0.91
59 0.18
-59 0.8200000000000001
60 0.08
-60 0.92
61 0.89
-61 0.10999999999999999
62 0.24
-62 0.76
63 0.99
-63 0.010000000000000009
64 0.05
-64 0.95
65 0.26
-65 0.74
66 0.81
-66 0.18999999999999995
67 0.87
-67 0.13
68 0.56
-68 0.43999999999999995
69 0.46
-69 0.54
70 0.53
-70 0.47
