1 0.46
-1 0.54
2 0.32
-2 0.6799999999999999
3 0.85
-3 0.15000000000000002
4 0.51
-4 0.49
5 0.44
-5 0.56
6 0.46
-6 0.54
7 0.8
-7 0.19999999999999996
8 0.4
-8 0.6
9 0.94
-9 0.06000000000000005
10 0.14
-10 0.86
11 0.81
-11 0.18999999999999995
12 0.15
-12 0.85
13 0.75
-13 0.25
14 0.13
-14 0.87
15 0.82
-15 0.18000000000000005
16 0.23
-16 0.77
17 0.22
-17 0.78
18 0.01
-18 0.99
19 0.11
-19 0.89
20 0.89
-20 0.10999999999999999
21 0.43
-21 0.5700000000000001
22 0.62
-22 0.38
23 0.21
-23 0.79
24 0.65
-24 0.35
25 0.29
-25 0.71
26 0.28
-26 0.72
27 0.33
-27 0.6699999999999999
28 0.86
-28 0.14
29 0.39
-29 0.61
30 0.55
-30 0.44999999999999996
31 0.45
-31 0.55
32 0.5
-32 0.5
33 0.76
-33 0.24
34 0.1
-34 0.9
35 0.24
-35 0.76
36 0.32
-36 0.6799999999999999
37 0.59
-37 0.41000000000000003
38 0.04
-38 0.96
39 0.29
-39 0.71
40 0.5
-40 0.5
41 0.21
-41 0.79
42 0.95
-42 0.050000000000000044
43 0.48
-43 0.52
44 0.46
-44 0.54
45 0.94
-45 0.06000000000000005
46 0.48
-46 0.52
47 0.48
-47 0.52
48 0.4
-48 0.6
49 0.99
-49 0.010000000000000009
50 0.64
-50 0.36
51 0.25
-51 0.75
52 0.18
-52 0.8200000000000001
53 0.55
-53 0.44999999999999996
54 0.53
-54 0.47
55 0.8
-55 0.19999999999999996
56 0.71
-56 0.29000000000000004
57 0.79
-57 0.20999999999999996
58 0.23
-58 0.77
59 0.17
-59 0.83
60 0.86
-60 0.14
61 0.03
-61 0.97
62 0.94
-62 0.06000000000000005
63 0.85
-63 0.15000000000000002
64 0.47
-64 0.53
65 0.77
-65 0.22999999999999998
66 0.24
-66 0.76
67 0.41
-67 0.5900000000000001
68 0.68
-68 0.31999999999999995
69 0.85
-69 0.15000000000000002
70 0.64
-70 0.36
