1 0.04
-1 0.96
2 0.62
-2 0.38
3 0.34
-3 0.6599999999999999
4 0.75
-4 0.25
5 0.18
-5 0.8200000000000001
6 0.14
-6 0.86
7 0.93
-7 0.06999999999999995
8 0.3
-8 0.7
9 0.43
-9 0.5700000000000001
10 0.99
-10 0.010000000000000009
11 0.27
-11 0.73
12 0.67
-12 0.32999999999999996
13 0.04
-13 0.96
14 0.64
-14 0.36
15 0.98
-15 0.020000000000000018
16 0.42
-16 0.5800000000000001
17 0.19
-17 0.81
18 0.74
-18 0.26
19 0.45
-19 0.55
20 0.86
-20 0.14
21 0.57
-21 0.43000000000000005
22 0.86
-22 0.14
23 0.15
-23 0.85
24 0.64
-24 0.36
25 0.12
-25 0.88
26 0.77
-26 0.22999999999999998
27 0.75
-27 0.25
28 0.4
-28 0.6
29 0.19
-29 0.81
30 0.34
-30 0.6599999999999999
31 0.41
-31 0.5900000000000001
32 0.25
-32 0.75
33 0.58
-33 0.42000000000000004
34 0.11
-34 0.89
35 0.96
-35 0.040000000000000036
36 0.97
-36 0.030000000000000027
37 0.85
-37 0.15000000000000002
38 0.51
-38 0.49
39 0.14
-39 0.86
40 0.75
-40 0.25
41 0.67
-41 0.32999999999999996
42 0.92
-42 0.07999999999999996
43 0.79
-43 0.20999999999999996
44 0.26
-44 0.74
45 0.35
-45 0.65
46 0.69
-46 0.31000000000000005
47 0.46
-47 0.54
48 0.93
-48 0.06999999999999995
49 0.43
-49 0.5700000000000001
50 0.93
-50 0.06999999999999995
51 0.24
-51 0.76
52 0.88
-52 0.12
53 0.2
-53 0.8
54 0.41
-54 0.5900000000000001
55 0.4
-55 0.6
56 0.87
-56 0.13
57 0.59
-57 0.41000000000000003
58 0.5
-58 0.5
59 0.92
-59 0.07999999999999996
60 0.32
-60 0.6799999999999999
61 0.49
-61 0.51
62 0.3
-62 0.7
63 0.96
-63 0.040000000000000036
64 0.88
-64 0.12
65 0.95
-65 0.050000000000000044
66 0.18
-66 0.8200000000000001
67 0.88
-67 0.12
68 0.69
-68 0.31000000000000005
69 0.19
-69 0.81
70 0.51
-70 0.49
