1 0.01
-1 0.99
2 0.88
-2 0.12
3 0.87
-3 0.13
4 0.07
-4 0.9299999999999999
5 0.39
-5 0.61
6 0.8
-6 0.19999999999999996
7 0.44
-7 0.56
8 0.82
-8 0.18000000000000005
9 0.36
-9 0.64
10 0.03
-10 0.97
11 0.59
-11 0.41000000000000003
12 0.54
-12 0.45999999999999996
13 0.66
-13 0.33999999999999997
14 0.88
-14 0.12
15 0.98
-15 0.020000000000000018
16 0.87
-16 0.13
17 0.35
-17 0.65
18 0.32
-18 0.6799999999999999
19 0.12
-19 0.88
20 0.73
-20 0.27
21 0.67
-21 0.32999999999999996
22 0.31
-22 0.69
23 0.14
-23 0.86
24 0.38
-24 0.62
25 0.08
-25 0.92
26 0.08
-26 0.92
27 0.76
-27 0.24
28 0.16
-28 0.84
29 0.14
-29 0.86
30 0.97
-30 0.030000000000000027
31 0.1
-31 0.9
32 0.51
-32 0.49
33 0.91
-33 0.08999999999999997
34 0.81
-34 0.18999999999999995
35 0.56
-35 0.43999999999999995
36 0.82
-36 0.18000000000000005
37 0.78
-37 0.21999999999999997
38 0.7
-38 0.30000000000000004
39 0.8
-39 0.19999999999999996
40 0.11
-40 0.89
41 0.66
-41 0.33999999999999997
42 0.04
-42 0.96
43 0.14
-43 0.86
44 0.87
-44 0.13
45 0.75
-45 0.25
46 0.97
-46 0.030000000000000027
47 0.32
-47 0.6799999999999999
48 0.85
-48 0.15000000000000002
49 0.3
-49 0.7
50 0.11
-50 0.89
51 0.3
-51 0.7
52 0.17
-52 0.83
53 0.11
-53 0.89
54 0.32
-54 0.6799999999999999
55 0.39
-55 0.61
56 0.15
-56 0.85
57 0.27
-57 0.73
58 0.43
-58 0.5700000000000001
59 0.4
-59 0.6
60 0.89
-60 0.10999999999999999
61 0.29
-61 0.71
62 0.68
-62 0.31999999999999995
63 0.25
-63 0.75
64 0.89
-64 0.10999999999999999
65 0.56
-65 0.43999999999999995
66 0.31
-66 0.69
67 0.13
-67 0.87
68 0.92
-68 0.07999999999999996
69 0.15
-69 0.85
70 0.83
-70 0.17000000000000004
