1 0.09
-1 0.91
2 0.81
-2 0.18999999999999995
3 0.9
-3 0.09999999999999998
4 0.22
-4 0.78
5 0.52
-5 0.48
6 0.88
-6 0.12
7 0.29
-7 0.71
8 0.39
-8 0.61
9 0.03
-9 0.97
10 0.09
-10 0.91
11 0.3
-11 0.7
12 0.88
-12 0.12
13 0.88
-13 0.12
14 0.21
-14 0.79
15 0.23
-15 0.77
16 0.39
-16 0.61
17 0.9
-17 0.09999999999999998
18 0.61
-18 0.39
19 0.57
-19 0.43000000000000005
20 0.09
-20 0.91
21 0.83
-21 0.17000000000000004
22 0.18
-22 0.8200000000000001
23 0.83
-23 0.17000000000000004
24 0.48
-24 0.52
25 0.87
-25 0.13
26 0.62
-26 0.38
27 0.58
-27 0.42000000000000004
28 0.53
-28 0.47
29 0.98
-29 0.020000000000000018
30 0.31
-30 0.69
31 0.64
-31 0.36
32 0.73
-32 0.27
33 0.64
-33 0.36
34 0.84
-34 0.16000000000000003
35 0.33
-35 0.6699999999999999
36 0.65
-36 0.35
37 0.95
-37 0.050000000000000044
38 0.22
-38 0.78
39 0.07
-39 0.9299999999999999
40 0.01
-40 0.99
41 0.11
-41 0.89
42 0.16
-42 0.84
43 0.4
-43 0.6
44 0.44
-44 0.56
45 0.59
-45 0.41000000000000003
46 0.72
-46 0.28
47 0.63
-47 0.37
48 0.44
-48 0.56
49 0.12
-49 0.88
50 0.44
-50 0.56
51 0.61
-51 0.39
52 0.33
-52 0.6699999999999999
53 0.34
-53 0.6599999999999999
54 0.75
-54 0.25
55 0.5
-55 0.5
56 0.1
-56 0.9
57 0.59
-57 0.41000000000000003
58 0.51
-58 0.49
59 0.52
-59 0.48
60 0.72
-60 0.28
61 0.58
-61 0.42000000000000004
62 0.09
-62 0.91
63 0.33
-63 0.6699999999999999
64 0.96
-64 0.040000000000000036
65 0.51
-65 0.49
66 0.69
-66 0.31000000000000005
67 0.92
-67 0.07999999999999996
68 0.18
-68 0.8200000000000001
69 0.44
-69 0.56
70 0.54
-70 0.45999999999999996
