1 0.53
-1 0.47
2 0.97
-2 0.030000000000000027
3 0.57
-3 0.43000000000000005
4 0.17
-4 0.83
5 0.91
-5 0.08999999999999997
6 0.8
-6 0.19999999999999996
7 0.03
-7 0.97
8 0.36
-8 0.64
9 0.73
-9 0.27
10 0.97
-10 0.030000000000000027
11 0.01
-11 0.99
12 0.86
-12 0.14
13 0.65
-13 0.35
14 0.47
-14 0.53
15 0.01
-15 0.99
16 0.95
-16 0.050000000000000044
17 0.16
-17 0.84
18 0.66
-18 0.33999999999999997
19 0.98
-19 0.020000000000000018
20 0.1
-20 0.9
21 0.18
-21 0.8200000000000001
22 0.83
-22 0.17000000000000004
23 0.67
-23 0.32999999999999996
24 0.37
-24 0.63
25 0.85
-25 0.15000000000000002
26 0.08
-26 0.92
27 0.52
-27 0.48
28 0.9
-28 0.09999999999999998
29 0.07
-29 0.9299999999999999
30 0.41
-30 0.5900000000000001
31 0.15
-31 0.85
32 0.44
-32 0.56
33 0.3
-33 0.7
34 0.99
-34 0.010000000000000009
35 0.92
-35 0.07999999999999996
36 0.81
-36 0.18999999999999995
37 0.91
-37 0.08999999999999997
38 0.17
-38 0.83
39 0.93
-39 0.06999999999999995
40 0.74
-40 0.26
41 0.56
-41 0.43999999999999995
42 0.12
-42 0.88
43 0.28
-43 0.72
44 0.84
-44 0.16000000000000003
45 0.54
-45 0.45999999999999996
46 0.18
-46 0.8200000000000001
47 0.53
-47 0.47
48 0.7
-48 0.30000000000000004
49 0.58
-49 0.42000000000000004
50 0.4
-50 0.6
51 0.28
-51 0.72
52 0.38
-52 0.62
53 0.74
-53 0.26
54 0.91
-54 0.08999999999999997
55 0.19
-55 0.81
56 0.15
-56 0.85
57 0.85
-57 0.15000000000000002
58 0.02
-58 0.98
59 0.7
-59 0.30000000000000004
60 0.2
-60 0.8
61 0.17
-61 0.83
62 0.18
-62 0.8200000000000001
63 0.67
-63 0.32999999999999996
64 0.8
-64 0.19999999999999996
65 0.47
-65 0.53
66 0.03
-66 0.97
67 0.06
-67 0.94
68 0.54
-68 0.45999999999999996
69 0.92
-69 0.07999999999999996
70 0.41
-70 0.5900000000000001
