1 0.84
-1 0.16000000000000003
2 0.25
-2 0.75
3 0.42
-3 0.5800000000000001
4 0.12
-4 0.88
5 0.25
-5 0.75
6 0.11
-6 0.89
7 0.11
-7 0.89
8 0.17
-8 0.83
9 0.49
-9 0.51
10 0.21
-10 0.79
11 0.97
-11 0.030000000000000027
12 0.54
-12 0.45999999999999996
13 0.13
-13 0.87
14 0.34
-14 0.6599999999999999
15 0.93
-15 0.06999999999999995
16 0.97
-16 0.030000000000000027
17 0.34
-17 0.6599999999999999
18 0.99
-18 0.010000000000000009
19 0.34
-19 0.6599999999999999
20 0.43
-20 0.5700000000000001
21 0.37
-21 0.63
22 0.68
-22 0.31999999999999995
23 0.67
-23 0.32999999999999996
24 0.79
-24 0.20999999999999996
25 0.48
-25 0.52
26 0.94
-26 0.06000000000000005
27 0.43
-27 0.5700000000000001
28 0.02
-28 0.98
29 0.77
-29 0.22999999999999998
30 0.39
-30 0.61
31 0.63
-31 0.37
32 0.3
-32 0.7
33 0.4
-33 0.6
34 0.63
-34 0.37
35 0.03
-35 0.97
36 0.33
-36 0.6699999999999999
37 0.64
-37 0.36
38 0.35
-38 0.65
39 0.74
-39 0.26
40 0.27
-40 0.73
41 0.6
-41 0.4
42 0.16
-42 0.84
43 0.82
-43 0.18000000000000005
44 0.6
-44 0.4
45 0.73
-45 0.27
46 0.18
-46 0.8200000000000001
47 0.03
-47 0.97
48 0.32
-48 0.6799999999999999
49 0.7
-49 0.30000000000000004
50 0.2
-50 0.8
51 0.07
-51 0.9299999999999999
52 0.66
-52 0.33999999999999997
53 0.45
-53 0.55
54 0.99
-54 0.010000000000000009
55 0.11
-55 0.89
56 0.36
-56 0.64
57 0.04
-57 0.96
58 0.21
-58 0.79
59 0.08
-59 0.92
60 0.34
-60 0.6599999999999999
61 0.89
-61 0.10999999999999999
62 0.5
-62 0.5
63 0.4
-63 0.6
64 0.49
-64 0.51
65 0.99
-65 0.010000000000000009
66 0.11
-66 0.89
67 0.71
-67 0.29000000000000004
68 0.79
-68 0.20999999999999996
69 0.3
-69 0.7
70 0.74
-70 0.26
