1 0.9
-1 0.09999999999999998
2 0.62
-2 0.38
3 0.63
-3 0.37
4 0.32
-4 0.6799999999999999
5 0.88
-5 0.12
6 0.32
-6 0.6799999999999999
7 0.24
-7 0.76
8 0.49
-8 0.51
9 0.26
-9 0.74
10 0.01
-10 0.99
11 0.14
-11 0.86
12 0.72
-12 0.28
13 0.46
-13 0.54
14 0.81
-14 0.18999999999999995
15 0.19
-15 0.81
16 0.63
-16 0.37
17 0.56
-17 0.43999999999999995
18 0.94
-18 0.06000000000000005
19 0.86
-19 0.14
20 0.9
-20 0.09999999999999998
21 0.75
-21 0.25
22 0.57
-22 0.43000000000000005
23 0.12
-23 0.88
24 0.62
-24 0.38
25 0.93
-25 0.06999999999999995
26 0.66
-26 0.33999999999999997
27 0.1
-27 0.9
28 0.86
-28 0.14
29 0.29
-29 0.71
30 0.34
-30 0.6599999999999999
31 0.85
-31 0.15000000000000002
32 0.34
-32 0.6599999999999999
33 0.26
-33 0.74
34 0.12
-34 0.88
35 0.83
-35 0.17000000000000004
36 0.28
-36 0.72
37 0.05
-37 0.95
38 0.13
-38 0.87
39 0.96
-39 0.040000000000000036
40 0.46
-40 0.54
41 0.3
-41 0.7
42 0.38
-42 0.62
43 0.04
-43 0.96
44 0.96
-44 0.040000000000000036
45 0.84
-45 0.16000000000000003
46 0.97
-46 0.030000000000000027
47 0.46
-47 0.54
48 0.5
-48 0.5
49 0.82
-49 0.18000000000000005
50 0.87
-50 0.13
51 0.67
-51 0.32999999999999996
52 0.52
-52 0.48
53 0.38
-53 0.62
54 0.19
-54 0.81
55 0.74
-55 0.26
56 0.84
-56 0.16000000000000003
57 0.15
-57 0.85
58 0.92
-58 0.07999999999999996
59 0.25
-59 0.75
60 0.83
-60 0.17000000000000004
61 0.79
-61 0.20999999999999996
62 0.42
-62 0.5800000000000001
63 0.56
-63 0.43999999999999995
64 0.44
-64 0.56
65 0.99
-65 0.010000000000000009
66 0.09
-66 0.91
67 0.61
-67 0.39
68 0.25
-68 0.75
69 0.42
-69 0.5800000000000001
70 0.34
-70 0.6599999999999999
