1 0.6
-1 0.4
2 0.06
-2 0.94
3 0.88
-3 0.12
4 0.75
-4 0.25
5 0.49
-5 0.51
6 0.21
-6 0.79
7 0.17
-7 0.83
8 0.33
-8 0.6699999999999999
9 0.39
-9 0.61
10 0.34
-10 0.6599999999999999
11 0.78
-11 0.21999999999999997
12 0.7
-12 0.30000000000000004
13 0.19
-13 0.81
14 0.12
-14 0.88
15 0.91
-15 0.08999999999999997
16 0.75
-16 0.25
17 0.64
-17 0.36
18 0.31
-18 0.69
19 0.89
-19 0.10999999999999999
20 0.02
-20 0.98
21 0.89
-21 0.10999999999999999
22 0.97
-22 0.030000000000000027
23 0.87
-23 0.13
24 0.42
-24 0.5800000000000001
25 0.14
-25 0.86
26 0.59
-26 0.41000000000000003
27 0.88
-27 0.12
28 0.65
-28 0.35
29 0.9
-29 0.09999999999999998
30 0.11
-30 0.89
31 0.85
-31 0.15000000000000002
32 0.76
-32 0.24
33 0.87
-33 0.13
34 0.57
-34 0.43000000000000005
35 0.68
-35 0.31999999999999995
36 0.49
-36 0.51
37 0.15
-37 0.85
38 0.57
-38 0.43000000000000005
39 0.1
-39 0.9
40 0.76
-40 0.24
41 0.27
-41 0.73
42 0.97
-42 0.030000000000000027
43 0.35
-43 0.65
44 0.27
-44 0.73
45 0.89
-45 0.10999999999999999
46 0.55
-46 0.44999999999999996
47 0.88
-47 0.12
48 0.03
-48 0.97
49 0.8
-49 0.19999999999999996
50 0.09
-50 0.91
51 0.89
-51 0.10999999999999999
52 0.32
-52 0.6799999999999999
53 0.49
-53 0.51
54 0.73
-54 0.27
55 0.08
-55 0.92
56 0.66
-56 0.33999999999999997
57 0.99
-57 0.010000000000000009
58 0.44
-58 0.56
59 0.43
-59 0.5700000000000001
60 0.38
-60 0.62
61 0.52
-61 0.48
62 0.19
-62 0.81
63 0.74
-63 0.26
64 0.27
-64 0.73
65 0.34
-65 0.6599999999999999
66 0.17
-66 0.83
67 0.72
-67 0.28
68 0.24
-68 0.76
69 0.8
-69 0.19999999999999996
70 0.42
-70 0.5800000000000001
