1 0.35
-1 0.65
2 0.98
-2 0.020000000000000018
3 0.38
-3 0.62
4 0.28
-4 0.72
5 0.25
-5 0.75
6 0.16
-6 0.84
7 0.95
-7 0.050000000000000044
8 0.16
-8 0.84
9 0.76
-9 0.24
10 0.41
-10 0.5900000000000001
11 0.51
-11 0.49
12 0.92
-12 0.07999999999999996
13 0.17
-13 0.83
14 0.83
-14 0.17000000000000004
15 0.59
-15 0.41000000000000003
16 0.63
-16 0.37
17 0.64
-17 0.36
18 0.49
-18 0.51
19 0.29
-19 0.71
20 0.12
-20 0.88
21 0.13
-21 0.87
22 0.97
-22 0.030000000000000027
23 0.76
-23 0.24
24 0.63
-24 0.37
25 0.03
-25 0.97
26 0.12
-26 0.88
27 0.82
-27 0.18000000000000005
28 0.08
-28 0.92
29 0.5
-29 0.5
30 0.37
-30 0.63
31 0.62
-31 0.38
32 0.03
-32 0.97
33 0.29
-33 0.71
34 0.76
-34 0.24
35 0.24
-35 0.76
36 0.65
-36 0.35
37 0.18
-37 0.8200000000000001
38 0.67
-38 0.32999999999999996
39 0.56
-39 0.43999999999999995
40 0.11
-40 0.89
41 0.53
-41 0.47
42 0.73
-42 0.27
43 0.23
-43 0.77
44 0.5
-44 0.5
45 0.43
-45 0.5700000000000001
46 0.15
-46 0.85
47 0.5
-47 0.5
48 0.34
-48 0.6599999999999999
49 0.41
-49 0.5900000000000001
50 0.52
-50 0.48
51 0.64
-51 0.36
52 0.06
-52 0.94
53 0.17
-53 0.83
54 0.06
-54 0.94
55 0.09
-55 0.91
56 0.55
-56 0.44999999999999996
57 0.54
-57 0.45999999999999996
58 0.77
-58 0.22999999999999998
59 0.79
-59 0.20999999999999996
60 0.67
-60 0.32999999999999996
61 0.16
-61 0.84
62 0.16
-62 0.84
63 0.76
-63 0.24
64 0.89
-64 0.10999999999999999
65 0.3
-65 0.7
66 0.8
-66 0.19999999999999996
67 0.76
-67 0.24
68 0.06
-68 0.94
69 0.15
-69 0.85
70 0.54
-70 0.45999999999999996
