1 0.5
-1 0.5
2 0.99
-2 0.010000000000000009
3 0.58
-3 0.42000000000000004
4 0.4
-4 0.6
5 0.64
-5 0.36
6 0.39
-6 0.61
7 0.01
-7 0.99
8 0.21
-8 0.79
9 0.08
-9 0.92
10 0.87
-10 0.13
11 0.3
-11 0.7
12 0.05
-12 0.95
13 0.8
-13 0.19999999999999996
14 0.83
-14 0.17000000000000004
15 0.02
-15 0.98
16 0.94
-16 0.06000000000000005
17 0.42
-17 0.5800000000000001
18 0.85
-18 0.15000000000000002
19 0.44
-19 0.56
20 0.16
-20 0.84
21 0.17
-21 0.83
22 0.55
-22 0.44999999999999996
23 0.05
-23 0.95
24 0.65
-24 0.35
25 0.93
-25 0.06999999999999995
26 0.54
-26 0.45999999999999996
27 0.37
-27 0.63
28 0.8
-28 0.19999999999999996
29 0.29
-29 0.71
30 0.75
-30 0.25
31 0.18
-31 0.8200000000000001
32 0.29
-32 0.71
33 0.44
-33 0.56
34 0.54
-34 0.45999999999999996
35 0.92
-35 0.07999999999999996
36 0.5
-36 0.5
37 0.72
-37 0.28
38 0.86
-38 0.14
39 0.05
-39 0.95
40 0.35
-40 0.65
41 0.45
-41 0.55
42 0.66
-42 0.33999999999999997
43 0.08
-43 0.92
44 0.32
-44 0.6799999999999999
45 0.03
-45 0.97
46 0.39
-46 0.61
47 0.6
-47 0.4
48 0.43
-48 0.5700000000000001
49 0.27
-49 0.73
50 0.01
-50 0.99
51 0.01
-51 0.99
52 0.9
-52 0.09999999999999998
53 0.2
-53 0.8
54 0.22
-54 0.78
55 0.93
-55 0.06999999999999995
56 0.91
-56 0.08999999999999997
57 0.6
-57 0.4
58 0.42
-58 0.5800000000000001
59 0.52
-59 0.48
60 0.8
-60 0.19999999999999996
61 0.25
-61 0.75
62 0.63
-62 0.37
63 0.09
-63 0.91
64 0.81
-64 0.18999999999999995
65 0.14
-65 0.86
66 0.99
-66 0.010000000000000009
67 0.53
-67 0.47
68 0.02
-68 0.98
69 0.2
-69 0.8
70 0.1
-70 0.9
