1 0.48
-1 0.52
2 0.22
-2 0.78
3 0.24
-3 0.76
4 0.1
-4 0.9
5 0.86
-5 0.14
6 0.14
-6 0.86
7 0.5
-7 0.5
8 0.64
-8 0.36
9 0.96
-9 0.040000000000000036
10 0.36
-10 0.64
11 0.35
-11 0.65
12 0.22
-12 0.78
13 0.34
-13 0.6599999999999999
14 0.88
-14 0.12
15 0.59
-15 0.41000000000000003
16 0.84
-16 0.16000000000000003
17 0.09
-17 0.91
18 0.36
-18 0.64
19 0.88
-19 0.12
20 0.43
-20 0.5700000000000001
21 0.14
-21 0.86
22 0.48
-22 0.52
23 0.46
-23 0.54
24 0.38
-24 0.62
25 0.22
-25 0.78
26 0.17
-26 0.83
27 0.34
-27 0.6599999999999999
28 0.86
-28 0.14
29 0.73
-29 0.27
30 0.25
-30 0.75
31 0.88
-31 0.12
32 0.34
-32 0.6599999999999999
33 0.88
-33 0.12
34 0.05
-34 0.95
35 0.62
-35 0.38
36 0.91
-36 0.08999999999999997
37 0.81
-37 0.18999999999999995
38 0.97
-38 0.030000000000000027
39 0.46
-39 0.54
40 0.36
-40 0.64
41 0.28
-41 0.72
42 0.11
-42 0.89
43 0.28
-43 0.72
44 0.36
-44 0.64
45 0.27
-45 0.73
46 0.99
-46 0.010000000000000009
47 0.72
-47 0.28
48 0.64
-48 0.36
49 0.9
-49 0.09999999999999998
50 0.85
-50 0.15000000000000002
51 0.52
-51 0.48
52 0.33
-52 0.6699999999999999
53 0.57
-53 0.43000000000000005
54 0.04
-54 0.96
55 0.22
-55 0.78
56 0.55
-56 0.44999999999999996
57 0.82
-57 0.18000000000000005
58 0.78
-58 0.21999999999999997
59 0.59
-59 0.41000000000000003
60 0.54
-60 0.45999999999999996
61 0.27
-61 0.73
62 0.58
-62 0.42000000000000004
63 0.94
-63 0.06000000000000005
64 0.96
-64 0.040000000000000036
65 0.18
-65 0.8200000000000001
66 0.35
-66 0.65
67 0.08
-67 0.92
68 0.32
-68 0.6799999999999999
69 0.79
-69 0.20999999999999996
70 0.46
-70 0.54
