1 0.06
-1 0.94
2 0.36
-2 0.64
3 0.82
-3 0.18000000000000005
4 0.61
-4 0.39
5 0.76
-5 0.24
6 0.73
-6 0.27
7 0.65
-7 0.35
8 0.73
-8 0.27
9 0.82
-9 0.18000000000000005
10 0.13
-10 0.87
11 0.37
-11 0.63
12 0.14
-12 0.86
13 0.95
-13 0.050000000000000044
14 0.17
-14 0.83
15 0.44
-15 0.56
16 0.9
-16 0.09999999999999998
17 0.39
-17 0.61
18 0.88
-18 0.12
19 0.7
-19 0.30000000000000004
20 0.93
-20 0.06999999999999995
21 0.12
-21 0.88
22 0.07
-22 0.9299999999999999
23 0.94
-23 0.06000000000000005
24 0.93
-24 0.06999999999999995
25 0.93
-25 0.06999999999999995
26 0.84
-26 0.16000000000000003
27 0.08
-27 0.92
28 0.71
-28 0.29000000000000004
29 0.23
-29 0.77
30 0.83
-30 0.17000000000000004
31 0.69
-31 0.31000000000000005
32 0.84
-32 0.16000000000000003
33 0.12
-33 0.88
34 0.64
-34 0.36
35 0.97
-35 0.030000000000000027
36 0.09
-36 0.91
37 0.85
-37 0.15000000000000002
38 0.57
-38 0.43000000000000005
39 0.88
-39 0.12
40 0.34
-40 0.6599999999999999
41 0.3
-41 0.7
42 0.52
-42 0.48
43 0.89
-43 0.10999999999999999
44 0.38
-44 0.62
45 0.22
-45 0.78
46 0.34
-46 0.6599999999999999
47 0.49
-47 0.51
48 0.89
-48 0.10999999999999999
49 0.26
-49 0.74
50 0.16
-50 0.84
51 0.33
-51 0.6699999999999999
52 0.92
-52 0.07999999999999996
53 0.58
-53 0.42000000000000004
54 0.89
-54 0.10999999999999999
55 0.43
-55 0.5700000000000001
56 0.14
-56 0.86
57 0.11
-57 0.89
58 0.41
-58 0.5900000000000001
59 0.38
-59 0.62
60 0.08
-60 0.92
61 0.68
-61 0.31999999999999995
62 0.02
-62 0.98
63 0.19
-63 0.81
64 0.7
-64 0.30000000000000004
65 0.03
-65 0.97
66 0.37
-66 0.63
67 0.72
-67 0.28
68 0.4
-68 0.6
69 0.52
-69 0.48
70 0.01
-70 0.99
