1 0.16
-1 0.84
2 0.68
-2 0.31999999999999995
3 0.16
-3 0.84
4 0.22
-4 0.78
5 0.4
-5 0.6
6 0.23
-6 0.77
7 0.35
-7 0.65
8 0.04
-8 0.96
9 0.92
-9 0.07999999999999996
10 0.64
-10 0.36
11 0.21
-11 0.79
12 0.5
-12 0.5
13 0.91
-13 0.08999999999999997
14 0.68
-14 0.31999999999999995
15 0.33
-15 0.6699999999999999
16 0.52
-16 0.48
17 0.79
-17 0.20999999999999996
18 0.84
-18 0.16000000000000003
19 0.02
-19 0.98
20 0.67
-20 0.32999999999999996
21 0.65
-21 0.35
22 0.2
-22 0.8
23 0.49
-23 0.51
24 0.4
-24 0.6
25 0.71
-25 0.29000000000000004
26 0.88
-26 0.12
27 0.97
-27 0.030000000000000027
28 0.2
-28 0.8
29 0.83
-29 0.17000000000000004
30 0.93
-30 0.06999999999999995
31 0.28
-31 0.72
32 0.45
-32 0.55
33 0.09
-33 0.91
34 0.08
-34 0.92
35 0.71
-35 0.29000000000000004
36 0.3
-36 0.7
37 0.04
-37 0.96
38 0.37
-38 0.63
39 0.09
-39 0.91
40 0.61
-40 0.39
41 0.08
-41 0.92
42 0.92
-42 0.07999999999999996
43 0.58
-43 0.42000000000000004
44 0.73
-44 0.27
45 0.07
-45 0.9299999999999999
46 0.45
-46 0.55
47 0.22
-47 0.78
48 0.88
-48 0.12
49 0.05
-49 0.95
50 0.99
-50 0.010000000000000009
51 0.28
-51 0.72
52 0.67
-52 0.32999999999999996
53 0.07
-53 0.9299999999999999
54 0.65
-54 0.35
55 0.58
-55 0.42000000000000004
56 0.84
-56 0.16000000000000003
57 0.95
-57 0.050000000000000044
58 0.62
-58 0.38
59 0.81
-59 0.18999999999999995
60 0.63
-60 0.37
61 0.24
-61 0.76
62 0.79
-62 0.20999999999999996
63 0.3
-63 0.7
64 0.6
-64 0.4
65 0.86
-65 0.14
66 0.25
-66 0.75
67 0.37
-67 0.63
68 0.4
-68 0.6
69 0.23
-69 0.77
70 0.04
-70 0.96
