1 0.68
-1 0.31999999999999995
2 0.78
-2 0.21999999999999997
3 0.89
-3 0.10999999999999999
4 0.82
-4 0.18000000000000005
5 0.19
-5 0.81
6 0.77
-6 0.22999999999999998
7 0.09
-7 0.91
8 0.93
-8 0.06999999999999995
9 0.89
-9 0.10999999999999999
10 0.87
-10 0.13
11 0.97
-11 0.030000000000000027
12 0.05
-12 0.95
13 0.19
-13 0.81
14 0.16
-14 0.84
15 0.82
-15 0.18000000000000005
16 0.29
-16 0.71
17 0.58
-17 0.42000000000000004
18 0.77
-18 0.22999999999999998
19 0.37
-19 0.63
20 0.1
-20 0.9
21 0.71
-21 0.29000000000000004
22 0.05
-22 0.95
23 0.75
-23 0.25
24 0.04
-24 0.96
25 0.36
-25 0.64
26 0.18
-26 0.8200000000000001
27 0.55
-27 0.44999999999999996
28 0.3
-28 0.7
29 0.61
-29 0.39
30 0.02
-30 0.98
31 0.84
-31 0.16000000000000003
32 0.26
-32 0.74
33 0.54
-33 0.45999999999999996
34 0.28
-34 0.72
35 0.16
-35 0.84
36 0.03
-36 0.97
37 0.59
-37 0.41000000000000003
38 0.01
-38 0.99
39 0.27
-39 0.73
40 0.72
-40 0.28
41 0.92
-41 0.07999999999999996
42 0.24
-42 0.76
43 0.62
-43 0.38
44 0.63
-44 0.37
45 0.07
-45 0.9299999999999999
46 0.29
-46 0.71
47 0.01
-47 0.99
48 0.86
-48 0.14
49 0.72
-49 0.28
50 0.99
-50 0.010000000000000009
51 0.51
-51 0.49
52 0.49
-52 0.51
53 0.98
-53 0.020000000000000018
54 0.36
-54 0.64
55 0.75
-55 0.25
56 0.1
-56 0.9
57 0.41
-57 0.5900000000000001
58 0.9
-58 0.09999999999999998
59 0.45
-59 0.55
60 0.91
-60 0.08999999999999997
61 0.52
-61 0.48
62 0.34
-62 0.6599999999999999
63 0.54
-63 0.45999999999999996
64 0.66
-64 0.33999999999999997
65 0.33
-65 0.6699999999999999
66 0.94
-66 0.06000000000000005
67 0.47
-67 0.53
68 0.4
-68 0.6
69 0.64
-69 0.36
70 0.25
-70 0.75
