1 0.04
-1 0.96
2 0.63
-2 0.37
3 0.68
-3 0.31999999999999995
4 0.91
-4 0.08999999999999997
5 0.15
-5 0.85
6 0.78
-6 0.21999999999999997
7 0.96
-7 0.040000000000000036
8 0.88
-8 0.12
9 0.64
-9 0.36
10 0.51
-10 0.49
11 0.81
-11 0.18999999999999995
12 0.47
-12 0.53
13 0.9
-13 0.09999999999999998
14 0.11
-14 0.89
15 0.12
-15 0.88
16 0.46
-16 0.54
17 0.96
-17 0.040000000000000036
18 0.81
-18 0.18999999999999995
19 0.75
-19 0.25
20 0.18
-20 0.8200000000000001
21 0.4
-21 0.6
22 0.54
-22 0.45999999999999996
23 0.68
-23 0.31999999999999995
24 0.51
-24 0.49
25 0.84
-25 0.16000000000000003
26 0.3
-26 0.7
27 0.79
-27 0.20999999999999996
28 0.45
-28 0.55
29 0.18
-29 0.8200000000000001
30 0.64
-30 0.36
31 0.99
-31 0.010000000000000009
32 0.83
-32 0.17000000000000004
33 0.26
-33 0.74
34 0.04
-34 0.96
35 0.36
-35 0.64
36 0.75
-36 0.25
37 0.48
-37 0.52
38 0.03
-38 0.97
39 0.3
-39 0.7
40 0.42
-40 0.5800000000000001
41 0.31
-41 0.69
42 0.95
-42 0.050000000000000044
43 0.28
-43 0.72
44 0.22
-44 0.78
45 0.71
-45 0.29000000000000004
46 0.44
-46 0.56
47 0.41
-47 0.5900000000000001
48 0.5
-48 0.5
49 0.49
-49 0.51
50 0.82
-50 0.18000000000000005
51 0.68
-51 0.31999999999999995
52 0.49
-52 0.51
53 0.81
-53 0.18999999999999995
54 0.22
-54 0.78
55 0.88
-55 0.12
56 0.5
-56 0.5
57 0.42
-57 0.5800000000000001
58 0.4
-58 0.6
59 0.23
-59 0.77
60 0.11
-60 0.89
61 0.34
-61 0.6599999999999999
62 0.65
-62 0.35
63 0.47
-63 0.53
64 0.03
-64 0.97
65 0.85
-65 0.15000000000000002
66 0.03
-66 0.97
67 0.62
-67 0.38
68 0.91
-68 0.08999999999999997
69 0.22
-69 0.78
70 0.47
-70 0.53
