1 0.52
-1 0.48
2 0.41
-2 0.5900000000000001
3 0.61
-3 0.39
4 0.94
-4 0.06000000000000005
5 0.17
-5 0.83
6 0.87
-6 0.13
7 0.66
-7 0.33999999999999997
8 0.17
-8 0.83
9 0.47
-9 0.53
10 0.5
-10 0.5
11 0.63
-11 0.37
12 0.91
-12 0.08999999999999997
13 0.42
-13 0.5800000000000001
14 0.56
-14 0.43999999999999995
15 0.1
-15 0.9
16 0.11
-16 0.89
17 0.8
-17 0.19999999999999996
18 0.32
-18 0.6799999999999999
19 0.79
-19 0.20999999999999996
20 0.08
-20 0.92
21 0.88
-21 0.12
22 0.03
-22 0.97
23 0.3
-23 0.7
24 0.85
-24 0.15000000000000002
25 0.51
-25 0.49
26 0.51
-26 0.49
27 0.58
-27 0.42000000000000004
28 0.46
-28 0.54
29 0.68
-29 0.31999999999999995
30 0.08
-30 0.92
31 0.87
-31 0.13
32 0.99
-32 0.010000000000000009
33 0.57
-33 0.43000000000000005
34 0.51
-34 0.49
35 0.47
-35 0.53
36 0.45
-36 0.55
37 0.18
-37 0.8200000000000001
38 0.29
-38 0.71
39 0.98
-39 0.020000000000000018
40 0.59
-40 0.41000000000000003
41 0.86
-41 0.14
42 0.49
-42 0.51
43 0.91
-43 0.08999999999999997
44 0.55
-44 0.44999999999999996
45 0.15
-45 0.85
46 0.64
-46 0.36
47 0.02
-47 0.98
48 0.64
-48 0.36
49 0.84
-49 0.16000000000000003
50 0.38
-50 0.62
51 0.92
-51 0.07999999999999996
52 0.6
-52 0.4
53 0.41
-53 0.5900000000000001
54 0.87
-54 0.13
55 0.17
-55 0.83
56 0.12
-56 0.88
57 0.68
-57 0.31999999999999995
58 0.09
-58 0.91
59 0.97
-59 0.030000000000000027
60 0.16
-60 0.84
61 0.92
-61 0.07999999999999996
62 0.04
-62 0.96
63 0.88
-63 0.12
64 0.23
-64 0.77
65 0.41
-65 0.5900000000000001
66 0.53
-66 0.47
67 0.62
-67 0.38
68 0.38
-68 0.62
69 0.24
-69 0.76
70 0.39
-70 0.61
