1 0.54
-1 0.45999999999999996
2 0.85
-2 0.15000000000000002
3 0.7
-3 0.30000000000000004
4 0.13
-4 0.87
5 0.49
-5 0.51
6 0.81
-6 0.18999999999999995
7 0.24
-7 0.76
8 0.47
-8 0.53
9 0.55
-9 0.44999999999999996
10 0.04
-10 0.96
11 0.81
-11 0.18999999999999995
12 0.73
-12 0.27
13 0.35
-13 0.65
14 0.62
-14 0.38
15 0.09
-15 0.91
16 0.28
-16 0.72
17 0.06
-17 0.94
18 0.3
-18 0.7
19 0.7
-19 0.30000000000000004
20 0.81
-20 0.18999999999999995
21 0.51
-21 0.49
22 0.85
-22 0.15000000000000002
23 0.33
-23 0.6699999999999999
24 0.28
-24 0.72
25 0.88
-25 0.12
26 0.64
-26 0.36
27 0.53
-27 0.47
28 0.88
-28 0.12
29 0.81
-29 0.18999999999999995
30 0.81
-30 0.18999999999999995
31 0.02
-31 0.98
32 0.64
-32 0.36
33 0.2
-33 0.8
34 0.06
-34 0.94
35 0.61
-35 0.39
36 0.98
-36 0.020000000000000018
37 0.03
-37 0.97
38 0.1
-38 0.9
39 0.88
-39 0.12
40 0.93
-40 0.06999999999999995
41 0.15
-41 0.85
42 0.21
-42 0.79
43 0.7
-43 0.30000000000000004
44 0.13
-44 0.87
45 0.87
-45 0.13
46 0.44
-46 0.56
47 0.58
-47 0.42000000000000004
48 0.06
-48 0.94
49 0.79
-49 0.20999999999999996
50 0.86
-50 0.14
51 0.43
-51 0.5700000000000001
52 0.1
-52 0.9
53 0.6
-53 0.4
54 0.2
-54 0.8
55 0.17
-55 0.83
56 0.66
-56 0.33999999999999997
57 0.71
-57 0.29000000000000004
58 0.38
-58 0.62
59 0.39
-59 0.61
60 0.07
-60 0.9299999999999999
61 0.35
-61 0.65
62 0.65
-62 0.35
63 0.08
-63 0.92
64 0.25
-64 0.75
65 0.99
-65 0.010000000000000009
66 0.96
-66 0.040000000000000036
67 0.74
-67 0.26
68 0.86
-68 0.14
69 0.95
-69 0.050000000000000044
70 0.17
-70 0.83
