1 0.49
-1 0.51
2 0.1
-2 0.9
3 0.32
-3 0.6799999999999999
4 0.61
-4 0.39
5 0.37
-5 0.63
6 0.78
-6 0.21999999999999997
7 0.49
-7 0.51
8 0.75
-8 0.25
9 0.59
-9 0.41000000000000003
10 0.23
-10 0.77
11 0.64
-11 0.36
12 0.48
-12 0.52
13 0.13
-13 0.87
14 0.85
-14 0.15000000000000002
15 0.66
-15 0.33999999999999997
16 0.54
-16 0.45999999999999996
17 0.44
-17 0.56
18 0.27
-18 0.73
19 0.37
-19 0.63
20 0.91
-20 0.08999999999999997
21 0.52
-21 0.48
22 0.32
-22 0.6799999999999999
23 0.2
-23 0.8
24 0.45
-24 0.55
25 0.23
-25 0.77
26 0.88
-26 0.12
27 0.48
-27 0.52
28 0.98
-28 0.020000000000000018
29 0.18
-29 0.8200000000000001
30 0.04
-30 0.96
31 0.58
-31 0.42000000000000004
32 0.77
-32 0.22999999999999998
33 0.04
-33 0.96
34 0.1
-34 0.9
35 0.98
-35 0.020000000000000018
36 0.44
-36 0.56
37 0.13
-37 0.87
38 0.76
-38 0.24
39 0.97
-39 0.030000000000000027
40 0.21
-40 0.79
41 0.86
-41 0.14
42 0.61
-42 0.39
43 0.77
-43 0.22999999999999998
44 0.36
-44 0.64
45 0.9
-45 0.09999999999999998
46 0.88
-46 0.12
47 0.66
-47 0.33999999999999997
48 0.75
-48 0.25
49 0.42
-49 0.5800000000000001
50 0.1
-50 0.9
51 0.65
-51 0.35
52 0.79
-52 0.20999999999999996
53 0.14
-53 0.86
54 0.24
-54 0.76
55 0.17
-55 0.83
56 0.45
-56 0.55
57 0.85
-57 0.15000000000000002
58 0.94
-58 0.06000000000000005
59 0.98
-59 0.020000000000000018
60 0.36
-60 0.64
61 0.1
-61 0.9
62 0.71
-62 0.29000000000000004
63 0.65
-63 0.35
64 0.74
-64 0.26
65 0.08
-65 0.92
66 0.02
-66 0.98
67 0.96
-67 0.040000000000000036
68 0.11
-68 0.89
69 0.13
-69 0.87
70 0.85
-70 0.15000000000000002
