1 0.46
-1 0.54
2 0.78
-2 0.21999999999999997
3 0.03
-3 0.97
4 0.95
-4 0.050000000000000044
5 0.09
-5 0.91
6 0.92
-6 0.07999999999999996
7 0.71
-7 0.29000000000000004
8 0.58
-8 0.42000000000000004
9 0.42
-9 0.5800000000000001
10 0.9
-10 0.09999999999999998
11 0.87
-11 0.13
12 0.56
-12 0.43999999999999995
13 0.24
-13 0.76
14 0.52
-14 0.48
15 0.41
-15 0.5900000000000001
16 0.31
-16 0.69
17 0.17
-17 0.83
18 0.39
-18 0.61
19 0.27
-19 0.73
20 0.81
-20 0.18999999999999995
21 0.45
-21 0.55
22 0.56
-22 0.43999999999999995
23 0.77
-23 0.22999999999999998
24 0.12
-24 0.88
25 0.63
-25 0.37
26 0.77
-26 0.22999999999999998
27 0.2
-27 0.8
28 0.48
-28 0.52
29 0.43
-29 0.5700000000000001
30 0.99
-30 0.010000000000000009
31 0.97
-31 0.030000000000000027
32 0.08
-32 0.92
33 0.14
-33 0.86
34 0.78
-34 0.21999999999999997
35 0.68
-35 0.31999999999999995
36 0.31
-36 0.69
37 0.38
-37 0.62
38 0.3
-38 0.7
39 0.47
-39 0.53
40 0.04
-40 0.96
41 0.49
-41 0.51
42 0.42
-42 0.5800000000000001
43 0.69
-43 0.31000000000000005
44 0.43
-44 0.5700000000000001
45 0.8
-45 0.19999999999999996
46 0.24
-46 0.76
47 0.41
-47 0.5900000000000001
48 0.65
-48 0.35
49 0.61
-49 0.39
50 0.94
-50 0.06000000000000005
51 0.73
-51 0.27
52 0.96
-52 0.040000000000000036
53 0.57
-53 0.43000000000000005
54 0.38
-54 0.62
55 0.51
-55 0.49
56 0.69
-56 0.31000000000000005
57 0.49
-57 0.51
58 0.42
-58 0.5800000000000001
59 0.37
-59 0.63
60 0.54
-60 0.45999999999999996
61 0.37
-61 0.63
62 0.6
-62 0.4
63 0.76
-63 0.24
64 0.35
-64 0.65
65 0.75
-65 0.25
66 0.04
-66 0.96
67 0.76
-67 0.24
68 0.43
-68 0.5700000000000001
69 0.97
-69 0.030000000000000027
70 0.12
-70 0.88
