1 0.11
-1 0.89
2 0.14
-2 0.86
3 0.51
-3 0.49
4 0.88
-4 0.12
5 0.23
-5 0.77
6 0.19
-6 0.81
7 0.5
-7 0.5
8 0.78
-8 0.21999999999999997
9 0.16
-9 0.84
10 0.94
-10 0.06000000000000005
11 0.52
-11 0.48
12 0.64
-12 0.36
13 0.02
-13 0.98
14 0.07
-14 0.9299999999999999
15 0.88
-15 0.12
16 0.97
-16 0.030000000000000027
17 0.12
-17 0.88
18 0.77
-18 0.22999999999999998
19 0.49
-19 0.51
20 0.34
-20 0.6599999999999999
21 0.5
-21 0.5
22 0.24
-22 0.76
23 0.06
-23 0.94
24 0.83
-24 0.17000000000000004
25 0.91
-25 0.08999999999999997
26 0.93
-26 0.06999999999999995
27 0.99
-27 0.010000000000000009
28 0.21
-28 0.79
29 0.44
-29 0.56
30 0.58
-30 0.42000000000000004
31 0.84
-31 0.16000000000000003
32 0.91
-32 0.08999999999999997
33 0.55
-33 0.44999999999999996
34 0.61
-34 0.39
35 0.51
-35 0.49
36 0.63
-36 0.37
37 0.1
-37 0.9
38 0.98
-38 0.020000000000000018
39 0.94
-39 0.06000000000000005
40 0.36
-40 0.64
41 0.63
-41 0.37
42 0.1
-42 0.9
43 0.57
-43 0.43000000000000005
44 0.33
-44 0.6699999999999999
45 0.6
-45 0.4
46 0.43
-46 0.5700000000000001
47 0.64
-47 0.36
48 0.04
-48 0.96
49 0.03
-49 0.97
50 0.17
-50 0.83
51 0.05
-51 0.95
52 0.68
-52 0.31999999999999995
53 0.72
-53 0.28
54 0.89
-54 0.10999999999999999
55 0.79
-55 0.20999999999999996
56 0.85
-56 0.15000000000000002
57 0.01
-57 0.99
58 0.75
-58 0.25
59 0.93
-59 0.06999999999999995
60 0.02
-60 0.98
61 0.46
-61 0.54
62 0.64
-62 0.36
63 0.61
-63 0.39
64 0.27
-64 0.73
65 0.59
-65 0.41000000000000003
66 0.44
-66 0.56
67 0.86
-67 0.14
68 0.86
-68 0.14
69 0.19
-69 0.81
70 0.08
-70 0.92
