1 0.89
-1 0.10999999999999999
2 0.72
-2 0.28
3 0.99
-3 0.010000000000000009
4 0.31
-4 0.69
5 0.52
-5 0.48
6 0.35
-6 0.65
7 0.34
-7 0.6599999999999999
8 0.91
-8 0.08999999999999997
9 0.72
-9 0.28
10 0.9
-10 0.09999999999999998
11 0.78
-11 0.21999999999999997
12 0.41
-12 0.5900000000000001
13 0.06
-13 0.94
14 0.6
-14 0.4
15 0.17
-15 0.83
16 0.59
-16 0.41000000000000003
17 0.41
-17 0.5900000000000001
18 0.49
-18 0.51
19 0.54
-19 0.45999999999999996
20 0.24
-20 0.76
21 0.21
-21 0.79
22 0.34
-22 0.6599999999999999
23 0.38
-23 0.62
24 0.31
-24 0.69
25 0.1
-25 0.9
26 0.34
-26 0.6599999999999999
27 0.86
-27 0.14
28 0.48
-28 0.52
29 0.79
-29 0.20999999999999996
30 0.08
-30 0.92
31 0.43
-31 0.5700000000000001
32 0.43
-32 0.5700000000000001
33 0.99
-33 0.010000000000000009
34 0.05
-34 0.95
35 0.64
-35 0.36
36 0.01
-36 0.99
37 0.46
-37 0.54
38 0.22
-38 0.78
39 0.87
-39 0.13
40 0.67
-40 0.32999999999999996
41 0.85
-41 0.15000000000000002
42 0.33
-42 0.6699999999999999
43 0.88
-43 0.12
44 0.63
-44 0.37
45 0.54
-45 0.45999999999999996
46 0.53
-46 0.47
47 0.22
-47 0.78
48 0.66
-48 0.33999999999999997
49 0.69
-49 0.31000000000000005
50 0.2
-50 0.8
51 0.11
-51 0.89
52 0.43
-52 0.5700000000000001
53 0.38
-53 0.62
54 0.19
-54 0.81
55 0.89
-55 0.10999999999999999
56 0.75
-56 0.25
57 0.33
-57 0.6699999999999999
58 0.57
-58 0.43000000000000005
59 0.18
-59 0.8200000000000001
60 0.97
-60 0.030000000000000027
61 0.56
-61 0.43999999999999995
62 0.87
-62 0.13
63 0.61
-63 0.39
64 0.51
-64 0.49
65 0.25
-65 0.75
66 0.34
-66 0.6599999999999999
67 0.88
-67 0.12
68 0.59
-68 0.41000000000000003
69 0.54
-69 0.45999999999999996
70 0.12
-70 0.88
