1 0.35
-1 0.65
2 0.85
-2 0.15000000000000002
3 0.89
-3 0.10999999999999999
4 0.52
-4 0.48
5 0.93
-5 0.06999999999999995
6 0.89
-6 0.10999999999999999
7 0.67
-7 0.32999999999999996
8 0.04
-8 0.96
9 0.89
-9 0.10999999999999999
10 0.96
-10 0.040000000000000036
11 0.36
-11 0.64
12 0.62
-12 0.38
13 0.6
-13 0.4
14 0.66
-14 0.33999999999999997
15 0.37
-15 0.63
16 0.02
-16 0.98
17 0.15
-17 0.85
18 0.92
-18 0.07999999999999996
19 0.11
-19 0.89
20 0.62
-20 0.38
21 0.96
-21 0.040000000000000036
22 0.42
-22 0.5800000000000001
23 0.18
-23 0.8200000000000001
24 0.96
-24 0.040000000000000036
25 0.81
-25 0.18999999999999995
26 0.18
-26 0.8200000000000001
27 0.42
-27 0.5800000000000001
28 0.37
-28 0.63
29 0.9
-29 0.09999999999999998
30 0.18
-30 0.8200000000000001
31 0.06
-31 0.94
32 0.9
-32 0.09999999999999998
33 0.66
-33 0.33999999999999997
34 0.29
-34 0.71
35 0.12
-35 0.88
36 0.61
-36 0.39
37 0.57
-37 0.43000000000000005
38 0.45
-38 0.55
39 0.79
-39 0.20999999999999996
40 0.43
-40 0.5700000000000001
41 0.65
-41 0.35
42 0.16
-42 0.84
43 0.1
-43 0.9
44 0.74
-44 0.26
45 0.96
-45 0.040000000000000036
46 0.7
-46 0.30000000000000004
47 0.04
-47 0.96
48 0.51
-48 0.49
49 0.42
-49 0.5800000000000001
50 0.05
-50 0.95
51 0.81
-51 0.18999999999999995
52 0.99
-52 0.010000000000000009
53 0.94
-53 0.06000000000000005
54 0.69
-54 0.31000000000000005
55 0.39
-55 0.61
56 0.99
-56 0.010000000000000009
57 0.39
-57 0.61
58 0.46
-58 0.54
59 0.92
-59 0.07999999999999996
60 0.05
-60 0.95
61 0.65
-61 0.35
62 0.09
-62 0.91
63 0.61
-63 0.39
64 0.14
-64 0.86
65 0.52
-65 0.48
66 0.63
-66 0.37
67 0.07
-67 0.9299999999999999
68 0.56
-68 0.43999999999999995
69 0.81
-69 0.18999999999999995
70 0.73
-70 0.27
