1 0.08
-1 0.92
2 0.2
-2 0.8
3 0.33
-3 0.6699999999999999
4 0.15
-4 0.85
5 0.45
-5 0.55
6 0.69
-6 0.31000000000000005
7 0.8
-7 0.19999999999999996
8 0.93
-8 0.06999999999999995
9 0.7
-9 0.30000000000000004
10 0.32
-10 0.6799999999999999
11 0.96
-11 0.040000000000000036
12 0.88
-12 0.12
13 0.57
-13 0.43000000000000005
14 0.78
-14 0.21999999999999997
15 0.49
-15 0.51
16 0.93
-16 0.06999999999999995
17 0.5
-17 0.5
18 0.12
-18 0.88
19 0.86
-19 0.14
20 0.76
-20 0.24
21 0.29
-21 0.71
22 0.89
-22 0.10999999999999999
23 0.5
-23 0.5
24 0.68
-24 0.31999999999999995
25 0.44
-25 0.56
26 0.79
-26 0.20999999999999996
27 0.48
-27 0.52
28 0.28
-28 0.72
29 0.6
-29 0.4
30 0.34
-30 0.6599999999999999
31 0.93
-31 0.06999999999999995
32 0.75
-32 0.25
33 0.84
-33 0.16000000000000003
34 0.7
-34 0.30000000000000004
35 0.7
-35 0.30000000000000004
36 0.36
-36 0.64
37 0.91
-37 0.08999999999999997
38 0.52
-38 0.48
39 0.91
-39 0.08999999999999997
40 0.81
-40 0.18999999999999995
41 0.17
-41 0.83
42 0.52
-42 0.48
43 0.77
-43 0.22999999999999998
44 0.9
-44 0.09999999999999998
45 0.6
-45 0.4
46 0.85
-46 0.15000000000000002
47 0.01
-47 0.99
48 0.54
-48 0.45999999999999996
49 0.13
-49 0.87
50 0.38
-50 0.62
51 0.5
-51 0.5
52 0.5
-52 0.5
53 0.44
-53 0.56
54 0.3
-54 0.7
55 0.03
-55 0.97
56 0.25
-56 0.75
57 0.42
-57 0.5800000000000001
58 0.94
-58 0.06000000000000005
59 0.46
-59 0.54
60 0.16
-60 0.84
61 0.93
-61 0.06999999999999995
62 0.99
-62 0.010000000000000009
63 0.1
-63 0.9
64 0.68
-64 0.31999999999999995
65 0.99
-65 0.010000000000000009
66 0.19
-66 0.81
67 0.63
-67 0.37
68 0.74
-68 0.26
69 0.43
-69 0.5700000000000001
70 0.91
-70 0.08999999999999997
