1 0.48
-1 0.52
2 0.05
-2 0.95
3 0.4
-3 0.6
4 0.12
-4 0.88
5 0.92
-5 0.07999999999999996
6 0.93
-6 0.06999999999999995
7 0.55
-7 0.44999999999999996
8 0.49
-8 0.51
9 0.57
-9 0.43000000000000005
10 0.03
-10 0.97
11 0.31
-11 0.69
12 0.57
-12 0.43000000000000005
13 0.49
-13 0.51
14 0.71
-14 0.29000000000000004
15 0.5
-15 0.5
16 0.88
-16 0.12
17 0.21
-17 0.79
18 0.99
-18 0.010000000000000009
19 0.5
-19 0.5
20 0.23
-20 0.77
21 0.7
-21 0.30000000000000004
22 0.07
-22 0.9299999999999999
23 0.31
-23 0.69
24 0.43
-24 0.5700000000000001
25 0.27
-25 0.73
26 0.5
-26 0.5
27 0.4
-27 0.6
28 0.06
-28 0.94
29 0.14
-29 0.86
30 0.06
-30 0.94
31 0.66
-31 0.33999999999999997
32 0.1
-32 0.9
33 0.6
-33 0.4
34 0.64
-34 0.36
35 0.27
-35 0.73
36 0.44
-36 0.56
37 0.19
-37 0.81
38 0.73
-38 0.27
39 0.68
-39 0.31999999999999995
40 0.38
-40 0.62
41 0.65
-41 0.35
42 0.97
-42 0.030000000000000027
43 0.9
-43 0.09999999999999998
44 0.96
-44 0.040000000000000036
45 0.09
-45 0.91
46 0.49
-46 0.51
47 0.21
-47 0.79
48 0.14
-48 0.86
49 0.02
-49 0.98
50 0.43
-50 0.5700000000000001
51 0.03
-51 0.97
52 0.14
-52 0.86
53 0.88
-53 0.12
54 0.36
-54 0.64
55 0.93
-55 0.06999999999999995
56 0.08
-56 0.92
57 0.09
-57 0.91
58 0.21
-58 0.79
59 0.98
-59 0.020000000000000018
60 0.59
-60 0.41000000000000003
61 0.46
-61 0.54
62 0.91
-62 0.08999999999999997
63 0.41
-63 0.5900000000000001
64 0.46
-64 0.54
65 0.59
-65 0.41000000000000003
66 0.04
-66 0.96
67 0.21
-67 0.79
68 0.02
-68 0.98
69 0.52
-69 0.48
70 0.69
-70 0.31000000000000005
