1 0.29
-1 0.71
2 0.74
-2 0.26
3 0.98
-3 0.020000000000000018
4 0.42
-4 0.5800000000000001
5 0.57
-5 0.43000000000000005
6 0.41
-6 0.5900000000000001
7 0.75
-7 0.25
8 0.16
-8 0.84
9 0.2
-9 0.8
10 0.18
-10 0.8200000000000001
11 0.44
-11 0.56
12 0.76
-12 0.24
13 0.34
-13 0.6599999999999999
14 0.65
-14 0.35
15 0.97
-15 0.030000000000000027
16 0.11
-16 0.89
17 0.44
-17 0.56
18 0.13
-18 0.87
19 0.34
-19 0.6599999999999999
20 0.04
-20 0.96
21 0.92
-21 0.07999999999999996
22 0.97
-22 0.030000000000000027
23 0.22
-23 0.78
24 0.11
-24 0.89
25 0.3
-25 0.7
26 0.8
-26 0.19999999999999996
27 0.17
-27 0.83
28 0.98
-28 0.020000000000000018
29 0.57
-29 0.43000000000000005
30 0.28
-30 0.72
31 0.38
-31 0.62
32 0.59
-32 0.41000000000000003
33 0.12
-33 0.88
34 0.96
-34 0.040000000000000036
35 0.08
-35 0.92
36 0.58
-36 0.42000000000000004
37 0.73
-37 0.27
38 0.84
-38 0.16000000000000003
39 0.43
-39 0.5700000000000001
40 0.94
-40 0.06000000000000005
41 0.47
-41 0.53
42 0.29
-42 0.71
43 0.56
-43 0.43999999999999995
44 0.53
-44 0.47
45 0.17
-45 0.83
46 0.98
-46 0.020000000000000018
47 0.37
-47 0.63
48 0.25
-48 0.75
49 0.22
-49 0.78
50 0.14
-50 0.86
51 0.64
-51 0.36
52 0.02
-52 0.98
53 0.84
-53 0.16000000000000003
54 0.64
-54 0.36
55 0.87
-55 0.13
56 0.49
-56 0.51
57 0.18
-57 0.8200000000000001
58 0.56
-58 0.43999999999999995
59 0.7
-59 0.30000000000000004
60 0.77
-60 0.22999999999999998
61 0.71
-61 0.29000000000000004
62 0.94
-62 0.06000000000000005
63 0.74
-63 0.26
64 0.25
-64 0.75
65 0.44
-65 0.56
66 0.05
-66 0.95
67 0.12
-67 0.88
68 0.22
-68 0.78
69 0.57
-69 0.43000000000000005
70 0.3
-70 0.7
