1 0.91
-1 0.08999999999999997
2 0.59
-2 0.41000000000000003
3 0.84
-3 0.16000000000000003
4 0.61
-4 0.39
5 0.67
-5 0.32999999999999996
6 0.27
-6 0.73
7 0.08
-7 0.92
8 0.04
-8 0.96
9 0.47
-9 0.53
10 0.31
-10 0.69
11 0.67
-11 0.32999999999999996
12 0.1
-12 0.9
13 0.19
-13 0.81
14 0.75
-14 0.25
15 0.53
-15 0.47
16 0.49
-16 0.51
17 0.64
-17 0.36
18 0.67
-18 0.32999999999999996
19 0.49
-19 0.51
20 0.47
-20 0.53
21 0.29
-21 0.71
22 0.64
-22 0.36
23 0.15
-23 0.85
24 0.95
-24 0.050000000000000044
25 0.99
-25 0.010000000000000009
26 0.53
-26 0.47
27 0.29
-27 0.71
28 0.65
-28 0.35
29 0.34
-29 0.6599999999999999
30 0.57
-30 0.43000000000000005
31 0.61
-31 0.39
32 0.59
-32 0.41000000000000003
33 0.18
-33 0.8200000000000001
34 0.04
-34 0.96
35 0.71
-35 0.29000000000000004
36 0.42
-36 0.5800000000000001
37 0.83
-37 0.17000000000000004
38 0.28
-38 0.72
39 0.03
-39 0.97
40 0.46
-40 0.54
41 0.44
-41 0.56
42 0.52
-42 0.48
43 0.89
-43 0.10999999999999999
44 0.93
-44 0.06999999999999995
45 0.77
-45 0.22999999999999998
46 0.82
-46 0.18000000000000005
47 0.3
-47 0.7
48 0.95
-48 0.050000000000000044
49 0.53
-49 0.47
50 0.11
-50 0.89
51 0.85
-51 0.15000000000000002
52 0.28
-52 0.72
53 0.43
-53 0.5700000000000001
54 0.72
-54 0.28
55 0.59
-55 0.41000000000000003
56 0.69
-56 0.31000000000000005
57 0.66
-57 0.33999999999999997
58 0.45
-58 0.55
59 0.13
-59 0.87
60 0.36
-60 0.64
61 0.88
-61 0.12
62 0.09
-62 0.91
63 0.65
-63 0.35
64 0.2
-64 0.8
65 0.88
-65 0.12
66 0.89
-66 0.10999999999999999
67 0.74
-67 0.26
68 0.91
-68 0.08999999999999997
69 0.41
-69 0.5900000000000001
70 0.69
-70 0.31000000000000005
