1 0.59
-1 0.41000000000000003
2 0.53
-2 0.47
3 0.35
-3 0.65
4 0.6
-4 0.4
5 0.95
-5 0.050000000000000044
6 0.36
-6 0.64
7 0.01
-7 0.99
8 0.08
-8 0.92
9 0.48
-9 0.52
10 0.45
-10 0.55
11 0.21
-11 0.79
12 0.29
-12 0.71
13 0.76
-13 0.24
14 0.28
-14 0.72
15 0.44
-15 0.56
16 0.75
-16 0.25
17 0.24
-17 0.76
18 0.31
-18 0.69
19 0.5
-19 0.5
20 0.49
-20 0.51
21 0.49
-21 0.51
22 0.29
-22 0.71
23 0.65
-23 0.35
24 0.08
-24 0.92
25 0.32
-25 0.6799999999999999
26 0.66
-26 0.33999999999999997
27 0.55
-27 0.44999999999999996
28 0.06
-28 0.94
29 0.59
-29 0.41000000000000003
30 0.75
-30 0.25
31 0.45
-31 0.55
32 0.2
-32 0.8
33 0.53
-33 0.47
34 0.4
-34 0.6
35 0.59
-35 0.41000000000000003
36 0.72
-36 0.28
37 0.93
-37 0.06999999999999995
38 0.16
-38 0.84
39 0.94
-39 0.06000000000000005
40 0.75
-40 0.25
41 0.89
-41 0.10999999999999999
42 0.46
-42 0.54
43 0.44
-43 0.56
44 0.03
-44 0.97
45 0.08
-45 0.92
46 0.81
-46 0.18999999999999995
47 0.34
-47 0.6599999999999999
48 0.58
-48 0.42000000000000004
49 0.24
-49 0.76
50 0.52
-50 0.48
51 0.6
-51 0.4
52 0.16
-52 0.84
53 0.89
-53 0.10999999999999999
54 0.06
-54 0.94
55 0.91
-55 0.08999999999999997
56 0.95
-56 0.050000000000000044
57 0.33
-57 0.6699999999999999
58 0.13
-58 0.87
59 0.51
-59 0.49
60 0.74
-60 0.26
61 0.94
-61 0.06000000000000005
62 0.61
-62 0.39
63 0.02
-63 0.98
64 0.79
-64 0.20999999999999996
65 0.69
-65 0.31000000000000005
66 0.22
-66 0.78
67 0.24
-67 0.76
68 0.98
-68 0.020000000000000018
69 0.35
-69 0.65
70 0.69
-70 0.31000000000000005
