1 0.27
-1 0.73
2 0.39
-2 0.61
3 0.54
-3 0.45999999999999996
4 0.38
-4 0.62
5 0.23
-5 0.77
6 0.9
-6 0.09999999999999998
7 0.59
-7 0.41000000000000003
8 0.48
-8 0.52
9 0.18
-9 0.8200000000000001
10 0.31
-10 0.69
11 0.36
-11 0.64
12 0.76
-12 0.24
13 0.2
-13 0.8
14 0.68
-14 0.31999999999999995
15 0.81
-15 0.18999999999999995
16 0.6
-16 0.4
17 0.94
-17 0.06000000000000005
18 0.28
-18 0.72
19 0.5
-19 0.5
20 0.68
-20 0.31999999999999995
21 0.09
-21 0.91
22 0.6
-22 0.4
23 0.9
-23 0.09999999999999998
24 0.94
-24 0.06000000000000005
25 0.53
-25 0.47
26 0.59
-26 0.41000000000000003
27 0.31
-27 0.69
28 0.48
-28 0.52
29 0.2
-29 0.8
30 0.11
-30 0.89
31 0.88
-31 0.12
32 0.83
-32 0.17000000000000004
33 0.49
-33 0.51
34 0.33
-34 0.6699999999999999
35 0.6
-35 0.4
36 0.57
-36 0.43000000000000005
37 0.14
-37 0.86
38 0.31
-38 0.69
39 0.61
-39 0.39
40 0.74
-40 0.26
41 0.97
-41 0.030000000000000027
42 0.51
-42 0.49
43 0.11
-43 0.89
44 0.87
-44 0.13
45 0.1
-45 0.9
46 0.49
-46 0.51
47 0.31
-47 0.69
48 0.52
-48 0.48
49 0.49
-49 0.51
50 0.1
-50 0.9
51 0.15
-51 0.85
52 0.19
-52 0.81
53 0.63
-53 0.37
54 0.21
-54 0.79
55 0.36
-55 0.64
56 0.57
-56 0.43000000000000005
57 0.17
-57 0.83
58 0.32
-58 0.6799999999999999
59 0.26
-59 0.74
60 0.06
-60 0.94
61 0.51
-61 0.49
62 0.88
-62 0.12
63 0.2
-63 0.8
64 0.66
-64 0.33999999999999997
65 0.48
-65 0.52
66 0.08
-66 0.92
67 0.86
-67 0.14
68 0.01
-68 0.99
69 0.09
-69 0.91
70 0.83
-70 0.17000000000000004
