1 0.46
-1 0.54
2 0.28
-2 0.72
3 0.85
-3 0.15000000000000002
4 0.32
-4 0.6799999999999999
5 0.33
-5 0.6699999999999999
6 0.04
-6 0.96
7 0.89
-7 0.10999999999999999
8 0.21
-8 0.79
9 0.63
-9 0.37
10 0.05
-10 0.95
11 0.89
-11 0.10999999999999999
12 0.14
-12 0.86
13 0.43
-13 0.5700000000000001
14 0.33
-14 0.6699999999999999
15 0.05
-15 0.95
16 0.83
-16 0.17000000000000004
17 0.35
-17 0.65
18 0.76
-18 0.24
19 0.56
-19 0.43999999999999995
20 0.01
-20 0.99
21 0.19
-21 0.81
22 0.9
-22 0.09999999999999998
23 0.38
-23 0.62
24 0.18
-24 0.8200000000000001
25 0.13
-25 0.87
26 0.03
-26 0.97
27 0.76
-27 0.24
28 0.38
-28 0.62
29 0.44
-29 0.56
30 0.27
-30 0.73
31 0.51
-31 0.49
32 0.47
-32 0.53
33 0.21
-33 0.79
34 0.51
-34 0.49
35 0.16
-35 0.84
36 0.44
-36 0.56
37 0.93
-37 0.06999999999999995
38 0.21
-38 0.79
39 0.97
-39 0.030000000000000027
40 0.62
-40 0.38
41 0.57
-41 0.43000000000000005
42 0.1
-42 0.9
43 0.92
-43 0.07999999999999996
44 0.85
-44 0.15000000000000002
45 0.92
-45 0.07999999999999996
46 0.53
-46 0.47
47 0.54
-47 0.45999999999999996
48 0.63
-48 0.37
49 0.79
-49 0.20999999999999996
50 0.99
-50 0.010000000000000009
51 0.24
-51 0.76
52 0.45
-52 0.55
53 0.52
-53 0.48
54 0.99
-54 0.010000000000000009
55 0.75
-55 0.25
56 0.88
-56 0.12
57 0.41
-57 0.5900000000000001
58 0.72
-58 0.28
59 0.54
-59 0.45999999999999996
60 0.82
-60 0.18000000000000005
61 0.16
-61 0.84
62 0.4
-62 0.6
63 0.12
-63 0.88
64 0.98
-64 0.020000000000000018
65 0.45
-65 0.55
66 0.67
-66 0.32999999999999996
67 0.86
-67 0.14
68 0.75
-68 0.25
69 0.95
-69 0.050000000000000044
70 0.75
-70 0.25
